[[-0.21325392 -0.36155772  0.14526133]
 [ 0.38975817 -0.14978565  0.00056562]
 [ 0.505567    0.17978352 -0.3203914 ]]
[[ 0.5069055  -0.06885467  0.3807458 ]
 [-0.14482465  0.0156017   0.00273488]
 [-0.399448   -0.310769   -0.36044922]]
[[ 0.04127826  0.07230405  0.38026634]
 [-0.47791046  0.17123525  0.18789724]
 [-0.39963317  0.36084577 -0.11966101]]
[[-0.17032033  0.19056071  0.21000776]
 [-0.241953   -0.23850016  0.28047523]
 [-0.05509245 -0.11056396  0.12277515]]
[[-0.14042528 -0.16757372 -0.2920107 ]
 [ 0.04322015  0.20465465 -0.13173425]
 [ 0.5063525   0.3230596  -0.08494162]]
[[ 0.2890229   0.30340177 -0.32307276]
 [-0.05157072  0.14870258 -0.19933903]
 [-0.01429871  0.20877808  0.14216606]]
[[ 0.22638151  0.10131183  0.22164224]
 [ 0.29197997  0.16753052 -0.07275145]
 [-0.3267507  -0.20941944 -0.0130245 ]]
[[ 0.20435178 -0.22453447  0.01288245]
 [ 0.50544614  0.19331022  0.09833221]
 [ 0.00247795 -0.25064766 -0.20346569]]
[[-0.10309386  0.3964476   0.08409844]
 [ 0.0260805   0.26442733  0.4445612 ]
 [-0.26391953 -0.4180284  -0.23389298]]
[[-0.0816201   0.04022157 -0.16294515]
 [ 0.18361215 -0.11866383  0.04953218]
 [-0.03393662 -0.2754727  -0.0498399 ]]
[[ 1.28156453e-01 -1.52581871e-01  3.90283894e-05]
 [ 1.80299088e-01 -2.50457197e-01 -4.83928323e-01]
 [ 2.93966651e-01  1.18108824e-01 -2.02043474e-01]]
[[ 0.02592652 -0.20945083  0.27464277]
 [ 0.11546075  0.00568496 -0.31460673]
 [-0.20541844 -0.05060408 -0.36342612]]
[[ 0.32698196  0.2911423   0.10902866]
 [-0.03511036  0.35469404 -0.05551729]
 [ 0.07066906 -0.19062823  0.28175455]]
[[-0.32099387 -0.25480023 -0.3994578 ]
 [ 0.0606522  -0.19074467  0.3250051 ]
 [ 0.34698802  0.33051246  0.16368628]]
[[-0.24717765 -0.15341514  0.2796718 ]
 [ 0.21547234 -0.2995281   0.33383837]
 [-0.41549355  0.17080157  0.35276237]]
[[ 0.00067538 -0.03033469 -0.2796907 ]
 [-0.11425467  0.24796814  0.11876287]
 [-0.45881307  0.33728376  0.12514856]]
[[ 0.00467304  0.37578088  0.060396  ]
 [ 0.25415927  0.0157538  -0.31150407]
 [-0.20057455 -0.28375185 -0.6827078 ]]
[[ 0.45165515 -0.29960924 -0.34387925]
 [ 0.02110556  0.24959512 -0.26569003]
 [ 0.09376255  0.38426435  0.29358366]]
[[-0.3748924  -0.30564034  0.1614533 ]
 [ 0.18201971  0.30368757  0.19749318]
 [ 0.19647181 -0.15540166  0.04917911]]
[[-0.11101338  0.18605216  0.06296235]
 [-0.27983958 -0.08535055 -0.19529358]
 [ 0.43421888 -0.1403495   0.18200299]]
[[-0.47631693 -0.01085504  0.31798625]
 [ 0.09896988 -0.22204399 -0.15552853]
 [ 0.12933461  0.16737594  0.06920613]]
[[-0.1430469  -0.20907648  0.28925526]
 [ 0.27524763  0.16419004 -0.10160658]
 [ 0.14807606 -0.06118824 -0.20973396]]
[[-0.3709673   0.11495455  0.01579117]
 [ 0.28647524  0.24692602  0.3023954 ]
 [ 0.20721515  0.15344587 -0.20357901]]
[[ 0.20851773  0.04046234 -0.3356695 ]
 [ 0.3452891  -0.40023872  0.02142661]
 [-0.04592656  0.03856369  0.04524114]]
[[-0.22604182 -0.46053436  0.23695275]
 [-0.12216505 -0.18573542  0.29942888]
 [ 0.04721668  0.32856193  0.07698111]]
[[ 0.3474245  -0.16564323  0.0948777 ]
 [ 0.15552892  0.27461407 -0.13267204]
 [ 0.17135295 -0.43197092 -0.16491039]]
[[ 0.00434285 -0.4627097  -0.12442832]
 [ 0.07360748 -0.02036986  0.3946356 ]
 [-0.20645913 -0.16940032  0.33826125]]
[[-0.44013998 -0.08350702  0.41124278]
 [-0.11963528 -0.11917295  0.08656204]
 [ 0.22150987  0.00457267  0.162065  ]]
[[-0.01230639  0.24761903  0.2312053 ]
 [ 0.3304661  -0.20309316  0.26778466]
 [ 0.28712344 -0.0104883   0.08294155]]
[[ 0.34903878  0.36648178 -0.14838986]
 [-0.21557742  0.0258712   0.14281878]
 [-0.16170582 -0.46971446 -0.34987476]]
[[ 0.19406787  0.37547     0.10616893]
 [ 0.11140629 -0.1975224  -0.0351586 ]
 [-0.04933808 -0.14555328 -0.36465672]]
[[ 0.08276109  0.22485885  0.3864009 ]
 [-0.01818692  0.36963758  0.11732828]
 [-0.39369848 -0.40409943 -0.22140476]]
