[[ 0.01159676  0.00615754 -0.04369504]
 [-0.01206545 -0.01652676 -0.01443582]
 [ 0.02087208 -0.06300899 -0.0555038 ]] [[-0.16233258 -0.22948413 -0.3628582 ]
 [-0.04665874  0.02489866 -0.15960497]
 [ 0.07808288  0.02639818  0.03197182]] [[-0.14506955 -0.19537811 -0.10166065]
 [-0.0971202  -0.10684622 -0.03972143]
 [-0.00083432 -0.03826446  0.0985401 ]] [[-0.03168073 -0.02080801 -0.08366696]
 [-0.06130667  0.00196469 -0.01714104]
 [-0.11959686 -0.07471123  0.06705666]] [[ 0.04834522 -0.04631612  0.00380256]
 [ 0.04067306 -0.00315909  0.05352303]
 [-0.1245342  -0.11159937 -0.10383496]] [[ 0.05564599  0.07365343  0.01908204]
 [ 0.03350902 -0.03923059  0.00633536]
 [ 0.01693378 -0.04406312  0.06419437]] [[-0.04740014 -0.00793244 -0.05232232]
 [ 0.03021202  0.00708157 -0.06037969]
 [ 0.07784223  0.11803735  0.07981396]] [[-0.0184716  -0.02329106 -0.04192273]
 [ 0.04410706  0.0868883   0.06872485]
 [ 0.0392243   0.01030067 -0.05391297]] [[-0.05564736 -0.06982455 -0.1746217 ]
 [-0.05064952  0.05357332  0.00679608]
 [ 0.06564437  0.03145364  0.10365584]] [[-0.03219998  0.01707513 -0.0055339 ]
 [-0.01775867 -0.01773497 -0.02315395]
 [ 0.01311726  0.021074    0.01827409]] [[ 0.05309561 -0.03936558 -0.08219546]
 [-0.10087211 -0.18593717 -0.12043521]
 [ 0.03352504 -0.11918349 -0.11280664]] [[ 0.01689444 -0.02585096 -0.02005603]
 [-0.01888562 -0.02489392  0.06007203]
 [-0.0197904   0.08936042  0.0272878 ]] [[ 0.05505028 -0.01988688  0.04682608]
 [ 0.03978405 -0.00971436  0.07671636]
 [ 0.04726228  0.00389999  0.02918033]] [[ 0.01064421  0.08487433  0.16681497]
 [-0.04524895  0.04775229 -0.11020225]
 [-0.19638163 -0.27175432 -0.42032343]] [[-0.0562254   0.03596184  0.02112947]
 [-0.06707487 -0.05299711  0.10833424]
 [-0.16026    -0.02401046  0.05239266]] [[-0.13790649 -0.03481192  0.05389863]
 [ 0.01224803 -0.09948204 -0.0241881 ]
 [-0.03175458 -0.12612383 -0.01579655]] [[-0.14294831 -0.24311085 -0.16833335]
 [-0.03763067 -0.02455506 -0.13657251]
 [-0.02996117 -0.0439248  -0.06297699]] [[ 0.02072688  0.08819979  0.09244208]
 [ 0.00982781  0.0086533  -0.01424723]
 [-0.16591    -0.21102683 -0.03126141]] [[-0.04484696 -0.03113683  0.01923747]
 [ 0.05196672  0.01442613  0.06610406]
 [ 0.02553584 -0.04702434 -0.01571641]] [[-0.02358068  0.04292609  0.06556994]
 [-0.03640679 -0.01632537  0.00127418]
 [-0.02570521 -0.07781433 -0.0183221 ]] [[-0.07676543 -0.04832125 -0.06246751]
 [-0.06639836 -0.15367764 -0.02425729]
 [-0.12178787 -0.1235834  -0.12571916]] [[ 0.06984118  0.03317631  0.03089947]
 [ 0.03128437 -0.01001738  0.01781954]
 [-0.01930301  0.05876958 -0.00186494]] [[-0.0369966   0.0102679  -0.03919692]
 [ 0.07512407  0.00684959  0.09844731]
 [-0.04455404 -0.01415236 -0.04395244]] [[ 0.02089814 -0.02821737 -0.04060488]
 [ 0.0420842  -0.02145184 -0.01113453]
 [ 0.04789585 -0.06862743 -0.04983129]] [[-0.04747497  0.02961779  0.00700137]
 [-0.07373621  0.02099974 -0.06474333]
 [-0.05414441 -0.14704205 -0.08353767]] [[-0.02065874 -0.07464395 -0.07978973]
 [ 0.05307911  0.00279717 -0.01111056]
 [ 0.11821141 -0.00162575 -0.00155961]] [[-0.10524992  0.04744837  0.00358719]
 [-0.09279297 -0.04607253  0.06093661]
 [-0.09926609 -0.01724503 -0.03785596]] [[-0.02012268 -0.08980637 -0.00724492]
 [-0.09558903 -0.08164411 -0.0121685 ]
 [-0.07913196 -0.07985634  0.01852081]] [[ 8.8479500e-03 -3.3981204e-02  5.3626943e-02]
 [ 7.9410583e-02  3.0181106e-02  1.4153683e-02]
 [ 2.6462398e-02  5.0500564e-02 -2.7850037e-05]] [[-0.16442996 -0.14281742 -0.25883523]
 [-0.1132125  -0.02015734 -0.0659112 ]
 [ 0.04229537  0.04526081 -0.04519902]] [[-0.01300682 -0.11018425 -0.08960899]
 [ 0.05270604  0.04906017  0.01096375]
 [ 0.033779   -0.00903435  0.08297694]] [[-0.05194335 -0.14568865 -0.11798256]
 [-0.02730606 -0.02479591 -0.02449699]
 [-0.00239049  0.09903894  0.11634403]]
[[-0.04658365 -0.05573749  0.00397408]
 [-0.15942864  0.02393121  0.06665874]
 [-0.09300866 -0.05504026  0.03553585]] [[-0.03017579 -0.07122529 -0.06745205]
 [-0.12753701 -0.19205931 -0.14323716]
 [-0.066769   -0.21374413 -0.15007211]] [[ 0.09763597 -0.0780772  -0.12128068]
 [ 0.0389874  -0.05413744 -0.1371963 ]
 [ 0.05376159 -0.02257122 -0.0732598 ]] [[-0.00648486  0.01692286  0.02768834]
 [ 0.05342846 -0.02912997 -0.08727384]
 [ 0.04006643  0.01985722 -0.07335242]] [[ 0.02304293 -0.03679495 -0.02725219]
 [ 0.03242683  0.01134093 -0.06904405]
 [-0.03684645  0.05896792 -0.0548331 ]] [[ 0.07457481 -0.00802475 -0.021374  ]
 [ 0.06259983 -0.04282181 -0.10388845]
 [ 0.06060071  0.04744714 -0.09774177]] [[ 0.07335979 -0.00182025 -0.16291355]
 [-0.08816463 -0.21946406 -0.17320669]
 [-0.08757257 -0.14189443 -0.07128195]] [[ 0.01241548  0.05234364  0.02486571]
 [-0.07402588  0.0617138   0.02239601]
 [-0.03348386  0.04191251  0.029143  ]] [[-0.02722424 -0.10850724 -0.02997995]
 [-0.09534451 -0.16673136 -0.07656708]
 [-0.02523869 -0.06622645 -0.0008022 ]] [[-0.02805875  0.02304483  0.01846375]
 [-0.00831542  0.04637128  0.01714418]
 [ 0.05831661 -0.05691161  0.01401622]] [[ 0.01557366 -0.00806856  0.0124411 ]
 [-0.06297705  0.00992624 -0.03311721]
 [-0.07249273  0.06653098  0.01940375]] [[ 0.04832689 -0.00797907 -0.060067  ]
 [ 0.04774126  0.05979871  0.03102367]
 [ 0.05811694 -0.03380929  0.04808402]] [[ 0.03046398  0.00208584 -0.0601467 ]
 [-0.02639625 -0.04847565 -0.1362283 ]
 [ 0.01001166 -0.00217046 -0.03474044]] [[-0.15706837 -0.09767283 -0.07704833]
 [-0.21043634 -0.16438845 -0.1076212 ]
 [-0.16998506 -0.05285222 -0.00980269]] [[-0.00303698 -0.06191446 -0.12009469]
 [ 0.06143514 -0.14035256 -0.02523007]
 [ 0.02200818 -0.08515179 -0.06421482]] [[ 0.02595983  0.02264558 -0.13182865]
 [ 0.01950664  0.06553551 -0.13158064]
 [ 0.04603979 -0.03244922  0.00421319]] [[-0.06467998  0.00623936 -0.0522671 ]
 [-0.05694315 -0.02352676 -0.0041577 ]
 [-0.07415858 -0.06789095 -0.00486775]] [[ 0.02949801  0.03432624 -0.06714227]
 [ 0.06834389  0.0083652  -0.012431  ]
 [-0.01864198  0.09904538 -0.00492603]] [[-0.02379177 -0.08450302 -0.08334623]
 [ 0.0078045  -0.03689785  0.01041911]
 [ 0.00491386 -0.03034016 -0.01762749]] [[-0.03367406 -0.02396137 -0.04622531]
 [-0.00056232 -0.06750898 -0.06944778]
 [ 0.07585721 -0.02132856 -0.05869664]] [[-0.08343316 -0.03991311 -0.12742698]
 [-0.14867336 -0.15127704 -0.03772765]
 [ 0.07282187 -0.12734862 -0.07442863]] [[-0.06478855  0.0218325  -0.04580606]
 [-0.06225141  0.04775098 -0.02875567]
 [-0.05911896 -0.02054488 -0.01155034]] [[ 0.00889688 -0.01700821 -0.09422583]
 [ 0.02627959 -0.04877881 -0.12057977]
 [-0.03812694 -0.0574895  -0.06229253]] [[ 0.04450053  0.04820855  0.03416065]
 [-0.05820696 -0.02362514 -0.04235817]
 [-0.04151955 -0.0383091   0.0324932 ]] [[-0.06043736 -0.10603329 -0.02504236]
 [ 0.02110833 -0.04554945 -0.03187488]
 [ 0.02894004 -0.06130259 -0.08708046]] [[-0.0273085  -0.02090075  0.02785573]
 [-0.01037375 -0.03147255  0.03786243]
 [-0.06969261 -0.00886775 -0.03471346]] [[-0.04304045 -0.08235779 -0.09718946]
 [-0.03133212 -0.14740981 -0.08879011]
 [-0.06809361 -0.08724584 -0.02351008]] [[-0.03642741 -0.10924716 -0.02918615]
 [-0.09168386 -0.16116804 -0.10684354]
 [ 0.07848965 -0.14147086 -0.05224876]] [[-0.06608558 -0.05221805 -0.07032945]
 [-0.03097597  0.00722035 -0.08368547]
 [-0.09563465  0.0252051  -0.10162593]] [[-0.03952459 -0.06189279 -0.01364367]
 [-0.02656703 -0.09609949 -0.0274675 ]
 [-0.10612148 -0.07486272 -0.10328232]] [[ 0.00732039  0.06990676 -0.05562943]
 [ 0.0174049  -0.07839991 -0.02096406]
 [-0.05260094  0.03374166  0.0371634 ]] [[ 0.02015205 -0.05138244 -0.11689055]
 [-0.11755916 -0.0943164  -0.1360952 ]
 [-0.06251971 -0.05992733 -0.08855185]]
[[-0.0385903  -0.10542202  0.022743  ]
 [-0.06997763 -0.06049978 -0.02682001]
 [-0.12137457 -0.06147212 -0.09705658]] [[-0.22218762 -0.3255455  -0.33733705]
 [-0.09738165 -0.101274   -0.16616423]
 [-0.095281   -0.12380841 -0.2947495 ]] [[-0.22587398 -0.14832756  0.00745379]
 [-0.09713376  0.04995217  0.11468106]
 [-0.00080383  0.08353789  0.08636094]] [[-4.3977454e-02 -1.7852990e-02  3.8327096e-05]
 [ 1.5357984e-02  5.5502996e-02  3.4747422e-02]
 [-5.8430932e-02 -4.4418476e-03  3.3346310e-02]] [[ 0.04081276 -0.04255253  0.06747025]
 [-0.0745258  -0.07072382  0.04935182]
 [-0.19335361 -0.10347471 -0.00184802]] [[-0.12837358 -0.00169504 -0.0699505 ]
 [-0.12687214 -0.05662443  0.06433471]
 [-0.16515999 -0.00380479  0.05382041]] [[-0.105095   -0.32747898 -0.04640435]
 [-0.09057999 -0.16734916 -0.07591917]
 [-0.14115323 -0.37375015 -0.2225065 ]] [[-0.153532   -0.19267371 -0.07427647]
 [-0.03538913 -0.15457092 -0.01147129]
 [-0.08929203 -0.25437596 -0.0533976 ]] [[-0.16885138 -0.25135258 -0.11990777]
 [-0.13695088 -0.08784169  0.04659638]
 [-0.3249491  -0.21756314 -0.05874509]] [[-0.03621542  0.05721607  0.05559382]
 [ 0.03211043  0.05686709 -0.00333143]
 [-0.05448322  0.00459104  0.0510399 ]] [[-0.01620274  0.02875762  0.0338741 ]
 [ 0.02563126 -0.04322548 -0.01523468]
 [ 0.02603004  0.0120322  -0.14135471]] [[ 0.04521838 -0.03328509  0.0201658 ]
 [-0.01875712 -0.03372808 -0.02579111]
 [-0.04594975  0.00562359 -0.0280107 ]] [[-0.1552896  -0.14460409 -0.08071588]
 [-0.04088739 -0.03006132  0.06833633]
 [-0.05800477 -0.0305431   0.08671641]] [[-0.05391684  0.07532246  0.2076797 ]
 [-0.08814317  0.00143582  0.02724254]
 [-0.22150715 -0.06331378 -0.08565526]] [[-0.00424294  0.05709087  0.07020148]
 [ 0.00624368  0.08653521  0.05187605]
 [-0.02974581  0.05616904  0.15384176]] [[ 0.03046842  0.03053333  0.09318848]
 [-0.00496815 -0.02497109  0.06888226]
 [-0.02129656  0.02730761  0.05863194]] [[ 0.00583358  0.00336839  0.00910093]
 [ 0.05382869  0.0356078  -0.16799966]
 [ 0.06634972 -0.01126461 -0.14368147]] [[-0.13762368 -0.02355489  0.10305921]
 [-0.23467429 -0.11966996 -0.00571241]
 [-0.23943381 -0.15215732 -0.01688875]] [[-0.06451208  0.00492552  0.0468532 ]
 [-0.06431929  0.05477526  0.1057214 ]
 [-0.06403618  0.00194473  0.07538042]] [[ 0.02056335 -0.00147021  0.0126487 ]
 [-0.01393984 -0.05716702 -0.00045206]
 [-0.14393775  0.01602095  0.0035832 ]] [[-0.07373332 -0.04670948  0.02389198]
 [-0.09144486 -0.09040562  0.02488717]
 [-0.04346025  0.00065254  0.01513353]] [[-0.09727444 -0.12000652  0.02901151]
 [-0.03121101 -0.04857256  0.03368045]
 [-0.07463959 -0.04434687  0.01436242]] [[-0.04081217 -0.03978271  0.07261338]
 [-0.10146981 -0.04732892  0.0553393 ]
 [-0.2237921  -0.05812337  0.07941586]] [[-0.08121425  0.01992316  0.0572018 ]
 [ 0.02531897 -0.00869432  0.05695539]
 [-0.04069564  0.0366575  -0.02528884]] [[-0.00209894  0.03071287  0.0976482 ]
 [-0.00176507 -0.04343659  0.0504874 ]
 [-0.08377337  0.00657694  0.03417359]] [[-0.1133256  -0.17179698 -0.1092083 ]
 [-0.08529062 -0.16724247  0.00434602]
 [-0.01174737 -0.11753609 -0.04217942]] [[0.03602546 0.04553659 0.10247192]
 [0.04140784 0.01741319 0.02942066]
 [0.01195235 0.02143824 0.08944633]] [[-0.07492119 -0.01542697  0.01738257]
 [ 0.00439837  0.02297154  0.03563837]
 [-0.06012994  0.01202176  0.05818959]] [[-0.05607148 -0.13501687 -0.00480781]
 [-0.00964882 -0.06859321  0.00505934]
 [-0.1328868  -0.0527859   0.02948757]] [[-0.06772074 -0.0055508  -0.07471085]
 [ 0.00441631  0.05915355 -0.15350837]
 [ 0.01469869 -0.00761504 -0.23673768]] [[-0.1565004  -0.15630403 -0.12589493]
 [-0.07948618  0.03229133 -0.04944897]
 [-0.02122697 -0.05019706 -0.07954267]] [[-0.4335881  -0.25758502 -0.23069717]
 [-0.1856335  -0.05403346  0.08252268]
 [-0.27154538 -0.17456783 -0.07644452]]
[[-0.14295778 -0.06312872  0.00683776]
 [-0.01905364 -0.02218828  0.04542474]
 [ 0.09916381  0.08821667 -0.0693156 ]] [[ 0.06725364 -0.0280282  -0.1962611 ]
 [-0.15067264 -0.16117547 -0.26564535]
 [-0.32780656 -0.18614942 -0.1358335 ]] [[ 0.05000586  0.06196162  0.21464296]
 [-0.0593501   0.12023691 -0.01946317]
 [-0.08226716  0.0258465  -0.16091439]] [[-0.04756883  0.06880125  0.02603647]
 [-0.02309575  0.05945034 -0.02248236]
 [-0.07065547 -0.03933639 -0.03782851]] [[-0.14163716 -0.02568766  0.02616754]
 [-0.0439534   0.04312814  0.03970835]
 [ 0.09579264  0.05277834 -0.02250126]] [[-0.02039223  0.05947054 -0.01131004]
 [-0.08182112 -0.02780006 -0.07093325]
 [-0.11274622 -0.05884811 -0.0046988 ]] [[ 0.08219321  0.01055736 -0.20911865]
 [-0.15688275 -0.21104875 -0.14176571]
 [-0.12335616 -0.07550223 -0.02504544]] [[-0.01349053 -0.13258131  0.00886409]
 [-0.04831555 -0.09122247  0.05007495]
 [ 0.0244981   0.0272053  -0.01330151]] [[-0.03042494 -0.09780975  0.02052525]
 [-0.340179   -0.190961   -0.00175247]
 [-0.2772802  -0.10734868 -0.01275478]] [[-0.04475238 -0.03382517  0.00988486]
 [ 0.04911496  0.00398633  0.01804635]
 [-0.03352031 -0.00849175 -0.0287397 ]] [[-0.05503105 -0.1524621  -0.11369485]
 [-0.12084465 -0.15882303  0.07003516]
 [-0.08085632  0.03482547  0.01766718]] [[-0.02174129  0.05351657 -0.01504844]
 [-0.0358007   0.03859589  0.0608431 ]
 [ 0.01825324  0.0099399   0.09268191]] [[ 0.0559466   0.07472572  0.03120793]
 [-0.04921299 -0.083437   -0.02760492]
 [-0.02998995  0.02434574 -0.02386962]] [[-0.11684331 -0.06543807 -0.09597775]
 [ 0.0186968   0.02628461 -0.18521431]
 [ 0.04534185 -0.1704031  -0.22903305]] [[ 0.01666708  0.09400195  0.00466713]
 [ 0.05002599  0.00191942 -0.15151182]
 [ 0.03217634 -0.06291205 -0.12007061]] [[-0.10102521  0.03390644  0.0848463 ]
 [ 0.01845874 -0.04964357 -0.20217443]
 [-0.00961913 -0.09832031 -0.16678494]] [[-0.0173018  -0.2252553  -0.02561526]
 [-0.17195913 -0.01142993  0.06323767]
 [-0.10508214  0.00870555  0.13360982]] [[-0.1030717  -0.0317806  -0.08288207]
 [ 0.02478875 -0.1499978  -0.17555602]
 [-0.03585601 -0.14683434 -0.15841493]] [[-0.11884571 -0.06556755  0.03935669]
 [-0.03451848 -0.00536536  0.04146945]
 [ 0.06652012  0.05308756 -0.09343   ]] [[ 0.06955556  0.00205231 -0.01704776]
 [ 0.0481993   0.02633419  0.08533707]
 [ 0.0072733   0.04390899 -0.02241769]] [[-0.04895032 -0.03084751 -0.01509511]
 [-0.00204356  0.01156722 -0.01809755]
 [-0.00854718  0.04009113 -0.06219307]] [[-0.05572002 -0.01853981  0.03392214]
 [-0.02137106  0.05452137 -0.01882789]
 [ 0.06266052  0.04504152 -0.04810655]] [[-0.05749258 -0.09786754 -0.02932963]
 [-0.09744579  0.05877343 -0.03709756]
 [ 0.02286719 -0.01228924 -0.07610364]] [[ 0.05412236 -0.0504619  -0.0434868 ]
 [ 0.04257271 -0.0539846  -0.06034513]
 [ 0.01178397  0.003535    0.06677344]] [[-6.9370568e-02  6.0446102e-05  8.7725781e-03]
 [ 1.0553672e-02  6.0889809e-03 -4.8037436e-02]
 [ 7.6142184e-02  5.2547671e-02 -6.5011516e-02]] [[ 0.00501746 -0.12343403 -0.0297997 ]
 [-0.06710067 -0.03035564  0.08375008]
 [ 0.06075988  0.05842992  0.02552791]] [[-0.05224328  0.04241395 -0.04196146]
 [-0.01224683  0.02731554 -0.21097621]
 [-0.04262386 -0.04605842 -0.20303379]] [[-0.02753474 -0.0316525  -0.0153375 ]
 [-0.01520951  0.09233382 -0.03182819]
 [-0.01435867 -0.02188472 -0.1241697 ]] [[ 0.04537119 -0.0535497   0.00885025]
 [-0.01420954  0.00514466  0.02394902]
 [-0.00927894 -0.04890399 -0.04894089]] [[ 0.07455371 -0.03652042 -0.03629427]
 [-0.11722722 -0.11507494  0.04197698]
 [-0.1093003  -0.10553651  0.00428503]] [[ 0.07689241  0.07212634 -0.02894139]
 [-0.14600404 -0.07713941  0.08441938]
 [-0.12541129 -0.05619472  0.03597035]] [[ 0.03311037 -0.02645456 -0.01289712]
 [-0.21842784 -0.15001133 -0.00610049]
 [-0.2910174  -0.05926519 -0.04852428]]
[[-0.06979713 -0.03595087 -0.0028775 ]
 [-0.07443026 -0.03394683 -0.06409306]
 [-0.05719508 -0.16194955 -0.02293734]] [[-0.11479121 -0.19335243 -0.30609074]
 [-0.02473336 -0.24433528 -0.37405097]
 [-0.00315737 -0.06467205 -0.2562081 ]] [[ 0.14622904  0.13397406  0.10363485]
 [ 0.04096686  0.09684057  0.03801547]
 [-0.00843915  0.00909094  0.02168921]] [[ 0.03423496  0.01894292 -0.01217755]
 [ 0.00364718 -0.0502173  -0.04552116]
 [ 0.01232841 -0.01801723  0.03656968]] [[-0.13295487 -0.02313212  0.00119814]
 [-0.14333804 -0.03066496  0.02645442]
 [-0.14893806 -0.02684212  0.0423518 ]] [[-0.02536719 -0.01391881  0.11217954]
 [-0.02767845  0.042726    0.09001745]
 [-0.04812675  0.05744773  0.09999488]] [[-0.19014269  0.0158325   0.02633337]
 [-0.12750456  0.04722228 -0.07217044]
 [ 0.00409842  0.03623202 -0.06417789]] [[-0.15789853 -0.07281613  0.06686364]
 [-0.15232205 -0.05536946 -0.01290305]
 [-0.15288314 -0.08268327 -0.09080341]] [[-0.00791274  0.01786062  0.0531008 ]
 [ 0.02591847  0.04471012 -0.07908211]
 [ 0.0429893  -0.01216213 -0.09776416]] [[-0.0136363   0.05117485  0.04042573]
 [-0.01562259 -0.04014844 -0.01396317]
 [ 0.02564625  0.04717343 -0.00543499]] [[-0.15709409 -0.07701451  0.00207603]
 [-0.09150104 -0.09978402 -0.09364171]
 [-0.01828507 -0.14742517 -0.10915279]] [[ 0.04386431 -0.03033532  0.02766813]
 [-0.02056212 -0.07306101  0.0182204 ]
 [-0.05163278  0.01576774  0.00201055]] [[-0.06684987  0.06301999  0.11823962]
 [ 0.03364681  0.00572594  0.0622243 ]
 [-0.0113249   0.05762896  0.05707796]] [[-0.16033067 -0.24797107 -0.33662254]
 [-0.22775438 -0.32211208 -0.3304286 ]
 [-0.25476554 -0.27522463 -0.1322095 ]] [[ 0.11967687  0.03836059 -0.00395714]
 [ 0.064644    0.08514859 -0.00969414]
 [ 0.05062938  0.04696776  0.11728254]] [[-0.01355189  0.01221439 -0.06126111]
 [-0.03205622 -0.01970654  0.05254484]
 [-0.10673841  0.01266412  0.06152732]] [[-0.10147966 -0.16356114  0.01553479]
 [-0.12272796 -0.22967821 -0.17217697]
 [ 0.03151216 -0.24125591 -0.29656392]] [[-0.18820402 -0.11960596  0.05423365]
 [-0.15747063 -0.0213133   0.07924877]
 [-0.2595569  -0.00331606  0.1577918 ]] [[ 0.00502725  0.09602114  0.05011541]
 [-0.02999146  0.01227225 -0.01535932]
 [-0.05706736  0.02867476  0.02861037]] [[-0.01265064  0.00135027 -0.08108466]
 [-0.05388412  0.00392856 -0.03303111]
 [-0.00535053  0.0208327  -0.08442101]] [[ 0.02960427  0.07251995 -0.07575537]
 [ 0.04047575  0.02806548 -0.12355974]
 [ 0.03885553 -0.08295862 -0.11841375]] [[-0.01026929  0.03812826  0.07547689]
 [-0.10221761 -0.04891127 -0.05871323]
 [-0.11481615 -0.03843576 -0.06219554]] [[ 0.03017676  0.07835162  0.07449023]
 [-0.03565098  0.05052248  0.03102894]
 [-0.02125048 -0.0607651  -0.00899689]] [[-0.10983223 -0.04207572 -0.01096713]
 [-0.12656306  0.01465493 -0.01657112]
 [-0.05317533 -0.01643562 -0.00372099]] [[-1.4566444e-02 -1.1204196e-05 -1.5356128e-02]
 [-6.5297179e-02 -5.3647790e-02 -5.9540644e-02]
 [-2.5366575e-02  3.4298934e-02 -2.8532665e-02]] [[-0.27658036 -0.06420134 -0.03009247]
 [-0.2112407  -0.03365704 -0.07053478]
 [-0.18355295 -0.08231883 -0.13098794]] [[ 0.00285647 -0.01250019 -0.07907985]
 [-0.04580425 -0.0666092  -0.13122194]
 [-0.07715981  0.033688    0.01045339]] [[ 0.07235809  0.11749989  0.00310461]
 [ 0.08952257  0.04360419 -0.03055156]
 [-0.03787659 -0.03569622 -0.00407358]] [[ 0.02630759  0.04250465  0.09405944]
 [-0.0630561  -0.02359565  0.07134017]
 [ 0.00259011 -0.02171514  0.07419992]] [[-0.0980215  -0.1655864  -0.14894046]
 [-0.01419488 -0.09892    -0.17827985]
 [-0.02858145 -0.08853088 -0.2299528 ]] [[-0.13202861 -0.03901458  0.0593872 ]
 [-0.07663213  0.03057967 -0.03375128]
 [-0.11912921 -0.09188896 -0.11581075]] [[-0.05867441  0.06960054  0.05250554]
 [-0.02244607 -0.00066513 -0.05212988]
 [ 0.06452055  0.03744122 -0.1049148 ]]
[[-0.07704446  0.00818594 -0.07297415]
 [ 0.00669966 -0.09996015 -0.05737662]
 [-0.06165191 -0.11326259 -0.06218624]] [[-0.06427854 -0.04756708 -0.07959215]
 [ 0.03953387 -0.08906396 -0.14888151]
 [-0.00224217 -0.00505072  0.03499008]] [[-0.05454259  0.02246367 -0.050388  ]
 [-0.08291241 -0.05590411 -0.04211622]
 [-0.0315748  -0.01751827  0.05616744]] [[ 0.02239666 -0.07239827  0.01020781]
 [-0.05038791  0.00463593  0.02413196]
 [-0.01752599 -0.04740243  0.03258601]] [[ 0.01224823  0.04459817  0.04188443]
 [-0.00779861 -0.08450265 -0.05506828]
 [-0.02167855 -0.09035265 -0.0603852 ]] [[ 0.07763328  0.00430573  0.03254404]
 [-0.05319716  0.00279285  0.004732  ]
 [ 0.0069938  -0.00188954  0.0496692 ]] [[ 6.9437124e-02  1.4593376e-02 -4.8339501e-02]
 [-7.0092514e-02  1.9969778e-02 -1.0541166e-01]
 [ 5.9142752e-05  2.5202304e-02 -5.2858505e-02]] [[-0.03919088 -0.01443986 -0.06540082]
 [-0.0129141  -0.02080252 -0.04933432]
 [ 0.03035987 -0.08297049 -0.00761251]] [[-0.00871295 -0.10501786  0.01489188]
 [ 0.04108587 -0.04073561  0.05083605]
 [-0.02983687 -0.0005579   0.06283629]] [[ 0.02750218 -0.01533216 -0.01093978]
 [ 0.01060701 -0.05876784  0.02582788]
 [-0.0204083  -0.02054274  0.00301707]] [[-0.03047844 -0.01823684 -0.06650048]
 [-0.03306801 -0.00951044 -0.05098534]
 [ 0.02433065 -0.05624593  0.00838943]] [[ 0.04622208 -0.03254459 -0.03503692]
 [ 0.02812749  0.03358816  0.0495735 ]
 [ 0.0429647   0.04297563  0.08589524]] [[-0.00711746 -0.02501261 -0.02563319]
 [-0.01424955 -0.00902986 -0.02435258]
 [ 0.02172005  0.0194535   0.00369281]] [[-0.05047234  0.0704178  -0.02197084]
 [-0.06220911 -0.14335574 -0.0400576 ]
 [-0.14160109 -0.04546182 -0.04069389]] [[-0.03590679 -0.00426994 -0.03542688]
 [-0.03288029 -0.02140282  0.06413057]
 [ 0.00091637  0.00431211 -0.01315398]] [[ 0.01658416  0.0252664  -0.01678445]
 [ 0.02728909  0.02880373  0.08476745]
 [-0.07153475 -0.01643382  0.03744095]] [[-0.01268513 -0.0393838   0.01134369]
 [-0.02558982 -0.04989918  0.0051954 ]
 [ 0.00313043  0.02776783 -0.03679172]] [[ 0.07955541  0.03667627 -0.04397383]
 [-0.07927499 -0.06790017 -0.02787582]
 [-0.08424295 -0.11123355  0.04171925]] [[-0.08245754 -0.01681892 -0.05684572]
 [ 0.02516444 -0.00553956 -0.01965904]
 [-0.04484404  0.01746896  0.03756817]] [[ 0.06128823 -0.0377715   0.0760228 ]
 [-0.00072306 -0.08740794  0.01850034]
 [-0.06955871 -0.05494697  0.00475329]] [[ 0.0311593  -0.00683472 -0.08027027]
 [-0.04645036 -0.05603023  0.0640575 ]
 [ 0.00910771 -0.0223419  -0.08044721]] [[ 0.02781441 -0.02027494  0.00836523]
 [ 0.03786369  0.02785938  0.02541521]
 [ 0.02791439 -0.02423452 -0.03972863]] [[-0.00931147 -0.05388631 -0.03967245]
 [-0.03957289 -0.00610727 -0.00407146]
 [-0.0465761  -0.05844386  0.00851628]] [[ 0.06719474 -0.02722621  0.02205347]
 [-0.01713429 -0.01822061  0.00921995]
 [-0.06148283  0.03067096 -0.0698493 ]] [[-0.03882064  0.0054899   0.02423919]
 [-0.04649099 -0.06389543  0.04052848]
 [-0.06646945 -0.07022592 -0.01289244]] [[ 0.01894993 -0.04914204 -0.01182554]
 [-0.03201456  0.04520663 -0.05507904]
 [ 0.01421469 -0.02649676 -0.01878625]] [[-0.09502929  0.0182636  -0.07393722]
 [-0.0662931   0.05209416 -0.01713551]
 [ 0.00970785 -0.01240338  0.00883619]] [[-0.05466618 -0.02750548 -0.05885151]
 [-0.07554656 -0.05528016 -0.01962082]
 [ 0.02313358 -0.06524645 -0.02346021]] [[-0.01948622 -0.06816312 -0.02198058]
 [-0.01596275 -0.03294357 -0.0571325 ]
 [-0.00196184 -0.0858839  -0.08705612]] [[-0.05009715 -0.05272584 -0.07818498]
 [-0.02030542 -0.01587041 -0.104355  ]
 [-0.03422932  0.06675266  0.02206983]] [[-0.04447444 -0.06598464 -0.01457415]
 [-0.03498351 -0.07510398 -0.08193754]
 [-0.03436087  0.04470107  0.00839914]] [[-0.02447582 -0.1330609  -0.0520244 ]
 [-0.00373294 -0.04723908 -0.00762551]
 [ 0.08438753  0.00026892 -0.00786752]]
[[ 0.02951512  0.02326124  0.08207949]
 [-0.13621894  0.0036683   0.08448018]
 [-0.28587797 -0.12723672 -0.14999752]] [[ 0.04352998 -0.05350544  0.06949849]
 [ 0.18108512  0.10144397  0.08215702]
 [ 0.21380879  0.11530357  0.08458039]] [[-0.08558431  0.02707119  0.02986502]
 [ 0.08998264  0.03123394  0.04294129]
 [ 0.09149379  0.06405344 -0.17493375]] [[-0.00301968  0.01280604  0.05539606]
 [-0.04455583 -0.02746116 -0.0561754 ]
 [ 0.03855658 -0.08416936 -0.15578505]] [[ 0.00301692 -0.03720969 -0.04513977]
 [-0.14355499 -0.0280288   0.0119874 ]
 [-0.32700866 -0.25309733 -0.1641874 ]] [[-0.00304735 -0.02255271 -0.01260843]
 [-0.01765341 -0.04407766 -0.00804467]
 [-0.19562685 -0.02787772 -0.05404259]] [[0.14530553 0.02804987 0.02063224]
 [0.17132472 0.01115421 0.1067739 ]
 [0.00582627 0.14117667 0.08644093]] [[ 9.9229226e-03  2.1465035e-05 -9.2541464e-03]
 [ 1.6377546e-02  9.3956895e-02  3.1570975e-02]
 [-1.8306518e-01 -7.8207351e-02 -8.0420256e-02]] [[ 0.03329804  0.03063996  0.16268662]
 [ 0.03978282  0.07185806  0.13677977]
 [ 0.22901244  0.09164066 -0.02864188]] [[ 0.00582632  0.05804756  0.02770081]
 [ 0.01053751  0.00939929 -0.00179839]
 [ 0.05719217 -0.02157999 -0.05606608]] [[-0.03169058  0.03671437 -0.07784097]
 [-0.04342798 -0.07978207  0.02086937]
 [-0.10263536 -0.1011319   0.05423186]] [[ 0.00095918 -0.02673517 -0.04065249]
 [-0.06272196 -0.06071568  0.0007383 ]
 [ 0.03937083  0.00030426 -0.01350376]] [[ 0.03833691 -0.05204896  0.03205003]
 [-0.01277309  0.03060675 -0.01575738]
 [-0.09938426 -0.06973007 -0.08616242]] [[ 0.1396016   0.18909848  0.12274853]
 [ 0.07925846  0.30070856 -0.0260001 ]
 [-0.28348324 -0.09854942 -0.01409886]] [[ 0.03235206 -0.01165273  0.05256298]
 [-0.03556038 -0.06373904 -0.16582032]
 [-0.06920093 -0.18263733 -0.28259268]] [[-0.01880329 -0.08064704 -0.0270338 ]
 [ 0.12538897 -0.01657947 -0.2376121 ]
 [ 0.05929298 -0.00268729 -0.20378116]] [[-0.08237642 -0.12651165 -0.03798986]
 [ 0.04558914  0.05131236  0.05671155]
 [-0.01188063  0.10403381  0.1182735 ]] [[-0.02137539 -0.05617598 -0.03810772]
 [-0.0786164  -0.0262321  -0.29992113]
 [-0.37031353 -0.2682424  -0.22750103]] [[-0.01845216  0.06711519  0.06920324]
 [-0.09946704  0.05668283 -0.0677766 ]
 [-0.12071594 -0.03892192 -0.17185676]] [[-0.07280409 -0.04538399 -0.0063496 ]
 [-0.10560735 -0.16268033 -0.08161529]
 [-0.08118525 -0.12686689 -0.04123831]] [[-0.08888793 -0.00837223 -0.00701737]
 [-0.13360606 -0.05064112  0.03084914]
 [-0.09484628 -0.04849585 -0.08825712]] [[ 0.05717791 -0.04603504  0.08099948]
 [-0.02838448  0.0424243   0.10266162]
 [-0.17715089 -0.09161811 -0.04464925]] [[ 0.0168985  -0.02758044  0.06916577]
 [-0.06000414 -0.02854708  0.02470606]
 [-0.24906369 -0.08985555 -0.19000964]] [[ 0.08074121 -0.01187125 -0.08798394]
 [-0.02406877 -0.02104016 -0.0055413 ]
 [-0.08964688 -0.06884529  0.08047599]] [[-0.0685154  -0.04575557 -0.00285506]
 [-0.0334258  -0.05803284 -0.09150216]
 [-0.18158434 -0.14741896 -0.20132479]] [[ 0.08773319 -0.0152668   0.05568774]
 [-0.00286109  0.02383209  0.04466685]
 [-0.14142665 -0.03676863  0.02808035]] [[ 0.02764713  0.00120335 -0.09989945]
 [-0.00834217 -0.10982104 -0.18457107]
 [-0.06510028 -0.04306569 -0.1251966 ]] [[-0.13017309 -0.01085064 -0.00509471]
 [-0.14355892 -0.10359365  0.00869075]
 [-0.17726685 -0.21271437 -0.1677028 ]] [[-0.0031692   0.00834477  0.04068645]
 [-0.08341077 -0.03634256  0.03376319]
 [-0.24152236 -0.15040395 -0.20248955]] [[-0.04146166 -0.13333508 -0.06882685]
 [ 0.03191516 -0.00704138  0.00516244]
 [ 0.10434122  0.11139757  0.01508081]] [[-0.06859266 -0.01586639 -0.00249112]
 [-0.01839251  0.05340476  0.03280769]
 [-0.04053197  0.00499177 -0.03123488]] [[0.07838258 0.01012308 0.14346015]
 [0.1202656  0.11304551 0.08378975]
 [0.14439283 0.12589279 0.06878245]]
[[ 8.4943399e-02  5.3382128e-02 -7.5523830e-03]
 [ 3.4765163e-03 -2.7734544e-02 -1.8587032e-05]
 [-1.7199914e-01 -5.9015334e-02 -7.2172925e-02]] [[-0.03918874 -0.05545957 -0.12343909]
 [ 0.04098343  0.01748102 -0.07843719]
 [ 0.14618036  0.11521975 -0.05888918]] [[-0.00664538 -0.14628977 -0.17484626]
 [-0.06635411 -0.09235633 -0.07099544]
 [-0.10764201 -0.04798264  0.05787753]] [[ 0.00234344 -0.06981163 -0.03692419]
 [-0.04404977 -0.02829802 -0.03012791]
 [ 0.02504125 -0.02151549  0.05756491]] [[ 6.9635666e-05  4.0684018e-02 -3.0831661e-02]
 [-8.1698336e-02 -6.3484855e-02 -2.0087685e-02]
 [-1.6689982e-01 -1.3609995e-01 -1.0561312e-01]] [[ 0.09172828  0.05951761 -0.12217682]
 [ 0.04153761 -0.01885873 -0.07070605]
 [-0.0590949  -0.06547045 -0.27750742]] [[-0.01933187 -0.05241926 -0.2499913 ]
 [ 0.19322321  0.18765597 -0.16635267]
 [ 0.28565687  0.10403659 -0.30791876]] [[ 0.17129572  0.06309757 -0.02220385]
 [ 0.08818007  0.07720131 -0.09468502]
 [ 0.07429844 -0.07355198 -0.28569764]] [[-0.07233191 -0.13745013 -0.33802375]
 [ 0.12856796 -0.14229523 -0.22828513]
 [ 0.15906264 -0.25423664 -0.3210316 ]] [[-0.04351782  0.05710457  0.04619588]
 [-0.04552763  0.0476551   0.0201377 ]
 [-0.00524557  0.02880418  0.00439989]] [[ 0.01953283 -0.00014376 -0.04263496]
 [-0.02857131 -0.00051398  0.02772035]
 [-0.00580719  0.00285442  0.02677307]] [[-0.04570414 -0.01855725  0.0271708 ]
 [ 0.06463552 -0.10164212 -0.04424498]
 [-0.06222951 -0.0127249   0.0468897 ]] [[ 0.10756567 -0.04220719 -0.15109403]
 [ 0.07283441 -0.02126581 -0.02661507]
 [ 0.06428064 -0.06664614 -0.11342019]] [[-0.1055446  -0.25724772 -0.08799421]
 [-0.19572169 -0.32316625 -0.09304682]
 [-0.39795274 -0.29225627 -0.08746639]] [[-0.08177502 -0.11744906 -0.01084334]
 [-0.20244491 -0.04693558  0.05080879]
 [-0.12497989 -0.00467112  0.0079294 ]] [[-0.04165398  0.00657352  0.05396385]
 [-0.05427611 -0.0850982   0.06788   ]
 [-0.02665298  0.0459498   0.05593834]] [[-0.04677463 -0.01050323  0.0022081 ]
 [ 0.06550585  0.02568839 -0.04757584]
 [ 0.07786234  0.0200063  -0.00018427]] [[ 0.17705391  0.11854804  0.09823292]
 [ 0.09506635  0.07263537 -0.03965946]
 [-0.09110812 -0.05418271 -0.14988637]] [[ 0.07805795 -0.09313321 -0.10479186]
 [ 0.00956597 -0.11072234 -0.10175264]
 [-0.1750165  -0.21977656  0.02629174]] [[-0.03726703 -0.10990866 -0.09297787]
 [-0.04499705 -0.15590902 -0.13437949]
 [-0.12888765 -0.18796505 -0.12020277]] [[-1.1992026e-01 -3.2286119e-02  4.6099878e-05]
 [-9.7114414e-02 -1.8101936e-02 -7.9400484e-03]
 [-8.1091955e-02 -3.1232484e-02 -5.1350079e-02]] [[ 0.08757962  0.03267873 -0.07236837]
 [-0.01422051 -0.01577988 -0.09208807]
 [-0.03909883 -0.1530517  -0.03591274]] [[ 0.08671925 -0.01360967 -0.22774187]
 [-0.03541219 -0.08004162 -0.19938546]
 [-0.19429453 -0.28773287 -0.06351703]] [[ 0.05862945 -0.01565198  0.03351632]
 [-0.00328732  0.00258263  0.01876073]
 [ 0.07025889  0.0016934  -0.0312907 ]] [[-0.03722448 -0.02834844 -0.04258242]
 [-0.05052363  0.02282931 -0.01419649]
 [-0.03424617 -0.01534579  0.01497925]] [[ 0.07807045  0.02704386 -0.02803528]
 [ 0.11140282  0.0415117  -0.10735728]
 [ 0.11117635 -0.01406538 -0.07482226]] [[ 0.00905354  0.01908009  0.04150772]
 [-0.00673867 -0.02646675  0.02069499]
 [-0.03209544  0.03007431 -0.03426076]] [[-0.16874854 -0.09356661 -0.06916662]
 [-0.01245619 -0.08675627  0.01593331]
 [-0.15674603 -0.07203063  0.00132819]] [[ 0.0713819  -0.0474507  -0.23353739]
 [ 0.05533123  0.011739   -0.13856034]
 [-0.08337244 -0.1774422  -0.08119418]] [[0.04435819 0.03005926 0.01246959]
 [0.03302899 0.01506322 0.03319057]
 [0.12923495 0.08983615 0.04610132]] [[ 0.00969231 -0.06776519 -0.12823533]
 [ 0.04148999 -0.00607926 -0.04384917]
 [ 0.08421559  0.03042608 -0.02535468]] [[-0.01781638 -0.16961552 -0.38086203]
 [ 0.06971034 -0.07340802 -0.35493925]
 [ 0.13036928 -0.14585231 -0.3242208 ]]
[[-0.18758091 -0.08567616  0.04721307]
 [-0.18791312 -0.10249688 -0.04698615]
 [-0.11492789 -0.09421169 -0.02694878]] [[ 0.0512193  -0.06521753 -0.15725948]
 [ 0.02908389 -0.14295831 -0.2394806 ]
 [ 0.06231231 -0.0581745  -0.27186987]] [[ 0.09156039  0.09835824  0.06127857]
 [ 0.04305293  0.06044127  0.06514768]
 [-0.00297892  0.11086345  0.01337927]] [[ 0.02620153 -0.03199065 -0.03333432]
 [ 0.01690711  0.00423498 -0.10184161]
 [ 0.01126692  0.0494383  -0.02131204]] [[-0.11093394 -0.00790407 -0.02307587]
 [-0.12835477  0.01105964  0.05088815]
 [-0.19425872 -0.11007638 -0.00364297]] [[ 0.10338267  0.10344758  0.05346174]
 [-0.00503925  0.09088577  0.10461453]
 [-0.13206127 -0.04955527  0.11025172]] [[ 0.09977733  0.0115814  -0.07003037]
 [-0.02505884 -0.02817052 -0.11501729]
 [-0.16627352 -0.07338195 -0.11722424]] [[ 0.01179236 -0.00531019  0.02000127]
 [-0.20211975 -0.05519389 -0.05263134]
 [-0.23966621 -0.13689132 -0.03240857]] [[ 0.11285701 -0.06194682 -0.07240212]
 [ 0.02653083  0.01981157 -0.12777707]
 [-0.01470772  0.04308289 -0.02409168]] [[ 0.01565785 -0.04269472  0.00178429]
 [ 0.04412518  0.04284165  0.00433669]
 [ 0.02824869  0.01284412  0.0103609 ]] [[-0.0547644   0.00957603  0.08156043]
 [-0.02765503 -0.09418047  0.02055887]
 [-0.07298844 -0.04951898 -0.10260184]] [[ 0.02808503  0.04021381  0.03322352]
 [ 0.02329109  0.01691704 -0.00015501]
 [ 0.00818367  0.03400959  0.0408781 ]] [[ 0.04178768  0.00158102 -0.00696072]
 [ 0.05436241  0.02514578  0.03372834]
 [-0.11562485  0.04535849 -0.0169632 ]] [[-0.2950825  -0.29855478 -0.20309371]
 [-0.3535497  -0.30907887 -0.2292083 ]
 [-0.2727577  -0.2559046  -0.10835685]] [[ 0.06237588  0.0801079  -0.10221013]
 [ 0.03376616  0.08856327 -0.13245669]
 [ 0.06638444  0.09149888 -0.02305954]] [[ 0.06507851  0.01041464  0.06389676]
 [-0.0350835   0.06566645  0.149168  ]
 [-0.09120256  0.05527699  0.19206801]] [[-0.0751631  -0.16508798  0.03493194]
 [-0.14804669 -0.2151123  -0.01367826]
 [ 0.02091042 -0.15963705 -0.20797761]] [[ 0.08367981  0.11484312  0.09667157]
 [-0.16015562  0.06715875  0.10497686]
 [-0.15699968 -0.03717784  0.12614585]] [[-0.07075863  0.02720896 -0.03209998]
 [-0.06360497 -0.01916016  0.00683893]
 [-0.10094521 -0.00446579 -0.05412654]] [[-0.01243883 -0.01433202  0.0024674 ]
 [ 0.01590246 -0.08668198 -0.01209728]
 [-0.02479655  0.06507804  0.01289318]] [[-0.05873746 -0.0993296  -0.04136055]
 [-0.0582968  -0.09327647 -0.14321037]
 [ 0.03612469  0.05753091 -0.08736967]] [[ 0.00033636 -0.03728718  0.05965969]
 [-0.11897114  0.02157357 -0.06740098]
 [-0.03333469 -0.09741417 -0.00294417]] [[-0.04345647  0.03395733 -0.03552866]
 [-0.13822411 -0.03769241 -0.00339483]
 [-0.05634258  0.02174795  0.07001356]] [[ 0.04955366  0.0297501   0.04740435]
 [-0.00836064 -0.07063852  0.06488254]
 [-0.12699103  0.01634013 -0.00410553]] [[-0.08276997  0.02072942 -0.02254925]
 [-0.06516004  0.00075054 -0.04365741]
 [-0.03328566  0.06967171 -0.08298439]] [[-0.09407397 -0.08507841  0.00519273]
 [-0.12611236 -0.12260896 -0.0113208 ]
 [-0.3461959  -0.12847291 -0.02270789]] [[ 0.02749275  0.00753145 -0.16099262]
 [ 0.02695456  0.1150809  -0.12177397]
 [ 0.05265087  0.11842982  0.02617143]] [[-0.00113541  0.02654938 -0.07775512]
 [ 0.03272483  0.03995099 -0.15655138]
 [ 0.03391369  0.02432182 -0.15478608]] [[-0.01199042  0.04089282 -0.07818888]
 [-0.00973491  0.03694482 -0.04369212]
 [-0.09327066 -0.00475514 -0.07847502]] [[ 0.0684053  -0.05961198 -0.0419663 ]
 [ 0.03375642 -0.0809016  -0.09087111]
 [-0.03229455 -0.03735151 -0.08275414]] [[ 0.02278841  0.0344113   0.04228255]
 [-0.05505499  0.02939674  0.01875678]
 [-0.08326852 -0.05931335  0.02527467]] [[ 0.03151477 -0.03202288 -0.00399888]
 [ 0.02944286 -0.00345863 -0.16740999]
 [ 0.05208748  0.09575205 -0.04558229]]
[[-0.14881913 -0.00347771 -0.06041883]
 [ 0.08303832 -0.0054336   0.00294738]
 [ 0.05663845 -0.03686801 -0.09083717]] [[-0.06235109 -0.15495779 -0.24749614]
 [-0.14271055 -0.05327602  0.07310187]
 [-0.00044324  0.08872092 -0.02867251]] [[-0.03750978 -0.06223015 -0.09757948]
 [-0.1250009  -0.15401128 -0.1703023 ]
 [-0.12930427 -0.10445002  0.00576527]] [[-0.01320025 -0.05274313 -0.07130503]
 [-0.08469234  0.00790739 -0.07946505]
 [-0.00978959 -0.04610929  0.06612743]] [[-0.07766426  0.03696143  0.01153549]
 [-0.01170633  0.05568146  0.00883291]
 [-0.03566423 -0.1274292   0.00443337]] [[ 0.11910021  0.01088346  0.00659018]
 [-0.03304819 -0.05558556  0.00190152]
 [-0.04154602  0.03724917 -0.0045569 ]] [[-0.03848928 -0.19199125 -0.23486638]
 [-0.04026523 -0.05206186  0.03454727]
 [ 0.02659293  0.09400922  0.05174295]] [[-0.11832499 -0.1564577  -0.10710143]
 [ 0.07905961  0.07600592  0.06401004]
 [ 0.11946536 -0.03659255 -0.10435154]] [[-0.1849217  -0.22100703 -0.03916855]
 [ 0.02398165  0.0490966   0.05909485]
 [ 0.01190058  0.04083192 -0.07894338]] [[-0.05058656 -0.00769482 -0.00526151]
 [-0.02983733 -0.02558999 -0.0251764 ]
 [ 0.00310486  0.05158472  0.04018546]] [[-0.01007952 -0.08110548 -0.05408138]
 [-0.01457719 -0.06182183 -0.09847618]
 [-0.02016251 -0.02115231 -0.04523126]] [[ 0.03785655  0.01984779 -0.00742776]
 [-0.02875235 -0.00815894  0.03381961]
 [-0.00740369  0.02798256  0.00450025]] [[ 0.03114813 -0.10810942 -0.03355272]
 [-0.11896691 -0.10238182 -0.07512785]
 [ 0.01824729  0.06708489 -0.02946495]] [[ 0.00465929  0.06345169  0.14112565]
 [ 0.114236    0.14385706  0.09299612]
 [-0.12020135 -0.13010977 -0.10664706]] [[-0.04066332 -0.07373822 -0.07652231]
 [-0.08898362 -0.06325682 -0.03030696]
 [-0.05573756  0.04901215  0.06993839]] [[-0.00847671 -0.02967258  0.02531352]
 [-0.05756658 -0.03856183 -0.04507416]
 [-0.05713697 -0.09756771  0.02489607]] [[-0.09902272 -0.09768021 -0.10448556]
 [-0.0869104   0.00764497 -0.0136366 ]
 [ 0.02450879  0.03449127 -0.14306037]] [[ 0.07254982  0.01530122 -0.02438843]
 [ 0.08867548 -0.0797881  -0.08784492]
 [-0.1332949  -0.08030974  0.06951925]] [[-0.22780259 -0.14260046  0.01831859]
 [ 0.05844     0.10162717 -0.0162857 ]
 [-0.00680251  0.00661167  0.01087561]] [[-0.00584791  0.03320588  0.00171923]
 [-0.03101069 -0.01138118 -0.08122456]
 [-0.02212894 -0.01397435  0.05022975]] [[-0.05909     0.03211737 -0.03873816]
 [-0.09846486 -0.00775676 -0.03192504]
 [-0.00582779  0.08253857 -0.05153718]] [[-0.13947636 -0.13883552  0.00422425]
 [ 0.02394255  0.00049823  0.01889491]
 [ 0.06809554  0.01793529 -0.05162477]] [[-0.13784552 -0.11528339 -0.02468382]
 [ 0.05360769  0.04102626  0.02379013]
 [ 0.03922196 -0.04163327 -0.05231756]] [[ 0.10425511 -0.02162218 -0.01548485]
 [ 0.01205234 -0.07675999 -0.02068919]
 [ 0.0098184   0.03958103 -0.02959827]] [[-0.07754035  0.05867969  0.05038878]
 [-0.0163303   0.04316738 -0.00740502]
 [ 0.00574957 -0.0751534  -0.04094312]] [[-0.03389496 -0.1433417  -0.06663946]
 [-0.02752107  0.01214102  0.0134068 ]
 [-0.01521705 -0.0750194  -0.04771006]] [[ 0.01074578 -0.00108558  0.00055   ]
 [ 0.01224335  0.0127801   0.08350522]
 [-0.01771284 -0.10802367 -0.04730727]] [[-0.15385993  0.0098062  -0.01624549]
 [-0.02122472  0.03195017  0.01475682]
 [-0.03778338 -0.01097086  0.01997732]] [[-0.0663008  -0.14196324 -0.10674801]
 [-0.05995066  0.01350431  0.00898702]
 [ 0.00210481 -0.03103903  0.05264853]] [[-0.04574471 -0.08884171 -0.15579091]
 [-0.08899006  0.00171775  0.02592836]
 [ 0.01700567  0.03918616 -0.02537585]] [[ 0.06043166 -0.0357632  -0.14597099]
 [-0.1127978  -0.09240396  0.0014622 ]
 [ 0.00083319  0.0567595  -0.0313842 ]] [[-0.05970062 -0.1520268  -0.09802103]
 [-0.04672626  0.11324441  0.14298427]
 [ 0.0600467   0.05462947 -0.03359936]]
[[-0.14564265 -0.07216322  0.02495478]
 [ 0.02537148  0.02108953 -0.03422509]
 [ 0.1049651   0.05526546 -0.03139691]] [[-0.09866942 -0.17958279 -0.23977253]
 [-0.23944914 -0.20531456 -0.25553316]
 [-0.3594396  -0.1281159  -0.18939613]] [[-0.03222809  0.09747226  0.14923687]
 [-0.07142532  0.03695948  0.03102358]
 [-0.0064768  -0.09752512 -0.13761301]] [[-0.02800419  0.05192546  0.04153906]
 [-0.08190773  0.02447459  0.04317682]
 [-0.0594355  -0.06126466 -0.07092459]] [[-0.04285229 -0.03570024  0.02725815]
 [ 0.11491301  0.03323996 -0.0699319 ]
 [ 0.078198    0.02821548  0.00986683]] [[-0.01299712  0.06286243 -0.06359137]
 [-0.02371661 -0.03699537  0.00659046]
 [ 0.04949755  0.00196742  0.00477734]] [[-0.02888319  0.01537827 -0.14211135]
 [-0.24175826 -0.24391988 -0.03955307]
 [-0.08951786  0.03145771 -0.06416892]] [[-0.17529364 -0.17693532  0.01694139]
 [-0.03337105  0.0281454  -0.00275503]
 [ 0.0616486   0.08422879 -0.07218133]] [[-0.12756461 -0.20355219 -0.10602882]
 [-0.3451381  -0.19215506  0.01637208]
 [-0.1772995  -0.12907837 -0.14600432]] [[-0.05736575  0.04980927  0.04048211]
 [ 0.0428281  -0.0007723  -0.00222445]
 [ 0.02382628 -0.01692612  0.00162766]] [[-0.06998146 -0.1517687  -0.1402704 ]
 [-0.08134537 -0.15373816 -0.01724052]
 [ 0.00545723 -0.09525504  0.02061109]] [[ 0.02081934  0.03041215  0.02034113]
 [ 0.02824663  0.03315393  0.01195882]
 [ 0.04632926 -0.03469868  0.00220446]] [[-0.03203466 -0.03159692  0.0856685 ]
 [-0.08785725  0.03701732  0.05048338]
 [ 0.09097221  0.04038321 -0.03166588]] [[-0.09895512  0.03142205 -0.01385349]
 [ 0.11941425  0.0121797  -0.2259095 ]
 [ 0.02557235 -0.13493077 -0.22867413]] [[-0.05601949  0.06830388  0.02522697]
 [ 0.00571237  0.04865238  0.0249544 ]
 [ 0.01830465  0.01503085 -0.12726255]] [[-0.04839901  0.0445613  -0.00855754]
 [-0.00126869 -0.04510895 -0.16444981]
 [-0.09778113 -0.14722708 -0.08428615]] [[-0.05681372 -0.16103579 -0.09139067]
 [-0.00340069  0.0104459   0.007253  ]
 [-0.1584894  -0.00748731 -0.03722101]] [[-0.02169269 -0.01848789 -0.00530358]
 [-0.05221498 -0.11341894 -0.22044687]
 [-0.04800875 -0.087302   -0.01321711]] [[-0.04365972 -0.039162    0.09402569]
 [-0.0112674   0.09366914  0.01360179]
 [ 0.10242683 -0.03118687 -0.01425746]] [[ 0.02838084  0.01289078 -0.01435626]
 [ 0.09348746 -0.0332621  -0.07089706]
 [ 0.0689608   0.04397944  0.03309761]] [[-0.03546397 -0.07351423 -0.00851096]
 [-0.03239864 -0.04557081  0.02925296]
 [-0.02073807  0.0375688  -0.09202054]] [[-0.12850869 -0.09295467  0.00773913]
 [-0.01987618  0.01775432  0.04318571]
 [ 0.05669736  0.07096875 -0.00558543]] [[-0.12022744  0.02105844  0.11782996]
 [ 0.08076449  0.04496727  0.06672321]
 [ 0.09209313  0.07917052 -0.03222148]] [[-0.02702736  0.01678821 -0.00984134]
 [-0.01589746 -0.10814903 -0.1242829 ]
 [-0.06366313 -0.02041668  0.03006242]] [[-0.09283739  0.03047002  0.12365281]
 [ 0.01830056  0.06689907 -0.00511569]
 [ 0.07362498 -0.02331567 -0.05444786]] [[-0.09010345 -0.12194318  0.02292033]
 [-0.11473469 -0.02415716  0.02854895]
 [ 0.052049    0.00221493  0.04666173]] [[-0.03299991  0.03371477  0.00876304]
 [ 0.04437487 -0.05464181 -0.2088683 ]
 [-0.04836956 -0.07897019 -0.16866007]] [[-0.01655755 -0.0298195   0.03480694]
 [ 0.07695194  0.03793472  0.10515743]
 [ 0.04525125  0.09281912 -0.04841211]] [[-0.01429234  0.04391734  0.03613574]
 [ 0.05886855  0.01612967  0.02593396]
 [ 0.04718883  0.02967429  0.01589872]] [[-0.10185158 -0.03350772 -0.10028263]
 [-0.10185618 -0.10994902 -0.06350522]
 [-0.12341012 -0.11253991 -0.07046515]] [[ 0.00138644  0.03861251 -0.04516785]
 [-0.1451909  -0.06209209  0.09344959]
 [-0.08303019  0.02229207 -0.00645151]] [[-0.04157257 -0.10648264 -0.17161687]
 [-0.27362508 -0.26537317 -0.05341432]
 [-0.2514513  -0.14487107 -0.10259812]]
[[-0.06645843 -0.07633972  0.03967577]
 [ 0.06992305 -0.01702395  0.00286995]
 [ 0.01252537 -0.08659104 -0.1551362 ]] [[-0.11139807 -0.23346865 -0.25309867]
 [-0.00712254  0.04584551 -0.07879643]
 [ 0.0072146   0.04778669 -0.0036282 ]] [[-0.12460893 -0.09301475 -0.08947887]
 [-0.15035488 -0.15879515 -0.13898385]
 [-0.11560179 -0.11160754  0.04778872]] [[-0.0562185  -0.03160711 -0.00975875]
 [-0.08955275 -0.02036151 -0.04358228]
 [-0.02321939  0.03673691  0.07087732]] [[ 0.01077932  0.01246025 -0.02926977]
 [ 0.05914546  0.01976842 -0.00154791]
 [-0.08731364 -0.0920644  -0.07134788]] [[ 0.07599008  0.07193155  0.03083623]
 [ 0.04658498 -0.0267845   0.01376944]
 [-0.07772821 -0.07081277  0.03645625]] [[-0.03154904 -0.09144636 -0.15685366]
 [-0.02717707 -0.01487119 -0.02597748]
 [-0.00211365 -0.00343342  0.03194809]] [[ 0.02561714 -0.03198247 -0.07877337]
 [ 0.10000705  0.05436444 -0.02905525]
 [ 0.00655306 -0.04715257 -0.0144043 ]] [[-0.10003626 -0.12486803 -0.08175661]
 [ 0.00027495 -0.04131453  0.06247742]
 [ 0.03280258  0.07485807  0.02153181]] [[-0.03682673  0.0308415   0.05781451]
 [-0.02422231  0.03208737 -0.02095825]
 [-0.04378958 -0.01417568 -0.03822272]] [[ 0.01204469  0.01990583 -0.06926139]
 [-0.09841306 -0.08956162 -0.0531433 ]
 [ 0.02332238 -0.09996442 -0.11716019]] [[-0.00991318  0.00409759  0.00286139]
 [ 0.01333619  0.06968161  0.03957305]
 [-0.06197233  0.00482866  0.05218748]] [[ 0.04397416 -0.03672724 -0.01971261]
 [-0.02827332 -0.05123154  0.00849326]
 [ 0.04371016  0.02436449 -0.00407972]] [[-0.03263703  0.06931427  0.01632364]
 [ 0.0991159  -0.04607264 -0.10962003]
 [-0.08207787 -0.17227425 -0.22740611]] [[-0.05548224 -0.03502945 -0.00887132]
 [-0.17059301 -0.07669584  0.02970003]
 [-0.17065942 -0.10624477  0.05094545]] [[-0.08879362 -0.09757067 -0.11900786]
 [-0.11978343 -0.05570992 -0.0558067 ]
 [-0.16818708 -0.0970875  -0.04119997]] [[-0.11250952 -0.20112184 -0.166851  ]
 [-0.02006479 -0.0827783  -0.03677149]
 [ 0.05691598  0.02940378 -0.11612242]] [[ 0.06930196  0.04757304  0.08147342]
 [ 0.01014483 -0.0254171  -0.02671873]
 [-0.11871333 -0.2124149  -0.04609095]] [[-0.1123472  -0.00837615 -0.06611838]
 [ 0.0400298   0.07568417 -0.00637272]
 [-0.01568419 -0.04271376 -0.08407062]] [[-0.01604538 -0.02733484  0.10641681]
 [-0.06138933 -0.05334349 -0.01212602]
 [-0.05419242  0.03988136  0.04014916]] [[-0.03322753 -0.07706176  0.0327304 ]
 [-0.22584693 -0.120688    0.02997742]
 [-0.13548996 -0.03654014 -0.07005306]] [[-0.04330071 -0.04726905  0.00190475]
 [ 0.05576788 -0.02965316  0.05241856]
 [ 0.02710186 -0.04906037 -0.07072289]] [[-0.05977806 -0.03000562  0.01051135]
 [ 0.01440678  0.04497051  0.00474008]
 [ 0.04367928 -0.07311328 -0.02167675]] [[ 0.0239167   0.02589411 -0.08119193]
 [-0.02992241 -0.07594267 -0.02381492]
 [ 0.0230613  -0.0236751  -0.03522209]] [[-0.12393329 -0.0352043  -0.04542054]
 [-0.10594958 -0.00957909 -0.06481475]
 [-0.02271354  0.01080199 -0.03034119]] [[-0.05860183 -0.09889391 -0.15316312]
 [ 0.09890806  0.04776026  0.03555765]
 [ 0.11636332 -0.0115251  -0.02438125]] [[-0.03116537  0.01305522 -0.08343598]
 [-0.03649885  0.04254305  0.03160185]
 [-0.13979208 -0.04228883 -0.04243354]] [[-0.12455899 -0.01521307  0.03243156]
 [-0.06318907 -0.11869705 -0.07959595]
 [-0.04552547 -0.05402633 -0.01514822]] [[ 0.06073336 -0.07084677 -0.09231073]
 [ 0.03537479 -0.02083572  0.01570176]
 [-0.0121105   0.0012587   0.01757275]] [[-0.08848692 -0.10285998 -0.08658627]
 [-0.07755958  0.00066757 -0.00663774]
 [ 0.0126449   0.05507296  0.04295452]] [[ 0.01612078 -0.03050276 -0.11636107]
 [-0.03319044 -0.07767882  0.00748412]
 [ 0.06795591 -0.03721195  0.03803114]] [[-0.21669887 -0.22962198 -0.20583028]
 [-0.06678395 -0.04953845  0.0058898 ]
 [-0.03904003  0.02502691  0.03307172]]
[[ 0.03500321  0.01661233  0.05899009]
 [-0.11401387 -0.0706628  -0.00548888]
 [-0.14920771 -0.15575852 -0.10028325]] [[-0.04503632 -0.1758885  -0.04915237]
 [ 0.12711857 -0.20270823 -0.17813757]
 [ 0.11210252 -0.08955024 -0.21745178]] [[-0.01511693  0.06188671 -0.20255587]
 [-0.04598188 -0.07190169 -0.26893196]
 [ 0.02832734  0.0394187  -0.02553893]] [[-0.03732874 -0.00874637 -0.05376193]
 [-0.01423393 -0.04615661 -0.07460216]
 [ 0.07319689 -0.02549183 -0.01427998]] [[-0.0581004  -0.01745915 -0.05269953]
 [-0.06834661  0.04090972  0.0501156 ]
 [-0.14230274 -0.11677161  0.02138432]] [[ 0.01850748  0.01714924 -0.04391392]
 [ 0.053519    0.07817245  0.04024187]
 [-0.04990889  0.08209486  0.0816602 ]] [[ 0.10927648 -0.06560936 -0.05818465]
 [ 0.05476806 -0.04248348 -0.21277648]
 [ 0.04435803  0.06988021 -0.08245679]] [[ 0.01925054  0.03537531 -0.09230198]
 [-0.01437941  0.02436387  0.00246713]
 [ 0.02235015 -0.05470066 -0.02703212]] [[-0.03013676 -0.12097161 -0.1642823 ]
 [ 0.10265896 -0.17551167 -0.3419977 ]
 [ 0.13792172  0.09835961 -0.08088674]] [[-0.05124136 -0.03555062 -0.01958421]
 [-0.04578962 -0.0583855   0.03590062]
 [-0.00326876  0.03398843  0.05271545]] [[-0.08969837  0.02547225  0.10303446]
 [-0.08852803 -0.10931864  0.06577741]
 [-0.03087621 -0.17217195 -0.13716923]] [[ 0.02501176  0.00298594  0.0116702 ]
 [-0.00173975 -0.05010303  0.00953013]
 [ 0.0328396  -0.04361094  0.02227136]] [[ 0.01596752  0.0096967  -0.05991187]
 [ 0.0640614   0.07291722  0.00981445]
 [ 0.03570121  0.0787072   0.09074099]] [[-0.09310975 -0.1433911  -0.07979876]
 [-0.12791851 -0.11336988  0.05112188]
 [-0.24468249 -0.14956796  0.05110166]] [[ 0.08270705 -0.13764323 -0.15852939]
 [ 0.04069167 -0.03422284 -0.01179905]
 [ 0.04710536  0.01032705  0.09916867]] [[-0.0721213  -0.07465398 -0.13826135]
 [ 0.00796667  0.13229878 -0.01408994]
 [-0.13275005  0.09441813  0.1312369 ]] [[-0.10972789  0.01545597  0.07187006]
 [-0.08858818 -0.13534336 -0.13684471]
 [-0.02382959 -0.1626548  -0.1408328 ]] [[ 0.01992134  0.09029225 -0.05700184]
 [ 0.05810747  0.07106628  0.11252281]
 [-0.12656073 -0.02747446  0.15787952]] [[-0.00486241 -0.08067559 -0.02575089]
 [-0.01952343 -0.08541828 -0.00706715]
 [-0.00628637  0.0031866   0.0613587 ]] [[-0.02788257 -0.01350474  0.08074422]
 [-0.11622079 -0.00752379  0.02565832]
 [-0.02673949  0.01034371 -0.07692911]] [[ 0.04666024 -0.0396071  -0.0417053 ]
 [-0.13385598 -0.10101064 -0.04176997]
 [-0.06434923 -0.07919895 -0.05428822]] [[ 0.05749836  0.00234871  0.01353197]
 [ 0.01530621 -0.07959368  0.0388272 ]
 [ 0.02186524 -0.03047435  0.00542208]] [[ 0.04683491  0.01500513 -0.10191082]
 [-0.02809763  0.00171284 -0.01344552]
 [-0.09609743  0.00602554 -0.05552567]] [[-0.00480385  0.02181389  0.04302868]
 [ 0.01108169 -0.01173462  0.02858824]
 [-0.02969317 -0.02098865  0.06812026]] [[ 0.00664109 -0.07393916 -0.05098867]
 [-0.05021422 -0.14801896  0.01515711]
 [-0.05428268 -0.06574743  0.02455931]] [[ 0.04318426 -0.0141798  -0.03709724]
 [ 0.04889495 -0.05173708 -0.11043109]
 [-0.03297281 -0.00737398 -0.06301959]] [[-0.06830855 -0.17181496 -0.08938301]
 [-0.03982163 -0.06453375  0.0581099 ]
 [-0.03249872  0.05030558  0.12687548]] [[ 0.09312445 -0.11301795 -0.14318138]
 [-0.11802293 -0.15461348 -0.06183359]
 [-0.00797823 -0.14398985 -0.09035889]] [[ 0.01385627  0.00615518 -0.01378314]
 [ 0.03970893 -0.0782224  -0.01240325]
 [-0.0131674  -0.012426   -0.00295885]] [[-0.05465424 -0.12213831  0.07094804]
 [ 0.12973778  0.01856558 -0.1154907 ]
 [ 0.05039578  0.12115107 -0.14114809]] [[ 0.07732669  0.00656939  0.01940535]
 [ 0.02578008 -0.10502046 -0.11907183]
 [ 0.03292361 -0.04479327 -0.07051797]] [[ 0.0109941  -0.09471846 -0.01961288]
 [ 0.04969361 -0.0923131  -0.30034876]
 [ 0.13121124  0.03387325 -0.11601686]]
[[-0.04910081 -0.16099249 -0.0198309 ]
 [ 0.00410871  0.07671727 -0.00498975]
 [ 0.12537554 -0.0213437  -0.12288716]] [[ 0.07534103  0.01200788 -0.30791008]
 [-0.25374073 -0.11310149 -0.1836608 ]
 [-0.18440033 -0.1207662  -0.11139715]] [[-0.1027165  -0.03325631  0.03966193]
 [-0.19646893 -0.0778904  -0.03427896]
 [-0.10052031 -0.18376626 -0.09167483]] [[-0.03816476  0.02113072  0.03153069]
 [-0.05900608  0.00748009 -0.05955052]
 [-0.05392571 -0.05975522 -0.01167658]] [[-0.08677312 -0.05466535 -0.02594979]
 [ 0.08418463  0.01618362 -0.02112702]
 [ 0.07533753  0.02338794 -0.08152509]] [[ 0.14670344  0.0421382   0.07648961]
 [ 0.07900062 -0.03671401 -0.02445608]
 [-0.01090895 -0.01697398  0.05046048]] [[ 0.18742798  0.02731585 -0.18513359]
 [-0.15110983 -0.2150841  -0.07599615]
 [-0.09719695  0.08886779  0.01706963]] [[ 0.07121871 -0.05946089 -0.09211923]
 [-0.06250429 -0.04321788  0.04822266]
 [ 0.0992355   0.13334988  0.03066855]] [[-0.08745299 -0.16305152 -0.09195395]
 [-0.1132083  -0.13376209 -0.06850576]
 [-0.04392358  0.02622095  0.0128905 ]] [[ 0.03839918 -0.03125243 -0.03665834]
 [-0.05223342 -0.04294483  0.02736612]
 [ 0.05333195 -0.04795378 -0.01552207]] [[-0.02292318 -0.08219258 -0.13481636]
 [-0.01368687 -0.10474608 -0.15922402]
 [-0.11704072 -0.17069174 -0.09703384]] [[-0.05689568 -0.01203137  0.04148176]
 [ 0.01096127 -0.03172215 -0.0033838 ]
 [ 0.02765325 -0.0101191  -0.0186057 ]] [[ 0.15066387 -0.02159662 -0.03873323]
 [ 0.06473109  0.00677069 -0.05867369]
 [-0.00908444  0.05817632  0.1032572 ]] [[-0.23223989 -0.1115974   0.03984754]
 [ 0.1538453   0.18369834  0.09788422]
 [ 0.12851715 -0.06996507 -0.18314692]] [[-0.13248846  0.05018949  0.03985709]
 [-0.1203118  -0.07962852  0.03063554]
 [-0.09552472  0.00944753  0.05008425]] [[-0.04933636 -0.01575841 -0.05015826]
 [-0.03366528 -0.01700547  0.01579485]
 [-0.11093599 -0.11246706 -0.03574216]] [[-0.05258613 -0.18481183 -0.1545241 ]
 [-0.18059924 -0.1892045  -0.09687155]
 [-0.05745024 -0.03695931  0.01904243]] [[ 0.11103595  0.07787409  0.07408338]
 [ 0.15946485  0.02567416 -0.05765384]
 [-0.02976799 -0.0783387  -0.07052372]] [[-0.13300866 -0.11411586 -0.08936105]
 [ 0.0138054   0.04197359  0.0881763 ]
 [ 0.0792549   0.09241875  0.05184641]] [[-0.0137807   0.07717369  0.10162642]
 [ 0.11688348 -0.01143678 -0.02758353]
 [-0.09096887 -0.00563344 -0.0566975 ]] [[-0.14290974 -0.00237764  0.00241589]
 [-0.04873759 -0.10671985 -0.07903874]
 [-0.00891827 -0.00812685 -0.02277012]] [[-0.0068612  -0.09205487 -0.10618537]
 [-0.07854912 -0.03004767  0.07063578]
 [ 0.060405    0.08036979 -0.02203709]] [[-0.03471972 -0.13947588 -0.02726243]
 [-0.01084297  0.07315157  0.00697161]
 [ 0.14601302  0.09157669  0.0381239 ]] [[ 0.10527602  0.01461772  0.00396977]
 [ 0.08803406 -0.04947647 -0.0366363 ]
 [-0.05768522 -0.12675913 -0.01671946]] [[-0.18956022 -0.04494616  0.03517012]
 [-0.0370464   0.05876353  0.07386625]
 [-0.04433037 -0.002489    0.00802429]] [[ 0.12625755 -0.04583108 -0.19337158]
 [-0.05391024 -0.1567636  -0.00265136]
 [ 0.07489944  0.04414875 -0.0337349 ]] [[-0.15791442 -0.00759419 -0.04704911]
 [ 0.01047407 -0.04887132  0.00291015]
 [-0.03577551 -0.10218263 -0.08922824]] [[-0.1189599  -0.07522152  0.01216203]
 [-0.08768849 -0.02901838  0.08050829]
 [ 0.02800495  0.0665921   0.05246078]] [[0.04841586 0.01216937 0.00389097]
 [0.08496198 0.06254454 0.03956678]
 [0.14602244 0.01355899 0.06285311]] [[-0.10799684 -0.08945973 -0.20444736]
 [-0.13979314 -0.07509038 -0.16208266]
 [-0.11929148 -0.03678554 -0.11729566]] [[ 0.12508425 -0.03057553 -0.03915717]
 [-0.0910116  -0.07129677 -0.07483365]
 [-0.02412605  0.00967637 -0.04242177]] [[-0.04525026 -0.12763996 -0.04142025]
 [-0.16542739 -0.11795187 -0.04120653]
 [-0.05775135  0.03162396  0.03646989]]
[[ 0.01642677  0.02660257  0.03083867]
 [-0.02060216 -0.06279211 -0.00705658]
 [-0.06333839 -0.0552     -0.03390623]] [[ 0.02683494  0.01360845 -0.05382426]
 [-0.01316571 -0.00853248 -0.00881296]
 [ 0.03528867  0.02540891  0.0531558 ]] [[ 0.0005248  -0.03341962 -0.05110731]
 [ 0.03437292 -0.04699203  0.03176751]
 [ 0.03441244  0.01747278  0.00950337]] [[-0.00421378  0.02261101 -0.03731905]
 [ 0.04772304  0.00501993 -0.00384572]
 [-0.02232237  0.009773   -0.03109459]] [[-0.05610657  0.04382183 -0.05116543]
 [-0.02174923  0.01827843 -0.00310021]
 [-0.05365301  0.03741976  0.03288389]] [[-0.0220104  -0.01623476 -0.00441155]
 [-0.01488463 -0.00231713  0.00072305]
 [-0.04656282 -0.03355636 -0.05260905]] [[-0.01627698 -0.01724894  0.00154169]
 [-0.01222588 -0.0271329  -0.04438877]
 [-0.014837    0.04207502 -0.01733773]] [[-0.02939582 -0.01798536  0.04004685]
 [-0.0169319   0.00629337 -0.01773582]
 [-0.04246645 -0.05451411 -0.03111251]] [[ 0.03705291 -0.03213738  0.04524042]
 [-0.02098984  0.01620843 -0.00892232]
 [ 0.04126366  0.02079307  0.02470092]] [[-0.01374685 -0.0046214  -0.02420576]
 [-0.03197902  0.03726339 -0.00822779]
 [ 0.00630867 -0.00822269 -0.0145951 ]] [[ 0.0068781   0.05106281 -0.05892488]
 [ 0.03997016  0.04400827 -0.03724061]
 [ 0.03467163 -0.00704691 -0.05957271]] [[ 0.00102584 -0.02121978  0.04087378]
 [-0.01245892  0.01333573 -0.03523446]
 [-0.03172475 -0.03545395  0.00034758]] [[ 0.04104245 -0.02261703  0.02146297]
 [-0.04880155 -0.02784033 -0.07249764]
 [-0.05482762  0.01620926  0.00169327]] [[-0.04717144 -0.03758102  0.00312921]
 [ 0.01047405 -0.03150131 -0.06181891]
 [-0.02200375  0.04416845 -0.02424847]] [[ 0.02376408 -0.04843165  0.00222358]
 [-0.04550593 -0.03749878 -0.06294066]
 [-0.04762775 -0.07027689  0.01713833]] [[-0.03428689 -0.00634941 -0.00073409]
 [ 0.0510454  -0.05828205  0.00045194]
 [-0.02715457 -0.06282558  0.01335601]] [[-0.04442813 -0.06383683 -0.04333433]
 [-0.06446911  0.04387553 -0.00331689]
 [ 0.03462377 -0.01419151  0.01405339]] [[ 0.03411467 -0.01819701  0.02064094]
 [ 0.01912695 -0.05926961 -0.00601021]
 [-0.05183787  0.01146657 -0.03104128]] [[ 0.01378038 -0.07153432  0.03443045]
 [-0.07081544 -0.00058038 -0.0663154 ]
 [ 0.00468593 -0.01144754  0.04412613]] [[-0.05968122  0.04873752  0.00208651]
 [-0.06297527 -0.0424927   0.04406978]
 [-0.02276765 -0.04742992 -0.06546762]] [[-0.02130613 -0.05370522 -0.06166814]
 [-0.05037338 -0.03037633 -0.00428564]
 [-0.02401764 -0.07129439  0.02433053]] [[ 0.00038097 -0.0502218  -0.0505092 ]
 [-0.04567236 -0.06663851 -0.06337823]
 [-0.03909293  0.04686109 -0.00662127]] [[-0.04454264 -0.06897037 -0.0295736 ]
 [-0.02530486  0.0169071  -0.02272085]
 [-0.05740963  0.03429752  0.04129649]] [[ 0.03039546 -0.06054994 -0.05704797]
 [-0.03076116 -0.05586208  0.04073153]
 [-0.0327554  -0.05814681 -0.01430805]] [[-0.03161198 -0.01457855 -0.0431658 ]
 [ 0.00951862  0.04607072  0.05058244]
 [-0.02509914 -0.01409789  0.00063385]] [[ 0.01598268  0.02699088  0.01626952]
 [-0.06114512 -0.0187777   0.0302091 ]
 [-0.06503274  0.01907168 -0.03817444]] [[-0.05170856 -0.019471    0.02782529]
 [-0.01830551 -0.05921317 -0.04945766]
 [-0.06294647 -0.02265033 -0.0181612 ]] [[-0.03086878 -0.0572773   0.04073898]
 [-0.04091389 -0.00070925 -0.02089004]
 [-0.0262745   0.03419376  0.00562297]] [[-0.00113171 -0.04968559 -0.00181842]
 [ 0.01270096  0.01319064 -0.02399708]
 [ 0.00287023  0.00493352  0.03474931]] [[ 0.04045429  0.00324483 -0.05859761]
 [ 0.02509676 -0.04550867  0.00557404]
 [-0.04242802 -0.04025324  0.04156093]] [[-0.05202541 -0.06269576 -0.00166355]
 [-0.05063877 -0.0257675  -0.01895112]
 [-0.06177836 -0.0386816   0.04405994]] [[-0.02111367 -0.05365552  0.0071689 ]
 [ 0.03862135 -0.01985053 -0.04320439]
 [-0.02405087 -0.01703957 -0.03486466]]
[[-0.04507447  0.03123871  0.00839007]
 [-0.15337473 -0.16252178  0.04820152]
 [-0.03495917 -0.116377   -0.00949891]] [[-0.05214852 -0.27273202 -0.0546301 ]
 [ 0.04094373 -0.2297907  -0.25143346]
 [ 0.13096642 -0.00210519 -0.03607969]] [[ 0.05723508  0.05471988 -0.18052886]
 [-0.00489024  0.08309379 -0.21924876]
 [ 0.08980019  0.04077855 -0.00176771]] [[ 0.04623292 -0.08188439 -0.07362405]
 [ 0.0712771   0.02182407 -0.124915  ]
 [-0.0158938   0.01219883 -0.0502414 ]] [[-0.11735693  0.02502533  0.02637528]
 [-0.15513696  0.03961296  0.02700743]
 [-0.15081204 -0.08721516  0.08226491]] [[ 0.08785363  0.06824012  0.00829914]
 [-0.05818848  0.11708367 -0.03761794]
 [-0.06366174  0.06315591  0.05348198]] [[ 0.16099255 -0.03807966 -0.18097861]
 [ 0.06166784 -0.03074441 -0.22392002]
 [-0.10859444  0.01118579 -0.05980808]] [[ 0.10931401  0.00454694 -0.07616215]
 [-0.04845644 -0.02355715 -0.01187395]
 [-0.12518144 -0.03271546  0.0913707 ]] [[-0.00096081 -0.2266164  -0.20018256]
 [ 0.03175196 -0.11167962 -0.23188463]
 [ 0.10648491  0.12714417  0.04871834]] [[ 0.04283632  0.01833046 -0.04304911]
 [-0.04920378 -0.05707596  0.0571004 ]
 [-0.03603185 -0.01903697 -0.00166294]] [[-0.12217701  0.02435507  0.10907989]
 [-0.16614695 -0.08837223  0.0520095 ]
 [-0.06618213 -0.14799519 -0.01698495]] [[-0.05835679 -0.01854183 -0.01049592]
 [-0.01618247 -0.01176501  0.05332492]
 [-0.0169412   0.04225008  0.07554449]] [[ 0.06233649 -0.02198716 -0.0676728 ]
 [-0.00225174 -0.00895161 -0.07577015]
 [-0.11478539  0.0745533   0.07569469]] [[-0.22391169 -0.20468582 -0.08982632]
 [-0.241921   -0.24749698  0.07195093]
 [-0.1924798  -0.12785748  0.04131509]] [[ 0.05359805 -0.10813522 -0.19120316]
 [ 0.05743796 -0.04076687 -0.00662503]
 [ 0.06802388 -0.03805656  0.01302761]] [[-0.0501316   0.04791796 -0.13072756]
 [-0.06252784  0.16080783 -0.00137719]
 [-0.16409023  0.05347398  0.20365132]] [[-0.13859384  0.00095507  0.04890626]
 [-0.0843852  -0.08147311 -0.14341071]
 [-0.04601849 -0.06887981 -0.17900276]] [[ 0.0940646   0.11402688 -0.03933221]
 [-0.06676573  0.07518514  0.07929926]
 [-0.12388993 -0.00850192  0.18690397]] [[ 0.02421426  0.01180526 -0.10657779]
 [ 0.00214641 -0.0997429  -0.02187637]
 [-0.01660836 -0.05512594  0.01003466]] [[-0.03876223 -0.01380775  0.13454604]
 [-0.07188589 -0.01659677 -0.04569808]
 [ 0.06331486  0.08759255  0.01064884]] [[-0.04859004  0.0278137  -0.09156007]
 [-0.03246418 -0.09633025 -0.06312   ]
 [ 0.02247379 -0.03370402 -0.1536654 ]] [[ 0.05453999  0.03969575  0.03997064]
 [-0.04722808  0.01517431  0.00242076]
 [-0.06117321 -0.10306957  0.04239659]] [[-0.07219651  0.02275187 -0.03350161]
 [-0.07223882 -0.06179069 -0.02161992]
 [-0.08459117 -0.03234437 -0.02289511]] [[-0.02720117  0.002558    0.08639195]
 [ 0.03616892 -0.02114124  0.10673919]
 [-0.04034963 -0.07630022 -0.02620139]] [[ 0.0159905  -0.11896496 -0.15880953]
 [ 0.00400413 -0.11361495  0.00112435]
 [ 0.05332522 -0.04186708  0.01039779]] [[ 0.07960693  0.04519932  0.02330556]
 [ 0.00325801 -0.04810241 -0.04545751]
 [-0.12253225 -0.11290403 -0.04763351]] [[ 0.01901603 -0.10159036 -0.04612434]
 [ 0.06011529  0.00277549  0.00424706]
 [ 0.02182649  0.07192975  0.10567771]] [[-0.02122665  0.00251455 -0.08771845]
 [ 0.04560252 -0.19536988 -0.15535255]
 [ 0.07312962 -0.0684659  -0.12725206]] [[ 0.04992821 -0.03294737  0.00087207]
 [-0.06739639 -0.10965052  0.02009544]
 [-0.04860833 -0.0472794  -0.0506907 ]] [[-0.00548346 -0.07778145 -0.03512023]
 [ 0.0998114   0.02642136 -0.14552066]
 [ 0.05368516  0.08440322 -0.11216853]] [[ 0.06499235  0.02432721  0.02170644]
 [ 0.0477678  -0.01076737 -0.15006115]
 [-0.01400157 -0.04118046 -0.06183067]] [[-0.03263216 -0.09922704 -0.16768873]
 [ 0.06780671 -0.11190249 -0.28689393]
 [ 0.07130108  0.0330822   0.02260331]]
[[ 0.02184847 -0.04207885 -0.0417104 ]
 [-0.05967214 -0.10038465 -0.0435306 ]
 [-0.08509991 -0.08204433 -0.04465039]] [[-0.13107967 -0.11609313 -0.27967247]
 [-0.09119943 -0.16668421 -0.537187  ]
 [-0.13456357 -0.12037908 -0.56387305]] [[0.08658376 0.14598973 0.18296161]
 [0.10567759 0.09810756 0.14172569]
 [0.11718918 0.0998348  0.0913469 ]] [[-0.05042374  0.06802008  0.00122861]
 [-0.02413682  0.08903315 -0.01718007]
 [-0.04678153  0.02756459  0.03342632]] [[-1.1499902e-01 -1.3427815e-04  2.3677384e-02]
 [-8.6040206e-02 -3.6042903e-02  4.6946574e-03]
 [-1.5703379e-01 -1.5297224e-02  3.9226312e-02]] [[-0.15072836 -0.00493768  0.04310324]
 [-0.14411221 -0.04563159  0.13807558]
 [-0.1520202  -0.00984741  0.07569988]] [[-0.33927688 -0.1616996  -0.05851971]
 [-0.22066137 -0.14411768 -0.14400373]
 [-0.14044172 -0.19178563 -0.2608821 ]] [[-0.24316211 -0.19415158  0.03207911]
 [-0.19110583 -0.15392075 -0.06837744]
 [-0.2411882  -0.17613217 -0.04325223]] [[-0.1924643   0.04697146 -0.02025026]
 [-0.10663454 -0.01562074 -0.05848615]
 [-0.20724347 -0.01766711 -0.09182595]] [[ 0.00041982  0.05300076 -0.00870498]
 [ 0.03349443 -0.00315872 -0.04966255]
 [-0.0547989   0.02453856 -0.04957861]] [[-0.09980442 -0.04396763  0.06330977]
 [ 0.02779987 -0.06380841  0.06758824]
 [-0.00916908 -0.18172997  0.07263036]] [[-0.06694481 -0.02978845 -0.00775552]
 [-0.00449471 -0.00340605 -0.08566655]
 [-0.03118037 -0.01498768  0.04724374]] [[-0.13727072 -0.00229151  0.0614399 ]
 [-0.03750153 -0.00713123  0.08809675]
 [-0.10799818  0.00776623  0.01713873]] [[-0.1624728  -0.06696214 -0.25327384]
 [-0.21274383 -0.21288002 -0.27985585]
 [-0.10099781 -0.1470001  -0.16747126]] [[ 0.13616729  0.17198426 -0.05085899]
 [ 0.0744766   0.15705703 -0.07209548]
 [ 0.10753487  0.16614053 -0.03597534]] [[ 0.01515953  0.02909253  0.05880248]
 [-0.07573149 -0.02351644  0.09959051]
 [ 0.0170456  -0.00142569  0.15511787]] [[-0.05956591 -0.22479366  0.12901153]
 [ 0.01109486 -0.22570334  0.01261598]
 [-0.04264166 -0.21706723 -0.07687469]] [[-0.23008166 -0.16990301 -0.0590958 ]
 [-0.24045414 -0.19924441  0.02666113]
 [-0.27222347 -0.02996304  0.11015712]] [[-0.01269499  0.06970397  0.05748223]
 [-0.07958472  0.03889     0.02174093]
 [-0.01557542 -0.00832748  0.05448833]] [[-0.05424567  0.07188424 -0.03210273]
 [-0.03827023  0.03016912  0.03743749]
 [ 0.04040294  0.09579713  0.05242332]] [[ 0.0020111   0.11571217 -0.00507918]
 [ 0.04009371  0.10771414 -0.07508608]
 [-0.01832637  0.09952158 -0.10147765]] [[-0.00385164  0.02881758  0.0713755 ]
 [-0.00081569  0.01684829 -0.04237948]
 [-0.13007338 -0.03062963 -0.03738748]] [[-0.06660627  0.12086771  0.07857943]
 [-0.10367846 -0.00352743  0.04178192]
 [-0.12597643 -0.04077593 -0.0044772 ]] [[-0.06537583 -0.03390566 -0.05756539]
 [-0.05535562  0.03175595 -0.03726012]
 [-0.01917891  0.00263714  0.01237966]] [[ 0.06021801  0.06686596  0.05907448]
 [ 0.02455358  0.09986353 -0.05935388]
 [ 0.05559364  0.03725898 -0.00939887]] [[-0.23949544 -0.11731886 -0.01613792]
 [-0.17140177 -0.11131808 -0.01438422]
 [-0.16522825 -0.1418347  -0.03100673]] [[ 0.09602347  0.11928852 -0.13379006]
 [ 0.07809119  0.06178094 -0.0965865 ]
 [ 0.04018814  0.04859015 -0.1065959 ]] [[ 0.04157368  0.16015533 -0.02991867]
 [ 0.10325415  0.06600634 -0.05975477]
 [-0.00677014  0.09701267 -0.00109503]] [[-0.16093263  0.09564857  0.00934833]
 [-0.14364946  0.06288354 -0.02265681]
 [-0.05266046  0.00994658  0.02941102]] [[-0.01968013 -0.12888715 -0.0470525 ]
 [ 0.00999717 -0.16477095 -0.10114222]
 [-0.0376221  -0.25485855 -0.14554262]] [[-0.17025833 -0.04824382  0.0442004 ]
 [-0.10030267 -0.0371469  -0.01679171]
 [-0.14350997 -0.05060385  0.02702854]] [[-0.194812    0.0683936  -0.0306167 ]
 [-0.15022853  0.03644257 -0.12029192]
 [-0.2088207  -0.00956854 -0.15532082]]
[[-1.4523768e-01 -1.1022938e-01 -5.7595324e-05]
 [-2.3594543e-01 -1.0316063e-01  4.6710465e-03]
 [-1.6604963e-01 -4.1741788e-02 -9.8630637e-03]] [[-0.27117118 -0.34578073 -0.32513508]
 [-0.20104243 -0.23385447 -0.09822462]
 [-0.23894851 -0.2253179  -0.23239255]] [[-0.11378501 -0.0453624   0.06514936]
 [ 0.05181584 -0.00031714  0.06658581]
 [ 0.11143084  0.03767782 -0.05744779]] [[-0.04588426 -0.03526961 -0.02403169]
 [-0.05204675 -0.00759603  0.0018225 ]
 [-0.02825949 -0.04436825  0.0024445 ]] [[-0.04006175 -0.02206506  0.00897301]
 [-0.17159565 -0.04492324  0.02726666]
 [-0.09146835  0.04616826 -0.02849188]] [[-0.00701544 -0.00743684 -0.0668376 ]
 [-0.12937035 -0.09582491 -0.06573377]
 [-0.08420943 -0.01034776  0.03302541]] [[-0.15191482 -0.13482286 -0.18299411]
 [-0.0816735  -0.16617368 -0.10411927]
 [-0.07363304 -0.23876867 -0.08791655]] [[-0.1257213  -0.16783778 -0.10352307]
 [-0.04208275 -0.16268186  0.08067749]
 [-0.28560203 -0.14520478  0.00342661]] [[-0.20489816 -0.28281003 -0.2768328 ]
 [-0.23706608 -0.25575972 -0.11537662]
 [-0.44495487 -0.14803499 -0.04437686]] [[ 0.04092734 -0.04939377 -0.01711364]
 [ 0.02039235  0.04999071 -0.01393015]
 [-0.04737154 -0.04482283 -0.05877519]] [[-0.12446213 -0.16069098 -0.2665739 ]
 [-0.19130692 -0.08347563 -0.16994505]
 [-0.16992508 -0.08005907 -0.05769873]] [[-0.06381917  0.04202188 -0.04038065]
 [ 0.01653828 -0.00372605  0.01498815]
 [-0.02660271  0.05126297  0.02070673]] [[-0.05908497 -0.09875207 -0.06550489]
 [-0.11304621 -0.02810368 -0.02377848]
 [-0.08618049  0.00617475 -0.02505598]] [[-0.07070432  0.0854733   0.04924862]
 [-0.00497595 -0.04614887 -0.04934793]
 [ 0.07350726  0.02928945 -0.08764556]] [[-2.7748542e-02  8.3239488e-02  5.0630305e-02]
 [-7.9139892e-05  6.3614488e-02  4.1260239e-02]
 [ 8.7169513e-02  2.9171815e-02  1.9630268e-02]] [[-0.01860236  0.09792999 -0.03744881]
 [ 0.02125024 -0.01014295 -0.11535434]
 [ 0.1072877  -0.03159993 -0.18987162]] [[-0.12677096 -0.09028654 -0.08624253]
 [-0.08595161 -0.06588905 -0.02686477]
 [-0.13162592 -0.06417108  0.03295616]] [[-0.06323487 -0.08892393 -0.07540646]
 [-0.13197084 -0.1025629  -0.19674641]
 [-0.13241637 -0.09821052 -0.11102469]] [[-0.09407328 -0.08123203  0.10756481]
 [-0.03589359 -0.04357395 -0.01351576]
 [ 0.01156444  0.00456154  0.00269066]] [[-0.07652557 -0.07264718  0.04006515]
 [-0.10970699 -0.08411025 -0.03546517]
 [-0.07821213  0.10233833  0.00356068]] [[-0.05015494 -0.00339893  0.0012825 ]
 [-0.06696872 -0.07976017  0.02918925]
 [-0.04598389 -0.01093025  0.02975732]] [[-0.08493692 -0.05908735 -0.0147194 ]
 [-0.0617674  -0.01267595  0.02725011]
 [-0.09939862 -0.03091398  0.05026416]] [[-0.12605399 -0.01189949  0.09819156]
 [-0.05753012  0.05438162  0.06166512]
 [-0.10523073  0.05462047  0.02254222]] [[-0.00866156 -0.03526521 -0.06178391]
 [-0.02937244 -0.02953441 -0.02249308]
 [-0.10081944  0.02937352 -0.02741618]] [[-0.08390973 -0.04442105  0.10868828]
 [ 0.03308608  0.01618542  0.00168963]
 [ 0.02626591  0.06105353 -0.06200954]] [[-0.15311044 -0.15837057 -0.11764532]
 [-0.07021945 -0.04760175 -0.00024321]
 [-0.10519625 -0.11232395 -0.02807273]] [[ 0.00409068  0.01033514  0.0305036 ]
 [ 0.0216282   0.05053558  0.01843095]
 [-0.03350094 -0.02896832 -0.10195667]] [[-0.13098672 -0.03939313  0.06961849]
 [ 0.00751531  0.0310998   0.0574455 ]
 [ 0.08436923  0.00102192  0.03373262]] [[-0.04931901 -0.12653795  0.03543644]
 [-0.13349932  0.00200283  0.08105326]
 [-0.0804407   0.05158957  0.06852666]] [[-0.09031409 -0.19798201 -0.16558462]
 [-0.04998093 -0.12838891 -0.11019609]
 [-0.1648197  -0.18785049 -0.04807844]] [[-0.15273222 -0.09060618 -0.04849706]
 [-0.13539736 -0.00763084 -0.00451502]
 [-0.03190343 -0.01381476  0.06885093]] [[-0.31673685 -0.25757578 -0.18428558]
 [-0.12980866 -0.17893912 -0.06109449]
 [-0.39331436 -0.28457817 -0.15800872]]
[[ 0.04571752 -0.02948664  0.05689622]
 [-0.0049897  -0.04629235  0.00726085]
 [-0.06750252 -0.06131788 -0.06898877]] [[-0.16172102 -0.21988916 -0.24551392]
 [-0.15662223 -0.28254575 -0.44174626]
 [-0.28476676 -0.29364857 -0.41004506]] [[0.00330549 0.04670466 0.0448529 ]
 [0.01747723 0.12060026 0.09203159]
 [0.00337588 0.06775448 0.14665958]] [[ 0.0014669  -0.02185997  0.01980955]
 [-0.01580169  0.07417539  0.08000137]
 [-0.05343089  0.00660377  0.02286441]] [[-0.04562633 -0.03964005  0.01958418]
 [-0.08087824 -0.0852268   0.00666911]
 [-0.06637537  0.00899329  0.08671359]] [[-0.1908734  -0.11151424  0.030807  ]
 [-0.21991883 -0.03147731  0.00978536]
 [-0.13734958 -0.04204413  0.03461422]] [[-0.3728893  -0.20302126 -0.03598695]
 [-0.19551274 -0.20356348 -0.086163  ]
 [-0.10028586 -0.23668207 -0.17632228]] [[-0.32222512 -0.19679254 -0.01422547]
 [-0.14903276 -0.21494107 -0.06107586]
 [-0.12431562 -0.13667612 -0.0844022 ]] [[-0.10939703  0.0423122  -0.02685686]
 [-0.21281482 -0.06860455 -0.08649898]
 [-0.24716985 -0.11757878 -0.1155451 ]] [[ 0.05017526 -0.00058932  0.0260225 ]
 [ 0.00873647  0.05546307  0.01764901]
 [-0.02572764  0.04087977  0.04848586]] [[-0.07114667 -0.0992134  -0.12689885]
 [-0.09163461 -0.06099188 -0.03006751]
 [-0.03295254 -0.13284677  0.0390636 ]] [[ 0.01154562 -0.0203506  -0.00966293]
 [-0.04675342  0.01963576 -0.0342178 ]
 [ 0.00301535 -0.0009394  -0.03984784]] [[-0.21306476  0.04775124  0.11495444]
 [-0.02756843  0.03180492  0.00612492]
 [-0.1293279   0.07084239  0.01610726]] [[-0.10801436 -0.10725982 -0.09706185]
 [-0.18976225 -0.12810457 -0.21974075]
 [-0.02268    -0.11960907 -0.17470744]] [[0.10792245 0.06413583 0.06903423]
 [0.01297171 0.10100993 0.09468729]
 [0.03320822 0.0953348  0.06286196]] [[ 0.00150995  0.00016191 -0.01584439]
 [-0.11143227 -0.06782974  0.04453994]
 [ 0.02317699  0.03914326  0.03814203]] [[-0.08009213 -0.11374293 -0.07998769]
 [-0.01128924 -0.09944013 -0.08500647]
 [ 0.01682216 -0.14946033 -0.17354444]] [[-0.23762164 -0.24587429 -0.08080473]
 [-0.23899749 -0.20128484 -0.1281684 ]
 [-0.2114958  -0.07706362  0.05550932]] [[ 0.04737506  0.03588522  0.09870704]
 [-0.05712806  0.01300727 -0.01541316]
 [-0.1216074  -0.03594422  0.04883447]] [[-0.07573567  0.07588591 -0.02638045]
 [ 0.00834061 -0.00388417 -0.02680012]
 [-0.02612882  0.07992009  0.02032655]] [[-0.01064753  0.06444786  0.05858275]
 [ 0.01328031  0.05410274 -0.03816144]
 [-0.0083945   0.00563682  0.05844294]] [[-0.07665822  0.00722147  0.01934358]
 [ 0.00047017  0.00085029  0.04213991]
 [-0.05358901 -0.00297229  0.05246685]] [[-0.12466785  0.03674307  0.0976212 ]
 [-0.11192074  0.05984337  0.0061519 ]
 [-0.1674375   0.04230583  0.06428309]] [[-0.09672177 -0.06783717 -0.03347116]
 [-0.07175495 -0.0403046  -0.01771308]
 [-0.00732552 -0.02614178  0.01459052]] [[ 0.09382681  0.10106204  0.0380068 ]
 [-0.01666296  0.03936718  0.06970402]
 [-0.04828669  0.06330198  0.07007492]] [[-0.33870336 -0.2445698   0.05175146]
 [-0.22292025 -0.18494496  0.02685992]
 [-0.09775184 -0.21917574 -0.08414908]] [[ 0.03530978  0.07642195  0.07050732]
 [-0.0274054   0.04579601  0.0351904 ]
 [ 0.03069346  0.01875288 -0.0281649 ]] [[ 0.0071983   0.14605507  0.11760424]
 [ 0.04977801  0.07051158 -0.0117047 ]
 [ 0.02066528  0.06462225 -0.00344513]] [[-0.07571399  0.02441787  0.13472022]
 [-0.06035782  0.05117971  0.0485983 ]
 [-0.14418562 -0.010134    0.08393638]] [[-0.00419313 -0.09643163 -0.19270729]
 [-0.04850434 -0.02020591 -0.1510016 ]
 [-0.03285566 -0.11804695 -0.17401344]] [[-0.22854534 -0.1376525   0.14480782]
 [-0.1620712  -0.01161226  0.01960394]
 [-0.07535861 -0.11219551 -0.02728064]] [[-0.21282427 -0.0412378   0.01526256]
 [-0.18101563 -0.03360058 -0.05694854]
 [-0.23339626 -0.2516064  -0.14254001]]
[[-0.00186614 -0.02090953  0.03893276]
 [-0.10665195 -0.02465013 -0.00700521]
 [-0.06876563 -0.13071604 -0.02833095]] [[-0.22333297 -0.2561408  -0.1796779 ]
 [-0.00464355 -0.04771867 -0.12400444]
 [-0.02374926 -0.10494089 -0.05515119]] [[-0.0099977   0.03106054 -0.11996582]
 [-0.07271653  0.00432445 -0.07859409]
 [ 0.00718541  0.07918311  0.0252605 ]] [[ 0.00986322 -0.01831463 -0.03181384]
 [-0.0721164   0.02018572 -0.07569298]
 [ 0.02428976  0.0383415  -0.02358239]] [[ 0.03606061 -0.03022653 -0.06294645]
 [-0.11157071 -0.00201504  0.0574998 ]
 [-0.16273701 -0.0648417  -0.02601944]] [[ 0.00388528 -0.00369373 -0.03524261]
 [-0.03153752  0.07397431  0.05683219]
 [-0.00434691 -0.01998218  0.07933919]] [[ 0.08949757  0.00030368 -0.03311542]
 [ 0.02591058  0.02501091 -0.05484041]
 [ 0.00261451 -0.0889248  -0.0865184 ]] [[-0.00615844  0.02296198 -0.07086578]
 [ 0.09415002 -0.06876382 -0.01783906]
 [-0.06252925 -0.08598588 -0.00086725]] [[-0.01348484 -0.08414941 -0.10356573]
 [ 0.07597757 -0.05450846 -0.14822805]
 [-0.025618    0.03013679 -0.04689966]] [[-0.02264417  0.02412342 -0.03237785]
 [-0.00515568 -0.04003143  0.02709284]
 [-0.04099831 -0.01312215  0.01849907]] [[-0.04157123 -0.03313348 -0.06803472]
 [-0.02609949 -0.02312822 -0.01450115]
 [-0.12148161 -0.10379059 -0.10492857]] [[-0.01827494  0.04785707  0.05793577]
 [ 0.02195818 -0.0889209  -0.02424969]
 [ 0.01512417 -0.01181718  0.00011818]] [[ 0.03789751  0.06329421 -0.00173396]
 [ 0.04550917  0.028341   -0.0188752 ]
 [ 0.02365033  0.00732351  0.08475304]] [[-0.12484242 -0.06358709 -0.01246374]
 [-0.25253564 -0.19747017 -0.04014828]
 [-0.25800037 -0.18108214 -0.09050637]] [[-0.0650539  -0.04901908 -0.05571304]
 [ 0.04887806  0.00485489  0.01852606]
 [ 0.07359446  0.0479131   0.02281281]] [[-0.01879214 -0.09028717 -0.12505828]
 [-0.08730225  0.06112915  0.03399801]
 [-0.01369617  0.02318095  0.0172038 ]] [[-0.11746397 -0.01213769 -0.06380749]
 [-0.08362467 -0.05441827 -0.06734233]
 [-0.07717713 -0.12055661 -0.20379916]] [[ 0.09138431  0.05971319  0.02306092]
 [-0.04887114 -0.01431929  0.07084601]
 [-0.09270456 -0.05357311  0.09067637]] [[ 0.04554782  0.03769879  0.01728781]
 [ 0.04156243 -0.01083505 -0.01822463]
 [ 0.00844843 -0.06225867 -0.02778602]] [[ 0.00814728  0.01271252 -0.02228243]
 [-0.08244685  0.01609276  0.03975329]
 [-0.03977978  0.08679765  0.02470708]] [[-0.1226394   0.00285304 -0.06900094]
 [-0.12405865 -0.13699208 -0.09641191]
 [-0.05510494 -0.10844272 -0.07009311]] [[ 0.03284083  0.0082085  -0.01908504]
 [ 0.02809791  0.04515573  0.01959305]
 [-0.02801799 -0.0357131   0.04753231]] [[ 0.06454591  0.01137044  0.03954656]
 [-0.03047335 -0.02063472 -0.02005902]
 [-0.03912872  0.01815315  0.02552181]] [[-0.00981428  0.00035923  0.0437042 ]
 [ 0.01285529 -0.08200048 -0.00391451]
 [-0.04148714  0.02335482  0.00861121]] [[-0.00886464 -0.00466767 -0.09092123]
 [-0.05820356 -0.04640873 -0.07010342]
 [-0.08417902  0.03363919 -0.00682335]] [[ 0.04924064 -0.02307807 -0.01008438]
 [ 0.06038981 -0.04218614  0.01932609]
 [-0.04357218 -0.02648795 -0.00786649]] [[-0.0838503  -0.05574693 -0.05632634]
 [-0.06912851 -0.07928369  0.02427188]
 [-0.03189787  0.03350838  0.0005345 ]] [[-0.06034433 -0.10260625 -0.04736854]
 [-0.04526093 -0.05826586 -0.06276176]
 [-0.08336931 -0.03584403  0.00513326]] [[ 0.08864409  0.02903626  0.04352417]
 [-0.00608945 -0.01100059 -0.01501998]
 [ 0.01148783  0.04385719  0.02773915]] [[-0.07947033 -0.10143565 -0.12199643]
 [ 0.0221112  -0.03756433 -0.11455417]
 [-0.01850261 -0.04194115 -0.07256906]] [[ 0.08882819 -0.01283966 -0.03267973]
 [ 0.01922687 -0.04338522  0.01061513]
 [ 0.05048699 -0.01112427  0.01015368]] [[-0.116948   -0.16424587 -0.13719329]
 [ 0.06181459 -0.05820571 -0.1252619 ]
 [ 0.00602332 -0.01537957 -0.10339852]]
[[-0.08330807  0.06329982  0.03423908]
 [ 0.02358393  0.03348035 -0.0359571 ]
 [ 0.06836334  0.00812754  0.01551005]] [[-0.37555462 -0.24605605  0.06100666]
 [-0.36201704 -0.23704672  0.00692306]
 [-0.34204835 -0.26383826 -0.04957236]] [[ 0.05546477  0.11418472  0.01573643]
 [ 0.09714274 -0.00817184 -0.26621294]
 [ 0.01890626 -0.13171215 -0.25648138]] [[-0.00375212 -0.00498673  0.00194053]
 [ 0.0491322  -0.03743578 -0.02837172]
 [-0.0280749  -0.08101421 -0.14596875]] [[ 0.00235847 -0.03679466  0.00987239]
 [ 0.05062654 -0.05534704 -0.02889538]
 [ 0.07849857  0.03953774  0.05697603]] [[-0.02631693 -0.07843041 -0.00867523]
 [ 0.00725824  0.02776681 -0.00878154]
 [ 0.08747266  0.0694479   0.02857717]] [[ 0.05012539  0.03449141  0.17361766]
 [-0.16705593 -0.03092974  0.08712766]
 [-0.02294433 -0.08796024 -0.2443579 ]] [[-0.02960476 -0.04397565  0.09870041]
 [ 0.03044571  0.0067285   0.01418423]
 [ 0.03569811 -0.00286486 -0.05911748]] [[-0.22135723 -0.10381144  0.11453086]
 [-0.14123087 -0.09720342 -0.0573388 ]
 [-0.11559737 -0.18660505 -0.29529977]] [[-0.041829   -0.02997806  0.02537812]
 [-0.0036623   0.01505661 -0.0319225 ]
 [-0.00603693  0.0378655   0.03289297]] [[-0.14347573 -0.11811014 -0.00605078]
 [-0.07049356 -0.02043499  0.08054343]
 [ 0.06186813  0.09067591  0.00190539]] [[ 0.04380501 -0.01677393  0.01366901]
 [-0.01976507 -0.03675092 -0.0116876 ]
 [-0.00975423 -0.07142876  0.08854238]] [[-0.04691823 -0.04272782  0.14159591]
 [-0.0323014   0.06028448  0.03636494]
 [ 0.07458103  0.06761349 -0.08851406]] [[ 0.01862173  0.00287711 -0.25972328]
 [ 0.07956579 -0.25058565 -0.50841624]
 [-0.09842537 -0.33426148 -0.10237116]] [[ 0.09565021 -0.00128336 -0.07164486]
 [ 0.02112745 -0.0346886  -0.18773974]
 [ 0.0289652  -0.06367136 -0.22903642]] [[-0.00774452  0.03492859 -0.16131493]
 [-0.02566546 -0.02301873 -0.13924369]
 [-0.08469617 -0.03442115 -0.02565516]] [[-0.21163088 -0.01886794  0.0811898 ]
 [-0.1937622   0.09992622  0.05346634]
 [-0.07904825  0.01169365 -0.08399197]] [[-0.06350809 -0.09771538 -0.26496497]
 [-0.03952144 -0.18271366 -0.1492487 ]
 [-0.04436377  0.04648526  0.05433483]] [[-0.02099128  0.03686975  0.06790669]
 [ 0.00850743  0.00678841 -0.04409963]
 [ 0.08714756 -0.04816473 -0.09547187]] [[ 0.01341861 -0.04621846  0.04727432]
 [ 0.02809946  0.05825443  0.03255206]
 [ 0.07827838  0.15217412  0.04713609]] [[-0.04914771  0.08415665  0.03450408]
 [ 0.04112229  0.04765154 -0.08200976]
 [ 0.07281718 -0.04504117 -0.17516506]] [[-0.07284044  0.04613013  0.12946564]
 [ 0.03675077  0.07506624 -0.03695857]
 [ 0.01554583 -0.04626112 -0.07558985]] [[ 0.04331706  0.07780121  0.12840079]
 [ 0.06947283  0.10034499  0.01920223]
 [ 0.05365589  0.00200762 -0.09982238]] [[-0.04430745 -0.12241203 -0.08135599]
 [-0.07424975 -0.06122932  0.02244249]
 [ 0.04423722  0.01740815  0.02573556]] [[ 0.04213662  0.13112955  0.00310315]
 [ 0.05014256 -0.00493733 -0.12566362]
 [ 0.08273945 -0.07758697 -0.06458999]] [[-0.11554952  0.04474878  0.04701577]
 [ 0.00681982  0.02452917  0.07600418]
 [-0.00123148 -0.0315737   0.03056361]] [[ 0.02949919 -0.01942405 -0.05766917]
 [ 0.06993861 -0.05656993 -0.17513762]
 [-0.05219974 -0.15732603 -0.05942494]] [[ 0.04241979  0.05203677  0.05203323]
 [ 0.05158324 -0.01643248 -0.10392582]
 [ 0.10319631 -0.08357824 -0.24834323]] [[ 0.01598939  0.07373443  0.09892625]
 [ 0.01504817  0.0608894   0.08619034]
 [ 0.03582663  0.03046824 -0.05159871]] [[-0.20592616 -0.22959326  0.09523467]
 [-0.21191324  0.00675899  0.11793483]
 [-0.26444763 -0.1278107  -0.1206669 ]] [[-0.05829799 -0.01924517  0.14688203]
 [-0.04066275  0.0602921   0.05384943]
 [ 0.00073323 -0.0209166  -0.07668966]] [[-0.26505604 -0.00370295  0.16130736]
 [-0.18359365 -0.02947197  0.00326131]
 [-0.0866152  -0.2554752  -0.24868155]]
[[-0.12851822 -0.1120001   0.05368808]
 [-0.11659065 -0.2069839  -0.06325266]
 [-0.05277267  0.00264479 -0.09905736]] [[ 0.07231325 -0.06928305 -0.31350487]
 [ 0.12566367 -0.04100225 -0.1625916 ]
 [ 0.07056183 -0.0822667  -0.13946177]] [[ 0.04600105  0.0055902  -0.1566395 ]
 [ 0.0772854   0.14513604 -0.01571034]
 [ 0.10206621  0.11316626  0.09209885]] [[-0.02282816  0.01057736 -0.1097181 ]
 [-0.00430485  0.08308728 -0.01141904]
 [-0.02041754  0.08252517 -0.01080241]] [[-0.08015065 -0.02668006  0.05908253]
 [-0.25587046 -0.13425854  0.09193844]
 [-0.15770319 -0.08919287  0.04256847]] [[ 0.12447955  0.15407309  0.03811432]
 [-0.0721949   0.06539934  0.13069071]
 [-0.04147896  0.01717733  0.08931045]] [[ 0.04857148  0.07315788 -0.14259797]
 [ 0.05544384 -0.03196759 -0.08120654]
 [-0.00453171 -0.10033544 -0.05791767]] [[ 0.07515801 -0.00689879  0.05557357]
 [-0.05981359 -0.06241435  0.08246415]
 [-0.25746924 -0.09893292 -0.0580812 ]] [[ 0.1482044   0.07712512 -0.18993561]
 [ 0.12093484  0.08472748  0.05065577]
 [-0.114109    0.07827897  0.16306062]] [[-0.02224854  0.05379951  0.04867465]
 [-0.02042196 -0.0501215   0.05414513]
 [-0.02427925 -0.02957197 -0.02101634]] [[-0.10402824 -0.0322553   0.07433282]
 [-0.05981413 -0.15121682 -0.04956882]
 [-0.13136055 -0.06817789 -0.09757311]] [[-0.02485107  0.03953418  0.04458266]
 [-0.08799405  0.10286298  0.08097767]
 [-0.01426372 -0.04832018  0.0146768 ]] [[ 0.05366072  0.11074129  0.00014362]
 [ 0.04074958  0.08766155  0.08413829]
 [-0.01030786  0.00093407  0.10696434]] [[-0.38525668 -0.23079802  0.07667223]
 [-0.67160755 -0.31308496 -0.10756131]
 [-0.16036077 -0.23520488 -0.14144592]] [[-0.06882577 -0.07307222 -0.04707748]
 [ 0.07874205 -0.00490685 -0.05302101]
 [ 0.00665853  0.0165141   0.06710272]] [[ 0.00741336  0.09856471  0.09382849]
 [-0.07533512  0.06042492  0.17189474]
 [ 0.00341655 -0.00708152  0.02974565]] [[-0.14672898 -0.23072357 -0.1010453 ]
 [-0.0893991  -0.18374977 -0.18214487]
 [-0.09530034 -0.08733487 -0.19008315]] [[ 0.11456748  0.26413894  0.2479619 ]
 [-0.05662644  0.09070191  0.24613132]
 [-0.01509068 -0.03588092  0.10536984]] [[-0.04908795 -0.00726079 -0.02726823]
 [-0.05678781 -0.08241809  0.00549094]
 [-0.07024539  0.00665459 -0.00090069]] [[ 0.02115869 -0.05828502  0.00073327]
 [-0.03230064  0.02852686  0.03492401]
 [-0.00613184  0.07417916  0.16871685]] [[-0.13377258 -0.15358247 -0.07028617]
 [-0.07773391 -0.09962193 -0.27038422]
 [ 0.0635109   0.13901292 -0.08224846]] [[ 0.05523681  0.00126729 -0.00042   ]
 [-0.08402208 -0.11473038 -0.05955039]
 [-0.14276905 -0.0224154   0.06069976]] [[ 0.0584679   0.03544048 -0.01350337]
 [-0.09520759 -0.0552443   0.06059075]
 [-0.11349395 -0.0549875   0.07908709]] [[ 0.02627412 -0.00869431  0.00190042]
 [-0.06390942  0.02426446  0.05622258]
 [-0.04670095 -0.12177068  0.00575577]] [[-0.08823682 -0.12220311 -0.0385364 ]
 [-0.03958423  0.00450692 -0.05848698]
 [ 0.00740175  0.04763248  0.01705566]] [[ 0.08624569  0.07926192 -0.02594283]
 [-0.05094007 -0.0355932  -0.01131294]
 [-0.22470024 -0.08561938 -0.00937436]] [[ 0.00322508  0.04467755 -0.03745001]
 [-0.04895452 -0.00445903  0.08227863]
 [-0.04934677  0.02792256  0.00264446]] [[-0.04928203 -0.21112907 -0.22640306]
 [-0.00076239  0.02166382 -0.25208905]
 [-0.01924165  0.07220857  0.08297708]] [[ 0.01551019 -0.0080521  -0.04716711]
 [-0.05796823  0.01363452 -0.05390172]
 [-0.06552405 -0.03723566  0.03050898]] [[ 0.11358284  0.0228323  -0.21517989]
 [ 0.04807034  0.04109367 -0.0991485 ]
 [-0.09211905 -0.09316037 -0.11211527]] [[ 0.05515774 -0.04657902 -0.12643611]
 [-0.01076755  0.0253459  -0.05240265]
 [-0.12025339 -0.06612285  0.04461526]] [[ 0.09884336 -0.03610297 -0.21713066]
 [ 0.12209693  0.07385495 -0.00190815]
 [-0.04580658  0.00258217  0.08883785]]
[[ 0.05313833  0.01219426  0.03725304]
 [-0.0151686  -0.08166809 -0.08591524]
 [-0.07149528 -0.04150327 -0.05020718]] [[-0.1481048  -0.21026354 -0.24804533]
 [-0.09074783  0.00027307 -0.12742308]
 [ 0.03049889 -0.01448553 -0.21012987]] [[-0.09032103 -0.13886593  0.03342069]
 [-0.02914489  0.0094106   0.13051006]
 [-0.0247088   0.05589653  0.13871692]] [[ 0.00766375 -0.03753609 -0.0038809 ]
 [-0.02967448  0.05403664 -0.01709927]
 [-0.02746052  0.06548824  0.09088957]] [[ 0.02186083 -0.03869438  0.01772038]
 [ 0.00703726 -0.06920877  0.04491604]
 [-0.08063521 -0.09614095 -0.03849559]] [[-0.1544051  -0.10108338 -0.09414943]
 [-0.10897002 -0.0640891   0.09560682]
 [-0.256646   -0.09626719  0.05908963]] [[-0.14157496 -0.2962914  -0.09427942]
 [-0.15072066 -0.31011176  0.03737156]
 [-0.1546029  -0.22670415 -0.0889404 ]] [[-0.12706652 -0.21553285 -0.04991307]
 [-0.02705346 -0.19875842 -0.02377764]
 [-0.06324366 -0.28012496 -0.14588618]] [[-0.23194239 -0.24302992 -0.159803  ]
 [-0.29651693 -0.10967383 -0.01495749]
 [-0.28055406 -0.09120946  0.00248505]] [[ 0.03640309  0.05208738 -0.00759974]
 [-0.003557    0.03528862 -0.04110615]
 [ 0.01031152 -0.02837832  0.01693293]] [[ 0.04173852 -0.03742794 -0.04390333]
 [ 0.00929424 -0.01452496 -0.04663302]
 [ 0.05771888 -0.06109918 -0.10051054]] [[ 0.11231383  0.05055367  0.03313718]
 [-0.04340006 -0.01604563  0.0390817 ]
 [ 0.05547283 -0.03688978  0.06443887]] [[-0.17813812 -0.11781923 -0.04798202]
 [-0.07304195 -0.05250809  0.10117047]
 [-0.15424381  0.05225677  0.18838298]] [[ 0.02203509  0.14897786  0.27302113]
 [-0.12472019 -0.02111256 -0.00622156]
 [-0.29745117 -0.1543735  -0.14385292]] [[-0.02036723  0.01748195  0.1357317 ]
 [-0.00733256  0.02862772  0.16071768]
 [-0.10931367  0.05943636  0.10953952]] [[-0.03970264  0.03508358  0.08127429]
 [-0.01245365  0.00230178 -0.01063583]
 [-0.06359982  0.01858872  0.09319805]] [[-0.02467402 -0.01663153 -0.06986604]
 [-0.05063687 -0.04314788 -0.10947656]
 [ 0.03165079  0.05597855 -0.13040735]] [[-0.02175809 -0.00870958  0.062013  ]
 [-0.19376756 -0.12888205 -0.02916157]
 [-0.33341655 -0.15377519 -0.00332704]] [[-0.0715762   0.04491169  0.06632517]
 [-0.04372196  0.01589214  0.09174532]
 [-0.15292864 -0.05655116  0.06443999]] [[-0.06072143 -0.0009335   0.00657843]
 [-0.04124148 -0.00181247  0.07630663]
 [-0.12755449 -0.03413796  0.006809  ]] [[-0.09235895 -0.02473681  0.0041068 ]
 [-0.01269213  0.01410065  0.0524894 ]
 [-0.12384276 -0.02088529  0.01065603]] [[-0.06325632 -0.05980471 -0.03293901]
 [ 0.036729   -0.01391908  0.08571994]
 [ 0.02210593 -0.04352241  0.0148053 ]] [[-0.10172455  0.00333667  0.10422753]
 [-0.15988901 -0.03481774  0.05494088]
 [-0.27613917 -0.08514475  0.0771994 ]] [[ 0.04168626  0.02954479  0.00450368]
 [-0.02958557 -0.06007211  0.07593004]
 [ 0.00128098  0.00355585 -0.03493392]] [[ 0.01236368  0.05562591  0.01347266]
 [ 0.00140359 -0.04412011  0.093138  ]
 [-0.1155621   0.00842039  0.02349531]] [[-0.06469899 -0.18380003 -0.15835722]
 [ 0.00439699 -0.08023471 -0.06486691]
 [ 0.00237017 -0.19911768 -0.0861042 ]] [[-0.0338792   0.06565808  0.09086788]
 [-0.04174052  0.06144014  0.09910072]
 [-0.0683585   0.0517118   0.11936421]] [[-0.02020195 -0.0570818   0.09135898]
 [-0.0904827   0.07097077  0.00985717]
 [-0.120625   -0.01679295  0.11385609]] [[-0.05393089 -0.06415382 -0.04309719]
 [-0.036926    0.04750701  0.07973827]
 [-0.16824377  0.00320726  0.03628805]] [[-0.02958966  0.01423679 -0.01476095]
 [ 0.0445422   0.00942087 -0.06758945]
 [ 0.00024621  0.06554148 -0.10536479]] [[-1.5351774e-01 -2.3581386e-01 -1.3263810e-01]
 [-5.7782333e-02  3.1405687e-02  5.0515955e-06]
 [-4.7190789e-02 -7.9010449e-02 -5.4661606e-02]] [[-0.34949347 -0.24925122 -0.19599111]
 [-0.27099764 -0.04391391 -0.02184153]
 [-0.28197205 -0.1493872  -0.03356167]]
[[ 0.05002883  0.04901979  0.01976353]
 [-0.01841559  0.01965795  0.05572014]
 [-0.23195599 -0.12718494 -0.1074652 ]] [[-0.25087216 -0.27715537 -0.30141193]
 [ 0.14379518  0.02111355 -0.05157329]
 [ 0.16406436  0.13408703  0.18370485]] [[-0.19191426 -0.19242965 -0.10493802]
 [-0.14807583 -0.05301507 -0.05458849]
 [ 0.0330766   0.02319152 -0.05844454]] [[-0.05384239 -0.03361626 -0.04358044]
 [-0.03604705 -0.02233394 -0.02699825]
 [ 0.04090313 -0.00899088  0.02417172]] [[ 0.04548475  0.0946823   0.0565062 ]
 [ 0.01265965 -0.04138903 -0.06614757]
 [-0.21054249 -0.18370949 -0.11447125]] [[-0.01129073 -0.07252213 -0.02752684]
 [-0.06727219 -0.03947407 -0.06041554]
 [ 0.01888041  0.00177669 -0.01923267]] [[-0.06294487 -0.06453176 -0.10691779]
 [ 0.1935826   0.01840462 -0.0992184 ]
 [ 0.16019548 -0.00401606 -0.06598021]] [[-0.03445262 -0.09903983 -0.09523734]
 [ 0.09042505  0.10234136  0.08711711]
 [-0.0326367  -0.07731425 -0.01498162]] [[-0.0519538  -0.06209816 -0.12257199]
 [ 0.01643078  0.01782942  0.09388698]
 [ 0.04428218 -0.00570324 -0.05119851]] [[ 0.03577265 -0.01862182 -0.05578468]
 [-0.03036857 -0.05396025 -0.04767899]
 [ 0.03628975 -0.0158628  -0.0325199 ]] [[ 0.07423154  0.05228609  0.00255204]
 [-0.06540031 -0.0373022   0.08398426]
 [-0.02344624  0.01850048  0.06841838]] [[-0.01990143 -0.05464731  0.02813162]
 [ 0.06081948  0.0377629  -0.00706536]
 [-0.09683427  0.0577013   0.04664278]] [[-0.11598048 -0.07406616 -0.08190628]
 [-0.01558947 -0.0348364  -0.11775943]
 [ 0.03667638 -0.09109209 -0.10101469]] [[ 0.1926651   0.21119851  0.09903162]
 [ 0.09445306  0.10192356 -0.09387807]
 [-0.15202828 -0.22865419 -0.271126  ]] [[-0.11663861 -0.1372232  -0.00119952]
 [-0.08380041  0.01034139 -0.04356607]
 [-0.09637471 -0.1153231  -0.07317635]] [[-0.01114956  0.02742947  0.06983272]
 [ 0.10693299 -0.05458906 -0.12449145]
 [-0.05767919 -0.20592517 -0.13469198]] [[-0.10817953 -0.17225571 -0.04191663]
 [ 0.09704448  0.0586561   0.01165111]
 [ 0.08203665  0.09783075  0.10077444]] [[ 0.14707616  0.04358523 -0.0151672 ]
 [-0.09367927 -0.18717052 -0.16059141]
 [-0.30060503 -0.16323373 -0.07203022]] [[ 0.00332406 -0.02097992  0.04835832]
 [ 0.01508441  0.06036014  0.01531781]
 [-0.05333269 -0.07531831 -0.14742102]] [[ 0.11180244  0.12323165  0.09525139]
 [-0.10072357 -0.05805842 -0.08437601]
 [-0.08484077 -0.03392018  0.09230226]] [[ 0.01146442  0.00034119 -0.03558363]
 [-0.19065823 -0.08148464 -0.06501297]
 [-0.12165679  0.04363596  0.09282181]] [[-0.03232368 -0.05393816 -0.04785009]
 [ 0.01800603 -0.01170415  0.06685621]
 [-0.04034141 -0.05416399 -0.05780628]] [[-0.09607214 -0.0108284   0.01082059]
 [-0.00496174  0.02988951 -0.03435133]
 [-0.13148947 -0.14832012 -0.20168424]] [[ 0.10134518  0.01669239 -0.05306651]
 [-0.0176277   0.02435424  0.0756118 ]
 [-0.02396836  0.01639953 -0.03569511]] [[-0.03930739 -0.00487539  0.03063971]
 [-0.0761077  -0.04597926 -0.00337299]
 [-0.0962742  -0.04484234 -0.00283703]] [[-0.0906048  -0.10331271 -0.03806704]
 [ 0.03131464 -0.00508367 -0.02577665]
 [-0.03943158 -0.03153163  0.00840766]] [[-0.06948009  0.00711418  0.04861314]
 [ 0.08475006 -0.01256245  0.0555639 ]
 [-0.1275815  -0.17334108 -0.0925355 ]] [[-0.12593292 -0.01544662 -0.06974439]
 [-0.1891628  -0.0458227  -0.00840534]
 [-0.07459142 -0.0273305   0.08846383]] [[-0.07226195 -0.16882925 -0.07221893]
 [-0.08999143 -0.03712836 -0.09299371]
 [-0.10629518 -0.08326816 -0.11347876]] [[-0.22139995 -0.15849833 -0.1736146 ]
 [ 0.04085978 -0.03215947 -0.006387  ]
 [ 0.11973593  0.11521019  0.0534428 ]] [[-0.18811092 -0.1304482  -0.15499607]
 [-0.02690478  0.027078   -0.01259525]
 [ 0.10986283  0.05664629 -0.01533173]] [[-0.18596664 -0.14911969 -0.15715013]
 [ 0.04978034  0.05752636  0.08278222]
 [ 0.16156134  0.08434123  0.04325049]]
[[-0.12736815 -0.02207511  0.06728999]
 [-0.19777574 -0.13241927 -0.05807493]
 [-0.146424   -0.15046355 -0.06843733]] [[0.15776293 0.10806263 0.01219586]
 [0.10260534 0.11218573 0.1473242 ]
 [0.08169675 0.10940248 0.10542187]] [[-0.00882111 -0.02732994  0.03070653]
 [ 0.1725289   0.11319864  0.01458154]
 [ 0.06852799  0.01127228 -0.1384322 ]] [[ 0.02768909  0.03303182  0.00232952]
 [ 0.01197448 -0.05047482 -0.03882087]
 [-0.04875999 -0.08104948 -0.0593627 ]] [[-0.06160747 -0.00771408  0.02033974]
 [-0.17599387 -0.14431193 -0.04978082]
 [-0.14083265 -0.21706496 -0.20783064]] [[-0.00239128  0.06122267  0.00081147]
 [-0.03016438  0.00840727 -0.01741019]
 [-0.23297878 -0.05955921 -0.08337406]] [[ 0.06990997 -0.02138901 -0.04823044]
 [ 0.06627478  0.06783278  0.09652571]
 [-0.12292711  0.08771665  0.0837026 ]] [[ 0.06471755  0.05510459  0.03585375]
 [-0.13874507 -0.02820196  0.0921543 ]
 [-0.2262169  -0.1755349  -0.04965244]] [[0.11279188 0.11441453 0.20002672]
 [0.16053613 0.1062227  0.09675774]
 [0.0512382  0.08824154 0.0483456 ]] [[-0.03319634 -0.00358837 -0.04232711]
 [ 0.02185348  0.05578071 -0.0490537 ]
 [ 0.02837838 -0.04255779 -0.05580824]] [[-0.11168025 -0.04189917 -0.05044325]
 [-0.12713043 -0.08094969  0.03325087]
 [-0.08445939 -0.04929737 -0.01376288]] [[-0.05931946 -0.01358504  0.02704104]
 [-0.02472282  0.1088385   0.07839129]
 [ 0.0550594  -0.05382994  0.05316018]] [[ 0.0180345   0.027705    0.02699752]
 [-0.06044834  0.01359737 -0.03322354]
 [-0.18009076 -0.00954459 -0.03100857]] [[ 0.02202712  0.09075645  0.07104672]
 [-0.2680016  -0.03066037 -0.09008342]
 [-0.21620612 -0.2193288  -0.1444993 ]] [[-0.05344072 -0.03724955 -0.02575315]
 [-0.04727614 -0.08886981 -0.11438309]
 [-0.16109006 -0.19444571 -0.12973687]] [[ 0.06015051  0.04268335 -0.01943224]
 [ 0.01670855 -0.06778026 -0.15583923]
 [-0.14484507 -0.14586048 -0.1422189 ]] [[-0.03699537 -0.01417635 -0.05947023]
 [ 0.03590753  0.00122362  0.03096444]
 [ 0.0513299   0.12708674  0.12094851]] [[ 0.03622252  0.09411699  0.04764241]
 [-0.3787822  -0.18082611 -0.03388124]
 [-0.39950508 -0.3168076  -0.18428613]] [[-0.02340563  0.06133838  0.0816375 ]
 [-0.09266696  0.00852843 -0.06782409]
 [-0.17408824 -0.20704426 -0.24127288]] [[-0.0887184  -0.01459567 -0.03097714]
 [-0.13125165 -0.19140798 -0.00062205]
 [-0.02489765 -0.05469415 -0.01112125]] [[-0.22852482 -0.14552656 -0.10303891]
 [-0.11665855 -0.01631816 -0.07688115]
 [ 0.08645155 -0.08749317 -0.10823707]] [[-0.0510019  -0.02731738  0.00537632]
 [-0.11241897 -0.01171167  0.05866899]
 [-0.12236517 -0.16968082 -0.12209177]] [[-0.00218001  0.01837839  0.07592214]
 [-0.08556738 -0.06624804 -0.05095354]
 [-0.18747538 -0.23468322 -0.19639143]] [[-0.06559833 -0.05857985 -0.01687145]
 [-0.04597921 -0.06201359  0.04747035]
 [-0.10853543 -0.10507826 -0.0288309 ]] [[-0.05019575  0.02718115 -0.00252354]
 [-0.04522451  0.0226261  -0.04426324]
 [-0.05964684 -0.1951036  -0.13885792]] [[-0.03982826 -0.03462216  0.09765448]
 [-0.09649634  0.06221036  0.03417225]
 [-0.16631453 -0.06817763 -0.05476286]] [[ 0.0519351  -0.02026545 -0.03927282]
 [ 0.0243379  -0.07933671 -0.16928487]
 [-0.07453913 -0.076308   -0.08979213]] [[-0.10214493 -0.10478163 -0.06943618]
 [-0.10313243 -0.07214925 -0.12980625]
 [-0.08209495 -0.11608019 -0.20372708]] [[-5.51205128e-02  3.64889912e-02  5.21284383e-05]
 [-3.39524783e-02 -9.79922637e-02 -2.42587682e-02]
 [-2.00317502e-01 -1.19002014e-01 -1.10860810e-01]] [[0.07959743 0.00816871 0.05206604]
 [0.07665747 0.012931   0.01064899]
 [0.06793777 0.04198031 0.10481755]] [[ 0.01352996  0.00985879  0.00045854]
 [-0.01192059 -0.02323218  0.10688174]
 [-0.07719357  0.03231672  0.00453446]] [[0.04695032 0.0998086  0.18388638]
 [0.17808245 0.08379386 0.16440293]
 [0.0819516  0.10913015 0.0213899 ]]
[[ 0.00895792 -0.0310445  -0.07564992]
 [ 0.04988373  0.05154241  0.00554338]
 [ 0.14176556  0.06284726 -0.03585415]] [[ 0.05186083  0.03143925  0.13261211]
 [-0.11729452 -0.0800043   0.08162161]
 [-0.157065   -0.20305675 -0.15604946]] [[ 0.1359053   0.09647658  0.17246512]
 [-0.06128136  0.00622794 -0.04516185]
 [-0.10090943 -0.15856057 -0.13161623]] [[ 0.04794082  0.05026595  0.07744385]
 [ 0.01568031  0.07356757 -0.0525905 ]
 [-0.05672177 -0.02421374 -0.0424692 ]] [[-0.06072308 -0.20006436 -0.16263007]
 [ 0.10740635 -0.05629256 -0.08934861]
 [ 0.10202659  0.06142356 -0.07279179]] [[-0.23062024 -0.00852685  0.06452041]
 [-0.24475494 -0.23670688  0.04963541]
 [-0.00642895 -0.14688733 -0.117654  ]] [[-0.25597876  0.03359878  0.28582296]
 [-0.45088682 -0.18964061  0.08390745]
 [-0.19466789 -0.42983416 -0.43089148]] [[-0.26172414 -0.09791163  0.12913978]
 [-0.3220353  -0.5558152  -0.29881507]
 [ 0.12267771 -0.14423831 -0.44269222]] [[ 0.14879182  0.2081589   0.19703667]
 [-0.15500045  0.14454715 -0.10444612]
 [-0.48639762 -0.41095567 -0.2783773 ]] [[ 0.04507134 -0.05351633  0.05299096]
 [ 0.01481702  0.00569329  0.05534528]
 [ 0.05062237 -0.0221779   0.00774012]] [[-0.07467857  0.03348167 -0.02300226]
 [ 0.02570717  0.00772579 -0.014257  ]
 [ 0.05466817  0.02092218  0.02810035]] [[-0.01947242 -0.06226497  0.10986739]
 [ 0.04294538  0.00754499 -0.04497574]
 [ 0.03873364  0.02798791  0.06428608]] [[-2.0759107e-01  7.6066062e-06  6.7043625e-02]
 [-3.3003920e-01 -1.5776493e-01 -9.2685071e-04]
 [-1.9038622e-01 -3.2861373e-01 -2.2128992e-01]] [[-0.2372203  -0.39212674 -0.20351528]
 [ 0.2459787   0.03848869 -0.3349682 ]
 [ 0.2515123   0.15281671 -0.09890112]] [[ 0.06320519  0.15568352  0.06563744]
 [-0.00869661 -0.032677   -0.25583714]
 [-0.04158159 -0.11100987 -0.20238224]] [[-0.08475719 -0.08485687 -0.05264473]
 [-0.06700275 -0.10687692 -0.03825066]
 [ 0.05144617 -0.00187676 -0.04234165]] [[ 0.03432109  0.05661392  0.09134177]
 [-0.00383171  0.0241789   0.03828204]
 [-0.06059514  0.00075246 -0.03111315]] [[-0.42054737 -0.0679241  -0.1403514 ]
 [-0.15446319 -0.2908948  -0.3795585 ]
 [ 0.11765768 -0.02600604 -0.14181499]] [[ 0.02399952  0.09681932  0.06833943]
 [ 0.04946476 -0.09336287 -0.22467794]
 [ 0.11381474  0.00229855 -0.13643748]] [[ 0.19011433  0.01140813  0.0754088 ]
 [ 0.25595346  0.16537489 -0.01810669]
 [ 0.09121317  0.05625565 -0.0177308 ]] [[ 0.17418496  0.06240007  0.03631753]
 [ 0.19060338  0.06490167  0.02875794]
 [ 0.04720985  0.10873    -0.06353377]] [[-0.02263199 -0.00268136  0.04273772]
 [ 0.01892736 -0.0430725  -0.00068286]
 [ 0.15653457  0.05644578 -0.05635739]] [[-0.20592955  0.06144652  0.09466978]
 [-0.06493154 -0.22518194 -0.26486638]
 [ 0.13380374  0.07556094 -0.15605885]] [[-0.10611018  0.03016244 -0.05322403]
 [-0.02737469 -0.02490721 -0.00012552]
 [ 0.05341606 -0.02685876 -0.03310256]] [[-0.0028299   0.07232337  0.07194406]
 [ 0.06400771 -0.03181374 -0.0579852 ]
 [ 0.07465204 -0.0173418  -0.14373599]] [[-0.27509204 -0.08669992  0.08875589]
 [-0.15818338 -0.12460952 -0.05523915]
 [ 0.07938872 -0.02378668 -0.2963966 ]] [[ 0.01019674 -0.00077189 -0.06891978]
 [-0.08878256 -0.07910988 -0.06083548]
 [ 0.02001451 -0.09821658 -0.0138209 ]] [[ 0.18007416  0.13266265  0.14510879]
 [ 0.21249856  0.09101285 -0.10575263]
 [ 0.11352679  0.01022034 -0.07094743]] [[-0.1648357   0.03387213  0.00948961]
 [-0.23566109 -0.07279129 -0.08122551]
 [-0.01712978 -0.09383112 -0.18175542]] [[-0.02613453 -0.03661807 -0.00749086]
 [-0.10098234  0.06033444  0.01873938]
 [-0.1187081  -0.01123102  0.06459606]] [[-0.09881932  0.05613304  0.15753281]
 [-0.12180684 -0.0396872   0.01216386]
 [-0.08862026 -0.15627134 -0.18667245]] [[ 0.08502662  0.22609057  0.29610494]
 [-0.04752521  0.14464511 -0.00136406]
 [-0.43702206 -0.21548006 -0.36325884]]
[[-0.04037873 -0.0473344  -0.00247341]
 [-0.06696805 -0.16724922 -0.00777904]
 [-0.09084538 -0.17453036 -0.18236762]] [[-9.8981470e-02 -3.2663640e-01 -4.1282219e-01]
 [ 1.9312456e-01 -2.2549598e-04 -2.0842335e-01]
 [ 1.7997469e-01  1.5310320e-01  1.9033341e-03]] [[-0.02903813 -0.09284199 -0.2418864 ]
 [-0.08348051 -0.03667879 -0.13325666]
 [-0.02006944  0.08818287  0.09810871]] [[-0.0622309  -0.10884157 -0.03224955]
 [ 0.0447414  -0.04672806  0.00290792]
 [-0.0479909   0.09682136  0.04342955]] [[ 0.01005803  0.00786374  0.07508916]
 [-0.02672272  0.03319289  0.07043599]
 [-0.18760253 -0.16998324 -0.14854449]] [[ 0.08814736  0.08607589 -0.00057367]
 [-0.04816086  0.08175007  0.03779629]
 [-0.12197927 -0.05661996  0.06507969]] [[ 0.10314608 -0.08037975 -0.25140342]
 [ 0.0734404   0.04426143 -0.16135621]
 [ 0.01821182  0.07905556  0.0400409 ]] [[ 0.06204418 -0.02743526 -0.1316502 ]
 [ 0.11846722  0.03295967  0.08037435]
 [ 0.00916196 -0.08318677 -0.02363476]] [[ 0.03782048 -0.2022941  -0.18449952]
 [ 0.09919393  0.03773176 -0.12545109]
 [ 0.01526709  0.16878624  0.0856993 ]] [[-0.02960279  0.04090727  0.02335124]
 [ 0.03008885 -0.04155454  0.03767471]
 [ 0.04804089  0.00512825 -0.00085333]] [[-0.01847272  0.01757427  0.1355608 ]
 [-0.12663472 -0.17370826 -0.00433116]
 [ 0.00266009 -0.14004345 -0.11404422]] [[-2.6290555e-02  1.0318097e-02 -4.3847468e-02]
 [-1.1476652e-02 -1.6277101e-02 -1.0011391e-05]
 [-2.3047827e-02  7.1985605e-03  4.9345717e-02]] [[ 0.07012912  0.05980569 -0.11992277]
