-0.04716233164072037
-0.024565204977989197
-0.015499595552682877
0.019343210384249687
0.00703944219276309
-0.058804821223020554
-0.0450248047709465
-0.017875438556075096
0.01574632339179516
-0.010693911463022232
-0.05890793725848198
-0.0865912213921547
-0.0030721379444003105
-0.09633488953113556
0.047140609472990036
-0.04825415089726448
0.030047975480556488
-0.04916781187057495
0.04195677489042282
-0.08887795358896255
0.0185406357049942
-0.013777718879282475
0.049114931374788284
0.05144304409623146
0.008436835370957851
0.05091443285346031
-0.08193295449018478
-0.013364976271986961
-0.07616866379976273
-0.01691742055118084
-0.06224315986037254
-0.042763665318489075
-0.05425438657402992
0.013739647343754768
-0.05368569493293762
-0.02060304582118988
0.012707596644759178
-0.0224069245159626
-0.06041882932186127
-0.02966281957924366
-0.08674411475658417
-0.0397334061563015
0.026462923735380173
0.05980322137475014
-0.03343977779150009
-0.012905864976346493
-0.026020074263215065
-0.00977014284580946
0.03680401295423508
-0.006346433889120817
-0.04733366146683693
0.031492963433265686
-0.06381288915872574
0.00983464252203703
-0.05259661376476288
0.01407918706536293
0.031582411378622055
-0.0042738900519907475
-0.003239041194319725
0.060101646929979324
0.028835419565439224
0.01861211284995079
-0.07804719358682632
-0.031874820590019226
