0.002496545 0.021387078 0.019722546 -0.008559603 -0.021790061 -0.03550667 -0.08581887 -0.111720644 -0.049771152 -0.087187104 -0.03345165 0.008211116 -0.0153455455 -0.0115264 0.061189454 0.1419097 0.2350145 0.3310776 0.22576265 0.02602463 -0.01810089 0.017640632 0.11113085 0.10291303 0.07584547 0.0020603915 -0.03584319 0.00831459 -0.045544628 -0.057559654 -0.10102872 0.01844348 0.005992937 -0.055717092 -0.12895729 -0.086302154 -0.07235727 0.022145018 -0.04439195 -0.058711793 -0.011434709 0.03394253 0.092336014 0.03167439 0.16385083 0.07522161 0.0117171835 -0.00029246032 -0.0015381498 -0.022475302 0.04036943 0.054124393 0.011949451 -0.020463973 -0.023294196 -0.011509744 -0.06277786 -0.06390305 -0.05659833 -0.047582686 -0.02660057 -0.12413931 -0.13449277 -0.0628481 0.021956805 0.0054266998 0.060747083 0.046597812 0.09447541 0.07736699 0.045752715 0.09350508 0.12596643 -0.02291745 -0.062305495 -0.113267094 -0.11285977 -0.069555946 -0.008168232 0.0067155105 -0.0230651 -0.018148238 0.04561183 0.031798784 -0.061450265 -0.056904636 -0.042620625 -0.05824431 -0.0366142 -0.058676742 -0.05341856 -0.01006211 -0.060125276 0.0056930105 -0.034379974 0.035897974 0.02619776 0.029713504 0.03523887 0.09408048 0.07668467 -0.08952171 -0.09123098 -0.14058925 -0.12643963 -0.07063253 -0.021708405 -0.062739655 -0.0049706665 -0.062426213 0.019375743 0.040024526 -0.02302671 -0.054031387 -0.10093991 -5.2621795e-05 0.008986338 -0.051701307 -0.032137938 -0.10352285 -0.06774051 -0.0045883614 0.013159029 0.034179106 0.05297656 0.023049522 0.025145607 -0.0011288526 0.0007278246 -0.115606375 -0.1605146 -0.17911278 -0.12665804 -0.05965189 -0.10707349 -0.15858456 -0.12018478 -0.016254846 -0.04097672 -0.047262315 -0.07219444 -0.012304496 0.0955343 0.072076835 0.026658004 -0.04591809 0.011249154 -0.014128907 0.0095512755 0.014343976 0.0059068925 0.11532884 0.07620527 0.057339493 0.009456685 -0.115512274 -0.14596757 -0.18264127 -0.17106399 -0.18911323 -0.18271808 -0.11165526 -0.14755227 -0.15926988 -0.10627708 -0.04007539 -0.08694523 -0.10347216 0.028993528 0.017927807 0.08904395 0.024873002 0.0029118927 -0.07633637 -0.06905416 -0.12535742 -0.06861256 -0.027501762 0.0785095 0.09884463 0.08336343 0.037155993 0.035802484 -0.12943886 -0.20843673 -0.28796825 -0.21179305 -0.15478301 -0.15508354 -0.11989752 -0.16237646 -0.08692052 -0.039321672 0.014320222 -0.11891924 -0.12771818 0.05055441 -0.004239248 0.03675609 0.010200494 0.0013358432 -0.09721773 -0.13438907 -0.1081442 -0.06010597 -0.010977705 0.081065014 0.08514505 0.09764803 0.03597798 0.09308203 -0.09095438 -0.18694894 -0.25659454 -0.18249175 -0.17731099 -0.14580393 -0.19969146 -0.20094435 -0.14351347 0.005464139 0.035848938 -0.0141429445 -0.16758673 0.09792357 0.006475094 0.06952443 0.071077205 -0.042828213 -0.081757955 -0.13090496 -0.081549816 -0.05327706 -0.06372238 0.058163717 0.10123322 0.07740714 0.1295957 0.0677864 -0.0159687 -0.15739314 -0.19441704 -0.25033432 -0.2111172 -0.17826998 -0.12705539 0.0007066143 0.009959707 0.019675614 0.054415498 0.066682786 -0.07919187 0.05681027 -0.013357855 -0.014900947 0.067796834 -0.0024729206 -0.022532446 -0.12904824 -0.088091195 -0.10916288 -0.11181984 -0.10801003 -0.0845435 0.0020867607 0.09585908 0.120189145 0.05864986 -0.06676275 -0.12959386 -0.19955093 -0.23801696 -0.20233935 -0.08521014 0.059401788 -0.008330594 0.032362178 0.074950054 0.095534086 0.09308602 -0.03058991 -0.07220008 -0.055512898 -0.03676337 -0.0054944553 -0.009702364 -0.03859916 -0.06916835 -0.11686033 -0.14466742 -0.13045517 -0.16349381 -0.13579015 0.040681984 0.10567519 0.06178061 -0.04434221 -0.109856665 -0.1515051 -0.19325723 -0.12753284 -0.03030316 -0.014859734 -0.08909526 -0.060688056 0.06220129 0.102288835 0.04440616 -0.01604723 -0.11367951 -0.039158154 -0.019762868 0.0229025 0.012373565 0.048973132 -0.0042696972 -0.13016908 -0.08178284 -0.107592136 -0.13615745 -0.12260186 -0.036819484 0.035988413 0.05223724 -0.03531072 -0.05199388 -0.11742348 -0.16458328 -0.13965814 -0.015398139 -0.06738757 -0.049160946 -0.012453605 0.041587487 0.037860103 -0.019977257 -0.07543908 -0.1013725 -0.10626943 0.033808544 0.015179015 0.015373082 0.0773636 -0.004133468 -0.0888102 -0.06422536 -0.038419094 -0.112339035 -0.20488979 -0.12694938 0.043079745 -0.008335889 2.653028e-05 -0.07855142 -0.015882812 -0.1007838 -0.06363836 -0.026818702 -0.013693624 -0.07966422 -0.110356055 0.0038071324 0.007727952 -0.15037996 -0.07223789 -0.053416412 -0.07839928 -0.121610716 -0.10831444 -0.021133702 0.1084277 0.036450405 -0.032698236 -0.11289278 -0.1906339 -0.24210061 -0.18930928 -0.06732009 0.025163487 0.047094557 0.01743967 -0.01934935 0.062289465 0.0027698164 -0.018946106 -0.03806206 -0.045302805 -0.1013078 -0.07195921 -0.08120329 -0.08597874 -0.14074981 -0.055892833 -0.08820426 -0.14206684 -0.10245603 -0.15878332 -0.099860646 0.04217556 0.07029571 -0.09539438 -0.14307125 -0.1983615 -0.20900965 -0.23184061 -0.061381184 -0.00033595506 0.014368428 0.07043378 0.09280022 -0.027245851 0.013570576 -0.0076434943 -0.039658222 0.040940214 -0.014418645 0.015243852 0.072519585 0.015380286 0.012052248 -0.06948538 -0.117254615 -0.08422652 -0.06902266 -0.062124435 -0.12549299 0.025166897 -0.011566508 -0.07048124 -0.08095701 -0.15890764 -0.20997718 -0.21131776 -0.011414517 0.066990286 0.106921226 0.13908605 0.06899554 0.021147091 -0.0034897432 0.030640464 0.07448536 0.036067143 0.062162485 0.096884035 0.16892803 0.17841527 0.16954589 -0.056334827 -0.019158738 -0.115332514 -0.093110725 -0.007718085 -0.023952408 0.03577474 -0.021174908 -0.07823359 -0.13937286 -0.2025657 -0.22781928 -0.14684808 0.009656769 0.11433058 0.1873145 0.12037545 0.0796452 0.06645442 0.06805815 -0.008887423 -0.1111046 -0.018990593 0.029289365 0.07660965 0.13010834 0.26733747 0.13306288 0.04081671 -0.049278107 -0.022432933 -0.08247057 -0.11491876 -0.059705745 -0.034111094 0.031250488 -0.06817217 -0.12308368 -0.095054686 -0.13976182 -0.1572028 -0.05428745 0.13389489 0.134603 0.1648777 0.056058023 0.096069135 0.04836931 0.00935226 -0.09146964 -0.08013059 -0.027295953 0.116136245 0.10061054 0.16361849 0.19988215 0.04907577 -0.04341823 -0.055608712 -0.046077553 -0.09473423 0.031668045 0.038940344 -0.050549537 -0.03829826 -0.02843842 -0.12806432 -0.1186529 -0.09706944 0.031694908 0.104554184 0.1313595 0.1563228 0.088024475 0.078718536 0.014635291 -0.0027416048 -0.003485153 -0.052025665 -0.028730914 -0.0024371825 0.020775488 0.11368236 0.07035206 0.06849977 -0.024735518 -0.058200695 -0.10449114 -0.019163763 0.0030670185 -0.006206421 -0.054307368 -0.10325502 -0.06156366 -0.05763861 -0.10502229 -0.06099291 0.005000205 0.08125892 0.12109098 0.062796876 0.10705443 0.14181657 0.036528092 0.08115871 0.059205372 -0.008123845 0.086774155 0.025874415 -0.02447955 -0.031231057 0.09112877 0.018529387 -0.01673942 -0.074598365 -0.081950486 -0.09152038 -0.11096547 -0.031022761 -0.058271453 -0.056042287 -0.09379598 -0.06653402 -0.05940737 -0.0954896 -0.03190692 0.028562218 0.039168075 0.020069405 0.019835101 0.06931612 0.1023304 0.065280244 0.018241782 0.010355821 0.018899327 -0.0583479 -0.066040464 0.034494095 0.053154584 0.0058912244 0.029952986 -0.036312614 -0.06760855 -0.15437546 -0.14671141 -0.08044619 -0.08969216 -0.14843406 -0.08627339 -0.042436045 -0.023208218 -0.049044866 -0.056548774 -0.05058195 -0.04321173 0.02054914 -0.03294948 0.052763935 0.012755222 0.03921695 0.0050546452 -0.02025286 0.03790823 0.09185813 -0.022847727 -0.060166344 -0.027661739 -0.011295357 -0.0063475445 -0.00088454195 -0.037957463 -0.032198258 -0.0711887 -0.05007854 -0.05642401 -0.10567888 -0.057282165 -0.052782945 -0.037924454 -0.05295978 -0.020403856 -0.061497 -0.038801737 -0.05990695 -0.04696121 -0.012650875 -0.027408712 0.05573345 -0.012368237 -0.020160794 0.047621552 0.0720996 0.02964191 -0.0068291835 0.03279767 -0.03589675 -0.09215716 -0.020875126 0.012615424 -0.01488646 -0.036068197 -0.0846646 -0.058749966 -0.04625107 -0.115186535 -0.07225999 -0.0678069 0.06625427 0.037775517 -0.01712281 -0.02462925 -0.008638043 -0.018397065 -0.029862853 -0.064720094 -0.04639581 -0.07141089 -0.077716656 -0.03088985 -0.03299028 -0.050209418 0.023506906 0.012193851 0.0060756775 -0.026491402 0.03084116 -0.014407767 -0.05796619 -0.0555098 -0.12884153 -0.13825576 -0.019698048 -0.0954424 -0.02044148 -0.005440943 0.030289745 0.0014128293 -0.009250663 0.027847221 -0.01183398 -0.051677857 -0.06343436 -0.042541068 -0.054710235 -0.016340988 0.016839877 0.006750937 -0.0029657162 0.005094398 0.00028105898 0.03401253 0.03795017 0.009933247 0.035220854 0.031948626 -0.08498064 -0.09947921 -0.02839673 -0.030294262 -0.04863178 -0.09207203 -0.10545609 -0.10298692 0.022712087 -0.0104776425 -0.054677278 0.002809981 -0.026828226 -0.0753978 -0.12553008 0.035585888 -0.0009399586 -0.06924769 -0.06823896 -0.029018845 -0.002983969 -0.0049830982 -0.057016242 -0.038517866 0.00588858 0.019212583 0.030205224 0.057170678 -0.07878991 -0.063795865 0.017176816 0.03465456 -0.0041619595 -0.024448836 -0.068439476 -0.087809205 -0.10088977 -0.015506779 0.04098327 0.089894384 0.07521604 -0.026034288 0.04142892 0.023636265 -0.053360615 -0.03094176 0.027957186 -0.05521458 0.02564719 -0.06676075 -0.064410865 -0.08289425 -0.02042857 0.014657467 -0.020367749 0.0017980229 -0.059721775 -0.0346182 -0.033649426 0.022760415 -0.026206998 -0.021403654 -0.104857765 -0.120713264 -0.123830274 -0.016854959 0.030311354 0.14033315 0.05716742 0.08362466 0.04297512 -0.04376241 0.041664466 0.07885105 0.04282489 0.009046115 -0.04222229 0.0070324573 -0.03179349 -0.0012466322
-0.02766668 -0.031270817 0.019570975 -0.0016256165 -0.059825137 -0.0455225 -0.0059501235 0.035226613 0.064171456 -0.00335392 0.018443301 0.05147141 0.07304646 0.075711496 -0.046436135 0.04739014 0.07925851 0.078977704 0.1128818 0.14647795 0.045346953 0.070207454 0.1018995 0.08754236 0.029783087 0.016195815 0.054965515 -0.09239045 -0.049772806 -0.0422041 0.0005100116 -0.043355178 -0.0020346898 0.011629923 0.060926348 0.09182328 0.0751442 0.047673598 0.051480852 0.07373548 0.15452495 0.028279794 -0.022551382 -0.017530007 0.10042079 0.1530414 0.23674369 0.10254296 0.07598133 0.009187002 0.035011116 0.0760362 -0.044821545 -0.023311907 -0.04314546 -0.024426937 -0.011744502 0.03973832 -0.028421793 0.046095505 0.09955343 0.09895398 0.05964019 0.031566244 -0.04395574 -0.0141584845 -0.0034166393 0.05995685 0.10315207 0.119954124 0.07925453 0.04880053 0.06842984 0.10633399 0.20759046 0.17900157 0.16721381 0.10082673 0.030192258 0.09605801 -0.04519218 0.050686553 0.06231125 -0.005968455 0.09172863 0.07901997 -0.017926034 -0.004139254 0.05358348 0.050840747 0.00062127504 0.06070204 0.036692467 -0.025818903 -0.11156238 -0.13861237 0.03394588 -0.015328226 0.020846076 0.0043628695 -0.065429546 -0.03398662 0.08214091 0.056831725 0.0894104 0.042349394 0.07084789 -0.040731672 -0.06255656 -0.0282919 -0.0045534647 0.028902527 -0.0075513935 0.044792075 -0.011933102 0.021088546 -0.020640912 0.031941272 0.010818331 -0.03578702 -0.11242383 -0.1946842 -0.22653267 -0.22641905 -0.117450915 -0.12091365 -0.13496499 -0.12864949 -0.1030992 -0.11033341 -0.13175818 -0.0314765 0.030203065 -0.006259218 0.021452038 -0.033487145 -0.013625147 0.0001439081 0.06181231 0.036937032 0.08156404 0.025200883 0.06505922 0.038175814 -0.0063269963 -0.047553908 -0.11316231 -0.0068533206 -0.07105337 -0.13833264 -0.11494979 -0.24494137 -0.2837451 -0.28444883 -0.21300125 -0.11555557 -0.1184671 -0.018557908 -0.083885476 -0.073210776 0.030941488 -0.009968581 -0.0057369405 -0.04849774 0.099499494 -0.00019658767 -0.03636415 0.001965796 0.020384263 0.0112729855 -0.0006402298 -0.014655099 0.07640604 -0.0485862 0.026497236 0.043380536 0.008109659 -0.100519694 -0.15903483 -0.17760392 -0.13062386 -0.20202357 -0.1553158 -0.14935179 -0.14162378 -0.11314198 -0.06297403 -0.006996305 -0.005650423 0.042413566 0.020033678 0.02530129 -0.01999506 -0.08728178 -0.011793851 -0.06975612 0.16007608 0.10435495 0.13156112 0.13145536 0.07513139 0.10578249 0.08616475 0.07186195 0.05201255 0.0062533705 -0.004136483 0.008225969 -0.071861185 -0.028435688 -0.098962374 -0.09989616 -0.08513362 -0.058014534 -0.014122528 -0.01707123 -0.027748905 -0.021016475 -0.018864792 -0.082797155 -0.121321134 -0.011910893 0.07871533 -0.026396869 0.20328462 0.17438653 0.105570644 0.12708378 0.10513677 0.10809579 0.14824261 0.19564469 0.21033032 0.17028776 0.13619891 0.124427065 0.1507553 0.1292996 0.049775552 0.011756768 -0.012847427 -0.00874079 0.00968241 -0.00029662653 -0.0012261278 -0.011016407 0.031803265 0.019538423 -0.008338126 0.026395684 0.06212658 0.030733109 0.22399916 0.1094391 0.20277463 0.16045019 0.09610275 0.07653168 0.07552396 0.119028606 0.10609094 0.18365605 0.19779713 0.2324572 0.22294652 0.25450066 0.22020249 0.14958923 0.14621605 0.017046986 -0.0155141875 -0.059605647 -0.03964214 0.05676632 0.03229609 0.018049408 0.06797438 0.011968212 0.0013537157 0.034524705 0.042420134 -0.009690533 0.07863682 0.14444442 0.035991676 -0.022925582 -0.011110249 0.073628224 0.08367216 0.080507465 0.08059651 0.08512435 0.14869711 0.19125433 0.17902489 0.14882535 0.15875019 0.09549602 0.014994408 -0.00124684 0.100242704 0.05267331 0.05720669 0.043492466 0.0624003 0.063102745 -0.00053955294 -0.0053356965 -0.065603085 -0.07184595 -0.010885915 0.0012023299 -0.09000814 -0.1429364 -0.12767383 -0.10133198 -0.1247008 -0.17357497 -0.14955968 -0.099790394 -0.030573236 -0.056600988 -0.059196487 0.0025874025 -0.08173312 0.016177569 -0.034643367 -0.004479552 0.11193565 0.07706138 0.0136263855 0.048472837 0.044763923 -0.052965168 -0.03336485 -0.049472842 -0.05374176 -0.1344874 -0.1499675 -0.112173185 -0.21761474 -0.25817135 -0.40148813 -0.3742658 -0.43611684 -0.39722368 -0.2824764 -0.3612116 -0.21711588 -0.2957791 -0.2093795 -0.16489589 -0.1314627 -0.055888794 -0.014433627 -0.03356637 0.023918103 0.0013846812 0.06533261 0.039684404 0.039901406 0.041957583 0.03988765 0.004904117 -0.07617839 -0.17180096 -0.27312905 -0.31660348 -0.3640936 -0.39956337 -0.4548328 -0.5040547 -0.44826323 -0.30848494 -0.24688287 -0.28127557 -0.23938307 -0.16899554 -0.104934014 -0.112584084 -0.0302814 -0.003431732 -0.0060825706 -0.02980062 0.051734954 -0.028690316 -0.052176148 0.015072702 0.029231021 0.061408676 0.0039447844 -0.03348567 -0.21781345 -0.3135221 -0.36987603 -0.30339208 -0.37773293 -0.3619657 -0.32778552 -0.16884628 -0.18782616 -0.06511044 -0.07335711 -0.014987906 -0.012019947 0.012456554 0.004697113 0.0019581288 0.005869538 -0.01285898 0.0026827736 -0.01134736 -0.029794186 -0.076202884 -0.031360224 0.007689717 -0.017217996 0.020986557 -0.078329846 -0.030222151 -0.19805428 -0.2226635 -0.14250416 -0.25288302 -0.14991224 -0.07302579 0.054032233 0.042548478 0.07463459 0.13535771 0.07943342 0.08215612 0.08029603 0.126621 0.052501168 0.034530956 0.022107828 -0.021744763 0.013601197 0.0027736146 -0.025406972 -0.03673218 0.01738063 0.028129278 0.041226823 -0.056380242 0.055056814 0.085060775 -0.19374448 -0.12848544 -0.067980744 -0.08740512 0.05697166 0.17709413 0.12127726 0.15090933 0.12143699 0.10687697 0.079759374 0.08023266 0.062114548 0.06874106 0.045811012 -0.023444753 0.010815971 0.008283884 0.011984529 -0.0134163005 0.0052297255 -0.00016190758 -0.008309223 0.040508483 -0.040049743 -0.01405841 0.0486363 0.08596279 -0.032120124 0.013369649 0.07359015 0.073333055 0.089175425 0.11537096 0.12384203 0.116789855 0.13043681 0.07997108 0.017564759 0.039458215 0.043063644 0.0008415296 -0.008927281 0.0024772089 0.018484319 0.022630334 0.03158105 0.026677934 0.101525776 0.025994394 0.09329244 0.080921635 -0.043899972 0.002479292 0.03527101 -0.011504251 0.08653641 0.053992666 0.07796723 0.10028292 0.04005205 0.013444725 0.07338796 0.0931717 -0.010924341 -0.05506246 -0.05292012 0.035472754 0.019566843 -0.04207576 -0.058979012 0.0272707 -0.0077343965 -0.015491069 -0.007872754 -0.0055520786 0.04908552 0.053969726 0.14624448 0.115561485 0.07214123 -0.011392515 0.075668566 -0.02449158 0.12037902 0.06964215 0.094763614 0.06481404 -0.020621737 0.02495499 0.04871811 0.030615086 -0.010589872 -0.14479618 -0.10283481 -0.015709057 -0.019745653 -0.00657814 -0.03508257 -0.0103208 -0.008207342 -0.034597658 0.0055005294 0.035763465 0.02790102 0.018153504 -0.016405974 -0.06524172 -0.013231587 -0.018877234 0.037690323 -0.05191675 0.2383007 0.10066013 0.028674623 -0.008054555 -0.036467835 0.015338167 0.049380895 -0.0052736374 -0.013985434 -0.03635083 -0.028833825 0.005793206 -0.028290736 -0.042562317 -0.010290833 -0.012193153 -0.017407939 0.036338765 -0.018141985 -0.008271851 -0.0129369525 -0.008330503 0.020856535 -0.08629108 -0.067648165 -0.046025444 0.05307005 0.024694221 0.0985636 0.115630455 0.022290133 -0.027758883 -0.004315471 0.04947345 0.04761517 0.01819127 0.0655994 0.055805914 0.06495932 0.053525697 0.01024332 -0.039199866 0.047045987 0.052277546 0.01854422 -0.005726895 -0.10303331 -0.02178152 -0.01452721 0.013006471 -0.08989684 -0.100124374 -0.06873545 -0.02646512 0.024780165 0.0103481095 0.119187266 0.035130076 0.026809879 0.049556527 -0.051937275 -0.038120493 -0.01519491 -0.03637844 0.04242435 0.09799959 0.032036092 -0.033212435 -0.023168413 -0.0069507607 -0.0163531 -0.0018968947 -0.022184227 -0.018687027 -0.00044676234 -0.024353681 -0.045966793 -0.031240107 -0.1320603 -0.08382473 -0.06890803 -0.11972423 -0.06624271 0.028563872 0.061601 0.024884967 -0.0061852303 0.020094633 -0.047819886 -0.0145446705 -0.01791203 -0.080918476 0.014225807 0.018131848 -0.050910544 -0.058068484 -0.006906868 -0.035398617 0.05191925 0.038452737 0.013930298 -0.034452356 -0.025486464 -0.004159833 -0.054666825 -0.120377086 -0.03166046 -0.04367018 -0.08561176 -0.073900886 -0.060549363 0.053860713 0.06137697 0.14601992 0.08313083 0.009463542 -0.06532141 -0.083712004 -0.15046707 -0.1079269 -0.044428937 0.04361085 0.027915405 -0.043455843 0.017925331 0.017809998 0.0114196595 0.008286257 -0.023185143 -0.004036183 -0.04537824 0.037444487 0.030280437 -0.05900731 -0.0990372 -0.070045404 0.004209227 -0.039525654 -0.05072333 -0.07099538 0.09482955 -0.01331392 -0.024062885 -0.080377415 0.013539949 -0.069387585 -0.051111132 -0.051462043 -0.049292676 0.055353034 0.013475983 -0.062231638 -0.044087198 -0.008263173 -0.029551752 -0.026150262 -0.020024814 -0.07318108 0.0011495966 0.032796238 -0.03533895 -0.045648124 -0.14785846 -0.16912419 -0.06980094 -0.07081548 -0.13730729 -0.07411555 0.037184987 -0.012605461 0.019764446 -0.04862296 -0.017825825 -0.082313254 -0.08835557 -0.05712665 -0.03159489 -0.06362597 -0.16957285 -0.12969492 0.028336704 0.04203255 0.041715406 -0.04028776 -0.079854645 -0.018644992 -0.012921197 0.009138389 -0.08146345 -0.17494254 -0.15445241 -0.09002171 -0.035366848 -0.089560166 -0.04733105 -0.09424972 -0.08924123 -0.045515645 -0.046084046 -0.03282602 -0.00028328897 -0.026021622 -0.07458859 -0.11375921 -0.09739451 -0.16421425 -0.17014466 -0.19298233 -0.0757341 0.05299207 -0.07033762 -0.1193477 -0.072689764 -0.08597542 -0.10514077 -0.11472244 -0.108285435 -0.08983542 -0.14680208 -0.09609047 -0.033278253 -0.07166128 -0.011741376 -0.058712326
0.027937707 -0.033307653 -0.04731842 -0.0014691744 -0.05345871 -0.008778985 -0.052126218 -0.1220405 -0.09415481 -0.12661517 -0.09616549 -0.07208633 -0.09872789 -0.10460685 -0.097294085 0.045256466 -0.009739448 -0.09501787 5.006273e-05 -0.054280862 -0.102443114 -0.11402956 -0.08985009 -0.11631597 -0.0063044773 0.010243327 0.062483393 0.053370327 -0.037212305 -0.0066485116 -0.06848044 -0.043857522 -0.007493852 0.01340639 -0.023700202 -0.07552315 -0.11986379 -0.106690034 -0.04917859 -0.04392864 0.017240169 -0.12643483 -0.13500272 0.0032841382 -0.09077297 -0.09631234 -0.029195206 -0.058465354 -0.013153245 -0.061315306 -0.11138028 -0.11367702 -0.08900695 -0.049488466 -0.0063866973 0.07555998 -0.0494826 0.02603539 -0.019140232 -0.028307552 0.03865527 0.0071805804 -0.092963144 -0.08630701 -0.11051994 -0.14083865 -0.11976951 -0.057296377 -0.05798049 -0.19631034 -0.14765115 -0.10694669 -0.09192238 -0.14600219 -0.09390364 -0.09403516 -0.06426293 -0.04831925 -0.06711609 0.03595877 -0.0695134 -0.06454046 0.0880773 0.11465285 0.10159358 0.06698852 -0.016195336 -0.014457896 -0.017335126 -0.04697352 -0.020094514 0.03969501 -0.09045419 -0.19185652 -0.21462828 -0.1326774 -0.12940218 -0.21200396 -0.14732465 -0.143346 -0.15777135 -0.11909059 -0.039216977 -0.045009065 0.037204992 -0.040574662 -0.05544435 0.037550308 0.039950985 0.05461363 -0.020618638 -0.015048339 -0.048594423 -0.006508172 -0.033019453 -0.06598734 -0.10950215 -0.08154144 -0.1442828 -0.13979772 -0.15964954 -0.239605 -0.27490768 -0.24750152 -0.17660888 -0.19220419 -0.14373027 -0.15903054 -0.011568185 -0.051150035 -0.034767874 0.051980272 0.07229592 0.0118720895 -0.10310795 -0.10295301 -0.010694285 0.09299401 -0.012892167 -0.13660692 0.027082048 -0.024565628 -0.0851629 -0.09381475 -0.1617158 -0.1757368 -0.13123581 -0.17179815 -0.12341851 -0.1301277 -0.20172848 -0.12804332 -0.08217754 -0.045277063 -0.1454864 -0.08771483 0.028170025 0.021336682 0.02279148 0.0323124 0.04034947 0.0008717881 -0.1252742 -0.2047432 -0.047081362 0.0036415125 -0.035695896 -0.0051392955 0.113877654 0.06619191 -0.033667848 -0.059690744 -0.002634608 -0.07754092 -0.12829769 -0.028527014 -0.05033773 -0.0036910262 -0.05994965 -0.109629944 -0.062277354 -0.042431846 0.081159815 -0.0046851872 -0.0070670517 0.0020652665 0.012677907 -0.018840367 -0.0032974517 -0.01161054 -0.041834466 -0.0940219 -0.11322629 -0.12482161 -0.05997545 -0.11829193 0.08993144 0.039730635 0.051386103 0.05440396 0.10698622 0.000545849 -0.026821932 -0.02312435 0.020619545 0.00070265064 0.03014157 0.09898515 0.10085653 0.09727008 0.12683906 0.08190592 0.033359643 0.010476744 -0.049668234 -0.041279748 -0.024923068 -0.004259931 -0.07751309 -0.09921437 -0.10344969 -0.14652462 -0.15511625 -0.14950621 0.05426392 0.031653423 0.07563492 0.06743639 0.12843944 -0.012525167 0.017049046 0.11588916 0.08903217 0.11857004 0.13798629 0.19689032 0.2455469 0.2087554 0.1742671 0.07664164 0.021707084 -0.07037577 -0.014170062 0.05502372 -0.011471672 -0.06979242 -0.02700824 -0.053892497 -0.08085051 -0.1108729 -0.12343767 -0.08953601 0.09806833 0.15960181 0.10864447 0.08456995 0.13993149 0.11090383 0.11098627 0.19750482 0.10549926 0.15748635 0.21410194 0.185844 0.18629375 0.21624765 0.09046579 0.0039970307 -0.011182202 -0.05164856 -0.087354384 0.0012078203 -0.031534456 -0.014337846 -0.041837692 -0.041668348 -0.094833255 -0.13517258 -0.07742404 -0.012503034 0.060663577 -0.010226969 -0.022819912 0.07574755 0.11524263 0.104558244 0.09965883 0.115329266 0.049355082 0.06485875 0.031791948 -0.048139263 -0.12569281 -0.07065939 -0.058343653 -0.070980184 -0.05544493 -0.03029605 -0.05569926 -0.018019289 -0.008088319 -0.07704747 -0.046016295 -0.062957585 -0.092155665 -0.030691275 0.031736113 0.028692124 0.034216817 0.009143487 0.028181622 0.04793481 0.0017702398 0.0045412006 -0.048668362 -0.06117339 -0.07882617 -0.10478262 -0.32592118 -0.41035983 -0.26176086 -0.23580956 -0.1505362 -0.14270435 -0.022689495 0.03896262 0.001336277 0.015038252 -0.01230163 -0.013185632 -0.021596054 -0.07708691 -0.085009076 -0.16129974 -0.072023414 -0.027260397 -0.10179789 -0.034923255 -0.084213905 -0.025463074 -0.122813635 -0.112484775 -0.18791331 -0.15990964 -0.26740497 -0.3924044 -0.45459962 -0.29979888 -0.111755565 -0.08532519 0.028687304 0.04821319 0.13730626 0.0923261 0.054380972 -0.005884014 -0.009511102 0.004867361 -0.033755727 0.038221434 0.028274631 0.045794778 0.025899235 -0.008450297 -0.043414433 -0.041517794 -0.080882326 -0.07365483 -0.15270054 -0.1959786 -0.24328268 -0.2922674 -0.36474958 -0.33860847 -0.11339263 0.05870226 0.10444962 0.12439349 0.15947188 0.11023058 0.10042395 0.023522748 -0.01835017 -0.013273386 0.008487453 0.025871878 -0.07198156 -0.045827113 0.001396941 0.11152443 0.056340348 -0.028535526 -0.13983423 -0.20108488 -0.19541886 -0.13784778 -0.21065184 -0.22847784 -0.19308712 -0.19125238 -0.20543091 -0.024485337 0.08639465 0.2076594 0.13762467 0.105097994 0.112461045 0.077614635 0.033219848 -0.046256904 -0.064748384 0.028087737 0.12667887 0.06839428 0.015771741 -0.01010456 -0.028613389 0.11665994 0.08292054 0.10077045 -0.16981411 -0.18365432 -0.16361357 -0.20965497 -0.10888475 -0.11880914 -0.080391265 -0.067180015 -0.0019079003 0.06906082 0.043343257 0.10198169 0.08123259 0.008279457 0.08433929 0.03738075 -0.034325253 -0.08462741 -0.010627756 0.005982555 0.062993556 -0.009782926 0.0027223993 -0.019448498 0.012992643 0.048894662 0.11967119 0.07419376 -0.07549006 -0.08217516 -0.037070572 -0.101114005 -0.079344496 -0.019054739 -0.01950711 0.032500554 0.079892166 0.10329215 0.043204606 0.039733306 0.065889135 0.007874576 -0.015833357 -0.055816658 -0.058563147 -0.043207455 -0.04988836 -0.0004978128 -0.023909116 -0.06273562 -0.026878886 -0.032555282 -0.048507027 -0.034102138 0.08818529 0.10216821 0.07893477 -0.020108772 0.060145143 -0.027959896 -0.12299466 -0.06382215 -0.060153637 0.004328371 0.03392744 0.005831385 -0.013933694 -0.0666199 0.047937475 0.05288275 0.012723687 -0.066271074 -0.11761322 -0.07678915 -0.039393757 -0.059435874 0.038358957 0.039488014 0.046441693 -0.016556213 -0.036988936 -0.07106585 0.033726625 0.14669712 0.08892278 -0.039448455 0.004379588 -0.0694316 -0.07619515 -0.10683798 -0.050099168 0.0035091473 0.032697324 -0.0044597783 -0.042206816 0.026118822 0.035349946 0.017081646 -0.05789339 -0.15183851 -0.15807559 -0.054038048 -0.031265583 -0.053813215 0.02588184 0.004431965 0.08765293 -0.023325125 -0.04087677 -0.04407373 0.10291835 0.19208996 0.106807865 0.09190556 0.043916434 -0.060160086 -0.09474556 -0.08064248 -0.058497414 0.0024208175 -0.019057043 -0.040085353 0.0374557 0.012371624 0.0024311135 -0.052392006 -0.026052963 -0.075116284 -0.02270949 -0.038471553 -0.094117716 0.0023964054 0.0006974876 3.4054727e-05 0.0051327185 -0.026604645 -0.06794997 -0.036291324 0.063471705 0.078828044 0.1652579 0.117743745 -0.011026608 -0.01827619 -0.06264692 -0.020527774 -0.032349627 -0.023557762 0.052745543 -0.020447606 0.0023192754 0.0025278635 0.050545443 0.014644951 -0.02940437 -0.048155796 -0.0045367638 -0.009418624 -0.06952595 -0.0664104 0.042906787 0.05479236 -0.0042599193 -0.101847254 -0.06369917 -0.051755104 0.05417605 0.06787003 0.09620657 0.09273448 0.013622095 -0.045576565 -0.091833405 -0.017000638 -0.054928064 -0.09621852 -0.025921576 -0.0049660257 -0.045873348 0.034024246 -0.031809546 -0.07004358 -0.011148563 0.058910493 0.022899592 0.018863099 -0.10034932 -0.0041890508 -0.014099601 0.022266721 -0.009999345 -0.09372103 -0.058088303 -0.09108821 -0.023465024 0.01950845 0.0088025015 -0.026834596 0.068972595 0.024468476 -0.14214228 -0.06879161 -0.044379707 -0.04750053 -0.080029614 -0.037049074 0.0018854074 -0.010537774 -0.021530828 -0.111700244 0.007857894 0.0727794 0.06960952 -0.014209116 -0.019688388 0.0028783202 -0.00830146 0.029963944 -0.058711667 -0.14948323 -0.042879086 -0.08967326 0.054855093 0.051710952 -0.014461142 -0.099153295 -0.07719876 0.0046577845 -0.037075855 -0.05308153 -0.1420377 -0.15977043 -0.09215956 -0.0017405126 -0.023065627 0.016893912 -0.028997533 -0.07643129 -0.07241138 0.021987282 0.032687847 -0.011779211 0.0056352946 -0.03484594 -0.05469622 -0.13252997 -0.08619937 -0.077157766 -0.093995735 -0.0039300714 -0.027466033 0.14437972 -0.038876817 -0.055018842 0.01812021 0.038717777 -0.05476878 -0.07322576 -0.061804853 -0.10840222 -0.113945894 -0.029429384 0.033149432 0.025097199 -0.035268914 -0.07483021 -0.07304696 0.020105489 0.03218365 0.039087683 -0.033427604 0.03481575 -0.07515373 -0.061643958 -0.0649301 -0.060914528 -0.022424486 -0.0102738915 0.073810354 0.041858185 0.053912055 -0.03499746 -0.06809085 -0.03316408 -0.041376244 -0.018783933 -0.03954685 -0.021794846 -0.10244263 -0.0905148 0.025033558 -0.06768231 -0.06318453 -0.080878735 -0.096830666 -0.024414781 0.02272666 -0.029150734 -0.038164906 -0.022636514 -0.05454608 -0.0012969966 0.04407415 0.020972567 0.018778788 -0.10096029 -0.046662718 -0.033284746 -0.034492526 0.02210579 -0.050827544 -0.0140306065 -0.022117821 -0.031777058 -0.079426005 0.08746835 0.06212376 -0.028082397 -0.017215112 -0.020173395 -0.110245615 -0.09595891 -0.03567917 0.0017758464 0.002684502 0.026373047 0.042879034 0.03779487 -0.0096748965 0.013174188 0.008118801 -0.020542866 0.005469813 -0.006385091 0.0035231512 0.026777305 -0.07684378 0.0012550232 0.0021052614 -0.024562998 0.045631584 -0.019719172 0.0546515 0.11199785 0.091623366 0.07291255 -0.05586091 -0.15213317 -0.025741993 0.024445605 0.06813116 0.073630415 0.12156175 0.12652168 0.11015176 0.023023559 0.038572755 -0.016591618 -0.061608896 -0.111197576 -0.035348 -0.025752485 -0.0851901 -0.028623946
-0.010957631 0.00551137 0.07550427 0.15488346 0.018052265 -0.033305872 0.08378159 0.08569875 -0.038007192 0.027151687 0.09729794 0.12397807 0.13646281 0.03389308 -0.17265075 -0.13201034 -0.13909177 -0.17713675 -0.17986108 -0.102546625 -0.14617294 -0.048701778 -0.029063636 0.039076123 0.04744959 0.03357204 0.058136534 0.06087647 -0.00851538 0.05681305 0.079789534 0.04370087 -0.01602111 0.11208641 0.12745105 0.096743494 0.144249 0.13188133 0.14211565 0.06944243 0.09662739 0.029873282 0.018016156 0.017502103 -0.060542665 0.017275494 -0.12912819 -0.18501933 -0.07667617 -0.104525335 -0.13765652 0.023104709 -0.016236538 0.06947941 0.057950098 0.041400358 -0.021598598 0.09718579 0.06151822 0.091532536 0.07816279 0.14167596 0.094938174 0.101141125 0.03779416 0.19483414 0.15773521 0.14197509 0.11377637 0.08325047 0.047448564 0.07894619 0.013918688 -0.03706684 -0.14202565 -0.16293453 -0.13652937 -0.19006376 -0.13730413 -0.03604476 -0.049375337 -0.016727615 0.048586372 -0.0044304044 0.009838198 0.08671081 0.04148492 0.044589173 0.09723778 0.13180822 0.09815006 0.15518038 0.16918568 0.14728725 0.10639006 0.16463782 0.14790124 0.06016879 0.014512675 0.064416766 0.07898343 -0.02609453 -0.10161318 -0.13971588 -0.19693413 -0.1882986 -0.147703 -0.124216005 -0.056599077 0.01486743 0.032491174 0.059080176 0.12440179 0.10263855 0.1795896 0.0822813 0.15907644 0.11712488 0.10065359 0.05327679 0.058465563 0.07300681 0.08369704 0.09642527 0.08487969 0.12733305 0.07401925 0.07605165 0.01592842 -0.022782287 -0.08049138 -0.15389529 -0.19954903 -0.31667745 -0.31012693 -0.18676323 -0.06354802 -0.024751876 0.033615723 0.06683253 0.2002231 0.12481908 0.21678843 0.09464407 0.05661213 0.11568513 0.011722402 0.11371483 0.08273717 0.055635445 0.117577076 0.1446341 0.1478405 0.13792709 0.12845372 0.04589679 0.090360485 0.059557643 -0.043899074 -0.24677221 -0.33692366 -0.3529326 -0.3316125 -0.23783901 -0.068918236 -0.048904147 -0.09271457 0.035061073 0.071903355 0.17416391 0.18347509 0.090943135 0.0715109 0.120393716 0.026402365 0.04822191 0.07417763 0.043570716 0.090313226 0.040651023 0.09968531 0.109181225 0.05777482 0.1304458 0.12287215 0.10091454 -0.05047364 -0.25530323 -0.31355867 -0.3865833 -0.27539825 -0.15642239 -0.07418687 -0.033158123 -0.054230336 -0.00051398383 0.12745573 0.09171582 0.040361665 0.028676243 0.03767911 0.023186175 0.07856016 0.01011427 -0.010273113 0.030957926 0.08867164 0.04844229 0.06292 0.15635817 0.15218298 0.18610586 0.16860542 0.054880023 -0.10878293 -0.28240603 -0.39725217 -0.37589434 -0.25024205 -0.0996382 -0.0257163 -0.11443134 -0.093399055 0.007091885 0.024298603 -0.0033892486 0.058468238 0.0036910763 -0.009015724 0.028182274 0.037486292 0.05562301 0.09163387 0.1133366 0.11932519 0.06861754 0.12600286 0.106311634 0.17384252 0.21088523 0.0916418 -0.07680616 -0.26138577 -0.37160906 -0.27293026 -0.31452224 -0.24799503 -0.1244902 -0.108310506 -0.19091311 -0.06453507 -0.029939989 0.060735915 0.05437859 0.06302893 -0.017839905 0.030249221 0.009631272 0.034930028 0.0056626215 0.1303181 0.14829993 0.16147436 0.100633115 0.12502392 0.16940509 0.1219236 0.07831071 -0.07290933 -0.25802007 -0.27837452 -0.19507442 -0.20034896 -0.15898073 -0.12181634 -0.052395213 0.015521907 -0.1542766 -0.13955702 -0.13148712 0.04567142 -0.01341756 0.0041558454 0.0054656332 0.06944546 0.045915987 0.07932324 0.12546532 0.20431975 0.19964238 0.12817156 0.09754105 0.15853406 0.13885526 0.08757966 -0.07556382 -0.28027856 -0.23752762 -0.23748925 -0.16183811 -0.105323754 -0.115442604 -0.013226016 -0.00709619 0.07781379 0.053192396 -0.095131405 -0.061983712 0.03308604 -0.027671054 0.02197318 -0.021022055 0.15071587 0.121308535 0.11018828 0.11010191 0.13376424 0.07974315 0.067028426 0.086185336 0.12179716 0.1185673 0.03234134 -0.14755404 -0.20492738 -0.20560716 -0.14797331 -0.13523594 -0.015557245 -0.0013567795 0.010588212 0.0337299 0.14674377 0.1592197 0.09156818 -0.0782453 -0.04160506 0.031158853 0.024444798 0.023545576 0.09410085 0.0629081 0.04146511 0.047558185 0.02342949 -0.04789922 -0.045073234 -0.019351045 0.025619395 -0.0002201746 -0.057931025 -0.16429918 -0.16515955 -0.11126165 -0.08763271 0.008456772 0.01701377 0.046588868 0.12058463 0.14278275 0.08430144 0.07146347 0.0107302945 -0.18305846 0.022197906 0.07573756 -0.001962132 0.026898399 -0.04822167 -0.10892566 -0.046172097 -0.090381086 -0.138208 -0.08828413 -0.09767988 -0.015247568 -0.035699118 -0.014327727 -0.041824233 -0.13409418 -0.18104148 -0.033726428 0.027945654 -0.0006369658 0.017470809 0.10312544 0.17686091 0.14189942 0.081841126 0.123030394 0.012559557 -0.254498 -0.03186222 0.031974558 -0.017818166 -0.13546827 -0.16936843 -0.19863957 -0.2151955 -0.15467948 -0.15501605 -0.15137304 -0.115301214 -0.126335 -0.050336506 -0.13411196 -0.100743525 -0.16821486 -0.21930878 -0.13249394 0.023890153 0.050412018 0.008599697 0.07133831 0.13555802 0.15006861 0.038081996 0.09266277 0.014338216 -0.13014467 -0.113005556 -0.05469753 -0.07302617 -0.110484175 -0.057433084 -0.073879614 -0.10576911 -0.10999835 -0.13235742 -0.049804173 -0.034139775 -0.043443974 -0.038782574 -0.13200769 -0.18502478 -0.16330138 -0.12805706 -0.04013388 -0.03822054 0.008025847 -0.009667451 0.077499844 0.08129593 0.047999874 0.04153648 0.07893228 0.002325011 -0.06932022 -0.05912061 -0.17441775 -0.089937024 -0.010155652 0.006778932 -0.046459496 -0.028344749 -0.017719986 -0.070130385 -0.006590017 0.027300829 -0.046354078 -0.08748517 -0.09522889 -0.053730275 -0.092356175 -0.10989839 -0.020809134 -0.033057388 -0.014729295 -0.0145879015 0.061673306 0.0042680064 0.014138848 0.015549534 0.09652148 0.043022495 -0.051579677 -0.04805492 -0.078485966 -0.06999285 -0.015635926 -0.030596638 0.038515 0.059281997 0.04268773 -0.010694679 0.0031966518 -0.047967624 -0.020476708 -0.072142765 -0.09845228 -0.049686056 -0.058424864 -0.035140175 0.010687202 -0.008520043 0.00070882443 0.059426945 -0.002085107 -0.007818229 -0.048485793 -0.05515842 0.11272807 -0.034936324 -0.048510633 -0.04633803 -0.07162425 -0.0011008302 -0.005125846 -0.018853147 -0.05251082 0.030276537 0.017302392 -0.047901936 -0.044985186 -0.07228087 -0.04748596 -0.08275327 -0.04957016 -0.044458386 -0.0035228177 -0.038103133 -0.06555044 -0.029389726 -0.0043965634 0.021459667 -0.02902507 -0.026513748 -0.13334964 -0.025490236 -0.0011042467 -0.05527044 -0.04798652 -0.11681162 -0.08598826 0.012704037 -0.04558279 -0.027984036 0.07470905 0.0014063857 -0.072104365 -0.035939697 -0.06602539 -0.028230406 -0.062569745 -0.066602536 -0.0098745935 0.04320665 -0.048821438 -0.051677823 0.0064207856 -0.06695861 -0.076821916 -0.05921941 -0.11339432 -0.09308423 -0.14309661 -0.08205921 -0.11908551 0.03506988 -0.011573432 -0.046864413 -0.12551229 -0.07758077 -0.06914071 -0.040910855 0.0074681747 -0.024768092 -0.03903771 -0.02351954 -0.03922776 -0.07978584 -0.045699537 -0.04024935 -0.047539737 -0.03730218 -0.053544044 -0.06736722 -0.10258499 -0.13297531 -0.15248127 -0.12984389 -0.09558587 -0.10255739 -0.09626775 -0.13530447 -0.1333505 0.034831967 -0.039030425 0.05558823 -0.033680048 -0.009294408 -0.102461934 -0.11008912 0.04273704 -0.01078427 -0.008730305 -0.063019045 -0.04500827 -0.048190955 -0.06251702 -0.073965505 -0.010862984 -0.0017273208 -0.05251334 -0.08288371 -0.09316377 -0.07134614 -0.12045348 -0.08889908 -0.085074 -0.064607784 -0.06768612 -0.05652928 -0.10829215 -0.034909815 -0.13656881 -0.009340748 0.022641808 -0.04332534 -0.058442663 -0.15420578 -0.07889482 0.025570737 0.002875353 -0.03111814 -0.05673896 0.009008832 -0.04731802 -0.056675848 -0.039942004 -0.0040027685 -0.041831117 -0.0073477146 -0.06662674 -0.053572282 -0.072034635 -0.11386234 -0.11318553 -0.16794285 -0.1457894 -0.102046154 -0.21935531 -0.08155198 -0.033848107 -0.02242897 -0.09875918 -0.05615219 -0.079054326 -0.0248814 -0.05408737 -0.10642044 -0.054524045 -0.10089498 -0.02140322 0.0043914607 -0.090157755 -0.09095376 -0.0025607059 0.034564152 0.057486083 0.03690707 -0.04531034 -0.01551955 -0.054997914 -0.034353193 -0.034668576 -0.102595344 -0.123114385 -0.12541834 -0.15282294 0.058074404 0.013638797 -0.014363454 -0.07752276 0.019171597 0.05114399 0.08608272 0.051697172 0.0056994143 -0.06557357 -0.13080776 -0.02618534 -0.04344084 -0.08357885 0.0006886846 0.04226994 0.060633786 0.12032329 -0.012821311 -0.05271861 -0.11488013 -0.07746417 -0.11962617 -0.069547445 -0.17231701 -0.16761222 -0.15287122 -0.06690007 -0.011608496 0.012145461 0.100564554 -0.019181311 0.1162577 0.12754667 0.18599619 0.2051198 0.04235274 -0.09552302 -0.16195557 -0.11646733 -0.09663992 0.020996507 -0.032837786 0.08893283 0.046159983 0.03318988 0.016854057 -0.11185963 -0.08282768 -0.106063895 -0.036772437 -0.053641323 -0.08179191 -0.1602611 -0.09072339 0.01033942 0.022101127 -0.025597671 0.0075870613 0.07830118 0.21171819 0.17017251 0.14024442 0.15144704 0.035618808 0.0062150247 -0.08123629 -0.10228495 -0.09133155 0.0018510249 0.08941118 0.11052953 0.084461346 -0.0018351345 -0.100392036 -0.1202089 -0.18782976 -0.15449971 -0.12467237 -0.11384838 -0.20354804 -0.08010277 -0.056754537 -0.030636232 0.026007794 0.0016298738 0.024485538 0.022460999 0.03956013 0.09281451 0.10207537 0.20532903 0.04942265 0.05206756 -0.02570329 -0.06608253 0.05402967 0.02809622 0.12674755 0.1067047 0.09313632 0.009707358 -0.043638203 -0.20388672 -0.15340407 -0.046671994 -0.11495037 -0.15622957 -0.13059813 -0.041750845 0.0065870183 0.010702204 -0.03793363 0.032890733
0.01358107 0.054750867 0.0123848375 0.004311787 0.03886492 0.04381056 0.08792498 0.1648786 0.17698576 0.18402243 0.16236396 0.16109012 0.16372097 0.020111948 0.05198254 -0.022850962 0.053816758 0.059693836 0.12670863 0.011719735 -0.06483125 0.09091271 0.065336816 0.041337114 -0.0050907684 -0.032881606 -0.012741919 -0.05050434 -0.02484725 -0.035982993 0.023676991 -0.059328754 0.04858485 0.10511076 0.117128365 0.1879958 0.078414515 0.03513845 0.082392335 0.17486359 0.035342187 -0.08031856 -0.10100508 -0.0561627 -0.04628147 -0.025467025 -0.06457055 -0.06518598 -0.10270414 0.020197688 -0.01525347 -0.05877731 0.005914084 -0.024062203 -0.02748573 0.0005989303 -0.011254006 -0.10821918 -0.030947303 -0.077845596 -0.014712548 0.025530599 0.1638932 0.09215375 0.05530592 0.15331191 0.1524391 0.16189131 0.15602227 0.054259498 0.015705897 -0.12288719 -0.026919989 0.024003176 -0.070229806 -0.07231573 -0.07037527 -0.06078786 -0.089320615 -0.10205128 -0.09778359 -0.018682804 -0.02899393 -0.026308415 -0.060191773 -0.07972614 0.014929837 0.04723509 -0.009604295 0.09049913 0.04905027 0.02298697 0.08331368 0.14899912 0.19664969 0.2004748 0.1330806 0.05781625 0.021526674 0.010554537 -0.051486213 -0.080360584 -0.10632431 -0.13733539 -0.0589174 -0.13312611 -0.15668438 -0.094139494 -0.03678062 -0.023927022 -0.019993652 -0.04980822 -0.071170434 -0.15381984 -0.09489182 -0.07239987 0.009446968 0.027033392 0.07872046 0.18385409 0.16370715 0.21783656 0.20109518 0.13128036 0.09210435 0.033333763 -0.007337836 -0.08209458 -0.025882756 -0.10003545 -0.13921374 -0.1511506 -0.11770253 -0.17324644 -0.18077956 -0.13067593 -0.037358075 0.07925142 -0.025217148 -0.03158591 -0.08129387 -0.12607498 -0.071020715 0.071103714 0.0669733 0.12538935 0.14028719 0.17132092 0.2429398 0.21258451 0.1172724 0.07362188 -0.0011135183 -0.031047301 -0.086810105 -0.043212377 -0.13541861 -0.14731126 -0.21027544 -0.2133242 -0.18142956 -0.22020584 -0.14087893 -0.09264089 -0.02987125 -0.013053319 0.045445982 0.04202877 -0.04414536 -0.068967976 -0.04940514 0.029421492 0.109758995 0.19810277 0.23224016 0.1593825 0.12567446 0.10048876 0.007618844 -0.09347077 -0.14917752 -0.09793659 -0.051616687 -0.108115636 -0.08525065 -0.13197578 -0.17873518 -0.26570562 -0.25318626 -0.25298828 -0.18382752 -0.11776149 -0.15596142 -0.1205158 -0.06230105 0.044795316 -0.07453768 -0.0046461024 0.04539396 0.07416219 0.11719848 0.26730943 0.214033 0.1322018 0.05971081 -0.068146884 -0.20961265 -0.25826058 -0.18963669 -0.15036914 -0.148072 -0.058216807 -0.05862629 -0.20256828 -0.15505517 -0.085932344 -0.087595075 -0.1729147 -0.15580712 -0.21511568 -0.15860425 -0.086350024 -0.10045773 -0.03311545 0.013865981 -0.044194445 -0.009223376 0.022983989 0.033080917 0.19399725 0.18207963 -0.017788168 -0.18428002 -0.2247875 -0.30653387 -0.29078233 -0.2543643 -0.20356908 -0.04557965 0.021002468 0.047223553 -0.020886056 0.02471707 -0.021660985 0.015034054 -0.024928167 -0.09238879 -0.118633315 -0.2527523 -0.24274157 -0.21915235 -0.21047804 -0.007889385 -0.10267484 -0.069551066 0.010370826 0.014880047 0.20675895 0.07471324 -0.109599926 -0.21005492 -0.16474982 -0.25847787 -0.29966056 -0.18948573 -0.15669794 0.039762173 0.13548848 0.07447091 0.11488452 0.15714024 0.046688568 -0.011353904 -0.016805828 -0.092070825 -0.17349812 -0.29064134 -0.19664824 -0.25476485 -0.1329563 -0.10340947 -0.1154767 -0.079746634 -0.06617509 -0.0050445367 0.06316481 -0.03705363 -0.14744796 -0.18288176 -0.16813143 -0.208651 -0.08629787 -0.030089032 0.0448027 0.1179965 0.1412602 0.06589899 0.17690194 0.031844527 -0.06324233 -0.038747676 0.07693154 -0.08066031 -0.24743594 -0.31998122 -0.27995145 -0.28216186 -0.11197028 -0.06230385 -0.06884944 -0.0039434647 -0.09352223 -0.09662402 -0.03768136 -0.100277625 -0.100685135 -0.124168746 -0.14437717 -0.030925633 0.05603892 0.070177875 0.050890196 0.029841559 -0.0070450637 -0.022289475 -0.008671558 -0.1129513 -0.06997221 0.026153654 -0.020214202 -0.09836766 -0.24031362 -0.31518453 -0.30597422 -0.27254888 -0.12715124 -0.09137686 -0.08747057 -0.04335285 -0.06613654 -0.17838532 -0.0961805 -0.0387757 -0.051936544 -0.07935302 -0.056651898 0.05639995 0.10433995 0.084509894 -0.025905613 -0.1453289 -0.12690713 -0.18549772 -0.17035949 -0.1479472 -0.056024466 0.106956705 0.11582283 -0.048973877 -0.17923489 -0.2167826 -0.15530246 -0.13902663 -0.041868154 -0.06382616 -0.090209246 0.024701446 -0.06991555 -0.1762367 -0.08844572 0.021445649 -0.044319063 -0.0768364 -0.00246479 0.061165027 0.10680393 -0.015774623 -0.08434531 -0.1962134 -0.24052486 -0.21705428 -0.183675 -0.07362347 -0.008010027 0.09603221 0.11190187 -0.050732974 -0.1292633 -0.11567171 -0.089137815 -0.09816709 0.025726497 -0.09192254 -0.02543479 0.034531347 -0.098187566 -0.15393476 -0.07435058 -0.09010784 -0.12115859 -0.054951314 -0.07491872 0.061039437 0.030743187 -0.13760087 -0.20978057 -0.17164811 -0.111390926 -0.04601624 0.0032130566 0.023974534 0.02764832 0.04772716 0.080032766 -0.0021558646 -0.039557833 -0.09546427 -0.020862276 -0.02955017 0.03125402 -0.14342903 -0.06670619 -0.04462518 -0.11404797 -0.1184507 -0.10432082 -0.12395184 -0.04303784 -0.0018255374 -0.05755716 -0.022921758 -0.031242017 -0.055649064 -0.059604734 -0.035992593 0.095297694 0.11324416 0.05133839 0.028090773 0.02327393 0.08323804 0.047066953 -0.007386862 -0.09142411 -0.051876284 -0.05582106 0.07979557 0.09666603 -0.03979214 -0.06696036 0.019668054 -0.06816037 -0.105151065 -0.14945881 -0.11996743 -0.081301816 -0.08868486 -0.012374298 -0.026142154 0.046636567 -0.022224097 0.0077387006 0.04777146 0.115593866 0.18706864 0.10227685 -0.000879914 -0.022784578 0.07152203 0.0027169394 -0.10545043 -0.17738008 -0.015639005 0.0143707255 0.031078672 -0.004834001 -0.069768526 0.0053346497 0.06813814 -0.006893544 -0.04991476 -0.059297495 -0.0316721 -0.040378984 -0.07037372 -0.0038767706 -0.02240895 -0.0069441674 0.006344777 0.079691105 0.09885942 0.10077887 0.08511354 0.03396518 -0.00929881 -0.035583816 -0.0029640612 -0.056010395 -0.113232635 -0.030730905 -0.04009987 0.044434335 0.030032374 -0.068884514 -0.01548667 0.033843454 0.009277191 0.004978779 0.002083078 0.03616454 0.036587555 -0.021857366 -0.07530369 -0.01029941 0.10050272 0.031793002 0.043694656 0.05794852 0.07300884 0.049255405 0.01654847 0.025510198 0.00877258 -0.013919051 -0.063131995 -0.0023294531 -0.06265834 -0.06288185 -0.0007199218 -0.03392779 0.07239672 0.049761582 0.029581131 0.10979502 0.0011295645 0.035813905 -0.01817165 -0.002558192 0.06376637 0.039361123 0.036688183 0.030708741 0.0449417 0.08308434 0.119014755 0.08147271 0.08027851 0.03295053 0.013800271 -0.03458242 -0.0073998882 0.022615522 -0.038686894 0.02631744 -0.036351934 0.14537117 0.16874394 0.13067408 0.18872811 0.115111575 0.062466886 0.10877494 0.030910002 0.028290657 0.030780355 0.023545621 0.037706804 0.041079372 0.017341398 0.03394915 0.022300921 0.06322935 0.042174716 -0.00081656105 -0.058555707 -0.080324866 -0.08021268 -0.07736361 0.070776366 -0.012205654 0.056571852 0.087479495 0.060850006 0.05680286 0.101791255 0.14993751 0.061195187 0.14489661 0.05678232 0.054705072 0.10639728 0.11380272 0.081976816 0.029380243 0.051945627 0.028072372 0.03454634 0.05411499 0.08973609 0.04577097 -0.034569807 -0.080607064 -0.05497165 -0.09679975 -0.006934795 0.018536808 -0.013571428 -0.064417966 0.0938452 0.06843231 0.03720151 0.059140142 0.048168305 0.041903142 0.094724275 0.06229253 -0.009077956 0.050009597 0.11075745 0.055367105 0.074588254 0.13674721 0.11206666 0.0026012238 -0.008178284 0.052832708 0.10608799 0.06772611 -0.03076968 -0.03567066 -0.12521742 0.002284528 0.0153417075 -0.030135646 -0.066701114 -0.06960234 0.05814486 0.06510538 0.033110503 0.0497032 0.0716915 0.12754472 0.08095793 0.06762405 -0.12920395 -0.03103657 0.026992535 -0.036774214 0.028954608 0.019845482 0.073825575 0.0063803513 -0.048666105 -0.02006291 0.040102962 0.036677018 -0.03533795 -0.019571705 0.024155516 0.028887881 0.052315895 -0.04517066 -0.0056223413 0.016386388 0.024007184 0.021599535 0.04953588 0.16858922 0.09550157 0.10991848 0.08329651 0.07299128 -0.06055418 -0.07561575 -0.10109409 -0.023914272 -0.0820704 0.013424921 0.0005324945 0.020965874 0.0035446659 -0.07819019 0.0050660786 -0.0173537 0.04172932 -0.02330521 0.04422617 0.061744157 0.044783868 0.03841955 0.035509396 0.08421365 0.05731668 0.04312607 0.025161358 0.13841021 0.13235407 0.18116687 0.1507865 -0.014338573 -0.052654985 -0.089826204 0.016375257 -0.037214514 -0.012017597 -0.05108715 -0.0016850877 -0.06206258 -0.07919291 -0.070539355 -0.0712279 -0.004853261 0.016111558 0.011488521 0.11948457 0.099266216 0.048323926 0.056050695 0.094028085 -0.010726619 -0.015716594 0.046344545 0.024324039 0.09298739 0.12876235 0.076985106 -0.032483675 -0.06619997 -0.057332337 -0.091359824 -0.05510918 -0.06279738 -0.051137768 -0.0036178415 -0.04563812 -0.0966054 -0.0827611 -0.082952164 -0.0445401 -0.012358342 -0.05451144 -0.14266355 -0.06688381 -0.020884667 0.005480973 -0.021647448 -0.0067579015 -0.083900005 0.037562765 0.11722278 -0.023522401 -0.024102993 -0.007249341 -0.07679193 -0.13126604 -0.093332425 -0.0050971434 -0.021013193 0.010301764 -0.05224542 -0.043033484 0.028398585 -0.028597329 -0.07952253 -0.04449862 0.011982899 -0.050742168 -0.10788294 -0.02688306 -0.04472994 -0.07811661 0.0076215123 0.011747133 -0.024985192 0.09395976 -0.036139127 0.0892232 0.13587593 -0.010541049 0.035340402 0.03912905 0.0393462 -0.01922019 -0.007759702
0.025150904 0.02574906 -0.016248772 -0.024703385 0.015558414 0.0036500953 0.0069976742 -0.027164731 0.00816806 -0.011045135 7.185594e-05 0.0021924227 -0.039371163 0.014564928 0.00042831496 0.0156173 -0.001398161 0.00613646 -0.0031565642 -0.014872122 -0.03086951 -0.024775596 0.014250927 -0.015992409 0.024655718 -0.0352392 0.011531656 0.020072913 0.025338532 -0.011892656 -0.020595212 0.016451841 0.00082519226 0.01457064 0.020816179 -0.014411437 -0.01116824 0.012410178 -0.0012517426 0.026307948 -0.017617041 -0.015625708 0.0022712226 -0.0055862637 0.023566777 -0.04084505 -0.029673917 0.025297506 -0.03375839 0.010050033 0.015651096 0.030012839 0.023843808 0.011137405 0.018766617 -0.020741846 -0.030350806 0.02749201 -0.031042233 -0.008241206 0.0016918397 0.016162567 0.016389297 0.0059665916 0.021190962 0.01317205 -0.012827802 0.026322788 -0.040118184 -0.044024847 -0.033014324 0.0013000976 -0.021891702 0.026337879 -0.0018743739 0.0081276065 -0.012584826 0.016761918 0.0059447195 0.023547161 -0.032953963 -0.020508388 0.017421437 0.0024185395 -0.009223317 0.0010261962 -0.03027092 -0.034349483 0.005052848 -0.002462038 0.029916558 -0.03383365 -0.0362601 0.0117081795 0.02490638 0.02858336 0.0038546405 -0.04578143 -0.013656807 0.011176805 0.00591218 -0.013525383 -0.020306744 0.021721369 0.028762918 -0.02342554 0.005310992 0.019694444 -0.009787155 -0.01606178 -0.027551597 -0.03394615 -0.032743745 -0.008611586 0.03415386 -0.011023599 -0.028080389 -0.021338869 -0.003877734 -0.032367803 -0.001071038 0.00921629 -0.025177874 -0.012449098 0.026884709 0.0042521683 -0.010746659 0.0006330137 -0.016095873 -0.004145076 -0.008984626 -0.012395467 -0.029034968 -0.026023656 -0.03796547 0.012984266 0.012251851 0.008383336 0.024878224 -0.016841238 -0.0146437 -0.025087018 -0.030861089 0.02414354 -0.030152788 -0.00131533 -0.026294611 -0.039971862 0.029198479 -0.004651661 0.021442393 -0.00066603784 -0.017251672 -0.045926176 0.01208738 -0.036302228 0.008398752 -0.0039816233 0.0014646522 0.0046339496 -0.015057452 0.0072723217 -0.030766625 0.0004750061 -0.033964273 0.0019168989 -0.02247478 -0.02502627 0.020169426 0.0039028358 0.012370344 0.0011363414 0.024482148 0.012801916 -0.02856778 0.015555849 0.01316007 0.010678294 0.031321574 0.010744796 -0.023269622 -0.016414115 0.010996691 0.017111141 0.012583316 -0.036183517 -0.042635113 -0.024318477 -0.027882393 -0.038794912 0.019133471 0.0016900968 0.025061136 0.029395988 -0.0010890418 0.0091595715 0.028500069 0.024490703 0.0051279115 0.01963172 -0.016141696 -0.0047132163 0.016936854 -0.018736305 -0.003684401 -0.03713877 -0.036202233 -0.03438468 0.02429527 -0.0360777 -0.006964501 0.007882254 -0.016969047 0.019553324 -0.030197067 0.009332003 0.012114882 -0.03118022 -0.03551521 0.0076810964 0.013626913 -0.0031874396 0.0030651405 0.03529747 0.0031487602 -0.029322157 0.0062978654 -0.015253166 0.020112185 -0.032499433 -0.02277218 -0.038822558 -0.008758295 -0.004259181 -0.03304812 -0.0094851395 0.004212404 -0.028409898 -0.02898478 0.008228115 0.0001434261 -0.024188664 -0.015346821 -0.03472138 0.012254362 -0.029246503 0.009758257 -0.004054782 0.013948976 -0.026876261 -0.022324001 0.013722559 -0.021492887 -0.03491972 -0.025778415 -0.023268552 0.016812649 0.027948445 -0.012819748 0.0008097794 0.0015351013 -0.0019833427 0.02201622 0.0018664965 -0.041130934 -0.0045700897 -0.039018225 -0.011587593 0.01127132 -0.05097748 -0.010785519 -0.010607522 0.0008259941 0.026592292 0.029469568 0.028306156 -0.034854904 0.015063988 0.027846241 0.023074508 0.023979226 -0.0021576756 0.031030204 -0.0076242094 -0.011724903 0.0004954366 -0.034668166 0.0039088423 -0.017877536 -0.02609303 -0.030625686 -0.018096223 -0.023207977 -0.031181011 -0.005445515 -0.0496183 -0.0034275404 -0.016255291 0.0068875807 -0.036977217 -0.0031571533 0.0018150867 -0.0040099625 -0.04065265 -0.03851513 -0.03930151 0.026343625 -0.015292933 -0.015082249 0.0020916378 -0.03324116 -0.028626796 -0.022205034 -0.013380461 -0.018438216 -0.03650953 0.01700116 -0.02325442 0.011983816 0.007975962 -0.019883206 0.022984007 0.0017760088 -0.0016920952 -0.027360756 -0.009857973 0.0063950466 0.009066093 0.014914118 -0.012174034 -0.01836531 0.015333084 0.010122051 0.0060375547 0.01989924 -0.038970754 0.014557255 -0.022753049 0.034281418 -0.029286172 -0.04088754 -0.021504106 -0.004158257 -0.0164881 0.0064914427 -0.021617088 -0.0025031317 -0.025041984 -0.004365808 -0.044272903 0.014513042 -0.021769816 0.010043755 -0.036292538 0.013276393 0.023686416 0.021730663 -0.024897182 -0.0073438846 -0.026065504 -0.029185448 -0.030358886 0.0018314574 0.022487452 -0.029908182 0.00019058587 -0.0009814757 -0.0069907014 -0.0045492016 0.0012603502 -0.025758436 -0.032027513 -0.030732851 0.0036599122 -0.038888514 -0.008490247 -0.027467772 0.005064236 -0.0041994927 -0.001966212 -0.027707139 -0.032134935 -0.024513526 -0.035022754 -0.033180505 -0.0042650234 -0.027801506 -0.034840927 0.012645346 0.007589327 -0.032748304 -0.022175057 0.018508665 -0.0077064084 0.0045718 0.021525117 0.0010997566 0.013736886 0.0188464 -0.02177726 0.025257843 -0.020708606 0.0004958599 0.0048282864 -0.01574888 -0.036769014 -0.04540673 0.0041611725 0.0113533735 -0.0303388 -0.0039085327 0.021411346 -0.001627923 -0.014824226 -0.037096366 -0.0051515466 -0.0306717 0.033476688 -0.029442208 -0.017345544 0.025162868 0.035296604 -0.02491733 0.0023242724 -0.035622027 0.0018730399 -0.028150048 0.009552859 0.008068032 0.011967734 -0.0060422043 0.012423218 -0.0030233902 0.016076189 0.011286411 -0.03878996 -0.027169686 -0.0019277378 -0.015860545 -0.010117318 0.0016111715 -0.00662954 -0.014621422 -0.011111105 -0.015064276 -0.024988266 -0.013058088 0.0169068 0.0046470296 -0.018382499 -0.030949049 -0.025973324 -0.04247259 -0.031514652 -0.02627367 0.006462332 -0.037158303 0.027135568 -0.03247995 0.0072188014 -0.016633604 -0.04023644 0.004746722 0.0021635257 -0.030768298 -0.049037166 -0.037601452 -0.012716893 0.0010162151 0.023339527 -0.0032848993 -0.021566164 0.011900337 0.001013686 -0.01133452 0.020869559 -0.0141276345 0.024186706 -0.020205945 0.0007830082 -0.030201485 -0.030827617 0.023330988 -0.023196906 -0.0044265077 0.0074830353 -0.002563215 -0.0039754515 -0.012239468 -0.02788506 0.0073310216 0.021198276 -0.02680154 -0.013083185 0.0007232661 -0.02083361 0.013467402 -0.021260392 -0.013191223 -0.015876135 -0.031338844 -0.029234687 -0.010760877 0.011067886 0.032917373 -0.004595523 -0.031250186 -0.03825127 0.024662519 0.006362496 -0.0028727995 -0.045609936 0.0065488243 -0.014978341 0.010715704 -0.030587051 0.0034622995 0.0049358183 -0.0024481101 -0.016305206 -0.025929645 -0.020667776 -0.05467409 -0.008063905 -0.028491253 -0.0011534666 -0.029335273 0.016943375 -0.010948015 0.017557716 0.0037909418 -0.022937672 0.012421464 -0.00085028063 -0.01063848 -0.018606594 0.014709087 0.018734371 0.008746822 0.014051389 0.019419853 -0.03943109 0.012286884 0.01054017 -0.01539302 -0.0455191 -0.02389601 -0.020808145 -0.006901095 0.018813591 -0.012063453 -0.042573914 0.012938678 -0.009355593 -0.0049472055 -0.0014082544 0.025184764 -0.0077452236 -0.022426996 -0.0044249166 -0.0057202717 -0.003509004 -0.031368084 0.010695845 -0.034769457 0.0020987068 0.018091483 0.024678726 -0.04486182 0.0018546174 0.018535046 -0.0028884849 -0.01707189 0.013446895 -0.0075629414 -0.037518132 -0.0018830616 -0.0439517 -0.042242534 -0.019073248 -0.028543584 -0.0021175484 -0.02088861 0.013811177 -0.027574046 0.00328879 0.013396243 -0.0017234641 0.0036106175 0.028686015 0.01925219 -0.02425882 -0.018636076 -0.03657141 -0.03134137 -0.029059816 0.0011349554 -0.039763957 0.0047662347 -0.02463029 -0.03423829 0.005740568 -0.0078082466 1.9149575e-05 -0.033499815 0.004043814 0.005853587 0.038128607 0.0049268394 0.025010617 0.012582469 0.027223408 0.021643165 0.016195921 0.007923029 0.030359589 0.03071034 -0.007066796 -0.017635623 -0.0062977364 -0.013910098 -0.005760952 -0.012468066 -0.018716242 0.02374983 0.018355737 -0.01803885 -0.007411858 -0.02679069 -0.041473888 -0.02754075 -0.06502223 -0.04330634 -0.017966738 0.01836025 -0.012092836 0.010786087 -0.0007694134 -0.024870116 -0.008975292 0.021242883 0.029251391 -0.011459083 -0.009229247 0.012902155 -0.0008572376 -0.01343011 0.027481517 0.032937262 -0.010200496 -0.027291508 -0.026218688 0.0026392003 -0.004411408 0.02094674 -0.05263296 -0.056484554 0.006059161 -0.004381896 0.0066420375 -0.010702451 0.0021365369 -0.018603746 0.0051786737 0.015184315 0.030371096 -0.036409162 0.030536382 0.005637682 -0.007555847 0.032317325 0.013993357 0.007692533 -0.02918651 0.03508367 -0.038652856 0.023049854 -0.016673638 0.029796787 0.019025424 0.00740757 0.0119341295 0.0012705235 -0.0017241935 -0.003451208 0.012611463 -0.045336097 0.0047314717 0.0022114539 -0.0012735467 0.016639136 -0.01715392 0.0044595213 -0.029778821 0.014131893 0.019898182 0.019324576 -0.031920116 -0.008536254 0.009055879 0.028745988 -0.011378195 -0.0010721046 0.0016869896 0.019141627 0.0030853949 0.010992146 -0.0120348 -0.028483331 -0.007769898 -0.031856034 0.009333668 0.022204049 -0.0003042881 -0.030385986 0.020848416 -0.023350632 -0.03701735 -0.012972016 0.022579413 0.003020932 0.018987188 -0.00900886 0.030230263 -0.0042033154 0.02273067 -0.02292384 -0.0355034 0.01922403 0.029317252 0.010288698 -0.03509326 -0.023830015 -0.04277344 0.014812995 -0.00094466 -0.021518799 -0.032805536 -0.002065783 0.010349478 0.01779838 0.0014086063 0.010202021 0.019143926 -0.008963913 -0.0024065298 -0.0115132015 -0.007241506 0.01540667 0.00074298045 0.0011202357 -0.0004643669 -0.026536616 -0.026764449 -0.010822029 -0.0135280965 0.0038940227 0.021855202 0.030752089 0.019343821 -0.014684865 -0.0154883405 0.02414442 -0.0031876366 -0.01754207 -0.012666226 -0.010053174 -0.006508015 0.019119266 0.021399535 0.016910048 0.0049695484 0.006559932 -0.03241301 -0.031454872 -0.01989086 -0.0287158 0.018991584 0.027189026 -0.035312794 -0.009845002 -0.0002490197 -0.024680598 -0.019425375
-0.021687606 -0.04191296 -0.07075032 -0.028847245 0.08285407 0.0106693795 -0.018894425 -0.012887353 -0.008529224 -0.06835407 -0.07980028 -0.034846243 0.020202527 0.008749107 -0.057766203 -0.0071984213 -0.025694933 -0.03932049 -0.018310573 -0.048326503 -0.057343617 0.016299823 -0.019821411 -0.00620673 0.04617176 0.04066152 -0.021070665 -0.0007451905 -0.036299992 -0.045422655 -0.0886948 -0.001570508 -0.014033758 -0.018919086 0.017491698 0.03535204 0.044193644 0.02274225 0.026343497 -0.011118045 -0.008011428 -0.018178947 -0.034311876 0.021761632 0.013597734 0.008376317 -0.025164051 0.007894916 0.07632887 0.020195255 0.036680598 -0.037630267 0.00038952674 0.010883454 -0.066243336 -0.051350657 -0.028729944 -0.00044884408 -0.025704099 -0.084578775 -0.11429564 -0.064419426 -0.14434353 -0.050554812 -0.020462135 0.023477448 -0.0077257087 0.006177787 -0.04008125 -0.11622823 -0.08845791 -0.06481638 -0.13741 -0.10085983 -0.022282334 -0.058018368 -0.03991865 0.046454493 0.01872901 0.071813345 0.05310176 0.08410674 0.0056296345 -0.031015906 0.022007419 0.0093586845 -0.027119339 -0.08305846 -0.06617292 -0.090090215 -0.13223381 -0.16838875 -0.040741183 -0.020342298 -0.016283514 -0.12294701 -0.0983916 -0.123862974 -0.07539686 -0.108224906 -0.07219159 -0.14413176 -0.116571136 -0.12965755 -0.027795127 -0.019167699 0.03106732 0.1147966 0.09609141 0.07901769 -0.0047644665 -0.0029326587 -0.057905253 -0.043315705 -0.115389384 -0.15041067 -0.06015721 -0.117826894 -0.13887931 -0.021459334 0.0055540088 0.037465684 -0.06021015 -0.111041784 -0.12789227 -0.078334026 -0.055125464 -0.0541316 -0.028520748 -0.08472662 -0.08926077 -0.08821887 -0.011424916 -0.0638521 0.091689125 0.039264087 0.092672415 0.051475972 0.049561337 0.040290583 -0.12512523 -0.07737997 -0.083603084 -0.07137461 0.0091136 -0.089161 -0.17697144 -0.056477103 0.03910919 0.018770525 -0.04196592 -0.06867149 -0.040238556 -0.06321821 -0.122556195 -0.05639357 -0.011272013 -0.01901727 -0.06735433 -0.029252302 -0.03894111 0.029005595 -0.033689026 -0.01239699 0.07163372 0.04854876 0.014472526 0.07583274 -0.11734082 0.006145588 -0.08569426 0.010082135 -0.0175816 -0.16924128 -0.039996367 -0.06631709 -0.009237895 0.015064086 0.014335029 0.00860985 -0.021549232 -0.026432177 -0.032836545 -0.011730818 0.00977845 0.027334629 0.077384196 0.01890851 0.025836637 0.002121452 0.017461257 -0.00064758514 0.009388158 0.0034553707 -0.009326886 0.016390625 -0.047942605 -0.10271717 -0.07971469 -0.07134943 -0.13654587 -0.13982199 -0.037131377 -0.030833505 -0.03926384 -0.035183124 -0.0032570856 0.08333706 0.066834524 0.0024736563 0.019888341 0.012606891 -0.00799097 -0.013912878 0.049183954 0.07343334 0.012829716 -0.039458897 0.041233934 0.047095727 0.05112595 0.01847552 -0.012931482 -0.032331247 -0.08082671 -0.13482119 -0.065117404 -0.15604383 -0.20253345 -0.17710926 -0.022756184 -0.010924166 -0.05612815 -0.08474714 0.041591953 0.0611004 0.044242553 0.036877733 0.058351945 0.028514968 0.036720403 0.089262575 0.114478596 0.07077789 0.056296233 0.042850073 0.052257486 0.11648414 0.08650165 0.03920589 0.0047762045 -0.07264552 -0.070050925 -0.0288954 -0.071386255 -0.17635559 -0.19862431 -0.15032032 0.04770522 0.021703066 -0.060017403 -0.041456793 0.0044623637 -0.04585301 0.017205324 0.09487504 0.07333897 0.105224594 0.054565758 0.11036665 0.07713243 0.051950485 0.06281786 0.11200071 0.15327641 0.09300569 0.09557654 0.13972491 0.07250474 -0.023196038 0.015167688 -0.046626996 -0.0816814 -0.101203136 -0.061368424 -0.08601213 -0.04961955 0.0938534 -0.060285997 -0.06660745 0.007280888 0.056152225 0.05064614 0.06648055 0.046476938 0.10248516 0.008208971 -0.015504699 0.04616288 -0.031865183 -0.04710347 0.063358225 0.13681242 0.11756769 0.05043201 0.09811828 0.03986492 0.014807324 -0.008474662 -0.042705793 -0.11844397 -0.12201504 -0.09129134 -0.05769062 -0.045835752 -0.018517375 0.0331252 0.021291142 0.065226816 -0.0072267894 -0.0060999254 0.0013522021 0.009485842 0.0015083109 -0.082884565 -0.048922203 -0.025389431 -0.05236348 -0.04013729 0.065545574 0.071694374 0.105947524 0.13716562 -0.005579794 0.12197813 0.061756082 -0.04522728 -0.079041526 -0.089983836 -0.14573273 -0.030280454 -0.009912692 0.049342215 0.01919649 -0.0025523491 -0.013876683 0.014026002 -0.01455959 -0.07207453 -0.05192733 0.044431493 -0.022292458 -0.10129177 -0.13838005 -0.10700142 -0.009232919 0.022477219 0.006498729 0.00272579 0.06810863 0.013613928 -0.01179903 0.03097854 0.06832335 0.016976213 -0.042134024 -0.09427072 -0.063106455 -0.036992695 0.05530789 0.09389802 0.06720896 0.02092499 -0.027033359 -0.007331882 -0.046904664 -0.096991174 -0.068328895 -0.041060485 -0.11484318 -0.16217223 -0.17690876 -0.1749485 -0.115000375 -0.018308718 -0.0030336655 0.027990347 0.010051666 -0.005388867 -0.04289319 0.0830866 0.07461432 -0.05285251 -0.11638421 -0.09383228 0.024072802 -0.007472437 0.039291855 0.1034739 0.11119375 0.009447608 -0.047809772 -0.05040311 -0.09990139 -0.08092641 -0.0026176015 -0.037331033 -0.016780725 -0.08238329 -0.13803756 -0.2502453 -0.17228769 -0.084854156 -0.040406737 0.010761567 -0.040927723 -0.095246 -0.010000594 0.010547972 0.032179814 -0.089642964 -0.055592977 -0.07937987 -0.023763055 0.077193044 0.03644509 0.029384626 0.023790652 -0.040573023 -0.03683939 -0.11233454 -0.13118027 -0.012255154 0.009999242 0.03958599 0.007268335 -0.12473199 -0.17931053 -0.17432562 -0.2189646 -0.1171164 0.010783445 -0.03792671 -0.06250456 -0.062460173 -0.034105983 -0.010658059 0.060801245 -0.14730403 -0.01650645 -0.035154954 -0.0003185345 0.090319954 0.08928043 0.05919899 -0.034276932 -0.12687932 -0.106650405 -0.13805823 -0.09132836 -0.0045897304 -0.010656659 0.009796768 -0.06631151 -0.13505958 -0.21033414 -0.28605098 -0.1493741 -0.10702673 -0.029036272 -0.08562182 -0.036214426 -0.012875251 0.029660862 -0.07831449 0.018045267 -0.008712587 0.10080298 0.07088491 0.049448557 0.07767492 0.034770742 -0.103881374 -0.07363639 -0.119183086 -0.075088546 -0.08868738 -0.075325266 -0.02268687 -0.03210771 0.02841412 -0.05449852 -0.17440325 -0.21172635 -0.19157486 -0.11813939 -0.03675317 0.003008744 -0.060644716 -0.08754553 -0.002237011 -0.053830367 -0.084760144 -0.022030666 0.0003895883 0.06612472 0.14290732 0.008255744 0.071052924 0.030675929 -0.009801108 -0.0752775 0.008517592 0.022679022 -0.002219405 -0.022003813 -0.06560693 -0.003236031 -0.07212883 -0.13253911 -0.20864823 -0.20882086 -0.14835607 -0.13709177 -0.042104118 -0.089068875 -0.04419394 -0.051699366 0.022567684 -0.044485886 -0.0040058657 -0.01931018 0.056456696 0.06536235 0.11455853 0.05581054 0.03230038 0.058913816 0.048993666 0.074904494 0.082217865 0.10834271 0.0920489 0.03125479 0.0036022894 -0.023530671 -0.13060379 -0.23690388 -0.25620398 -0.15322915 -0.110599704 -0.033566706 -0.043762993 0.04542878 -0.016886141 -0.0152273225 -0.098611005 -0.038862836 -0.01769201 -0.045773413 0.1439802 0.10723962 0.07804156 0.022829045 -0.002144338 0.093249105 0.07476586 0.02104108 0.15601648 0.12794244 0.16567153 0.18483126 0.04445176 -0.0016988533 -0.08232549 -0.1491717 -0.12011271 -0.06963175 -0.045548525 0.049991235 0.041548666 -0.009170496 -0.07723676 -0.08730738 -0.15353853 -0.050951153 -0.008945201 -0.023319475 0.2105356 0.11966018 0.10927507 0.07648482 0.02284394 -0.012243454 -0.0412964 0.05016407 0.123948306 0.15664586 0.16695727 0.19454548 0.06805711 0.104303986 0.10126981 0.097705886 -0.004127163 -0.017778508 0.052103523 0.10705053 0.04610334 -0.021307796 -0.09717135 -0.1510658 -0.16635825 -0.049681783 -0.047174294 0.020200394 0.08074079 0.06603852 0.15831676 0.13356225 0.07307627 -0.008699478 -0.011247856 0.0159427 0.054049242 0.081763305 0.15623024 0.14365068 0.13929103 0.1379824 0.09698606 0.10501236 0.08559799 0.043347564 0.10346104 0.16082008 0.03655084 -0.01914318 -0.043474533 -0.16220108 -0.07700112 -0.01574629 -0.06975162 0.020278689 0.088053964 0.11899244 0.15318096 0.10718101 0.037282515 -0.00028290926 -0.0970049 -0.0061107464 0.005042128 0.022725558 0.08585767 0.019111434 0.097541876 0.029726617 0.064487375 0.15448707 0.15419663 0.18260255 0.13772358 0.16124538 0.11901247 0.040871948 0.028720377 -0.10455643 -0.08995361 0.025602065 0.007422409 0.015868228 0.008989788 0.026782509 0.012658767 0.138291 0.119554736 -0.006913586 -0.06985395 -0.013727634 0.0319907 -0.0040715765 -0.0073908707 0.02199824 0.053658254 0.031933535 0.059211113 0.12663323 0.16452034 0.19979994 0.1303128 0.06441022 0.08981357 0.11195971 0.06904354 0.016598945 0.0035823858 -0.009764677 0.007241474 -0.07355201 0.07373456 0.0146199325 -0.05451537 -0.0033908102 -0.023964072 -0.07738469 -0.09794466 -0.11427238 -0.0079177795 0.026656106 0.072917536 0.0677505 0.027052652 -0.014569337 0.014674467 0.018865447 0.0498282 0.11299769 0.17244531 0.08704651 0.062473856 0.14535049 0.055267293 0.054501146 -0.020248612 0.01777561 -0.044898238 -0.07225251 0.069393955 0.014656821 -0.03896985 -0.04054552 -0.064161174 -0.09281896 -0.17739074 -0.07946777 -0.048366897 -0.03679417 0.008602048 -0.025167597 -0.061922986 -0.10191854 -0.057656106 0.010131884 0.007662086 -0.0015477886 -0.018160371 0.007810752 0.08225239 0.04795628 0.05082444 0.019756613 0.009823043 0.006650224 -0.0023830559 -0.06588659 -0.08437662 -0.0070483005 0.011115888 -0.01692116 -0.0541604 -0.048397634 -0.10805417 -0.08802565 0.002684665 -0.112786815 0.014305426 0.0028233596 -0.03478995 -0.07784143 -0.08629753 0.020663366 -0.012470142 -0.004631621 -0.026991976 -0.08690775 -0.02530024 -0.012324504 -0.05587323 -0.07733794 0.029241418 0.051280227 0.030471515 0.0024810284
0.018946555 0.025003567 -0.021673571 -0.05607492 0.0055861925 -0.037391655 -0.025668014 -0.01689608 0.024630839 0.09532548 0.036301877 -0.05155988 -0.08360505 -0.056463428 0.05170426 0.049879603 0.027616302 0.04610276 -0.020202322 -0.06846735 -0.052189447 -0.07466859 -0.014593948 -0.0461144 -0.022015378 -0.008844981 -0.066158086 0.010354562 -0.041980304 -0.022470761 -0.05102809 0.026537184 -0.005953826 0.068057574 -0.018206447 -0.05083419 -0.017765637 -0.009525441 -0.121097654 -0.06539913 -0.06155245 0.024213694 0.00808056 -0.040372938 -0.05499991 -0.021069815 -0.035895478 -0.08968104 -0.08548585 -0.12246383 -0.07107828 -0.0075258175 0.0128639955 0.0343365 -0.0037443975 0.06935453 -0.016235236 -0.08256225 -0.013984707 -0.05193579 0.053337544 0.052167706 0.021507444 -0.041999914 0.016386451 -0.02977279 -0.03064777 -0.024074094 -0.046120476 -0.09663 -0.076560564 -0.06698778 -0.094381474 -0.05153836 -0.08911199 -0.07703677 -0.12879762 -0.08126951 -0.026886476 -0.024637675 -0.041486636 -0.06608952 -0.0038928515 -0.0026843075 -0.022264168 -0.029425371 -0.028401203 -0.06498624 -0.038602963 -0.0053586145 -0.04233076 -0.009028608 -0.10784171 -0.040232178 -0.07706965 -0.041461702 -0.0708324 -0.0348353 -0.09219296 -0.07451739 -0.097517975 -0.107929334 -0.04808365 -0.0655121 -0.07173731 -0.09384006 -0.055023674 -0.05110123 -0.07559764 -0.023397053 -8.33368e-05 0.03199809 -0.069059186 -0.13697475 -0.075810544 -0.025290223 -0.013834477 -0.07380342 -0.05963567 -0.092380874 -0.020374842 0.010182271 -0.080440775 -0.051122002 0.004644787 -0.08087004 -0.12567443 -0.08561324 -0.08794478 -0.09882557 -0.14301544 -0.1415332 -0.120637976 -0.08973045 -0.06697424 -0.049932625 -0.039210077 -0.025736336 -0.013022182 -0.08820902 -0.028361613 -0.08694389 -0.007686004 0.0038152614 0.0032252604 -0.0061690994 0.020492157 -0.015946362 0.027701005 -0.04963219 -0.042737562 -0.108623534 -0.05372414 -0.039233956 -0.039429482 -0.16459037 -0.18052612 -0.13280894 -0.1488035 -0.09899313 -0.123756096 -0.04435335 -0.108697794 -0.12620197 -0.04401299 -0.015037907 0.06713502 0.07837828 0.010287428 -0.046350468 0.00279168 0.037081882 0.0005898078 -0.0039133835 -0.014281042 -0.0667758 -0.070204265 -0.10890448 -0.06314394 -0.029055571 -0.016179876 -0.0060993126 0.016651 -0.043659423 -0.12418085 -0.14380847 -0.13131692 -0.14158423 -0.04938918 -0.06728693 -0.12163425 -0.011324148 -0.006787541 0.054863654 0.0947558 0.08524346 -0.06857735 -0.046926726 -0.0029133507 0.0398633 -0.011440799 0.008834644 -0.05797501 -0.10235014 -0.04580765 -0.0644509 -0.14333417 -0.08801596 0.047938358 0.057785448 0.039050028 -0.06665882 -0.05043938 -0.08201427 -0.07117836 -0.08965407 0.0061689345 -0.083404705 -0.07568072 0.017116722 -0.028710147 0.037692793 -0.027458103 0.0045593847 0.0032538576 -0.0024893067 0.042907644 0.024795927 -0.03417537 -0.100049034 -0.10525034 -0.0047253286 -0.03705403 -0.08178516 -0.0782441 -0.08968331 -0.013573821 0.061652154 0.03192322 -0.042470466 -0.02948534 -0.04436065 -0.1087489 -0.11211613 -0.11385051 -0.011747386 -0.031874638 -0.025721937 -0.004871305 -0.06477473 -0.094911516 -0.017268691 0.005942397 -0.07526128 -0.010009565 -0.0010508532 -0.08211296 -0.07761607 -0.06603012 -0.03184154 -0.032036908 -0.07797019 -0.030247262 -0.030026367 -0.010789989 0.008984088 0.04710698 0.057074387 0.023391264 0.00021822614 0.008362623 -0.023038618 -0.0722071 -0.08966168 -0.06720679 -0.0023354804 -0.07815842 -0.08625433 -0.12309468 -0.037422135 -0.030022416 0.024474248 0.032394823 -0.064760104 0.0041816738 -0.036873586 -0.011483384 -0.044597264 0.013585131 0.013547049 -0.041301925 -0.030723076 -0.05227276 -0.028118815 -0.028859576 -0.07064736 -0.010130005 0.007380637 -0.017121447 -0.03081126 -0.13869481 -0.16453993 -0.1041788 -0.055047043 -0.107275635 -0.075507745 -0.10612385 -0.10945043 -0.06511747 -0.0024885659 -0.05292381 -0.07419915 -0.08923148 -0.103118815 -0.0958074 0.0057482077 0.04108132 0.018873725 0.003221065 -0.0073852893 -0.020191042 -0.04877074 -0.06813743 -0.10763468 -0.053639565 -0.07336342 -0.06484979 -0.03533189 -0.11790781 -0.12596424 -0.10494709 -0.06390991 -0.11118012 -0.102754846 -0.06161355 -0.048427086 -0.100754194 0.0039909002 -0.056075584 -0.10208218 0.019331353 -0.06161704 -0.097553454 0.008519399 0.04445309 -0.029226838 0.0073070205 0.015271747 -0.027922275 -0.056334805 -0.051903125 -0.10999217 -0.069859155 -0.097560115 -0.07894146 -0.07952432 -0.056815155 -0.10487739 -0.061252423 -0.06314758 -0.12867814 -0.054521058 0.093102895 0.0007869138 -0.12229749 -0.100973286 -0.07917329 -0.076309584 -0.098541975 -0.07232331 -0.1432082 -0.011009396 -0.0020484228 0.036768604 -0.007670244 -0.0074681635 -0.078174464 -0.07516528 -0.022730269 -0.054999966 -0.026235951 -0.048257347 -0.063271336 -0.05166141 -0.13667479 -0.052808292 -0.10043827 -0.12015492 -0.028882721 0.03202127 0.066462465 -0.03401334 -0.059154585 -0.11562455 -0.06793701 -0.013337786 -0.14253727 -0.14122531 -0.11768783 -0.070025295 -0.0025780872 0.018373685 0.029216602 0.0125016915 -0.016195877 0.0063506532 0.0071245525 0.0039581927 -0.06700608 -0.058868006 -0.07731049 -0.05016025 -0.19364059 -0.13163589 -0.06392599 -0.02625391 0.06445932 0.071170986 -0.07157673 0.033940963 -0.11639215 -0.07480783 -0.058621116 -0.019075572 -0.053940326 -0.09948272 -0.20552935 -0.027042553 0.053601775 -0.0004832804 0.03443858 0.009909817 0.06717059 0.09358042 0.063587256 -0.025425637 -0.04100485 -0.07121869 -0.10794146 -0.05202683 -0.09920665 -0.10453141 -0.071441785 -0.00015624361 0.021162394 -0.017406655 -0.06366269 0.022307606 -0.052743394 -0.038087472 -0.022088192 0.025275435 -0.05738567 -0.053206284 -0.082237415 -0.019806186 0.10556037 0.11584956 0.088176295 0.07531675 0.071343295 0.07561238 0.015200921 0.014178458 -0.008267862 -0.097927704 -0.08013955 -0.086837895 -0.006581249 -0.0076332805 -0.0880562 -0.080441885 -0.0014291479 -0.057507776 -0.0665441 -0.027471958 -0.024428131 -0.058585677 0.02057251 0.0028714994 -0.024434768 0.0034307132 -0.08174033 0.030718727 0.14127673 0.078772195 0.10354449 0.028830873 0.008722694 0.07654288 0.054055348 0.01870507 -0.0088327 -0.043915994 -0.079430364 -0.054102667 -0.0104389405 -0.024211815 -0.019929068 -0.10970893 -0.10933762 -0.1351918 0.024431523 -0.07093956 -0.050484683 -0.06239956 -0.0858451 -0.02355331 -0.013547433 -0.066396244 -0.030408155 0.0035733476 0.120428555 0.16905297 0.08959897 -0.008199266 -0.00785632 0.08612727 0.05614729 0.038811736 0.011420095 -0.032799974 0.021404952 0.014708928 -0.04595589 -0.01255057 -0.014145204 -0.06428946 -0.062989004 -0.12307803 0.04602898 -0.011046423 -0.07083455 -0.1660457 -0.086544126 -0.06752832 -0.0014951603 -0.055501506 -0.08475859 -0.03824225 0.036334667 0.09296719 0.06007658 -0.02085539 0.044656612 0.09607339 0.0679645 0.015901648 0.0026186623 -0.032549094 -0.047478892 0.0026388096 0.037654635 -0.031294007 0.008037759 -0.0013751681 -0.038490444 -0.08668802 0.010413255 0.0016407004 -0.14179824 -0.0896019 -0.07293418 -0.037435573 -0.076013036 -0.12657748 -0.095725596 -0.007272295 0.0026925846 0.03077668 0.058864288 0.0008174256 0.0491812 0.06659755 0.041051876 0.036533646 -0.049506195 -0.10598519 -0.07344527 0.019467028 -0.020734087 -0.057451975 -0.025000628 -0.059306204 -0.12037074 -0.10490413 -0.016273681 -0.0047921557 -0.12309186 -0.065578416 -0.033323098 -0.057570606 -0.1274002 -0.07092273 -0.1251209 -0.0823573 -0.06772536 -0.039142728 0.04409956 0.017789798 0.07331653 -0.011217188 -0.07808286 -0.06173679 -0.06773898 -0.08586473 -0.059785914 0.01115819 -0.023660375 -0.102285855 -0.10293888 -0.075662464 -0.07346358 -0.06489454 0.0008217862 -0.019040063 -0.06831712 -0.040687237 -0.10313508 -0.110324584 -0.12476479 -0.095139205 -0.033651277 -0.110072054 -0.05065515 -0.03270946 -0.016201243 -0.00455991 0.04710826 0.008855003 -0.08881963 -0.10711636 -0.09052547 -0.068430066 -0.07639314 -0.034541085 0.009878302 -0.09611066 -0.101151824 -0.068257846 -0.063955 -0.06384378 0.008834345 -0.0392766 -0.08240711 -0.027738055 -0.10451405 -0.09597252 -0.083460316 -0.032367133 -0.0973287 -0.10817355 -0.06570295 0.031183107 0.06995846 0.04354811 0.08394188 0.07501611 -0.069393486 -0.037571717 -0.08889144 -0.10710931 -0.0633627 -0.032887828 0.0031066483 -0.040013466 0.0252857 0.018538449 -0.04606718 -0.042067334 -0.055238314 -0.088674106 -0.05830116 -0.026463378 -0.07701768 -0.09224176 -0.05345058 -0.052008003 -0.07719925 -0.08593958 -0.055305682 0.033761673 0.02670858 0.046649754 0.1779217 0.05544648 -0.08531743 -0.06621927 -0.0995188 -0.104653776 -0.082591966 -0.059323695 0.030922316 -0.06819739 0.028591223 -0.0005563257 -0.0720533 -0.032134105 -0.096409954 -0.00030457458 0.023324873 0.010316781 0.009945528 -0.04903834 -0.07891226 -0.101099595 -0.025024572 -0.044835795 0.049548592 0.023119723 0.007612494 0.06299068 0.111553445 0.06035277 -0.04920575 -0.016292565 -0.09681911 -0.11112206 -0.004881467 0.03546651 0.076241165 0.046137113 -0.04524546 -0.00698808 -0.040157016 -0.028699124 -0.020462872 -0.027499497 -0.011224571 -0.048604075 0.02079763 0.022702912 -0.015496332 -0.06921541 0.0008332093 0.050116915 0.0678369 0.10847239 -0.018051287 0.012442208 0.04504055 0.027592788 -0.101648256 -0.007954257 -0.11587132 -0.14100233 -0.050102443 0.06265252 0.070571475 0.07833513 -0.029494341 -0.06340515 0.010081784 -0.061744742 0.020714287 0.006639002 0.026756741 0.024303554 -0.037055578 -0.058190655 -0.06274538 -0.017796863 0.03257043 0.07912811 0.086492196 0.066680156 -0.03599168 -0.08370338 -0.020099755 0.060974803 -0.0028653976 -0.00045964622 -0.017527588 -0.036061544 -0.009389798 0.13458598 0.09134939 0.048376586 -0.038165487 -0.13061251 -0.12905253 -0.07555755 -0.021060845 -0.0051304717
-0.03517087 0.030611191 0.0086758025 0.009455501 0.022617912 0.019444704 0.045859605 -0.015340929 0.04303368 0.1432079 0.043028463 0.030559758 0.062141348 0.055226617 0.048398897 0.048941948 -0.008928649 0.05102223 0.057730976 0.020552952 -0.09181382 -0.04080896 -0.09144503 -0.10301318 -0.06832644 -0.052563973 -0.027323078 -0.06452779 -0.013067497 0.02025654 -0.013039886 -0.033661116 -0.014221163 -0.018197902 -0.0056448937 0.09988926 0.032993212 0.15023613 0.078031465 0.05063846 -0.03692536 -0.028710255 0.037203357 0.083965085 0.0035126251 0.10006951 -0.00500682 -0.018903803 -0.13962467 -0.20214774 -0.09915724 -0.113923036 -0.06797615 -0.05440314 -0.067951486 -0.07479479 -0.010175588 -0.07636111 -0.036578152 -0.082836896 -0.031947553 -0.056659102 0.046848718 0.07786248 0.09240764 0.11704501 0.07722402 0.034698755 -0.019200377 -0.06840071 -0.06983931 -0.054404568 0.025019025 0.06314005 0.014185636 -0.10258753 -0.25755697 -0.21463236 -0.16046956 -0.14154582 -0.12252679 -0.05028345 -0.030670168 0.0036905012 -0.0465545 -0.017443607 -0.04664423 -0.012386636 0.005861663 -0.012405291 0.009308303 0.05183303 0.09663801 0.053644907 0.1175491 0.007969165 -0.026923979 -0.029303692 -0.05750719 -0.049667876 0.010631452 0.09277112 0.006776725 -0.14104927 -0.22983131 -0.28953964 -0.16361302 -0.14348279 -0.11063648 -0.0671384 -0.08986186 -0.09428036 -0.02976374 -0.058180004 -0.057543453 -0.04412216 0.04302189 0.0050565125 -0.023086146 -0.04365484 0.009107307 -0.018999765 0.061257582 -0.013629367 -0.0069861813 -0.08492975 -0.10243036 0.0122898845 0.07817367 0.049021654 0.005231876 -0.08407039 -0.14390987 -0.2063013 -0.18350108 -0.10289403 -0.08838104 -0.032976042 -0.074697874 -0.047373388 -0.07543464 -0.05961805 -0.052385923 -0.031101022 0.010368528 -0.008426853 -0.05385676 -0.037456337 -0.06504771 0.034158245 0.020908473 -0.03514294 -0.06432304 -0.077781454 -0.054082524 0.056931183 0.15965228 0.0831285 0.082094245 -0.042474955 -0.110479586 -0.28933585 -0.19039889 -0.16947396 -0.13087767 -0.10457084 -0.057865098 -0.05601207 -0.068697296 -0.09486755 -0.09622587 -0.035063487 -0.05348096 -0.007016093 -0.09680722 -0.113133 -0.038679898 0.0026678795 -0.02391951 -0.03820715 -0.12090046 -0.13207194 -0.08753015 0.036805898 0.13054149 0.109997466 0.06798969 -0.02585522 -0.07752458 -0.22196187 -0.26974943 -0.26471013 -0.14137349 -0.049344007 -0.027606335 -0.07995496 -0.024089199 -0.061724503 0.04244769 -0.02872741 -0.061938927 0.0066959574 -0.018070752 -0.02134308 -0.046655413 -0.018259054 -0.05689389 -0.11002513 -0.03424111 -0.11179889 -0.07915822 0.028107041 0.09892319 0.085564874 0.10395669 -0.0046367943 -0.13081925 -0.12109021 -0.25226393 -0.21937202 -0.1236305 -0.007444181 -0.023938539 -0.088688016 -0.032148983 0.0016771678 -0.012903585 0.023057476 -0.028931644 -0.017919444 3.3674114e-05 -0.05853117 -0.067952 -0.09696409 -0.08954808 -0.003273846 -0.011003125 -0.052056123 -0.11592127 -0.1041468 0.047785204 0.09262763 0.09635 -0.027358757 -0.10157875 -0.121139586 -0.2505439 -0.16606717 -0.09408659 0.03297904 0.13103281 0.0124223335 -0.010132903 -0.03730296 -0.051629875 0.048425965 -0.041544635 -0.090883285 -0.0046403483 -0.057454366 -0.0797211 -0.033608574 0.02729796 0.018009596 -0.027762681 -0.098514006 -0.17253704 -0.19821869 0.051157303 0.090202555 0.027245212 -0.086809665 -0.16385074 -0.08871398 -0.1501141 -0.07466483 -0.07306903 0.01167423 0.09244385 0.059470966 -0.048581254 -0.07482721 -0.031098753 0.021204803 -0.0725146 -0.121408604 -0.036855325 -0.13333112 -0.16574931 -0.09369557 0.009071273 0.038489707 0.014163429 -0.17303684 -0.21165664 -0.20332217 -0.00950847 0.05631903 -0.0003220982 -0.090663016 -0.118660904 -0.1127041 -0.16280222 -0.071101576 -0.075233795 0.02070139 0.090063244 -0.025196612 -0.08522153 -0.055704627 -0.0381385 -0.083928265 -0.11418097 -0.13163117 -0.12676814 -0.1401784 -0.12119863 -0.049917266 0.038760748 0.06809793 -0.06049576 -0.14674598 -0.21056245 -0.15416943 -0.016331486 -0.004268161 -0.0015019553 -0.019830637 -0.049786597 -0.083036736 -0.15238728 -0.0903753 -0.10892394 -0.034148246 -0.021912204 -0.012870464 -0.08577791 0.03452809 -0.046689592 -0.15305765 -0.13536209 -0.17854582 -0.11751292 -0.07990857 -0.016761798 0.06060604 0.080302425 0.05039693 -0.10425457 -0.22239129 -0.17832336 -0.095050514 0.042120554 0.02863781 -0.006959916 -0.06580715 -0.07441945 -0.019537063 -0.13559014 -0.11620461 -0.13674778 -0.037934564 -0.008152 0.03769144 0.035430588 0.044668663 0.018402629 -0.074597314 -0.16522266 -0.1659515 -0.009487696 0.012866985 -0.03907708 0.06563001 0.090532176 0.013028624 -0.15172371 -0.26684633 -0.17584743 -0.034185722 0.06336672 0.060002692 -0.042849116 -0.13225682 -0.09562207 -0.06786647 -0.19182989 -0.19518152 -0.054556195 -0.032294214 -0.021575041 -0.009797251 0.10729104 0.09005235 -0.017717969 -0.033446882 -0.08163939 -0.10900808 -0.006642655 0.0071268897 0.019320773 0.03752071 0.044911068 -0.05001034 -0.18424086 -0.20706916 -0.12749016 -0.0019094592 -0.005559271 -0.049042348 -0.13126953 -0.12719417 -0.12428963 -0.12373603 -0.16204347 -0.049570985 -0.003252101 -0.06424096 -0.055955898 -0.02968731 0.18430968 0.073505975 0.015732557 0.023969393 -0.048930716 0.021362917 0.12156998 0.092858426 0.05771266 0.028628618 -0.03395065 -0.16512409 -0.18452239 -0.096810676 -0.011302833 -0.027020335 -0.04756019 -0.14024544 -0.11187843 -0.14536667 -0.040179472 -0.042770658 0.0017289366 0.035759 0.049194366 -0.06739241 -0.08310457 0.03375503 0.07411113 0.14819689 0.06709503 -0.013611315 0.072927654 0.053765826 0.18861014 0.10082792 0.03527944 0.007189206 -0.08315651 -0.107202254 -0.041166127 -0.051197235 -0.034358453 -0.004382524 -0.14988038 -0.079524405 -0.051667668 -0.026062831 0.009109245 0.084446155 0.052783288 0.013089587 0.0045077237 -0.047093105 -0.08531914 -0.016878866 0.16079137 0.1501445 0.13071775 -0.00741507 0.021505542 0.10020107 0.15956353 0.08650672 0.071788035 0.012776477 0.028831748 0.10712686 0.105210155 0.07092026 0.026975872 0.010364276 0.009642092 -0.033744138 0.026229236 0.09122955 0.11490553 -0.0064040734 0.07645243 -0.035970487 -0.038206495 0.054527577 0.02827719 0.0018691334 0.011251204 0.11442794 0.11493247 0.030640706 -0.00888297 0.028292432 0.036723793 0.043697506 0.056568135 0.09167443 0.1161275 0.14485548 0.15593225 0.09322528 0.08514522 0.051725715 0.02996748 0.034757704 0.037451852 0.14568314 0.0760305 0.100479156 0.105538875 -0.031097746 -0.068680495 0.009802519 0.06809351 0.04597532 0.06462474 0.0078100464 0.0006724916 0.035696972 -0.0113497125 -0.05350339 -0.04318976 0.0072799996 0.07733595 0.0678245 0.11275256 0.1392164 0.09319255 0.029985335 0.025904138 0.034862988 0.063549235 0.059136804 0.09699163 0.03496812 0.14008337 0.12963031 0.029811228 -0.03383707 -0.04153542 -0.060475767 -0.010393536 0.06140563 0.032637224 -0.043283205 -0.010735309 0.044693947 0.0709476 -0.00018802898 -0.060475893 0.049352955 0.07483764 0.03887534 0.02515973 0.036874123 0.02931302 0.0036228355 -0.0956928 -0.05388402 0.032464862 0.04208524 0.021197908 0.015002176 0.06336843 -0.03548352 -0.091514714 -0.08434929 -0.06634622 -0.014061738 0.08587793 0.03435538 0.096974485 -0.07451054 0.028886158 0.10139458 0.048961665 -0.05483939 -0.011356734 -0.03125523 -0.097672015 -0.11004376 -0.044771314 -0.026083471 -0.017171336 -0.08698428 -0.13927947 -0.09603295 -0.09951273 0.0037173762 0.10688731 0.01966723 0.052239712 -0.046377756 -0.12544455 -0.020644793 -0.023409361 -0.046122607 -0.039599404 0.022535902 0.05140538 0.010429452 -0.02671315 0.0778029 0.05936245 -0.029208623 -0.08975048 -0.103256166 -0.08621246 -0.16025443 -0.07159883 -0.031759247 0.016342444 -0.047531933 -0.09319915 -0.06348383 -0.08804845 0.017839681 0.056473743 0.07799335 0.09747949 -0.019848347 -0.025044546 -0.015671445 -0.028662069 -0.08083475 -0.1247597 0.01728119 0.09380257 -0.060884953 -0.060987916 0.008274681 0.040350147 -0.033644415 -0.09604945 -0.062210802 -0.05483967 -0.043053497 0.00357329 -0.046873264 -0.015583663 -0.068437286 -0.062520444 -0.09455401 -0.09483603 -0.07957234 0.030911332 0.11846429 0.01663172 -0.059525706 -0.09240281 -0.10009296 -0.055492695 -0.10038785 -0.12281696 -0.027790347 0.014850898 -0.03130914 0.013309758 -0.006254907 0.047859076 -0.08624329 -0.1419787 -0.07801339 -0.093454376 -0.010613415 -0.027171336 0.00044680436 -0.032903485 -0.061708093 -0.07935725 -0.1351718 -0.15163492 -0.07325475 0.043276962 0.030925345 0.023746569 -0.06362501 -0.08897242 -0.08861717 0.0051566074 0.0048852214 -0.07046309 -0.118156165 -0.016533004 -0.04644203 0.0038555167 -0.053436846 0.0005070677 -0.07734982 -0.07417474 -0.10779143 0.019367956 0.036113232 0.054951783 0.01733084 0.024248637 -0.011209395 -0.06510886 -0.089266896 -0.08053713 -0.047304485 0.0013361373 -0.009001743 -0.01707819 -0.059421845 0.02141582 0.053005587 0.014777366 0.01666446 -0.018653153 -0.042049635 -0.013123495 -0.010889462 0.0065372013 0.049637772 -0.050818916 -0.0145662585 -0.07547237 -0.03619853 -0.00038977337 0.019471698 -0.056999393 0.03721667 0.0854121 0.012469934 -0.10213962 -0.03680454 -0.009722783 0.018599926 0.04161063 -0.061889708 -0.010833837 -0.041911747 0.034177028 0.08432014 0.008359574 0.01025883 -0.043345343 -0.02581945 -0.07687112 0.047681987 0.06395702 0.061897688 -0.02386349 -0.048370115 -0.0116122635 0.012770282 0.003623234 0.03685333 -0.07778285 -0.06829365 -0.015907278 0.028147325 0.0158096 -0.0842031 -0.027851213 -0.018088538 -0.0706025 -0.03402748 -0.009524945 0.01281001 -0.0073146825 0.035731878 0.03359767 -0.053098418 -0.041079987 -0.042461686
0.018093029 0.0074517047 -0.013844367 0.003397631 0.027496284 -0.016198052 -0.028137702 0.0013725716 -0.033577975 0.011030738 0.034565188 -0.026654573 -0.031613328 -0.014388226 0.0050171325 -0.030354358 -0.033911712 -0.014128068 -0.02725161 0.015730016 -0.007999344 0.027832897 0.015950557 0.027528236 0.022109995 0.015780717 -0.013699286 -0.034154873 0.021510359 0.003686841 0.017629987 -0.014078231 -0.032084666 -0.008507669 -0.017156929 0.005182705 0.027065104 0.014603803 -0.0054974984 0.012558099 0.023056513 -0.008257 0.011364661 -0.004176692 0.0038689873 -0.007908049 -0.038071264 -0.03251695 -0.012626679 -0.011904415 -0.009529161 0.02070252 0.03242391 -0.031180635 -0.030675426 0.020599341 0.030095417 0.015793333 0.017743759 -0.022760294 -0.033443928 0.011949216 -0.013294489 -0.03308981 0.002524359 -0.03282528 -0.017044742 0.013795666 -0.00581621 -0.024163704 -0.030215217 0.028049339 0.015345116 0.021571923 -0.022402568 -0.004397756 -0.014340021 0.019656984 0.0024771066 -0.029494321 -0.0073886644 -0.007854342 -0.024119254 -0.030636154 0.0071644997 -0.030390212 0.019056022 -0.024589319 -0.0033782467 -0.02700791 0.025395317 -0.005403685 -0.0066455817 0.0026001888 -0.035533056 0.027405033 -0.031012587 -0.026784044 0.024651945 -0.023350617 -0.026849112 -0.016525684 0.034111425 -0.034334835 0.0019860128 -0.02039723 0.0044954834 0.007786274 0.01875427 -0.026079156 -0.005009681 0.022759039 -0.017056385 -0.03264006 -0.025401326 -0.009549478 -0.010359292 -0.030627128 -0.016609482 0.035068978 -0.019989837 -0.035113752 0.0020602643 -0.019508228 0.0051176725 -0.01151715 -0.025206355 -0.008804208 0.0074390736 -0.021378485 -0.0048757265 -0.022890488 0.014264431 -0.0029626389 0.03492173 0.020255549 -0.030225093 0.031407155 -0.013777682 0.018644717 -0.02486992 -0.017505953 -0.015343458 0.018817507 -0.022063997 -0.022911252 0.035649054 0.00924582 -0.029864045 -0.0088356 0.00132069 -0.034656707 -0.023313712 -0.04673552 -0.0066653723 0.014353191 -0.03354597 -0.03102545 -0.03927124 -0.020774493 0.004717301 -0.017944481 0.038872942 0.024869066 -0.013367024 -0.015583137 -0.0130717335 -0.0068466878 0.009712977 -0.019218616 0.02768208 0.021318058 0.031482078 0.006547596 0.023933018 -0.034272287 -0.0015860759 -0.011196251 0.036482383 -0.037089095 0.010765697 0.014227598 -0.038481 -0.018967012 -0.020643493 -0.014411818 -0.023067024 -0.011585508 -0.0129624475 -0.03354822 -0.062275946 -0.03425426 0.02986926 0.029991338 0.019687107 0.0020756298 0.015245749 -0.0028048458 0.020141168 0.0015729283 0.023547543 -0.0013869292 -0.023974726 0.031797167 0.012931205 0.02156708 0.0073309927 0.0020706307 -0.0058116573 0.0061425464 -0.04056805 -0.04029743 0.006247824 0.021806449 -0.015006667 -0.041243352 -0.042041022 -0.02621637 -0.015487229 -0.006794331 0.0015301005 0.03165188 0.0118515575 -0.0072966875 -0.031631615 0.02827679 0.025042934 0.031003581 -0.025306717 -0.022583121 -0.023687555 0.016656082 -0.028471032 0.00385061 0.00972941 0.014445458 -0.005556656 -0.046058577 0.019844305 -0.0408826 0.0040420615 -0.0016302279 -0.029758345 -0.039224356 0.008508515 -0.03724063 0.015935574 -0.0028714216 -0.012259471 0.016726345 -0.0061826925 -0.02954656 -0.0275928 0.0086955605 0.015155102 0.028800137 0.024734778 -0.010845346 -0.031155542 0.015225741 0.01264491 -0.042962812 -0.03241402 0.019202175 -0.030067675 -0.041415025 -0.012918431 0.021545542 -0.023634361 -1.3830892e-05 0.011597749 0.02211745 -0.00050663715 -0.00023658965 -0.019487904 -0.03629247 0.016764266 -0.022947786 -0.018410116 0.020940954 -0.0111396145 -0.026400061 0.014552275 0.025280923 0.010664127 0.009262648 -0.01752489 -0.030914834 -0.009242895 0.0024017685 0.015495508 -0.009771189 -0.0050476706 -0.029247187 0.019932173 0.018234061 -0.030302137 -0.03536233 0.011796734 -0.038927697 0.0052627013 -0.0032097676 -0.030635238 -0.011112414 -0.007368855 0.011608294 -0.005714762 0.014197762 0.033425238 -0.008060882 -0.022976555 -0.037857313 0.025583377 0.00028217325 -0.039113704 -0.023519432 -0.035362687 -0.0044767438 -0.029328652 -0.00015552144 0.004287999 -0.0032091038 -0.041775912 0.0092849275 0.010155859 -0.005868308 -0.034946766 -0.014588182 -0.023199245 -0.006849654 -0.0068472214 -0.0070244963 0.0023345517 0.011388152 0.011724895 0.012476706 -0.02119761 0.016178409 -0.017505113 0.01769071 0.01619662 -0.032819316 -0.023575693 -0.009400677 -0.037089862 -0.034385107 -0.0040434906 0.0066110636 -0.027035246 -0.020534389 -0.0030978506 0.017811345 -0.015484072 -0.005549667 -0.021223426 -0.00012779426 -0.006618652 -0.023345957 -0.016850032 -0.017326485 -0.005930303 -0.028166372 -0.006549686 0.024485424 -0.028827371 -0.0036713951 -0.025643162 0.027804924 0.018928722 -0.0014065661 0.0049568405 0.034557622 -0.033030815 -0.005354843 0.022952642 -0.03688782 -0.008808983 -0.0020432337 0.0029305092 -0.042683635 0.0034487112 -0.033001486 -0.030821824 0.007313824 -0.03128289 0.004401187 -0.0037907374 0.0077824877 -0.011674626 -0.032181527 -0.00093180814 -0.026191743 0.022925016 0.030718133 0.014925059 -0.015995035 0.018723864 -0.007769319 0.020215178 -0.008909714 -0.024831083 -0.027310114 -0.01459061 -0.039860137 -0.0025712438 -0.039060175 -0.016252061 -0.032763254 -0.00029964888 0.0054986062 -0.012795627 0.020424193 -0.028134715 -0.0017703966 0.008677304 0.007392539 -0.011055498 0.009198548 -0.018007535 -0.0059248637 0.0049174684 0.0060610604 -0.0300509 -0.02283265 -0.006678152 0.0071792826 -0.03378654 0.021964068 0.008083778 -0.00395678 0.003730296 -0.012014767 0.0067131147 0.010853793 -0.018590687 -0.03254873 0.012993914 -0.008761758 0.014168874 0.03081185 -0.033451095 0.0074837646 -0.010819553 -0.006207823 -0.040152483 -0.011423525 -0.008104466 -0.009143131 -0.03201192 -0.02381949 0.023826187 -0.0043922453 7.780531e-05 -0.0033242896 0.018636895 -0.00014023486 -0.0041578556 0.014146433 -0.007601806 -0.027252898 -0.042210728 -0.020763744 -0.029680539 0.012526644 -0.027235307 -0.008775432 0.0056727957 -0.0053304955 -0.030221807 0.02746818 -0.0028308947 -0.012734969 -0.02790315 -0.0024637906 0.00090922444 -0.0059641474 0.0074125957 0.004781996 -0.033050716 -0.028360147 0.021757677 -0.038294997 -0.0092189675 0.012190875 0.027000323 0.0146570485 -0.02973169 0.006863382 0.0075227437 -0.03841363 -0.013489977 -0.009372161 0.0052086175 -0.014076632 -0.04448121 0.012640941 -0.004097885 -0.026625171 0.002665225 -0.03888979 -0.049355417 -0.02638011 0.010346447 0.0021462017 0.0059961635 -0.0086789 0.004599612 0.014012846 -0.008328464 -0.018230867 0.005934778 0.001715237 -0.030338371 0.0027394914 0.014089026 0.012595243 -0.036982227 -0.003971055 0.0065170517 -0.0077399933 0.0075357114 -0.031383976 0.014721025 -0.016782748 0.0033254076 0.009300983 -0.02120772 -0.037907876 -0.035843164 0.022308912 0.011794252 0.028489383 0.0071361577 0.016628675 0.002501352 -0.008408347 -0.005725032 -0.009299786 0.016992124 0.007127989 -0.005915453 -0.039014786 -0.034720294 -0.034736577 -0.007785845 -0.040998686 -0.021096975 0.017307637 0.02267524 -0.015389499 -0.015999975 -0.040368553 -0.021166923 -0.021254737 0.028508326 0.025971819 -0.012023396 0.022766003 -0.019787986 -0.023746496 -0.019802665 0.01082276 -0.014924362 0.004890292 0.011923228 -0.034997147 -0.016646579 0.027584646 -0.008463882 -0.039009985 -0.03118062 0.024848683 0.0001696029 0.012283041 0.014461346 -0.025215695 0.01765953 0.0027531427 -0.048052035 -0.0031559092 0.005879304 -0.031925883 0.034141254 0.016760813 0.011547236 -0.019123819 -0.011420344 0.020280583 0.02599325 0.0026644426 0.025216248 0.017276822 -0.028119124 0.016109936 -0.016004832 0.005468991 0.015941806 -0.009835487 0.026445407 -0.012010282 0.016552875 -0.009239875 0.0005972949 -0.03392088 -0.021488458 -0.038021285 -0.016692325 -0.018043574 -0.03678143 0.0042968774 0.023550676 0.028325599 0.023681678 0.011177938 -0.03018926 -0.035613485 0.006543828 0.026964312 -0.003460497 -0.030861158 0.019853663 0.020710059 -0.017977064 0.0032102303 0.02604203 -0.03683461 0.009354836 -0.036022097 -0.0046565374 -0.033121727 0.00077116705 0.019842263 -0.033973146 -0.03488317 0.014979648 -0.034778412 -0.03175061 0.0063138837 -0.011427874 0.007444174 -0.0276863 -0.027941938 -0.0166959 0.026451312 0.019480506 0.018347885 0.011515264 -0.014039134 -0.014077179 0.01656535 -0.025969114 -0.009830906 -0.03193904 -0.0052053602 -0.022145225 0.020080147 -0.0019672308 0.00954036 -0.032186147 0.021974133 0.0020315687 0.005549351 -0.0057693743 -0.028122818 -0.034098864 -0.029246207 0.020075582 -0.031209232 0.03692992 -0.013326926 0.03338479 0.016094306 -0.017343441 -0.0050958144 0.018962814 -0.01390189 -0.03493815 0.029475678 -0.03311153 0.024595482 0.022658076 -0.020003995 -0.039459046 -0.029839655 0.012510746 0.0154667515 0.016877886 -0.04057525 -0.023677524 -0.028764904 0.00546141 0.0047508175 0.005199826 0.0005977602 -0.0334613 -0.02914109 -0.0063541834 -0.032625027 -0.017725848 -0.0128193805 0.034460176 -0.017908085 -0.018541068 -0.00409733 0.0076976507 -0.008357495 0.011894401 0.013174496 -0.030049428 -0.030222045 -0.005344218 -0.028195787 -0.027385779 -0.017072689 -0.020366304 -0.0009212343 0.024353055 0.024046388 -0.03237394 0.017176755 0.0026014375 0.020130267 -0.012516552 0.025597025 0.012025445 0.03246952 0.023045566 0.027623182 -0.024264984 -0.018488837 -0.009477258 -0.013939926 -0.0046043443 0.029794605 0.026107283 -0.030538317 0.022861822 -0.001341011 -0.007995859 -0.038494464 -0.04155676 0.01264695 0.015929017 -0.027996209 0.023715174 0.028278295 -0.03820642 0.009393808 0.018578334 -0.018848557 -0.013659339 0.030449081 -0.022961948 -0.02392952 -0.008766929 0.029911855 0.0132797025 0.03308361 -0.012384717 0.0018055695 -0.023755874 0.026426556 0.026233917 0.025501389 0.012034366 0.008247521 -0.025255566 -0.037421107 0.007077486 -0.03864579 0.015587673 0.031735756 -0.03811633 -0.0039912136 0.014326328 0.029394172 0.021775812 -0.017877378 0.024334632 -0.03260857 0.0029997018 -0.022324879 0.0007817064 -0.024329549
