0.07083459198474884
-0.08071306347846985
-0.02062935195863247
-0.020466826856136322
0.05574303865432739
-0.03275209665298462
-0.007485926616936922
-0.0366588830947876
0.04092138260602951
-0.04220382124185562
0.09744678437709808
-0.0019223190611228347
0.08210021257400513
0.1271570920944214
0.012768616899847984
0.016627302393317223
-0.028545523062348366
-0.047689005732536316
0.010013103485107422
-0.06442799419164658
0.10497166216373444
0.06491734087467194
0.03321653604507446
0.10208269208669662
0.10833222419023514
0.14445798099040985
0.11135123670101166
0.053567372262477875
-0.006042866036295891
0.14076508581638336
0.0529935322701931
0.10834909975528717
0.010630505159497261
-0.011156178079545498
0.08454786241054535
-0.01625271514058113
0.057086098939180374
-0.0555221363902092
-0.070421501994133
0.013118305243551731
0.0372115857899189
0.1732621192932129
0.08480824530124664
0.033793192356824875
0.18988603353500366
-0.0329662449657917
0.08191446959972382
-0.03962966427206993
0.025311484932899475
0.10680234432220459
-0.02630511112511158
0.025755595415830612
0.0930958092212677
0.013299629092216492
0.022429171949625015
-0.01017368957400322
-0.10514047741889954
-0.05558831989765167
0.038915086537599564
0.060985859483480453
0.03377848491072655
0.010823111981153488
0.09456171095371246
-0.02524458058178425
0.09541047364473343
0.01953686587512493
-0.04027223587036133
0.040893346071243286
-0.0030384447891265154
0.07131242752075195
-0.20222099125385284
0.0031478062737733126
0.18986786901950836
0.043823033571243286
-0.03604990988969803
-0.03568733111023903
0.038558948785066605
-0.005876947659999132
-0.12269385904073715
-0.039196304976940155
-0.0430743582546711
-0.045634154230356216
-0.07823633402585983
0.10037098824977875
0.0747615173459053
0.07343567907810211
0.18115626275539398
0.042305901646614075
0.039762064814567566
0.06635942310094833
0.06098107993602753
0.018779287114739418
-0.018211616203188896
-0.0498129166662693
0.06720408797264099
0.03545207902789116
-0.02466382086277008
0.08209002763032913
-0.009494595229625702
0.10186298191547394
-0.03290599212050438
-0.021955767646431923
0.1152452901005745
-0.05443038418889046
-0.10349124670028687
-0.168148472905159
0.04630066826939583
-0.017822543159127235
0.008940551429986954
0.059440337121486664
0.009128020144999027
0.02666698396205902
0.10420732200145721
0.16193893551826477
0.20901994407176971
-0.05294894054532051
0.1012573093175888
-0.019107025116682053
0.061216507107019424
0.11504256725311279
-0.005583891179412603
-0.019661128520965576
0.14132386445999146
-0.07369030267000198
-0.05025533214211464
-0.046184152364730835
-0.009029808454215527
0.02192911133170128
0.017926735803484917
0.08985204994678497
-0.058863941580057144
-0.05748362839221954
0.015683123841881752
0.027909114956855774
-0.1280968189239502
0.046359557658433914
-0.03168455883860588
0.07564388960599899
0.1511257141828537
0.08785033226013184
-0.033584412187337875
0.16109222173690796
0.14811323583126068
0.03697913512587547
-0.011601956561207771
-0.04210599511861801
-0.03221782296895981
0.09874261915683746
0.16224822402000427
-0.0963192731142044
0.013704047538340092
-0.047237787395715714
0.0023941618856042624
0.03214012458920479
0.03944767266511917
0.12925344705581665
-0.05760393664240837
-0.0388968251645565
-0.06736131757497787
0.08043380826711655
0.020817438140511513
0.1625482738018036
0.04602968692779541
0.08010206371545792
0.07466495037078857
-0.003334298962727189
0.012022381648421288
0.05620095878839493
0.15055280923843384
0.026166370138525963
0.06482137739658356
0.025216612964868546
0.013890543021261692
0.012899678200483322
0.057583048939704895
0.09378775954246521
-0.039206620305776596
0.09283310920000076
0.09244127571582794
0.11781099438667297
0.15947872400283813
-0.06369046866893768
-0.0032253970857709646
0.0760328620672226
-0.002866928232833743
0.05444977432489395
0.05747183784842491
0.06903451681137085
-0.033990528434515
-0.0058773900382220745
0.008809714578092098
0.06057766452431679
0.012126998044550419
0.14774246513843536
0.15562209486961365
-0.1698925495147705
0.04809291288256645
-0.019432447850704193
-0.0056045157834887505
0.0013409156817942858
0.11165399849414825
-0.01032224576920271
0.04103624448180199
0.006206187419593334
0.16553837060928345
0.0552692674100399
0.060960814356803894
0.09167193621397018
0.022704701870679855
0.03458830341696739
0.1123926118016243
0.08262643963098526
0.08524485677480698
0.03921345993876457
0.07491198927164078
0.12101072072982788
0.011550725437700748
0.14701376855373383
0.11172060668468475
0.0880170613527298
-0.07782416045665741
0.06693436205387115
-0.012250660918653011
0.058489762246608734
0.03633857145905495
0.048870623111724854
-0.04587063565850258
-0.07193803042173386
0.05234907940030098
-0.03039144165813923
0.036424100399017334
0.059387873858213425
0.11217952519655228
-0.023554107174277306
0.0356786735355854
0.09013821184635162
0.07274170964956284
0.10095158964395523
-0.026583783328533173
0.07289298623800278
0.07510826736688614
0.09764714539051056
0.22429512441158295
0.012571942061185837
0.12388788908720016
0.03734144940972328
0.020457768812775612
0.08210670202970505
-0.10334335267543793
0.03281881660223007
0.07886745035648346
-0.04642641544342041
-0.0532187856733799
-0.04461827129125595
0.09212551265954971
-0.05817566439509392
