0.06737926602363586
0.10662423074245453
0.016201026737689972
0.11228396743535995
0.006221515592187643
-0.01596197858452797
0.004584890324622393
0.0963946059346199
0.08126763999462128
0.11077524721622467
-0.005475860089063644
0.04233675077557564
0.1936851292848587
-0.07131229341030121
-0.02385069616138935
0.08407660573720932
0.15352573990821838
0.09102364629507065
0.07618813961744308
0.004008113872259855
0.020807314664125443
-0.026042984798550606
-0.038948994129896164
0.07347344607114792
0.04703584313392639
0.08149737119674683
0.05369097739458084
-0.050765540450811386
0.06733913719654083
0.026880042627453804
0.06998708099126816
0.05840134993195534
-0.01998467557132244
-0.07034170627593994
-0.07249144464731216
0.16552121937274933
0.01692420244216919
-0.01732862927019596
0.10867182910442352
0.23853300511837006
0.04502025246620178
0.03749166429042816
0.07075310498476028
0.05982397124171257
0.15488338470458984
0.08435717970132828
0.0525568462908268
0.12272670120000839
-0.04632098600268364
0.12454722076654434
-0.006686250679194927
-0.09411405771970749
-0.038459643721580505
0.054450277239084244
-0.0036293244920670986
0.015003564767539501
-0.0799582377076149
0.06316374242305756
0.04513506963849068
0.021685896441340446
0.0902586579322815
-0.11831242591142654
0.053563766181468964
0.05485294386744499
-0.0001982555550057441
0.15512138605117798
-0.09184607118368149
0.051575444638729095
-0.06433266401290894
0.013981340453028679
0.09201055765151978
0.06052498519420624
-0.048494115471839905
0.16004833579063416
0.03348096087574959
-0.04138992354273796
-0.04484033212065697
0.07265909016132355
0.09691055119037628
-0.05975288897752762
-0.03496001660823822
-0.017930148169398308
-0.038037482649087906
0.02609321102499962
-0.012734714895486832
0.0018495493568480015
0.08033351600170135
0.10594933480024338
0.010426188819110394
-0.0021984102204442024
0.09083518385887146
0.08886968344449997
0.03365713357925415
0.014560366980731487
0.08216733485460281
0.08759935200214386
0.06135754659771919
0.10300584882497787
0.06751901656389236
-0.04413556307554245
0.0096754040569067
-0.008910230360925198
0.1673312783241272
0.029681118205189705
0.026962535455822945
0.050140298902988434
0.10625217109918594
0.01855279691517353
-0.029733214527368546
0.0835225060582161
0.10917109996080399
-0.038842037320137024
0.043847016990184784
0.05295979976654053
0.03686433658003807
-0.012790159322321415
-0.005706031806766987
-0.046011216938495636
0.012561127543449402
-0.024737978354096413
-0.04360625147819519
-0.08467408269643784
-0.06724714487791061
0.05360826104879379
0.057814229279756546
-0.03079494833946228
-0.00533467810600996
0.031397443264722824
