0.013174159 0.007357415 0.03466945 0.009498864 0.01911401 0.00396101 -0.016016228 -0.013234118 -0.024476865 0.0019965046 -0.013460169 -0.008242535 -0.02354043 0.00059518835 -0.02775136 -0.009350449 -0.010357201 -0.022313716 -0.01789423 -0.031553667 -0.019440657 -0.035340745 0.03351275 -0.021324469 -0.029455753 0.016033698 -0.008505928 -0.03409984 -0.0022243604 0.03027498 0.004028444 -0.03539219 -0.017656455 -0.031032138 -0.006671526 0.004834919 -0.031287044 0.002692152 -0.009524961 0.0068078665 -0.06894616 -0.06889511 -0.009112925 -0.04052594 0.052488253 -0.022872088 -0.081646904 -0.104900286 -0.08830494 -0.03278404 -0.023805121 0.025889022 0.00892993 -0.00045586913 -0.024834258 0.02733104 -0.004011499 0.01763237 -0.021881633 -0.032003175 0.009212363 -0.031668067 -0.052364614 -0.055396754 -0.0027402572 0.107183084 0.07361515 -0.055943247 0.012901585 0.020684067 0.05496448 0.044071827 0.11554581 0.12071993 0.08526696 0.03964839 0.059499826 -0.018802878 -0.020984141 -0.015900547 0.003728597 -0.06415482 0.020494308 -0.015314069 0.026921751 0.016755402 0.0871462 0.07029189 0.009015786 0.03840132 0.0442733 -0.003333776 0.026001753 0.09986015 0.10862776 0.028113421 0.09666815 0.04418705 -0.053953048 -0.020179875 0.010786964 0.04215185 0.041247785 0.0140521685 0.12502648 0.07854201 0.03534789 -0.16507226 -0.09341148 -0.056205817 0.008646866 -0.025129775 0.025322672 0.008784318 0.06890363 0.019978924 -0.024918467 0.054639403 0.0854474 0.09601624 0.08046726 0.12317158 0.15979105 0.17464143 0.13681602 0.1412556 0.1450968 0.11808182 0.16980666 0.072224244 0.07736282 0.028136037 0.056689385 0.03667374 0.041059736 -0.0540021 0.062010758 0.08283815 0.01692372 0.014985195 0.018704291 0.0073022973 0.051864833 0.10777541 0.06630305 -0.026583482 -0.04938509 -0.031212151 -0.09653583 -0.04910355 0.05996884 0.052781753 0.068700746 0.069261536 0.058148313 0.0708201 0.13373986 0.037055627 0.08869443 0.09057386 0.08606972 0.048795078 0.098000996 0.037678014 -0.0140135195 0.059487645 0.09727252 0.009149492 0.02739843 0.078159384 -0.042415608 0.09925612 0.043597944 -0.057755668 -0.040485475 -0.016063238 -0.041290026 0.00053789315 0.049469545 0.074824445 0.05585173 0.043468762 0.003062217 -0.04233728 -0.026263114 -0.03697208 -0.002284285 -0.050095573 -5.573098e-05 0.030387418 -0.06378474 -0.06081602 0.06399374 0.07844041 0.14699702 -0.03175469 -0.016713763 0.11078999 -0.08188677 0.047784436 0.15287375 0.034838706 -0.035547763 -0.07629281 0.03215611 -0.072815135 -0.059736546 0.007713164 -0.030007845 -0.024331586 0.029524786 -0.04447306 -0.027588801 -0.0063383416 -0.05826388 -0.01636877 -0.013119707 0.043738645 0.053890254 0.036361843 0.038170483 0.0716382 0.06733713 -0.037374962 -0.11771834 0.077632815 -0.12096768 0.007032633 0.118162125 -0.047709927 -0.050715677 -0.024269527 -0.08481652 -0.13718158 -0.05383559 -0.08366806 0.015735537 -0.010743054 0.02043387 0.0009378761 -0.03874045 0.010032683 -0.0021669047 0.03506343 0.004521437 0.013786117 0.08658563 0.15581515 0.057052683 0.111650676 0.08162176 0.12881188 -0.005192396 -0.0732777 0.013734955 -0.04666209 0.09163525 0.01753802 -0.038491465 -0.07499413 -0.04493985 -0.07922621 -0.10403515 -0.074559376 0.017750142 -0.0011234388 0.030119386 0.07349028 0.063588075 0.030973848 0.03101186 0.016374474 -0.011174761 0.013637338 0.13735232 0.08975219 0.09244284 0.18061866 0.10000113 0.079069555 0.029788807 -0.049759157 -0.037381534 0.052752968 0.13332176 0.09458269 0.016841248 -0.08709727 -0.015510567 -0.10346353 -0.037932005 -0.046206348 0.009694688 0.038857345 -0.0147248935 -0.057632565 0.05053537 -0.012828283 0.01630515 -0.0026368366 -0.020241596 -0.034008663 0.0014434779 0.0061521963 0.050162982 0.042565502 0.18531916 0.098639585 -0.024382098 0.030571407 0.01715924 0.15702647 0.2220493 0.09789062 0.013780046 -0.04429886 -0.07270391 -0.089008465 -0.015541793 -0.023662163 0.04472173 -0.073952906 -0.10831527 -0.11140168 -0.04693815 -0.055142622 0.025725394 0.041811857 -0.051007114 -0.099005 -0.090501286 -0.046973716 -0.04204876 -0.036364853 0.11774662 0.10926472 0.00021340633 0.049323145 -0.025391918 0.14144863 0.15359896 0.02101303 -0.022847226 0.017348891 0.0024459965 -0.007452928 -0.017402316 -0.026923524 0.028165195 -0.06450444 -0.14064115 -0.13543962 -0.055824555 -0.019514436 -0.035065465 0.013719827 -0.032183535 -0.08361621 -0.17623022 -0.25680128 -0.17797998 -0.12128421 0.024847707 0.09169943 0.106056266 -0.006248284 0.054231435 0.08606836 -0.04090553 -0.030036982 0.02590114 0.05100226 0.012550067 -0.03313051 -0.076200515 -0.04235501 -0.085507385 -0.09573131 -0.05168807 -0.08551223 -0.01976571 0.083344474 0.015991777 -0.011131497 0.007214242 -0.107367 -0.18729158 -0.29185498 -0.2168858 -0.0978949 0.10039365 0.049744632 0.0905803 -0.055444613 0.15985149 0.06745993 -0.16528869 -0.22596057 -0.06456887 -0.09809069 -0.08179458 -0.13527681 -0.16708973 -0.1409722 -0.15650268 -0.06769461 0.02189212 -0.035253666 0.0030073363 -0.0021409323 -0.0126375165 -0.033632673 -0.053134073 -0.057101786 -0.17127 -0.2745902 -0.19648822 -0.15184504 0.106765315 -0.011466017 0.04541937 -0.08729369 0.15692854 0.057573397 -0.1991684 -0.23899743 -0.10354745 -0.21049243 -0.197068 -0.17990981 -0.2107158 -0.16369183 -0.12017673 -0.017812176 0.04508181 0.029990748 0.02284203 -0.038302917 -0.013424117 -0.09328903 -0.06912139 -0.05466517 -0.17788826 -0.18480615 -0.08428153 -0.10022024 0.15206654 0.033621196 -0.117290616 0.007306189 0.16581655 0.09073549 -0.16057053 -0.1394755 -0.21025865 -0.21418439 -0.28008506 -0.1827288 -0.18660547 -0.14785938 -0.072368875 0.06617634 0.0886969 0.023121342 0.05367008 0.034042235 -0.015641997 -0.0042474587 0.023019722 0.029437903 -0.051357772 -0.13997883 0.04280003 -0.0010727037 0.08807232 -0.0033737412 -0.029164823 0.023489805 0.1226403 0.09296098 -0.0011748027 -0.051746003 -0.115380965 -0.12917647 -0.16580516 -0.11034006 -0.18612023 -0.17071816 -0.10988234 0.098100245 0.075573556 0.02983608 0.027597489 -0.0038170093 -0.013723542 0.03508454 0.02516285 0.027268128 -0.10076808 -0.15780589 -0.060041226 0.119049184 0.14026427 0.10713158 0.010882091 0.049260993 0.07789138 0.12436186 0.024709005 -0.014178272 -0.026581703 -0.064116426 -0.051947508 -0.108219706 -0.14903565 -0.14763771 -0.030675137 0.07631573 0.023666311 0.09720365 0.09012076 0.07061416 0.029728651 0.07026201 0.023078267 0.012990464 -0.06033407 -0.064020336 0.080933586 0.10437094 -0.0057751657 0.05063192 0.019268515 0.067071654 0.103977464 0.065440916 0.03119024 0.028614828 0.07687016 -0.0074113244 0.062257655 0.038645968 -0.06292173 0.015588838 0.05796958 0.11004608 0.10111066 0.1676281 0.11622833 0.107245795 0.039905306 0.0031864913 -0.02498645 0.00960778 0.0115639 -0.014060557 0.011480145 0.10222808 0.068617254 0.07115154 0.020424942 -0.026495079 0.17164676 0.19820449 0.049519252 0.077826224 0.084342934 0.11407042 0.17118807 0.07053925 0.02895355 0.12395871 0.10509163 0.12529027 0.07558299 0.12982495 0.16148679 0.16224168 0.17899014 0.04474971 0.047490343 0.025297828 0.107693315 0.13584553 0.04830863 0.051967446 0.03930379 0.08013514 0.061791174 0.0077126236 0.14918967 0.1677664 0.060331784 0.018412815 0.036164455 0.10911394 0.100960694 0.057148453 0.13928007 0.08937906 0.105863065 0.047627203 0.10838553 0.09320664 0.11984613 0.11707262 0.11086415 0.111565165 0.110760055 0.107208036 0.18596777 0.28035697 0.16677769 0.07548145 0.10743097 -0.011210004 0.013678071 0.008637565 0.17582749 0.063196495 0.09073501 0.046978064 -0.016559366 -0.027516462 -0.002050453 0.06496938 0.05461914 0.067393094 0.059209563 -0.014249137 0.04393267 0.06475456 0.06459984 0.098223366 0.104288474 0.0954285 0.07647942 0.086944245 0.14219019 0.26984236 0.19316493 0.08031848 0.031105006 0.004906929 -0.009272244 0.034058087 0.22474481 0.07752999 0.06400954 0.019113705 -0.03795408 0.0023406083 0.016716884 0.021499602 0.04423269 0.07168722 0.092106946 0.07626212 0.06641404 0.06707867 0.09208229 0.15446861 0.07206212 0.025804246 0.029736772 -0.0013121397 0.18985957 0.25699988 0.21773888 0.046923228 0.13971172 -0.014666043 0.030153552 -0.020001527 -0.06579385 0.02549097 -0.0151947625 -0.06889297 0.007599895 -0.021733424 0.0040782215 0.028476045 -0.02328172 -0.00076391967 0.038633745 0.03561383 0.042144556 -0.031200757 -0.032680918 0.101028726 0.08462657 0.06822507 -0.011340198 0.026041208 0.16117102 0.10119465 0.13851495 -0.007203583 0.04600441 -0.004350701 0.0026986175 -0.001979696 -0.022336453 -0.03243156 -0.13636036 -0.08045245 0.085440904 0.057869587 0.04749422 0.08467293 0.0073681423 -0.06286673 0.06760343 0.102628246 0.035092477 -0.07967081 -0.048902795 0.044997826 0.070505895 0.10388216 -0.007330341 -0.07702628 0.022937296 -0.053114183 0.0268298 -0.06669744 0.0032758631 -0.022631671 -0.0012730914 0.029821355 -0.009529046 -0.06476587 -0.12034739 -0.12493518 -0.05917855 0.040974874 0.015475648 -0.11976519 -0.09845015 -0.08414436 -0.059093125 -0.06638236 -0.18730085 -0.06872495 -0.013064078 -0.03146611 0.026504906 0.07452248 0.118674986 -0.06447947 -0.09404578 0.033140477 0.010728824 -0.0017399557 -0.007187507 0.030724945 -0.035521787 -0.0052653127 0.007223138 0.027610682 0.07079097 0.06913497 0.12750746 0.072180614 0.056727957 0.056789167 -0.0065386626 0.002939753 -0.019467968 0.123681016 -0.0048002875 -0.07457903 -0.057366453 -0.018280903 0.020409783 -0.04525375 -0.05752428 -0.0050943545 -0.0405115 0.008578199 -0.011898233 -0.019182798 -0.02994426 -0.03298797
-0.012903674 -0.026337305 0.009861623 0.019250955 -0.0011717763 0.02232674 -0.017710252 0.015346838 0.008018192 0.018666899 -0.017203838 -0.026728695 0.02484344 0.033860587 0.045315698 -0.00827463 0.017732034 0.031673845 0.029159075 -0.02011123 -0.005460854 -0.016705237 0.025163246 0.008989385 -0.016895559 0.014619254 0.013943541 -0.008980244 0.004822433 0.0072429096 0.018313944 0.0052433866 -0.03001663 -0.011834898 0.06790341 0.0696527 -0.030784043 -0.03487139 -0.046053905 -0.016087012 -0.016164824 -0.019893346 -0.04761144 -0.04906464 0.08749311 0.02513036 -0.055519138 -0.02015099 -0.0067394027 -0.008354857 0.04880953 0.040331982 0.02467147 -0.016880972 -0.023311859 0.03089343 -0.016394168 0.007486561 0.012663877 0.0039536585 -0.02915095 -0.024348104 -0.013245635 -0.021857278 0.079824805 0.11171528 0.15440917 0.11180883 0.0030509734 -0.11024933 -0.021248983 -0.0077549974 -0.011201358 -0.03477725 0.011262076 -0.1333987 -0.05920486 -0.029131867 -0.029381575 0.11436509 0.12671122 0.103998885 -0.011342066 0.025651027 0.01531039 0.016081035 0.07639565 0.030333508 -0.019964602 0.05376816 0.03383719 -0.02840395 0.07579307 0.13999629 0.14477436 0.15082975 0.07956288 0.028801395 -0.076877035 -0.066696346 -0.054535743 -0.038559094 -0.024882415 -0.054936323 -0.026702192 -0.08774516 -0.032167632 -0.08646498 0.03013984 0.019145548 9.647301e-05 0.006038023 0.021814551 -0.036972847 0.06763062 -0.0019642129 -0.104112945 0.06239955 0.055624194 0.11580936 0.13410617 0.1065871 0.1965006 0.12824048 0.06762497 0.04310071 -0.039676804 -0.028243272 -0.004035402 -0.011642562 0.09016569 0.031524617 0.031065019 -0.10836673 -0.07689859 -0.10479108 -0.04574981 0.03193163 -0.05099987 -0.077284575 -0.009847454 -0.033062804 0.12347402 0.101188764 0.024386695 -0.046747234 0.026923768 0.09903095 0.044250693 0.019890914 0.04308115 0.020973183 -0.02810735 -0.023943828 -0.046543293 0.014859995 0.05817595 -0.013070536 0.030029615 0.04814751 0.084340475 0.085923314 0.030069081 -0.01956673 0.022616025 0.032105297 -0.02008287 -0.06197928 -0.03034625 0.08905124 -0.06744918 0.06139644 0.03751828 -0.024831703 0.027545081 0.041457403 -0.013226187 0.06596405 0.027196022 0.02337666 0.018732494 0.037217736 -0.016250584 0.028925067 0.01742455 -0.04018151 -0.017142918 -0.01781467 -0.004024465 -0.018440569 0.02021989 0.015254942 0.023581978 0.028359765 0.006522127 -0.04611622 -0.006867957 0.112462066 -0.0841022 0.05513426 0.088222265 0.0038570738 0.030773543 0.004886742 0.0743032 -0.02809122 0.034013927 0.024635943 0.046196654 0.06836638 0.055087157 0.05943556 -0.018145934 -0.06972983 -0.05542691 -0.07580318 -0.08570957 -0.021313915 0.020493945 0.0024672055 -0.045442622 0.029088037 0.053052016 -0.038457062 -0.042960726 -0.0019252963 -0.12173438 -0.0024460682 0.086878836 0.01775427 0.010258101 -0.038103465 -0.042164672 -0.012469377 0.06954591 0.010532228 0.0421956 0.08946628 0.037804406 0.020924117 -0.076746024 -0.05877685 -0.049369726 0.00039446203 -0.06760908 -0.066721044 0.101510204 0.056290522 -0.17358135 -0.033747695 0.11014507 0.042477597 -0.02827977 -0.00016423748 0.025502244 0.029087732 0.0157494 0.026416738 0.01312192 0.022626996 0.0045523415 -0.01874613 -0.024166325 -0.028078184 -0.002721262 -0.014860234 -0.054176267 -0.07451867 -0.039989725 -0.0136406375 0.012724915 -0.05522486 -0.0085660415 -0.049502924 0.067102276 0.09275788 -0.0974118 -0.002770535 0.076345064 -0.1105058 0.010935052 0.036622405 -0.11643527 0.044573553 0.036874272 0.03024802 -0.014734984 -0.043791983 0.00756483 -0.0770504 -0.039724696 -0.07789166 -0.12517624 -0.09482745 -0.07988874 -0.100876555 -0.038924813 -0.010586177 0.058564708 0.0055742506 -0.014839275 0.0012282307 0.07032063 0.024486154 -0.0019064249 -0.008850962 0.049528375 -0.11778658 -0.0615629 -0.03448733 -0.09899895 -0.024898212 0.03472794 -0.08302094 -0.15712754 -0.11759417 -0.15608028 -0.18020746 -0.16047761 -0.11159467 -0.18183261 -0.15661438 -0.030136134 -0.06844223 -0.01619275 -0.016986085 0.047733292 -1.3688856e-05 -0.00785107 -0.0014650367 -0.00077450776 -0.027964093 0.052805338 0.09406158 0.058529444 -0.025910206 -0.039508753 -0.08927924 -0.09596265 -0.035583276 -0.12563545 -0.15754274 -0.20264246 -0.24367492 -0.19429249 -0.19388944 -0.137272 -0.16020504 -0.14410011 -0.03829611 0.06740083 -0.049877252 -0.05363107 -0.008475921 -0.053507686 -0.057787646 -0.028741984 0.026835069 -0.06886181 -0.07465186 0.021114504 0.045537673 0.059571955 -0.041177545 -0.019302307 -0.08118363 -0.02600927 -0.057448447 -0.20375009 -0.1971847 -0.23687471 -0.18267821 -0.12434001 -0.15474224 -0.11404482 -0.09930698 0.0067066858 0.11367333 0.07294597 -0.010677532 -0.078229055 -0.05418125 -0.055560853 -0.005273324 -0.01986671 0.013334505 -0.029996723 -0.09639495 0.0074596833 0.019922469 0.080146916 0.049856417 0.020449108 -0.07709901 -0.0017242344 -0.046445332 -0.15289308 -0.18810768 -0.09830777 -0.06985984 -0.067948684 -0.047631454 -0.077925436 -0.007759798 0.052910537 0.11283816 0.18345106 0.036853243 -0.023342265 -0.043194152 -0.027948132 -0.082635365 -0.058737524 -0.013142223 -0.08948926 -0.08584858 -0.026411604 -0.03850107 0.10841145 0.064497165 0.034480765 0.02795111 0.10984608 -0.0034644827 -0.011027046 -0.022206763 0.07406043 0.008133322 -0.044174377 -0.01028654 0.002597763 -0.008856882 0.00027932873 0.1700796 0.1854793 0.10238669 0.046276536 -0.014237136 -0.00940041 -0.021992676 -0.09988597 -0.07988517 -0.16138437 -0.10005658 -0.029908594 -0.0058188597 0.05698929 0.10487734 -0.012247878 0.020071946 0.06379825 0.10449777 -0.0014509805 0.060659 0.0910135 -0.0033642459 -0.044353254 0.06479627 0.028761389 -0.042204715 0.009914428 0.13258682 0.10219574 0.052674655 0.02242583 0.002296774 0.021503186 0.03918039 -0.0063768458 0.053412143 -0.05038543 -0.037512206 0.012631041 0.109945424 0.095385395 0.0589854 -0.012592525 0.0019145495 0.084734246 0.11318261 0.06929919 0.047127087 0.06263138 0.009379788 0.07855661 0.051149547 -0.0035382863 -0.019278364 0.006017604 0.05258642 0.04840052 0.010325422 0.017617712 0.031628896 0.016676014 0.06518826 -0.004785382 0.010518402 0.0072843567 -0.06864224 -0.02443642 0.15637474 0.049987394 0.12450915 -0.02677076 0.038011372 0.06632905 0.13821635 0.039585587 0.049714785 0.054117918 0.021831352 0.018273083 -0.008230177 -0.064496905 -0.085052766 -0.011220099 0.04377375 0.022307836 0.056625307 0.08436448 0.06365015 0.020421995 0.024994234 0.03968677 0.022561608 0.019284394 -0.012726303 0.016123999 0.14205211 0.045143098 0.0743302 -0.016858729 -0.058144394 0.04424491 0.07140199 0.064094074 0.064126864 0.05307425 0.011339926 -0.006696021 0.027609918 0.0080252085 -0.02719808 -0.060714975 0.08121591 0.048279878 0.05870954 0.048085015 0.057943307 0.07252437 0.04302558 0.052348714 0.028044982 0.033317123 0.054640282 0.042398106 0.081805676 0.12649976 0.06890051 -0.018996341 -0.033562765 0.053930596 0.13993958 0.041642305 0.04721657 0.06235332 0.03282998 0.02251688 -0.0013824241 -0.024669938 -0.043948635 -0.009330199 0.05872032 0.056293838 0.06919227 0.0114527615 0.032282688 0.04259618 0.029655954 0.055478677 0.06740304 0.042902965 0.09683133 0.032460943 0.06876425 0.06945181 0.018448932 0.04460993 0.10697704 0.13995656 0.15220287 -0.02154943 -0.06328207 -0.0009193248 0.049631655 0.0133558195 -0.0031952444 -0.023383867 0.037664 0.029618079 0.02259058 0.028668782 -0.0005221686 0.026223956 -0.003610075 0.09725367 0.09123151 0.01655447 0.04074024 0.04559675 0.115095444 0.06320654 0.07104579 0.093597405 -0.03347831 0.05035167 0.05252251 0.1508018 0.12094458 -0.05770021 -0.04222105 0.0071555064 0.0343657 0.061313845 0.042978097 0.027548578 0.017980183 0.007003261 -0.014782805 -0.022100767 -0.007678664 0.009781248 0.017106462 0.07245286 0.0363709 0.05602468 0.030672474 0.041135814 0.0764006 0.09082625 -0.0128394505 -0.030915529 -0.04623758 -0.024422515 0.031075105 0.21906738 0.16934249 0.052985426 -0.008112349 -0.009128835 0.033353493 0.0434933 0.089286506 0.035709526 -0.0072556497 0.023700342 0.014231061 -0.012712879 0.036588367 0.0649978 0.025895525 0.051586002 -0.0023654492 0.058799554 0.036958743 0.10611439 0.090460226 0.03793426 -0.0026232277 0.02712729 0.014300407 0.033107247 0.033577606 -0.014413874 0.062144604 0.030566065 -0.1291659 -0.0801305 -0.043443955 -0.04397511 0.016959086 -0.06587879 -0.027672708 -0.05124443 -0.06674438 0.046537355 0.053528704 0.025389303 0.017860986 -0.005346255 -0.004734962 -0.016681217 0.04470098 -0.013087813 -0.04228988 0.12578471 0.038114324 -0.012746721 -0.016145537 -0.00025866713 0.0025727027 -0.010792271 -0.047060627 -0.060992524 -0.1077882 -0.0028545326 0.016696384 0.048329998 0.09428998 0.000296417 -0.010193412 -0.00273904 -0.014636029 0.09064006 0.06954432 0.09923154 0.003805599 -0.06502936 -0.035506405 -0.051698357 -0.1282597 -0.11350083 -0.09723937 0.021795137 -0.013525028 0.01731985 0.008024761 0.02232269 -0.017034484 -0.019581025 -0.017957369 -0.048683003 -0.12330112 -0.119850256 -0.14058493 -0.13850828 -0.04289006 0.013991785 -0.06145698 -0.06764217 -0.0682893 -0.027364267 -0.022303699 -0.045645505 -0.019764394 -0.036860015 -0.031254616 -0.035202894 -0.08727286 -0.1081919 0.037844934 -0.008588317 -0.0049138064 -0.035605352 -0.028562088 -0.011364491 0.010089219 -0.00923875 -0.03045625 0.020654386 0.053314272 0.0053759557 -0.04896477 -0.05276314 -0.014028555 -0.07384021 -0.052875254 -0.03678078 -0.023184376 -0.09357041 -0.061939355 -0.08069096 -0.100136146 -0.090924166 -0.058341675 0.011842602 -0.03603849 -0.034029722 0.00028516568 0.029678214 0.016909499 0.01666832 0.005758567
0.03300285 -0.02517524 -0.0012891123 0.009029355 -0.026366299 0.00688753 -0.014543394 0.01949903 0.026434632 0.00020756466 -0.02242661 -0.0074891155 -0.056808483 0.003143177 -0.046056364 0.012699771 0.0049373084 0.008816106 -0.0065672826 0.017434526 -0.033689708 0.033651363 -0.0021879673 -0.0248123 0.025626639 -7.571493e-05 0.022092914 0.025211556 0.017089887 0.008154627 -0.014141781 0.010765881 -0.02911563 -0.007088879 -0.03999525 -0.09415886 -0.059129354 -0.03312554 -0.060204893 -0.04297441 -0.025270741 -0.004376874 0.06590594 -0.087398775 -0.0653134 -0.13173248 -0.099915035 -0.101771384 -0.108243376 -0.028277347 -0.034942053 -0.010571725 0.015159722 -0.02863988 -0.00829185 0.008333782 0.026027953 0.024511568 -0.04327012 -0.11689833 -0.11957536 -0.06848658 -0.12479279 -0.10420612 -0.14356607 -0.1049552 -0.14384171 -0.18454474 -0.12450304 -0.14456473 -0.13305633 -0.13078006 -0.13325135 -0.043845657 -0.12016601 -0.21050881 -0.19547555 -0.17967537 -0.16379504 -0.20796415 -0.19339325 -0.038190275 -0.009539021 0.019495705 0.035675906 0.01453493 -0.026225107 -0.0928966 -0.13216078 -0.09402303 -0.17687483 -0.1528072 -0.19382203 -0.20585391 -0.13467105 -0.12693039 -0.19350342 -0.24506126 -0.07316687 -0.049002524 -0.047430042 -0.032386776 -0.17417558 -0.15365966 -0.15253858 -0.09147488 -0.0810617 -0.18159012 -0.16706793 -0.11213193 -0.11987273 -0.013136966 0.012961844 -0.027231352 -0.044569917 -0.059048958 -0.035570756 -0.07570652 -0.12721768 -0.06580101 -0.17034003 -0.14649457 -0.13079871 -0.10254884 -0.02038798 -0.052670076 -0.0126653 -0.036972716 -0.04258409 0.041418813 -0.06312656 -0.07137568 -0.017422723 -0.023639193 0.026444366 0.040706355 0.07473478 -0.04045753 -0.016234988 -0.08664022 -0.007149501 0.015257653 -0.088212326 -0.10458607 -0.087467745 -0.005520406 -0.020419346 -0.026008412 0.020444753 0.005776034 0.0061514103 0.0829425 0.094420835 0.07265558 0.01913645 -0.022430722 -0.033893786 -0.0018755641 -0.060951967 -0.08075231 -0.054041613 -0.03170181 0.026799267 -0.014660479 0.007162375 0.012544999 -0.10339907 -0.03900926 -0.017667485 -0.047482457 0.12018105 0.011527496 0.04087235 0.069965035 -0.029976418 -0.060232636 0.052558042 0.024393603 -0.00021971611 0.021389768 0.019780155 -0.014185177 0.028144626 -0.019821733 -0.0296859 0.021176308 -0.030802634 -0.050829012 -0.041684996 0.03894336 0.12628925 0.052232727 -0.08823958 -0.10379215 -0.10668959 -0.072424375 0.0006638297 -0.021517603 0.20305532 0.10930736 -0.06292143 -0.031671014 -0.008271489 -0.048454627 0.0025594058 0.06752761 0.02200253 -0.014819351 -0.035111148 0.012993518 -0.08512831 0.026491461 -0.028784655 0.017908625 0.065064274 -0.008577182 -0.043558005 0.04733617 0.06994312 0.11650064 -0.011074788 -0.008735499 -0.017105283 -0.0849242 -0.05528708 0.014269982 0.2494979 0.122152075 -0.02015165 0.033083115 0.085376546 0.017846711 0.055759586 0.07271825 0.036845986 0.035768885 0.0037763673 0.021383133 0.010956665 0.07330679 0.043927938 0.0063821273 0.090938434 -0.018886708 -0.030722449 -0.011148056 -0.025308182 0.06907507 0.075776026 0.049402114 0.09847037 -0.003637191 0.09131739 0.17215106 0.07615728 0.11797814 0.025982097 0.092389375 0.08364806 0.0106681 -0.008918983 0.06635539 0.0467221 0.008989929 0.006174892 0.018078072 0.021106662 0.022398809 0.030314371 0.038457777 0.04824011 -0.0017821301 0.07335094 0.07579945 0.024536088 0.09606158 0.060153138 0.04385634 0.035123564 0.08244783 0.09500962 0.09809337 0.10706892 0.020502625 0.078769386 0.09506818 0.049272772 0.0044335746 0.061454643 0.1055925 0.04211195 0.012793171 0.02943951 -0.03839813 0.03351196 -0.008669802 0.013760404 0.039439645 0.00020275576 0.049423933 0.027983654 0.035086088 0.13799988 0.04674828 -0.033337887 -0.03995693 -0.059343375 0.054690894 0.11483536 0.12887786 0.18160477 0.08227489 -0.03158518 0.090590045 0.06197096 0.10118986 0.102853365 0.107175164 0.09602072 0.054267 0.03886189 -0.05050007 -0.0024986316 -0.005982224 0.034309693 0.02412765 -0.001815724 0.029279502 -0.016201181 0.023297288 0.048366196 0.025274571 -0.047400616 -0.0458875 0.06445977 0.035888266 0.04065997 0.22698054 0.18020852 0.101063624 0.012002476 0.059481904 -0.011644918 0.074973956 0.10914416 0.065162316 0.094741926 0.040547296 0.027865011 -0.050756697 -0.111043304 -0.020600693 -0.0014627672 0.0286026 0.03959604 0.07635677 0.02663855 0.08010882 0.1209677 0.056043945 0.08423453 -0.028342664 0.022377044 -0.05876819 -0.02886197 0.08093023 0.19433546 0.09044471 0.06159108 0.08388631 0.020441843 0.033621535 0.040441476 0.08743428 0.09943859 0.068202905 -0.028193677 -0.13589126 -0.08255509 0.03770788 0.075515464 0.046999745 0.08676722 0.023480108 0.107791275 0.10530529 0.15897122 -0.017855221 -0.048994157 0.050569575 -0.074928775 -0.113955736 -0.04729031 0.026070582 0.09578094 0.014579487 -0.018050648 0.11317692 -0.00044696045 0.050797585 0.039200857 0.071363 0.0626864 0.011820034 0.027289508 -0.041797098 -0.053827107 -0.03299902 0.01746345 0.14904606 0.10342753 0.13002373 0.03924284 0.058504734 0.043582316 -0.016221628 -0.028013265 -0.010815343 -0.10587872 -0.10020324 -0.014267212 -0.04830789 -0.036731817 0.068859935 0.004064867 -0.02162199 -0.034884356 0.060401034 0.08450424 0.063922346 0.07636422 0.01312486 0.022237312 -0.04215405 -0.0054521984 0.06243588 0.065972894 0.12293374 0.049856424 0.031035602 0.00093185407 -0.03166146 0.057866223 0.02127385 -0.0773494 -0.050337967 0.026134597 -0.08583909 0.07339586 -0.0218383 -0.09334494 -0.011850488 -0.043087117 -0.049685355 0.05785509 0.054325286 0.10678763 0.031193273 0.011655124 -0.026979137 0.0033258235 0.006186691 -0.00872783 0.10207074 0.096969485 0.12910938 -0.0067053097 -0.00040445762 -0.020240465 -0.061841108 -0.05011191 -0.06488248 -0.08171106 -0.15324262 -0.046475053 0.001475469 0.016153958 -0.03306676 0.02853194 -0.058544163 -0.001842601 -0.05641209 0.025598243 0.0090987375 0.021799529 0.06252423 -0.0063791554 -0.06237306 -0.010017762 0.045257155 0.047957134 0.07210313 0.10811465 0.05509403 0.025050482 -0.046444528 0.0061847996 -0.059043005 -0.08492543 -0.0107145915 0.023017686 -0.022705723 0.043727934 0.04191786 0.025531549 -0.026308853 0.0036875783 -0.11576329 -0.1083257 -0.004021031 -0.022551931 0.007954397 0.0134892855 -0.010732307 -0.046471395 -0.017847002 0.016175905 0.03593866 0.057435706 0.035758168 -0.018943673 -0.027132042 -0.0701158 -0.022918433 -0.051183283 -0.08288575 -0.11289893 -0.1476502 -0.08077392 -0.13047227 0.047506843 -0.023564355 -0.022626381 0.10253244 -0.0012323209 -0.09157073 -0.06250183 -0.038349744 0.015562052 -0.01837273 -0.0077926423 -0.044935487 -0.065318875 -0.07744655 -0.028638216 -0.03566277 0.013470376 -0.06117876 -0.08945082 -0.087979205 -0.043317135 -0.05261381 -0.028499428 -0.07663248 -0.13079016 -0.17783925 -0.045230657 -0.2163337 -0.09089519 -0.07960262 0.0179006 0.12547821 0.013887521 -0.118138514 -0.10045179 -0.018351402 -0.096133284 -0.08065949 -0.036281347 -0.04606795 -0.007088912 -0.09297349 -0.01833305 0.009644831 -0.025196062 -0.08259024 -0.10504536 -0.061122373 -0.13468301 -0.08566687 -0.06832106 -0.096661665 -0.1321935 -0.15788017 -0.03241903 -0.15015619 -0.09474825 -0.040745787 -0.044811193 0.010862345 -0.08459093 -0.087095186 -0.0013062911 0.022861728 -0.017484518 -0.071692 -0.024367563 0.020020667 -0.02128751 -0.04759323 -0.0013907216 -0.002516738 -0.10359976 -0.10480702 -0.04317488 -0.09167842 -0.14791214 -0.13727148 -0.14176668 -0.12631714 -0.08978099 -0.06474036 -0.049955804 -0.16263622 -0.121623926 0.014263012 -0.008925008 -0.018389577 -0.027635802 -0.045052547 0.030542064 -0.05240248 0.06259371 -0.003750374 0.018059524 -0.036778793 0.018084064 0.018914672 0.043853745 -0.051345862 -0.032827727 -0.0732918 -0.064365596 -0.03823341 -0.06314752 -0.06801414 -0.094932996 -0.063210264 -0.031691577 -0.011979226 0.009174509 -0.06781502 -0.13010153 0.020292541 0.032812316 0.0055207955 -0.20591012 -0.14308134 -0.025374481 -0.06477706 0.038457222 0.04299629 0.021011548 0.0049934695 -0.0056290915 0.024751782 -0.02226765 -0.031402074 0.005223047 -0.00047496846 0.009923684 -0.024975419 0.038304873 0.02520633 -0.02029913 0.049230598 -0.022129534 -0.059629552 -0.040095765 -0.11134301 -0.08554189 -0.0099053085 0.032677054 0.018772263 0.05219654 -0.0557193 -0.059075102 0.059581522 0.025039032 -0.0145713305 -0.016255438 -0.039133932 -0.037520353 0.032324947 -0.055256873 0.010739817 -0.046265785 0.029120876 0.012440771 -0.04948556 -0.059803635 0.035832666 0.032129288 0.015188812 0.01680119 -0.006662984 -0.09817851 0.009593983 -0.040042 0.00528729 0.010008825 0.015063916 -0.054917034 0.11989997 0.12391202 0.07067427 -0.010068904 -0.027483577 -0.041168537 -0.03440778 0.02940068 -0.005250136 -0.12349993 -0.08863197 0.05493691 0.059211884 0.085574634 0.04508006 0.0025498532 -0.07341842 -0.071849845 -0.057190582 -0.09534793 -0.076070175 -0.117959365 0.032958478 -0.00046769317 -0.030964639 0.029133415 -0.0309776 0.029772798 0.018340504 0.13339171 0.120662756 0.119977616 0.07419112 0.0840808 0.10559963 -0.017722039 -0.069935694 -0.0228133 0.025951795 0.044761788 -0.051209435 -0.022499448 -0.03680342 0.036169346 -0.077335775 -0.103796005 0.06434111 0.02238046 -0.038225215 0.0024042127 -0.0005342823 0.035325885 0.035278566 0.018740356 0.018367253 -0.013567951 0.011643504 0.026834372 0.086232714 -0.03252695 -0.026908543 -0.0016912407 -0.010564208 0.034254886 -0.03401308 -0.002032811 0.09233482 0.103400394 0.0576928 0.09153033 0.21099064 0.13091686 0.06534541 0.120622784 0.15351917 0.14395805 0.09183652 0.011933328 -0.03050823 -0.0035693818 -0.013138708
-0.011343484 0.014202599 -0.0018164176 0.019832075 0.007788403 0.007518628 0.0058618914 -0.018328756 0.0033973756 0.015670922 -0.028020993 0.023611538 0.0046333214 -0.014321223 0.030929089 0.021550218 0.004960103 -0.029649412 -0.022468146 -0.010973812 0.018158998 0.017923633 0.02891955 -0.014461058 0.034816097 0.01724556 -0.011064517 -0.03434491 0.027093638 0.02729471 0.014409628 0.018573131 0.03646567 0.02360002 -0.0032406074 0.028424917 0.006809756 0.038522437 0.028328368 0.015641017 0.044216853 0.12836169 0.03087475 0.080742106 0.17586079 0.11139927 0.16809058 0.12434858 0.08547827 0.054525174 0.038425308 0.034923628 0.013925387 0.016842686 0.0039442866 0.012031023 0.025797296 -0.012070682 0.032878518 0.043057058 0.060200494 0.013060786 0.078417294 0.043231934 -0.02155534 -0.11834621 -0.07853703 -0.04433584 -0.039052688 -0.04547392 -0.092738286 -0.007496779 0.044421308 0.19399829 0.16103363 0.18226668 0.15802217 0.18229009 0.18001062 0.13818347 0.07392822 -0.008075909 -0.029451456 -0.012112806 -0.008556026 0.034131 -0.061005123 0.033645887 0.115936026 0.018020907 0.077235885 0.03763048 -0.088700496 -0.052380804 -0.14063077 -0.09486542 -0.052282263 -0.066857435 -0.021982236 -0.019994749 -0.03165115 -0.036921814 0.20944858 0.23399429 0.14864615 0.25204414 0.1306458 0.048163366 0.041880786 -0.016441291 0.05906222 0.005890404 -0.015460734 0.039799422 -0.08198281 0.1006133 -0.04357884 -0.07458494 -0.08734829 -0.02383593 -0.05593241 -0.016620783 -0.061167862 -0.084140524 -0.18894906 -0.13112284 -0.17056462 -0.106477894 -0.02891202 -0.005545391 0.06644966 0.053782646 -0.001342724 0.029006459 0.08308364 0.07837531 -0.013344489 -0.023957975 0.115564466 0.05566826 -0.035414062 0.020740956 0.042157207 0.083161935 -0.1305128 -0.058020208 -0.10772116 -0.11730479 -0.083211385 0.004891802 0.026032992 -0.082126096 -0.11838175 -0.01689287 -0.043644547 0.018737135 0.010951832 0.0835066 0.091231115 0.05579248 0.07492041 -0.0017953275 0.08172977 0.11263126 0.077771954 0.07833705 0.13711797 0.056611214 0.023614697 0.045922287 0.11051388 -0.018461352 -0.021161767 -0.018313281 -0.10180239 -0.0377254 -0.039017156 -0.0765532 -0.04481811 -0.109066 0.03139863 -0.029859385 0.038594685 0.06772043 0.041149415 0.10404868 0.09544693 0.09003482 0.09742232 -0.050367877 0.07081968 0.05576697 0.23541829 0.29025003 0.15635605 0.081956975 -0.030917915 0.098763384 0.10794094 0.023275645 -0.07243493 -0.04609731 -0.1534367 -0.04469011 0.03932635 -0.017294561 -0.02132268 0.042050213 -0.013535544 -0.018810527 0.14907648 0.13893424 0.13096836 0.14917502 0.15023555 0.13425867 0.065831564 0.07411822 0.08511507 0.0141809955 0.07436195 0.099529766 0.23132429 0.09334331 -0.0012782727 0.086916596 0.059200376 0.11339047 -0.020511232 -0.07118035 -0.08920394 -0.006680683 0.014406288 -0.0042850296 -0.102636635 -0.013285299 -0.0062508173 0.018700993 0.06685573 0.09105277 0.11770784 0.10543596 0.039548792 0.0602464 0.047822423 0.062845655 0.03908676 0.019295884 0.07710423 0.092642106 0.10179069 0.008510547 0.0010242888 0.08081139 0.021867787 0.0021974596 0.107032895 -0.028902654 -0.096830085 -0.029087039 -0.02730931 -0.10010068 -0.09431569 -0.111313656 -0.08324468 -0.04226114 -0.03757237 -0.08474053 -0.1780579 -0.21688522 -0.10745718 -0.08929375 -0.076261744 -0.14613676 -0.033509422 -0.08120221 0.03399997 0.1343508 0.04394375 0.040683035 -0.020180635 0.100671016 0.048400965 -0.09667046 -0.005027366 -0.0622329 -0.08173342 -0.07330597 -0.07305991 -0.05445969 -0.15035582 -0.09509432 -0.024914518 0.02294706 -0.02973204 -0.11933963 -0.247955 -0.33368117 -0.2634093 -0.251696 -0.25144318 -0.3034314 -0.1569558 -0.18870246 -0.068096325 0.016443403 0.09842838 0.03201563 -0.006548405 0.0998238 0.0032848474 -0.08426579 -0.010941944 -0.12536958 -0.022742495 -0.07517185 -0.07316559 -0.047451798 -0.07279996 0.0056563327 0.057347633 0.104861826 -0.02235553 -0.15043409 -0.25939873 -0.27696764 -0.21418695 -0.2187593 -0.43802544 -0.32795155 -0.1814999 -0.1735943 -0.21168311 -0.122016184 0.024755858 0.06011851 -0.010799911 0.07909144 -0.022122394 -0.0035798016 -0.03509958 -0.05647394 -0.08994541 -0.023911962 -0.0075092395 0.02763985 0.040646885 0.15603907 0.11225048 0.1334657 0.08171561 -0.11295296 -0.13184214 -0.12395018 -0.11064817 -0.27264243 -0.3804069 -0.31492025 -0.25216866 -0.15220116 -0.24451381 -0.15121104 0.027656518 0.08023255 0.03322635 0.05735997 0.02805395 0.036612004 0.0002583092 -0.06800039 -0.022133442 0.07833527 0.030046182 0.0074970163 0.104002 0.13847555 0.1134302 0.08824103 0.01350359 -0.1093226 -0.08664462 -0.10911026 -0.07128604 -0.07201785 -0.15167977 -0.18683666 -0.29654077 -0.13375081 -0.22466184 -0.17384458 0.000142881 -0.024730083 0.046842515 -0.0045961384 -0.044368673 0.08000484 -0.039595366 -0.07667898 0.015715776 0.17492338 0.04629413 0.04463082 0.07374648 0.067120045 0.06880626 -0.06445488 -0.021357657 -0.063036025 -0.050917327 -0.016643949 0.047787253 0.013404979 0.046956196 -0.069947526 -0.1269091 -0.122670665 -0.08389386 -0.07083868 -0.07665118 0.02862499 0.07047804 -0.049323518 -0.03476069 0.031699654 -0.030101918 0.08336443 -0.00036038103 0.09437537 0.04890264 0.07791925 0.03662487 0.016895115 0.04862724 -0.05857877 -0.14712803 -0.096600026 -0.03286344 0.025962599 0.067664094 0.075409666 0.10600041 0.10280945 -0.038087536 -0.040309038 0.03035675 0.055603765 -0.054983925 -0.031231372 0.009662369 0.0272882 0.04177683 0.03688188 -0.054644644 0.030531846 -0.12968184 -0.010856898 -0.028349835 -0.00022864551 0.0041128234 0.05738732 -0.003701134 -0.098622896 -0.06891893 -0.068520136 -0.00059639267 -0.0046112635 0.06655271 0.06448175 0.078904845 0.051978335 0.07717648 -0.019487003 0.055926953 0.16949132 0.1538692 -0.018866615 -0.017834818 -0.010668986 0.07086452 0.07006154 -0.024540255 -0.095528446 -0.056667306 -0.030831411 0.01236685 -0.039365083 0.08517123 -0.009817449 -0.059437927 -0.1134124 -0.11926743 -0.07659659 -0.056101885 0.023603296 0.07384292 0.11102283 0.0732639 0.08983389 0.07968129 -0.10235138 -0.055858035 -0.103787966 -0.13673078 -0.008397467 -0.007825983 0.018040622 0.05110302 0.0868627 0.051248193 -0.06236603 0.015391086 0.020643836 -0.061887357 0.0076535065 -0.074054495 -0.100388706 -0.12376547 -0.10724646 -0.10777809 -0.04284213 0.0012028359 0.0693346 0.08369047 0.06544144 0.019664625 0.055957936 0.022192515 -0.08988041 -0.0651346 -0.113578655 -0.16870402 0.026955118 -0.026881048 0.020520132 0.12947555 -0.038763285 0.011546782 -0.053883083 -0.041772127 -0.064418554 -0.0032056635 -0.04083586 -0.025937907 0.008195272 0.0976136 -0.010358311 0.026236877 0.04410711 0.036478564 0.033615302 0.040406212 -0.05625619 0.06566905 0.08341668 0.09038074 0.060091548 -0.015209423 -0.057679046 -0.07803368 0.025370099 -0.0020143986 0.026348798 0.060051907 0.009083663 0.027649388 0.018841673 -0.045092463 -0.029750401 0.012045453 0.0701127 0.0376251 0.07820595 0.17172188 0.11649794 0.07793419 0.10317419 0.051369946 -0.0072128065 0.06542747 0.06863292 0.06837741 0.076335244 0.112296075 0.05528222 -0.033172302 0.003041421 0.0046480643 0.038580913 0.035655078 -0.03273697 -0.059431065 0.018034933 0.056754854 -0.01019482 -0.06531636 0.0043584723 0.049542617 0.108488254 0.041941844 0.115038805 0.2169261 0.12306186 0.13736466 0.07718426 -0.00575758 -0.011705491 0.022052577 0.03037252 0.05295173 0.07821596 0.09146939 0.1270973 0.08708651 -0.053313836 -0.023025349 -0.017627329 0.0060432088 -0.014249581 0.010461575 0.17216988 0.13791788 0.07395445 -0.03699455 0.027329326 0.065815754 0.082205094 0.13683097 0.09390571 0.10119842 0.06861423 0.017087482 0.07712494 0.04062691 0.04719148 -0.010820348 0.017168572 -0.0077470127 0.0065803193 -0.027441118 0.090133734 -0.060983043 -0.09273816 0.071417116 -0.014267375 0.016227212 0.028146502 0.18549964 0.19796589 0.2490016 0.23589128 0.10469522 0.061089426 0.06919085 0.14983682 0.106745146 0.10974718 0.037110783 -0.050716247 -0.0635087 0.007584885 -0.025476594 -0.011674548 -0.060994826 -0.06682 0.054626014 -0.042897042 0.017641643 0.013900867 0.02778496 -0.07226419 0.10846095 0.034465592 0.003931259 0.018058833 -0.060829267 0.076665856 0.17347974 0.13413948 0.17388798 0.20152351 0.13089874 0.1660278 0.056129925 -0.037737638 -0.020959157 -0.00047360556 0.062757626 0.0252831 -0.01432 0.045992795 0.11872962 0.021452865 0.04796827 -0.041392013 0.030044995 -0.1061948 0.051750924 -0.017480876 0.046071738 0.0095738685 0.0045001595 0.029011805 0.07773137 0.061497394 0.072525114 -0.021724617 0.004877861 0.06550937 -0.016899982 0.06581869 -0.06806995 0.00900259 0.09817886 0.02740032 -0.039985444 -0.011728688 0.01448266 0.038422994 0.15677775 0.14790265 0.12881154 0.13104534 0.18259998 0.036422152 0.05464325 0.009472418 -0.0350657 0.003270507 0.009517338 0.008014117 0.020230098 -0.0332112 0.011943024 -0.00047760943 -0.088231795 -0.23036984 -0.23882173 -0.10850815 -0.027282286 -0.018466491 0.012031111 0.012852901 -0.0597511 0.042870123 0.119752996 0.11269755 0.067577526 0.04124677 0.01793752 0.08694553 0.07399857 0.069743566 0.0075556086 0.0049725603 0.0055366885 -0.014976693 -0.03003783 0.005763148 0.0036815065 0.0074874973 0.033214923 0.019451313 -0.0033993262 -0.031492367 0.00047026528 0.01849112 -0.019048436 -0.024186786 0.008771437 -0.010300669 -0.022883609 -0.044401713 -0.03556158 -0.0016156622 -0.028217057 -0.04313366 -0.03597608 0.00013795406 -0.007380623 -0.004199897 -0.026611146 0.031505354 -0.0070379763 -0.0051179277
0.034730315 -0.0145977065 -0.018250518 -0.010071125 -0.016352586 -0.026140189 0.025942603 -0.008221286 0.017351395 -0.0050352216 0.008440797 -0.023525758 -0.020551287 0.012088964 -0.03175152 -0.018492062 0.0032453113 0.024407847 0.027320871 0.0016182278 -0.017194012 0.032764833 -0.02725618 -0.032285802 0.028637901 -0.016833818 -0.015876865 0.032575898 -0.011104954 -0.0076877736 -0.020516153 -0.009317441 -0.022267602 0.0014708553 -0.006277208 -0.025184475 -0.015850348 0.00634033 -0.0064941356 0.02728232 0.026737751 -0.019330366 0.036653247 0.053063538 0.0126476865 -0.018321613 0.03223607 -0.026119012 -0.026389046 0.003668683 0.020793974 0.0019881811 -0.023112426 -0.004813152 -0.031084169 0.01827917 -0.035240784 0.0116703985 0.0073352074 0.0072695916 -0.01632715 0.005241627 -0.008003597 0.029867427 -0.008863192 0.032454666 -0.049069673 -0.02925174 -0.049814407 -0.07359613 -0.026707323 -0.028985882 -0.056622483 0.0035984332 -0.05393638 -0.05571934 -0.039000265 -0.05504177 0.009601007 -0.011442066 0.02704592 -0.008755467 0.020834805 0.032241523 0.015596995 -0.02625663 -0.032026403 0.006835184 -0.046481647 0.0001258938 0.0027941 -0.043343034 -0.065041296 -0.007099271 -0.023401584 0.0122935735 -0.043805502 -0.10715963 -0.028262312 0.022989942 0.014547004 -0.024711777 -0.0052124914 -0.075050175 0.022672828 0.07510926 0.03780391 0.06702077 -0.017405445 0.016501028 0.005285353 0.030474469 0.0019070805 -0.00022089908 0.0055465954 0.013160927 -0.029883001 -0.085511 -0.08030384 -0.07323054 -0.033434004 -0.03386067 -0.1547794 -0.13146242 -0.169286 -0.1421361 -0.14943807 -0.05624698 -0.019890882 0.037320398 0.060968693 0.03604394 0.07785794 0.060278106 0.060117446 0.03305855 0.06520076 0.009761001 0.01923161 -0.019708252 -0.030461598 -0.026968952 -0.019412672 0.03594032 0.009146597 -0.12452993 -0.09492289 -0.12390792 -0.06369228 -0.03798006 -0.08560546 -0.1491985 -0.11543867 -0.08923632 -0.013126887 -0.040782783 -0.037725884 -0.0020165895 0.014226873 -0.025123112 0.024049811 0.016849495 0.028081581 0.0021118138 -0.011991419 -0.0177688 0.013970117 -0.012678466 0.028481562 0.034549605 -0.0022430301 0.11198834 0.00076068734 -0.13459904 -0.15464078 -0.12662856 -0.1277027 -0.15729143 -0.1574929 -0.1738493 -0.21493818 -0.14391237 -0.1281434 -0.13310538 -0.10651677 -0.11563127 -0.035916433 0.0071213613 -0.06188863 -0.030394297 -0.03004744 -0.0458191 -0.057903115 -0.05529484 0.00020886451 0.028683957 0.0026473277 0.031375427 0.16331443 0.022151979 -0.043707084 -0.13520999 -0.08672024 -0.098360226 -0.14887357 -0.21364288 -0.2775399 -0.19693577 -0.19324043 -0.20381048 -0.20952937 -0.24001534 -0.13919789 -0.09814887 -0.043109443 -0.052879967 -0.089263014 -0.14747846 -0.11086122 -0.0110898595 -0.10221865 -0.0662187 -0.11059876 -0.0034030976 -0.025441576 0.078233406 0.02957416 0.024174951 0.08227559 -0.11334833 -0.034041185 -0.108484864 -0.18777433 -0.21384518 -0.18303737 -0.2092795 -0.11275762 -0.18780749 -0.23075494 -0.2380998 -0.16313352 -0.16476713 -0.074351475 -0.11632646 -0.14815117 -0.20345065 -0.102845594 0.007060237 -0.0028118142 -0.073011406 -0.0620205 -0.033811867 -0.00395992 0.10762535 0.09595422 0.095601544 0.08963545 -0.01577701 -0.040942073 -0.09893898 -0.09594232 -0.034816697 -0.10847895 -0.10267722 -0.092714064 -0.24107286 -0.23594067 -0.24827725 -0.17562129 -0.07584532 -0.080219515 -0.0978534 -0.05221475 0.027516136 0.077757105 0.15295862 0.14095601 0.075456806 0.06169698 -0.009396008 0.024944851 0.11578241 0.1480766 0.0861742 0.12857328 0.09902926 0.010619515 -0.018373149 -0.0064253085 -0.013902941 0.00207194 -0.12303301 -0.17475395 -0.22396563 -0.16509603 -0.035208967 -0.064060174 -0.0032992424 0.0043675327 0.066927955 0.08029881 0.11585549 0.16484502 0.21687698 0.12587617 0.12698919 0.04593836 -0.0024367955 0.03277249 0.084512465 0.11083674 0.14447959 0.17316099 0.13286649 0.055812035 0.08885704 0.02615957 0.040915884 0.01688297 -0.0058106603 -0.0046672774 0.044861957 0.036213625 0.041193705 0.05592283 0.08524564 0.12587494 0.13253452 0.1172743 0.1911864 0.1808267 0.26084754 0.11031451 0.08408514 0.06419219 -0.009955305 0.016385365 0.050541684 0.12611713 0.09771495 0.16667251 0.09707986 0.03175328 0.12401642 0.06273387 0.11835237 0.10378668 0.15781938 0.18053001 0.08482987 0.068239346 0.11028868 0.087493576 0.145382 0.10510109 0.06655925 0.12600721 0.16036196 0.13368748 0.061708808 0.032711904 0.007562586 0.026681097 -0.030953089 -0.012373904 0.0019604084 0.08091632 0.07730023 0.13222706 0.10127748 0.061935373 -0.0013138832 0.05567336 0.07471616 0.07965552 0.14917237 0.10999219 0.092876606 0.072765864 0.102707624 0.06729966 -0.01161683 0.060386505 0.002315759 0.0899445 0.15625377 0.14208452 -0.046230804 -0.05485618 -0.0031161206 0.02051058 0.011029023 -0.031489372 0.015120675 0.10942913 0.0518617 0.08386045 0.071039565 0.020399665 -0.026607556 -0.023784347 -0.013031504 -0.055207517 0.0006036473 -0.024964727 0.013296222 -0.06981167 -0.09300794 -0.12963857 -0.08183852 -0.09046605 -0.0070017446 0.08455834 0.15648389 0.11275775 0.03587847 -0.08364988 0.025315683 0.0031976574 0.008383798 0.010149803 -0.031815957 0.07154101 0.030798513 -0.042802908 0.054182388 0.039498076 0.03606402 -0.078019194 -0.06474743 -0.09852187 -0.02482449 -0.06706111 -0.113174535 -0.101265796 -0.062753305 -0.06519059 -0.019270174 -0.06108443 0.008038325 0.11046563 0.12289744 -0.005275328 -0.122327864 -0.12109777 -0.067102656 -0.019314192 -0.021303914 0.028725285 0.019606609 0.05798789 -0.024207093 0.0733879 -0.010639039 -0.04147272 -0.067312025 0.0008857285 -0.043393295 -0.002294159 0.018746769 -0.01118344 0.0072712316 -0.029918313 -0.008808557 -0.023928043 -0.0775862 0.0042147366 0.052560743 0.132711 0.15505965 0.039930064 -0.1523747 -0.118065335 -0.039909117 0.0048325276 0.046696156 -0.021352721 0.0078268945 -0.08769079 0.011534813 0.011022503 -0.001095924 -0.03251582 -0.042618286 0.0018122462 0.023826722 -0.00033674925 0.06171098 0.06900401 0.056089744 -0.05093152 0.0016358844 -0.037185088 -0.043318596 -0.032876626 -0.007728365 0.06852285 0.10850904 0.03753869 -0.1735658 -0.17712551 -0.050391376 0.017777622 0.017844027 -0.022222448 -0.028071597 -0.049027734 0.06697069 0.15342025 0.015671646 -0.044866733 -0.054670874 0.01038926 -0.007898328 0.029800765 0.09626518 0.06152422 -0.021538667 -0.022998022 -0.056970663 -0.10253745 -0.027903484 0.010117807 -0.016455267 0.04477738 0.040909063 -0.07585643 -0.1536796 -0.1287256 -0.01815262 0.0046515637 0.034826893 0.025050683 -0.025786545 -0.0352169 0.028132457 0.14914554 0.059769463 0.010873597 -0.009175568 -0.008382433 -0.09335025 -0.10348969 -0.06778033 -0.11858337 -0.04412814 -0.06292707 -0.11311463 -0.03930607 0.0072816825 -0.012325468 0.017527003 -0.021349756 -0.05442472 -0.1011002 -0.16873936 -0.117862806 -0.010710795 -0.0021271324 -0.017080452 -0.02020007 0.029678248 -0.042608704 -0.06801319 0.06416585 -0.012189356 0.09024331 0.07632896 0.06892425 -0.047173515 -0.10170096 -0.095776774 -0.16616476 -0.15129758 -0.08863203 -0.09340101 0.0031371966 0.022008212 0.049519517 0.038586684 -0.056340948 -0.08712351 -0.052478425 -0.09291402 -0.086078435 0.03627975 -0.0064382046 -0.016708642 -0.02849795 0.019744085 -0.0217322 -0.06424167 0.004423321 -0.011529105 0.023822546 0.058654435 0.07568935 -0.07927323 -0.09060354 -0.11969743 -0.14882188 -0.14167587 -0.04388995 -0.0049325717 -0.026619062 0.014247921 -0.00869479 0.030728642 -0.043972142 -0.114938274 -0.08735979 -0.07697573 -0.05878977 0.01018491 0.024356367 0.0091817 0.029739253 -0.0022157007 -0.016772116 0.00020466297 -0.02835539 0.016860101 -0.050425563 0.02804694 0.083669096 0.030100746 -0.061341543 -0.11253941 -0.12813157 -0.020313194 -0.039443284 0.02021343 -0.06595782 -0.073456764 0.0052859895 0.022231074 0.00023052708 -0.09654753 -0.00429732 -0.045907818 -0.041167818 -0.004852853 0.031839173 -0.01701679 0.013974876 0.027640242 -0.016649885 -0.04836572 -0.0021425942 0.017622024 -0.08982646 0.026465459 0.07688916 0.026090292 0.022390934 -0.028252233 -0.09982579 -0.0067103407 0.015841357 0.032324437 -0.03654139 0.017257921 -0.029881805 -0.031126153 0.0008104804 -0.033452965 0.009799219 0.010236236 -0.06265772 0.014683784 -0.03445511 0.018701721 -0.021062085 -0.009136026 0.00448448 -0.0035351363 0.084843725 -0.034068782 0.022074446 0.06312048 0.0674539 0.029171806 0.0106033115 -0.013670275 -0.017511677 0.06091717 0.036402002 0.0125718815 0.028051807 0.043985043 -0.01975724 -0.015892666 -1.4401921e-05 0.03829085 0.017877875 0.035236206 0.024095181 -0.0108012175 0.035132762 -0.0019684562 -0.011770667 -0.020463552 0.0018276828 0.035686985 -0.0042457343 0.012815258 0.108403 0.026618568 0.012427329 -0.023932759 -0.07071616 -0.004200694 0.025567248 0.013135894 0.06586628 0.0224214 0.02785743 0.04833514 0.050303664 0.10196067 0.07263292 0.029215558 0.13255961 0.0703129 -0.017330732 -0.019168187 0.0009804496 -0.0096427975 -0.033953097 0.027742077 -0.00037541988 -0.020324882 0.029020924 0.056422204 0.13032277 0.10742109 0.04461845 0.013178727 -0.05219509 0.09306839 0.023368644 -0.017979957 -0.0378593 0.046246678 0.033831194 0.011106446 -0.0134125175 -0.047711156 0.12130459 0.06265378 0.10654729 0.12281742 -0.0003560058 0.013171515 0.012097304 0.032175023 0.015051344 0.033365354 -0.016298274 0.028321961 -0.035038453 0.005691544 0.05302281 0.06742174 0.054793935 0.055284347 0.019141536 0.06752757 0.19257607 0.2637702 0.13281636 0.14226407 0.15293254 0.15229651 0.21528533 0.13933896 0.11807232 0.08932696 0.11062906 0.06630383 0.007919563 0.014750315 0.02724307 0.011801989
-0.02567282 0.018351313 0.025264967 0.019991169 0.00893466 0.014711108 -0.0033269527 0.005199637 -0.00014590366 -0.01677236 0.0021822625 -0.0017331457 0.0066428017 0.030366601 -0.012921061 0.013938372 0.029114116 -0.006364486 0.020635068 0.019651694 -0.021420332 -0.029453296 -0.015896091 0.029988255 -0.0043079387 -0.03020448 -0.03445579 0.028923338 -0.0035685601 0.0035725366 0.020864757 0.033265606 -0.031951975 0.026625307 0.008341262 0.008173211 0.02067489 0.008161311 0.025765441 -0.002004036 -0.030309053 -0.008528222 -0.011212913 -0.036683265 -0.008275747 0.022075564 0.017098015 0.0064270208 -0.027150858 0.013722462 -0.035627015 -0.033757597 -0.008289355 0.0009998339 0.0035051194 -0.00042491726 -0.029817488 0.014615022 0.027910616 -0.020557234 0.0040903008 0.013397475 0.02651099 -0.030620024 -0.02858372 -0.09610406 -0.10243367 -0.060214754 -0.06857915 -0.04639358 -0.07265345 -0.013331503 -0.06712948 0.068403535 0.08262666 0.077717826 0.101319075 -0.0014960967 -0.058899343 -0.056547333 0.0028768482 -0.028253863 -0.024352493 0.028154716 -0.013266364 -0.0185363 -0.025472667 0.02060653 0.07845639 0.036673024 0.13023183 -0.06393796 -0.13585714 -0.10890457 -0.11301175 0.005032217 0.06486352 0.04093219 0.05025037 0.0027808575 -0.006090908 0.089412436 0.20482883 -0.004363575 -0.039203484 0.007232103 0.04985253 0.069876485 0.040828824 0.014772113 -0.025720155 -0.02556311 0.029367909 0.02759149 0.096313365 0.13282488 0.12652293 0.02742869 0.10243138 0.003969968 0.04820346 -0.017450586 0.037187673 0.058631457 0.0063783736 0.034529444 0.050433807 0.07089264 0.030198442 -0.07518803 0.024242781 -0.04451331 -0.04795994 0.08866854 0.14329512 0.0095441 0.008920946 0.08365268 0.06578312 -0.03144575 -0.03195967 0.00095783814 0.056592017 0.04428206 0.19983906 0.09880453 0.11935235 0.07911854 0.082347795 -0.0032086477 0.03867375 0.0576609 0.017143743 0.049757056 0.019279966 0.010340919 0.046040244 -0.02745516 -0.06396318 0.05061155 0.0016235537 -0.04317094 0.02711156 0.041327436 0.061531235 -0.09639337 -0.16636878 -0.07790629 -0.0184306 0.0880245 -0.06488684 -0.03177903 0.06729635 -0.02899665 0.06479982 0.025035143 0.044356547 -0.017120138 -0.009146067 0.035693757 -0.013742874 0.10128398 0.0750173 0.043116484 0.05535865 -0.009180738 0.015406524 -0.08196661 -0.037970744 -0.004633667 -0.04119673 -0.086675964 -0.07193101 -0.13944969 0.001052706 0.1021217 0.015868383 0.04779648 -0.012707075 -0.015367241 0.05838021 0.022680124 0.0022817522 -0.013734966 0.03148781 -0.025846226 -0.043394584 -0.007567697 0.10493583 0.09982073 0.08409188 -0.0033032543 0.027651884 -0.004272494 -0.064218566 -0.0013367156 0.0099359695 -0.08625298 -0.14448251 -0.20209412 -0.098638415 0.034968805 -0.018023133 0.10519841 -0.012380631 -0.078955196 0.045475416 0.02668911 0.054426778 0.05298741 -0.0031973145 0.0033733996 0.01700644 0.00020666902 -0.004749923 -0.002322358 0.022856256 0.023885053 0.0316701 -0.0024487006 0.059147466 -0.013172608 -0.034435194 -0.01635136 -0.06052853 -0.071263105 -0.049016755 -0.19641426 -0.18306918 -0.14349923 -0.047121465 0.027840367 -0.0482755 -0.084865406 0.05061188 0.13246937 0.06623629 -0.0014386307 0.05336627 0.023766961 0.037096005 0.034231137 0.026113953 -0.03475527 0.013129265 -0.009562127 0.020361792 0.00097473233 0.009571512 -0.028877292 -0.024730789 0.020915635 -0.031434424 -0.08682198 0.01080849 0.06548466 -0.076387145 -0.009658365 0.031721022 0.11156641 -0.033062723 -0.067358345 0.03147454 0.18810885 -0.026117146 -0.05717941 -0.021252954 0.043827716 0.05492539 0.007451875 -0.06400341 -0.03557107 0.034478568 0.031131143 0.0411141 -0.08458935 -0.0032430084 -0.002199847 0.014637891 -0.009954252 0.04551972 0.06835594 0.07402306 0.17281298 0.17695603 0.18501692 0.24481562 0.1613423 -0.0037371847 -0.049264442 -0.07528153 0.013725923 -0.045602266 -0.06993113 -0.08177986 0.028355472 -0.04185661 -0.073155604 -0.108213514 -0.014027073 0.050760716 0.12277021 0.0605242 -0.0054140473 0.03481796 0.0551282 0.09243176 0.05479537 0.09590164 0.13394028 0.21889053 0.20342454 0.11750082 0.17567804 0.18795118 0.16345859 -0.03219488 -0.025393136 -0.10632984 -0.12540148 -0.011411217 -0.00038789908 0.016246578 0.05787259 -0.0037028405 -0.058514163 0.07052551 0.03649908 0.06375933 0.07866207 0.077522635 -0.072177835 -0.06009657 -0.02480513 -0.0043389127 -0.015207768 -0.013904593 0.013115797 0.12246541 0.18309858 0.066661656 0.067067176 0.08866609 0.07211131 -0.04173978 -0.10210076 -0.08789204 -0.1578684 0.0041121193 0.09256794 0.056262378 0.039040178 -0.030609533 0.043079358 0.07151258 0.07217584 0.081918895 0.13006672 0.09210666 -0.003512546 0.015863648 -0.057447016 -0.018444896 -0.067158036 -0.067562416 0.020180693 0.039916478 0.046880536 0.095151484 -0.042554587 -0.051283453 -0.04880229 -0.0031878634 0.031289183 -0.08961556 -0.17776348 -0.062474012 0.027035704 0.11486407 0.08489497 0.034743343 0.08300778 0.06249705 0.044143423 0.10684935 0.12020052 0.08989013 0.058226522 -0.010839103 -0.07997061 -0.036024258 -0.060351066 -0.007781666 0.076621346 0.039619863 0.032791745 0.052687865 -0.20064901 -0.11727177 -0.056525018 -0.019932136 0.047364064 0.06965546 0.025726264 -0.23309462 -0.1082417 -0.07124614 -0.13666628 -0.080809765 0.08378354 0.17472015 0.21464184 0.1945856 0.08195024 0.054696925 -0.04275407 0.010943326 -0.011808904 0.0009780781 -0.09843568 0.033062156 0.12549023 0.0890844 0.06762632 -0.059789155 -0.23541588 0.016215632 0.019960266 0.032142293 0.09223454 0.15361878 0.06831418 -0.31156752 -0.38332412 -0.39085433 -0.2652433 -0.27736032 -0.13945916 0.056855626 0.20619336 0.20537484 0.09991929 0.009280824 -0.08664661 -0.03513848 -0.032876927 0.042293135 -0.058295883 0.018448997 0.017991226 0.031887908 0.02038049 0.025020454 -0.25109217 -0.19035809 -0.0071370266 0.034745142 0.027984945 0.15840578 0.0052452106 -0.21174052 -0.3234296 -0.44793105 -0.35178205 -0.49055523 -0.5646002 -0.5244651 -0.26722792 -0.18623325 -0.12991197 -0.17241414 -0.057927053 -0.10263382 -0.06255084 -0.020348188 -0.01524236 0.010076846 -0.017822705 0.0073509994 0.049533937 -0.0873774 -0.12404629 -0.010505174 -0.0002582962 -0.047197383 0.008666721 0.19746836 0.0044146036 -0.12618135 -0.3285372 -0.36122355 -0.37324098 -0.498247 -0.7026197 -0.7309118 -0.6859488 -0.5558481 -0.4086108 -0.15510227 -0.057173736 -0.04847655 -0.07144528 -0.041101374 -0.015350454 0.014830384 0.03327243 -0.003804694 -0.07499315 -0.2568074 -0.02223608 0.021489158 -0.009941121 -0.025748339 -0.059421126 0.024876852 0.115716144 -0.06816664 -0.11470303 -0.23210396 -0.2576002 -0.28972772 -0.35365427 -0.3746769 -0.42903468 -0.398176 -0.26554787 -0.080979206 -0.06551693 -0.006898252 -0.018590482 -0.017979436 -0.02950909 0.024385277 0.054958377 -0.07414709 -0.0018284327 -0.12474146 0.0876158 -0.050712083 -0.038410306 0.007934502 0.00388927 0.033036813 0.11836465 0.02554593 -0.03942077 -0.027341427 -0.031631522 -0.0019091637 -0.031465486 -0.07703418 -0.12059264 -0.109445624 -0.046494935 0.008180521 -0.0373231 -0.0073258705 -0.029739004 0.0145788705 -0.046244808 -0.008991967 -0.06664093 -0.06804267 0.03689238 -0.01393444 0.08660062 -0.010669701 0.025387958 0.014861504 0.008397174 0.007963009 0.125501 0.13139325 0.061064124 0.07649518 0.065949865 0.093989015 0.059924625 0.09134657 0.1467926 0.161364 0.1275882 0.04372041 0.03352291 0.005859561 -0.056518637 -0.04067223 0.003914275 -0.06586683 -0.08512006 -0.05408894 -0.036927793 -0.1441132 -0.06851828 -0.020610217 -0.02560493 -0.032078575 0.03484225 0.020436604 0.163736 0.1806781 0.2010395 0.073778234 0.1073973 0.14069265 0.03758935 0.1712472 0.19780678 0.1583932 0.08822935 0.0250358 0.011035625 -0.04069686 -0.08841971 -0.08561925 -0.04444202 0.030736454 -0.07216295 0.035773855 -0.005561442 -0.09430503 -0.08909782 -0.02902032 0.0028216206 -0.027216474 -0.02527962 0.19027616 0.23840794 0.2627632 0.2059024 0.086830944 0.14428319 0.15162085 0.12240863 0.20874041 0.17574257 0.10628118 0.065742575 0.040126774 0.0062646116 -0.009488753 -0.01356669 0.031271912 -0.016838985 -0.056437846 -0.06902196 -0.10441043 -0.027227435 0.017634222 0.0015932997 0.096990034 -0.0044606626 0.010704118 0.022612644 -0.0352859 0.0552016 0.23681332 0.15237543 0.1504351 0.15566099 0.14434107 0.14896318 0.18450151 0.12526116 0.07584797 0.11586027 0.03573121 0.030956954 -0.0075928224 -0.0049401512 -0.012740621 -0.1297075 -0.07147556 0.04960019 -0.08261732 0.053599913 -0.025838424 0.034171656 0.0611726 -0.013099309 -0.023391487 -0.025335854 0.12358563 -0.018957207 0.112389974 0.24455093 0.24544491 0.14923468 0.07855683 0.11219705 0.17408222 0.07412324 0.118306585 0.1409572 0.046699867 0.029381093 0.022688987 -0.013533527 0.019516904 0.00537962 -0.0036934575 -0.03341854 -0.014589377 0.05732468 0.119346395 0.10054119 0.0035637363 -0.024151096 0.0009934519 0.00743393 -0.02307457 0.06164196 0.1513937 0.21949401 0.27722806 0.117838584 0.015911782 0.07073483 0.11450054 0.10745738 0.086516455 0.083661065 0.17772889 0.17758454 0.23326284 0.25913662 0.19702248 0.16046669 0.19944279 0.13277113 0.026549034 0.034233727 0.0045894855 -0.02977198 -0.010066305 0.020410411 -0.00232135 -0.0054719024 0.02877479 0.015786164 -0.069821715 -0.0456844 -0.0930822 -0.074161924 -0.05776967 0.0016681864 0.009803432 0.075723365 -0.033970535 -0.08242007 0.09433706 0.095611714 0.037878234 -0.047768477 0.057788447 0.1098763 -0.02129296 0.035863638 0.05180181 0.030921878 -0.01857031 0.028135795 -0.028839372 -0.02673405
-0.031181559 -0.02278569 -0.0116213355 0.01184352 0.0059451764 0.02246228 -0.023675907 0.001603348 -0.0142964 0.0036562001 -0.028999811 0.0083728945 -0.09170256 -0.0881412 0.022491468 -0.016237084 0.027550712 -0.019956445 0.013278906 0.013433389 0.006755629 0.03217739 0.011879713 -0.005717308 -0.023797283 0.02759954 0.002670237 -0.030383222 0.031726774 0.031450797 0.0037778872 -0.035639834 0.01992784 -0.055039514 -0.08514287 -0.09791484 -0.053716194 -0.04462908 -0.06131421 0.01727309 -0.032890253 -0.049454387 -0.0907199 0.02949193 0.027786957 -0.078703634 -0.12372661 -0.034714013 -0.02136007 0.00056595326 -0.039908055 -0.012062417 -0.010618589 0.008018277 0.030717328 0.026459826 -0.0010991821 -0.033221003 0.009405663 -0.07028788 -0.056222208 -0.027526626 -0.08075064 -0.14962438 -0.12544192 -0.2315422 -0.23959534 -0.26720157 -0.17617655 -0.24728683 -0.2229179 -0.24855044 -0.18452565 -0.18194363 -0.07300879 -0.034618046 -0.058849074 -0.10501385 -0.12610634 -0.015966313 -0.04253643 0.0065828436 -0.019103613 0.019572813 0.03264551 0.016325172 -0.01680265 -0.057641987 -0.052965984 -0.083238535 -0.18814214 -0.12932397 -0.0122755645 -0.07257215 -0.010801739 0.037186306 0.00749624 0.056707416 -0.048034675 -0.11206493 -0.14339831 -0.047147922 -0.04750114 -0.13635565 -0.06524245 -0.05281137 -0.095010586 -0.035656583 -0.02256822 -0.024469335 0.016220387 -0.010337647 0.021723118 0.029984953 -0.022939848 0.14226708 0.033429198 -0.023545858 0.05155513 0.027436405 -0.06088366 -0.07467233 -0.107839115 0.023767602 -0.04542488 -0.112547405 -0.17023143 -0.13345733 -0.15542293 -0.13639694 -0.022359177 -0.07402312 -0.1083958 -0.14040338 -0.17120159 -0.050834645 0.036838226 0.030643685 -0.029140214 0.009534031 -0.012746087 0.018022938 0.01803428 0.09709787 0.04899084 0.036670532 0.05183243 0.03844819 -0.025850438 0.023237776 0.008855471 -0.08072765 -0.17523256 -0.13534959 -0.12950005 -0.07103034 -0.14620458 -0.135482 -0.08342968 -0.072425 -0.047842637 -0.19255592 -0.17032304 -0.10733017 -0.08761123 -0.030606031 -0.010833812 -0.028045759 0.011600653 -0.015959991 0.0519864 0.15101226 0.10241754 0.010167633 0.042609207 0.106869824 0.07744982 0.0874414 0.022724815 -0.0020085827 -0.055554084 0.02305883 0.06792615 0.09738655 0.024464512 0.0062642354 -0.08825382 -0.20019856 -0.20339906 -0.21351808 -0.19586061 -0.2121664 -0.16086575 -0.019180944 -0.06515861 0.005604334 0.020185418 -0.03257868 0.05405032 0.16620992 0.078860596 -0.0008841275 0.12009865 0.05362167 0.0531209 0.06248684 -0.007097511 0.04536384 0.087384515 0.14426719 0.15330024 0.12252084 0.06019424 0.028610261 -0.08125706 -0.14396061 -0.21133976 -0.21937045 -0.26258337 -0.233229 -0.2267102 -0.075006016 -0.031708345 0.017863981 -0.009427389 -0.013397963 -0.0064040604 -0.006261565 0.08591588 0.022707459 -0.016536266 -0.01111628 0.053178243 0.040661074 0.007398324 0.051627785 0.08727008 0.08235694 0.16094843 0.115490735 0.12576008 0.06857157 0.0003184217 -0.10758563 -0.13634449 -0.064037204 -0.21364842 -0.30514264 -0.31206995 -0.15636179 -0.100672185 -0.0064230845 0.015459019 0.11637147 0.017836655 0.03437734 0.058048096 -0.01932145 0.01670939 0.052654017 -0.0037041795 0.0027535309 0.062471658 0.109213136 0.123626135 0.11336043 0.14372163 0.09706699 0.11967077 0.0671876 0.0026244053 -0.045185775 -0.06091914 -0.14322157 -0.16960979 -0.27594146 -0.16186804 -0.13168788 -0.10798445 -0.03576087 0.06082475 0.19593349 0.05364095 0.15780039 0.00849116 -0.008627592 0.034795765 0.031023458 0.0039535384 0.008084694 -0.0019778362 0.0812553 -0.0035976488 0.022939978 0.03260077 0.046267636 0.11351024 0.04367797 0.024689058 -0.02426747 -0.06693543 -0.12912112 -0.074636064 -0.13287637 -0.1876502 -0.05434277 -0.13777593 -0.062134847 0.06476674 0.119205855 0.09890209 0.037154317 -0.058666583 -0.023923138 0.09163213 0.043327637 -0.04572607 -0.013680087 -0.021966066 -0.043673497 -0.04660521 -0.020994388 -0.005149927 0.0436119 0.04354541 0.0828419 0.14748947 0.10339592 0.01893196 -0.059276115 -0.0338946 -0.047323324 -0.19660449 0.0017951195 -0.048497617 -0.038675785 0.04079317 0.09938288 0.029518008 -0.0685361 0.072794914 0.05496628 0.079870515 -0.08058591 -0.07941397 -0.05249902 -0.075756215 -0.10030026 -0.16151352 -0.073722206 -0.06941184 -0.019095326 0.018571429 0.069222264 0.1959588 0.19050516 0.068085685 -0.022286544 0.02030284 0.013699552 -0.087604195 0.046407565 -0.13069916 -0.033425726 -0.030549953 0.14967635 0.053821757 -0.00990592 0.09419239 -0.04682814 -0.0520206 -0.072612196 -0.00020845968 -0.068327524 -0.045726888 -0.11879745 -0.07114838 -0.066190004 -0.043650076 -0.08471515 0.005831112 0.060113907 0.10887212 0.108516574 0.08747175 0.056912 -0.016281214 -0.02620344 -0.04281717 -0.068144776 -0.145251 -0.04262414 -0.027834315 0.027208947 0.037505787 0.13183595 0.094990864 -0.06535666 -0.11598967 -0.049614206 -0.055636317 0.010533889 0.0029597008 -0.043622587 0.013910742 -0.0010270992 0.0125619 -0.055709586 -0.018176552 0.06589729 0.14816302 0.15662006 0.12297103 0.097972505 0.021468833 -0.020316362 0.02384632 -0.029818797 0.0033969532 -0.0040287967 -0.027040802 0.004121307 -0.08645476 0.048532274 0.1462495 -0.009982337 -0.10887685 -0.054455187 -0.0532933 0.007081239 0.015313644 0.07339804 0.07299365 0.038269114 -0.006145447 -0.04763714 -0.063088104 0.13479698 0.1729144 0.10916709 0.12321791 0.12999788 0.091087125 0.03264998 -0.01122949 -0.099280685 -0.019969381 0.0077996994 0.11325474 0.04775996 0.021796828 0.021812629 0.16106273 0.031996697 -0.033273544 0.010243964 0.090183325 0.08220491 0.09925021 0.11909927 0.10363883 -0.038397126 -0.109976836 -0.07999518 -0.102241814 0.07133259 0.10884166 0.11729744 0.060022455 0.03507745 0.08725603 -0.014706051 -0.031943854 -0.24514966 -0.07297088 0.079569004 -0.025403889 0.033851177 -0.06593636 0.098575115 0.05836451 0.002224739 -0.009712434 -0.0006390182 0.06715891 0.048534725 0.061277427 0.06585659 0.025980677 -0.06401254 -0.14130035 -0.0420109 -0.047561932 0.12829529 0.10520914 0.06062833 -0.040443648 -0.00014144088 0.054545507 0.0035871195 -0.16211459 -0.07514658 0.0325133 0.039448705 0.07406397 0.036981843 0.0037000824 0.0436028 0.0051111067 -0.05363687 -0.072897136 -0.056948073 0.0053187557 -0.020167679 -0.028360305 -0.0074447966 -0.06478633 -0.22828287 -0.10219927 -0.028340295 0.060629655 0.107445605 0.065269925 0.036799397 -0.022302624 0.07245609 0.056914818 -0.11140912 -0.22015397 -0.017751226 0.06268796 0.013060274 0.012452433 0.14026412 0.08429228 0.09899987 0.03903076 0.009912877 -0.17988747 -0.17424633 -0.08935544 -0.048495106 -0.06819909 -0.12764138 -0.19852212 -0.21716967 -0.060269993 -0.012341851 0.087415196 0.1175371 0.09757298 0.025241977 -0.031153748 0.056389824 0.027163079 -0.143969 -0.2125223 -0.110617876 0.02117548 -0.026168354 -0.032870524 0.13618642 0.05431792 0.084912576 0.065838724 0.082557715 -0.12476966 -0.11950458 -0.05602495 -0.085975505 -0.13028997 -0.13381414 -0.2035843 -0.13607843 -0.038328264 0.012701984 0.089705914 0.08845802 0.0074421354 0.050225314 0.0028232392 0.02751813 -0.07651295 -0.08165023 -0.088433854 0.069991216 -0.06545972 0.040419657 -0.02243057 -0.0017185841 0.10717622 0.10662635 0.12338585 0.03621592 0.011833193 -0.14040183 -0.12607887 -0.12395464 -0.089976765 -0.05461951 -0.024023812 -0.10294619 -0.031004906 0.003186384 0.06979506 -0.036189675 -0.0064154 0.014225641 -0.007863667 -0.048594076 -0.07131171 -0.13001065 -0.040972274 -0.009183368 -0.03208189 0.018023325 -0.020883085 0.037888445 -0.004658671 0.16881976 0.15960437 0.03985146 0.0039196615 -0.07415407 -0.0708234 -0.05964839 -0.029955765 -0.017913304 -0.009040817 -0.00706148 0.042836428 0.03853356 -0.004488809 -0.031456802 -0.015037772 -0.07662786 -0.06127172 -0.1391175 -0.046564467 -0.09143833 -0.027138643 -0.0152732795 -0.13374007 0.040051125 0.00985204 0.035212066 -0.02573778 0.15691957 0.13064416 0.12213745 0.049356043 -0.07447729 -0.091446444 -0.048263952 -0.0066690072 0.037646607 -0.001763134 -0.011080579 0.0013177834 0.033286173 -0.061953366 -0.05270115 -0.045007225 -0.13765728 -0.05711137 -0.0079559265 -0.025186488 -0.010839394 0.013072806 -0.012209116 -0.12599315 0.003351995 -0.0026711228 -0.030964486 0.08304341 0.16915795 0.16539569 0.18362193 0.09957994 0.002902613 -0.019552318 0.04700157 0.0665932 0.00063089764 -0.04395773 -0.013368724 -0.018409327 0.019033765 -0.00062010635 0.080618955 -0.055585288 -0.047940854 0.040777437 0.08307426 0.078680925 0.09703988 -0.02551291 0.0026500956 -0.012607453 0.0036855128 -0.011450244 0.018867362 0.057277694 -0.02343123 0.045239884 0.124619804 0.031801924 -0.013205371 0.092834994 0.11749916 0.019394254 0.08010028 0.07804373 0.045227237 0.04906986 0.06662664 0.1105912 -0.011558664 0.08518257 0.10352889 0.13795993 0.05807115 -0.07463554 -0.10631436 -0.13558802 0.019213805 -0.019147258 0.03184201 0.03437756 -0.011296375 -0.009907911 0.037738 0.012281853 0.09321161 0.114658326 0.054986764 0.16792157 0.23031898 0.26574013 0.1290938 0.11158351 0.18722582 0.36105624 0.1934252 0.18410811 0.17774576 0.18842213 0.16443296 0.2416801 0.18293121 0.18193914 0.0920062 0.01612079 0.037079748 -0.015291823 -0.025749603 0.025756927 0.032735597 0.017886575 0.006204167 -0.04801551 -0.05233286 0.08436407 0.069230996 0.08453161 0.09651882 0.06722337 0.124849275 0.095647424 0.11682788 0.21119986 0.17089209 0.17132278 0.2692971 0.1903811 0.18452355 0.14018273 0.20384513 0.17706163 -0.12051048 -0.026146008 0.033257738 -0.02809638 -0.011147342
0.02191533 0.006410842 0.030053958 -0.0010826886 -0.022059692 -0.01004303 0.020211706 0.035689607 0.015214997 -0.005836551 0.03366685 0.021743651 0.073016 -0.02077124 0.014796417 0.02397151 0.015666166 0.03510966 -0.032645427 -0.020139856 -0.0064656097 0.019457817 -0.0010420595 -0.0025448971 0.00036361816 -0.012841604 -0.011187197 -0.014201684 0.004640639 -0.012176187 0.026579095 0.027243216 0.030369796 0.02858951 0.041028693 0.03968858 0.04156646 0.029348658 0.11042582 0.15575749 0.13838032 0.07467246 -0.11328886 -0.00690159 0.14280541 0.17212662 0.14818521 0.100446105 0.11339626 0.09774294 0.029216804 0.044324674 -0.034473747 -0.008978277 0.028783906 -0.017198741 -0.02457763 -0.0008269804 0.024737574 0.07448364 0.06700297 0.04494436 0.030578544 0.08276785 0.06346426 0.010779838 0.0707113 0.11586985 0.011862624 -0.022483272 -0.02846672 -0.017289344 -0.003823856 -0.005726462 0.034676433 0.019894067 0.08381328 0.15931134 0.22021338 0.17402741 -0.012078797 -0.035933916 -0.0064808684 -0.010044477 0.025540557 0.0130942175 -0.07595078 0.07567896 0.13266279 -0.0103536965 0.025126634 -0.0310711 0.0079840245 0.076884806 -0.010970566 0.019472083 0.040237635 0.077174574 0.088338874 0.059673324 0.039878204 -0.007510955 0.016321987 0.04253914 -0.020261692 0.0671689 0.075065866 0.17889671 0.057551574 -0.10386181 0.01903657 0.034151603 0.02216843 -0.03158992 -0.073012725 -0.0043617226 0.025945347 -0.07673169 -0.04728102 -0.015327471 -0.09117084 -0.019309511 -0.054890618 -0.042370033 -0.06643051 0.0009886705 -0.0056345747 0.026699949 0.02368993 0.032435272 0.036186375 0.0459287 0.039713264 0.063915156 0.029160386 0.028640987 -0.026992917 -0.14239459 0.0047445516 0.10899156 0.034662314 -0.022243178 -0.02370128 -0.014848717 -0.13516726 -0.1692578 -0.04805725 -0.052462187 -0.07349877 -0.08397928 -0.007431124 0.021147098 -0.02542306 0.022077685 0.012723941 -0.024877703 -0.005121274 0.045132764 0.020267019 0.030970983 -0.01819257 -0.008675436 -0.011776481 0.013646204 0.035856705 -0.017037379 0.045872804 0.041890193 0.0016586867 -0.065651245 0.07678471 -0.058270272 -0.14174516 -0.070800915 -0.036742166 -0.018832857 -0.14149769 -0.16393545 -0.03630607 0.03403966 0.010000321 0.012438242 -0.015555309 0.0144931665 -0.00014866093 -0.01643343 -0.006978818 -0.011303655 -0.05160414 -0.013327936 0.039498895 0.0027556745 -0.039454326 -0.0034268743 -0.053109437 0.08148282 0.0022880181 -0.14850716 0.028148688 -0.10422947 -0.14608002 -0.12719694 -0.060576465 -0.11855611 -0.14225659 -0.020037277 0.050023653 0.14608364 -0.00084950204 -0.00861878 -0.055050507 -0.0076073688 -0.006345261 0.020689186 0.02022446 -0.05959636 -0.09576937 -0.004741513 -0.029906126 0.0010745978 -0.019921485 0.00420988 -0.12878597 0.07021884 0.1129261 0.0103613585 0.017355371 -0.021487808 -0.14695464 -0.18482707 -0.10486137 -0.18193997 -0.091017455 0.038779587 0.040145274 0.13306919 0.043572705 0.048971713 0.021940622 -0.026696378 0.04277213 0.07765369 0.012339779 -0.03777951 -0.05491665 -0.064002894 -0.07975502 -0.034446903 -0.10852528 -0.16945787 -0.15661119 -0.025066275 0.00081934675 -0.06054589 0.13639201 -0.051116604 -0.10973767 -0.23701559 -0.14881618 -0.1234951 -0.07557832 0.015859568 0.056669537 0.057012614 0.08680878 0.045900155 0.004946816 -0.020755848 0.015706679 -0.029853594 -0.0033874153 -0.041295007 -0.05512947 -0.04037161 -0.18431403 -0.061587986 -0.028816845 -0.09116175 -0.18509062 -0.10245572 -0.0059138243 -0.041821085 0.09025554 0.033407595 -0.06308563 -0.07121551 -0.031344194 -0.009865945 -0.01656948 0.056196626 0.0778624 0.0852611 0.07276425 0.026692014 0.033662997 -0.034636945 -0.006541579 0.052335575 -0.001083009 -0.06729095 -0.050364777 -0.017738588 -0.053627316 0.0117551815 0.025066836 -0.17994924 -0.16915768 -0.16289715 0.0033141205 0.13504364 -0.18667647 -0.013801326 -0.14718705 -0.13941091 0.012888077 0.060867403 -0.04877086 0.025476241 0.00010253944 0.007229923 -0.009556002 0.0022375502 -0.0015386244 -0.094472356 -0.015680557 0.02728358 -0.01606618 0.0069046183 -0.036895048 0.07802914 0.034678582 0.056953304 0.1213546 -0.028257525 -0.10730173 -0.13226914 0.023625193 0.045901358 -0.16754761 -0.006652866 -0.078069575 -0.094537266 0.01717473 0.051637966 -0.015008458 0.016211547 -0.041030817 -0.0012814179 -0.093206145 -0.061025076 -0.0632107 -0.09264745 -0.040778633 -0.016422916 -0.038017653 0.0076298453 0.06464127 0.11420584 0.12250137 0.07794956 0.21412568 -0.050453696 -0.15513007 -0.16747022 -0.003464286 0.12787335 -0.015744884 0.057675626 -0.043767348 -0.08087674 0.036026113 -0.002833721 0.01841284 0.05724163 0.03115706 -0.04722405 -0.08377725 -0.07359163 -0.09606196 -0.023670489 -0.11858239 -0.09356083 -0.054959524 -0.030091243 0.008507639 0.06951797 0.12657246 0.15592477 0.089933 0.0024272145 -0.034907375 -0.007262575 0.027982138 -0.04288157 -0.04082932 -0.050713334 -0.07241176 0.0044247317 -0.018029405 0.011016589 0.06327 0.056739364 0.08648351 0.08094336 0.062134974 0.015743794 -0.10501884 -0.122990765 -0.16046715 -0.09736534 0.002467616 -0.013074468 0.07235817 0.10286104 0.13245958 0.10240882 0.16675042 0.11083894 -0.13804333 -0.03724795 -0.0020068558 -0.015920933 -0.017229188 -0.008544978 -0.09026831 -0.027380269 -0.08553467 0.078987494 0.07798313 0.09494214 0.13914686 0.092352286 0.10013211 -0.048005134 -0.09527985 -0.138589 -0.117771775 -0.090860754 -0.010240406 -0.027954917 0.03812047 0.0028878774 0.06463397 0.066911265 0.07487355 0.11680296 -0.1490324 -0.024672981 -0.080670685 -0.010568443 -0.06274324 -0.07139588 -0.056945164 -0.03185268 -0.06381642 -0.009804888 0.13032869 0.060717028 0.15250549 0.18288076 0.07772218 -0.08336961 -0.02713884 -0.008927115 -0.05858533 -0.058168758 8.287573e-05 -0.02979018 0.0009089487 0.03287341 0.04881654 0.022894586 0.0073789926 0.1242966 -0.10322549 -0.03863557 0.005611475 -0.042396594 -0.06160129 -0.11078738 -0.006249108 -0.040707715 -0.061778124 -0.0007288064 0.04038842 0.08788907 0.16001847 0.18854624 0.08764682 -0.1270086 -0.042181265 0.007890729 0.024401257 -0.0032542897 -0.048577365 -0.01923222 0.009931727 0.025506796 0.053275175 0.018281646 -0.03255838 0.11033642 -0.13765028 0.11247232 -0.028786978 0.011865414 -0.10678509 -0.1569934 0.040146057 -0.03514076 -0.039335918 0.053399462 0.05130597 0.11737519 0.12188734 0.08043064 0.04827105 -0.08455714 -0.032911737 0.049257025 0.007918308 -0.048476357 -0.01810076 -0.081359655 -0.010709673 0.004584563 0.031076714 0.0046189534 -0.028458139 0.060480755 -0.10915658 0.025695842 -0.045208383 0.047904488 0.059723865 -0.06878357 0.055881843 0.025501816 -0.033983883 0.005371123 0.09962583 0.08426566 0.14541733 0.08441796 0.06847315 -0.05785616 -0.014822237 0.047362708 0.012713095 -0.030231444 -0.04871765 -0.08054205 0.03060298 0.017192248 0.061325673 -0.0036908663 -0.10768683 -0.071970224 -0.086344816 0.016809644 0.016485512 0.10634846 0.08253897 -0.01079403 0.06908332 0.063961744 -0.050252754 0.035892773 0.031272132 0.124989025 0.119486146 0.13126877 0.030784586 0.0038263435 -0.05327212 0.042116042 -0.0070082108 -0.049224395 -0.08124294 -0.03749725 -0.045800004 -0.0073035522 0.022352628 -0.12523974 -0.15206017 -0.08345229 -0.045250468 -0.049682163 -0.03663562 -0.004541241 -0.023235599 0.043967694 0.089233436 0.048301764 0.033962373 0.060440883 0.084195845 0.16155721 0.14947468 0.1333034 0.024043838 0.04281755 -0.0140320035 0.0023283795 0.0008092184 -0.07102478 -0.08867202 -0.049657628 -0.013666152 -0.089666784 -0.02306047 -0.12673606 -0.19088723 -0.017487813 0.10577641 -0.005536354 -0.043425173 -0.09196033 0.07859802 0.13761806 0.091882154 0.015594682 0.014809055 0.034221906 0.06700895 0.10402323 0.11511886 0.0942144 0.12460302 0.11753212 0.013130678 0.04446176 0.04631377 0.004548606 0.00094828755 -0.05553634 -0.044269726 -0.13315727 -0.08037242 -0.10330484 -0.12661192 -0.10563512 0.066525325 0.045822773 -0.020971997 0.0066863303 -0.009207881 0.064235985 0.019895637 0.022823535 0.0002782852 -0.014242719 0.07286603 0.045070216 0.058973104 0.024122689 0.06533652 0.056371912 0.07209459 0.09414002 -0.0004644444 -0.08419385 -0.06807644 -0.029528756 -0.09333997 -0.19741945 -0.14909655 -0.052796815 -0.13643412 -0.02950867 -0.06109907 -0.03197364 -0.029712334 -0.00065503805 -0.07112446 -0.13499293 -0.12324058 -0.08466899 -0.089595824 -0.13698365 -0.03554578 0.0490713 0.029959839 0.069790795 0.101281896 0.111872524 0.03811836 0.07430398 0.06405715 -0.1295231 -0.09334671 -0.15839621 -0.17658857 -0.26365072 -0.19457442 -0.11434476 0.08253212 -0.046417776 0.034060787 0.0026644086 0.019343998 0.024180925 0.045218702 -0.01465766 -0.07368928 -0.09638297 -0.09625142 -0.18842144 -0.29475904 -0.21399958 -0.086178444 -0.0676263 -0.21940927 -0.13592657 -0.2349184 -0.12932618 -0.17642137 -0.18618357 -0.15021212 -0.10616945 -0.16070783 -0.20376931 -0.06266794 0.0675486 0.05670987 0.0878479 0.055271283 0.0010953632 -0.00017439043 0.014976405 0.03436181 -0.054236874 0.065819144 0.04861475 0.00054235 -0.1242789 -0.16497701 -0.18248607 -0.2042202 0.029705243 0.08870886 0.052782685 -0.09873586 0.0019501206 0.015790751 -0.11808731 -0.12680435 -0.01426317 -0.08939851 -0.2121212 -0.07067226 -0.070507765 -0.003478575 -0.07089418 0.0073655164 0.033922505 0.033245504 -0.00940973 -0.0053882217 -0.019153971 -0.037549343 -0.052330237 -0.052605595 -0.08007828 -0.067073785 -0.085974514 -0.05002283 0.04381776 0.049179204 -0.04894392 -0.05832171 -0.057294104 -0.0010644528 0.03428437 0.01808324 -0.030022457 -0.02613078 -0.14362715 -0.09085966 -0.07828895 -0.004525602 -0.034041487 -0.030776987 -0.010973905
-0.020266099 -0.023879418 0.012134199 0.02384882 0.02646864 -0.01939496 -0.0017529216 -0.033172376 -0.028329348 -0.006172261 0.00052538514 -0.031023763 0.0092013655 0.023068355 0.015765151 -0.021824863 -0.022262229 -0.011276284 -0.010150093 -0.0015925553 -0.009817431 0.007522115 -0.0005071206 0.014054806 0.02881811 -0.026025139 -0.0017644806 -0.015446651 0.0017104448 0.01625603 -0.035082538 0.023150735 0.017540498 0.008479489 -0.044436023 -0.025252532 0.003518452 -0.016641472 0.0076336158 -0.040814787 -0.054841887 -0.028900769 0.005506554 0.020358821 -0.10240718 -0.040562756 -0.057652142 -0.04476641 -0.01593133 -5.9834056e-05 -0.023509946 0.011077617 -0.032011945 -0.0270485 0.0061302828 -0.00095197564 0.03115237 0.018390082 0.00159457 0.010919887 -0.012812566 -0.012219845 -0.02110641 -0.040892806 -0.09187848 -0.097021 -0.13037452 -0.08684078 -0.034845855 -0.14872211 -0.16918291 -0.021829536 -0.0681775 0.028390132 -0.007677451 0.028157564 -0.00022116001 -0.05989364 -0.026697757 -0.0570705 0.024813773 -0.025809146 -0.011651845 -0.035472173 -0.029833332 0.016895304 0.08138468 0.0632181 -0.010021937 0.00090863253 0.012663969 0.055700883 -0.048107002 -0.14560908 -0.13204673 -0.003224514 -0.024246687 -0.06667189 0.0053351214 0.048869476 -0.06011794 -0.038026344 0.10162855 0.04906397 -0.020247936 -0.034820553 -0.08600922 0.054217592 0.0209924 -0.043909855 -0.073836684 0.02557245 0.025241049 0.018037342 0.13733771 0.15743513 0.08305414 -0.006832914 0.048316576 -0.008104553 -0.09631145 -0.15459748 -0.0363367 0.019236602 -0.060917232 -0.010455457 0.015318982 -0.0072590504 0.022591596 -0.048576757 -0.0020131513 0.02267784 -0.00656888 0.05256003 0.038413394 0.07704166 0.040151827 0.009838335 0.06159938 -0.008441914 0.0034550175 0.03342074 0.06302254 0.057687435 0.013685944 0.10429215 0.09965751 0.039272793 -0.03747187 -0.08548599 -0.07011569 -0.052065525 0.031968296 -0.014075571 -0.036274813 -0.044733386 0.013121785 0.06027223 0.0063847783 0.016631113 0.001280198 -0.030901108 0.005152036 -0.0013800944 -0.06883541 -0.043340724 -0.07903721 0.040929984 0.023635907 0.0802176 0.06052793 -0.01556649 0.07521748 0.07927468 0.07392367 -0.0066849836 0.019404856 0.05025161 0.005747065 0.11385453 0.07574652 0.041209728 0.02408989 -0.043669183 0.025657764 -0.002015878 -0.04380319 0.0071205287 0.012405775 -0.028421167 -0.026661588 -0.037462484 -0.080067635 -0.07658892 0.018383915 -0.041994087 -0.011150357 0.037099857 0.020169584 0.09580765 0.029456971 0.035403736 -0.024254926 -0.015024762 -0.013930674 0.007197899 0.038878754 0.057305455 0.078413285 0.04345867 -0.02389601 -0.011634219 -0.041907653 -0.0296422 -0.031644154 0.000288577 0.03544999 -0.07968509 -0.0579567 -0.016028477 -0.060535986 0.036894914 0.10710539 -0.061594654 -0.011609499 -0.120008975 0.09246856 0.1570835 0.024146494 -0.062376052 0.00073055294 -0.0033712822 -0.023774024 0.07983013 0.04272421 0.02467654 0.029018313 -0.0041959104 -0.03443725 0.01417433 -0.049062874 -0.055454303 0.02028805 0.03242642 0.05993267 0.009376848 0.0069232215 -0.0198719 0.024761418 0.31275976 0.16379385 -0.020714877 0.028666906 0.002146798 0.07887492 0.108649544 -0.0042222245 -0.09664257 0.034567576 0.0006267359 0.029479776 0.035144877 0.036929168 -0.005273596 -0.03244266 -0.045614213 -0.041766018 -0.016854836 -0.09648213 0.010501073 0.022602137 0.04296743 0.09770835 0.13433059 0.13805333 0.110667825 0.18233807 0.2715226 0.24353895 0.04305453 -0.016429398 -0.054860827 0.04429621 0.14027826 0.09256989 -0.105100535 -0.070935816 -0.08809028 -0.021609481 0.047381163 0.04105727 -0.0155727295 -0.0382775 -0.104350656 0.0005086802 0.024693329 0.009574294 0.02702373 0.06550509 0.08804287 0.15690242 0.088932455 0.20119111 0.23639221 0.20458594 0.2345972 0.18366188 0.07438378 0.043349065 -0.11344002 -0.0590679 0.14533031 0.0003878901 -0.01826734 -0.055454686 -0.027380481 0.019351453 0.120365135 0.04074389 -0.066083 0.0462889 -0.021015031 0.06404405 0.07565952 0.012626237 0.086108774 0.07787151 0.104893394 0.09471807 0.07350095 0.12636606 0.15830074 0.1435815 0.122304596 0.11619917 0.050173532 0.006763228 -0.100157194 -0.0033355495 -0.03535846 -0.08963092 -0.026392577 -0.07037935 -0.009712358 0.038931955 0.04743048 0.046848364 0.044559862 0.07032854 0.13729675 0.1563938 0.116181165 0.06633392 0.066380866 0.09402877 0.0026875117 0.09901005 0.035899937 -0.024610536 0.02672887 -0.0056193834 0.0047107255 -0.01822908 0.062627755 -0.027971726 0.0047923084 -0.083310485 -0.110364735 -0.09024844 -0.083071835 -0.07995614 -0.037566144 0.049162775 0.11380181 0.1488213 0.10850714 0.12974611 0.1235061 0.16540611 0.14659071 0.06233177 0.043816064 0.0036326859 0.016495507 0.047289107 -0.013031591 -0.107484825 -0.161023 -0.100538656 -0.103650965 -0.19326581 -0.044058118 -0.06465744 0.058604617 -0.0951802 -0.14532866 -0.08844165 -0.06271196 -0.18259348 -0.119204946 0.031170135 0.12043552 0.051062483 0.0704446 0.22094259 0.18932696 0.2121863 0.23190159 0.13892576 0.063664265 -0.042039685 -0.03125456 -0.02875818 -0.010767085 -0.0065885508 -0.13136768 -0.16643092 -0.18761478 -0.2326022 0.004370121 -0.021346884 0.088114455 0.06372181 0.025340604 -0.05193227 -0.14811793 -0.12508994 -0.19198073 -0.15516023 -0.07614188 0.033494953 0.08149592 0.250414 0.28710535 0.2706566 0.21729127 0.08047978 0.021278465 -0.09757446 -0.046044968 0.007722938 0.064179465 0.123892896 -0.060512114 -0.16379997 -0.25471735 -0.1545622 -0.07632753 -0.038490098 0.03489506 0.063012846 -0.052646585 -0.015692638 -0.13668412 -0.16653994 -0.18251094 -0.2028474 -0.16436401 -0.1400061 -0.0520235 0.16455944 0.23276976 0.14341302 0.0925187 -0.03306194 -0.010773341 -0.051036533 -0.10265746 -0.043819185 0.019326575 0.0060970034 -0.024242833 -0.1589818 -0.3332978 -0.25630543 -0.074852265 -0.017591141 0.047940135 0.010308915 -0.013736778 -0.025514498 -0.10986726 -0.15144567 -0.18266748 -0.33516043 -0.267043 -0.2756163 -0.18128724 -0.07054748 0.069695696 0.027499897 0.0049592676 -0.0037401575 -0.015618879 -0.12275335 -0.13246007 -0.10102331 0.06806594 0.023990488 -0.029204804 -0.06951982 -0.10347953 0.0267298 -0.06060825 -0.10995469 0.012294971 0.03102451 -0.05109702 -0.0011734222 0.0029387132 -0.10130397 -0.20525566 -0.316876 -0.28338605 -0.24290474 -0.15120293 -0.19955242 -0.042578537 -0.0719162 -0.09530297 -0.03543345 -0.059044097 -0.10695135 -0.076297134 -0.05159948 -0.025525447 -0.06393154 -0.1100366 -0.207054 -0.044807892 0.103121765 -0.07757362 0.0092458 -0.09924837 0.013646466 0.052661188 0.06131692 0.042096443 -0.05161464 -0.14913389 -0.12969056 -0.16937578 -0.1615891 -0.23339592 -0.21939999 -0.17063285 -0.09832803 -0.07407818 -0.076414354 -0.051989675 -0.061253015 -0.058613263 -0.0727395 0.03311318 -0.026526086 -0.12691754 -0.22974446 0.00015432922 0.05732879 -0.03391322 -0.025528517 0.026308283 0.04803899 0.04873262 0.15096241 0.08100049 0.033937212 -0.008024208 -0.030257098 -0.06011969 0.008338651 -0.096500784 -0.10732928 -0.15416081 -0.07284795 -0.08837563 -0.01252321 0.017094698 0.006791929 -0.05237553 -0.05517453 -0.0047436017 0.024949845 -0.07808579 -0.13564757 -0.018399058 0.024793016 0.06807076 0.034956213 0.045719035 0.07305406 -0.00040989433 0.20774779 0.16510439 0.13529633 0.10264879 0.08090521 0.032530885 0.04264689 -0.023239614 -0.08652566 -0.1158934 -0.1000476 -0.022968031 -0.02691689 -0.023868106 -0.037457436 -0.05322611 -0.060052674 -0.0037642217 -0.06273119 -0.15347736 -0.21850264 -0.08776636 -0.0407563 0.0072800675 -0.010753539 0.007236063 -0.0404868 0.039380074 0.17893247 0.11313535 0.16524982 0.10167884 0.040366784 -0.0062348302 0.03653326 -0.020785715 -0.021611964 -0.02785092 0.018667895 0.012593778 -0.013827279 -0.07238969 -0.08359912 -0.027683094 -0.092118226 -0.19429055 -0.2100602 -0.22898996 -0.16513954 -0.09907636 -0.012514956 0.0031643168 -0.008055087 -0.011239116 0.084216096 0.07029224 0.075559534 0.11222178 0.07841587 0.03860212 0.072317526 0.03669273 0.07163783 0.04304716 0.00027544296 0.018889967 0.07087769 0.017358245 -0.0054252376 -0.0024227607 -0.01805999 -0.05146881 -0.15925185 -0.20762847 -0.26187682 -0.2314553 -0.11138454 -0.0019748567 0.051815327 0.019690672 0.0023517695 -0.0009688565 0.06216667 0.14955898 0.14641818 0.07805609 0.07659931 0.11365684 0.05105445 0.06974296 0.078231074 -0.012648977 -0.083528906 0.015155417 -0.025695262 -0.08283807 -0.016304467 -0.11587703 -0.10342094 -0.10432588 -0.08045187 -0.120651506 -0.15861763 -0.15240814 -0.16066638 -0.008127404 0.0015936185 0.013757102 0.013784222 0.025380664 0.108830914 -0.029158503 -0.024260914 0.12026347 0.069728866 0.1480734 0.23533086 0.21932577 0.12344221 0.023198683 0.026564214 0.06509357 -0.08285666 -0.18123034 -0.10866156 -0.101530805 -0.03192464 -0.065711804 -0.041256856 -0.014894661 -0.014743763 0.08844359 -0.0043165684 0.016554574 -0.04145246 0.0036217445 -0.01935531 -0.03365404 -0.026402857 0.033558782 0.19718784 0.17447506 0.06436986 -0.041232545 -0.06425522 -0.073092066 0.02604837 -0.05489394 -0.044800833 -0.087677814 0.056917544 -0.016575065 0.08025731 0.16453986 0.105982415 -0.02076424 0.035312876 -0.0415474 -0.09168669 -0.11731761 -0.014008535 0.04321882 0.035619847 0.026711721 0.024641434 0.016176302 -0.007164734 -0.024229804 -0.042884305 -0.089604534 0.035592794 0.025735453 -0.0275134 -0.05420088 -0.18859375 -0.05928627 -0.01900782 -0.090940416 -0.037209745 0.06030819 0.040869974 -0.06845296 0.05703159 0.016517263 -0.016570507 -0.049859527 -0.052710105 -0.03514239 -0.024596458 0.030059824 -0.004126941 0.02372572
0.0060483688 0.022983463 -0.025646428 -0.00017495241 -0.00951208 0.01724819 -0.03467653 0.031063106 -0.03186321 0.021795802 0.0035556727 0.014542006 -0.067084804 0.022680843 -0.041611973 -0.030794727 -0.018229766 -0.023458665 -0.011982373 0.0077437675 0.0069958316 -0.014414439 -0.011631272 0.029125944 -0.012178196 -0.013814335 -0.004693066 -0.015170805 -0.014971291 -0.0038291558 0.00917009 0.020938547 -0.017791668 0.03509599 -0.079199605 -0.04221431 -0.048013773 -0.044229314 -0.037658308 0.011047633 -0.043389693 -0.089985766 -0.035352997 -0.08410068 -0.14196624 -0.17227703 -0.06836881 -0.09255388 -0.04466515 -0.07141661 -0.054292504 -0.044373192 0.009750783 -0.03275141 0.0031508037 0.0064958464 0.03538742 -0.023348702 -0.031006971 -0.13252203 -0.05493657 0.005766336 -0.049653642 -0.09116271 -0.088965885 -0.088992566 -0.13308927 -0.13105674 -0.09402679 -0.20354305 -0.22097859 -0.1577799 -0.11817707 0.0012478441 0.046066035 -0.07943834 -0.056846756 -0.06139152 -0.078527205 -0.08559992 -0.08565187 -0.019893922 -0.023744112 0.028475393 0.029125292 -0.032911107 -0.0693169 -0.08891986 -0.033470195 -0.065651014 -0.12609056 -0.11523535 -0.22937669 -0.23188172 -0.1771757 -0.0005047466 -0.17069593 -0.37057507 -0.18811598 -0.09363461 -0.12072534 -0.014000024 0.09442874 0.07509621 0.022464428 0.073508814 0.056938227 -0.0735003 -0.07198278 -0.014985532 -0.003804756 0.027571753 -0.02146038 0.01414807 -0.006451073 -0.0057759113 -0.09972369 -0.009636349 -0.08482681 -0.0843777 -0.19142683 -0.2887346 -0.30254057 -0.28848094 -0.3145617 -0.3047028 -0.15523656 -0.11534709 -0.078721344 0.056509662 0.04047231 -0.109844945 -0.10086405 -0.008346423 0.045896582 -0.0076889144 -0.040577125 -0.03189707 0.024343755 -0.09611899 0.03496961 0.013079818 -0.014903427 -0.052349243 -0.11867919 -0.07841275 -0.056942075 -0.13481313 -0.1141427 -0.06910182 -0.06711264 0.017273115 0.030865015 -0.0058650207 0.03247228 -0.044780824 -0.10801548 -0.11082176 -0.12528564 -0.132404 -0.053611666 -0.045299433 -0.008276084 -0.047345873 -0.12959607 -0.008214098 -0.07564419 -0.010852971 0.035528183 -0.035563532 0.14132158 -0.05923437 -0.003483071 0.13956784 0.0030354941 -0.10048679 -0.07893921 4.6958638e-05 0.025051065 0.082434416 -0.013987216 0.022448042 0.12228936 -0.050616894 -0.099593386 -0.039331887 -0.030230282 -0.014942228 0.06348188 0.021555254 0.016979218 0.009572078 -0.016610203 0.018725405 0.04386792 -0.06886358 -0.002974114 -0.08422087 0.11376739 0.022460988 -0.017349862 0.008178738 -0.028551666 -0.079556614 -0.06988496 0.081699714 0.088703096 0.04950084 0.012229429 0.05304422 0.0716656 -0.0258092 0.030978568 0.03299788 0.08271799 0.071733 0.08482545 0.03892017 0.041432668 0.060377322 0.085400924 0.04980519 0.05486724 -0.06349723 -0.09288767 -0.0906511 0.06281245 -0.03131769 -0.093288735 0.0035347375 0.041104097 -0.01267598 0.08490023 0.08461289 0.054422073 0.07368001 0.015347002 0.041117053 0.033515215 0.03284552 0.10891386 0.11058402 0.078302234 0.038063906 0.09586931 0.13226041 0.13162386 0.094139874 0.2558939 0.24926239 0.05874923 0.0134445485 -0.011807728 -0.04541403 -0.06663761 -0.15953459 -0.03106184 -0.060884077 -0.015997749 0.004409088 0.05287947 0.019031564 -0.019292098 0.05995894 0.028277148 -0.005850584 0.015234974 0.09531901 0.18668066 0.109277606 0.03964177 0.009384994 0.030110536 0.028599342 0.04997449 0.03636556 0.20487775 0.30731156 0.051503357 0.09389125 -0.03277736 -0.046096582 -0.045331854 -0.14780535 0.020349085 -0.01793446 -0.027204514 -0.043499883 0.018278293 0.09880724 0.1008692 0.019594908 0.016020374 -0.07061705 -0.04816426 0.080310576 0.04056762 -0.07154479 -0.09385665 -0.040564407 -0.025832733 -0.0601422 -0.0114007015 -0.038340796 0.10604916 0.2733903 0.04267906 0.03642684 0.052519884 -0.14900386 -0.029398805 -0.12754951 0.00986518 -0.017442534 -0.01580845 0.019403191 0.14417651 0.20216003 0.14167747 0.06531919 -0.024995362 -0.11835209 -0.0942984 0.0060374495 -0.0446347 -0.13958761 -0.113940656 -0.11236153 -0.11160142 -0.049095694 0.012331894 -0.055457737 0.028426735 0.14861856 0.12178769 0.06307243 0.0075199 -0.093956985 -0.009180624 -0.049125228 -0.0040264707 -0.031810228 -0.029476807 0.07740088 0.16836533 0.12754482 0.13196614 -0.020491708 -0.07139228 -0.05444561 -0.08936594 -0.0074512833 -0.076347575 -0.120187655 -0.128219 -0.12237587 -0.10109766 -0.06657419 -0.03118336 -0.024690721 -0.029556606 0.13300145 0.06263022 -0.07346029 -0.020321485 -0.10147535 -0.07261136 -0.061058633 0.023639584 -0.014204462 -0.0024516564 0.12091407 0.107192606 0.079455994 0.100257255 -0.035851747 -0.03805243 0.0077828197 0.059025735 0.02654788 -0.01344302 -0.07263446 -0.12018467 -0.08116818 0.014035592 -0.009178419 -0.06001848 -0.121441446 -0.099638306 -0.047991145 -0.21449703 -0.14007331 0.049611304 -0.055196457 -0.06366903 0.028447058 0.044095367 -0.058466427 -0.03002209 0.015194723 0.11841298 0.13019678 0.0676314 -0.043198038 -0.048818834 0.014984531 -0.00787149 0.009896274 -0.052072894 -0.01739532 -0.049651217 -0.014218421 -0.026386313 -0.12692071 -0.1179297 -0.08369548 -0.16283393 -0.20529644 -0.24481462 -0.07059037 0.05589538 0.028501477 -0.08396265 0.044477325 -0.012592928 -0.025860596 -0.018507257 -0.035722572 0.09051286 0.124987975 0.11135256 0.061774667 -0.010456909 -0.02900065 -0.030089634 -0.03414037 -0.023832018 0.040904377 0.012718867 -0.027442293 -0.074723616 -0.076331705 -0.020731736 0.07736225 -0.14856668 -0.22415419 -0.14082263 -0.10678485 -0.07651602 -0.0373898 -0.0857113 -0.06952145 -0.122382104 -0.08202205 -0.06641373 -0.05243498 0.11079545 0.08018939 0.12889458 0.096462116 0.1282098 0.05363658 -0.073802106 -0.042748287 0.031449918 0.046551764 -0.03519741 -0.021761717 -0.0017582051 -0.03807085 -0.020247268 -0.08365098 -0.13385333 -0.31725922 -0.19036949 -0.027051304 -0.024589164 0.016226906 -0.04462403 -0.11746009 -0.15500912 -0.13636756 0.004520804 -0.052275114 -0.057393048 0.06937219 0.08270083 0.11044561 0.022248108 0.09638454 0.032925505 0.10148946 0.08467344 0.06570657 -0.008128221 -0.058818873 0.015076381 0.003245468 -0.0844083 -0.12400568 -0.1282853 -0.22827773 -0.19805534 -0.12367024 0.018062582 -0.00927062 -0.033752255 -0.21410717 -0.14846796 -0.08379962 -0.055253346 -0.09085388 -0.0715881 -0.07169723 0.013626286 0.04331315 0.027038481 0.07560156 0.10704432 0.06983946 0.09140511 -0.0020137627 -0.10090912 -0.100479305 -0.000532629 -0.09845423 -0.09164375 -0.12849689 -0.15769333 -0.19900694 -0.10997185 -0.097798936 0.0067597544 -0.07957306 -0.04136558 -0.17887191 -0.21191776 -0.13090028 -0.15629844 -0.16976802 -0.14729774 -0.23094356 -0.18191454 -0.16153146 0.0075499527 0.059909716 0.07725003 0.07646766 0.03968651 0.020049116 -0.06479061 -0.06716636 -0.06992902 -0.15441288 -0.16042192 -0.14184114 -0.11897683 -0.008643446 -0.12977058 -0.09010611 -0.018682145 0.023900429 -0.04816147 -0.13694012 -0.17670342 -0.0847745 -0.11810311 -0.07935257 -0.11805953 -0.22573696 -0.20813915 -0.2270438 -0.09937528 -0.012043226 -0.06428546 0.033180695 0.062031053 0.044666503 -0.043810233 -0.022082528 -0.12547919 -0.08640306 -0.016619485 -0.040888336 -0.010460767 0.06197202 -0.11062598 0.0033379302 -0.051545326 -0.0003298532 -0.044695813 -0.16287494 -0.0658219 -0.026071792 -0.08603922 0.02616952 -0.05086526 -0.09483045 -0.16227995 -0.18461466 -0.13302766 -0.096906036 -0.07190103 -0.028778132 0.00883522 0.007955204 -0.10198705 -0.052549697 -0.12261844 -0.11087376 -0.047505394 0.017845979 0.10049647 0.012109816 -0.13877319 0.029869385 -0.048041943 0.024333322 -0.11367029 -0.011877911 0.00882437 -0.029820863 -0.024848938 0.04666118 0.018211149 0.002517636 0.034045767 -0.05411128 -0.0077301073 -0.066365525 0.008965991 -0.038134903 -0.030620523 -0.091552824 -0.10230613 -0.083354615 -0.08719754 -0.11821996 -0.04334422 0.017958038 0.08101986 0.021300817 -0.081836395 0.013626621 -0.023740377 0.018270936 -0.13601972 0.0029176895 0.034864098 0.023062 -0.046007264 0.0023070136 0.031036401 0.0006951455 0.06559856 0.008665432 -0.03328144 0.053328045 0.033562597 -0.07198593 -0.03017905 -0.076272145 -0.061989218 -0.06421992 -0.082715504 -0.004438862 0.037127957 0.059370644 0.018262766 0.015724825 -0.05500903 0.007281274 0.015869528 -0.0039150207 -0.16113955 -0.012948127 -0.07853173 -0.040843852 -0.09768352 -0.07814213 0.0006820539 -0.017256815 0.057917368 0.077667505 0.042039476 0.123433314 0.065858886 0.012544638 0.00422111 -0.0795745 -0.017506238 -0.008831536 0.04378953 0.021382963 0.08527569 0.19143075 -0.017916687 -0.054572705 -0.041350357 -0.032795884 0.012828653 -0.035428267 0.009942895 0.09415477 -0.049438976 0.011717769 -0.09141672 -0.053553805 -0.036469806 -0.043191385 -0.019664215 -0.016608467 -0.051332045 0.04766077 0.029969428 0.03776837 0.04970338 0.071747005 0.11916937 0.06751822 0.09802559 0.23529236 0.2921582 0.34284422 0.17947643 0.039102826 -0.07088644 -0.012680144 -0.0002680208 0.0079772435 0.024506409 0.077387474 0.14658122 0.062470805 0.09007756 0.011162805 0.044941045 0.010954562 -0.048478756 0.04361671 0.24928127 0.20355704 0.21512084 0.09940176 0.119637765 0.11971467 0.06466975 0.112400405 0.19549608 0.089057244 0.040469237 0.043437313 0.030065473 0.015772017 0.0078749405 -0.02035736 -0.011046823 -0.022025773 0.0046534967 0.02084647 0.010948732 0.032922234 0.12086011 0.06355374 0.07398702 0.0427494 0.14530206 0.13764626 0.09211223 0.09604867 0.113227874 0.04654643 0.014195769 0.055751294 0.08495575 0.07325847 0.080713704 -0.064360544 -0.05619753 -0.028213715 0.020150572 -0.035489745 0.002887926 -0.034167632
