-0.026879068464040756
0.010322513058781624
0.07304880023002625
0.0750121995806694
0.04759366810321808
-0.01540530938655138
0.03156217187643051
0.05650327727198601
0.058006614446640015
0.10759679228067398
-0.06942633539438248
0.029691731557250023
-0.07542632520198822
0.04641871154308319
0.024001048877835274
-3.879892756231129e-05
0.004920309409499168
0.005458373110741377
0.012102588079869747
0.007231255527585745
-0.01954529993236065
0.0327012874186039
-0.04567408934235573
0.02994157373905182
0.2172681987285614
-0.05620717629790306
-0.06666047126054764
0.02593214623630047
-0.10296181589365005
0.10926008969545364
0.116184301674366
-0.0020132747013121843
0.06763807684183121
0.05599900335073471
0.11891506612300873
0.12324962764978409
0.13578207790851593
-0.11030847579240799
-0.10425956547260284
-0.04752258211374283
0.1067768782377243
0.037830598652362823
-0.04872722551226616
0.03228658065199852
0.13434143364429474
0.05456439033150673
0.023908399045467377
-0.03380000591278076
0.008466099388897419
-0.00231934548355639
0.09121941030025482
0.08038675040006638
0.054482776671648026
0.11194420605897903
-0.04517403617501259
-0.10379500687122345
-0.0037859261501580477
0.028248155489563942
0.02054527774453163
-0.007286203093826771
0.07062602043151855
0.026915887370705605
0.07293461263179779
0.07587911933660507
0.024839607998728752
0.0984933003783226
-0.010726594366133213
-0.029019100591540337
-0.03273042291402817
0.15544293820858002
0.12664827704429626
0.07138680666685104
-0.029422570019960403
0.07429923862218857
-0.0200132355093956
0.06186715140938759
-0.07567805796861649
-0.07092677056789398
0.006890404969453812
0.062121860682964325
-0.05673898011445999
-0.03208950161933899
0.034048520028591156
0.08255758881568909
-0.0011142391012981534
0.13262119889259338
-0.01744907908141613
0.0646381601691246
0.054390665143728256
0.0726546049118042
0.03544245660305023
0.08886979520320892
0.12459110468626022
0.12922032177448273
-0.043522074818611145
0.060014646500349045
0.08383623510599136
0.12707722187042236
-0.06937529891729355
0.14516478776931763
-0.049450475722551346
0.03563181683421135
0.049513641744852066
0.05757720768451691
0.03309617564082146
0.035549767315387726
-0.016600821167230606
0.003555550239980221
0.10103508085012436
-0.1182175800204277
-0.04099518433213234
0.0333014577627182
0.10976812243461609
-0.047382332384586334
-0.0028621864039450884
-0.14782465994358063
0.16079145669937134
0.09730315953493118
0.030805781483650208
0.029081372544169426
-0.10226611793041229
0.09617812931537628
0.10168346762657166
0.0332428514957428
0.06430497020483017
0.0887172594666481
0.06390915811061859
0.07148347795009613
