-0.018170727 -0.006411029 -0.01939419 -0.012412221 -0.022364281 0.0056515466 -0.02784408 0.017619867 -0.005288695 0.030708902 -0.03164872 -0.0016563876 -0.022827877 -0.0025775568 0.056538176 0.024305085 0.03137897 -0.00059610605 0.010596808 -0.026320335 0.032805674 0.008322439 -0.011912615 0.0018361127 -0.0007261379 -0.0030152714 -0.007022181 0.00028322852 0.004395915 -0.0074434197 -0.012077601 -0.02088715 -0.024263937 -0.008974114 -0.058646075 -0.052347157 -0.101857215 -0.09806542 -0.05016877 -0.076623395 -0.11737033 -0.13987628 -0.009143156 -0.030544784 -0.08409261 -0.06282615 -0.0987381 -0.068262786 -0.06520026 -0.055782557 -0.09215032 -0.037730426 -0.029530093 -0.03554971 0.0046166866 -0.0060820584 -0.016645748 -0.011571595 -0.029077146 -0.102087796 -0.123363145 0.004979425 -0.05283177 -0.07668171 -0.09984642 -0.15960346 -0.14921065 -0.21906121 -0.2723152 -0.30575898 -0.28173134 -0.23666915 -0.10665184 -0.031791817 -0.0060807006 -0.051948573 -0.07661187 -0.14815451 -0.12519148 -0.13258392 0.006213082 0.052830607 -0.007834652 0.019375503 0.020176798 0.010971036 0.072461165 -0.11881116 -0.05186882 -0.09722616 -0.088487126 -0.10718424 -0.16862339 -0.25495842 -0.22833386 -0.25401655 -0.24304229 -0.2601448 -0.23391148 -0.09634111 -0.12819694 -0.096397996 -0.01534183 -0.018379858 -0.05729985 -0.011633268 -0.017996687 0.043972515 0.060920183 0.036688797 -0.03848068 0.007467202 -0.026724156 0.030683082 0.11529656 0.14461622 0.015882786 -0.121647246 -0.10997636 -0.07118152 -0.16874331 -0.21001984 -0.08778538 -0.009569535 -0.0009419627 -0.040071607 0.0052739615 0.012151194 0.02577531 -0.015830893 -0.0028229856 -0.087613136 -0.009673314 0.037853308 0.016095748 0.069179505 0.16614671 0.12854078 0.04784202 -0.011186554 -0.0021087273 0.010747893 0.042356547 0.050434876 -0.042797104 -0.008845017 0.01124527 -0.043604653 -0.074878864 -0.0018625928 0.063459165 0.20771906 0.22156559 0.14217117 0.05451994 0.020983076 0.03406308 0.046791136 0.008479217 -0.06658428 0.0055265655 0.006055063 -0.013295233 -0.07796474 -0.032899596 0.12479619 0.05515848 -0.038175244 0.028974267 -0.08881401 0.03943728 -0.04277749 -0.010657572 0.047851864 -0.0030766947 0.02452599 0.07393058 0.20956016 0.17298505 0.18341005 0.15698706 0.07849736 0.124795765 0.09604842 0.0800911 0.123150446 0.04557442 0.07827371 0.055164184 -0.037875097 -0.06934142 0.01231353 -0.02424763 0.084614746 0.08012422 0.017248904 -0.005029048 -0.13486722 0.046063337 -0.036744945 -0.014775452 -0.011531911 0.085779294 -0.012932457 0.13786063 0.09281553 0.09977142 0.039754298 0.0741412 0.115249984 0.053796805 0.05841798 0.046791356 0.016151262 0.058489252 0.0722483 0.0125932945 -0.001543398 0.010319768 -0.024212496 0.08207823 0.10832968 0.044372797 0.029800976 -0.105187275 -0.07716976 0.03764431 0.009950901 -0.07240894 0.028557668 0.13334936 0.06474235 0.14088829 0.064250305 0.01754328 0.058328222 0.04734127 0.047404177 -0.00034232685 0.008271916 0.09492714 -0.020424895 0.10523309 0.049065284 -0.026713084 -0.0020121643 0.018649656 0.03893437 0.23379277 0.27269012 0.18278138 0.092002034 -0.011214532 -0.043778338 0.051348265 0.027682073 -0.028876824 0.040090103 0.12333066 0.041700993 0.062751815 0.062153373 0.043896444 0.085500374 0.0868382 0.05261352 0.034099374 -0.0011926744 0.019948673 0.07322254 0.029705884 0.045656383 0.040802732 0.08238385 0.13991001 0.14206581 0.17005496 0.3423767 0.25555912 0.008221397 -0.007322913 -0.06889877 -0.10041825 0.038738903 0.035881083 0.08182185 0.14565554 0.07310969 0.087392665 0.07753823 0.054863185 0.056766562 0.05846778 0.009035972 -0.021916987 -0.06091948 -0.05007799 -0.0391407 -0.0021818597 0.026009763 0.02250287 0.0054117106 0.094339006 0.10928069 0.13556029 0.21335137 0.1903114 0.008041714 -0.025846932 -0.15117003 -0.113493785 0.12297763 0.14067955 0.17083012 0.13087709 0.02477929 0.07101125 0.07291101 0.035586346 0.05724997 0.03626474 0.041366484 0.014152107 0.0029603571 -0.02460561 -0.018877845 -0.06370702 -0.04951446 0.050059095 -0.010276208 0.031535953 0.049534917 0.18683477 0.16626428 0.18741086 0.009983876 0.014235296 -0.04535376 -0.04630414 0.1707176 0.123246774 0.15970388 0.032620184 0.008927286 0.021698238 -0.02831749 -0.007801936 0.022847328 0.03818217 0.027878163 0.0026201364 0.030434607 -0.03053047 -0.0010506288 -0.065926895 0.09771459 0.0821619 0.039187834 -0.003940271 0.08399477 0.04143369 0.01694229 0.08420037 -0.0027791243 -0.0676269 0.0071531394 -0.08255463 0.089619786 0.07666646 0.0051189438 -0.07755535 0.006659316 -0.00480154 -0.030911485 0.032750204 0.09431685 0.08162052 0.073842876 0.060499642 0.048217494 -0.022097116 -0.051491886 0.013097575 0.06785722 0.13439025 -0.011495896 0.0027199094 -0.07874638 -0.08340519 -0.014266955 0.114314996 0.007176389 -0.018589288 0.09516081 -0.11957302 -0.0010527765 -0.08364034 -0.13678443 -0.036112133 -0.034689736 -0.03082612 -0.04215776 0.0028461472 0.020913413 0.06566205 0.0996962 0.07538938 0.06549812 -0.038690373 0.006334721 0.03543958 0.024080774 -0.025813848 -0.07251146 -0.09943094 -0.089795694 -0.08125327 -0.05904276 -0.043955993 -0.030189611 0.00729408 0.05615159 -0.12301804 0.03083016 -0.06629269 -0.13420735 -0.08258098 -0.04756253 -0.080071636 -0.056934755 0.015753139 -0.005187982 0.071899496 0.050742872 0.066437095 0.10216585 0.0366286 0.070682675 0.0066440464 -0.022987204 -0.033572026 -0.08705126 -0.031716276 -0.028218301 -0.07221691 -0.10663852 0.02410029 -0.108989485 0.0033148013 0.06597229 -0.07616013 0.02560023 -0.052137088 -0.10576725 -0.033483822 -0.050238907 -0.05930695 -0.051766112 -0.020139862 -0.053422593 0.03582029 0.036226947 -0.0058729486 0.014198046 -0.020061385 0.05470354 0.016205123 -0.06095419 -0.058234774 -0.11251888 -0.075366035 -0.07076827 -0.020749032 -0.11980725 -0.09877372 -0.11780064 -0.016419595 0.03377752 -0.004480675 0.02528993 -0.103013486 -0.094502 -0.038704816 -0.06969373 -0.06471578 -0.04436776 -0.14341317 -0.03878529 0.019601911 0.01688046 0.017888954 -0.00014347809 0.055728633 0.05630367 -0.044171683 -0.101541705 -0.0011720096 -0.04382359 -0.10493689 -0.060544416 0.022981577 -0.16129272 -0.077541985 -0.052955408 0.09527724 -0.013936889 0.012373023 0.050506923 -0.032574065 0.07401901 0.08107164 -0.022949588 -0.036903773 -0.11728347 -0.03676601 -0.01831879 -0.10112876 -0.0046418128 0.011194592 -0.024396885 -0.047130596 -0.018890033 -0.04058593 0.013915556 0.01241933 -0.034961265 -0.070219554 -0.0533856 0.0050800275 -0.1435018 0.078138866 -0.012110042 -0.052378774 -0.0719508 -0.04955427 -0.074070185 -0.11185704 0.08192535 0.015488597 -0.018972104 -0.029541293 -0.11280898 -0.034145307 -0.16773131 -0.17224051 -0.07349795 -0.092892975 -0.041954465 -0.03191764 -0.0060880836 -0.042401437 -0.009303639 -0.032965902 -0.053420354 -0.04793005 0.006357193 -0.0035372167 -0.1619802 0.015345615 -0.03915728 -0.0023625963 -0.06599536 -0.04553997 -0.150876 -0.07474033 0.087209605 0.014512314 -0.015947362 -0.015640875 -0.11565668 -0.1337958 -0.124570325 -0.20021355 -0.096672595 -0.09466216 -0.023657838 -0.025782017 -0.004469313 -0.10236049 -0.05232028 -0.052588128 -0.054423884 0.033348285 0.048600443 -0.0025383998 -0.008625751 -0.06900396 -0.032306265 -0.07874002 -0.037633106 -0.057626482 -0.1833214 0.0024720216 -0.010760332 0.059377417 0.04910998 -0.029181128 -0.047006883 -0.10492261 -0.06517348 -0.07685902 -0.032120593 -0.023612099 -0.0044941762 -0.0058049024 -0.005479094 -0.10573229 -0.08870332 -0.067801476 0.08194612 0.05128277 0.04839803 0.0024812524 -0.03851028 -0.14016943 -0.05153613 -0.07401566 0.022318268 -0.11760268 -0.054576688 0.027114028 -0.095709465 -0.024310214 0.048090115 0.001457588 -0.031071737 -0.010855142 0.027098566 0.0033263667 -0.020876423 -0.0026512905 -0.04030551 0.015954144 0.017161647 -0.023903694 -0.078680344 -0.0441312 0.02401937 0.054190844 0.115620926 0.18205822 0.051875755 -0.06671561 0.0008406765 0.03350482 0.0006279733 -0.045317173 0.11361401 0.07827506 -0.057353877 -0.0940673 0.02310741 0.021664603 0.007766899 0.06407076 0.04069261 -0.036519226 0.029245846 0.02284003 -0.011501887 0.033409853 -0.0018870502 0.06589182 -0.039134245 0.05526912 0.07309391 0.1628011 0.26545408 0.16645221 0.027717328 -0.078038916 0.026285144 0.009586965 0.03400718 0.01566298 0.23266375 0.1493423 -0.015270929 0.015485659 0.082572654 0.0849555 0.008765507 0.114510916 0.13030699 0.04933089 0.13275121 0.020570608 0.025995132 0.07315076 -0.03724148 -0.015278423 0.08844045 0.14433356 0.08504245 0.13613857 0.22700244 0.0012158877 -0.10785108 -0.06859403 0.01414093 -0.0211241 -0.034821764 0.078179576 -0.03258717 -0.009793066 0.13100958 0.06455022 0.04848445 0.054286722 0.11070677 0.29143798 0.23025624 0.16535124 0.17237194 0.15631148 0.21984437 0.22500132 0.13084115 0.14445947 0.1660724 0.16833274 0.12802558 0.03232198 0.007561459 0.071691975 -0.006289223 -0.07598842 -0.017782217 -0.035661876 -0.0076806378 -0.012357176 0.037784968 0.09980341 0.12851956 0.24238019 0.19938923 0.21834072 0.2922829 0.2403104 0.2424796 0.27143645 0.28371298 0.3163201 0.13601339 0.15564886 0.2830428 0.2539008 0.09751551 0.24258783 0.26562 0.13566123 0.16836669 0.11492085 0.014298966 -0.03005621 -0.029904153 -0.0038248089 0.027833143 0.03108808 0.009530191 -0.11970335 -0.118158706 0.0922935 0.09193305 0.05880109 0.06102515 0.046662427 0.14107701 0.090451054 0.040030725 0.16069564 0.14251453 0.09898869 0.035711512 0.14124759 0.12336703 0.11176451 0.07233408 0.08386178 0.05736739 0.034556307 -0.020692179 -0.011572962 0.019763947
-0.004111597 0.009186426 0.030181572 0.032153185 0.011938257 -0.021157721 0.010170907 -0.017035209 -0.024213387 0.002202166 -0.02144923 0.009892579 0.025128772 0.028491406 -0.0034882512 0.014138499 -0.024123631 -0.019357359 0.004359573 0.007060251 0.011382844 0.015050212 -0.0040984624 0.00458903 0.031831942 -0.0033334836 0.019002957 -0.027977834 -0.03507941 -0.025110425 -0.024236467 -0.010528506 0.008424781 0.020352347 0.07536145 0.00986723 0.03552651 0.06370981 0.06704488 0.107861124 0.14237323 0.12380097 0.014884424 0.04353354 0.06069854 0.057377785 0.11867723 0.10810297 0.07563365 0.077465035 0.036485497 0.0075602015 0.017081087 -0.0058844048 -0.007729748 0.0076817703 -0.03566428 -0.008640966 0.057312492 0.08199478 0.06944864 0.041881897 0.03956677 0.09217425 0.07753726 0.043632522 0.014047736 0.0676321 0.041527204 -0.03747766 -0.088899545 -0.07001872 0.035383284 0.07187288 0.08559693 0.11832722 0.10035929 0.07841346 0.066223904 0.0756879 0.008046336 -0.049389064 -0.013098104 -0.004746893 0.024255954 -0.024487901 -0.14233863 0.10329845 0.09967128 0.012587334 0.052258305 0.058698293 0.013026022 0.06881151 0.03544553 0.03406234 -0.10895832 -0.02648774 0.0051111854 0.04432661 0.0831159 0.19508764 0.19632514 0.11305513 0.118718155 0.1177988 0.089903355 0.12896249 0.009744062 -0.07699259 0.025403474 0.017621275 -0.022576649 -0.023304146 -0.11760949 -0.043948 0.102989696 -0.0072856117 -0.040787183 0.023446538 -0.023608156 0.0045474754 -0.022894025 -0.09824346 -0.11069856 -0.11516089 -0.10057617 0.03771541 0.059105795 0.13451208 0.10517561 0.076525435 0.0727519 0.17694801 0.0723819 0.08475121 0.068242215 0.041144352 0.07442791 0.092775635 -0.004529178 0.00075266196 -0.08286689 -0.024219982 0.019781752 -0.019844102 -0.02791103 -0.008142056 0.046904467 -0.036661524 -0.049265 -0.16219924 -0.15894079 -0.057281513 -0.027472327 0.00085195893 -0.02539754 0.080496304 0.022130912 0.04919914 0.10325416 0.11258308 0.07869845 0.011355948 0.053216383 0.06827604 0.15090539 0.06192301 -0.008670624 -0.03091126 0.06479255 -0.105382025 -0.010099126 0.030084666 0.114343666 0.072884284 0.040794197 -0.041358024 -0.1315142 -0.084358335 -0.08768554 -0.03542466 -0.03995149 -0.08345602 -0.061788887 -0.05283009 -0.045648817 0.046123903 0.034224026 0.018955085 0.13490623 0.09447536 0.08675296 0.10559079 -0.025235593 -0.015548187 -0.0019537671 0.025189253 0.021702344 -0.048042614 -0.030328805 0.016632104 0.10862814 0.12576629 0.046447866 0.01936019 -0.0007107156 -0.040701184 -0.02977748 -0.033015933 -0.12582435 -0.112934105 -0.15097646 -0.10124351 -0.045174144 -0.10066155 -0.04932436 -0.025464898 0.015294735 0.03514586 0.08977858 0.12638293 -0.058428038 -0.016208494 0.06662108 0.089980215 0.056417745 0.0871087 -0.049484994 -0.013585217 0.021605596 0.01986747 0.062055334 0.026873892 -0.014173035 -0.01574274 0.05525643 -0.008900496 -0.07608071 -0.104840785 -0.013221745 -0.05434326 -0.067113884 -0.07873333 0.013527423 -0.005465676 0.008395902 0.12459617 0.1510993 0.085329086 -0.030911485 0.043531567 0.037400346 0.14499666 0.10959617 0.10484645 0.051228862 -0.0048455503 -0.008046146 0.0050269095 -0.002393254 0.0001644002 0.028536731 0.04147403 0.07395593 0.06310812 0.0232062 -0.07299397 -0.026573207 0.022786774 -0.0046966593 -0.05875996 0.04119007 -0.0031043063 0.046554077 0.13737653 0.25822046 0.15770206 -0.11154498 -0.04117836 0.060488824 0.06601798 0.11492468 0.09947555 0.06016937 -0.013267964 -0.06267099 -0.040509872 -0.0075751664 0.052715816 0.029986864 0.12268532 0.16756813 0.19076127 0.07564114 0.040821157 0.033562884 0.08308238 0.029609364 0.006155563 0.032076854 0.016669204 0.043508977 0.1553697 0.2860606 -0.015665289 -0.027004594 -0.07801018 0.078531414 0.10295706 0.07480648 0.07025284 -0.037488684 -0.09732384 -0.043053843 -0.034824 -0.041633092 -0.006036522 -0.05005502 0.07246856 0.1318608 0.12885183 0.0934239 0.07547369 0.024070378 0.077419244 0.03610931 0.012018919 -0.04986703 -0.0052327025 0.0022197682 0.1554303 0.21886854 0.009669071 0.028652124 0.020207401 -0.011058327 0.0995882 0.14036497 0.055964325 -0.048589174 -0.0028477341 0.015138653 0.0028652307 -0.05104404 -0.007840174 -0.009734049 -7.8297926e-05 0.038667165 0.0848605 0.018773563 0.054373983 0.020586587 0.04459929 0.002262477 -0.026189309 -0.049644336 -0.06303312 0.024815535 0.15219419 0.16490236 0.041795462 -0.009078181 -0.035659153 -0.019922266 0.04106306 0.12915327 -0.007503689 -0.08091143 0.06454761 0.0929004 -0.025633635 -0.06966123 -0.033012472 -0.04310298 0.0024694214 0.0498913 -0.03608285 0.047257245 0.047516134 -0.11344521 -0.06183987 -0.102705084 -0.11412219 -0.13472733 -0.041710638 0.049740024 0.14115216 0.2517229 0.11221473 -0.11693467 -0.07551608 0.041441526 0.025353635 0.12858616 0.019008363 -0.16650656 0.1006135 0.100000694 -0.00809289 -0.06831576 -0.013654996 0.086374804 0.054857586 0.06801255 0.018861 0.030321864 -0.048133533 -0.11310525 -0.13490649 -0.09493708 -0.12087898 -0.10735195 -0.07661394 -0.025770254 0.1394136 0.24479267 0.029411007 -0.1463629 -0.06888325 0.02567076 -0.008207028 0.053491637 -0.0398471 -0.073913395 0.0932833 0.04567441 0.037387993 -0.014500097 0.053772647 0.00022039391 -0.011859596 0.019654592 -0.064045876 -0.015847348 -0.0594733 -0.12594195 -0.09723146 0.007475035 -0.084637076 -0.05879436 -0.04901893 -0.015744807 0.089080505 0.19019888 -0.008012905 -0.14421505 -0.059873886 -0.01045311 -0.056067616 -0.054979492 -0.060783505 -0.03781139 0.0055857454 0.049395 0.037015826 0.031971846 0.03400441 0.07195586 0.0055566784 -0.049470145 -0.14418127 -0.028569156 0.0039253095 -0.04382006 -0.04771451 0.04952495 0.03151232 -0.011740272 -0.07250494 -0.02039743 0.116930075 0.094536334 -0.053270392 -0.14899403 -0.09388848 -0.02154178 -0.044010762 -0.059260145 -0.06345934 -0.009512016 0.06878029 0.03722159 0.03416823 -0.0029315061 0.004008387 0.086120926 0.083134 -0.0934425 -0.12972535 -0.0904746 0.039311014 0.017455367 0.024568606 0.04364333 0.03592631 0.036830667 -0.06501226 -0.041899223 0.10415873 0.11619934 -0.07898181 -0.07138373 0.113617554 0.068843715 0.012895794 3.748257e-05 -0.103234276 -0.061520435 0.047095403 0.10562014 0.09166064 0.0150020225 -0.0019247873 0.045907512 0.04518457 0.0017867245 -0.09572135 -0.069862865 0.05997865 0.05401208 0.11534011 0.12430204 -0.020665882 -0.09729073 -0.078707725 -0.04689545 0.05450719 0.008583196 -0.09262139 -0.09037075 -0.056918923 -0.030671477 0.1517181 0.015553137 -0.085619375 -0.009569683 0.009661853 0.034027055 0.002530688 -0.005067885 -0.025152948 0.042629763 -0.0063750884 0.02800997 -0.043157633 -0.0116476305 0.057734247 0.060741782 0.15302896 0.09292306 -0.016858403 -0.03920653 -0.11930347 -0.031486455 -0.058590896 -0.038934425 -0.11394045 -0.10170475 -0.021216972 0.011214312 0.043035798 -0.03163876 -0.12094283 -0.07343732 0.022817729 -0.004326675 -0.07945223 -0.035162337 -0.03473868 0.07007579 0.077437095 0.06198518 0.08248201 0.0060521094 0.031883754 0.018367853 0.029668383 -0.0012352151 -0.10151806 -0.08292735 -0.086341955 -0.07363427 -0.09000823 -0.095549926 -0.09970197 -0.06078305 -0.06705272 -0.02586175 -0.074641846 -0.14031951 -0.04803248 -0.094859116 -0.08316913 -0.06511024 -0.07476807 -0.059115514 -0.0039551184 0.073907435 0.16694482 0.17275058 0.13323979 0.066094965 0.03360982 0.042913396 0.011710576 -0.06679683 -0.09437677 -0.06549204 -0.06891658 -0.09757378 -0.1021723 -0.1270973 -0.09087361 -0.0025000463 0.041539073 -0.059291527 -0.005119975 -0.09061063 -0.05598688 -0.10884563 -0.1582546 -0.1134485 -0.019869514 0.00018101925 0.046878703 0.05241206 0.19446434 0.14750014 0.15616606 0.08815532 0.08414415 0.028338347 -0.033847187 -0.12214296 -0.0953206 -0.11561942 -0.1253333 -0.07127965 -0.104076326 -0.1258978 -0.09830462 -0.0077243554 0.049482018 -0.008043375 -0.00044118933 -0.007814019 -0.0765715 -0.12856326 -0.12796572 -0.11695031 -0.040028203 0.009398566 -0.018922376 0.04919396 0.10590548 0.060214356 0.06512032 0.07404072 0.028937591 -0.035954714 -0.077875905 -0.13578168 -0.124811105 -0.1481472 -0.11255574 -0.070814006 -0.112063296 -0.087927565 -0.07800131 -0.09284804 -0.0032482618 -0.033937275 0.0063796174 0.020298757 0.031088965 -0.039336104 -0.09957914 -0.16596743 -0.12518676 -0.06574928 0.0025433756 -0.029240932 -0.03833564 0.053364124 0.03743587 0.044192232 -0.011874185 0.020504842 -0.061719466 -0.09604368 -0.116385035 -0.12865737 -0.08830148 -0.09285236 -0.16064973 -0.11775342 -0.066377684 -0.091498785 -0.01563794 0.032777835 -0.02992476 -0.00821735 -0.0010468285 0.012442608 -0.0786696 -0.1275748 -0.12342326 -0.17471857 -0.11821076 -0.10299653 -0.047000304 -0.08151192 -0.025148345 -0.05457191 -0.05504202 0.04027231 0.039402395 -0.010391662 -0.020479204 -0.044737868 -0.0371578 -0.032064028 -0.10786238 -0.043021727 0.027242543 0.0020888704 -0.0015488097 0.021619368 -0.022668252 -0.0058442443 -0.011730331 -0.07640113 -0.13292861 -0.14407398 -0.1312133 -0.08703051 -0.14091046 -0.11864532 -0.043869104 0.02102505 0.046883386 -0.117426656 -0.061637405 0.006025358 -0.0041707233 0.031649925 0.013825077 0.014788492 -0.0095438175 0.12591283 0.077890895 0.010659412 -0.00097564026 0.023049632 -0.02039895 0.01151036 0.029582148 -0.020573102 -0.01351847 0.04961823 0.06500116 0.045492355 -0.030793648 -0.010954568 -0.0077584246 0.1123332 0.08359837 0.07652865 0.10236715 -0.007910936 -0.014919362 0.0328687 0.10468933 0.04689599 0.06277092 0.02462457 0.09929273 0.081976205 0.043413933 -0.009213346 0.013639855 -0.0035638257 -0.0050527924
-0.03522947 -0.0330071 -0.013630519 0.028993208 -0.025297442 0.0118763875 -0.004394425 0.030383632 0.03385368 -0.00756787 0.0037658643 -0.0043416237 0.010395089 0.0031211888 -0.026991462 0.019513965 -0.030754184 0.02334955 0.032072313 0.017221354 -0.007925975 -0.025696982 -0.0007097551 -0.021877643 -0.020043654 -0.0055142557 0.012798953 0.0060613668 -0.018437216 -0.031034058 -0.007876247 -0.00019369807 -0.019567752 -0.023474062 -0.013519441 -0.003537971 0.02921057 0.022992007 -0.08251662 -0.096880965 0.009787986 0.043119844 0.053473007 0.057882637 0.011701235 0.029347764 0.019345693 -0.0034855644 -0.007080009 0.046634026 0.034339 0.022046098 -0.024461858 -0.015130112 -0.03530913 -0.006499708 0.024952801 -0.03438913 -0.020519942 0.03815689 -0.013917498 -0.063836604 -0.07122341 -0.011846572 -0.08144612 -0.1265454 -0.21840979 -0.12992796 -0.08130829 -0.015932534 -0.08607542 -0.043451168 0.0038918066 0.06923711 0.1498503 0.13218042 0.115789115 0.07585126 0.09462858 0.052226257 0.009488178 0.0048955297 -0.029043667 -0.009590549 0.019518696 -0.028698556 0.03319676 0.18632506 0.14383848 0.026232354 0.05800292 0.084555514 0.119282626 0.06581551 0.040543918 0.08399753 0.14798047 0.098423444 0.08072841 0.054043595 -0.022718515 -0.030597858 0.09738372 0.07253283 0.1352613 0.10594591 0.0055695516 0.148568 0.11671893 -0.030422688 -0.04245378 7.541265e-05 -0.031519257 0.00669782 0.062764734 0.08818197 -0.05711438 -0.06663716 -0.01673516 0.14462504 0.2145934 0.13373229 0.21807303 0.16563565 0.13897733 0.048196625 0.044168115 0.039583046 0.04250035 0.01553256 0.07823821 0.06790413 0.08769257 0.098586716 0.06932365 0.083155245 0.18957217 0.08380786 0.024505112 0.03139173 0.02086605 -0.03554696 0.10042626 0.1333208 -0.055165574 -0.0918208 -0.009931368 0.1582432 0.03396598 0.09514807 0.097172804 0.016698979 -0.009232705 -0.034402836 -0.051769312 -0.02891737 0.07994295 0.11668258 0.098108865 0.038174 0.10369946 0.019983504 0.05205135 0.04748039 0.0329828 0.11585433 0.19374722 0.051919494 0.014524691 0.06219713 -0.09794776 -0.090797916 -0.07285714 -0.036072496 0.019488469 0.06252093 0.017365448 0.0038867514 -0.08129399 -0.06631353 -0.0055965986 0.013057869 0.022325248 0.12028381 0.11973029 0.073787555 0.018665899 0.065521955 0.012602515 -0.13394165 -0.13596375 0.04522853 0.076067686 0.06187769 0.12706642 -0.019227821 -0.02574369 0.0048873187 -0.116872355 -0.011799437 -0.06534495 -0.042388868 -0.026213929 -0.044123784 -0.0005184781 -0.07002386 -0.026820863 -0.030062266 0.057823095 -0.009113585 0.076219946 0.08172195 0.063783124 -0.0015473787 -0.06793991 0.018749094 -0.0036836548 -0.093451075 -0.051843386 0.0075619663 0.020703824 0.15591106 0.11054135 0.026453301 -0.025831841 -0.06362842 -0.10686519 -0.09662585 -0.14587976 -0.07702803 -0.025861476 -0.05866761 -0.012937857 0.07211129 0.06529552 0.06873673 0.032277733 -0.020874508 0.006107327 -0.07762862 -0.08451932 -0.083981186 -0.025261372 -0.055566322 -0.016537696 0.013268159 0.040560253 0.037436225 0.09956414 0.3204579 0.086489 0.047121026 -0.03406711 -0.06807775 -0.28268495 -0.17704369 -0.15791473 -0.057911 0.017110955 0.002533684 0.08191756 0.059120174 0.13579623 0.06270976 -0.006207924 -0.0748269 -0.09466798 -0.10644039 -0.06509095 -0.04642962 0.011045829 -0.0673587 -0.061272506 0.025347544 0.13091609 0.047688242 0.06520362 0.3901332 0.14658539 0.044344496 -0.056901626 -0.042527758 -0.23979595 -0.062518835 -0.11494048 -0.08971313 -0.052269876 -0.007636945 0.07642332 0.010919398 0.008847359 0.0020609302 -0.043435425 0.06060975 0.05835555 0.04064595 0.07489032 0.06615319 0.063288964 -0.042432394 0.008397445 -0.08130224 -0.008004281 -0.10852602 0.03741192 0.18519956 0.14302461 0.0046350034 -0.045122 -0.09066008 -0.19265752 -0.086058244 -0.1499018 -0.096819274 -0.12006701 -0.08687867 0.017635424 -0.08419294 -0.06493528 -0.024143273 0.08470501 0.17856339 0.20088133 0.20049682 0.16021945 0.10449344 0.1019435 -0.03658341 -0.10217024 -0.12609844 -0.20465106 -0.25726262 -0.10134985 0.0026551592 -0.021834118 -0.065558 0.024418032 -0.09874801 -0.2503524 -0.08979452 -0.18898079 -0.15110646 -0.1879223 -0.14097926 -0.08620291 -0.113390796 0.008288334 0.07246638 0.09200326 0.18210141 0.26019463 0.17127441 0.12236897 0.12086916 0.011525357 -0.044649325 -0.111643426 -0.15596072 -0.24702741 -0.2367552 -0.26044938 -0.054195937 0.104895554 -0.012143863 0.03969107 -0.094781 -0.15783499 -0.12581497 -0.17422783 -0.21891387 -0.2821942 -0.1549751 -0.14126614 -0.1202499 -0.11540556 0.0014797675 0.07094143 0.15898785 0.14855082 0.09518938 0.08724825 0.093329124 -0.019851046 -0.015381389 -0.060512453 -0.10004961 -0.19980569 -0.1497243 -0.14777434 -0.080982976 -0.0031121825 -0.057935793 0.04915751 -0.0067446204 -0.080542974 -0.112395726 -0.12420928 -0.25508013 -0.25744218 -0.28599256 -0.28841978 -0.26469126 -0.22436057 -0.12461148 -0.055067338 0.020121658 0.057643503 0.011804808 0.03706873 0.04557486 -0.021831172 0.0030139326 0.008374108 0.0051002656 -0.022375122 -0.122088686 -0.08536029 -0.03012336 -0.15836722 -0.051748168 0.014592087 0.06621615 0.015665598 -0.05950447 0.0020180843 -0.05633331 -0.09063588 -0.20963062 -0.23831016 -0.32636005 -0.3280237 -0.21931292 -0.11697012 -0.07127313 -0.040995855 -0.11111032 -0.035206664 0.014287122 0.08355165 0.084538214 0.16359818 0.051003534 0.009471644 0.023595743 -0.0056670066 -0.04797292 -0.1560781 -0.0045242645 -0.027396321 0.06827515 0.106663555 0.021414798 0.17950295 0.10980514 0.04080112 -0.041429676 -0.08566845 -0.3064068 -0.36339375 -0.40930128 -0.2809051 -0.15497096 -0.141573 -0.14033368 -0.03532308 0.068325184 0.19308503 0.15379679 0.1444168 0.013070541 0.057613514 0.06273395 0.06345635 -0.1362491 -0.1658909 -0.033326227 0.02775387 0.050751466 0.07340299 0.19614732 0.22643887 0.18841463 0.1793175 0.12326119 0.06346405 -0.13764405 -0.24417563 -0.32634115 -0.30298966 -0.21487983 -0.16172072 -0.05130733 -0.044604175 0.15495452 0.14658041 0.18562092 0.11516027 -0.00851339 -0.0489899 -0.061793953 -0.20569582 -0.26760253 -0.13797322 -0.1217799 -0.009878776 -0.0125488 0.0997476 0.31056425 0.19478486 0.18179561 0.24835378 0.17782165 0.12130031 0.061284278 0.028498977 -0.0037283744 -0.10299203 -0.061491393 -0.02513153 -0.001596734 0.03327867 0.15054134 0.060383216 0.13845481 0.05518982 0.0035389822 -0.12186943 -0.14186063 -0.2647622 -0.19927958 -0.12233182 -0.09827796 0.06784857 -0.0783005 0.03114521 0.1321649 0.08596076 0.124827296 0.119491145 0.14500996 0.16907777 0.17061312 0.21802917 0.11053208 -0.017341232 -0.03723857 -0.04699691 -0.040071476 0.031115288 0.033896726 0.1041895 0.056285992 -0.023670381 -0.041548964 -0.13611428 -0.10551606 -0.1809737 -0.066080816 -0.061376393 -0.07136403 -0.0036495968 0.024308503 -0.12062231 -0.027611518 0.031975597 0.04503197 0.0059424997 0.022773765 0.08837332 0.17418212 0.14033973 0.07336437 -0.018934164 -0.0015329396 -0.011256368 -0.026159402 -0.0022043062 0.016401459 0.035840724 0.022560677 0.04393136 -0.04375729 -0.14188422 -0.17997254 -0.2588178 -0.13588673 -0.06462552 0.065819785 0.06652627 0.011658597 -0.066651665 -0.12546127 -0.07031677 -0.052711032 -0.09712009 -0.015380502 0.014389253 0.075042136 0.0017564945 0.0649566 0.07776431 0.028702416 0.046864443 -0.006667159 -0.040654242 -0.0055115432 0.05230744 0.04242436 0.020049525 -0.121731594 -0.21615453 -0.29203406 -0.22076628 -0.14264204 -0.07039174 0.010266376 0.0646688 0.09423194 -0.06435833 -0.022998642 -0.097807504 -0.15811205 -0.21161094 -0.15164311 -0.07879482 -0.1103585 -0.02415027 0.057484876 -0.008322141 0.019364681 -0.017555308 -0.07194386 -0.041610707 0.00768976 0.050612733 0.0139213065 -0.09923739 -0.26304466 -0.24122196 -0.1278237 -0.18789947 -0.11023764 -0.017831672 -0.025262829 -0.006484347 -0.033504814 0.011113226 0.14164917 0.08189254 0.022068074 -0.09720293 -0.059038535 -0.063983425 -0.10550476 -0.06300852 0.0123807 -0.054215007 -0.023157472 -0.04306466 -0.05109693 0.08546772 0.048056245 0.13213827 -0.071173735 -0.1782795 -0.2011214 -0.21236053 -0.17667407 -0.12577242 -0.08089746 0.02577148 0.01711846 -0.024791088 0.0033365318 -0.048000015 0.18392575 0.023403287 -0.015553516 0.07698246 0.10394065 -0.007029221 -0.0044868668 0.0067555676 -0.027332805 0.026419204 -0.079783715 -0.07758993 -0.030309243 0.05172761 -0.046055708 -0.0385893 -0.17441224 -0.21531555 -0.24045458 -0.20286931 -0.12877117 -0.13074988 -0.038234755 -0.027998708 -0.034011256 0.0029063823 -0.004647404 0.022742428 -0.05198929 -0.033582266 0.12922007 0.1498551 0.110387035 0.048676006 0.08973936 0.07202565 0.030138498 0.050334316 0.031062044 0.033354115 0.07603037 0.016003693 -0.052957032 -0.09631597 -0.11069143 -0.011274934 -0.05947407 -0.07715192 -0.095426746 -0.10154734 0.0065206974 0.009670105 0.016727973 -0.020999428 0.0051337825 -0.033398207 0.026951434 0.0461144 0.02172698 0.06066786 -0.06787419 -0.05143057 0.09548821 0.11957185 0.060005527 0.031091169 -0.07471083 -0.0382035 0.043117147 0.025320714 -0.03158327 -0.06471143 -0.0921382 -0.101866916 0.011857705 0.0067077135 0.0025342572 -0.03379483 0.003752624 0.023549933 -0.004665907 -0.03259065 -0.0066082524 0.010453356 -0.024596347 0.0281331 0.001288761 -0.009046595 -0.030307729 -0.07050449 -0.21426702 -0.18296912 -0.24438357 -0.20963347 -0.28488624 -0.04473284 0.02183883 -0.0034950727 -0.20702346 -0.14911611 -0.1359735 -0.14531758 -0.057521973 -0.057576343 -0.026392099 -0.012189363 -0.02494643 0.030616017 -0.013980053
-0.028271684 0.016041059 -0.030169953 -0.011345323 0.0042003524 0.027590446 -0.005292595 -0.034488644 0.011567687 0.03217845 0.025396395 -0.008488102 -0.0070107514 -0.011483223 -0.11389099 -0.020142337 -0.0023292943 0.024803754 0.02563793 0.0008881007 0.016732639 0.02629442 -0.0116463695 0.01112703 -0.008275121 -0.027813729 0.025099518 0.035423607 0.020761427 -0.024476899 0.025286369 -0.010556242 0.03237608 -0.02041775 -0.012409218 -0.017797252 0.02130993 0.05439579 0.10706809 0.1317233 0.13762534 0.19891 0.15772514 -0.03627873 -0.0131494105 0.03421293 0.049449127 0.08992989 0.10081999 0.074781574 0.057614505 0.030664947 0.0044515776 0.02367575 -0.029954191 -0.012613276 -0.011678083 0.004377033 0.01648686 -0.08451162 -0.0500527 0.029453449 0.0031789024 0.054381065 0.004259566 0.013045445 0.10113834 0.08084809 0.11118124 0.15287626 0.1265527 -0.024247456 -0.073786706 -0.07360805 -0.08288412 -0.08292841 -0.035534296 0.028995832 0.049816262 -0.09927717 -0.07531031 -0.054795824 -0.0022889888 -0.033999026 -0.0014447315 -0.03066441 0.025701385 -0.055410907 -0.0055342605 -0.00800263 -0.061126415 -0.00687331 -0.08575411 -0.056313075 -0.034932178 0.046396494 -0.004076026 0.11985881 0.06872801 -0.08293859 -0.022869987 -0.05330095 -0.058864675 -0.04052437 0.01834994 0.017447693 0.011192644 -0.0012789802 -0.07315786 -0.036952496 -0.014101637 -0.006466078 -0.034460977 -0.013390329 -0.080153294 -0.002251287 0.050460882 -0.033344362 -0.03309677 -0.043703634 -0.07513951 -0.03196094 0.015185244 0.022691296 0.098105706 0.08836176 0.023617432 -0.007733647 -0.02218952 -0.024334755 -0.06540877 -0.040987983 0.017111467 -0.005774311 0.07859885 0.08061567 -0.028952483 -0.039027687 -0.07430764 -0.026894044 -0.0042921775 -0.00036281775 -0.09247222 -0.11900829 -0.020913953 -0.020578545 -0.07743066 -0.07202522 -0.0027387864 0.020705635 0.09018306 0.069372945 0.0118274 0.0017982054 -0.058778256 -0.11939275 -0.10306585 -0.04572357 -0.027617944 -0.04593751 -0.020546328 -0.02259669 -0.030644558 0.047286466 -0.0019358798 -0.102074996 0.003055855 -0.008413919 0.007642912 -0.04224193 0.018125784 -0.19907661 -0.021199394 0.022481985 -0.093974225 -0.06376176 -0.021442354 0.017812235 0.0110353 -0.018575544 -0.02958315 0.028084269 -0.05084114 -0.06737417 -0.08499952 -0.060700364 -0.037390195 -0.035934363 -0.023081625 -0.028234482 -0.10112249 -0.028895704 0.025491284 0.0013092591 -0.03544396 -0.031299397 -0.032271225 -0.102352284 -0.051714204 -0.10506937 -0.0792112 -0.035138715 -0.04385096 0.023785384 0.014119444 -0.0026670133 0.00023882338 0.06309798 0.051410012 0.033638105 -0.049379826 -0.061271194 -0.035497822 0.028654914 -0.004406564 0.0699185 0.02416216 0.024395237 -0.05812916 -0.026570579 0.027154531 0.12042028 -0.004077655 -0.020921247 0.054342 -0.028359488 0.118066825 -0.085471965 -0.008178527 -0.060168922 0.03687841 -0.07253759 -0.027316127 0.056871083 0.059246738 0.014053957 0.009823434 -0.069968626 -0.06642719 0.0006508587 -0.016314307 0.06749758 0.06171169 -0.03472064 0.0047200127 0.041466136 -0.082123235 -0.052672658 0.10357601 0.23371696 0.05075493 -0.07000689 -0.013136568 0.043715965 0.03100601 -0.045868818 0.056067407 0.010558891 -0.04961364 -0.08212539 -0.019649321 0.06989734 0.058613736 0.009335403 -0.053813536 -0.11908264 -0.16367681 -0.13292249 -0.007058408 0.0510616 -0.009639943 0.0015991986 0.08329983 0.077036254 -0.06090521 -0.03916816 0.09985432 0.15014993 -0.011152231 0.020889658 -0.015598318 0.053021323 0.03932689 0.08779007 0.046540275 0.060684457 -0.047639303 -0.03362901 0.04326107 0.07916698 0.041605256 -0.01798723 -0.07953159 -0.14242737 -0.2020673 -0.15938102 -0.02690435 0.07529686 0.061209705 0.02596304 0.06017618 0.09471986 0.027065227 -0.066997536 0.021977285 0.13297093 0.025544891 0.07159835 0.09939997 0.07230666 -0.08314914 -0.005556812 -0.06476823 -0.006098803 0.014794557 0.051340517 -0.007733498 -0.0055892747 0.06174193 -0.044950392 -0.08511864 -0.15345028 -0.23527172 -0.21631382 -0.111039445 0.026608914 0.11762939 0.0618459 0.059098355 0.05567589 0.033308256 -0.022498477 -0.098632425 -0.028675871 -0.03271706 0.011656327 0.03907666 0.07170491 -0.08298954 -0.0075368867 -0.028747095 0.044843614 0.103257805 -0.016122915 0.023446348 0.036835536 0.03067357 -0.013846694 -0.05368567 -0.0894443 -0.16754563 -0.26550448 -0.18861112 -0.013985066 0.03675515 0.05573043 0.07113824 0.07480755 0.11456051 0.035267256 -0.042515468 -0.16726793 -0.07258449 0.012259341 -0.01744517 0.016191095 -0.020593692 -0.022210129 0.06045157 0.11811408 0.052785963 0.07344116 0.051654026 0.075591676 0.09309191 0.026120456 -0.031874143 -0.13157219 -0.21822858 -0.25666514 -0.24329895 -0.02047727 0.03928255 0.047891095 0.06962557 0.11391577 0.15543047 0.029511519 -0.07314653 -0.1262939 -0.17688428 -0.034433417 0.029686438 -0.02923617 -0.010871516 -0.011379413 0.12594971 0.114697225 0.079037085 0.07926995 0.061436117 0.043716844 0.0863103 0.050648678 0.012435421 -0.08362636 -0.13184325 -0.28759414 -0.19322169 -0.0036816464 0.07543876 0.124081954 0.13406777 0.12025308 0.053977888 0.024187554 -0.02580424 -0.15113838 -0.031241063 -0.028404502 0.04915222 -0.09362485 0.19127198 0.05378847 -0.030483281 0.011601172 -0.03455481 0.069119595 0.056231994 0.10320685 0.13984345 0.1272321 0.055461183 -0.0072534834 -0.21113406 -0.2864504 -0.20377675 -0.055168293 0.12846021 0.1645338 0.0922933 0.049175758 0.015916485 -0.052837804 -0.1861135 -0.17392503 -0.016592942 -0.028651573 0.016937437 -0.08781733 0.01679433 0.044538315 -0.039644442 -0.04753112 0.017999802 0.03664531 0.049725574 0.06130853 0.09853055 0.14810917 -0.011594932 -0.106117174 -0.21916468 -0.2433213 -0.1085398 -0.009915421 0.1396076 0.12433613 0.15136093 0.053420536 0.0034733084 -0.1230209 -0.14209372 -0.13904397 -0.06482394 -0.027755938 0.008235987 -0.15805283 0.07069855 0.023572324 0.033480976 0.01995459 0.005259541 0.034828518 -0.008608054 -0.0065138694 0.054788105 0.033034574 -0.08841346 -0.19704457 -0.22096707 -0.23609053 -0.03437609 0.17790017 0.2453676 0.10244105 0.09287924 0.05432721 0.0039294893 -0.13401729 0.016044373 0.041511133 0.020429868 -0.037512533 -0.040775575 -0.07240864 0.06144165 0.019490778 0.12429126 0.014604848 -0.007720003 -0.041244898 0.00042209466 -0.015399065 -0.0931533 -0.06377624 -0.099407375 -0.2075377 -0.1693994 -0.10286319 0.12428206 0.15336688 0.199717 0.080179796 0.020214973 0.07053099 0.05161869 -0.06550274 -0.045286004 -0.16500364 -0.11651552 -0.03956387 0.03208108 0.0031518727 0.13959333 0.1301068 0.084292814 0.015033588 0.03871962 0.055654746 0.05119373 0.009537412 -0.038262457 -0.08159424 -0.12581742 -0.109518886 -0.038800683 0.006106922 0.14430149 0.106701456 0.13739888 0.06441148 0.03438993 0.03276394 -0.0004862033 -0.055064067 0.05614047 -0.1602694 -0.05414486 -0.00154134 0.019715656 -0.011827085 0.1568149 0.15371628 0.15450513 0.07574181 0.030316979 0.016164135 0.019040981 -0.03384127 -0.04756544 -0.03083443 -0.020577751 -0.041950878 -0.060632057 0.06891888 0.060611274 0.076661356 0.037931185 0.049531903 -0.027887573 0.033683904 0.0062032365 0.052453063 0.16819787 -0.036055837 -0.020360673 0.010707177 0.025981976 0.070425175 0.08797712 0.16733487 0.08120697 0.06308461 0.04590259 -0.002455448 -0.009852871 -0.06794124 -0.05819493 -0.0017560642 0.059377987 0.007287827 0.03183993 0.050622374 0.0649789 0.021393714 -0.012989094 -0.015421903 0.05630037 0.007379334 0.112594984 0.1603786 0.14054076 -0.0678558 0.021497905 0.012240711 -0.026992144 -0.02016022 0.091066994 0.1083081 0.021453192 0.011712007 0.030810881 0.0031621559 -0.049983874 -0.026150452 -0.02540472 -0.007199174 0.069669686 0.057052583 0.042621676 0.12910491 0.1287316 0.045483004 0.01780386 0.022056272 0.0018438817 0.061133165 0.14505775 0.11226904 0.054395385 -0.096579514 0.014384354 0.035678573 -0.03398729 -0.017507333 -0.055708006 -0.05765926 -0.03788886 0.10676623 0.10738154 0.043898337 0.016650511 -0.039867066 0.015359638 0.037133195 0.028058 0.046031583 0.084992036 0.10425398 0.08202632 0.05737996 -0.04679165 -0.017769517 -0.034420352 0.07572392 -0.030751238 -0.07401657 -0.06518922 -0.040476974 0.020532 -0.0006861219 0.0086675165 -0.014658737 0.09565835 0.0019470596 0.033090927 0.15882543 0.12555541 0.055142526 0.07266297 0.13985716 0.036563084 0.0055769454 0.08000779 0.02666869 0.04482028 0.09030735 0.06771035 0.12363546 -0.023795085 -0.08004807 -0.1064159 -0.122938044 -0.0070177205 -0.06829513 -0.13063297 0.012459124 0.0017996985 0.024524009 0.019080669 -0.018232848 -0.063503645 -0.022160549 0.016609166 -0.026982311 0.017154826 -0.014917454 0.0026386406 0.045650113 -0.11782517 -0.1254519 -0.010092912 0.047935892 0.01739608 0.09666226 0.09231836 0.06991674 0.005137502 -0.037715923 -0.14324744 -0.049382456 0.028143503 -0.07625261 -0.13728443 0.099597774 -0.031969707 -0.019006599 0.02663202 -0.0065471833 -0.02415957 -0.0007736002 0.012980721 -0.051148914 -0.07956359 -0.013424493 0.0064034485 -0.045059152 -0.051226337 -0.049998272 0.097968414 -0.12030994 -0.12831897 0.013359329 -0.05706167 -0.19782321 -0.16136836 -0.13355726 -0.16246319 -0.117586605 -0.07341923 -0.059467096 -0.05750321 0.030751737 0.0050910073 -0.025851434 0.0016840228 -0.0027314937 -0.007765732 -0.017690122 0.013086827 -0.0075646094 -0.12087651 -0.08670649 -0.10803486 -0.03222429 -0.02300775 -0.04435713 -0.09059827 -0.025696546 -0.064572245 -0.15401097 -0.08815891 -0.0731907 -0.015156157 -0.122166604 -0.053209756 -0.069105536 -0.03660742 -0.033199817 -0.0013366428 -0.03303063 -0.0034935263 -0.032915466
0.029723905 0.010067314 -0.027800936 -0.022286428 0.01332143 -0.033564378 0.0029162425 0.0343402 0.035243735 -0.029598245 -0.01420022 0.0030768132 0.0003846884 0.0003345311 -0.0041068923 0.014081236 0.014778849 0.027095499 0.004308045 0.014427501 -0.013398699 -0.035573956 -0.029352197 0.022948947 -0.032225188 -0.028115252 0.009655306 -0.022021975 0.020889679 0.0282702 0.029168773 0.0031364136 0.035635255 0.012874548 -0.0035362304 0.009357952 -0.02599028 -4.4939992e-05 -0.038421303 -0.05742134 -0.037352182 -0.063327014 -0.00518514 0.0026281448 0.044593964 0.0005202168 -0.048696514 0.0049342266 0.038932268 -0.008920366 0.026540931 -0.022949237 -0.004593258 -0.010540945 -0.012101621 -0.013218012 -0.017782671 -0.0069921957 0.009725711 0.008367133 -0.004428325 -0.048680443 -0.024983866 -0.060423907 0.054305382 0.033111 0.045658465 -0.047317773 -0.0058736303 -0.18103974 -0.17840019 -0.16956101 -0.16352616 -0.14837903 -0.1773058 -0.08903005 -0.06439184 -0.056440946 -0.052937098 -0.053370465 -0.006534908 -0.030349456 -0.016115649 0.002996198 0.0079625845 0.01676026 0.030117676 -0.009247282 0.025132068 -0.02673639 -0.0145292245 -0.053875983 -0.05942911 0.018004403 0.12837698 0.091099255 0.021768048 -0.08526707 -0.08881643 -0.08111024 -0.06679471 -0.049783878 -0.13013305 -0.14487606 -0.113315955 -0.14965636 -0.08270584 -0.10802782 -0.026722921 0.07927693 0.104142755 0.013350981 -0.02703509 0.007952576 -0.0027297845 -0.05774514 -0.0003783329 0.031619992 0.11808074 0.009282385 -0.02730956 0.067977436 0.077981494 0.06886775 -0.0028566667 -0.028605422 -0.094360515 -0.05727559 -0.076750785 0.016753212 0.0042219763 -0.10461588 -0.17006102 -0.10902666 -0.021763457 -0.026505433 0.011840101 0.116965994 0.15194885 -0.014896125 0.0069697415 0.027078975 0.008663286 0.035805754 0.043608826 0.04277912 -0.020098262 0.038980667 0.13758922 0.1416578 0.046178088 -0.005259475 -0.006443906 0.0077500627 -0.021627769 -0.04934841 -0.03130725 -0.027852759 -0.03135056 -0.057495426 -0.12015125 -0.043254778 0.0603379 0.057082944 0.06747321 0.20136106 0.085465364 0.01659226 -0.017300198 0.06563766 0.0066695474 0.15689676 0.10936146 0.0744963 0.025574347 0.050007682 0.15191497 0.13397841 0.15314613 0.03381799 0.08952461 0.032248195 -0.005460606 -0.06863351 -0.06399496 -0.027311305 -0.03129334 0.00213399 -0.07103669 -0.0163455 0.050212894 -0.030417712 0.075695656 0.1938529 0.16325471 0.045764256 -0.020581951 0.1316538 0.16246744 0.18207444 0.07214757 -0.012375744 0.03119349 0.0778872 0.12315521 0.12608877 0.10041894 0.07362914 0.06429439 0.030140182 0.036287025 -0.044332363 0.013486419 0.02961674 0.042820863 0.047144037 0.016364887 0.07924821 0.06915192 0.051685046 -0.04608381 -0.07718929 0.1246442 0.05829023 0.12502895 0.17265588 0.098875225 0.038562354 0.04076925 -0.0005466511 0.006529817 0.10165043 0.12149091 0.11807292 0.13814253 0.12445228 0.14742832 0.10889123 0.15427579 0.12133218 0.07129225 0.07461094 0.07889565 0.08413179 0.09086128 0.08796166 0.1326211 0.1162191 -0.049249765 -0.108359 0.11537574 0.04481341 0.0722053 0.14790615 0.013377879 -0.0328207 0.021953613 0.03468963 -0.06363757 0.020176573 0.0067493846 0.08073124 0.08358159 0.08719493 0.17525929 0.18294032 0.18432783 0.13929577 0.09575689 0.05587223 0.07869577 0.07807026 0.053555805 0.050426792 0.06665921 0.13294357 -0.03645159 0.014534548 -0.028368052 0.042431206 0.04256362 0.06257123 0.0579494 -0.020104477 0.0847635 -0.0019693808 -0.10368924 -0.074112274 -0.078294106 0.0020354271 0.019618182 0.056348577 0.089842066 0.17762102 0.09583596 0.01380153 0.02120725 0.005819884 0.043808967 0.07488998 0.03839207 0.057091877 -0.032474734 -0.11370376 -0.08748477 -0.07763043 0.0059320386 0.06992529 0.09596576 0.15858158 0.0013372487 0.039561633 0.0004928217 -0.031310797 -0.020673562 -0.05045628 -0.028008038 0.00299113 0.024881618 0.06759194 0.03675023 -0.08428929 -0.24901684 -0.10072436 -0.08702007 -0.028248748 0.06451382 0.0068324264 -0.018491725 -0.06746212 -0.14900427 -0.17643027 -0.07843204 -0.02633748 -0.011744295 -0.033286773 0.001175927 0.18714978 -0.024960147 0.03653436 -0.06899336 -0.01633145 0.02100362 0.014134395 0.10112154 0.021362819 -0.005649465 -0.014073367 -0.08702364 -0.29157627 -0.30172476 -0.1227136 -0.05024222 -0.009132731 0.0006755173 -0.06107495 -0.1014041 -0.13393055 -0.16940637 -0.23253173 -0.078447886 0.031972837 -0.09620944 -0.08193933 0.034077883 0.04613255 0.10712527 0.03228042 -0.0774127 -0.058783747 0.05055009 0.01803716 0.035753354 0.0618837 0.0077668317 -0.017063176 -0.19237407 -0.25547698 -0.11538783 -0.19737092 -0.09585162 -0.0156458 -0.032882534 -0.15940785 -0.11863185 -0.1416169 -0.22830507 -0.22616561 -0.043285985 0.0075104954 6.2664985e-05 0.07883476 0.072441116 0.023120804 0.1444366 0.01838839 0.0033128348 -0.046344772 0.017918112 0.033595502 0.038372878 -0.004819995 0.053347707 -0.09744555 -0.22758794 -0.2713894 -0.16939881 -0.14854412 -0.09874155 -0.09938847 -0.05977785 -0.069764234 -0.14763977 -0.14356016 -0.12695599 -0.09857408 0.06724607 0.17796893 0.13165593 0.08784673 0.06742649 -0.012390057 0.07615778 0.024038458 0.026949158 -0.027721616 -0.009005191 0.084741026 -0.073597565 -0.04298328 -0.042062063 -0.16531982 -0.21578091 -0.19138156 -0.12953153 -0.10308547 -0.17191282 -0.075164564 -0.07780254 -0.08152571 -0.1002698 -0.039243054 0.0022909946 0.032572728 0.16830751 0.16706243 0.10080398 0.08918153 0.03425116 -0.04342541 0.07871604 -0.019618433 -0.08464599 -0.13069947 -0.12845369 -0.05773049 -0.087594144 -0.030002467 -0.12006412 -0.20730545 -0.16738288 -0.06792164 -0.07446608 -0.045559958 -0.030443124 -0.008046716 -0.09406654 0.0042420127 0.0067494875 0.077222556 0.062295906 0.19688345 0.16354626 0.1448044 0.25775126 0.15635116 0.03181534 -0.034319986 0.032480035 -0.13219501 -0.20216827 -0.20450683 -0.25754383 -0.17916158 -0.17536953 -0.07495869 -0.089394204 -0.05966487 -0.050334923 -0.008728058 -0.038527668 -0.033381462 -0.0153489495 -0.020489551 0.040436823 0.066431865 0.078067765 0.12586085 0.09774408 0.18494907 0.19500934 0.33574158 0.22951049 0.14110208 0.077485785 -0.0084030265 -0.0656222 -0.16073635 -0.23328097 -0.13529137 -0.23584902 -0.17141694 -0.11981304 -0.06817503 -0.045762237 -0.06594418 -0.019390255 0.023214929 -0.047036722 -0.05345295 0.0059039863 0.07090444 0.05416803 0.0032628113 0.030570658 0.05441929 0.05703571 0.11320672 0.05379086 0.10292423 0.17059001 0.13653746 -0.034499314 0.010614374 0.15143345 -0.0964279 -0.06695468 -0.098319866 -0.027767234 -0.08096682 -0.00609556 -0.061397202 -0.07397187 -0.008773684 -0.005247659 0.03158992 0.04150579 0.042634908 -0.048863802 0.021752318 0.029748024 -0.0546269 0.0074809883 0.018756978 0.02270149 -0.06941239 -0.053292017 0.07174812 0.18685986 0.06917641 0.010026826 0.012336338 0.19932336 0.13150659 0.034014344 0.042529635 0.09391127 0.018339626 0.0528319 0.03954638 0.018154306 0.09336207 0.07096357 0.064102344 0.09062479 0.04527146 -0.01742414 -0.09431425 -0.041899204 0.031322934 -0.04442312 0.00211821 -0.03079697 -0.07149896 -0.13698389 -0.027129294 0.13147606 -0.007061133 -0.051620677 0.0918895 0.17135333 0.1191122 -0.0006854547 0.029732842 0.059327897 0.03495827 -0.014456754 0.046309195 0.036261372 0.110371105 0.108336374 0.044941805 0.10472493 0.033332653 0.0550734 -0.0010429724 0.05448047 0.06973822 -0.093974166 -0.053856708 0.0024434796 -0.025893582 -0.004720498 0.013105058 0.072256245 0.003190868 0.014049318 -0.04539841 0.11600302 0.054365978 0.032816343 0.009245401 0.14278936 0.077754594 0.055812966 0.1035071 0.014543014 0.021915937 0.061056226 0.021767013 0.029421635 0.018820837 -0.007431516 0.011770349 0.07668699 -0.015247172 -0.12621704 -0.1370171 -0.021766253 0.02981182 0.024736589 0.0035222322 -0.059912182 -0.010303006 0.016231257 0.009614537 0.04387995 -0.042444836 0.09801821 0.10748487 0.23667392 0.15018821 0.0691901 0.102074936 0.0012419629 0.0127640525 0.014108231 0.0031957768 0.053731173 0.031795625 0.025770478 0.037107166 0.07190551 -0.017512307 -0.11241238 -0.052448057 0.0061978935 0.09338524 -0.015741412 0.004993679 -0.01946137 0.0016796079 0.022954794 -0.03562019 0.07161521 -0.0051388973 0.12543537 0.20019422 0.16942485 0.09038353 0.08131956 0.02558197 -0.011505636 -0.02580088 -0.0042330925 0.05207143 0.08906513 0.09475844 -0.008325142 0.15988387 0.108811796 0.07323265 -0.02588891 0.029926183 -0.005841174 -0.044424288 0.065019146 0.031163698 -0.008418475 -0.02436415 -0.010846901 0.021190394 -0.12416122 0.09407217 0.09421972 0.051304117 0.10815739 0.12683408 0.12546188 0.034804422 0.022872947 0.010522743 0.05584743 0.032216817 0.10113094 0.067565925 0.05971283 0.13969663 0.17685409 0.10234453 0.04329351 -0.012872696 0.027172001 0.027655749 -0.04739161 -0.04091031 0.0019748681 -0.015705138 0.012330652 -0.013634534 0.006485509 0.00028764826 -0.14083259 -0.10021787 -0.056889962 0.083303526 0.05090039 -0.027703391 -0.00094999344 -0.008463445 -0.004037338 0.05892923 0.11079345 0.094716094 0.053479746 -0.00030173446 0.0695512 0.21730545 0.114442624 -0.03602127 0.0073298416 0.012631684 -0.012786026 -0.020585934 0.010122687 -0.03363564 -0.0046724975 -0.03324865 0.0246992 -0.017210966 0.14233007 0.17520553 0.12836207 0.06184465 0.10453234 0.048639316 0.12688202 0.0013343089 -0.015200024 0.24124028 0.044577383 -0.037842944 0.03254681 0.17706695 -0.019628754 -0.021265328 -0.016236478 -0.02632236 -0.030644182 -0.015988125 -0.026234837 0.0035749632 -0.0042872983 -0.034591526
-0.0028987953 0.017294982 -0.011924608 -0.026490916 0.024602862 -0.02687616 -0.011926179 0.020759214 0.02798036 0.028901923 -0.035235543 -4.5610326e-05 -0.024165865 0.01540486 0.014951715 -0.014209833 -0.009569207 -0.00660081 -0.0341292 -0.026925586 -0.005517355 0.009607771 -0.019225607 0.028973546 0.005378272 -0.018798156 -0.011261506 0.01693808 -0.029895235 0.0033035493 0.020054813 0.0070562367 0.028223166 0.011172405 0.02904273 -0.012997913 -0.03223165 0.0012628649 -0.028196536 0.0106466925 0.03540622 -0.007027303 0.019915411 0.0052799457 0.004474291 -0.016368657 0.002184987 0.0028214839 0.015021802 0.025163742 -0.030024385 0.030970804 0.0103913 -0.018731097 -0.026447637 -0.033255234 0.018657386 -0.01180639 0.02281014 0.030674472 -0.011661223 -0.0046463995 0.0313424 0.002969231 0.008174773 0.028145876 0.0177201 -0.0036942833 1.0430814e-05 -0.02540979 -0.0022094548 -0.02709801 -0.008799335 -0.013113365 0.009637701 -0.028024808 0.00981712 0.012138469 -0.03551186 0.02505392 0.026139153 0.015461309 -0.03535124 -0.016751349 -0.0174355 0.03542359 -0.0048437035 0.00976586 0.016084654 -0.030742582 -0.026309231 0.032651126 0.018571604 0.012220647 -0.008672535 -0.013412965 -0.027010242 -0.03161837 -0.038734645 -0.00789389 0.00443175 0.010354141 -0.030251654 -0.017008156 0.0005320183 -0.02737782 0.014383342 0.022331234 0.032320715 0.00064310007 0.021996636 -0.020796984 -0.029552154 0.008319412 0.0014403336 -0.025858385 0.026155027 0.033027288 0.007605878 -0.02929193 -0.016277168 -0.023311641 -0.013379952 0.003691341 -0.016252667 -0.023184933 -0.0035819304 -0.018436495 0.015929764 -0.024051107 -0.008142284 -0.022984305 -0.0031244757 0.03395935 0.027193753 0.0049759825 0.021083396 -0.0018279771 0.007096457 -0.014784324 -0.016899195 0.005653935 0.010908408 -0.019935822 0.02552661 0.0004784167 0.0024539777 0.01110779 0.011571492 0.008883936 0.029702194 -0.036054756 -0.021554718 -0.033009205 0.02432671 -0.0084417295 -0.019763669 -0.010160535 0.027236598 0.013403347 -0.006837085 0.035580456 0.023193963 0.021321373 0.009544094 0.036396835 -0.01851952 -0.012538127 -0.023068719 -0.034515437 0.00018519165 0.011662241 -0.032327093 -0.026417358 -0.0085008135 0.010335559 0.027042035 -0.0051014936 0.0094583575 -0.026135668 -0.029915892 -0.015596773 -0.022793448 -0.02225534 -0.018613832 0.0028289296 -0.031282756 -0.01447121 -0.008868477 -0.028364535 -0.0014283552 -0.02083301 -0.004491442 -0.01906277 -0.014010515 0.013253869 -0.020281244 -0.025843961 0.028909946 0.02383685 -0.039291672 0.024279933 0.0047855396 -0.03506408 -0.011934727 0.006382914 0.005064488 -0.029290192 -0.022185437 -0.019905085 -0.028320028 -0.014651606 -0.02394498 -0.034103975 0.024155721 0.023989122 -0.024511343 0.022522833 0.018187512 -0.0154667795 0.038630858 -0.030951638 -0.02723508 -0.018824179 -0.022295944 -0.016109675 0.01635664 -0.024022084 0.01870535 -0.019797921 -0.036536712 -0.006059516 -0.005900262 -0.0006368022 -0.0034927072 -0.03009273 0.010671248 0.0010012911 -0.029774558 -0.032914802 0.01019629 -0.0043583955 -0.0053447396 -0.007565652 -0.0019599958 -0.009587813 0.014492632 -0.00036558276 -0.02381908 -0.017464668 -0.00061552017 -0.018784473 0.004445932 0.03395616 0.032707594 -0.035529107 -0.017641569 0.024516512 -0.0015016504 -0.01945281 0.007356977 -0.008771579 -0.006202637 -0.0107324235 -0.027026417 -0.015724046 0.025055356 0.025949422 -0.02856974 -0.02094903 -0.038753774 -0.03620621 -0.009529892 0.041629538 0.038994268 -0.022116885 -0.0060277567 -0.0067277215 0.012006006 -0.035628527 0.030868556 -0.0069787377 -0.03100277 0.0008357764 0.013580196 -0.012077213 -0.008255103 -0.027064415 -0.0046916213 0.0122631425 -0.014450989 -0.037471358 0.00052663666 0.00057098997 -0.012211939 -0.015585283 -0.041096974 0.021076757 0.013611243 -0.044079844 -0.035344254 -0.018613948 -0.026079679 0.019273795 0.018495092 0.016601725 -0.00841504 0.026745763 0.018518496 -0.018515937 0.021941012 -0.012439332 -0.02054706 -0.004827895 0.025342451 0.0051207854 -0.0048990967 0.024319867 0.026501758 0.01952177 -0.007331656 0.01088252 -0.038319137 0.023794344 -0.027890306 -0.006348151 0.017225835 -0.04181649 -0.006296868 -0.010886702 -0.0022333367 0.010877626 -0.012125605 -0.028472148 0.023865927 0.028145567 0.020489348 -0.0045022457 -0.016750801 0.022786325 0.01485361 0.029331785 -0.039573587 -0.017200487 -0.018489223 0.013758996 -0.024108903 0.036927983 0.018671423 0.010073991 -0.008686709 -0.022403762 -0.017017862 0.017084137 0.00040752307 -0.02773571 -0.016792046 0.00997615 -0.014697849 -0.008231552 -0.02554455 0.0208379 0.009736773 -0.010890553 0.026128868 0.00984427 -0.02573594 -0.022188643 -0.027966607 0.0075866794 0.0013298009 -0.024724223 -0.034093916 -0.014879801 -0.01950767 -0.023762336 0.010526587 -0.010521522 -0.032779206 -0.0132471835 0.017742643 0.011004552 0.017558616 0.014410248 0.01814152 0.01836548 -0.010561093 0.02682047 -0.026684472 0.0050462615 0.0153081 0.009511667 -0.0033778166 0.010849204 0.0029461044 -0.01966617 -0.03167122 0.00010708401 -0.030497905 0.011414586 0.0033178758 0.010649162 -0.023932967 -0.024906322 -0.024336372 -0.0035554394 -0.011470219 0.0035100325 -0.020341353 0.026175383 -0.02960858 -0.0024087282 0.0050689243 -0.028520703 0.03061361 -0.008143735 0.034834284 -0.0047569233 -0.014860661 0.034207802 -0.0072892522 0.022127995 0.013655808 -0.013102506 0.012480131 0.033298463 -0.019631166 0.012497316 -0.033620283 0.020534813 -0.041440606 0.0016403164 -0.041146543 0.018789606 0.014917612 0.0143810185 0.029778456 -0.035100225 -0.026286757 0.028226925 -0.0012512807 -0.0062948116 -0.02472619 0.0025456105 -0.032492865 0.014535181 -0.023613144 -0.012137946 -0.007237439 -0.019766558 0.032816663 -0.01471273 0.024906559 -0.019792099 -0.03543908 -0.04307387 0.021907713 0.029611757 -0.03231029 -0.0018211027 0.011219673 -0.03582547 0.01827957 -0.026776945 0.029400047 0.01672361 -0.029635662 -0.025159497 -0.038973194 -0.023311479 -0.004932715 0.025087418 0.017842656 0.02608722 -0.008360472 -0.024413012 -0.031408064 -0.031172162 -0.019578893 0.029993394 -0.018134965 -0.023050629 -0.013978375 0.002301552 0.003186505 -0.003225685 -0.015522836 -0.011412641 -0.021003215 -0.0068226145 0.019477328 -0.042163648 0.014206383 0.00440864 -0.024009004 0.007686869 0.019748671 -0.02483973 0.029509643 -0.03291782 -0.029418789 -0.021930018 -0.02205891 0.028000314 -0.016988005 -0.030597586 -0.02204492 0.015004002 0.03106489 -0.0036025262 -0.018867888 -0.0012823953 -0.004486175 0.014247751 0.018041838 -0.014234737 -0.019389315 -0.025618047 -0.01851954 -0.0431175 -0.0026874815 -0.035673685 -0.029211791 -0.00012614593 0.0028192734 0.004779314 -0.024181241 0.017190374 0.0034319463 0.015414698 0.019054055 0.0132645285 0.0029562586 0.031558137 -0.027783211 0.003971364 0.02005372 0.03907634 -0.019134868 -0.031465262 0.011512921 -0.0054055047 -0.025394125 -0.0069280406 0.0220001 -0.024718031 0.017495135 -0.023168877 -0.037804462 0.014182454 -0.032741144 -0.003928897 -0.01943089 0.0009488632 -0.041566607 -0.023664856 0.026257074 0.017021699 -0.025162715 -0.030287106 -0.021451045 8.8427754e-05 -0.029765543 0.0119424425 0.03521828 -0.001905173 0.02767079 -0.019222155 0.0042603444 -0.026168985 -0.028369604 0.00024146946 0.01927112 0.022039715 -0.017711218 -0.0034823765 -0.0061000944 0.021845547 -0.032332435 0.0011136564 0.028496083 -0.0067108143 0.019108042 -0.0009480673 -0.02458421 0.02294856 -0.014357883 0.031248234 0.030289993 0.030723939 0.0240967 0.027625626 0.04143689 0.021650497 0.027263539 -0.014243594 -0.028795918 0.021317057 -0.011267267 -0.009695465 -0.03649654 0.0037831157 0.0108609805 0.024222672 -0.02032382 -0.003312187 -0.026555143 0.00063776365 -0.0068173357 0.011137235 -0.0070450353 -0.0009190228 -0.010032829 0.021263221 0.01878529 0.00034297365 0.027936663 -0.02834671 0.0037889397 0.008255917 -0.01035704 -0.006779524 -0.011363405 -0.02018392 0.00356332 0.011215018 -0.0133162355 0.006955793 -0.019763976 0.010960158 -0.02244962 0.018167922 -0.009607668 0.0126798 -0.037317045 0.006345267 -0.039143696 -0.028463263 0.027536603 -0.033674967 0.009673605 -0.02377763 -0.0016925038 0.020660767 -0.01047487 0.020895755 -0.02094827 -0.0073571675 0.028750302 0.024988132 -0.004005706 0.021691907 0.02884337 0.011437458 -0.0076084738 -0.03631535 -0.027067311 0.026956737 -0.03357009 0.025365688 0.027121166 -0.040737383 0.015951535 -0.008337199 -0.01782093 0.031481545 -0.005963326 -0.025708962 0.028142832 -0.007411463 -0.031912684 -0.00483412 -0.019226875 0.022439158 0.010496412 -0.0028825148 0.026507886 0.019765932 -0.030313987 -0.0021616265 0.03167997 -0.019271415 -0.019654768 0.026532505 0.010355427 0.004266723 -0.03045282 0.010872805 -0.014176252 0.0029349406 0.012990983 0.023159122 -0.014293453 -0.00044468048 -0.03401056 -0.011769725 0.012662846 0.027051838 0.004997288 0.029543094 -0.007669628 0.014488612 -0.013216487 0.02513149 0.01919188 -0.020303978 -0.025367107 -0.03034089 0.018646859 -0.008223373 0.020943765 0.00786545 -0.017381331 0.018438067 0.013554341 0.018627081 -0.021069253 -0.027407156 -0.0077754036 0.019590234 0.012804731 0.0021511146 0.014317143 0.010514532 -0.013718052 0.028784549 -0.0049078893 -0.008418965 -0.009352808 -0.006974361 -0.0011322711 -0.0035290592 -0.0073731546 -0.032954335 -0.0058914428 0.01938536 -0.0066816183 -0.0022819643 0.013542035 -0.023653274 0.021362297 0.010219239 -0.024741925 0.0038639263 -0.01846697 0.020979514 0.0027508107 -0.03553738 -0.024157753 -0.010393879 -0.019746829 0.00039737567 0.0069286786 -0.0349107 -0.014672046 -0.018805794 0.02343935 -0.012291926 0.030148568 -0.021057194 0.0004607269 -0.0030417785 0.014444561 -0.009337907 0.024664832 0.016209705 -0.023443317 0.010578807 -0.00030677236 -0.013694568 -0.038743544 0.019560033 -0.026527053 0.00067034794 -0.013567465 0.026898194 0.006625797 -0.0030859413 -0.031219432 -0.017701618 0.00011939237 0.023582617 -0.03410635 -0.006598903
0.0308229 -0.0035722044 -0.00012363707 0.01557741 0.021235902 0.03026791 -0.019444266 0.0030853665 0.0051157433 -0.009017876 -0.00068797386 -0.018464591 -0.014618014 0.0063781897 -0.002236213 0.024083944 -0.025776548 -0.023871176 0.019488923 0.0064868336 -0.016634788 0.023459585 0.01423539 -0.033205014 -0.005357138 -0.020681739 0.02998356 -0.031746846 -0.033882946 0.0051267915 -0.028709367 -0.017194707 -0.031863883 -0.027374081 -0.0454662 -0.016014922 -0.01148111 -0.047689226 0.066026144 0.09731551 0.034760904 -0.03433428 -0.025790362 0.0037985707 0.054874435 -0.0029682764 -0.02691031 0.018544631 0.026486922 -0.040409666 -0.036887087 -0.021518355 0.00011496885 0.029828742 -0.027439298 -0.014515217 -0.034186646 -0.005825988 0.018241875 0.031920902 -0.036699228 -0.035870407 -0.045481827 -0.009769208 0.060976423 0.03443754 0.04816898 0.06665615 0.09613069 0.047673482 -0.011270386 -0.033276893 -0.10330157 -0.0856432 -0.13932003 -0.15147015 -0.16418177 -0.04195641 -0.09008433 -0.017940216 -0.0057739923 0.029520053 0.0054918574 -0.010706702 0.006990497 0.031133896 0.011185979 -0.0026010927 -0.046860013 0.0006690305 -0.01653815 0.01911273 0.08651577 0.10233315 0.08807538 0.07604386 0.10307095 0.0942248 0.07217238 0.0054769963 -0.0059937593 -0.011428374 -0.10341572 -0.13357206 -0.073239446 -0.12828004 -0.059050247 -0.100981414 -0.0073287957 0.07642278 0.017458102 -0.009915314 -0.014447809 -0.019733764 0.078413494 -0.05608633 -0.08565521 -0.04501768 0.021449694 0.11505512 0.080843285 0.18619263 0.10403598 0.14953707 0.19032367 0.11304593 0.12265926 0.06490807 0.11332692 0.15261717 0.079267785 -0.05495479 -0.04787427 -0.113735236 -0.0678174 -0.15099353 -0.10739369 0.0573007 0.07161026 -0.06784907 -0.033261374 -0.0018972841 0.040996537 0.043977324 -0.026782457 -0.10631643 -1.02821505e-05 0.052035194 0.008624563 0.08914533 0.08676715 0.033854917 0.02697399 0.07610337 0.15551227 0.09145832 0.10451759 0.1518103 0.12756477 0.0729112 0.079260595 0.05206051 0.063570015 -0.13896923 -0.11837965 0.16414648 -0.056983527 -0.10313612 0.013875626 0.10420979 -0.041637648 -0.034569714 -0.09498799 -0.08917531 0.04720395 0.007762415 0.020511797 -0.0051609264 0.058078703 0.044194683 0.05854989 0.080509186 0.12981981 0.09993683 0.08241422 0.05313896 0.097795814 0.05087423 0.048979193 0.115636155 0.05943366 -0.047177747 -0.14569819 -0.08971244 -0.09073013 -0.048240647 -0.0026852174 0.13454999 -0.017189944 -0.040568218 0.061947126 0.017163454 0.029520348 -0.0012911992 -0.023448374 0.028899405 0.04028455 0.06317225 0.04438684 0.09789808 0.0018120741 0.054097354 0.08993213 0.031868655 0.13933448 0.09179071 0.042472977 0.14256077 0.09780371 0.023182435 -0.037000466 -0.06161358 -0.050477926 -0.028503187 0.04527809 0.080931075 -0.040446863 0.06256979 0.1527278 -0.020325456 0.0008701533 -0.08170353 -0.058419988 -0.020473454 0.026982909 0.044181667 0.105719134 0.10741538 0.07811703 0.053929422 0.13067417 0.1274819 0.10633203 0.07172802 0.07778725 0.04547136 0.11696563 0.13213827 -0.029414177 -0.040417764 0.08288449 0.05847249 -0.001129978 0.0031637275 0.00079472584 0.021065352 0.05405269 0.01575875 -0.13180327 -0.09980328 -0.02581799 -0.012852612 -0.04740591 -0.046141334 0.037251938 0.091377415 0.033475474 0.016841492 0.089053795 0.040966224 0.012614834 0.02824034 0.05102897 -0.0063628247 0.06951434 0.12446528 0.033208206 0.1413218 0.121966615 -0.01852714 0.038137928 -0.0013479685 0.06628297 -0.017295217 -0.037123162 -0.05806565 -0.09141507 -0.028793745 -0.019338865 -0.06869775 -0.031148702 0.028892267 0.018281752 0.097322084 0.049273912 -0.06883739 -0.042477418 -0.0018279564 0.022633176 -0.021028925 -0.005004764 -0.012730316 0.09713929 0.17615463 0.13622087 0.10710895 0.04114765 0.025058031 -0.02180292 0.036472596 -0.044206295 -0.02986516 -0.060067955 -0.19372179 -0.10614942 0.002275597 -0.0432427 -0.06356967 -0.05529244 0.069630966 0.046456743 0.023295289 0.0016147196 -0.11520677 -0.13066277 -0.115477934 -0.052861594 -0.057429183 -0.023388604 0.011379457 0.055443432 0.011856872 0.06436015 0.048640512 0.07194417 -0.067501806 -0.04681474 0.019105611 -0.015047183 -0.07928325 -0.16731729 -0.24917954 -0.12106632 -0.016340993 -0.0047374964 0.04707335 -0.014259989 -0.030877719 0.028160438 0.018174678 -0.057769362 -0.10498492 -0.08817757 0.0004928085 -0.05337451 0.00862856 -0.0038094919 0.004926755 -0.012687516 -0.06865709 -0.016483082 0.019931737 -0.036334004 -0.06271715 0.09627396 0.046984807 0.07953644 0.04371644 -0.104460865 -0.15787604 -0.12622763 -0.045937207 -0.05416629 -0.011122718 -0.06097399 -0.023951525 -0.037491888 -0.001193098 -0.039693434 -0.09841166 -0.091317214 -0.065842584 -0.0027515145 -0.022972545 -0.028421082 0.016036198 -0.008985168 -0.095380194 -0.08953459 0.025623832 -0.065475486 0.08554509 -0.0554645 -0.013894319 0.015034748 0.056657106 -0.049057633 -0.065903634 -0.086184815 -0.08713888 -0.07958782 -0.068800636 -0.008344185 0.016549183 -0.11033697 -0.08772174 -0.058495156 -0.11540766 -0.1511426 -0.08777233 -0.1120135 -0.060013168 -0.060183253 0.02619133 -0.06683462 -0.11791022 -0.074155845 -0.0014343853 0.08195615 0.076473415 0.009270903 -0.028696515 -0.018560404 0.04933122 0.013072566 0.007138153 -0.08719318 -0.08803481 -0.07504587 -0.014561592 -0.054546624 -0.04547386 -0.0589176 -0.0831969 -0.06654993 -0.057323515 -0.089527786 -0.09101993 -0.11827271 -0.11177935 -0.033221856 0.0282299 -0.07082293 -0.110620074 0.05503211 0.024822518 0.025297249 0.039368063 0.0076251375 -0.05629588 -0.029211555 0.05647791 0.014316856 -0.020898215 -0.04877388 -0.037175715 -0.045294628 0.044030216 0.004507292 -0.047290448 -0.009712792 -0.001626613 -0.007775975 -0.11378511 -0.06419365 -0.05048963 -0.18246786 -0.14413024 -0.0070845126 0.021491317 -0.0905265 -0.034367844 -0.045311093 0.06766966 0.06971905 0.06847533 -0.016775418 -0.050780296 -0.032193087 0.07983114 0.065652415 0.018076273 -0.04514997 -0.05848527 0.015313148 0.005764667 0.044315055 0.015036657 -0.014816146 -0.012174391 -0.027461793 -0.102057345 0.018613085 -0.096508265 -0.16842696 -0.08000052 -0.08051218 0.028548194 -0.028397895 -0.052682772 -0.1117905 0.04782287 0.072266005 0.15012732 0.02632139 0.03102002 -0.091047145 -0.005204642 0.058114026 0.0182514 0.0050843987 0.03803039 0.0440118 0.023042373 -0.011682864 -0.012026747 -0.024405649 -0.086337365 -0.07963918 -0.093051314 -0.03306045 -0.035696242 -0.078575976 -0.1233883 -0.09082167 -0.031215146 -0.0012119029 -0.044689216 -0.04538554 0.046047285 0.09341809 0.11401354 -0.0644375 0.022237074 -0.055640403 -0.023647139 0.073265426 0.03852323 0.096039884 0.105566815 0.06961754 0.018222166 -0.014169794 -0.014114607 -0.0031897288 0.052264653 -0.06800896 0.011785775 0.015509735 0.11944975 0.045554474 -0.08971539 -0.042700768 -0.06569117 -0.021120146 0.0072827768 -0.11381165 0.006994808 0.10061635 0.018221948 -0.004222487 -0.02208971 0.027449394 0.099200785 0.052685246 0.10860721 0.11532574 0.13657652 0.15423314 0.07803336 0.05298251 0.039462145 0.03874959 0.07239146 0.021045659 0.06508939 0.08802425 0.090506636 -0.009314499 -0.033735745 -0.02158486 -0.016301941 0.0075681857 0.06337309 -0.04072527 -0.028696688 0.027813222 -0.06391673 -0.02056077 0.076967895 0.16904579 0.20931865 0.020758318 0.0007728277 0.0903368 0.068063 0.09963498 0.08721683 0.055657372 0.12403283 0.06012905 0.073365256 0.06876882 0.038393434 0.06454003 0.031089751 0.06397181 0.038258515 0.0074734027 -0.0049282014 0.17959496 0.24382491 0.09985471 0.07724447 0.072948255 0.019076895 -0.022053426 -0.00853167 0.15501343 0.18534124 0.063429214 0.018670361 0.12805666 0.14039811 0.11982709 0.15200675 0.13761765 0.18565656 0.08560631 0.10701513 0.03095597 0.033775337 -0.03690684 0.004848632 0.09666789 0.09981876 0.043666307 0.029996084 0.17278445 0.2496037 0.23507436 0.12803061 -0.037581377 0.047945455 0.017283164 0.019283324 0.18231033 0.10269276 -0.017488087 -0.035895526 0.078552656 0.08993606 0.12972584 0.17853805 0.14871977 0.16032006 0.16209655 0.11466412 0.100213304 0.04981294 0.07401854 0.095478415 0.03911543 0.062023453 0.098865375 0.12221796 0.2211169 0.29253346 0.24975573 0.10767868 -0.103088595 -0.035464488 0.0020141432 0.024637887 -0.041562848 -0.024142914 -0.09808023 -0.123637326 0.0048577194 -0.0041865436 0.025444089 0.07888302 -0.021146275 0.03991962 0.14628081 0.1261343 0.15664129 0.17889838 0.18717256 0.14380004 0.21374956 0.20594962 0.13229278 0.100496136 0.06585798 0.081122816 0.16234049 0.05898707 -0.035707742 -0.0051070326 0.025996588 0.020413851 -0.060212962 -0.09373467 -0.048352048 -0.16397062 0.018077638 -0.017528646 -0.07849156 -0.02659654 -0.0037948808 -0.056556895 -0.08414622 0.061362825 0.095217206 0.16474742 0.11458317 0.135385 0.16519292 0.10815283 0.066972375 -0.01202744 -0.051716447 -0.06926651 -0.022340165 0.023570387 0.056170218 -0.014746058 -0.033673696 -0.016722599 -0.020665072 -0.022909895 -0.1733474 -0.2047905 -0.18596448 -0.09886482 -0.05475641 -0.101848096 -0.037730616 -0.031791992 -0.061326392 -0.019188108 -0.10535077 -0.036914278 0.056086097 -0.06218084 -0.037604637 0.008561054 -0.07103895 -0.03744178 -0.04457616 0.03894967 -0.020554377 -0.015497977 0.0011604982 -0.0150123965 0.035261385 -0.012364861 -0.034114376 0.012763973 0.07339499 0.078142084 0.060619596 0.036016744 0.0069512334 -0.013695303 -0.04832436 -0.0011352368 0.007876902 0.0442994 0.002067173 0.043958995 0.0062627434 0.007005089 -0.007960794 0.013737798 -0.01987389 -0.025854414 -0.031119067 -0.0065734303 0.00039511494 0.018097937 -0.023359003 0.024382157
0.032129273 0.024939032 0.0027634331 0.01266144 0.009209621 -0.011376454 -0.0106534455 -0.02376197 -0.018298477 -0.014949573 0.004604987 0.021890305 0.029983165 0.024411509 -0.026563568 -0.019711113 0.013198095 -0.03405084 0.015536253 -0.02255301 0.00665967 0.033306677 -0.024387952 0.028735653 0.0033578235 -0.01876582 -0.03034966 0.03202148 -0.017987244 -0.006436663 0.0012404707 -0.021116061 0.020775374 -0.027271012 0.033386715 -0.023317028 -0.02392081 -0.012445635 0.012637715 0.070404276 0.013373033 -0.02841448 0.012579154 -0.09545821 -0.14355956 -0.110594794 0.00667437 -0.05455707 -0.024602458 -0.046079226 -0.032817733 -0.07270922 -0.0132969795 -0.006779518 -0.027179813 0.0039948225 0.032459304 0.017532924 0.02341314 -0.018249474 0.0060906624 -0.03213009 -0.0066744178 0.009831545 0.0021222269 -0.017663233 0.03973423 -0.04005719 0.0016308881 -0.12695418 -0.03399985 -0.04319748 -0.12713437 -0.16810246 -0.06923676 -0.0303844 -0.0637719 -0.08867538 -0.06767496 -0.07925359 -0.050444935 -0.02759004 0.008395208 -0.005733486 -0.02726535 0.0018933119 0.08015678 0.07195821 0.02954378 -0.09224942 -0.08614994 -0.11110466 -0.09974732 -0.0621209 -0.08888192 -0.17550427 -0.18178211 -0.18943048 -0.2395448 -0.29064843 -0.26319143 -0.30861992 -0.18215048 -0.10933724 -0.10754168 -0.09874651 0.015313205 -0.06405635 -0.13888967 -0.114919536 -0.065404244 -0.005895189 -0.008128618 -0.0209186 0.015242392 0.031252988 0.046561893 -0.05984201 0.027237922 -0.083155245 -0.094038844 -0.20325962 -0.27527937 -0.2755224 -0.2285991 -0.23519617 -0.21208762 -0.17270903 -0.1473279 -0.17429613 -0.1193628 -0.040151898 0.016032912 0.13767432 0.090581715 0.043473996 -0.17516097 -0.24150835 -0.16029444 -0.0964621 -0.0071619367 0.01646614 0.1170033 0.037070487 0.03990086 0.05467808 0.025292544 0.10136095 0.026643885 0.036190327 -0.13393898 -0.19623224 -0.112972476 -0.103606924 -0.0820144 -0.026190842 -0.06465615 -0.14533833 -0.122715384 -0.20156802 -0.19581142 -0.008413568 0.055362407 0.031087663 -0.00799328 -0.21149874 -0.16864152 -0.09802676 -0.034198325 -0.010067432 0.049839247 0.04822267 -0.0040410757 0.00044044215 0.015797138 0.081192605 0.026908953 0.012318642 0.012445967 0.036957648 0.008531583 -0.056124505 -0.0074122017 -0.0044335965 0.0066104345 -0.0076476275 -0.035831403 -0.017994229 -0.06199928 0.04992134 0.10914935 0.046991114 0.008719009 -0.29218966 -0.015585416 -0.03755691 0.0044731926 0.06063142 0.06549023 0.043475423 -0.10080148 -0.08257766 -0.06905433 -0.029800713 -0.05823914 0.017539905 0.062462803 0.05108042 -0.034392864 0.019573806 0.022954358 -0.07104071 0.035995048 0.06414342 -0.00533591 0.046660896 -0.01035293 0.03101417 0.008566675 0.17734082 -0.020501442 -0.22154596 0.026711622 -0.06871785 -0.038604997 0.10969094 0.051583745 0.06888311 -0.0709053 -0.0773267 -0.060265567 0.013666672 0.07965901 0.11611452 0.015427243 0.00054015935 -0.009708581 -0.03641018 0.011625141 0.037501678 0.030212678 0.07257235 0.032909412 0.104651056 -0.012519575 -0.047003902 0.056865655 0.011637848 -0.03705919 -0.027690135 -0.02767632 -0.11739585 0.035453063 0.18487553 0.051118277 0.02929277 -0.08243088 -0.055961825 -0.027997889 0.009836123 0.09873349 0.049662594 0.009004075 0.0045728465 -0.10835658 -0.102304086 -0.02497643 0.10192211 0.15113787 0.10909278 0.08994737 0.04335449 -0.014454983 0.07541062 0.017168855 -0.08980602 -0.009711739 -0.06577207 -0.044113304 0.102318436 -0.0031655976 0.077228054 0.10466765 0.022161696 -0.14626046 -0.070518516 -0.09549149 -0.05216787 -0.015312551 -0.042316735 -0.0035983576 -0.12836958 -0.1943977 -0.19599202 -0.083635144 0.13728371 0.16469967 0.15972728 0.118359715 0.10513501 0.054769173 0.082477264 -0.04628132 -0.110765345 0.022173544 0.12727259 -0.0126006175 0.12692374 0.036966737 -0.13801692 0.066553175 0.15111656 -0.034766838 -0.13051744 -0.14186135 -0.058428552 0.028821258 0.024825644 0.039174795 -0.035591446 -0.15318716 -0.046542104 0.035271626 0.18282545 0.08917817 0.08614523 0.030506002 0.06757821 0.030120691 0.038011197 -0.0372993 -0.019986182 0.09490646 0.04038821 -0.06137849 0.16363423 0.020631446 0.014638365 0.108706325 0.090236746 -0.058173485 -0.19638263 -0.1722467 2.432764e-05 0.06630748 0.03952176 0.019090522 -0.11566783 -0.15346399 -0.015554407 0.1518905 0.11696618 0.039011873 -0.0045295274 0.007046074 -0.01071015 -0.07377713 0.07668152 -0.05640818 -0.022497118 0.07649744 0.07117658 0.021237714 0.1325902 0.021231564 0.03133881 0.09228051 0.1391812 -0.08569333 -0.1653273 -0.11939956 0.063068934 0.084622756 0.071220055 0.033573065 -0.09141613 -0.08580098 0.027871652 0.16646452 0.15467928 0.0574905 0.029806053 -0.021882156 -0.033936467 0.047149826 0.059528563 -0.07107664 -0.044050958 0.06129135 0.08942906 -0.07617742 -0.02480282 0.030973043 0.018884456 0.068681896 0.11504584 -0.006003186 -0.09599537 -0.034553584 0.034607846 0.053664155 0.03249592 -0.0802797 -0.07725301 -0.023775535 0.088381656 0.16492443 0.122153886 0.057503723 -0.0150782475 0.020721981 0.056509178 0.04062769 0.030045155 -0.039517872 -0.092494905 -0.09931666 -0.036974534 -0.16856036 -0.081542335 0.027998377 0.032206774 -0.018085573 0.064747274 0.049354803 -0.08712464 -0.07642141 0.017040683 0.007114428 -0.042009942 -0.05784281 0.013437797 0.0315609 0.085988134 0.13835625 0.081250645 0.07743146 0.025089012 0.059017513 -0.0867149 -0.08573479 0.07086321 -0.03792014 -0.06265557 -0.14595504 -0.14466746 -0.1159288 0.00326086 0.02474902 0.044637617 -0.064978875 -0.12612687 -0.02474065 -0.0012853831 -0.05993983 -0.1334926 -0.037096992 -0.0011053921 -0.0033735572 0.030967157 0.121377274 0.24687727 0.0908243 0.042562 0.085077815 -0.043162648 -0.07945446 -0.10917251 -0.07648089 -0.06055518 -0.20188983 -0.1278645 -0.10732771 -0.17685954 -0.0444962 -0.08510855 0.019663747 0.06292615 -0.053689715 -0.098196626 -0.021032182 -0.0128946155 -0.101430856 -0.21277705 -0.11481565 -0.002642825 0.009057907 0.1276329 0.16692774 0.24424404 0.0645785 -0.10896132 -0.075719126 -0.121061295 -0.025241954 -0.043967813 0.037248492 -0.005143021 -0.021429341 -0.024882656 0.036002032 -0.009735559 0.014707712 -0.12593439 0.04787163 0.10541778 0.012914872 -0.096326 -0.06615846 -0.12587827 -0.2254577 -0.15280032 -0.121110044 -0.08666905 0.008674763 0.13055483 0.17030072 0.16707677 -0.086400345 -0.24085385 -0.27015465 -0.22569987 -0.08629654 -0.05341216 -0.07313323 -0.10891643 -0.18043257 -0.09923997 -0.13300785 -0.05424668 0.17393433 0.00844297 0.085801855 0.0109940665 0.025022788 -0.123798 -0.14653756 -0.18962511 -0.177937 -0.0780993 -0.13983776 -0.057266243 -0.00038662722 0.13211043 0.1777917 0.09539685 -0.17706174 -0.36886424 -0.4275745 -0.35620132 -0.35695177 -0.1852706 -0.12803024 -0.18819077 -0.17082077 -0.2528976 -0.14592254 -0.027786827 0.013255787 0.080810085 0.0218985 0.00409859 -0.12851827 -0.2191081 -0.17505069 -0.055678636 -0.100108616 -0.12892368 -0.13591203 -0.04383641 0.034841225 0.10677095 0.18057753 -0.029111627 -0.21455151 -0.39905012 -0.37956035 -0.40391713 -0.37277263 -0.1660996 -0.14587212 -0.034870338 0.011365728 -0.06850562 -0.072098136 -0.17283906 -0.035786696 0.07057966 0.05985388 0.07053442 -0.082755744 -0.16619818 -0.11016178 0.019186966 -0.042836897 -0.04721139 -0.0335027 -0.025082143 0.037211746 -0.021556675 0.062696524 -0.08343328 -0.23788485 -0.31671432 -0.44285676 -0.3841769 -0.31505474 -0.17141601 -0.040318936 -0.01486468 0.07565446 0.027578084 -0.030911755 -0.048754226 -0.09322644 0.0013874003 0.053177778 0.0134039 -0.036525283 -0.078147754 -0.05453194 0.15765178 0.048964 0.06527308 0.017915905 0.07042308 0.071485415 0.013787827 0.0428664 0.0061172103 -0.09351774 -0.27784595 -0.26646444 -0.30785602 -0.28070506 -0.16183302 -0.13183624 -0.016539885 0.07317741 0.0057815243 -0.07248094 -0.028448643 0.052967496 -0.02235688 -0.010640732 0.028053094 -0.11086161 -0.15129691 -0.026404737 0.04836984 0.11458257 0.12566307 0.051162712 0.08070484 0.094636515 0.06895095 0.119655006 0.044978566 -0.06033591 -0.20210198 -0.313529 -0.3641376 -0.36422655 -0.22825824 -0.21455228 -0.010538576 0.14146063 0.045426287 -0.010700421 -0.016150085 0.12662102 -0.021478493 0.031028323 -0.027480872 -0.04224747 -0.12835586 0.002738533 0.10001936 0.05163523 0.0772883 0.09164225 0.052902848 -0.03143659 0.012042467 0.014269167 -0.052499224 -0.04860325 -0.13176282 -0.36060733 -0.3638383 -0.32677096 -0.26189232 -0.21673848 0.0329069 0.11432808 0.099444196 -0.037222836 0.08231058 0.03215222 -0.033446103 -0.0069748424 -0.03278898 -0.022933315 0.16885294 0.17557944 0.043445338 -0.08352117 0.0034093303 0.089596115 0.0447723 -0.082933486 -0.039620224 -0.099963136 -0.08654983 -0.057332274 -0.13538995 -0.19973813 -0.24203253 -0.28988224 -0.20490214 -0.1587917 -0.034498032 0.04377057 0.06749562 0.044098597 0.010066923 -0.01422367 -0.014758677 -0.0074611097 0.010213499 0.015255921 -0.06447137 -0.13094555 -0.108818635 -0.05132699 0.06293492 0.052932877 0.02596497 -0.095769845 -0.12522428 -0.15279613 -0.04362725 -0.03701949 0.054541845 0.023032982 -0.07563971 -0.123245366 -0.13137248 -0.08071279 -0.040529482 0.10159463 0.067837834 0.050681714 0.052907664 -0.011012376 0.024646202 -0.012338933 -0.006441998 0.024111697 0.02449273 0.12933876 0.06541927 -0.01993318 -0.086479776 -0.08197503 -0.03293377 0.068691425 -0.09302975 0.0023492246 0.065089524 0.0022069786 -0.007776536 0.05420479 -0.03608068 -0.07745453 -0.03855996 0.029350827 -0.015350525 0.008950323 -0.024178732 -0.029736843 0.031039597 -0.010063751 -0.010110025
-0.017618172 0.023123892 -0.030895736 -0.029003162 0.025818234 0.006358913 -0.0034034979 -0.00012848634 -0.017157918 -0.020710874 -0.034041643 -0.016138524 0.021679947 -0.021338286 0.0024931687 0.022050586 0.0019086387 -0.006353634 0.02200848 0.0016920355 0.0027386376 0.00889716 0.009493905 0.014819227 -0.023533393 -0.021741273 -0.023476547 0.022517852 -6.558214e-05 -0.03547944 -0.012122006 -0.0005893111 0.010022393 0.035334587 -0.036504284 -0.04291172 -0.009083627 -0.04876949 -0.021629345 0.000851716 -0.013163688 0.030163264 -0.03196605 0.067678265 0.05389034 -0.008331726 -0.03459019 0.012573678 0.013016034 -0.0036835296 0.033790477 0.009153086 -0.027598731 -0.0078061693 -0.02569178 0.022902286 -0.0028193893 -0.015047053 -0.015268621 0.046811137 0.079755515 -0.010387766 -0.012800054 -0.001433504 -0.050466068 -0.098930426 -0.12796895 -0.09821206 -0.050030675 -0.005157485 -0.04629088 -0.034307342 0.021376913 0.039747596 -0.0020556771 -0.011083568 -0.043094236 -0.02916258 -0.04718962 -0.03671398 -0.019592052 0.03169172 -0.031009207 -0.02012213 0.0101027535 0.023580255 0.14293605 0.031217141 0.06445986 -0.00707071 -0.041806754 -0.088757746 -0.019890215 -0.10761258 -0.067706734 -0.12724392 -0.038703375 -0.014746844 -0.026715012 -0.0078019183 0.068101935 0.05453712 0.00017843914 -0.06384041 -0.04383133 -0.046186343 -0.06366225 0.014300844 -0.056278784 0.10364948 0.016233684 0.02862853 -0.033710774 0.01254747 0.09008211 0.13557895 -0.07022145 -0.03725298 -0.027510861 -0.0008232258 -0.008984532 0.013630445 0.004716619 0.025068428 0.10748333 0.07323542 0.18438639 0.16745977 0.10309916 0.10972848 0.12414642 -0.020097775 -0.010696225 0.05488162 -0.0056860857 0.02819865 -0.0021494094 0.08115622 0.11322899 -0.016356492 0.027838504 0.029379718 0.121112324 0.060295716 -0.07714867 -0.08341956 -0.0515923 -0.04371158 -0.13223882 -0.027267184 -0.033516694 0.027714537 0.05002462 0.04323892 0.06688708 0.05498429 0.07407121 0.07187736 0.020154282 0.015539139 0.057757545 0.085715264 0.04270797 -0.057145458 -0.04046519 0.04669622 -0.020360397 -0.05064856 -0.029143598 0.053719338 -0.06722505 -0.07054307 -0.081467025 -0.15257078 -0.0063918266 -0.073048756 -0.095762625 -0.08455098 -0.08227318 -0.026806658 0.012547948 -0.016985962 -0.016935185 0.06471085 0.02224267 0.031551037 0.04283133 0.002164734 0.047965847 -0.009002434 0.049728837 0.045229826 -0.05242155 0.033307157 -0.0495292 -0.029762888 0.007266915 -0.012939073 -0.1268108 -0.10411753 -0.14391918 -0.12289651 -0.100859955 -0.11528956 -0.074196324 -0.03485701 0.027279995 0.023687331 0.04422488 -0.03201561 -0.023542777 0.05756944 0.062404476 0.06472865 0.05168185 0.029389825 -0.0024741325 0.0065088356 0.02304666 0.04190629 -0.004075146 0.029554073 -0.03735196 -0.04228962 0.025058191 -0.062044416 -0.0786287 -0.07012328 -0.11069663 -0.08516913 -0.057273414 -0.030065026 -0.0082248105 -0.013684756 0.026794644 0.042199336 0.0039113294 -0.0037819168 -0.0062903613 0.019129802 0.052864064 0.13298374 0.08320024 0.09056163 0.06670736 0.03660057 0.02117082 0.07980757 0.116026066 0.024116496 0.016368313 0.075892314 -0.0052179876 -0.08025945 -0.12471011 -0.09872305 -0.10157544 -0.16576643 -0.010684822 -0.017851714 0.030820778 0.03549795 0.03285262 -0.006859585 -0.0008537116 0.055958692 -0.0096414 -0.018390743 0.05206698 0.022399178 0.03322341 0.008629478 -0.03399753 -0.014275569 0.049325224 0.09836509 0.24769872 0.23912369 0.11851226 -0.070199564 -0.055479057 0.009237531 -0.0647968 -0.09532513 -0.09898545 -0.06909407 -0.004515179 0.0022663637 0.020795928 0.037230443 0.040007126 0.030481357 0.075686425 0.047336094 0.08549857 0.026515115 0.028155573 -0.012232376 -0.027731158 -0.03204542 -0.025822116 0.017228948 0.14709108 0.15937027 0.21156946 0.11770052 0.12970777 0.005438416 -0.040468473 -0.013249628 -0.03286842 -0.115475014 -0.085112855 -0.08942747 -0.052598987 0.041835565 -0.021201678 -0.07376523 -0.09584788 0.01823904 0.046219517 0.092650734 0.12616971 0.078181945 0.02011652 -0.0076282057 -0.009682567 -0.065418944 -0.0133024305 0.028931618 0.07931607 0.104648486 0.224453 0.23249002 0.234242 0.01060779 0.0045476514 -0.079365574 -0.09318419 -0.09255898 -0.0714188 -0.09986948 -0.011097403 -0.006506023 -0.016928364 0.0047968635 -0.043911334 -0.07641124 -0.016055847 0.084519155 0.06935821 0.065747894 -0.071717836 0.008279148 -0.076263264 0.014094043 0.070198834 0.01285668 -0.07879994 -0.021138612 0.019043157 0.05361624 0.026949026 -0.053717356 0.089435466 -0.03142432 -0.09851995 0.0076818117 -0.020583844 -0.09705981 -0.10382831 -0.022274017 -0.028448386 -0.050401147 -0.0791844 -0.06561445 -0.042007588 0.0077969455 0.05677367 -0.026741428 -0.093728624 -0.055301994 -0.041319255 0.016361982 0.06496683 -0.013649439 -0.053970486 -0.030769892 -0.13778396 -0.08087726 -0.0335719 -0.0071990057 -0.0031063652 0.024339411 -0.13303994 -0.016054276 0.018251939 -0.03422134 -0.06828104 -0.069341205 -0.05523589 -0.03627285 -0.025153905 -0.07756959 -0.05515125 0.0459743 0.030770928 -0.029408904 -0.13009852 -0.08194028 -0.097582296 -0.025224334 -0.012936631 0.050049067 -0.035986625 -0.06531914 -0.05400534 -0.07121158 -0.08633521 -0.0672118 0.04237323 0.036054004 -0.048775636 -0.046012346 0.059495296 0.11352298 0.052695762 -0.037325565 -0.0062791705 -0.004162075 -0.0026016734 -0.04600056 0.019751124 0.01051596 0.016537031 -0.13210638 -0.12990923 -0.13270554 -0.06678351 -0.06290616 -0.0750729 -0.04265793 -0.0026117219 -0.031913076 0.04272067 -0.060971048 -0.0924615 -0.08408764 -0.044213988 0.01229729 -0.008791512 0.020068321 0.056424562 0.0606404 0.048761513 -0.008339055 0.018605528 0.058530793 0.03474044 0.031986263 -0.033486426 -0.06657208 -0.038734276 -0.12226498 -0.10887935 -0.10608322 -0.10393619 -0.09362515 -0.05715592 -0.06086567 -0.042900223 0.015413294 0.007498761 -0.13560826 -0.06439053 -0.034244303 0.0014726648 -0.012429706 -0.087578505 0.008798704 0.03412689 0.06634946 0.08499103 0.068956956 0.04205298 0.08124922 0.03638556 0.010361119 -0.054607388 -0.08769978 -0.15217158 -0.09586258 -0.082123294 -0.024238698 -0.06435945 -0.022425162 -0.050292645 -0.08492446 -0.12566493 0.035689954 0.020911809 -0.1463536 -0.045826614 -0.050100416 -0.02716462 0.0125693595 -0.03439754 -0.06364136 0.0037821976 0.042201985 0.090301454 0.06474225 0.011469096 0.033767674 -0.0012168918 -0.07051826 -0.114874795 -0.081500165 -0.14865336 -0.10073934 -0.063010246 -0.010418298 -0.038370226 -0.043759037 -0.012707668 -0.12659855 -0.078240186 -0.008555199 0.020848934 -0.12657556 -0.073301144 -0.13376689 0.012413242 0.10122191 -0.026352506 -0.133764 -0.073743775 0.007917858 0.05478455 0.022826534 0.033615477 0.02067114 -0.012137326 -0.109503195 -0.07587153 -0.016442263 -0.095152676 -0.059685845 0.045036186 0.10370675 0.06844142 -0.03967828 -0.05339169 -0.09986866 -0.027838489 -0.040156443 -0.036314853 -0.0006941071 -0.014953558 -0.0851639 -0.007095793 0.12258752 -0.05431976 -0.119311936 -0.0322734 0.005058414 -0.022301955 0.03949629 0.011920294 -0.018375656 0.012153143 -0.024652323 -0.018821588 -0.002641156 -0.10454789 -0.022237033 -0.0006853867 0.11370395 0.05243441 -0.021034997 -0.0140495 -0.05449451 -0.014830602 -0.08901133 -0.15665378 -0.052958805 -0.012151088 0.027027255 0.052889563 0.008570899 -0.0877871 -0.026904056 0.013155027 -0.049269915 0.08702107 0.08525072 0.0485413 0.01908551 -0.02861732 0.013533058 0.03407435 0.045099936 0.004492634 0.029421628 -0.016751977 -0.005029332 -0.025909543 -0.0019057092 -0.031568553 -0.07367127 -0.042344302 -0.11789508 -0.08391044 -0.034433737 -0.00060383463 0.046446715 0.018972028 0.02327039 -0.065501735 0.035364337 0.06083925 0.054551408 0.033883166 0.07266426 0.034168605 0.02727653 0.05420911 0.10533604 0.060664542 0.08938469 0.072935805 0.05563125 -0.011252126 -0.045655075 -0.03896161 -0.032958526 -0.07103413 -0.15358913 -0.13488665 -0.063465044 -0.053822525 -0.009414998 -0.041552056 -0.0012899414 0.030991027 -0.030353704 0.029072825 0.078295834 0.034525648 0.04860953 -0.031339355 0.05280995 0.062217265 0.104809396 0.08122788 0.13752833 0.103155784 0.13854063 0.07041696 0.049201954 0.059455395 -0.0147101395 -0.046997383 -0.09050595 -0.15439966 -0.18162845 -0.10313821 -0.02964027 -0.029684747 -0.009524453 -0.052707825 0.025634298 0.0138600515 -0.013751252 -0.005148341 0.12058309 -0.08268885 -0.018047562 -0.019875377 -0.057858013 0.024736352 0.12172921 0.057331305 0.06514232 0.1286573 0.08833254 -0.013585653 0.03856035 -0.029855348 -0.1266817 -0.085883684 -0.1462926 -0.022459226 -0.09709249 -0.12123577 -0.06146893 -0.008659976 -0.08400565 -0.069504075 0.0046872753 0.0050708526 -0.014699992 0.06551572 -0.03440977 -0.16980022 -0.069826216 -0.011752721 -0.05692804 -0.052409645 0.038480446 0.061286975 0.027329385 0.006091078 0.058288235 -0.0044153086 -0.0012831711 0.070401326 0.07186973 -0.0140678575 0.008584996 0.011660542 -0.046441738 -0.08972403 -0.061293084 0.009042086 -0.0019781971 -0.003232054 -0.028887456 -0.01865023 -0.00977394 0.0030030482 -0.027290413 -0.040912665 0.04193475 -0.038183223 -0.07366625 -0.062249355 -0.0077069816 0.049722694 0.13119994 0.036165316 0.02881829 -0.034453847 -0.037308652 0.10202139 0.00040290973 -0.096382365 -0.066809304 0.0023410763 -0.05546981 -0.058747675 0.02596802 0.03050553 -0.00056445063 -0.008531243 0.019354114 0.016384581 -0.019607527 -0.029836252 -0.028793294 -0.061707087 -0.072466366 0.055148583 0.034978963 0.023472125 0.006093785 0.0041570785 -0.008602638 0.07348546 -0.06725609 0.04388266 0.045223076 -0.013031482 -0.099667035 -0.09043918 -0.08460947 -0.018226152 -0.062094625 -0.05984507 -0.03203913 0.031023044 -0.03314063 0.01367432 0.015283215
0.020592391 -0.032312118 0.009874987 0.027845597 -0.010270736 0.011146755 -0.025686415 -0.019118391 -0.028300878 -0.03465747 -0.007755727 0.0042698598 0.010458522 -0.04675235 0.025407728 0.0020727431 0.034903098 0.027086928 0.008461195 0.004693406 0.022437876 -0.018827895 0.032454547 -0.0332623 0.009866595 -0.023623463 0.0050853365 -0.03367197 -0.031471927 -0.011505025 -0.022190912 0.010986622 -0.001997929 -0.018305713 -0.012818026 -0.0022584756 -0.020020826 -0.03927457 -0.041056324 -0.06480758 -0.08317915 -0.08577515 0.025032124 0.033747494 -0.022583613 -0.08656369 -0.03861491 -0.078163646 -0.06413129 -0.051818274 -0.033754334 0.006480523 0.017670108 0.0040204483 0.031309824 0.013898067 -0.0047878753 0.003845696 -0.032205615 0.019568378 -0.031142995 -0.063152485 -0.049552485 -0.046003636 -0.12555972 -0.16313313 -0.17406724 -0.15488233 -0.20060632 -0.09665957 -0.11664817 -0.053658836 -0.018897112 0.0026839965 0.04375841 0.011706342 -0.031509917 -0.05224447 -0.034357656 -0.065252386 -0.055651955 0.030826434 -0.0075023775 -0.00537384 0.004149156 0.022059046 0.10823971 0.052692283 -0.006726078 -0.03191861 -0.02573683 -0.093758866 -0.1537049 -0.2379834 -0.2069126 -0.2262349 -0.072540216 -0.13097128 -0.09272409 -0.02838216 -0.06404659 -0.037486188 -0.04957602 -0.03942437 -0.00040085748 -0.048362758 -0.084719494 -0.06824648 -0.05630396 0.0119372625 0.02477922 -0.009591116 -0.017646395 0.00070984126 0.12949662 0.1411256 -0.03755125 -0.062237408 -0.025822416 -0.04326651 -0.1323364 -0.0006148175 0.052059676 0.028394736 0.03497747 -0.010344258 0.011317179 -0.0011916794 0.05526598 0.024333848 0.011711272 -0.028598083 -0.030167567 -0.024954349 -0.0063504223 -0.030074684 0.0020161076 0.12549618 0.087909594 -0.033317942 0.0072798734 0.021036234 0.06862402 -0.008034963 -0.04374487 -0.03676746 0.013123466 0.033244777 -0.03597766 0.024095684 0.024307437 0.072040066 0.084084354 -0.0022576565 -0.0019583406 -0.016121788 0.07281537 0.06980878 -0.026703719 -0.028364005 -0.013003991 -0.06035288 0.033557557 -0.0304149 -0.0036844518 0.060149975 0.05060903 -0.011477811 0.023252292 0.02625986 0.040345304 -0.1553146 0.08370529 0.18776229 0.12426355 0.085387796 0.082048744 0.09839271 0.06725491 0.060432848 0.024279263 -0.05035666 -0.04963465 -0.057021555 -0.07129979 -0.0559994 -0.053277858 -0.022734415 -0.023557112 -0.15417188 -0.05316669 -0.052837823 0.008868232 0.061744228 0.111168124 -0.030350383 0.005665588 -0.049638566 -0.08535958 -0.034642074 0.1470234 0.23311813 0.14481422 0.13722783 0.16230255 0.058171857 0.08192128 0.0028588036 -0.025542632 -0.08022127 -0.083361045 -0.10555489 -0.05005455 0.006269983 -0.030989042 0.0048589236 -0.047287922 -0.0068393894 0.004543815 0.0090365205 0.04642282 0.038152117 0.12740976 0.019321568 -0.02413383 -0.07384084 -0.0023958965 0.09728383 0.07230093 0.15698598 0.06135639 0.07292841 0.03836498 0.05296676 0.058843028 -0.00086818036 -0.049130026 0.0011540968 -0.04680278 -0.03008847 0.021796294 0.03594312 0.05375747 0.0555058 0.07054424 -0.0038550603 0.049853053 0.121226385 0.08620008 0.09360944 0.15812218 0.05486773 -0.05723191 -0.09008151 -0.0005939884 0.042060673 0.048583247 -0.007957825 0.057249308 0.076024756 0.062205587 0.05768094 -0.027370315 0.026574388 0.027026827 -0.0005821575 -0.022783145 0.019153852 0.068392284 0.09175899 0.047582187 0.08757764 0.0620614 0.06222034 -0.0037090727 0.086811945 0.14121583 0.17924884 0.17472939 0.002398282 -0.023148147 0.015902385 -0.054114204 -0.024345778 0.1296064 -0.013204686 0.06960897 0.058523368 0.015665518 0.022983346 0.032136206 0.027232977 0.08952808 0.033528354 0.054485474 0.059937477 -0.027744802 -0.03334097 -0.018263932 0.0021629795 -0.04646828 -0.044707607 -0.028164629 0.11206771 0.17155172 0.15309171 0.1752292 -0.01930416 0.017603472 -0.021178516 -0.13370137 0.0032254986 0.052239478 0.068151854 0.018288909 -0.01667308 0.0060768626 0.04876237 -0.02910122 -0.014742422 0.10180112 0.019679608 0.031480152 0.010247842 -0.043487154 -0.15772226 -0.13053489 -0.07875954 -0.12670533 -0.13297233 -0.12928718 -0.0612973 0.10696372 0.13928391 0.23483135 0.015706534 -0.010846703 -0.04733633 -0.1241529 0.09262365 0.015524301 0.033885542 0.07225508 0.075099945 0.024677625 0.022301907 0.01623038 0.08959444 0.12446291 0.08221535 -0.049659465 -0.051283102 -0.10813651 -0.10701771 -0.14996411 -0.06879792 -0.04412363 -0.04955242 -0.16608943 -0.12025375 -0.013067703 0.055518415 0.06793386 -0.10697642 0.06235339 -0.0076516173 -0.097285904 0.05845228 -0.041655075 0.07601548 0.06887243 0.10524914 0.09310685 0.12698601 0.07385313 0.099482894 0.14635809 0.062304832 0.022943433 0.026257863 -0.029687783 -0.102872655 -0.0147021115 -0.022759158 0.071453795 -0.050684102 -0.06998739 -0.08839038 -0.08361891 -0.076815166 0.034579094 -0.06421203 -0.0030038883 -0.013550858 -0.08309275 -0.11176459 -0.07646612 0.01526954 -0.0144999875 0.037175152 0.08024101 0.10667085 0.05117146 0.10662667 0.114029236 0.059097815 0.11568084 0.09256064 0.018761408 0.032282963 -0.028693443 -0.0016716718 -0.049952112 -0.024322378 -0.030989373 0.01914064 0.020405894 -0.105848774 -0.14139172 -0.1192742 0.0227446 0.028961683 0.045029484 -0.062889025 -0.06490589 -0.0033755493 -0.02777075 0.014372841 0.05440542 0.048758034 -0.077785216 -0.004664257 0.06970298 0.076631114 0.11596306 0.08649979 0.0036991085 0.013940237 -0.024514697 -0.044600993 -0.055207048 -0.030451193 0.080395676 0.078975186 0.07851596 -0.03253098 -0.07942574 -0.05236759 -0.010294324 0.022971814 0.06526053 0.03444468 -0.036308795 -0.06516484 -0.05281737 -0.08117426 -0.121542394 -0.069123395 -0.15529084 -0.16647795 -0.029780878 0.051357962 0.057492014 0.03290599 -0.05350072 0.0035902944 -0.024023028 -0.04103713 -0.020394953 0.010963633 0.09357212 0.12871534 0.09643301 -0.09745611 -0.2272244 -0.06486417 -0.033292532 0.037604388 0.05509977 0.011386138 0.027357846 -0.00021356238 -0.0010213559 -0.0867143 -0.13384447 -0.14976142 -0.16129044 -0.16435212 -0.069606476 0.012298971 0.015134978 -0.016514359 -0.020410843 -0.061251394 -0.02426568 -0.0054522734 0.028102776 0.10026167 0.06986004 0.0953574 0.057475097 -0.25282344 -0.20409727 0.06373149 -0.09175535 0.017595168 0.0110166585 0.055251103 0.049502905 0.07148116 0.07912402 -0.042622186 -0.07191113 -0.057806462 -0.07932287 -0.09928278 -0.07243868 0.030532798 -0.08268671 -0.05892364 -0.05747826 -0.06052093 -0.06741365 -0.04370272 0.041322716 0.03168822 0.0475001 0.034118738 0.037975665 -0.17962603 -0.143927 -0.04415124 0.02422668 -0.07367592 0.014601081 0.044112265 -0.058712494 0.028305678 0.05431538 -0.026599424 0.036888134 -0.006691975 0.0052148914 -0.123166814 -0.13435984 -0.018824179 -0.07088054 -0.05783208 -0.06411698 -0.045178432 0.020319998 -0.0148266805 0.036991652 0.05223446 0.051108263 0.022351898 -0.02267019 -0.015007968 -0.061334386 -0.11375696 0.0016901494 -0.0067216298 0.042598862 -0.089379214 -0.16930199 -0.0023637228 0.033576712 0.00968613 0.025647914 0.03503066 0.04768452 -0.014606591 -0.052432846 -0.050954048 -0.10771188 -0.025211127 -0.015556387 0.051036205 0.065835685 0.0226906 0.12000414 0.09061825 0.07648374 0.017951991 -0.05092542 -0.04550382 -0.040469475 0.013097634 0.020858582 -0.023718512 -0.061251014 -0.1729946 -0.08146977 -0.1064262 -0.05679872 -0.013195049 -0.02534254 -0.014115123 -0.059669726 -0.04408678 -0.050068006 -0.020073244 -0.031225242 0.03316489 -0.028624421 0.041239537 0.013699624 0.019150173 0.06617071 0.04522572 0.03994514 -0.009799357 -0.0065524657 -0.009902977 -0.020972306 -0.013374506 0.0049155066 0.049306516 -0.061203677 -0.09647972 -0.028750604 -0.05977903 -0.11816963 0.015376321 -0.0504372 -0.018054113 -0.0959418 0.009160017 -0.016569922 0.027284771 0.0134864105 0.022382813 0.043081105 0.03368146 0.042106032 0.042932287 0.032255433 -0.00028210523 -0.026415428 0.024516217 0.006576004 0.03127813 0.11360571 -0.03143255 -0.030602517 0.013844933 0.029856186 0.0316046 0.044267066 -0.02519661 -0.07815072 -0.079911456 -0.05490121 0.037352256 0.03559273 0.05497003 0.07728612 0.054011483 0.050728343 0.0665051 0.055727128 0.012633206 0.053046547 0.04990798 0.036734127 -0.045920264 0.0010972543 0.046909258 0.0050808378 0.06829452 0.048360527 0.016310705 0.017121056 0.029281009 -0.034858573 0.10355984 -0.027082685 -0.12992239 -0.07322677 -0.053034857 0.038423575 0.10170924 0.09377409 0.1202512 0.1813057 0.11595288 0.17467684 0.035071325 0.07349961 -0.037820578 0.010747395 0.034569126 -0.06662519 -0.036265012 -0.0327301 -0.0740868 -0.055165827 -0.14239955 -0.09328721 0.0041508465 0.0072849398 -0.025900366 -0.016412174 0.059250623 -0.057391804 -0.11646082 -0.064410195 -0.084926836 -0.12090755 0.0033347548 0.030672533 0.0037016112 0.061519854 0.06474575 0.012853239 0.04240932 -0.0032248732 0.014707179 0.017700555 -0.030727103 -0.05224604 0.029182348 0.008087487 0.0726601 0.12839615 -0.15012492 -0.007168565 -0.017475618 0.0013588497 0.0149599835 -0.02409987 -0.036874067 -0.101602316 -0.17196496 -0.21419676 -0.20312797 -0.17953788 -0.21637346 -0.23602322 -0.07829843 -0.056393735 -0.14847927 -0.27999553 -0.1329308 -0.09359893 -0.11893689 -0.089748494 -0.102441765 -0.11450643 -0.1011518 -0.115468554 -0.10632061 -0.07271842 0.011546772 -0.031832352 0.012639157 -0.0009300028 -0.031673186 -0.014356397 -0.021798285 0.081082866 0.07248756 -0.025048008 -0.081315115 -0.01632286 -0.08789673 -0.12443701 -0.04438585 -0.03378546 -0.07489326 -0.1588911 -0.07651945 -0.16431257 -0.1633524 -0.17872038 -0.08714636 -0.20285699 -0.1581887 -0.08788221 0.007873616 0.034971353 -0.0033481973 -0.03258544 0.0062982994
