0.01844603382050991
-0.0023493366315960884
-0.11516333371400833
0.16860203444957733
-0.002855658531188965
-0.06544282287359238
-0.1574612259864807
0.06760761141777039
0.32592833042144775
0.21806950867176056
0.01218597125262022
-0.04688091203570366
0.08213195949792862
-0.08963251858949661
0.07217038422822952
0.005070522427558899
0.0737888291478157
0.10736378282308578
-0.16785192489624023
0.26698631048202515
0.2630307376384735
0.13704954087734222
0.17295905947685242
0.0014033621409907937
0.0631236732006073
-0.09525084495544434
-0.025050362572073936
0.09079402685165405
0.03330223634839058
-0.045239467173814774
0.3587173819541931
0.04049616679549217
0.08385828882455826
0.12332332879304886
0.3146093785762787
0.06617555022239685
0.14934492111206055
-0.12085627019405365
-0.10292594134807587
0.025446970015764236
0.018216164782643318
0.1756146401166916
0.0281065683811903
0.26203688979148865
-0.048333797603845596
0.042524442076683044
0.238043874502182
-0.02659764140844345
0.06408419460058212
0.1809045374393463
0.23239116370677948
-0.23401907086372375
0.16236159205436707
0.03755854442715645
-0.007588998414576054
0.0848984345793724
-0.08925831317901611
-0.09843270480632782
0.2623101472854614
0.2466873824596405
-0.1434049904346466
-0.09978320449590683
-0.18128818273544312
-0.07072492688894272
-0.0723089948296547
0.1531706005334854
0.20573027431964874
0.10050619393587112
-0.14220263063907623
-0.03866592422127724
-0.08771806210279465
-0.13481487333774567
0.011971745640039444
0.12739548087120056
-0.09875264763832092
0.08662018179893494
0.3076375126838684
0.28836822509765625
0.18415313959121704
0.022162728011608124
0.0034842046443372965
0.038311559706926346
0.026520872488617897
-0.05810774862766266
0.19269199669361115
0.3871130347251892
-0.02312903106212616
-0.03695559874176979
0.011771542951464653
0.1509004384279251
0.02052244357764721
0.09970251470804214
0.22301191091537476
-0.1233668252825737
0.10551093518733978
-0.09194525331258774
0.07577847689390182
0.08494630455970764
0.11512798070907593
0.25587013363838196
-0.03195733577013016
0.13877947628498077
0.17090901732444763
-0.001163435517810285
0.33627691864967346
-0.06387067586183548
0.15695829689502716
0.21267132461071014
-0.1078287810087204
0.09309546649456024
0.01824680157005787
0.384786993265152
0.057968270033597946
0.13052457571029663
0.1963493376970291
-0.05611396208405495
0.039462219923734665
0.17681273818016052
0.0971105545759201
0.15615856647491455
0.02274501882493496
-0.30029070377349854
0.06564026325941086
0.006463011726737022
0.20766836404800415
0.11192953586578369
0.09908462315797806
-0.007966507226228714
