-0.07384768 0.03576963 0.078460954 -0.024775203 -0.012348422 0.04731296 -0.07023295 0.0250986 -0.031219412 -0.004856028 -0.039310064 0.06829875 0.11694353 0.031018091 -0.12266356 0.23487177 0.1619163 -0.011260215 -0.021336194 0.053718895 0.06526262 -0.08397269 -0.041005906 -0.02071978 0.08065937 0.123677514 0.018890554 0.11223158 -0.019016556 -0.0062281485 -0.049633637 0.0134294145 -0.07938534 0.053678293 -0.15677318 0.105699435 0.31116465 0.13469698 -0.041847236 -0.09878151 -0.07249983 -0.020313779 0.031203838 -0.51511985 0.09953753 0.024704192 -0.044834517 -0.17682628 0.011642224 0.19312002 0.055229846 -0.028423486 0.08285523 -0.023474904 0.046157416 -0.08355999 -0.07978061 0.10801253 -0.16088335 0.059696823 0.081133686 0.06997417 -0.14817825 -0.0055204183 -0.11741215 0.16298884 0.053518396 -0.17220023 0.0043770797 -0.060377322 0.0025134184 -0.06502008 0.04038573 -0.22031069 -0.001191033 0.062270176 -0.003351058 -0.0021977555 0.254399 -0.021425376 0.12285761 -0.1616487 -0.034215577 -0.0155957155 -0.20393634 -0.13896975 -0.3492789 -0.32995647 -0.01832419 -0.026383063 -0.11267112 0.01540834 -0.08163855 0.111724235 -0.08693435 0.14958006 0.06948612 0.13980749 -0.16290367 -0.0242778 0.011016875 -0.02285575 0.16255045 0.18340148 -0.523507 -0.122686304 -0.18387899 -0.059451275 -0.26330054 0.29537055 -0.008045705 -0.0009806352 -0.60986036 -0.002571364 0.054630723 0.09379923 0.23075381 0.07389196 -0.08282899 -0.10973745 -0.052510932 0.11303267 -0.117977105 -0.37438217 -0.17259622 0.17058316 -0.015847152 0.07083609 0.30294594 0.04251592 0.17100489 -0.033011403 0.059556656 -0.11688154 -0.11370277 0.12909411 -0.06996079 -0.11839804 -0.00888555 -0.13539855 0.22056393 0.055317752 0.051494587 -0.06866522 -0.0072721215 0.08056022 -0.052009027 0.099882334 0.05882554 0.24125491 -0.18625668 -0.021348692 -0.07593688 -0.15172502 -0.0042981193 -0.0047181896 -0.20978181 0.043745965 0.016909484 -0.053245716 -0.043304447 -0.1144577 -0.33670205 -0.12410308 -0.012016107 0.009501211 -0.017750977 0.073740155 0.059935123 0.13695264 0.037691668 0.018931752 0.29787317 -0.059777234 0.015931549 0.12002713 0.02026127 -0.21271501 0.06258396 -0.1258602 0.23137704 -0.011777549 0.006688419 0.024636498 -0.10734542 0.00073479646 0.117456645 -0.15641162 -0.22401503 -0.018244281 -0.06378427 -0.36707076 0.019700939 -0.13723405 -0.022484997 -0.22794001 0.070117965 -0.032810215 -0.14319214 0.080983475 0.01081696 -0.28338775 0.09492123 0.014503373 -0.025837183 -0.105518624 -0.049298733 -0.16130951 0.059748422 0.019828558 0.059850052 -0.041406926 0.017597547 0.0016039844 0.027985903 0.06786029 -0.00965001 0.0651909 0.09410702 0.038927976 0.0018587717 -0.13801599 0.10797465 -0.26903835 0.08534537 -0.033042695 -0.041156445 -0.0555523 0.110855736 0.062020056 0.08995516 -0.059174664 0.091325104 0.049599413 -0.037949704 -0.046463374 0.030178417 0.09570688 0.0017251025 -0.033837583 0.004308573 0.16152118 0.033671245 -0.24662752 -0.08593033 -0.053950995 -0.09449983 -0.23810515 0.09284652 0.007204942 0.120111704 0.016661786 0.015721574 0.13746609 -0.05765282 -0.008451022
-0.0062450906 0.035176534 0.061972544 0.038859863 -0.019698858 -0.05217699 0.058048993 0.051117193 0.20839763 -0.00984203 0.13214834 0.11063093 -0.35854626 -0.12251085 0.1148721 0.32337126 0.16760555 0.015309041 0.14109597 -0.07538978 -0.11742191 0.057455078 0.084196426 0.10426314 -0.059775554 0.06826049 0.024001937 -0.055802573 -0.0627265 0.107438125 0.038702942 0.104435734 -0.16174893 -0.059029974 -0.0007020788 -0.010901377 0.14099947 0.11495708 0.0571402 -0.017470185 -0.052101918 0.22123744 -0.05812445 -0.5912208 0.00893392 -0.07398724 0.06430483 -0.0342952 -0.00057457446 0.055760317 0.10618794 0.059439737 -0.2170956 -0.15933612 -0.04381161 -0.014866753 -0.02745596 -0.03314902 -0.047990516 0.2327178 -0.08633171 -0.06416493 0.07265725 0.055667486 0.07720163 0.12000193 -0.05823794 0.11291711 -0.25355512 0.06922234 0.22462429 0.008896421 -0.021165065 0.004361731 -0.030236179 -0.02511478 0.0960935 -0.05554909 0.2655682 -0.0013818744 0.026836548 -0.18029891 -0.018922571 -0.064016216 0.12878889 -0.079921566 -0.16611479 -0.13154392 -0.08459138 0.0884198 0.06398845 0.006735294 0.060775127 0.04361643 -0.36135665 0.14183395 0.15628918 0.046887584 0.1708183 -0.05356694 0.007534339 0.071351685 0.008356597 0.24347746 -0.06423792 0.22869283 0.112504266 -0.08133004 -0.20124549 -0.021649182 -0.17714609 -0.05776845 -0.29679927 -0.015505396 -0.05174314 0.019251497 0.22789434 -0.054239992 0.050487164 0.07642447 0.04143435 -0.1370376 0.045537554 -0.09219848 -0.25306046 0.16586722 -0.20272335 0.082442656 0.29900262 0.014983267 0.031446587 -0.006491108 -0.048030913 -0.0103686815 -0.059099566 0.14074726 -0.050884977 -0.08579921 -0.09837513 0.20483367 0.32910755 0.13960063 0.092202306 0.010117504 0.115357086 0.099284895 -0.17359029 0.14755003 -0.114098445 0.08791202 -0.16655622 -0.09469364 -0.06722132 -0.11754163 0.23005809 0.064604364 -0.16037424 0.059685357 -0.061110944 0.09941358 0.15245841 -0.0062120995 -0.19073163 0.04674662 -0.049176626 -0.040010877 -0.016906366 0.03026831 0.1372952 -0.18432054 -0.061253097 -0.04284139 0.04874543 0.0788446 -0.006270328 0.06423156 -0.0025587555 -0.10299292 0.23995648 -0.20089146 0.10352542 -0.0077880323 0.06664792 -0.073909394 -0.14414343 -0.13500926 0.1272388 0.08935715 -0.41720718 -0.004848998 0.032889802 0.17165871 0.024189379 -0.29995823 0.00476968 -0.009813258 -0.10081463 0.06571308 0.016793415 -0.10076829 -0.03876313 -0.28126767 -0.105508395 -0.08852397 0.039868698 0.005101548 -0.03746078 -0.22164351 -0.009178688 -0.048879012 0.106113784 0.08386071 -0.008101633 -0.07989782 -0.011818414 -0.09277299 0.038190637 -0.10901528 0.02166681 -0.039457094 0.0840617 -0.0450419 -0.050722882 -0.21293001 0.15322697 0.23685066 -0.02108736 0.013720313 -0.060473666 -0.041499414 -0.012816791 0.1935418 0.26605466 0.09023672 -0.11510545 -0.16739473 0.04101401 0.010515537 -0.05626106 -0.19227104 0.047073163 0.072469205 -0.0328547 -0.06988087 -0.106537655 -0.022521947 0.11940951 -0.0027515688 0.03817888 -0.0869682 0.047510687 0.16135903 0.008038812 -0.03473271 0.00047255016 -0.16644968
0.17997776 -0.07858695 -0.002456909 0.03407668 -0.16133697 -0.049140673 0.041290708 -0.09040372 -0.062824845 -0.012422657 -0.05197262 -0.09473217 -0.11298736 -0.0021431423 -0.11776526 0.1263005 0.122440234 -0.08172611 0.11276111 0.007200836 -0.1412905 0.063710205 -0.024233555 0.12567246 -0.036842972 -0.055966582 -0.10290996 -0.09959207 -0.23629883 0.07053664 0.040673185 -0.08336376 -0.33658522 -0.16239524 -0.026640113 0.07327467 -0.00055776007 -0.06475638 -0.093753465 0.054692555 0.16140331 0.06543759 -0.1687908 -0.19662648 -0.20465946 0.024694443 -0.055279173 -0.02352736 -0.046392176 -0.04120037 -0.06574795 -0.01044565 0.05043977 -0.08892982 0.015820626 -0.058222283 0.06969771 -0.11871114 0.099327266 -0.21194232 -0.014635607 -0.16066946 0.1702117 0.16572447 -0.038601175 -0.050003923 0.04104033 0.18492576 0.09358495 0.042656377 0.008639638 -0.047797564 -0.21299091 0.31043795 0.042428195 0.28282028 -0.07474543 0.04696425 0.15626557 0.05276589 0.039860755 0.007894724 -0.054784648 0.041926906 0.0762253 0.111491546 0.050512817 -0.284355 -0.17841719 -0.03420052 0.04171688 0.12202391 0.10643418 0.071993016 -0.23238866 -0.09069139 0.21664508 -0.029313818 0.23544556 0.001204875 -0.00462326 0.061029077 0.15098138 0.08976945 -0.076021716 -0.064946674 0.022571344 0.0469343 -0.201923 0.07128572 0.090587884 -0.20100647 -0.104036435 -0.16660844 -0.10706003 0.112793006 -0.00632412 -0.024769707 0.121166736 -0.21133988 -0.026529301 -0.108383015 -0.14995198 -0.09814593 -0.048234858 -0.19501624 -0.24459721 -0.092165604 0.09339647 -0.026573453 0.0029857445 -0.094721854 -0.10167075 -0.04601597 -0.17579316 0.107360184 -0.3283753 -0.1744232 -0.13328405 -0.10625877 0.14540161 0.026454706 0.04234528 0.103129745 0.02150169 -0.039644692 9.436015e-05 0.033532534 -0.050119404 -0.030970586 -0.14708915 0.051287178 -0.07772292 -0.032993898 0.03781836 -0.011883247 -0.058150336 -0.15337506 -0.26224074 0.0066616843 -0.10075356 -0.21664932 -0.1693778 0.13896257 0.27206472 -0.18696187 -0.005544834 0.04227425 -0.010800974 -0.093287796 0.08720314 -0.2366863 0.06985674 0.22538127 -0.12215896 -0.08188874 -0.015363449 -0.20089412 -0.12055176 -0.13679095 -0.018335149 0.008302875 0.026827643 -0.18925855 -0.10842744 -0.1357111 0.04988978 0.12938794 -0.12442554 0.04246916 0.06621761 -0.08979301 -0.19798431 -0.1657238 -0.056831967 -0.11067088 -0.07083866 -0.060978625 0.08718833 -0.03674797 0.016912308 0.011429872 0.05090038 -0.18732479 0.03454162 -0.101678 0.05370162 -0.08019905 0.07004072 -0.16935636 0.020916317 -0.2547316 -0.2231079 -0.1866315 -0.2872511 -0.08065249 0.12462286 -0.12014449 -0.06087645 -0.15550046 0.28752276 -0.15055189 -0.06042541 -0.03580927 0.062415235 0.08125572 -0.1301549 0.10648324 -0.11994427 0.04750259 -0.095931225 0.13061522 0.0062546665 -0.0070772762 0.1676543 -0.13716173 -0.06875908 -0.06121859 0.056392282 -0.1978899 -0.04614468 -0.06686082 0.0064769634 -0.059174467 0.049689516 -0.12507084 0.07956308 -0.13098301 -0.11726465 0.12688136 -0.13288595 0.1016709 0.08355957 0.052144744 0.098656654 -0.12159355
0.08083905 0.0024823397 0.095256194 0.1278517 0.22153763 0.0010279742 0.00023772729 -0.086949736 -0.021991378 -0.058401126 0.065502785 0.11956784 0.063252695 -0.006497428 0.11362919 0.09258689 0.19748859 -0.027037745 -0.024849826 -0.034117147 0.009923926 0.007797884 -0.051217534 -0.063343816 -0.009384366 -0.09478175 -0.016582077 0.0977212 -0.07911215 -0.07308832 0.050600287 0.17480052 -0.023114866 -0.0025345145 -0.061021883 0.0032609112 0.0041425745 -0.22773051 -0.17170946 -0.08175636 -0.015936483 0.046771158 0.094554156 0.059616737 0.010088098 0.028773263 5.265807e-05 -0.037354082 0.021397596 -0.12696436 -0.06673534 -0.016949458 -0.22937404 0.32242805 -0.16013135 0.11399378 -0.069716185 -0.031029198 0.043073762 -0.20670259 0.2081426 -0.1132007 0.091415696 -0.047160782 0.024058625 -0.02716978 -0.07144293 -0.03342785 -0.027094973 0.2337292 0.110247284 0.10632184 0.037040103 0.027192483 0.029865388 -0.023670776 0.06003052 0.045315742 0.13285492 0.02505165 -0.02656647 0.08936883 -0.11320279 -0.17432566 0.06836805 0.05851595 0.1992382 -0.109790854 -0.14271164 0.015065466 0.0471843 0.027885718 -0.034625392 -0.024847444 0.06102732 0.035166536 -0.17526734 0.10892756 0.1975141 0.118714415 -0.046811864 0.017702918 0.0019194589 0.038973723 -0.079283156 0.037083045 0.0018657546 0.054690115 -0.061427314 -0.0030413617 -0.14858098 -0.04957688 0.13278836 -0.019125696 0.019488476 -0.09478261 0.059553355 -0.07641408 0.055873867 -0.02225852 0.07911079 0.0022033034 -0.012357442 0.006234922 -0.15708162 -0.012837863 -0.04427373 0.048174992 -0.013487676 -0.061588373 0.003976273 0.019673552 0.005541984 0.038641572 0.08022336 0.17207143 0.047553282 0.08688152 0.07212665 -0.019990314 0.06222732 0.1369953 0.097900294 0.017337022 -0.0046683876 -0.005981399 -0.031737052 -0.13616478 -0.099040985 0.10051894 -0.054918665 -0.03485142 0.0483492 -0.08958788 0.13916995 0.1254079 0.10079462 0.055525165 -0.13305217 0.053793706 -0.06739004 0.27630368 0.06376469 0.083010465 -0.0075932615 0.04884315 -0.04456937 0.066040255 -0.005783709 -0.0038825143 0.11130913 0.13224743 0.026553769 -0.25757563 0.014485134 0.0054399264 0.02252885 -0.004884689 0.00020252273 0.014621847 -0.27073333 -0.02402626 -0.082646996 -0.00539732 0.005554726 0.083309405 0.02890317 -0.013360218 -0.012932772 0.15968788 0.07500583 0.18028967 0.13066992 -0.08163469 0.15344597 -0.09479104 0.042223394 -0.0032601673 -0.0040811016 -0.23667312 0.047244493 0.13458143 -0.028031083 0.03339155 0.023383575 0.071251884 -0.057803825 0.06495944 -0.02884803 0.07256685 0.07373577 -0.015736522 0.02007492 -0.10401347 0.118054084 -0.1170726 0.0026386646 -0.09980383 -0.050957017 0.04377125 0.004732038 0.12254191 -0.09771489 0.052511208 0.07800113 -0.26571584 -0.049309414 0.025849337 -0.04664002 0.15694027 0.15065528 -0.15113024 -0.04793175 -0.06849998 -0.00496045 0.07984137 0.09832801 0.044146292 -0.016900973 0.056701012 -0.006789459 0.05249574 0.16986002 0.14301659 0.037244245 0.03468702 0.0336302 0.11962548 -0.09680224 -0.08727634 0.11153659 0.13792156 0.08282439 -0.030807728 -0.014263784 -0.102230154
0.02249576 -0.061419044 0.119019255 -0.044212434 0.076206766 -0.052626252 0.09544276 -0.08226872 0.016533326 0.020932503 0.04126185 -0.0019231972 0.098692834 -0.22524825 0.12897429 -0.05356844 -0.07014163 0.0901015 -0.027274817 -0.03457578 0.016614098 -0.103250585 -0.02503105 0.058895327 -0.014168374 0.0466967 0.045210667 0.042554338 0.12929048 0.100054614 0.100289494 -0.052959394 -0.014864487 0.021732386 -0.03788367 -0.060467567 -0.16205749 -0.23823117 0.042004164 0.11137202 0.004928744 0.018987048 0.014269857 0.07822071 0.07492571 0.07122551 -0.084631234 -0.03731061 0.06357119 -0.03453767 -0.03210875 -0.051455732 0.020211201 0.10705619 -0.042363215 -0.31292588 -0.01645886 -0.0059976852 0.27185032 -0.10914562 -0.1945855 0.024887761 0.106763445 -0.02550306 -0.01453117 -0.0032484403 -0.020399407 -0.015702257 0.078981854 0.043328553 -0.20330425 0.042857528 0.019978723 -0.004767195 -0.022342132 -0.08470648 0.06394517 -0.000178367 -0.10482569 0.027965404 -0.06664744 0.023029398 -0.02881417 -0.050721493 0.23579402 0.08764941 0.17163797 -0.01773447 -0.021610314 0.060217045 -0.35869524 -0.055184 0.090065986 -0.11037131 0.23645903 -0.5351757 -0.028633416 0.15856239 0.13350202 0.049094092 -0.011953953 0.02410898 0.1524636 -0.12036574 0.013613439 -0.008775944 0.023592511 0.14107382 0.061352704 -0.0010650572 0.10898557 -0.009848676 0.10398814 0.07716907 0.05571018 0.16137172 -0.016531182 -0.018298665 0.04140677 0.09261167 0.034356818 -0.050534606 0.06375511 0.042828813 -0.2229607 -0.17431186 -0.09051864 0.08404314 -0.06731428 -0.07081896 -0.25258198 -0.0020332525 0.058463577 -0.05797443 -0.05581835 -0.17915578 -0.16964242 -0.0022274663 0.052188214 0.22582248 0.05733957 0.09643029 0.06438392 -0.03029493 0.09067044 -0.0875783 0.056808956 -0.08962921 -0.11280181 -0.15964775 0.12408465 -0.08512635 0.18964438 -0.008711179 0.12280127 -0.15532291 0.10949006 -0.0816273 -0.09840693 -0.028248154 -0.0016131159 0.12134582 0.32179156 0.23397559 0.18742028 0.09952685 0.01096683 -0.040432055 -0.06004957 0.19090849 -0.005484006 -0.019938491 -0.08570566 0.100157924 -0.06804991 0.056160767 -0.05214962 0.3032078 0.1383856 0.08415895 0.08134475 0.015630607 0.064501174 0.078519925 0.014538495 0.2648954 -0.09411289 0.057095774 -0.0229679 0.0097231 0.08497741 0.18969177 -0.009097096 0.20923162 0.08273234 -0.09160149 0.13584565 0.039520226 -0.037944905 -0.12379623 0.19187231 0.0336307 0.01844575 -0.0153293535 0.22350618 0.15387931 0.014917683 0.17297627 0.04480584 0.09741144 0.027063444 0.039209075 0.045779288 -0.032723967 0.16261488 0.091642894 0.15742595 -0.057610575 -0.00961146 0.08955474 0.06076111 0.123064846 -0.13476928 0.05605056 0.1600911 -0.047309134 -0.12805106 0.013031083 -0.15648016 0.084484726 -0.018776955 -0.07801247 0.06230463 -0.07454911 -0.022183469 0.09283905 -0.08719949 0.10763419 -0.012536682 -0.051407713 0.02657028 -0.020792922 0.064200625 0.05741231 0.0490296 0.04560561 0.08794256 0.13830449 -0.07500224 -0.30828938 0.002152058 0.03656697 -0.09794238 0.053506058 0.059247933 -0.06831995
0.15281288 0.10304397 -0.13692892 -0.0008865193 -0.10313151 0.039021842 -0.014478494 0.000320516 -0.2604082 -0.03462501 -0.12316111 0.058068275 0.077680685 -0.059326217 0.024173668 0.24219438 -0.073880345 0.088033065 -0.021994568 0.16039519 0.03939289 0.119469635 -0.052715175 0.17027858 0.015580459 0.11505736 -0.006427569 0.0731825 -0.019919042 0.02090211 0.21861303 -0.14209646 -0.008407848 -0.039029777 -0.10153216 0.107240885 0.063299775 0.17078224 -0.020259904 -0.11260028 -0.15585962 -0.026608994 0.079471104 -0.20209512 0.033950243 0.055591084 -0.0045715314 -0.044122767 -0.0038368294 0.11821598 -0.0931689 -0.104211695 -0.03548414 0.17820032 -0.12841931 -0.2501909 -0.060462747 0.11092968 -0.025745843 -0.23934472 0.24062878 -0.00034061668 -0.081069864 0.15003082 0.031587772 -0.12953386 0.12865937 -0.11795276 -0.0581952 -0.02820587 0.02568651 -0.047281932 -0.028304553 -0.12838596 0.026736116 -0.2810242 0.10945858 -0.010377719 0.042054504 0.04358667 -0.081065245 0.37792155 -0.055937827 0.060609933 0.05916916 0.2635832 -0.12842149 0.033849373 -0.05118512 0.08981196 0.03641875 0.105733454 -0.1810227 -0.0068660975 0.018768804 0.015385046 0.304493 -0.29564506 0.036180038 -0.045735545 -0.06511113 0.14949103 0.06062928 0.08239022 -0.29659832 -0.10752097 0.07082058 -0.05381157 0.0010863204 0.087536395 0.08512566 0.1122727 -0.24467564 0.09968719 -0.027553022 0.09279054 0.14887641 -0.056926224 -0.14016463 0.25472483 -0.05030895 0.080350794 -0.021607086 -0.055479977 -0.13897195 0.25353152 0.014451265 -0.19151866 0.065857954 0.08277238 0.05870416 -0.16704644 -0.010747112 0.11948779 0.015376166 -0.18726265 -0.10064955 0.16102387 0.019736154 0.086455144 0.008913302 0.041841544 -0.05906386 -0.03966625 0.1381532 -0.1961052 -0.0555948 0.0814983 -0.099875 0.098529585 0.02732145 -0.010231749 -0.116148815 0.2619869 0.010336005 -0.23605613 -0.12862733 -0.064925075 0.15894362 -0.104742564 0.13649572 0.10126937 -0.024447693 -0.08712615 -0.025720112 0.22746547 -0.07219496 0.0033455007 0.28077057 0.03884321 -0.03644121 0.01872985 0.033617422 -0.03387724 0.09327572 0.06952723 0.03604992 -0.2973129 -0.27628955 -0.0049571176 0.14517678 -0.035307642 0.09220154 0.05436696 0.026315857 0.0004098801 0.073104605 0.017940804 -0.06139792 -0.09245964 0.018745257 0.15704283 -0.21149285 0.2513358 0.04139913 0.012492796 0.072096795 -0.15659748 -0.011733296 0.09544444 0.0043501607 -0.18086156 0.020821234 0.04494513 0.29020658 -0.031815264 0.08503355 0.059228994 0.073370084 -0.0836467 -0.07256763 -0.06904231 -0.09465852 -0.08691019 -0.09691818 0.14749728 0.06522646 -0.19984765 0.045425545 -0.07422308 0.1748517 0.14164618 -0.062378336 0.032767773 0.14482346 0.33956644 -0.057958543 -0.1900458 -0.13392833 0.2542469 -0.098304406 0.11141156 0.15002535 -0.10253758 0.016801221 0.20014606 0.012497796 -0.10729127 -0.0003840599 0.03167988 0.00024125555 0.28543827 -0.008387873 -0.07796821 -0.035896953 0.13641424 -0.07371495 -0.31518546 0.069848895 0.12304461 -0.04215198 0.04258358 -0.017948775 0.11248681 0.12765008 0.076058306
0.13211754 -0.13249108 -0.12237893 0.031551115 -0.054671824 -0.04030667 0.076429635 -0.088939 0.11123037 0.048878714 -0.01427594 -0.07615534 0.1243436 0.03430145 0.031878587 0.21223141 -0.010356985 0.0139136035 -0.15013516 -0.070972845 -0.03193928 0.11907636 -0.065243095 -0.11569293 -0.080239125 0.23446496 0.15302953 -0.0759079 -0.03032309 0.070884824 0.09329006 -0.24968837 0.009532939 0.008920648 -0.09238383 -0.28664994 0.23119503 0.024327874 -0.06917735 0.016400196 0.05982179 -0.36470345 0.055831328 -0.07059484 -0.1308137 -0.009475678 -0.021371236 0.031261336 -0.025751535 -0.3718406 -0.030105138 -0.01967321 -0.0004895584 0.3432434 -0.12841943 -0.04630615 -0.10939841 0.070359334 -0.0068733124 0.06346858 0.25349444 0.12670761 0.08817 -0.18889281 -0.13934949 -0.02957163 -0.037289053 0.040234618 -0.12935759 -0.05919566 0.20230626 -0.21075243 -0.2146597 -0.06771864 0.08019319 -0.1438563 -0.09899226 0.03047127 0.30396 0.05402095 -0.026044076 0.149495 0.010336561 0.1535928 -0.05950532 -0.36808583 -0.033038177 0.123663984 -0.027606325 -0.07616668 -0.015608357 0.14056195 0.011541192 -0.05594996 -0.134825 0.048310414 0.13956952 -0.055662677 -0.16315039 0.0005601996 -0.0360104 0.14666992 -0.052340273 0.10032089 0.06623468 0.10031601 -0.018509325 -0.031129688 -0.124269746 0.080565825 0.055934045 -0.1323682 0.05031215 0.13949433 -0.06333332 0.1270167 0.08437494 -0.2602521 -0.0760281 0.053005744 0.19466797 -0.021155585 0.14776514 -0.062165156 -0.13379328 0.11869218 -0.10158638 0.06453651 0.064038225 -0.0924261 -0.022354469 0.02633534 -0.11994893 0.022534883 -0.28836003 0.19969647 -0.064339265 -0.028699057 -0.01314978 0.19312066 -0.00315787 0.024950549 0.06687565 -0.13685496 -0.024762595 -0.015825458 0.05350971 -0.3296017 -0.053837474 0.21424577 0.09249499 -0.069860786 0.14847758 0.15893492 0.07536549 -0.11067403 0.21138592 0.03933767 -0.08988196 -0.17435384 0.16121137 -0.060192537 0.31406894 -0.11035865 0.21456908 -0.048818607 -0.20670514 -0.10434867 0.31269655 -0.23046504 -0.031747635 -0.1905846 0.061113954 -0.100534104 -0.09839187 0.24886623 -0.06400402 -0.07138733 -0.13065225 -0.05449675 0.0492372 0.027632736 -0.01440338 0.002136552 -0.0039415834 0.058041785 -0.21031187 0.015299592 0.101689026 0.06440863 -0.018390091 0.15087374 -0.07277439 -0.229332 -0.006136804 -0.011696551 0.03624607 -0.024668392 0.08694823 0.033916965 -0.00083480356 -0.06323064 -0.16116668 -0.15446353 0.07990346 -0.07929925 -0.07651846 0.004213825 -0.22424461 0.0048903753 0.024391469 0.114142306 0.006724351 -0.0019237914 0.22684015 0.022159934 0.10105715 -0.23958798 -0.19792564 0.07291989 0.08437609 -0.14370917 -0.12545598 0.09453975 0.07355915 -0.11243013 -0.190818 -0.07374258 -0.13385084 0.25950345 -0.02899284 0.06562771 -0.2234375 0.16176084 -0.123233624 -0.31455025 -0.058187123 -0.06867587 0.06732275 -0.021323413 -0.043648537 0.08594493 0.105580665 0.009256842 0.01932671 -0.20259099 0.06970879 -0.1155584 0.07920379 0.08480792 0.018945603 0.014575784 -0.13147801 0.20660397 -0.034256488 -0.04820758
-0.18852364 -0.1747943 -0.036361363 -0.009794298 0.26187816 0.04118901 -0.120324776 0.030838467 0.016552372 0.012804292 0.052791074 0.031163577 -0.15028648 -0.13121048 0.040711667 0.17331344 0.022055814 -0.035889067 0.035966523 -0.14181393 -0.037781708 0.13689692 -0.22673045 -0.089063294 -0.19120817 -0.053706773 -0.09747242 -0.09885591 -0.009240638 -0.0583917 -0.020570101 0.1450901 0.07221463 0.009449793 -0.037271503 -0.010985775 0.1426027 -0.2408924 -0.30958205 -0.2596894 -0.16525622 0.077059336 0.11843537 -0.18980119 0.032379996 -0.023060909 -0.025716022 -0.033358227 0.088544115 0.03646279 -0.0845015 -0.12715696 0.10133455 -0.0700112 -0.057347745 0.24358885 0.087424956 0.026908906 0.017743412 0.032647334 0.06423582 -0.014323366 -0.039205376 -0.40730557 0.0688042 0.048654012 -0.081425615 -0.091804266 -0.073259674 0.11531725 -0.001981015 0.08316499 -0.002772826 -0.3107362 0.23254621 0.014721178 -0.110161155 -0.0057759867 0.089279056 -0.03069332 0.022956425 -0.29018256 -0.053764205 -0.009026706 -0.015197562 -0.44291312 -0.43138176 0.045029107 -0.001284666 0.015137465 0.16596071 0.13121286 0.030162519 0.19990034 0.09065945 0.041897576 -0.35437784 0.014658659 0.07573065 0.0036644442 -0.053060766 -0.24838431 -0.009865376 -0.000640732 -0.22631793 0.11611219 -0.07314788 -0.0026967328 -0.15294027 0.09112015 0.013534841 0.012835055 -0.13005506 -0.110103846 0.02244494 -0.17378907 0.124896616 0.09902009 -0.10305976 -0.2919635 0.015591445 -0.07896007 0.044875473 -0.23778538 -0.20079172 0.15470666 0.015573497 0.05318203 0.06669682 0.08259776 0.03141494 -0.05163511 0.034731664 -0.04920883 -0.043596674 0.085244596 0.07766596 0.07650938 0.06078695 -0.24797915 0.05427702 0.06474287 0.1051456 0.045951854 -0.09077136 0.016895054 -0.03592407 0.11515343 -0.00805714 -0.12037669 0.11880845 0.07837141 0.12488801 -0.50187874 -0.07872071 -0.022274027 0.09866366 0.0601948 0.020679997 0.10719587 0.013018193 -0.118111156 -0.4568966 -0.026413219 -0.0466896 -0.061100196 -0.12360084 -0.017313018 -0.060642708 -0.02297706 0.15358904 0.114025906 0.11979961 -0.033602376 -0.18343157 0.12610887 -0.021005705 0.13613115 -0.011695125 -0.3005626 -0.020251624 -0.04926863 0.01998326 0.0064147464 0.12878588 0.015187203 0.11409606 0.0209569 -0.11754837 -0.041273452 -0.04728038 -0.06196882 0.10031373 -0.055317536 0.09355073 -0.02687331 -0.03999891 0.060194243 0.027836796 0.024269862 -0.072826095 -0.10387931 0.08449952 -0.040409006 -0.24839845 0.22100364 0.0051608398 -0.02869668 -0.14039403 0.17725886 0.029352387 0.022625312 0.12336811 -0.040724736 -0.08141855 0.07100237 0.110200755 0.09683564 0.01432989 0.08251252 -0.18593188 -0.04068612 -0.029300487 -0.21063764 -0.11325374 -0.5841989 -0.103344925 0.13347001 -0.020371145 -0.028659638 0.11255652 -0.47522655 0.10835223 0.012722078 -0.22583213 -0.26689887 0.07993767 -0.06910532 0.009969507 0.21097745 0.081726186 0.11640566 0.16069221 0.18710245 0.02100191 0.010371302 -0.07144032 0.11452468 -0.07844178 -0.057983343 0.18958817 0.15604086 0.032166548 -0.030550703 0.08028238 0.1041256
0.0048095225 0.1300316 0.088671714 -0.12810048 -0.004449962 -0.016297683 0.022954466 -0.08248987 -0.10269 -0.047853295 0.023502547 -0.13175331 -0.050110847 0.10577662 0.06340643 -0.14471863 -0.09240822 -0.010647115 -0.2559307 -0.11909837 0.026165038 -0.03851709 0.0801678 0.006793212 0.17785265 -0.20626576 0.078601375 -0.0036072298 -0.0024952765 0.16283244 -0.05200798 0.102112815 -0.1017139 -0.1198743 -0.03946557 -0.01135154 -0.15818428 0.12103037 -0.0062236367 0.05450795 0.015139675 0.09555486 0.021721669 0.014572156 0.04132874 0.06224791 0.041195992 -0.0926353 0.06035222 -0.06290531 0.019640623 -0.066724434 -0.13638674 0.019020455 0.07016644 -0.107689045 -0.08853251 0.14781249 0.16043437 -0.12870328 0.101574935 -0.06732145 -0.012416514 0.12331844 -0.09980726 -0.11586355 -0.026890421 -0.007847469 0.109589376 -0.023891026 -0.06006046 -0.06715507 0.05279772 0.11606711 -0.061859824 -0.08586531 -0.08428829 -0.04834468 -0.09300295 -0.04998558 -0.019303162 -0.01053873 -0.024564521 0.005537888 0.018149147 0.034129683 0.20818493 -0.17129822 0.01633483 -0.01929738 -0.26111293 0.09204784 -0.04006824 -0.10770532 -0.043834236 -0.14550228 0.18492617 0.026249748 -0.25539514 0.047040228 -0.029463468 0.10404229 0.20227467 -0.115325876 -0.0034955754 -0.024696108 -0.041178994 -0.030258128 -0.030901194 -0.15909675 -0.20956151 -0.01789791 0.12993717 0.19226587 0.074561484 -0.18081157 -0.1591982 -0.005033277 0.094601475 0.08731447 0.0074389083 0.041246 0.20499809 -0.06433226 0.019609947 -0.2122909 -0.033961855 0.062227968 -0.25125042 0.07694915 0.008861415 0.015119494 0.0077263005 0.051412173 -0.06566352 -0.26294357 -0.13470523 0.029272163 -0.023652552 -0.014446859 -0.059284348 -0.12815961 0.019420542 -0.1247479 -0.047186162 -0.13108492 0.019638382 -0.36023888 0.043705024 0.038754623 -0.1894371 0.03873826 -0.027616112 0.09783597 0.033291206 0.09011057 -0.12840967 -0.07780856 -0.09256441 0.012327224 -0.26842332 0.030531825 0.19527529 0.06732737 -0.009632497 0.021139694 0.02586836 0.042701982 -0.018480364 -0.024178948 0.04427232 0.077290624 -0.21674925 0.016958894 0.044000298 -0.10608664 -0.028045485 -0.20771334 -0.110410474 0.07888591 -0.07621657 -0.04654144 -0.022988843 -0.053843766 -0.0876237 0.071111046 -0.092728846 -0.25028208 0.00800344 0.01576424 -0.093365595 -0.09237264 -0.122695975 0.025820859 -0.17942671 -0.085373774 0.038256496 -0.056890275 -0.013400456 -0.113084525 0.2412926 0.09584722 0.22415262 -0.09069165 0.1250808 -0.051456016 -0.09970327 -0.013941957 -0.0041160895 -0.033971883 0.092501394 -0.111139566 -0.06623139 -0.0149817085 0.10223762 0.017459711 -0.091536656 -0.02279531 0.13965988 -0.0050087767 -0.13320388 0.02499526 0.07877852 0.024674691 0.043999363 0.0625168 -0.08094093 -0.05359363 0.07486206 0.083553284 -0.048014004 0.08502792 0.04313754 0.0023137843 0.1489662 0.0001976556 0.0994065 -0.028579155 0.054460645 -0.035669174 -0.00058490044 -0.017399179 0.113914855 0.06352349 0.017146455 -0.0057448675 0.045500766 -0.01817969 0.06657835 -0.18306217 -0.05727437 0.057670586 -0.057162333 -0.123358004 0.023133783 0.021415278
-0.06352748 0.07346625 0.13344687 0.13830422 0.109775394 -0.017753392 -0.11033034 -0.031765554 0.05258431 -0.027266886 0.045281667 -0.086410694 0.106030196 -0.07383334 0.010045274 -0.26878205 0.0697091 0.052931733 -0.18228608 0.040518597 0.11216797 -0.12673894 0.15744776 -0.14039475 0.25185782 -0.09513537 0.09861221 0.00077430514 -0.029799338 0.11770927 -0.046837185 0.09241632 -0.084575675 0.0030464486 0.049758833 -0.019852187 -0.17004398 -0.061622504 0.03213809 -0.08645749 0.055008233 0.039500456 0.054494686 0.1903107 -0.11233807 0.042270724 -0.019141044 -0.041038215 0.031482175 0.07117072 0.02856164 -0.08339004 0.030398108 0.24129184 0.005754983 0.040463194 -0.10902613 -0.062351122 -0.112519115 -0.026416795 0.04071233 -0.21223506 -0.16974951 -0.09612727 0.044326235 -0.078265116 -0.092551045 0.019290028 -0.02345525 0.21086633 0.09115015 -0.03547287 -0.019354364 0.073733665 -0.043298807 -0.11955772 0.31312057 -0.045812774 -0.27085072 0.001953958 -0.15986955 0.14689587 -0.048667967 -0.18079394 0.14345731 0.024511322 0.33190912 -0.07620992 -0.038885634 0.040480904 -0.15650618 -0.035431497 0.19404295 -0.07945615 0.12855506 -0.076465 -0.019647872 0.049950503 0.11489115 0.061645463 0.018306572 0.050709073 0.09580348 -0.22580503 -0.02164435 -0.016342852 -0.015564289 -0.17158772 -0.04121005 -0.28613266 0.04889024 0.07585332 0.26381966 0.026349273 -0.14226806 -0.12433876 -0.033239562 0.078897685 0.0491443 0.060383957 0.06387092 0.034310494 -0.14669274 0.01247163 -0.05895443 -0.13219208 -0.034516927 0.089648105 -0.14785446 -0.13796276 -0.15363693 -0.012327792 -0.12078372 0.12649627 -0.03862201 -0.018992044 0.036139484 0.08835922 -0.027617736 0.101737924 -0.22042777 0.1076413 -0.0034635533 0.1126658 0.05745276 -0.07552153 -0.0093288645 -0.10126611 -0.0651109 -0.21098143 0.06289454 -0.13945858 0.06216677 0.21709731 0.031434827 -0.11544858 0.08591227 0.017753996 -0.08533949 0.07555825 -0.09059225 0.14513257 0.14754775 -0.021949092 -0.038707126 -0.012153597 0.041971907 0.025070446 0.056787714 -0.036542624 -0.012504809 0.16414908 -0.1434991 -0.16121814 0.029121503 -0.024777556 0.05179557 0.21300682 0.108608216 0.26725307 -0.20471737 -0.013566667 -0.00075870106 -0.12101965 -0.054688465 0.19615288 0.09330061 -0.13333474 0.09934268 -0.05001561 0.15297168 0.18458551 0.0016318845 -0.002317305 -0.059683148 -0.040315352 0.00774069 0.14487961 -0.056526676 -0.023808151 0.070021376 0.14598663 -0.036350194 0.07312221 0.116160445 0.12739378 0.01436935 0.05228995 0.03205725 0.13449942 0.011051204 -0.004823655 0.045066595 -0.03944096 0.07856334 0.032870978 -0.0041816463 0.056114085 0.017540295 0.007996202 -0.102128744 0.16188478 0.0574398 0.09509094 -0.023187183 -0.024627728 0.070520125 -0.081224665 -0.082782246 -0.050495002 0.039741732 0.066160895 -0.097444184 -0.07251839 0.108757466 -0.0083594415 -0.04992503 0.08263301 -0.03263342 -0.053171996 -0.09716475 0.028235605 -0.030201979 0.0069630165 0.020192206 0.08453482 -0.0080952095 0.2806048 -0.018595481 -0.25371584 -0.032942303 0.08207358 0.04607583 -0.12707591 0.06734002 -0.16354579
0.0073584793 0.043811306 0.1552753 0.04316284 0.11094808 0.028043738 0.030562542 0.019904153 0.053238668 0.039388407 0.033276137 -0.05285333 -0.101669274 -0.00691365 -0.0051744627 -0.2829913 0.16144685 -0.09963629 -0.08115922 -0.02207357 0.114746265 -0.04571356 0.21940972 0.08192388 0.26751742 0.041237358 0.0042597675 0.1268107 0.025791153 0.023551842 -0.004024816 0.06346658 0.055086687 0.03998326 -0.094515055 0.030594 -0.16055477 -0.1405271 0.09690454 -0.05474775 0.046385374 -0.06417902 0.058299042 0.19129294 0.0057023973 -0.062331457 -0.030106714 -0.077952564 0.12409835 0.009734199 0.0094111925 -0.0760687 -0.11866613 0.05514098 -0.04446347 0.19220425 -0.025611682 -0.101178855 -0.20716631 -0.084273234 0.09918909 -0.041810006 -0.15359548 -0.077183224 0.023221329 0.078738235 -0.042382024 -0.03421024 0.04392858 0.04279769 0.13596717 0.09738851 -0.0460746 0.07206277 0.07732286 -0.03267885 0.3739807 -0.016433042 -0.22467247 -0.030858358 -0.12338223 0.18593915 -0.10387583 -0.0096855555 0.19019926 0.045804076 0.24167284 0.08836768 0.049094215 0.0817292 0.19691174 -0.095477775 0.08182254 -0.11926796 0.07318174 0.01200104 -0.23152919 0.098320834 -0.00933295 0.038099997 -0.005015431 -0.014473337 0.048558697 -0.23567528 -0.0010497848 0.007646066 0.017807283 -0.13223332 0.00429496 -0.34765056 0.1969471 0.02991704 0.15412632 0.059875537 0.012949665 -0.060371958 -0.1264153 -0.014354129 -0.021321572 0.022303833 0.10618483 -0.045218628 0.020284109 0.05274683 0.018576132 0.031261224 0.16954991 -0.08061877 -0.18704306 0.0060368916 -0.2226579 0.05197824 0.030310357 0.10838982 -0.078252435 0.05622103 0.14234266 0.040073145 -0.1156252 0.09934894 -0.26098984 -0.096093476 -0.07849444 0.10736816 -0.0560584 0.009969387 0.05330464 -0.15465277 -0.07182833 -0.18686457 0.04729975 0.05401597 0.053921282 0.1504049 -0.019794675 0.03285346 0.063246824 0.020626618 -0.1271691 0.0051090326 0.04510302 -0.14771646 0.03308197 -0.09130364 -0.057380933 -0.10764476 0.022635235 -0.0032626183 -0.035661977 -0.01985895 0.03505252 0.2219666 -0.13815352 -0.1275708 0.10605096 -0.0007998883 0.0034600063 -0.0029202222 0.14211331 0.16224395 -0.25610387 -0.00051148795 0.0072585735 -0.19988675 0.09233203 0.036823187 0.1030431 -0.14263672 0.21992527 -0.011197143 -0.012908898 0.002765108 0.081979714 0.009910701 0.054208785 0.018481305 0.009709291 -0.005933065 0.08410519 -0.08375105 -0.18252403 0.1025824 -0.037488293 0.0049157813 -0.17838785 -0.040259175 0.042469442 -0.08396152 0.070253305 0.05752435 -0.028734317 0.021887029 0.10599461 -0.119038366 0.038496844 -0.047084037 0.07004754 0.061173577 -0.114634424 -0.00025671237 -0.14162856 0.009339963 0.06330072 -0.03281929 -0.10450654 -0.13202801 0.12962443 0.05703681 0.06459229 -0.018960332 0.037332967 -0.17598327 -0.08580351 0.022659604 0.000158704 0.11209349 0.07081606 0.04398882 0.030525414 0.12834837 0.033718318 -0.075846784 0.11172831 0.114108 -0.019770734 0.08448326 0.017660687 0.25076774 -0.014639769 -0.10715586 -0.0477775 0.13470484 0.122522034 -0.028420217 0.04880745 0.037727695
0.07529507 0.2227622 0.090763874 0.068326086 -0.043924358 0.029237706 0.15561843 0.08556819 0.047479115 -0.048943523 0.04932487 0.023173701 -0.09984162 -0.022816679 0.061900016 0.11497147 0.09413047 0.04058931 -0.101496026 -0.06923456 0.007974999 -0.037396215 0.2693073 -0.16369127 0.103806704 -0.19568893 -0.034559894 0.05540933 0.026647557 0.037769303 -0.02920303 0.046206634 -0.19731131 0.078566395 0.045782443 -0.123709016 0.031957194 0.064975284 0.11231495 0.090848215 0.08971962 -0.041436397 -0.018985536 -0.1398117 -0.11630856 -0.0037793752 0.052392554 -0.08783014 0.08648144 0.0261359 -0.03215436 -0.11937278 -0.40811095 0.003864762 0.00896221 0.066582024 -0.020608336 -0.24013965 -0.10610833 0.08041084 -0.057933033 -0.091814 -0.09624906 0.10663797 -0.0694589 0.050038632 -0.044307467 -0.017875778 -0.114995435 0.045477435 0.11301412 -0.033502117 -0.11341408 0.07578853 0.11363586 -0.03949727 0.45408744 -0.029591966 0.1523204 0.062266286 0.029582987 0.042829257 -0.06582175 -0.32640862 0.13903658 -0.067036346 0.057528954 0.07072988 -0.08997096 0.13302536 0.09586438 0.062287837 0.04902062 -0.14563476 -0.17705697 0.13143449 0.15507987 0.108816855 0.05988054 -0.012974556 -0.050542146 0.12011484 -0.008598528 0.07751409 -0.09980336 0.05203191 -0.11557596 -0.18787956 0.03312819 0.037539873 -0.24586968 0.0050782943 0.01810315 0.13290772 -0.11116287 -0.051690347 -0.030302983 0.06884899 0.099823624 0.08202667 0.09154953 0.02744401 -0.17620459 -0.00985986 -0.35389552 -0.04678698 -0.01976607 0.04417986 0.07874465 -0.09621055 -0.07402087 0.025278663 -0.059262644 0.04005543 -0.17436461 0.27733845 0.03045231 -0.11673056 -0.088772915 0.18142089 0.053340305 -0.08976834 -0.07716616 -0.011333963 -0.055838633 0.030524699 0.11951314 -0.37107697 -0.04837637 0.086293615 0.004424929 -0.026274856 0.15467307 -0.045462288 0.16062668 0.09697368 0.19805169 0.069289446 -0.14435703 0.0014067508 -0.12023943 -0.18129055 0.19855782 -0.030828068 0.020513384 -0.08945252 0.07118499 -0.054953545 -0.09089688 -0.0567159 -0.024539933 0.082380675 0.0066969516 -0.06078964 -0.11987574 -0.12777668 -0.043538194 0.11483314 0.15348236 -0.10362087 -0.3765362 0.043808717 -0.13225438 -0.14435181 0.017141908 0.009566993 0.08373989 -0.13466349 -0.18665029 0.00908376 -0.07186292 0.2234251 0.02284803 -0.06960741 -0.07152565 0.036476567 -0.2844083 0.09393824 0.024758583 -0.15960203 -0.088669 -0.047664296 -0.10347474 0.11312025 -0.07905573 0.16734798 -0.034584116 0.032145288 0.09297875 0.061458107 0.025296371 -0.0020040632 0.078715846 -0.06696119 0.087847054 0.03817133 -0.14643139 0.11348108 0.057288926 0.011552955 -0.06908956 -0.06657072 -0.03565638 -0.0041983337 0.08273038 0.053720646 0.13493884 -0.043399796 -0.008115181 0.13736378 0.039947286 0.04028311 0.012581506 0.09019532 0.23213793 -0.037019767 0.053707372 -0.022400102 0.034624707 0.04516273 -0.10820036 -0.027044997 -0.018674761 -0.031431653 -0.14113218 0.20206471 0.09280614 0.08613359 0.041419547 -0.06350268 -0.10975876 0.09654269 0.10248501 -0.25613558 -0.08229513 -0.049970213
-0.054277528 -0.13867456 -0.2870531 0.06078278 0.012923158 -0.011650667 -0.089198224 -0.04115052 -0.014607142 -0.014895745 -0.07595693 0.08660966 -0.24280483 -0.09558386 -0.014728083 0.1744309 0.02105237 0.16272874 -0.1255087 -0.08289843 -0.023262093 -0.005156992 -0.46422568 0.1380749 -0.22192343 -0.09960821 -0.19636099 -0.13260975 0.15119646 0.15211698 0.00047548185 0.13323216 0.042749513 -0.19633642 -0.08088021 0.017479988 0.14694004 0.1046811 -0.24206808 -0.1958744 -0.22458942 0.09937034 0.054914564 -0.05487768 0.08665111 -0.0068895076 -0.057078607 -0.097259164 -0.111783355 0.046863873 -0.02114661 -0.032919962 0.09237365 -0.06496685 -0.0406819 -0.104479834 0.086277835 0.16004503 0.22053225 0.07943053 -0.090526745 0.042687222 0.14960808 -0.07526948 0.056159217 0.06717513 0.079405874 -0.06358098 -0.045814894 -0.04896496 -0.08323256 -0.06260044 0.06931635 -0.070883825 -0.08974475 0.046854198 -0.25808588 0.004942114 0.067201294 -0.048699662 -0.12162442 -0.36109746 0.019879935 -0.18116714 0.023289926 -0.13835526 -0.28497195 0.060685012 0.16971108 -0.07244946 -0.19543596 0.065271944 -0.19779985 0.16817826 -0.10020327 -0.019827602 0.050087206 0.02861644 0.033780772 0.06951034 -0.008943582 -0.038547143 -0.034008525 0.10520434 -0.30187768 -0.2242286 -0.07439725 -0.001718151 -0.09134981 0.115128994 -0.1282471 0.0280017 -0.10288815 -0.3067315 0.057166085 -0.10268116 0.09561892 -0.09511883 -0.010991715 -0.05303588 0.023354212 0.06644013 0.14859818 -0.2348289 0.049606256 -0.033558 -0.1598381 -0.08118303 0.06489462 0.018545704 0.034845114 -0.13444228 -0.066415295 0.027595265 -0.0057600215 -0.0013941572 -0.10308334 0.06760897 -0.0012435259 -0.1337736 0.09380546 0.04526053 -0.02420783 0.06327516 0.006589118 0.16600533 -0.1697305 0.17003755 0.0782648 -0.08857126 0.431195 0.08104433 0.35053617 -0.39932042 -0.14352557 0.015603581 0.28160375 -0.022779787 0.13327855 -0.022605598 0.0025393476 0.09380324 -0.27199292 0.12232571 -0.020181231 0.022310063 -0.043325443 0.010385087 0.065177575 -0.06436383 0.04488531 -0.14199714 0.019464869 0.033802394 -0.14646462 0.1354099 0.055918187 0.34227058 0.039594684 0.007822374 0.082621 -0.0012357831 -0.0192648 0.13946785 0.059144363 -0.0024417117 -0.03813576 -0.11913087 -0.020741453 -0.032322247 -0.040675513 -0.20177872 -0.035253275 -0.2025425 -0.011086939 -0.25047365 -0.015530316 -0.13728046 0.016206602 0.1125562 0.11841661 -0.050498553 0.10528042 -0.10188004 -0.015781468 0.43752834 0.009880684 -0.277895 0.0008679743 -0.067339525 -0.041062076 0.015330847 0.080895446 -0.0371217 0.0033589427 -0.007367877 0.13100372 -0.27349782 0.1739335 -0.04089943 0.10292301 0.012659132 0.0066237636 -0.18298689 0.05658515 0.08246616 -0.073327914 -0.109863915 -0.11643488 0.18409218 -0.046684764 -0.043599136 0.27989194 -0.03931034 -0.32146382 -0.07768811 -0.19341797 0.030153442 0.046452142 0.016617624 -0.0827846 0.11824905 0.1062094 0.18363585 0.060152978 0.038761918 -0.21185431 -0.05456572 0.102126054 0.020725507 0.045901027 0.03169265 -0.019094568 0.036860745 0.2714473 0.048465643
-0.025552064 0.14031614 0.07659905 0.09414316 -0.028306277 -0.031168407 -0.051657222 -0.0005377906 0.0062253466 -0.0426029 -0.028018396 -0.051868454 0.02621433 -0.12743108 -0.008521854 -0.1552129 -0.011430737 -0.19378427 -0.089600824 0.029346073 0.0026663246 0.007948231 0.0724081 -0.02190405 -0.03341981 -0.24342234 -0.053642076 -0.12316662 -0.006259895 0.061139643 -0.069075614 0.07234025 -0.060252983 -0.09250584 0.012662361 0.070072606 -0.13115628 0.018730057 0.029204978 -0.044069882 -0.03246878 0.06504513 -0.111845344 0.15111712 -0.07003111 -0.0044100904 -0.0076330816 0.078291856 0.13472381 -0.013191053 0.0024573626 0.009186569 0.09908763 -0.27181798 -0.005375977 0.12638502 0.12019067 -0.24726552 -0.107246496 0.04318581 -0.15764122 -0.06841542 0.027029729 -0.17875847 0.036268353 0.057206184 -0.100285485 -0.15484563 0.0011008744 0.097528525 0.12588365 0.15879734 -0.019023512 0.018595735 0.09986645 0.030204006 0.27165404 -0.041619975 -0.20582621 0.046833176 0.028747668 0.013704396 0.07645613 0.120373376 -0.064940795 0.10429094 0.00097158394 0.109910555 -0.013539933 0.032275133 0.22846994 -0.21459964 0.07104693 0.026242882 -0.0150511 -0.015396054 -0.02985619 -0.09568115 -0.04245604 0.0016599214 0.017787464 -0.05057101 0.0023846603 -0.021072438 -0.030467885 0.14455496 0.10791509 -0.18441507 0.058910158 -0.00010183338 0.15405652 -0.015397802 0.109980136 0.07950368 -0.09069805 -0.09145873 -0.085251085 0.10612244 -0.059536856 0.17100064 -0.037011158 0.051929303 -0.07504296 0.05310076 0.15014322 -0.115799606 0.19920978 -0.059222035 -0.10715593 -0.009364845 0.016945872 0.0053721266 0.07583399 -0.014953072 -0.00898562 -0.09837949 0.04448441 0.015374764 -0.09029396 -0.08805717 -0.26209113 0.1457471 -0.0071042273 0.27283165 -0.043829016 0.06501735 0.04569627 -0.06895066 0.05731229 -0.06362883 0.10415644 0.11566375 0.006147992 -0.049110476 -0.0835053 0.09656319 0.11091851 0.06034029 0.07137896 0.09336103 -0.14391713 0.13081168 -0.14552712 -0.05010849 -0.0855375 -0.0009776676 -0.016265023 0.0285108 -0.10423776 -0.0050789537 -0.010576731 0.048586544 0.033682633 0.06569334 -0.03635416 -0.043582838 -0.02136994 0.14546217 0.11290094 0.061905943 -0.37435776 -0.019274035 0.0053042984 -0.27555946 0.057509527 -0.31187266 0.02407805 -0.19757497 0.11820579 -0.09580679 -0.08599572 -0.01608673 -0.006152323 -0.030823948 -0.09156676 0.12225119 -0.22850141 0.07144533 0.08271397 0.048595697 -0.11196461 -0.05369014 -0.07442803 0.03455304 -0.017048601 0.086760886 0.02198374 -0.032373015 0.024457822 -0.115777776 -0.06146343 -0.09572859 0.058260836 -0.0012458165 -0.15651606 0.092950426 -0.08659211 0.051473208 -0.03052916 0.025335744 -0.27215028 0.11224019 0.06398647 0.01584492 0.056760665 -0.253379 0.07941906 0.0052930764 -0.0663484 -0.08415304 -0.02966443 -0.20964709 0.0044090897 0.036620595 0.14177844 0.12996587 0.28027317 0.07131089 0.008627497 -0.010738866 0.07324972 0.020794608 -0.058091428 -0.06615131 -0.009774681 -0.02612145 -0.02520763 0.11578268 -0.0052729244 -0.06041983 -0.13685037 -0.13200156 -0.004020868 -0.2706794 0.042129945 0.036796987
-0.031097572 0.041330952 0.03137941 0.21814647 -0.0058187954 0.04578458 -0.044376004 -0.027004374 -0.058915373 -0.030697377 0.049454913 -0.25128594 0.059242826 -0.07153018 0.081258714 -0.05972226 0.13898733 0.19595085 -0.117124565 0.12209414 0.02782954 -0.27992305 -0.022993457 -0.05892867 0.0995967 -0.104409866 0.058500465 -0.0964171 0.11452852 0.029739644 0.008221125 0.07156923 -0.08089356 -0.018789914 -0.031595573 0.036503784 -0.007450251 -0.056551807 -0.048218556 -0.04431713 0.050635494 0.013223163 0.094354436 0.14858024 -0.13388434 -0.018544454 -0.047050823 -0.01838245 -0.02414654 -0.11827287 0.071540095 -0.019750837 0.33642036 -0.1633651 -0.12828557 -0.015089972 0.047532775 -0.112008765 -0.00028227145 -0.021207431 -0.16940369 0.019690024 0.06586906 -0.24082765 0.19797283 -0.043938734 -0.06934523 -0.00537258 0.10410219 0.056944247 0.06440917 0.087058246 -0.09094758 0.10314553 0.052330602 -0.034581542 0.08238623 -0.05021345 -0.23293859 0.029640958 -0.022766864 0.008691885 0.03309829 -0.26708102 -0.040429473 -0.08852053 0.07226842 -0.040293008 -0.041876778 0.025113698 -0.32420796 -0.044501737 0.15164897 0.08012548 0.12976244 -0.11876886 -0.09617323 0.03458831 0.09666529 -0.02787459 -0.03192249 0.02030909 0.12350201 -0.028415706 0.08394985 -0.09662234 0.01941331 -0.12614639 -0.22479528 -0.2524109 0.09131165 -0.008306529 0.18812281 -0.09734692 -0.009561639 -0.17045286 -0.0115748625 -0.0068870857 0.113008246 0.05626217 0.056263722 -0.17554675 -0.194325 -0.060002077 0.17665975 -0.10034117 -0.08610862 0.087510064 -0.015944403 -0.009313629 0.024160296 0.026424767 -0.13283984 0.066743165 0.18592282 0.0046215462 -0.11687967 -0.11427697 -0.036193367 -0.15055259 -0.08102875 -0.053035546 0.0027696507 0.178517 -0.094278604 -0.024753606 0.030681431 0.12145093 0.017069446 -0.2745565 0.33964407 -0.030850006 0.18741956 0.018583013 0.07812493 -0.15843023 0.14353591 0.13093877 0.05718518 -0.017901398 -0.04283506 -0.03461002 -0.13442281 0.11063363 0.11918698 0.061595887 -0.12890662 0.002572356 -0.080958374 0.19147626 -0.16715969 0.03509687 -0.13348469 -0.26206878 0.024217414 -0.07289366 0.014696104 0.26525915 0.15021807 0.23235275 -0.040525243 -0.025761107 0.014321191 -0.10844911 -0.113849014 0.026573205 0.02861342 -0.098155566 -0.0668947 0.0073095425 -0.013636839 -0.12516671 -0.031324178 0.1546279 -0.032202337 0.01800886 0.12170875 0.056718342 -0.118496396 0.0963096 0.20134655 0.067950584 -0.012832927 -0.01980447 -0.20192963 0.3430227 0.03987971 0.088956624 -0.14284867 0.02895633 -0.07440587 -0.013039346 0.0388615 0.086236425 -0.14044885 0.039013945 -0.06327731 0.019888988 0.011435964 0.06544753 -0.07106296 0.15999344 -0.05106927 0.021503871 -0.17632376 0.016629811 -0.061028544 -0.03676778 -0.0756763 0.090260305 -0.08737189 0.06385426 0.09845902 0.03481475 -0.0033050086 -0.018587073 -0.26473156 -0.047853205 -0.0023653999 -0.00988869 -0.07393218 0.0813142 0.16329956 0.27735114 0.0045092646 0.07869166 0.08681359 0.15791564 -0.11476068 -0.030132432 -0.081687465 -0.1416202 0.055649713 -0.119920686 0.24295735 0.07106955
-0.09121469 -0.015621808 0.0889969 0.22194903 -0.0022133084 -0.022687111 -0.04410242 -0.0042390428 0.04196102 0.05658543 -0.0330628 -0.05441375 0.01591972 0.010109047 -0.12406249 -0.014414872 -0.0036578472 0.063365184 0.036288608 0.053735454 -0.00930448 -0.03363725 0.08716066 0.013328427 0.045651924 -0.048202395 -0.050832454 -0.13220878 -0.020329649 -0.06402098 -0.06452371 0.16593759 -0.31500593 0.023902068 0.08212557 0.09432485 -0.10549854 0.06969484 0.0055982475 -0.086761326 -0.07034117 -0.0056701447 0.05509003 0.1876892 0.010475089 0.0141102495 0.006441426 0.08282755 0.15793903 -0.07353793 0.08406477 -0.014987834 0.22514443 -0.39021593 -0.033170506 0.2353764 0.085110195 -0.04950817 -0.021334346 -0.10905866 -0.29417723 0.067801535 0.22394653 -0.11750872 0.15707524 -0.017952358 0.03829145 -0.22415705 0.06446546 -0.057837225 0.18419857 0.1761047 0.08235453 0.08157201 0.092480674 0.14153308 0.23499419 0.023610841 -0.15222317 -0.042018123 -0.09694903 -0.25688443 -0.07986666 0.081820585 -0.15850267 0.04350633 0.11509032 0.0946688 -0.010892249 -0.038338363 0.18494761 -0.10781293 0.08750617 0.04669683 0.0012163422 0.09915376 -0.033586662 -0.09113375 0.06387266 0.002465114 0.014898086 -0.13082883 -0.040346693 -0.064206935 -0.05552805 0.13660152 0.026243854 -0.023468569 0.024282789 0.10595307 0.16657676 0.022420034 0.11168303 0.030904422 -0.0099562 0.020618562 0.014481408 -0.04504607 -0.0568658 0.0062658195 -0.016902046 -0.07694621 -0.15166399 0.025813095 0.024717605 0.05721519 0.1296454 0.020314997 -0.064540155 0.02363846 -0.05144018 -0.006748188 0.071102224 -0.002027688 0.052632097 0.18094596 0.05422447 -0.086647265 -0.14306825 -0.17396067 -0.16545276 -0.014266433 -0.16742145 0.50575787 -0.13819286 -0.007945246 0.07651348 -0.08181208 -0.051579192 -0.10920248 0.16735399 0.07208404 0.054663245 0.05463056 0.08255097 -0.09302908 0.11745281 0.013090696 0.02501306 0.09028878 -0.06958973 0.016048262 -0.29893717 0.07286123 0.014768192 -0.14884743 -0.06532968 0.06970516 -0.11449711 0.045339573 -0.039143655 0.18526854 0.022426484 0.01009068 -0.026887052 0.034093145 0.01369821 0.010563984 0.0041171173 0.078451104 -0.30785823 0.005738033 0.08295746 -0.17558998 0.032730162 -0.16482759 -0.0196344 -0.04924874 0.015039621 -0.039176464 -0.07934015 -0.14199501 0.14113122 0.10463658 -0.04941402 0.06296841 -0.14280266 0.078926735 0.08337047 0.16920474 -0.09472864 -0.20651312 0.07463092 -0.16835181 -0.08251063 0.18384881 -0.043248624 0.026755942 0.034719687 -0.042158883 -0.07101844 -0.05089863 0.12625562 -0.04923317 -0.13303213 -0.051520485 -0.014316227 0.015181498 -0.14035225 0.004350094 -0.032755416 -0.053265974 0.052779693 -0.11103203 -0.104340866 -0.24416809 0.057453416 -0.0048204227 -0.010431768 -0.2721572 0.101737455 0.01692592 -0.019215913 -0.02442433 -0.06222062 -0.018098429 0.11702608 0.1051223 0.07069427 0.091885716 0.11076801 0.082839176 -0.019450223 0.008510392 -0.04120337 0.025365504 -0.00039354505 0.08772136 -0.019816684 0.039046712 0.036457114 -0.042412996 0.08232218 -0.15067004 0.14111464 0.14646654
-0.1388214 0.09674053 0.106036544 0.13984591 0.016446998 0.026990835 -0.21737753 0.071895175 -0.032251175 -0.058903333 0.07878201 -0.13505462 0.163174 -0.11330631 -0.032054115 0.0887853 0.031761874 0.039884653 -0.004401025 0.014045733 0.026874257 0.025401808 0.093811534 -0.022167897 0.07235875 -0.17225763 0.0821551 -0.07366737 -0.04024687 -0.10656783 -0.05318261 0.05717693 -0.13711181 0.06950814 0.10861536 0.033005476 0.0009257317 0.062352568 -0.018149907 -0.13414392 -0.048941374 0.07337986 -0.06394115 -0.1116741 0.023944201 -0.060215402 0.03418645 -0.047013223 0.07401791 -0.025981465 0.015251789 -0.096757315 0.18292117 -0.016464675 0.086658716 -0.0124039715 -0.053406823 -0.08285373 -0.02266552 -0.12734902 0.12606722 0.10759735 0.036874313 -0.063026875 0.1266477 -0.0057567605 -0.021972269 -0.13451238 -0.052363034 0.03586968 0.21056798 -0.016997019 0.015600566 -0.13655314 -0.021599906 0.14325555 0.015117813 -0.010298903 0.10541476 -0.026755784 0.01683357 0.01378948 -0.028744314 0.092608765 0.04559813 -0.12229023 -0.42396563 -0.22734927 -0.06408523 0.13838637 0.08167935 0.03888963 -0.051495247 0.19392683 0.022734376 -0.1545313 -0.15944026 0.07647149 0.109848425 -0.12455479 0.06183523 0.07128009 0.046417195 0.05523157 -0.04874435 -0.04234222 -0.009544121 -0.017868917 -0.16457644 0.18490289 -0.02554645 0.039197303 -0.18712063 0.1365572 -0.06965931 -0.1347544 -0.12791528 0.13395713 -0.03970095 -0.002674109 -0.18722194 -0.11427997 -0.09666449 -0.18117352 -0.09985436 -0.09985925 0.070102386 0.02041923 0.03230841 0.041482292 0.14796099 0.076421715 0.090884194 -0.11759039 0.08943586 -0.03764689 0.045413747 -0.034668792 -0.04624824 -0.08909385 0.09060953 0.18095537 0.11880069 -0.096111536 -0.14094682 -0.09151888 0.08597867 -0.10960898 0.055111155 0.028617805 0.086096734 0.16914542 -0.08900678 -0.02748512 -0.0992986 0.11355927 -0.052751295 0.093225025 0.04617776 0.071811646 -0.20727485 0.17994282 -0.12720072 -0.19649832 0.056268916 0.14686923 -0.024706637 0.047547817 0.034972455 0.024694225 0.11275481 0.06875521 0.20650807 -0.287009 -0.036659084 -0.09091606 -0.0138471145 0.03234811 -0.12397124 -0.2597764 -0.32898682 0.041631564 0.028391512 -0.19829445 0.027532127 -0.06367579 0.14791362 -0.20590673 -0.103056476 -0.025658766 -0.07667296 0.0022979907 0.05131674 -0.08133943 -0.121261634 0.09381179 -0.1311995 0.06588007 -0.041262016 0.08360473 0.100016676 -0.06740278 -0.01857795 0.10167888 0.08469075 -0.051649846 -0.01514826 0.10390449 0.08082973 0.13874915 -0.0032915194 -0.06444908 -0.09631062 0.08250687 -0.30922335 -0.08521345 -0.07378297 0.0634664 -0.006801247 0.18452793 0.0077606784 0.03030958 -0.030347021 -0.15261765 0.10583744 -0.24075563 0.10576167 0.11655534 0.055261217 -0.003056209 0.07750932 -0.22208779 0.018919762 -0.052622 0.109525464 -0.0072569977 0.2971745 0.0025950568 0.043834314 0.024705792 0.0023959107 -0.09066181 0.030557403 -0.11551741 0.06943738 0.024317857 0.10771867 -0.124629416 -0.00805333 0.022695124 -0.20481609 0.068542056 -0.2874976 -0.16621421 -0.062137164 -0.004634387
0.032986306 0.06466746 0.10314453 0.010163612 0.13688612 0.004041889 0.052687168 0.11834895 0.11265177 0.06638079 0.08985187 -0.081603624 -0.33873704 0.0005440996 0.06934547 0.01627117 0.12240909 -0.010804593 0.041868087 -0.27408326 0.08593429 0.025915757 0.14114933 -0.080792315 0.16383706 -0.07526932 0.009312516 0.1484318 0.108097084 0.04819812 0.07126607 -0.0044419295 0.1107283 0.080267966 -0.031832892 -0.042146508 -0.014115329 -0.17993116 0.011191358 -0.13590644 0.05442909 -0.12818328 0.20726314 0.12957491 0.086990744 0.050975226 0.03931198 0.034412973 0.033171736 -0.018521814 0.033382416 -0.01333479 0.036738638 -0.19384293 -0.069408566 0.31596452 -0.01817784 0.04934389 -0.12729599 0.011343794 -0.03228281 0.011346624 -0.18451639 -0.11083707 -0.045834076 0.08178152 -0.027398042 -0.07773031 -0.15327665 0.07040015 -0.06338083 0.10485335 0.13778627 0.12714973 0.1457611 -0.0035965003 0.20704934 0.034432177 -0.080659926 -0.036093574 0.008862802 -0.04303752 -0.03209768 -0.07955064 0.19835368 0.04179614 0.1259841 0.02316885 0.013303397 0.05854503 0.39090976 -0.0123913335 -0.011511875 0.07514918 -0.044121694 0.09091149 -0.28011152 -0.053291008 -0.11980355 -0.026221007 0.052184515 0.01853463 -0.1338214 -0.17277242 0.017536081 0.10942719 0.07302021 -0.030607004 0.012051049 -0.11509694 0.21340248 0.048487205 0.083747715 0.081403114 0.004641706 -0.008396808 -0.13811587 -0.001940992 -0.011694076 0.07465598 0.05258465 -0.06315235 -0.079172015 0.012897835 0.05309448 0.08716139 0.1811344 0.08092917 -0.07037921 0.10439221 -0.08026245 0.04278481 0.0035501358 0.03194404 -0.016584307 0.11912399 0.15953325 0.07033594 0.061553616 0.054799914 -0.29310912 0.010813163 0.030014032 -0.15003358 0.02342078 -0.020720426 0.07248114 -0.31381086 0.029979605 0.03066806 -0.09909222 0.11996673 0.10637203 -0.11684116 0.13992271 -0.04966606 0.04260196 -0.103543736 -0.11702819 0.14433499 0.06477002 -0.045139015 -0.060184676 -0.23906246 0.05309831 -0.085568406 -0.17703108 -0.018049512 -0.18132769 0.031279933 0.028830595 0.31962085 -0.06292099 0.050823715 0.030714342 0.09430298 0.021782858 0.12828235 0.067984685 0.15040146 -0.1679856 -0.058823712 -0.051383838 0.015469088 0.17592107 -0.10538199 0.013470206 0.052645147 0.16230085 0.051983178 -0.049185377 0.10112063 0.13134933 -0.16044353 0.008051437 0.013269742 -0.06569362 0.016326327 0.06136534 -0.13476168 -0.1547975 0.022415863 -0.03548659 -0.12370458 -0.31017876 0.0032431341 -0.07949711 0.062215656 0.09943887 0.14459671 0.07412785 -0.050230987 0.16437633 -0.013698232 0.033079486 0.03444456 -0.067671835 0.17223029 -0.026328942 0.019812036 -0.32859966 0.027384602 0.0884866 0.037836622 -0.08121762 -0.2780625 -0.06895059 0.092485465 0.08159511 0.19396925 0.10093111 -0.27090976 -0.061916642 0.0101074325 0.14528938 0.041065216 0.026362466 0.0053880694 -0.024845712 0.2002708 -0.04638201 -0.023982259 0.016527245 0.23350118 0.05819415 -0.014078422 0.048692852 0.1655072 0.09576423 -0.024899496 0.14964657 0.24755536 0.102109864 -0.05901367 0.0096752765 0.019920008
0.15403174 -0.07314143 -0.11113401 -0.06782723 -0.056118406 -0.033803754 0.031461466 0.0692449 -0.025094287 0.014905681 -0.050869774 0.16193902 0.0032182878 -0.029210402 -0.16233148 0.11094156 0.091944054 -0.056804832 0.11402265 0.11875601 0.06062147 0.093160614 0.027125644 -0.041147802 0.029589484 0.16094303 0.094089136 0.05590605 -0.10175009 -0.09159594 -0.0035233889 0.120629 -0.022028655 0.12976982 -0.2071046 0.011307481 0.123590276 0.06830594 -0.10354061 -0.096152134 -0.017633406 -0.018780516 0.117483556 -0.057303295 -0.0017262707 0.0060311058 -0.06690936 -0.12363652 0.0710886 0.14379996 -0.0044731777 -0.12025745 0.17706108 0.019697685 0.026274206 0.15400004 0.0945977 0.15204467 0.066548236 -0.12752342 0.006742625 0.005402173 0.09006456 0.08139605 -0.003634901 0.041821893 -0.01282207 -0.14352365 0.05558496 0.030768225 0.21413489 -0.05322379 0.062391434 0.0592841 0.14594224 0.08429504 0.05507797 -0.059818417 0.093417026 -0.026119454 0.07086688 -0.024207659 0.018758645 0.15644632 -0.15736207 -0.08571529 -0.2637853 0.03390451 0.10272704 -0.036716443 -0.08716793 0.019198742 0.0029082042 0.082625195 -0.38372067 0.16867918 -0.21503156 -0.124048084 0.10452053 0.004544337 -0.006193865 -0.22590564 0.18312097 0.007915258 -0.03307379 0.18813728 -0.20096058 0.2034878 -0.07917987 0.0928819 0.032490205 -0.003152576 -0.024163064 -0.07442987 0.014713006 0.12261884 0.20451775 0.07981755 0.031521216 -0.34369954 -0.088759184 -0.23037219 -0.06940902 -0.105649635 0.1333651 0.22957043 0.10354235 0.034808345 0.1438734 -0.039926227 -0.0025324353 -0.0374956 0.03291226 -0.006431414 -0.19697799 0.13464642 0.1469523 0.049961623 0.1002613 -0.26332375 0.068697736 -0.16741793 0.013231554 0.048604663 0.006429899 -0.15134168 -0.0019311403 0.2268736 -0.01611175 0.056228854 -0.01756786 0.14952086 -0.15246671 0.083784565 0.0022130653 -0.14630316 0.002450176 0.061692275 0.024667678 -0.0043671457 0.00878818 -0.46793848 -0.11489659 0.09182368 -0.022744045 -0.26815128 -0.060439654 -0.098052666 -0.104892045 -0.252556 0.018106667 -0.18537156 0.10375553 0.1758659 -0.009799893 0.10712721 -0.055358816 0.1724819 -0.013501466 -0.100925066 0.1271258 0.036179345 0.016386623 0.0360842 0.05726188 -0.25702912 0.039073575 0.1294005 0.22433823 -0.18452448 0.020582335 -0.23817505 0.13556565 0.064114235 -0.058676526 0.12001949 0.007569072 0.046093196 0.043778762 0.09841349 -0.14215885 0.01994173 0.009551194 -0.030401675 -0.18994068 -0.18165474 0.079925984 0.050364554 -0.15795054 0.108927764 -0.10638044 0.086009525 0.08552406 0.07868766 -0.021408679 0.015955593 0.09697715 0.10140171 -0.0787305 0.025600405 0.21659097 -0.28785697 0.06610658 -0.09277736 -0.23278429 -0.02520091 0.06749278 0.01738682 0.08713598 -0.16714555 0.14333187 -0.03333979 -0.2298209 0.07700485 -0.046158224 0.057756394 0.034350492 0.0069157714 0.048461434 0.14062929 0.090211324 0.1276335 0.05208541 -0.01189179 0.06111793 0.003910628 -0.010066408 -0.20125964 -0.072905324 0.08796935 0.11793953 0.07163123 0.01174869 0.093547665 -0.08703796 0.10986035
0.08312977 -0.27953082 -0.074236624 -0.28105295 0.05470751 0.06759573 0.06533295 0.078491054 0.14093527 0.012562301 0.05156188 -0.012009043 0.07195519 0.12227777 -0.28641447 0.14373076 -0.30118707 0.047057614 -0.001202004 0.08787642 -0.07107665 0.084305055 -0.06858199 -0.018960886 -0.17494655 0.16082793 0.079840176 0.059940744 -0.06814407 0.06151332 -0.27311742 0.14523456 0.100110665 -0.026205707 0.065710165 -0.037595503 -0.07431355 -0.07174264 -0.07884614 -0.04251941 -0.116137 0.046385195 -0.018786533 -0.024260694 0.13942206 0.05205341 -0.009237389 0.13254695 -0.065106764 -0.041693684 0.06444768 0.10275357 0.0083936555 -0.20289654 0.09369391 0.019396123 0.027876858 0.12129182 -0.055978864 0.21620145 -0.07954195 -0.04283013 0.01987933 -0.07620438 0.13583276 0.23193182 -0.17463651 0.15618926 0.10614121 -0.20638351 -0.08677837 0.03255102 0.05769393 -0.3223305 -0.14493127 -0.044237185 -0.13523751 -0.043221746 -0.014083007 -0.0058844746 0.024912087 -0.49976096 -0.052850798 -0.080072656 -0.008377417 -0.46271002 -0.23596874 0.14581205 0.054965977 -0.023229407 -0.0751689 -0.037405223 -0.29548904 -0.03098813 0.010228945 0.06471267 -0.14324631 -0.030652292 -0.09295001 -0.032594875 0.030383473 -0.3828563 0.06486855 0.13399802 -0.007666611 -0.033925783 -0.050580602 0.10504245 0.024573913 -0.03323485 -0.15099767 -0.08746694 -0.10895243 -0.21779805 0.15388964 0.1786899 0.09175188 0.002710985 0.11218985 -0.18330327 -0.024981184 0.040914148 0.17179486 0.068532445 -0.101888545 -0.015068609 -0.095022954 -0.05814104 0.043168828 -0.15847415 -0.030206656 0.008012194 0.036901236 -0.008321597 -0.021259034 -0.20691788 0.07665705 -0.18247586 0.047441836 -0.13817336 0.05811917 0.04127418 -0.052042708 -0.15396412 -0.040117987 0.21397199 0.05554988 0.19924732 0.03873751 -0.05015647 0.28792083 -0.04754833 0.2493138 -0.16648169 0.024219256 0.14118156 0.058250755 -0.082281806 -0.08702432 0.09224561 -0.12952396 0.05973982 -0.09240232 -0.08803106 -0.12871389 -0.031514563 0.0072170403 -0.06501751 -0.0985888 0.14118513 0.05208944 0.15975368 -0.045837883 0.20039195 -0.11537482 0.15966967 -0.0327211 0.2989619 0.18415438 -0.24442902 0.11742535 -0.04619043 0.17575409 0.075415984 0.13576157 0.113367245 -0.004945841 0.24338636 0.000961416 -0.4609467 -0.04094259 0.19319999 0.005393694 -0.092604786 0.088171795 -0.047352467 0.06663793 0.037265167 0.09766681 -0.1480912 -0.15451454 -0.12141081 -0.044529736 -0.00012503265 0.0003770753 0.18220362 0.035555266 -0.12356741 -0.082660645 0.10430976 0.05863553 -0.047280144 0.13933836 0.013964428 0.12257353 -0.034048215 0.15383826 -0.015583851 0.08977501 0.09538757 0.037521876 -0.115445614 0.04963396 -0.0022648638 -0.021233454 -0.1353103 -0.037540678 -0.15046155 0.14973028 -0.39318836 0.045196973 0.006635014 -0.10298776 0.05482921 -0.2891028 -0.26173702 0.06953402 0.038348462 -0.00813989 -0.09242986 0.1644242 0.01752752 -0.08551282 -0.010199765 0.03432374 -0.008015493 -0.009129064 -0.1532639 -0.06979696 -0.004682823 0.1412031 -0.14629027 -0.00500575 0.28586492 -0.025946533 0.036334798
-0.35122845 -0.08657666 0.064939514 0.071615405 0.03262863 -0.04555505 -0.16973339 -0.030435862 -0.012736115 0.026517512 0.03412135 -0.028402252 -0.06246024 0.03236249 0.14354393 0.03898613 0.20813905 0.20823608 -0.073478155 0.0046997503 0.016004901 -0.2082725 -0.22900283 -0.0302038 -0.021601362 -0.21039037 -0.011944619 0.007806887 0.020928975 -0.21771264 0.07006632 0.0988756 0.15253611 0.05069489 0.096655324 0.06316572 0.061439842 -0.058689997 -0.14291005 -0.04043439 -0.042755876 -0.1224483 0.19314708 0.042742148 -0.06078687 -0.042362355 0.037145536 -0.10974888 -0.019418783 -0.112430565 0.0032038384 -0.045621876 0.14240496 0.021940172 -0.039079122 -0.01665811 0.087935895 0.010760791 -0.00809056 -0.13087264 0.0847488 0.041242357 -0.12696156 0.012815481 0.10970986 -0.041379433 0.047902923 -0.11785864 0.09318939 0.17389283 -0.0870128 0.09160398 0.048278514 -0.10536091 0.08383113 0.01319415 -0.13126537 0.0041011395 -0.07738223 -0.022948056 -0.07866073 -0.061376236 -0.082223244 -0.2654135 -0.075446025 0.044087175 -0.30627736 -0.24700409 0.070795335 0.012824618 -0.05419887 0.11356226 0.016146334 0.0690503 -0.069885135 -0.13901864 0.088226065 0.077962026 0.04311212 -0.017392514 0.0073492173 0.12498209 0.027526718 -0.01387225 -0.04954826 -0.14259066 -0.025477627 -0.14495558 -0.15600245 0.15648583 0.12947989 0.026710954 0.040417865 -0.09017447 0.0653588 -0.2437218 -0.07699392 0.0063669095 -0.026946021 -0.1856339 -0.17332047 0.095424026 -0.14329794 -0.09618723 0.07516168 -0.23589848 0.0065873414 -0.007650698 0.05777636 0.17527892 0.11611645 -0.044514358 0.057162926 -0.04290214 0.07530476 -0.13786885 -0.0312978 -0.082289584 -0.027956307 -0.20920998 0.025279082 0.08790477 0.090880476 -0.09494765 0.048839286 -0.16672976 0.026886372 0.06314891 0.055009864 -0.029927569 0.22402667 0.018738626 0.1695976 0.0105128735 -0.076021865 0.17491236 0.107001565 0.044034015 0.100666046 -0.049817245 -0.15929963 0.15586886 -0.3835066 -0.082320526 0.04773288 0.13076657 -0.0637622 0.10022433 -0.13059631 -0.009665091 0.14423142 0.14391111 0.14868005 -0.21003309 0.057499904 -0.017368166 0.022686219 0.19943556 -0.016656809 -0.14261718 -0.068215035 -0.033135902 -0.055299476 0.021829607 0.08793676 0.0021491507 0.02991887 -0.18687378 -0.005855385 0.007267359 -0.045889024 -0.24308668 -0.024204098 -0.12333409 -0.041462205 -0.06547185 0.00858219 0.010850139 -0.018265858 -0.017492138 0.09532958 0.048440184 -0.010444552 0.07446917 -0.13693687 0.1978997 -0.011405394 0.04887836 -0.0774978 0.11602968 -0.014686336 -0.048568442 -0.05840264 0.05301718 -0.3132346 0.11647875 -0.08485305 0.046328016 0.0051219175 0.079768434 -0.2065621 0.059014134 0.003464866 -0.10793764 0.025541164 -0.21893068 -0.016727751 0.073551595 -0.026575683 0.1421568 0.052511003 -0.24028999 0.38626882 -0.22511503 -0.01746734 0.028395057 0.011344506 -0.05021543 0.013507751 -0.018989 -0.05797886 0.018075004 0.17345184 0.19438381 0.025997052 0.05804494 -0.04237829 0.15021284 -0.26397222 -0.011645465 0.010843741 0.22858995 -0.16517846 -0.2000764 0.041660246 0.027897814
-0.025299847 0.09712629 -0.22320956 -0.047052406 0.03380723 0.047063 -0.0032746217 0.007898113 0.02575453 -0.05351604 0.05583989 -0.0150414 -0.07271661 -0.00923885 -0.155768 -0.008966675 0.11478247 0.10483418 -0.09388271 0.14402586 0.026585016 0.04130485 0.11232525 -0.09224127 0.11088168 -0.26087585 0.20377842 -0.07477391 -0.14272259 0.18416819 -0.1994901 -0.022245698 0.10181598 -0.06248265 0.10681635 -0.16572069 0.026334448 0.039350454 0.12535447 -0.1459542 0.107042104 0.062321838 -0.30163807 0.034495123 0.002955532 0.03500243 -0.03243798 0.16098174 0.051720265 -0.06382789 0.11951439 0.09038904 -0.20507789 0.111708574 -0.1621726 -0.05563767 -0.037304446 -0.09062377 -0.03628199 0.21738496 -0.027637154 -0.27917072 -0.29161957 0.045198068 -0.13411985 0.060745057 -0.06365006 0.16613954 -0.023227323 -0.04362663 0.18119371 -0.0108958725 -0.04929232 0.12183259 -0.10017305 -0.002454892 0.15217553 -0.045946304 0.012810883 0.04070297 -0.11467324 -0.07011755 0.03702624 -0.23036389 0.18393163 0.03107267 -0.051981553 0.17161885 0.025589483 -0.046166237 -0.17390639 -0.21695237 0.044564467 -0.27397862 -0.1566656 0.015270866 0.146234 0.18340512 -0.10322141 -0.04666435 0.025916679 0.119417146 -0.16815639 0.03469157 0.091974504 0.15333939 0.045420375 0.07418142 0.14368005 -0.06373975 -0.20435728 0.006970758 -0.059619732 -0.08517333 -0.004908491 -0.006135664 0.05132443 -0.040295217 0.057668597 0.005838531 0.08591136 -0.044900004 -0.16219163 -0.0012570039 -0.009005312 -0.10541998 -0.070851535 0.052782275 0.054552652 -0.20892976 -0.076725 -0.019161701 -0.016117554 0.025969144 -0.024588395 0.24444914 -0.0033121007 -0.09878933 -0.0764828 0.4369542 -0.12576832 -0.1686702 -0.18677543 0.03054453 -0.018309643 0.12762965 -0.10841481 -0.00824748 -0.09305648 0.00961709 0.15331589 -0.10453045 0.04569745 0.15292473 -0.026102059 0.05160249 0.19110955 -0.075417556 -0.31109414 0.025356824 -0.04257017 0.031355876 0.116534494 -0.09571386 -0.12294381 -0.10140607 -0.17221378 -0.039526943 0.12671258 -0.107186496 -0.14432265 -0.1893734 -0.096220054 0.053488825 0.04208167 -0.19154318 0.010738288 0.22515751 0.06363087 -0.03191856 0.108635046 0.05472586 0.08265187 -0.01215319 -0.2082985 0.12242259 -0.04775899 0.115875475 -0.08646848 -0.19484662 -0.11079011 0.26266524 0.027379932 -0.04600446 -0.11397756 0.109166026 -0.13154143 0.14926043 0.07384132 0.013687994 -0.08322047 -0.046171933 -0.2063871 -0.16786824 0.09772208 0.3007483 -0.010378131 -0.06630031 0.055602994 -0.12669648 -0.037163123 -0.3006763 -0.10132129 -0.019372437 0.015300533 -0.11071697 0.015635554 -0.046579767 -0.028939975 -0.036812544 0.11820443 0.11735534 -0.13885802 0.15352577 -0.21648677 0.23390278 -0.049326282 -0.039157722 0.007862876 0.074929446 0.14089821 0.2494736 -0.06092573 0.18031651 0.16355047 -0.051687498 -0.1227023 0.039369296 0.023939641 -0.1177147 0.013950327 -0.07249521 -0.20595157 -0.116115384 -0.1188976 0.10939406 -0.11323486 -0.23563814 0.088704795 -0.10854136 0.068823166 -0.09151887 -0.14290285 -0.10473973 0.020699304 -0.0117181605
-0.1465021 -0.16003649 -0.14560224 -0.07276707 0.060079653 -0.046103593 -0.07231421 -0.015017147 0.016865745 0.012521101 0.0054292544 -0.036023326 -0.1861001 -0.0004985315 -0.13363877 0.0029752671 -0.095725775 -0.12400551 0.040564846 -0.0049785967 0.076219805 -0.116734944 -0.14115731 0.024137622 -0.12208963 0.100657605 -0.0026046033 -0.08542082 -0.08895312 -0.14912944 -0.05653895 0.1385675 -0.0025620426 -0.016249161 -0.039446473 0.09670915 -0.16749276 -0.0537004 -0.09458056 -0.12526703 -0.121324874 0.01451363 0.0006909738 0.13314244 0.114886135 0.053899292 -0.0154573815 -0.00033115203 -0.047885835 -0.17217414 -0.0362988 0.013073172 0.068835914 -0.17355557 -0.14301766 0.059926525 -0.013099059 0.26893532 0.08723094 -0.039346002 0.051388 -0.039104525 0.12446611 0.0053183595 0.17854762 0.12005437 0.0044799186 -0.17780358 0.06809439 -0.06897824 -0.11123454 0.13687578 0.12335445 -0.12796758 0.11551835 0.022940729 -0.20211467 0.007898398 0.091221415 -0.031249393 -0.020066036 -0.2863224 -0.05165015 0.1371079 -0.16727118 0.01894683 -0.14502762 -0.06301125 0.12805738 -0.017920783 0.09751932 -0.039686836 -0.054560076 0.10912965 0.042945005 0.0074719083 -0.08904344 0.011143032 0.0071477946 0.068678394 -0.03156047 -0.2255009 0.07987649 0.025243929 -0.1236657 -0.016889839 -0.03595491 0.10207194 -0.016765 0.08874776 0.11757962 -0.029768605 -0.013464808 -0.08392608 0.14348574 0.03865678 0.13877529 0.013220757 0.09451251 -0.078508034 -0.046463322 0.10960302 0.1380988 -0.16921993 0.08404465 0.029967794 0.03223576 0.039697133 0.04248725 -0.0055728764 0.08443443 -0.022108506 0.093314566 0.042546507 0.15864035 -0.0555982 0.10650516 -0.0885599 -0.044480808 -0.41756028 0.110831834 0.032985013 0.07055774 -0.05585467 0.027987316 -0.029551657 0.03697788 0.07086608 -0.025142998 0.0053002643 -0.021089157 0.081562646 -0.020081528 -0.115314424 -0.040442806 0.048784614 -0.15062134 0.021043878 0.06578459 -0.011099438 -0.009706394 0.14348969 -0.41476622 0.057269663 -0.042983927 0.033859015 -0.1432563 0.07488246 -0.15473518 -0.08876842 0.084703036 0.0027612438 -0.06747883 -0.09471519 -0.070562825 0.0511306 -0.039874863 0.099857986 -0.084718585 -0.0778588 0.13221748 0.05182901 0.08713244 -0.0121723255 0.10836741 -0.18867041 -0.0035480964 -0.07228331 0.12071014 -0.18901238 -0.114063784 -0.26859882 0.09841856 -0.18253113 0.114085004 0.055278238 -0.007350603 -0.027855529 -0.0069418973 0.14723875 -0.04501981 0.08173107 0.09008409 -0.07071716 -0.017115457 -0.052725747 0.060577046 0.0023790004 0.030273587 0.0382527 -0.04521393 -0.017466327 0.09401358 -0.0043715914 -0.20691232 -0.10310289 0.15376472 -0.01508489 0.041896075 0.11876247 0.02945921 0.039353255 0.05713858 -0.074765444 -0.05524741 -0.25034392 -0.035521135 0.065148436 0.04936458 -0.28079665 -0.04208763 -0.13270943 -0.19310838 -0.085149944 -0.09560645 0.0034030043 0.16819394 0.047554985 -0.046254013 0.049306545 0.117500715 0.032353476 0.12898682 0.05208885 -0.054845482 -0.035171304 0.035173777 -0.062324706 0.0363846 -0.09660114 0.059537295 -0.08231198 -0.059835512 -0.010371581 -0.07312444 -0.0034924557
-0.05578625 0.06256077 0.056312274 0.06639237 -0.045655664 -0.014870945 0.14049098 0.039494704 0.05386877 0.08747864 0.07675991 0.113397285 -0.33233398 0.09031371 -0.25163046 0.15292494 0.07180674 -0.118864894 -0.05409016 -0.23338188 0.0020576105 0.0807209 0.03315224 0.07828647 -0.017560842 0.17945184 0.076311305 0.10981068 0.10556752 0.16574118 0.13143788 0.2508745 -0.06804653 -0.017918192 -0.12393032 -0.08082931 0.19885238 -0.06319488 0.06776814 -0.041888706 0.034730308 -0.021894582 0.071595386 -0.034453135 0.00080512906 -0.017680444 -0.085748695 0.06752771 0.07801835 -0.01825555 0.05892321 0.06523422 -0.2792688 -0.0683669 -0.11618702 0.11930867 0.004693847 0.0822499 0.091798075 -0.004935011 -0.06645073 0.15330592 0.12445837 0.125002 -0.2624088 0.015013227 0.0055523277 0.00786517 -0.27712747 -0.08649263 0.2076272 -0.05422497 -0.111563586 0.20753016 0.06397241 -0.08509858 0.068453796 -0.028428392 0.25858867 0.032091837 -0.17233458 0.013632763 -0.015790403 0.16843578 0.03721838 0.13299629 0.22817811 0.06488072 0.080955416 -0.051417127 -0.045957465 -0.027631534 0.08334425 -0.22924201 -0.47684646 0.21205546 0.040658887 -0.012218887 0.027050555 0.067900985 -0.039283007 0.14947182 0.024350725 0.0805221 0.014521495 0.26076967 0.05313461 0.0128937 -0.05109441 -0.15161955 -0.026615735 -0.064632155 0.109142266 0.04827076 -0.013732347 0.010910728 0.25092867 -0.15795496 0.15225235 0.16991453 0.05707465 -0.0050829058 0.14935811 0.07984269 -0.04410043 0.24517405 -0.039483882 0.09582777 0.11646072 -0.06501032 -0.111953914 0.038464345 0.020623714 0.005966743 -0.24184382 0.17772444 0.20710704 0.02300822 -0.04728993 0.10338038 0.05740989 -0.23865247 -0.10178346 -0.16120993 -0.018673953 -0.023054918 0.0907679 0.13784367 -0.016709816 0.1622397 -0.032499835 0.062430307 0.028454717 0.051728427 0.13434666 -0.11071952 0.23216145 0.046074413 -0.082882196 0.061577264 0.11349386 -0.4481353 0.18986416 -0.06268471 -0.09968324 -0.39794093 -0.10353855 -0.014742776 0.094375715 -0.45407188 -0.045970727 -0.047881898 -0.22339255 0.11011495 0.0064969636 0.10595587 -0.014790612 0.101529084 0.20083775 0.09052307 -0.01459462 -0.048372354 0.0076315333 -0.058308907 0.015977873 -0.20354782 -0.045213573 0.16046718 -0.018498585 0.07508172 -0.04772357 0.07086683 0.13524058 -0.21507429 0.075656 0.05683394 0.046519265 0.02057286 0.07097874 -0.1440498 -0.21043612 -0.018880578 -0.039506093 -0.16443333 -0.31188604 -0.059309993 0.117966376 0.06772921 0.02980509 -0.08179234 0.065784626 0.08057091 0.12444037 -0.063682705 0.16280071 0.047322635 0.02762127 0.079578005 -0.04229567 -0.01877176 -0.05033348 -0.3587137 -0.019340608 0.07686243 -0.068698786 0.071745835 -0.0754214 0.0080470275 -0.076727845 0.19691244 -0.016515013 0.10069065 -0.04809127 0.04836195 0.020543495 0.009878875 -0.0067484146 -0.050415453 0.08771752 0.024193415 0.019854546 -0.0504186 0.03585009 0.18398996 -0.05939143 -0.069001526 0.04322457 0.058090195 0.13399033 0.15641116 -0.062493004 0.14350104 -0.03350311 0.10486948 0.008718965 0.118968576
0.06669898 -0.12931085 0.008811091 0.12530933 0.016854336 0.046424896 -0.08893516 0.104796916 0.09890411 -0.0049127135 0.09725601 0.011827037 -0.16211843 0.08209672 -0.097002566 -0.12623674 0.20367596 -0.030510258 -0.002777082 0.08014322 0.06545197 0.031006608 -0.14289291 -0.031366087 -0.10327653 -0.105332695 -0.025855862 0.13676271 -0.043010578 0.011661365 0.041381743 -0.05162756 0.08819705 0.03872468 -0.060025107 0.0079516545 0.030985015 -0.21742862 -0.028593889 0.05851336 -0.024671381 0.016595444 0.056926727 -0.0145923635 0.14257011 0.05113014 -0.042206377 -0.060889296 -0.041465167 0.207857 -0.0713524 -0.15791088 -0.25598654 0.07137005 0.028773166 0.00015579938 -0.12464416 0.11999775 -0.08996924 -0.10328164 0.09878365 -0.088421635 -0.31067654 -0.019031001 -0.022365782 0.22163452 0.03205031 -0.0028044477 -0.08393241 0.1698052 0.17617057 -0.082502015 0.12652124 -0.1157737 -0.11975183 -0.23397602 -0.154409 -0.05326153 0.148223 -0.037333842 -0.025557267 0.0348223 -0.026318152 -0.24615045 -0.015043905 -0.15204656 0.08228432 0.04908061 0.024835857 0.12041859 0.2511183 -0.092165336 -0.07536517 -0.17382509 -0.15195344 -0.10993435 -0.289655 -0.09041021 -0.040621743 0.0885269 0.020998722 -0.111566775 -0.2582389 -0.0077549154 -0.101934165 0.07201333 0.019816674 0.030446328 0.089814216 -0.14270414 -0.050563984 0.13694635 -0.05038183 -0.103857815 0.024737531 -0.05952687 0.027242195 0.046851657 0.06900113 0.015996777 0.024258815 -0.18010773 -0.11583068 0.07100831 -0.18852395 0.056825086 0.022341236 -0.13379411 -0.05361259 -0.06942878 -0.16837539 -0.021717003 0.07259943 0.099880144 0.04362815 0.46178094 0.20724726 0.13198398 0.09255409 -0.09902602 0.0025439432 0.1549413 0.026249228 -0.20112589 0.013236939 -0.1576918 -0.148509 -0.08225197 -0.089444235 0.03514831 -0.096073695 -0.13325289 0.033937797 -0.022033554 -0.026934305 0.055684134 0.023791704 0.04218981 0.038390253 -0.0062032435 -0.035411414 0.041363377 -0.007060303 0.05781153 -0.045855407 -0.046490245 0.025394293 -0.0038211169 0.029765194 0.05795691 0.22068328 0.051370475 0.07696202 -0.10291791 0.05027893 0.13847104 -0.024652572 0.012601191 -0.071909994 0.056381006 -0.003291444 0.03507521 0.015518595 0.00071039447 0.04641465 0.015725523 0.11355963 0.018002516 0.037830368 0.007734199 0.07362422 0.11055246 0.2721957 -0.06078288 0.1950622 -0.036369286 -0.10810417 0.008834786 0.08883149 -0.38160142 -0.073077604 0.074676946 -0.043653708 0.014064413 -0.1779489 0.08126669 -0.053762212 0.033243317 0.08097514 0.082926534 0.10677594 0.075220495 0.07250637 -0.0057860403 0.18156974 -0.03207635 0.06824663 -0.21669705 -0.08166743 -0.17086886 -0.02268686 -0.08809909 0.070170864 -0.013999047 0.10679664 -0.08328474 0.08487134 0.059132013 0.08432219 -0.08370931 0.07461254 0.058932617 0.00584813 -0.07879426 -0.20228083 0.1753265 -0.14840303 0.02310002 0.033903655 0.03344441 -0.11369876 -0.023108546 -0.030482719 0.02293016 0.026981365 0.16421975 -0.11843238 -0.055638902 -0.005581996 -0.0522697 0.26059654 0.20726009 0.25277752 0.113361426 0.07473075 -0.044548865
0.08058666 0.22722407 0.14783289 -0.039173253 0.044718128 0.0512709 0.05631037 0.09225835 0.0793902 0.007855714 0.022507085 -0.0017052067 0.17173812 0.21624291 -0.015162828 -0.06193936 0.1799125 -0.17017995 -0.039267484 0.04325017 -0.00438077 0.026059946 0.21802346 -0.13452819 0.22771938 -0.04652932 -0.04735402 0.04855141 -0.015722316 0.085038394 -0.08061795 -0.011603459 -0.09242028 0.15986116 -0.008380758 -0.081522614 0.05042127 0.13715617 0.111076325 -0.011487861 0.06885218 -0.031268742 -0.050478034 -0.25179562 -0.24172568 -0.031100022 -0.0449923 -0.1064338 0.10245732 0.122704215 0.021112971 -0.13949771 -0.1701941 -0.0950234 0.14256546 -0.1086432 -0.09198289 -0.13867812 -0.21898563 0.20243485 0.057792738 0.0519313 -0.20267563 0.17151299 -0.27226904 0.04063762 -0.032327212 0.026697086 0.035090838 -0.009550272 -0.0461404 -0.015856264 -0.040078744 0.13509129 0.10578269 -0.0010819852 0.32260406 0.05516466 0.07511492 0.03539851 0.120415516 0.11961371 -0.0888299 -0.21814896 0.24683134 0.1120327 -0.07347691 0.08084162 -0.1385157 -0.016430717 -0.062002197 0.118937634 0.24461049 -0.04562008 -0.20689577 0.09246864 -0.004311493 0.28067195 0.00249691 -0.09951782 0.06677417 0.07026779 0.13731277 0.04922066 -0.101015404 0.11474136 -0.044670545 -0.17185675 0.079825245 0.116878755 -0.11549235 -0.06529455 -0.06460093 0.14621268 -0.010302141 -0.2534032 -0.006705931 0.07326959 0.11562127 -0.047683597 0.14032654 0.028913716 -0.2620996 -0.07162275 -0.32865658 -0.027340233 0.17190012 0.070317715 -0.022439811 0.04899886 -0.031950224 0.09927863 0.06508641 -0.004728057 -0.28523383 -0.010595461 -0.05289707 -0.20764782 -0.110923074 0.31176034 -0.073910475 -0.16054389 0.045247626 -0.1125844 -0.18077196 0.13384932 0.1185615 -0.3900798 -0.022274636 0.23985715 -0.20828408 0.14385234 0.09144934 -0.0683341 0.027835669 0.20870188 -0.0281754 0.066082 -0.09661518 -0.06932903 -0.087485544 -0.14409928 0.06940422 -0.25191027 0.03038832 -0.11432334 0.10668556 -0.013042302 -0.24497634 -0.017210577 -0.16801788 0.041058075 0.12344166 -0.210415 0.15230119 0.021165283 -0.044517413 -0.21102402 0.21137469 -0.1806195 -0.044597417 0.082870156 -0.109261565 -0.11836417 -0.09494796 -0.036423497 0.07416587 0.016717926 -0.16389656 0.17147519 0.006605146 0.052607417 -0.018016031 0.012853988 -0.15561669 -0.05213634 -0.16385292 0.0120209 0.13012496 -0.027091002 -0.015124579 -0.21183199 0.07756193 0.18386643 0.18953866 0.11034473 -0.08353064 0.15872589 0.083939604 0.070960596 0.077766284 -0.025622707 0.071278706 -0.005133708 0.10945763 -0.08903514 -0.47725573 0.10425082 0.044020537 0.08934622 -0.12857917 -0.09685864 0.053371094 -0.07352373 -0.06145053 0.08741216 0.037625834 0.014903989 0.20027202 0.018189711 0.0005932434 0.007476145 -0.053690985 0.10720922 0.29339632 0.15682359 0.1853307 0.03946704 0.01703076 0.007859592 0.02675048 -0.06748494 0.1323012 -0.04639766 -0.13391264 0.06662351 0.027936684 -0.08787523 0.03435083 -0.028583901 -0.09197364 0.17796598 -0.035423465 -0.24259543 -0.05109755 0.035487074
0.012727098 0.053572394 -0.021837935 0.12560044 -0.2313473 -0.033533778 -0.2513801 -0.028532283 0.15056801 -0.013465871 -0.06602319 -0.05150126 0.04644421 -0.021139901 -0.017605906 0.084315374 0.040430207 0.1515516 0.03351385 0.18162145 -0.12613639 -0.04583586 0.09226807 0.06889789 0.08871073 -0.07207775 -0.16077985 -0.16943386 -0.046199318 0.094146304 0.045783065 0.08338346 -0.23896582 -0.10681426 0.0052455612 0.015548558 0.14166269 0.14493394 -0.032295458 -0.05268735 -0.012119187 -0.06255809 -0.12847942 -0.056692496 -0.0929096 -0.091464356 0.015219986 -0.08675119 0.0018579711 0.17268233 -0.03105181 -0.028153097 0.24547279 -0.12861483 -0.02402657 -0.10821395 0.0037721545 -0.11739092 0.11671989 0.14788938 -0.09247858 -0.03354301 -0.14943053 0.07777851 0.076113574 -0.024306877 -0.027396008 0.108385734 -0.07413502 -0.1290447 0.12896173 -0.025189461 -0.025464747 0.19070137 -0.19832815 -0.25684023 0.13962321 0.015958166 0.0691188 -0.042618632 -0.109514676 -0.16722697 0.013620021 -0.19374463 0.09936155 0.08569745 -0.2687889 0.0072850296 0.0535688 -0.02508796 0.0163237 0.034223065 -0.049030587 0.11008485 0.0054188594 0.04922105 0.15034044 0.037510693 -0.012284055 -0.044759016 0.010630193 -0.08366308 -0.08348252 0.17463677 -0.22562754 -0.029646277 -0.050811302 0.09141369 -0.1604433 0.25536942 -0.10283875 0.039651334 -0.1297231 -0.10726879 -0.05042126 -0.06446689 0.071746334 0.029714229 -0.062006705 0.10364031 -0.03420127 0.10017119 -0.052714553 -0.19105157 0.04454469 0.013623789 -0.07371855 0.025677418 0.23772855 -0.043179948 0.010849387 0.006351143 -0.034141503 0.04093387 -0.039726056 0.23936962 -0.056149136 0.008891184 -0.21914868 0.15998563 -0.023290513 -0.060323372 -0.092145234 -0.013040395 -0.014927015 0.09945722 -0.19068372 0.16462946 -0.030635685 0.0556878 0.2812243 -0.13689451 0.14263186 -0.09085078 -0.100671284 -0.09405907 0.257291 -0.018925749 0.08191672 0.009785559 -0.03444564 0.008247112 -0.31047395 -0.007749267 -0.24694622 -0.065586425 0.075755894 -0.046138667 0.24315539 -0.040179946 -0.09481852 0.040657233 0.1481532 0.09832588 -0.035697244 0.03312339 0.053193375 0.19355944 0.16327658 -0.06002375 -0.09716835 0.03929869 -0.06648472 -0.024310008 -0.097036704 -0.04889146 -0.05444864 -0.13812959 -0.06509248 0.072999656 -0.008175177 -0.18517594 -0.07395778 0.059291724 -0.092890434 0.05094842 -0.05645179 -0.018194243 -0.1170011 0.06924005 -0.02987409 -0.16623645 -0.043404363 -0.12752695 -0.21730377 0.100229606 0.15314415 -0.25397184 0.047055244 -0.21388528 0.0063088164 -0.16830148 0.053557675 0.04318003 -0.1531923 0.114452325 0.018938445 -0.19758362 0.03874429 -0.20284286 -0.003874958 -0.060010236 0.045444418 -0.07139982 0.056354165 0.29886734 0.055200204 -0.041701924 -0.008316252 -0.025125733 -0.0821469 0.20209356 0.30630535 0.04286244 -0.09721341 0.081730105 -0.13346745 0.041708745 -0.0036463107 -0.0698775 -0.16358036 -0.019061388 0.036863837 -0.010366368 -0.070685975 -0.024851376 -0.06449521 -0.066936105 0.07461619 0.011338783 -0.18234636 -0.04407397 0.003180562 -0.07405549 0.15761289 -0.17606235
-0.25199378 -0.22073433 -0.04028271 -0.002880732 -0.04974394 -0.054160945 -0.2640241 -0.0131721245 0.08203946 -0.034895748 0.00835876 0.12815706 -0.034191452 -0.062561385 -0.07594824 0.23588373 0.07358109 0.078375146 0.044948015 0.10447298 -0.012581279 0.112539485 -0.32399333 0.053015806 -0.14606456 0.061745055 -0.29667473 -0.058079816 0.053415224 0.24783157 -0.013557092 0.014536272 0.025389131 -0.1566736 -0.09865589 0.013558906 0.15297939 0.1882995 -0.19537961 -0.07001099 -0.26670137 0.0015693716 -0.0046827127 -0.53925663 0.13887376 -0.03407032 -0.01861436 -0.14588752 -0.13793337 0.30893356 -0.049709022 0.0034437878 0.08797003 -0.08846926 0.13261202 -0.03826969 -0.036734574 0.13187875 0.05018641 0.20455459 0.05867466 -0.14447397 -0.064034075 -0.20973387 -0.015931375 0.065942556 0.027845794 0.03547007 -0.029404871 0.030407587 -0.037128646 -0.09454009 0.047430605 -0.16509418 0.031895053 -0.036728982 -0.20404184 0.04138867 0.124222174 -0.0017575253 -0.06692317 -0.3770402 -0.012236924 -0.27578443 0.0046800976 -0.08203665 -0.105752796 -0.3071911 0.08887502 0.046429303 -0.15997745 0.09516968 -0.14411739 0.108677715 -0.37454337 0.17504235 0.07580378 0.063130945 -0.16571842 0.10956803 -0.05458588 -0.23122458 -0.15442878 0.09783028 -0.37103057 -0.24697614 -0.018400848 -0.04940392 -0.16821069 0.12874432 -0.124212615 0.089561 -0.3307239 -0.24167162 0.10373779 -0.25413033 0.061102208 0.037925452 -0.04104923 -0.02586735 -0.050428726 0.14353181 0.011229983 -0.23699023 -0.14969923 0.095151894 -0.20921198 -0.00012824574 0.09554139 -0.13176927 0.030165924 0.007878253 -0.011469248 -0.027196664 0.02643627 0.039446685 -0.00501324 0.030753529 -0.040901452 -0.17019922 0.07515961 -0.0048402944 0.10187419 -0.18851362 0.08756684 0.08975714 -0.23071827 0.052554667 0.051892716 0.101368174 0.09669776 0.12302838 -0.030917084 -0.24283813 -0.16838558 0.060518485 0.02396689 0.04389464 -0.042650796 0.002658416 -0.13308749 -0.056300886 -0.40797672 0.01324586 -0.13815449 0.0043472946 0.13156398 -0.02362285 0.1203815 -0.035322167 0.1321022 -0.15558025 0.1486829 -0.2191602 -0.08828692 0.18795533 -0.027265325 0.24185641 0.17551862 0.09880543 0.03382884 -8.072778e-05 -0.08061853 0.1461668 0.030944297 0.010211842 0.11296876 -0.32198182 -0.11650465 -0.1352743 -0.3316129 -0.09551471 -0.0103367185 -0.05369561 0.15395589 -0.090260044 -0.04146449 -0.06202583 -0.07383416 -0.041091524 0.14299977 -0.07669485 0.12607174 0.12655959 -0.2024182 0.15977332 -0.025814695 -0.47422045 0.0320611 -0.08546782 0.22580756 -0.055569164 0.014289705 0.037681576 0.11407286 0.029924806 0.082009345 -0.18641514 0.1398983 -0.118084416 0.03721896 0.018576978 0.080270246 -0.2869282 0.0437395 0.14908431 0.12764458 0.04884181 0.06355246 0.13290352 0.09852717 0.009733007 0.20816754 -0.054409232 -0.36988595 -0.12781598 -0.15282533 0.075795695 -0.087126076 -0.06344606 -0.12084118 0.13538128 0.011197339 -0.092035025 0.11709949 0.0645096 -0.14592423 -0.080402456 0.08585036 0.007423267 0.074355826 0.019822408 0.1432355 0.071400255 0.04101554 -0.1586162
0.005988473 0.064811595 0.07518152 -0.17031533 0.013030453 0.011619733 0.112379946 0.15256228 0.011121866 0.0014412848 -0.08802276 0.17098883 0.08268679 -0.10167845 -0.13923272 0.3067854 -0.12510915 -0.089025654 -0.25738212 0.034180563 0.06683544 0.09283023 0.08836697 0.026167393 -0.018915823 0.15310746 0.0464729 -0.14674373 -0.032998193 0.06402859 -0.0078852475 -0.002397131 -0.22718051 -0.031620003 0.012617365 0.08166008 0.21214093 0.026067734 0.053953886 -0.032854024 0.06971312 0.019661734 -0.06430825 -0.36247948 0.09843342 -0.0067674755 0.07616473 0.045894597 0.101210535 0.10044452 0.0055411635 0.014389382 0.16916628 0.102756195 -0.009291851 -0.06548543 0.034881596 -0.11621665 -0.085528955 0.070086606 0.08446692 0.05838319 0.074242 0.13968897 0.0043031666 0.004681021 -0.043822415 0.023732966 -0.014719922 -0.06499456 -0.03788285 0.0560084 0.0752132 -0.17729153 0.06290133 0.053960443 -0.16048539 0.031883236 0.19679177 -0.050332803 0.03771077 -0.08627884 0.01919848 0.23016442 -0.15379302 -0.13479818 -0.41010237 -0.031390145 -0.05433104 -0.002691181 -0.0077495677 0.043729663 0.015910106 0.14652202 0.05162802 0.08203278 0.014232535 0.015670193 -0.1207956 -0.009361748 0.026978265 -0.0757325 0.18748517 0.2578215 -0.20759039 0.021249792 -0.071788594 -0.023198793 -0.33012807 0.015592749 -0.1198737 -0.015816709 -0.47216886 0.19758075 0.07085652 0.17036411 0.21492474 0.1371113 0.097900115 0.057933412 -0.14634326 -0.03583922 -0.045274466 -0.1986504 -0.04161736 0.16613951 0.1709117 -0.1134218 0.25575814 0.024484865 0.13077387 -0.07264751 -0.10275849 -0.13723804 -0.12647499 -0.20738937 0.025155326 -0.023941463 -0.1042253 0.13758802 0.20345977 -0.1696898 -0.12897693 -0.057884943 -0.056114633 0.06329991 0.049213678 0.24715695 -0.04960478 -0.04104276 0.036486875 0.049957346 -0.06927914 -0.00062845775 0.027614236 -0.116951816 0.022777375 0.024708437 0.09282143 -0.023959054 0.07224761 -0.28434387 -0.34134647 -0.08925554 0.071147494 -0.15777119 0.11716273 0.035577197 0.17374258 0.21428989 -0.13592161 -0.11795327 0.15254003 0.30236167 -0.2665868 0.11806543 -0.040695857 -0.005501443 -0.07565769 -0.2565565 0.14198908 0.0041592955 0.10287405 0.10108165 0.05217305 0.0439667 0.010447211 0.10230187 -0.0337912 0.0006497278 0.015626911 -0.26555467 -0.0014368821 -0.11323134 -0.03792943 0.073064476 0.06613572 0.04879098 0.110683896 0.22297388 -0.17183912 -0.36336288 0.0021849212 -0.11613304 0.064903446 -0.07297114 0.11596065 -0.06195446 0.056931127 -0.00096065924 -0.16272974 0.078008465 0.0003784487 -0.0017525797 0.106942385 0.18184431 0.21486935 0.09900054 0.011520692 -0.03223541 0.11080597 -0.13003547 0.002404299 -0.29638582 -0.023512574 -0.060933053 0.004159294 -0.15183744 0.0037793089 -0.021314785 0.083321676 -0.10876114 -0.18754058 -0.0042598997 0.05501164 -0.46153218 0.22398752 -0.07411343 -0.04990675 -0.0634269 0.13574779 0.1904805 -0.053637825 -0.13459101 -0.18647672 -0.06750542 0.03553935 -0.41356617 0.041174095 0.1145095 0.039541744 -0.031538267 -0.0696096 -0.029331412 0.04947742 0.07590078
0.14381228 0.037965063 0.07548118 -0.26172537 0.13793573 0.07307883 0.0142175965 0.026202714 -0.04126208 -0.027878784 0.04961194 0.02895644 0.23332119 -0.06548202 0.07334633 -0.04991108 -0.26698852 0.020484759 -0.13035333 0.0131256785 -0.021022927 0.0325349 0.06828411 0.065340966 -0.095349744 -0.053560283 0.06447776 -0.040870693 0.107176535 -0.03788983 0.029308965 0.028558105 0.078721955 0.10345292 0.03851691 -0.0044165296 -0.0011190873 -0.1005468 0.042493787 0.03000859 0.08900822 0.008928892 0.00829038 0.1766612 0.08386587 -0.017967774 0.01480426 -0.06346313 0.1013815 0.039295085 -0.06624238 -0.052546367 0.07307152 -0.23793224 0.027320663 -0.018802073 -0.08069123 0.04273488 0.17736347 -0.01987032 -0.2084244 0.10768411 0.116614155 -0.13306946 0.047606118 -0.040076777 0.04655699 0.04840811 0.22491351 -0.2127948 -0.4447549 0.027061006 0.013496721 -0.057234664 0.020639485 -0.024997922 0.025175968 -0.060916007 -0.11503775 -0.0067701037 0.015044189 -0.04212351 0.0005587842 0.21130134 0.09871798 -0.1330583 0.15187432 0.09510575 0.018630486 0.026450863 -0.028636364 0.009958049 -0.07772598 0.020413548 0.13215336 -0.25409892 -0.06256219 0.043001745 0.009198926 0.02718465 0.04189378 -0.08293493 0.18275553 -0.058438357 0.02478036 0.04077373 -0.044541746 0.25722483 0.06968981 -0.16862841 0.07199229 0.11327562 0.11214945 0.18850742 0.02531391 0.1060766 0.18252042 0.04073289 0.033505745 0.14864826 0.079219356 -0.021171313 0.07567082 -0.056783315 0.045893367 -0.14157598 0.15598176 0.12343495 -0.095385164 0.09063156 -0.03222884 0.019918019 0.04478847 0.12997803 0.031878304 -0.33921972 -0.14243627 0.06854109 -0.043421794 0.10981949 -0.1228525 -0.06077039 -0.23131344 -0.02245158 0.03817064 0.032156006 0.02205507 0.054126687 -0.08592827 -0.04406897 0.054031644 0.12702706 0.018106624 -0.08688055 0.07669221 -0.21947214 0.051298138 -0.13357414 0.20800428 -0.004236332 0.11984438 -0.16720925 0.069006585 0.057742037 0.07845276 -0.06998266 0.02626535 0.04314906 -0.19734557 0.095725216 -0.10971845 -0.07942772 -0.10044861 0.1785209 0.07608347 0.09107523 -0.048972208 0.03621152 0.036584597 0.08073995 0.13857526 0.040409304 0.14103344 0.14609997 0.0061374754 0.07493422 -0.04169337 0.054986164 0.062772915 -0.04189075 0.01916144 -0.1546681 -0.10648294 0.1384779 -0.05049653 0.012492003 0.14993308 -0.15669842 -0.011280108 0.10358395 0.056395195 0.07244097 -0.064740576 -0.058052626 0.07687642 0.10236092 0.011740811 0.054596648 0.03707738 -0.006757035 -0.14479673 0.15722266 0.17507452 0.047578838 0.10409397 0.0103086475 0.12700817 0.08758485 -0.15554747 -0.013341669 -0.030266715 -0.007683662 -0.0773398 0.039163776 0.019424383 -0.32384098 -0.0041793426 -0.015408316 0.018288385 0.048008677 -0.18282704 -0.27142757 -0.069788106 -0.007792862 -0.048627533 -0.09968422 0.08162515 -0.08916349 0.007502357 0.021044577 0.12224835 0.08983164 -0.13692325 0.17236239 0.07201675 -0.098948285 0.012680639 0.14431204 0.07181328 -0.0026651064 0.088355154 -0.09243204 0.035415057 0.05685682 0.12618531 0.10455931
-0.12213767 0.07433859 0.045252055 -0.013849858 0.05179464 -0.04730365 -0.044942927 -0.11690599 -0.07921353 0.029921625 0.060015243 0.06038882 0.024816994 0.13203532 0.042482454 0.14455724 -0.14341484 0.15449123 -0.10599611 -0.095077544 -0.039135654 0.029137146 -0.116029054 0.06572356 -0.2879164 -0.028867701 0.0040256595 0.047836438 0.006551523 -0.09074858 -0.043700937 0.033857264 0.15783477 0.014656844 0.05493571 0.0745949 0.041475218 -0.008989342 -0.13482144 -0.025516612 -0.06365209 0.1497041 0.12096978 0.011229598 0.12120994 0.024678135 0.034259062 0.02150413 0.12687682 -0.22162943 -0.058411527 0.046029683 -0.012384345 -0.039129592 -0.0321976 -0.14921127 -0.04279837 0.20748886 -0.05706404 0.06702974 0.08977393 -0.022002062 -0.0017830234 0.013469926 -0.054898035 -0.08878467 0.15961032 -0.11636269 -0.050124105 0.018520383 -0.14416672 0.12156506 0.0016415142 -0.18801126 -0.18902957 -0.096757926 -0.21162671 -0.016129227 0.1481289 0.045657363 -0.020125184 -0.321107 -0.015063673 0.026649013 -0.0490764 0.08529046 -0.08347236 -0.20497148 0.07180729 0.04631537 -0.4491751 -0.042722177 -0.4219065 0.039820958 -0.07471661 -0.08270899 0.26622972 0.09861807 -0.12935135 0.04521192 0.040129203 0.06593518 0.07073303 0.041728962 -0.041392073 -0.23821135 0.02893765 -0.010406087 0.109312214 0.24113686 -0.13370618 -0.01539127 -0.022032248 0.013079182 0.106372505 0.0013418905 0.023076406 -0.16234954 -0.15427679 0.01777874 -0.03884543 0.054089602 0.09591762 -0.027776262 0.012429639 -0.059131388 -0.04460552 -0.24017695 -0.012802197 0.08076152 0.02742726 -0.037047703 0.027540939 -0.029419351 0.06633098 -0.44307777 -0.10752909 0.019422239 -0.04225263 -0.032621488 -0.04391907 0.036422927 0.07104773 -0.16388784 0.045051333 -0.03788021 -0.07111014 -0.042401135 0.095910735 0.21528322 -0.076444775 -0.11498796 0.12672213 -0.092880204 -0.03813218 0.12025926 -0.0010365288 -0.25656652 -0.093306705 0.042807132 -0.049725965 0.3600774 0.010973217 -0.28168064 -0.022205153 0.05640086 -0.074858494 -0.03512453 -0.0821435 -0.08400762 0.017120587 0.17752224 -0.13611224 -0.18506628 -0.044167835 -0.08591382 0.035498578 -0.1501824 -0.09041435 -0.033067312 0.22114305 -0.01453929 0.16274709 0.10319511 0.0047477707 -0.16473985 -0.143589 -0.07867396 -0.078984104 0.036207445 -0.34217617 0.10853751 -0.19646643 -0.06608405 -0.019375894 -0.004102285 0.02901353 -0.0664507 0.023344705 -0.12842275 0.24636671 0.02659083 0.051611688 -0.18243569 0.12673311 -0.05704246 -0.027935622 0.06116165 -0.11497839 0.052935444 0.13560317 -0.10013383 -0.03631669 0.03979622 -0.011018761 0.022827208 -0.13843915 -0.07279385 0.1479919 0.044409968 -0.1470536 0.17570533 -0.14503834 -0.025683515 -0.029720306 0.23070756 -0.14431153 0.028299287 0.061058413 0.13396466 -0.0072143567 0.18935764 0.23924653 -0.1438987 -0.058946084 0.034391224 0.075301774 0.032995142 0.017374327 -0.044356328 0.06482607 0.037091956 -0.011390215 0.05277201 0.0041521583 0.019603843 0.020497171 -0.026085846 -0.18967299 -0.1195821 0.10216272 -0.15378886 -0.22685732 -0.12293164 -0.033218317 0.0683608
0.04457021 -0.27741578 0.0037619984 -0.07110229 -0.020157803 0.019284813 0.055563767 0.03342257 0.07824519 0.0077033476 -0.0868938 0.07175275 0.2186654 -0.12272441 0.07595492 0.17381763 -0.15044247 -0.12919684 0.16004738 0.0151315555 0.020906504 -0.04594792 -0.13824762 0.05890544 -0.15204637 0.06663597 0.009118081 0.010570871 -0.11066192 0.110855125 0.16841654 -0.028570395 -0.09751485 -0.20868924 0.016446028 0.04119703 0.114389785 0.058481984 0.02490566 -0.017342541 -0.09395219 0.20806703 -0.08867005 -0.05829629 0.09165985 -0.0011004844 0.021116596 0.071220234 0.07827845 0.1266078 0.008437071 -0.013522333 -0.037313256 -0.06207509 -0.060342196 -0.08635655 -0.19176336 -0.19590528 0.16579011 0.09946078 -0.16937828 0.053856857 0.23919617 0.23385023 0.08983974 0.0032947366 -0.094595045 0.08989611 0.035599634 -0.14672133 -0.035748474 -0.033077594 -0.0083216755 -0.052933857 0.00063748244 -0.012354202 -0.06930832 -0.050364025 0.19354956 -0.03810474 -0.08622138 -0.018753687 -0.024462592 0.092476025 0.069288366 0.02322878 -0.10872866 0.08716136 -0.086009204 0.0017448618 0.025272056 -0.03141174 0.0074745775 0.021718042 0.12346687 0.062769026 -0.12496545 0.11398375 0.17071736 0.064850636 -0.007901352 -0.2305582 0.21912968 0.15983234 -0.0007353029 0.013459304 0.10345787 0.23759453 -0.0031589034 0.1171399 -0.024652766 -0.04240886 -0.16745041 0.10642709 -0.06449912 0.1431718 0.35979894 0.035419855 0.039258897 -0.028540926 0.047396954 -0.008675407 0.18478644 0.052574527 -0.31125572 0.12222119 -0.2602374 0.087178566 0.18345371 -0.04981526 0.02791151 -0.055422366 -0.0270033 -0.042283315 -0.043461192 -0.022566922 -0.1971063 0.04790159 0.103076845 -0.08498126 0.2644432 0.117913686 -0.1059687 0.18785942 -0.039253075 0.011650311 -0.087262824 0.13199143 -0.19636557 -0.017340008 0.038294606 -0.11516915 -0.16324425 0.033226486 0.04330582 -0.027436636 -0.017216574 0.031788234 0.027946588 0.006155538 0.2006365 0.08213388 0.09197315 0.21735193 -0.0051720883 -0.06889244 0.006955615 0.10961386 -0.03143912 0.12356421 0.0010369334 -0.13484538 0.1025054 0.23623905 -0.04591288 0.15430571 -0.039383847 0.1710481 0.0011888568 -0.15064631 -0.012635252 -0.024610572 0.13344148 -0.13079055 -0.15309423 0.21812776 -0.01773808 0.15131009 -0.1567152 -0.09311399 0.118862465 0.103244275 -0.05102269 0.2296568 0.03712453 -0.12648682 0.05512606 0.0102225365 0.07822223 0.020700527 0.040512774 -0.04390163 -0.060094975 0.04559911 0.22691324 0.116232604 -0.052896075 -0.106251225 -0.03469712 -0.0553862 -0.05955615 0.0038570585 -0.12265815 -0.17939757 -0.10340871 0.0137708 0.1569334 -0.16139877 -0.0915295 -0.09022589 0.15375726 0.019955998 -0.15554117 0.13043149 0.059904553 0.23600687 0.094507545 -0.005006195 0.09679629 -0.34572265 0.051670797 0.13662972 0.11961985 -0.097685605 -0.24389084 -0.055425506 0.03340546 -0.06326937 -0.060119636 0.0131949475 0.044197973 0.12723193 0.017798925 -0.1572711 0.08621778 0.07033345 -0.032521047 0.0025678196 0.007433786 0.087138094 -0.073001266 -0.1888451 0.005311054 0.23740444 -0.16773151 -0.15829128
