0.07202906 -0.11825481 0.20618056 0.09816867 -0.10946059 -0.06655257 -0.039077275 -0.25747994 0.03730878 0.0979821 -0.28652853 -0.04027093 0.047502715 -0.030702995 -0.05752142 -0.04103677 -0.07233015 0.0900619 -0.124227926 0.0128087085 -0.011057079 0.08651649 0.09426277 -0.15316857 -0.07447469 -0.11919665 0.11573097 -0.10216708 -0.020756148 -0.14082353 0.152478 -0.030848134 0.07343284 0.06562873 0.026024833 0.0014788912 -0.11413456 0.06477561 -0.07824425 -0.14599189 -0.11239065 0.06973607 0.08138174 0.107936025 -0.2712416 -0.24336335 -0.08957436 0.07772147 0.008763015 -0.004278405 0.0018364193 0.07174609 0.032332037 0.071770385 0.20377763 -0.0025893317 0.06012131 0.061747786 0.09272955 -0.07378223 0.07394599 0.13454357 0.05075446 -0.014437171 -0.0052998243 0.042301867 0.0860635 0.013647805 -0.054169647 -0.12755634 0.03070245 0.14655665 0.045221362 -0.100519724 0.021528117 -0.022839468 -0.3217426 0.18285325 -0.024026781 0.07088964 -0.033875618 0.042074688 0.12641314 0.10477862 0.014909963 -0.06889647 0.009432621 0.002638772 -0.0044303676 0.119507045 -0.079829045 0.08297165 0.015514416 0.029628953 0.037209198 -0.048510086 0.0721338 -0.1179531 -0.03558331 -0.045072407 0.0038686986 0.10675478 0.04363376 -0.03362418 0.052378498 0.14202589 -0.19547541 0.019271396 -0.032454245 -0.057676747 0.059930462 -0.11278061 0.08202599 0.06334102 -0.043760948 0.15555175 0.270517 -0.07489087 0.1727516 -0.07390778 -0.08055719 -0.04268732 -0.15203525 0.052563004 -0.013980319 0.039583374 -0.04635008 0.23459311
-0.027959455 -0.13739988 -0.17271158 0.06646363 0.2881338 -0.06509364 -0.015632486 0.24734537 -0.06686932 0.05538721 -0.041712023 -0.12558459 0.2675172 -0.04623881 0.28640503 0.23996232 0.15294708 -0.085058376 0.13557747 -0.047207173 0.19501433 -0.08329912 -0.10984886 0.052072555 0.20613934 0.30863735 0.091395244 0.03137287 0.27630386 0.116752446 -0.001728511 0.029026361 -0.049961593 -0.27296075 -0.22715971 0.014453876 0.26307404 -0.055396132 0.075990915 -0.062083438 0.30874887 -0.043858297 -0.091318704 0.14659102 0.1972115 0.19590747 0.04541736 0.12865765 -0.024859114 0.067349434 -0.021830756 -0.08038102 0.060189363 -0.08663301 -0.069764905 -0.12922974 -0.08381699 0.1592521 -0.1614219 0.1712117 -0.036508027 -0.037505526 0.0058292677 -0.020506999 0.15516005 0.249993 0.034820393 0.0109224515 0.093825236 0.56362444 0.05515279 0.008267294 0.32444483 0.07233152 0.0731975 0.12515108 0.15819414 -0.108960636 -0.090533905 0.09451404 0.33814093 -0.08251013 -0.11108442 0.11458411 -0.015784664 -0.028465653 -0.089488484 0.12273786 -0.0049684066 0.23475944 0.17539005 -0.024625486 0.18093987 -0.06359285 -0.035303015 0.09813508 0.03645183 0.2411339 -0.001602829 -0.10513315 0.12703717 0.026324507 0.15579851 -0.039620537 -0.05067734 0.05296819 0.1497109 -0.010506484 -0.031862725 -0.04918034 0.2422243 0.21848024 -0.118612364 -0.02991622 0.20793505 -0.123555414 -0.10649232 -0.04510567 -0.09609035 0.042842373 -0.024792079 -0.05474027 0.0633844 -0.0661492 0.080786824 -0.0061846436 0.24416643 -0.022752848
0.13289197 0.03543755 -0.024678804 -0.0059857895 0.1964448 -0.0016944085 0.11965593 -0.29552862 0.011938704 0.03826633 0.16394047 -0.08403589 0.13062824 -0.08591962 0.12944546 -0.059956063 -0.1765203 0.04147465 0.044668976 -0.045747828 0.041787364 -0.020538725 -0.035875335 -0.19345777 0.37525648 0.15655336 0.12619057 -0.10702548 -0.11811368 -0.2876312 -0.028328462 0.043597557 -0.032409515 -0.2077256 -0.06641118 -0.07014496 -0.37252185 0.03119249 0.14560571 -0.2100733 0.20203951 0.01796964 -0.0008058447 0.07430771 -0.29102373 -0.052067593 0.09657043 -0.079324566 0.044854183 -0.08803203 -0.021966597 0.07056507 0.04109592 0.008760565 -0.01961004 -0.07356127 -0.008048152 -0.0035433148 -0.1344677 0.018247461 0.0627157 0.033981767 0.09142584 -0.031311713 0.07767101 0.23309462 -0.08213827 0.057207823 -0.024561811 0.22877774 0.13011743 -0.058836766 0.2586549 -0.03600532 0.0067904834 0.14877553 -0.14395335 -0.053852204 0.097439066 -0.03755665 0.32703015 0.13785453 0.067426994 0.14220043 -0.04100358 -0.06749525 0.048406363 0.11176014 -0.09027529 0.04328201 0.13948093 0.053261578 0.010912616 0.06842139 0.0095167635 0.11937287 0.011713303 0.28398824 -0.11391876 -0.029812528 -0.11651973 0.06841947 -0.10238414 0.018850045 0.029525267 0.006444193 -0.20021684 -0.0262822 0.018814921 -0.024028162 0.23371047 -0.049149174 0.029266952 0.11170332 0.18722235 0.038007736 0.0007615998 0.07679847 0.02266935 0.087270826 0.034744848 0.040775564 0.12661639 0.029804625 0.28032723 0.14563741 0.13725887 0.025332892
0.080103464 0.03220871 0.088391274 0.07448163 -0.038548563 -0.03229081 -0.117643595 0.19313376 0.06985877 0.11969251 0.3411911 -0.0070460336 -0.045118015 -0.10982554 0.2534767 0.016661584 0.05266433 0.00041526393 0.0035502396 0.019488223 0.011232028 -0.12149114 -0.07734694 -0.20936255 -0.19255887 0.12808906 0.035770748 -0.2249935 0.2511222 0.12883359 -0.069001846 0.10713204 -0.05910646 -0.17217536 -0.19581433 0.049062736 0.34347132 0.054523453 0.083461836 0.052704982 0.23656851 0.0378037 -0.052526403 -0.034883525 0.16769807 -0.11113797 0.14000802 0.021660628 -0.050821662 -0.024653029 -0.041028216 0.069523364 -0.015307785 0.102854304 -0.16096194 0.2101165 -0.06207746 0.119158216 -0.18553269 -0.030658107 0.1511513 -0.095838495 -0.035466503 -0.041725177 0.015240593 0.023717957 -0.14813013 0.055192243 -0.007825381 -0.07915445 0.12929256 -0.0070620575 -0.16617945 0.1264979 -0.04519305 0.1514375 0.30257413 0.053388014 -0.0780591 0.13668564 0.06985253 0.016658263 -0.12107486 -0.10156448 -0.09465866 0.041933935 -0.043475054 0.098672666 -0.05564586 0.074138075 0.12611589 0.10800887 -0.09881566 -0.009616351 0.10725842 -0.018468054 -0.076054566 0.10764319 0.062055588 -0.003221932 0.059253547 0.105329484 0.08589426 0.0013924902 0.17851345 0.11722086 0.068938024 -0.05213125 0.03280259 0.1401196 -0.053030085 0.23196672 -0.2557486 0.09181635 0.15628117 -0.11322714 -0.031354904 -0.062456377 -0.1596127 -0.07492272 0.009008354 -0.32627395 -0.07229696 0.031986088 0.1415669 0.044359997 0.047091775 -0.028402701
0.17479317 -0.04959413 0.42637524 -0.18303524 -0.12786248 0.009567345 -0.07724519 -0.12409583 -0.046813317 0.060936492 0.09207139 -0.018373167 0.10043789 0.18561928 0.06438526 -0.37568206 -0.0320389 -0.023136068 -0.15848494 0.05022201 -0.075979605 -0.016499327 0.09905552 -0.4472984 -0.10901056 -0.23292288 0.11674262 -0.1203545 -0.1830902 -0.08913743 0.03040346 -0.10350536 0.1364769 0.044094946 -0.01668875 -0.11863439 -0.0020406405 -0.07916339 0.007072256 0.22559142 -0.1908491 0.099626146 0.06360933 0.085171975 -0.105137326 -0.3526203 0.01078608 0.085650995 0.02248822 -0.25931218 -0.021476278 -0.056066256 0.1297339 0.029058134 -0.09154492 0.3729424 0.21253769 0.123515464 -0.11697226 -0.10947321 0.11906045 0.1015187 0.16882487 0.17662716 -0.062434856 -0.15024161 0.1528874 0.070462115 0.008210755 -0.45154524 -0.0002395627 0.057303794 -0.0651763 0.18734461 0.054275494 0.059406623 -0.39239818 -0.0009891695 0.14133865 0.31531316 -0.028892443 0.1335165 0.111579254 0.058771856 0.104116365 -0.06741202 0.12589985 0.035458878 0.0569584 0.5857342 -0.057051376 0.07934189 -0.0893356 0.12008813 -0.03741091 0.028624078 0.123462 -0.2545711 0.15168044 0.13406493 -0.044623204 0.09609948 -0.118783765 -0.046897728 0.14980659 0.06720682 -0.11904524 0.060989656 -0.0129892845 0.09455444 -0.257751 -0.06044212 -0.022915412 0.13342217 0.0027033545 0.114700176 0.09480365 0.14815193 0.039405044 -0.22837126 -0.058061235 -0.078662395 -0.14364237 0.080361076 -0.076367214 0.07843415 -0.13240041 0.14113997
-0.014624835 -0.05889088 -0.042515717 -0.124763235 0.14282955 0.020352634 0.008852074 -0.006304745 0.013474279 -0.0075864224 -0.17590518 0.02357331 0.07530184 -0.07693212 0.15414426 0.14825113 -0.008378466 -0.09746459 0.04481468 0.101212 0.15220518 0.19112241 0.07380208 -0.10549469 0.20337382 0.21637028 -0.01671462 0.020652955 0.31378305 -0.21356028 0.13802454 -0.118921906 -0.100682035 -0.13322939 -0.08112074 -0.016409144 0.044586614 0.08960182 -0.036379434 -0.13668844 0.25667197 0.0108994935 -0.1030198 0.06152174 0.031636193 0.068479255 0.061203416 0.1505213 0.0021655604 -0.025769431 -0.17513593 0.043230843 -0.026406808 -0.071234815 0.024181645 -0.02979492 0.03293321 0.03548807 0.008136985 0.016705152 0.10091176 -0.035073504 -0.009860198 -0.03732202 -0.030152593 0.14737616 0.07833159 0.0033566023 0.043383684 0.36277607 0.08225693 0.112927176 0.2840407 -0.119203635 -0.03630809 0.055415686 0.2010733 0.015792279 -0.14832364 0.15434965 0.1515888 0.11881054 -0.0145748025 0.19880816 0.0022491752 -0.026168736 -0.03251588 0.014442941 0.044082284 0.058517385 0.07592559 -0.052262317 0.09404333 -0.03423696 0.18338288 0.07785965 -0.05873867 0.13185412 -0.21169466 -0.007868459 -0.122993976 0.004109231 0.18085146 -0.05209771 0.05248826 -0.05164486 -0.050563022 -0.017903674 -0.005428322 0.020109927 0.12781975 0.036100086 -0.06315921 0.04524052 0.120262004 -0.0184686 -0.028612008 0.059544854 -0.071665466 0.0895243 -0.08843169 0.04606484 0.1975344 0.011591002 0.045004122 0.13389167 0.13372603 0.058107156
0.05141373 -0.045730833 0.004283265 0.260489 -0.13442506 -0.0046805674 0.009665839 -0.14683232 -0.029260341 0.010593604 -0.070874624 -0.009191438 0.0168232 0.036099598 -0.2910394 0.16413908 -0.15324935 0.11988384 0.056610648 0.012125507 -0.17240182 -0.07131504 -0.056443553 0.03163634 0.09634311 -0.1434506 0.09751688 -0.02933352 -0.14347805 0.10887105 0.17237821 0.16403359 0.04051258 0.020991636 0.14802793 -0.05188915 -0.44960603 -0.025827503 -0.0011879188 -0.16952828 0.16016209 0.07595373 0.011627042 0.0036668503 -0.23551162 -0.16118017 -0.11082783 0.06332056 0.0014293435 0.23175928 0.14304897 0.07217947 0.1157443 -0.0026563182 0.30327252 -0.0559365 0.01642035 -0.19929934 0.043559738 -0.05902077 0.09791273 0.14064765 0.14233264 0.0640364 -0.015433049 0.07263394 -0.05463834 0.06547841 -0.029045653 0.009165161 0.01957024 0.0013026871 -0.19578205 -0.07885019 0.038698696 0.11384538 -0.08903648 0.13307925 0.12217124 -0.14382794 -0.14239337 0.21445093 -0.0026806253 0.39492497 -0.014399504 -0.04827688 0.06918523 -0.016791426 -0.063699074 -0.15229437 -0.13332246 0.12665638 -0.10585981 0.12934023 -0.04283091 0.003709248 0.16116892 0.03217782 0.06267509 -0.02227973 -0.09344595 0.024244111 0.1443494 0.117366865 0.10150805 0.091350384 -0.30183873 -0.013085801 -0.06841912 0.16048841 0.07264447 0.10122628 0.15660994 0.16386372 -0.053981457 -0.0027703033 0.23216455 0.18273382 0.07497101 0.03407999 0.0649235 0.12286418 0.020496774 0.09121406 0.0015096107 0.0345389 0.0029405253 0.107588865
0.10501785 0.0110048205 0.06490288 -0.094263986 -0.13869189 -0.03671172 0.19710335 -0.25813428 0.115744755 0.050941043 -0.20383269 0.1869903 -0.2495184 0.25768125 -0.1154439 -0.24053927 -0.03283944 -0.03333724 0.00030436873 0.0213222 -0.02915076 0.13067208 0.04746316 -0.014699016 -0.008672291 -0.070556186 0.10289609 0.22370821 -0.15862103 -0.10512921 0.056862734 0.016805211 0.046942018 0.41106537 0.18936598 -0.120340794 0.05015033 -0.024218963 0.02974322 0.02625288 -0.33156636 -0.09024624 0.006027056 0.06626688 -0.160314 0.04362978 -0.0019157926 -0.06237879 0.029133381 -0.10139165 0.043939415 0.07171523 0.21750975 0.010820586 0.03283346 -0.08236152 0.13412748 0.20035873 0.3073027 0.00026330276 0.117314614 0.16503522 0.1349419 0.09643053 -0.037443895 -0.028530441 0.36006227 0.0065109124 0.07064121 -0.30830547 0.08111401 0.014816235 0.025889926 0.0037969071 -0.029865393 -0.12814923 -0.08024104 -0.038607523 -0.024138981 0.06825612 -0.18716758 -0.015572908 0.24266988 -0.072791435 0.08285215 0.00859436 0.046868447 -0.15221515 -0.02124436 -0.32843512 -0.0043504923 0.08162789 0.017008007 0.020075377 -0.018701345 -0.10441568 0.029227803 -0.19790618 0.03906937 0.15337546 0.012632363 0.11844077 0.017811868 0.11263914 -0.10821535 0.11075653 -0.28072545 0.06269402 -0.066843994 0.0032009864 -0.2367849 -0.08536199 0.032465767 0.085776985 -0.14371438 0.13964404 0.047771446 0.18745849 0.0528557 0.11608993 0.021231234 0.2962147 -1.6498627e-05 0.023632215 -0.14786316 0.08979561 -0.06441115 0.089972936
0.030754393 0.022063088 -0.017806018 0.038833544 0.010336867 0.038827345 -0.09834606 0.11837959 -0.062489968 -0.08622529 -0.18334675 -0.009495891 0.0865742 0.10025772 0.027655598 0.028097093 0.09178578 0.053957723 0.022242015 0.14185579 0.056886747 0.11869716 0.014506658 0.09227949 0.09340079 -0.1453455 -0.03661873 0.041524507 0.23720632 0.17481036 0.20075074 -0.17218505 0.09640279 0.31284618 0.06259068 0.11541612 0.37875777 0.010266555 0.011975248 0.14219363 -0.20177698 -0.055490565 0.0468774 0.07931236 0.24090618 0.10291341 -0.19800916 0.02262297 -0.07288221 0.016386857 -0.08232431 0.03960773 0.15774105 0.05514129 0.011843188 0.2169016 0.04272093 0.32045627 0.11141947 -0.054744303 -0.08628671 0.045239326 0.08709259 0.045514856 0.12809697 -0.10926248 0.20974478 0.052278053 -0.042584274 0.1734758 -0.0791205 0.0642189 -0.036911186 0.12596272 0.098362885 -0.1735798 0.068134956 0.08548649 0.13971642 0.19694933 -0.23705465 0.018104408 0.088824116 -0.15689993 0.086411074 0.06921742 0.12380243 -0.026211169 0.0033585166 0.550333 -0.12382163 -0.08576355 0.19334887 -0.07544974 -0.11338355 -0.10423132 0.06185602 0.027166437 -0.045307133 0.09700458 -0.0067118574 -0.07491646 -0.18327376 0.023561507 -0.0126220025 0.01732612 0.0004007622 0.010718054 0.0037636575 -0.10436299 -0.14048983 -0.058457963 -0.0080226045 0.011541183 -0.080784366 0.010535286 0.06789998 0.049236383 0.074096076 0.23435089 -0.022687899 0.10036996 0.0035709366 0.017238012 -0.32424018 0.10885011 -0.3625104 -0.055825908
0.088812664 -0.021140296 0.12894332 0.12894896 -0.11311535 0.085967496 -0.124321625 0.32938528 -0.06580471 -0.022243679 0.31707004 0.0021385336 -0.085604884 -0.022954112 -0.00049471937 -0.02007185 0.5242816 0.06139884 0.043180566 -0.0014957824 0.07978891 -0.20181704 -0.020480879 -0.015194984 -0.35040447 0.04352427 0.032501146 -0.13278127 -0.041012138 0.14112628 -0.22937864 0.03341788 0.010744879 0.11239742 -0.096133076 0.22863564 0.24794057 -0.06933134 0.015793363 0.22403656 -0.095353395 0.14400545 0.06958062 0.0728115 0.42719167 -0.07882305 0.17969024 0.14971547 0.04737048 0.09887517 0.06549587 -0.15276267 -0.048889816 0.10659687 -0.018584782 0.11352647 -0.028935077 0.061548125 0.0006342962 0.13913253 -0.025420241 -0.093533 0.087411486 0.13394107 -0.032196477 0.007872343 -0.21635093 0.11629298 0.018244324 -0.5223275 0.108615376 0.1544314 -0.28368905 0.2846464 0.056578733 -0.043488324 0.100886166 -0.0041762716 -0.15825029 0.14095496 -0.2847053 0.016353307 -0.087475 -0.07745025 -0.22748935 -0.06809498 0.02979584 -0.17055401 0.039341886 0.085276686 0.1716705 0.0014867965 -0.13365795 -0.029440261 0.07505486 0.037592173 0.018297795 -0.11277492 0.0299507 -0.049896732 0.12411034 -0.013008569 0.22689828 -0.074892856 -0.017095113 0.0928676 0.22371286 0.07986702 -0.04224073 0.067902215 0.025030838 0.10316624 -0.2624556 0.08926142 -0.0026912768 0.14132302 -0.027723122 0.03163412 0.077562585 -0.27499875 -0.06932343 -0.26574653 -0.37561384 0.15724094 0.15012987 -0.0050497814 -0.00041759873 0.021726152
0.04221446 0.17379668 -0.3666864 0.016810492 0.30692324 0.010976953 0.26045617 0.056659535 0.0653288 0.071082786 -0.08792518 -0.007907985 0.020168073 0.092643835 0.22668992 0.006836642 0.094386645 0.068584606 0.14298657 0.14834362 0.11786278 0.086676985 0.00045165396 0.17060348 0.22388996 0.10135128 -0.21999253 0.23445195 0.19642583 -0.04062851 0.04779957 -0.010010343 0.06242931 -0.017520692 -0.0033376734 0.024613636 -0.181468 -0.03555359 0.016486725 0.0067097293 0.038839288 -0.012569407 0.09042605 -0.064694814 -0.0030196654 0.27903208 0.022276197 -0.09422203 -0.050293747 0.04348553 -0.11121923 -0.12969308 0.19134688 -0.10413336 -0.003622925 -0.43004838 0.036217477 -0.18733385 0.2143345 0.15641989 0.11467827 -0.045078617 -0.07654199 0.034910858 -0.057381667 -0.08972893 0.017096229 0.07665204 0.10891725 0.34468296 0.056633003 -0.020845432 0.27854052 0.009407425 -0.06667025 0.013842466 -0.07940673 -0.08106605 0.10982313 -0.0982446 0.30844727 -0.06640878 0.137991 -0.07743312 0.17414619 0.03282699 -0.014243822 0.0894244 -0.061118226 -0.61468595 0.047876284 -0.030094376 0.15525119 -0.016239224 0.21763836 -0.112775214 -0.019399691 -0.011041293 -0.063371345 0.021179788 0.057647176 -0.013720501 0.18597725 0.104608834 -0.22779885 -0.078368396 -0.10217715 0.012950061 0.08192543 0.01306611 0.0683401 -0.11930938 0.20108454 -0.006183335 0.012046712 -0.049424294 -0.16996607 -0.089430094 0.10577031 0.007641616 -0.014646161 0.13489424 0.18966736 -0.10459187 0.20592622 0.110454366 0.36623636 -0.16257226
0.15389714 0.11158685 0.12412749 -0.06755208 -0.02543178 0.07918442 -0.013968679 0.13047114 0.059538163 0.08943884 0.05015078 0.12115494 -0.045845 0.09572428 0.16631678 -0.13220987 0.21579856 0.0681243 0.0086930385 0.089331836 0.2265336 0.06362419 -0.04021536 -0.19566363 -0.28110355 -0.3019537 -0.0060133776 0.13374081 -0.061236188 -0.11390181 -0.054486815 -0.021312753 0.046952818 0.052484974 0.0964762 0.09385992 0.15522043 0.009837178 -0.024769038 0.21593675 0.028510356 0.074125424 0.07024516 0.15491758 0.13858327 0.13232034 -0.036563937 0.043985035 -0.008055095 -0.07835431 0.09509395 -0.16639096 0.14882939 -0.022040885 -0.07775264 0.17528844 -0.0372972 -0.15916742 0.039369226 0.06577671 -0.045224674 -0.06307284 0.028783703 0.059749514 -0.15009278 -0.15137696 0.05980657 0.06132839 -0.0582604 -0.3555493 0.036921773 0.18023324 -0.17972597 0.15242581 0.13689306 0.08989264 -0.18977226 -0.047750626 0.109791405 0.0045173946 -0.00458275 -0.08131781 -0.0053150975 -0.20161082 0.1673455 -0.009978828 -0.05259479 0.16551067 -0.006821582 -0.009596907 0.10189368 0.05680967 0.023686137 0.16076633 0.1991915 -0.004885372 0.022105541 -0.15878634 -0.030987076 -0.022414273 -0.053007297 0.03670473 0.057365246 -0.02340211 0.2263011 0.11623237 0.22032511 0.084464245 0.02132875 0.10024469 -0.31314123 -0.20104198 -0.011652827 0.08248382 0.0257929 0.026250422 -0.0668098 -0.12069519 0.15402998 -0.04283815 0.023026617 -0.062083583 -0.11958866 0.014639787 0.1875756 0.0553485 0.12921129 0.008420868
0.027679706 0.11742893 -0.12523584 0.059288837 0.142698 -0.028875832 0.18851925 -0.2045883 0.1628724 -0.034222543 0.021775981 0.004171152 -0.30164146 0.10542221 -0.024593556 -0.0071347444 -0.022829242 0.11022522 0.04129965 0.12655587 0.075520776 -0.10245848 0.06526943 0.1965358 0.03717245 0.030813683 -0.035958357 0.13954952 -0.16289666 -0.26607025 -0.07177215 0.06560919 0.07039613 0.21810123 -0.0040573967 -0.030749679 -0.18074064 -0.09004716 0.13945027 -0.24027933 -0.05918862 -0.022766715 0.009019661 0.008156818 -0.27857333 0.07939779 0.024744261 0.044723313 -0.0026962433 0.06398368 0.0206415 -0.015152138 0.034782823 0.13703889 0.14197256 -0.4058341 0.056114633 -0.29186973 0.303437 0.18794577 0.103182636 0.10107418 0.08190225 0.13559987 -0.054988243 0.1876507 -0.015139449 -0.08569291 0.12643772 0.094934024 0.12681374 -0.05456124 -0.026669944 -0.10729805 -0.033993483 0.051449917 -0.12908928 0.11959117 0.0018999446 -0.21852775 -0.039809927 0.016967272 0.041711483 -0.052702174 0.089042075 -0.06264284 0.009510003 -0.16625646 0.06487075 -0.5366877 0.10968986 0.07279809 0.030640744 -0.10770253 0.24053444 0.112334006 -0.03585116 -0.094550185 -0.014132343 0.19520833 0.061108947 0.035089035 0.2991006 0.17217667 -0.12920111 0.08761459 -0.09481225 0.034055937 0.026107978 0.16001014 0.20458439 -0.20550181 0.21130922 0.10619635 -0.010748029 0.13401599 0.07532873 0.027398309 0.14246559 -0.003274248 0.02318058 0.106125474 0.039577525 0.013307409 0.22565901 0.08519511 0.15136994 -0.009652428
-0.06254458 -0.088043995 -0.053700604 0.055224176 -0.00028585046 -0.07020372 -0.020521699 -0.054139685 -0.06269658 0.019901162 -0.0073973686 -0.016508231 -0.0494682 -0.04395265 -0.004604106 -0.0018833841 0.049338076 -0.038515773 0.0053047966 0.016375566 0.0104909865 -0.074738234 -0.0937431 -0.023136215 -0.035319768 0.0065270127 0.048840594 -0.041595474 -0.058081184 0.052393176 -0.056084044 -0.07136244 -0.112972386 -0.057070635 -0.084006675 -0.0014974985 0.015249473 0.014123303 0.06773532 -0.022405831 -0.083460115 0.045638736 0.017352194 0.027290596 0.0398327 -0.014046218 -0.051685907 0.014719483 -0.076536685 0.018932536 0.031156285 -0.13448256 0.103987336 0.008244768 -0.057745334 0.002491799 -0.039353635 -0.052026864 -0.032526992 -0.021842448 -0.088781655 -0.025264747 -0.09847977 0.038799215 0.03095427 0.017316664 -0.014252996 0.0439293 0.04457706 0.018186063 0.038339958 0.06341881 0.06764878 -0.08696925 -0.0580053 -0.09221339 -0.009480837 0.04670209 -0.066519104 0.07355878 0.013522085 0.058391817 -0.08136615 -0.059596524 -0.08453332 -0.07087585 -0.03225813 0.038854014 -0.03508355 0.012879224 -0.05083202 0.023223748 0.0309174 -0.076172195 0.06293558 0.02782112 0.026189616 0.019430012 -0.049201574 -0.08898322 -0.0025041073 -0.122594625 -0.093486585 -0.013114016 -0.01897525 -0.02578533 0.08807017 0.086463414 -0.02409686 -0.09401275 -0.10495094 0.011539206 -0.08975737 -0.07543331 -0.09361844 -0.076304115 -0.04203913 -0.02110432 0.054140702 -0.013305614 -0.07082967 -0.1230312 -0.079447724 -0.05098764 -0.023139738 0.1138566 -0.02103709 -0.00022075282
0.053273935 0.045248333 0.25718483 -0.06283727 0.130793 0.010048036 0.1621192 -0.40394813 0.09219388 0.044437397 0.13072523 -0.078050114 -0.011580009 0.13193096 0.092644945 -0.27037844 0.088787176 0.068573155 0.10846111 0.021994075 0.20897792 0.05929156 -0.014080099 -0.20021501 0.07828115 0.09908983 0.16686842 -0.14495178 -0.0123391915 -0.2873865 -0.07706262 -0.14106901 0.07069135 0.2652867 0.027857438 -0.086663686 0.30533066 -0.040821273 0.1159679 -0.028588427 -0.13897857 -0.019742047 0.03895914 0.1610465 -0.200797 -0.10454421 0.07159939 -0.024974123 -0.05666379 -0.16546851 -0.010400516 0.10964065 0.10164639 -0.057179358 -0.03310272 -0.084402695 0.16421112 0.18796639 0.11537877 0.1055434 -0.051012956 -0.027130697 0.08673256 0.022085248 -0.0031885651 0.2563029 -1.344824e-05 0.043300204 0.069408864 0.028241232 0.042159755 0.13606763 0.15498112 0.10151431 -0.007706247 -0.055847723 -0.16098492 0.112207934 0.12192925 -0.024156868 0.11191462 -0.051648296 0.28993297 -0.3398674 -0.050347894 -0.07039194 0.19589202 0.13371779 0.067509264 0.044019688 0.05915851 0.06070873 0.08999768 -0.08755475 0.057794712 0.007492071 -0.11598438 -0.16814616 -0.031238819 0.16287646 0.19876604 0.11192455 -0.05476053 0.1318183 0.014619537 0.04446243 0.16591214 -0.06929846 -0.04028027 -0.07018687 0.10504961 -0.36526 -0.07912947 0.073544085 0.08022103 0.1397658 0.14282717 -0.15172125 0.006958076 -0.111397944 0.0187553 0.03834705 0.057206683 0.13935271 0.22348294 0.0213546 0.017599141 0.23096038
0.06418091 0.12957779 -0.06948391 -0.07592485 -0.009444343 0.08080736 -0.05726371 0.09759992 0.009787888 0.008724728 -0.3447083 0.10790578 0.30185536 -0.040834505 0.1153557 0.13436265 -0.15646946 0.043106206 0.050728187 -0.018226948 -0.038968217 0.18266271 0.06277944 0.21606982 0.25256777 -0.103498615 -0.10528694 0.2312706 0.060283206 0.2254937 0.23539156 0.012294382 0.10101837 0.13788044 0.14288954 -0.005929872 -0.13953304 0.024759952 -0.088202134 -0.09742814 -0.06936743 -0.08725349 0.018398717 0.15478362 -0.020362442 0.21103954 -0.13911302 -0.008866386 0.037783097 -0.028446931 0.052661423 0.013425035 0.15192138 0.09585349 -0.063006476 0.008648197 -0.0026349223 0.19161457 0.018620227 -0.05714913 -0.084174745 -0.012900963 0.12552308 0.0921297 0.13465232 -0.26399347 0.23131338 0.062392797 0.04328637 0.1731312 -0.18648677 -0.20328888 0.20710078 0.04065943 0.033489518 -0.14769867 -0.04508243 -0.15130424 0.017862998 0.0718631 0.24013694 -0.07986475 0.023623437 0.1396281 0.1160202 0.0008424776 -0.002486992 0.13568215 0.09196878 0.312697 -0.21335882 -0.0389739 0.28691652 0.086620025 -0.06863535 -0.14517708 0.10288324 0.022223618 -0.02260916 -0.038338356 -0.042576067 -0.049351152 -0.0044190604 0.04149799 -0.021229098 -0.16626254 0.10418012 0.031018017 -0.03565763 -0.051859975 0.086015284 -0.02621397 0.089109026 0.005251023 -0.07973285 0.021983184 0.085674405 0.09373887 -0.0019662594 0.16707547 0.018677752 0.13678607 0.039556682 -0.1087295 -0.24097605 0.11286909 -0.035761785 -0.21084489
-0.049184393 0.07595004 -0.046953626 0.12190083 -0.067248814 0.026488947 -0.04951669 -0.13472897 0.0016412647 0.044223394 -0.15117571 0.04287139 -0.21688834 0.019050175 -0.20655939 0.0037329118 0.07242037 0.085267656 -0.11118431 0.079509504 0.012020498 0.06790397 0.1132845 -0.011332729 -0.3979622 -0.005037613 0.09773319 -0.012608062 -0.21275987 0.006653078 0.01625308 0.007076815 0.043788716 0.14343582 -0.00834493 0.09089908 -0.2445743 0.008459017 0.102230884 -0.04283229 6.98218e-05 0.087368004 0.07546843 -0.05696639 -0.08637796 -0.14549504 0.07486644 0.09847279 0.0020729988 0.02493712 0.06318455 -0.009680847 0.0719043 0.039425887 0.23452897 -0.107568756 0.10076517 -0.18278955 0.02742422 0.097867556 0.100887656 -0.05501639 0.052182868 0.15062554 0.01937581 0.031629384 -0.12517999 0.07949628 0.05925014 -0.2789927 -0.029620726 0.14391577 -0.22393653 -0.023943394 0.10603149 0.087173276 0.09909366 0.06981768 -0.09225394 -0.046359275 -0.20647289 0.09791299 -0.013508608 0.30417192 0.0086081615 0.035712108 0.004101096 -0.15821561 -0.07538204 -0.2140457 0.08190379 0.077856034 -0.10032373 0.013920656 0.006715157 0.03888762 0.040356234 -0.017147 0.03243713 0.1569601 -0.08110442 0.028094042 0.23999386 0.13816687 -0.12815487 0.11424488 -0.29868722 -0.07324417 0.025851952 0.12437082 0.033813607 0.18731394 0.17885786 -0.023267094 -0.0023150248 0.08020356 0.15056825 0.08297766 0.082525946 -0.078507684 -0.068718106 0.056398343 -0.12110174 0.07597651 0.03515924 -0.07806525 -0.020499242 0.16745438
-0.06363176 0.018568873 -0.078014165 -0.040111873 -0.06195693 -0.06350925 -0.101402424 0.16734266 0.10709321 0.044524014 0.053526856 -0.08473261 -0.052558724 -0.0873666 -0.108182415 0.06836362 0.18706955 -0.083603196 -0.104510374 0.0733649 -0.038905866 0.15713146 0.14013818 0.08334266 -0.26294175 0.14896965 0.10110453 -0.16367143 0.06396649 0.07124508 0.019758401 0.016115459 -0.1796032 -0.1857955 -0.11176263 0.18854192 -0.18016528 -0.0056221597 -0.035905953 0.0044902875 0.24469902 0.14295931 -0.08709631 -0.1320034 -0.013503931 -0.15257673 0.17270878 0.02784726 -0.08246674 0.06894821 0.06432414 0.02468036 0.06694496 0.11807383 -0.002688159 -0.03354123 0.09861719 -0.11727381 -0.18799812 -0.0062436885 0.12025099 -0.039356273 -0.11414976 0.0733901 0.014962331 -0.09078736 -0.10996654 0.027825223 -0.07240547 0.029461142 0.068798155 0.24291857 -0.08914386 -0.0594099 0.071961 0.221776 0.16195285 0.068860516 -0.108904764 -0.06447151 -0.05996903 0.03197702 -0.1184823 0.40998057 0.005510088 -0.06304711 0.049501117 0.1075917 -0.09184529 -0.2232465 0.11971078 0.084440224 -0.18464564 0.10934841 0.1405507 0.19852802 -0.0045647775 0.18862636 0.050636087 -0.033889566 0.016542751 0.15819696 0.2661038 0.06619497 -0.006213891 0.12500447 -0.15816857 -0.03915944 0.05762192 0.09032053 0.1482809 0.3730123 -0.108443804 0.012932802 0.14222468 0.012568871 0.032188684 0.06382861 -0.05542145 -0.18853661 0.004556856 -0.052523274 -0.15066801 -0.06320684 0.0101351375 -0.09268131 0.19387674 0.02219246
-0.11413475 -0.049743462 0.0743501 -0.034108195 0.010860779 0.028875332 -0.010750772 -0.004207286 -0.03827401 -0.059857663 -0.038376518 0.019180397 0.038033783 0.032857664 -0.0025962926 -0.05413944 0.0042985417 0.0026026182 0.05052701 -0.039549354 -0.047565904 -0.039492756 0.025432762 0.008800008 -0.061850805 -0.06819813 -0.06558922 0.052970085 0.04295675 -0.039051656 -0.03347314 -0.081604816 -0.011509493 0.023799721 0.020700919 0.044667657 -0.001966189 -0.022723041 -0.018747693 0.046596557 -0.11102269 -0.078129455 0.02480024 -0.045880158 -0.051865924 -0.06693126 0.035740837 0.039637893 0.0014207335 0.0488657 -0.07282518 0.047683418 -0.08950529 -0.016254384 0.009256549 -0.0073198127 -0.09867785 0.016638108 0.058311153 -0.004387717 0.02426793 -0.025672585 -0.09852441 -0.053814128 -0.030224668 -0.05481851 0.05342815 0.038139902 0.031209273 -0.0036676289 -0.020212816 -0.060384545 -0.043878302 0.066333555 -0.0070346952 0.06645659 -0.07671026 -0.05195607 0.03601339 -0.091059275 0.025177427 0.02738082 -0.10282701 0.05382123 -0.0145499455 -0.039435275 -0.09141026 0.016180122 0.06024345 0.010454313 -0.04078691 -0.044265013 -0.03846793 0.0065963054 -0.045852933 -0.041786537 -0.047202896 0.021793956 -0.067041166 0.023261499 -0.032355517 -0.06420438 0.044974655 -0.06294566 0.041179385 -0.04447299 0.03233568 0.053971328 -0.0864121 0.0285217 -0.0364393 -0.089878775 -0.10207593 -0.08069968 -0.03206459 0.0037668934 0.053128358 -0.002276162 -0.001629687 -0.030465879 -0.06250493 0.05021256 0.020603228 -0.037515633 -0.023178898 -0.097271346 -0.02114657 -0.035702717
-0.0143035 0.0071540703 0.28652027 -0.18348904 0.017339386 -0.039873 -0.017466486 0.17575733 -0.034736186 0.12307355 -0.30041856 0.22181398 0.04755851 0.14066564 0.026065398 -0.06865996 -0.14522105 -0.039769094 -0.14457972 -0.017725052 0.19608282 0.15158263 0.121822715 -0.30192417 -0.1146957 -0.29458335 0.118525475 0.117728285 -0.024596844 0.050969552 0.21956584 -0.15740882 0.11907566 0.13493991 0.14394952 0.053428028 -0.06553014 0.034469288 -0.10916276 0.1245315 -0.00749853 0.07487833 -0.0335287 0.20253643 0.019781927 -0.09537867 -0.068108164 -0.011236148 -0.06142891 -0.026933307 0.0049319374 0.013421222 0.21146865 -0.03063145 0.15568252 0.298641 -0.028159358 0.15019482 -0.03942394 -0.08795332 0.107143946 0.09645656 0.13301326 0.07461687 0.030458787 -0.31718782 0.05149419 0.107564315 0.080226704 -0.18419755 -0.20320813 0.067775674 0.031809192 0.049040463 0.115855545 0.11018335 -0.017715761 -0.1556795 -0.015808646 0.249772 0.009024141 0.034291428 -0.0983091 0.23299743 0.11152262 0.0010410199 0.08893496 0.1279653 0.05374123 0.4005396 -0.041662578 0.09627998 0.15798159 0.18854061 -0.056308042 0.015471708 0.11226526 -0.07232035 -0.06681329 -0.06005357 -0.15693212 0.07446314 -0.021981405 -0.057707068 0.020597227 0.05188778 -0.08318968 0.035791427 0.08860338 -0.0032459437 -0.25213057 0.14415237 0.13993865 0.12969735 -0.034789264 -0.007351272 -0.040448107 0.106475525 0.17743547 0.12915984 -0.0073822127 0.15230623 -0.021516265 -0.11806858 -0.2142936 0.017677726 -0.04138543 0.109541126
0.09288916 0.00539137 0.20739219 -0.0038490244 -0.060659025 -0.026764456 -0.1379748 0.21981028 0.043636933 -0.065884225 -0.19913834 0.059312694 0.110891216 -0.03944121 0.23186837 0.0604957 0.061752807 -0.034854513 0.050887607 0.013923604 0.15613131 0.03041871 -0.015490293 -0.12526152 0.069141954 -0.18401973 0.028820409 0.049615253 0.2666857 0.25396964 0.11062013 -0.097062685 0.05589056 -0.006087128 0.07914457 0.12718774 0.4808126 0.01968772 -0.10519368 0.24917693 0.020712504 -0.043460496 0.027057769 0.13269173 0.36854807 0.25428832 -0.043578193 -0.10159451 0.024976015 -0.1094626 0.01181007 -0.024251398 0.055060618 -0.033143643 -0.06625251 0.32972592 -0.10077044 0.26385868 -0.11273362 -0.03624664 -0.047617756 0.041165598 -0.04177477 -0.00747336 0.15563421 -0.15340069 0.10529209 0.10659948 -0.06110865 0.008197881 -0.18278846 0.086005636 0.08941187 0.015355237 0.0764378 0.019977635 0.13553533 -0.11258837 -0.08191859 0.28840026 0.088392 -0.0128083415 0.0107749235 0.0090494165 0.09213912 0.07665237 0.046905138 0.06608184 0.0020652043 0.46656537 0.027449727 0.011192032 0.20978819 0.06434361 0.002305352 -0.071430735 -0.013901313 -0.021727113 0.0637653 -0.0343422 0.0072031147 -0.11319307 -0.055086777 -0.057768676 -0.042989455 -0.08873334 0.076394685 -0.02874199 -0.01653623 -0.043780915 -0.07555462 -0.05958754 -0.13782857 -0.05643824 0.1265863 -0.03644589 0.06562105 -0.07187008 -0.02518078 0.17355312 0.015397203 0.070820525 0.03494313 -0.118365444 -0.29494187 0.12005292 -0.10668939 -0.07998478
-0.060743023 0.1768646 0.04313694 -0.11744316 0.10837567 -0.020351391 0.04877702 -0.2021821 -0.057708085 -0.0033014002 0.16860624 0.1263044 0.07618962 0.07104815 0.15876538 -0.24284677 -0.0892972 -0.1727056 0.117776185 0.13405815 0.15629408 0.026880777 0.07725419 0.081067316 0.33662197 0.34706423 0.038605515 0.10086429 -0.17412908 0.046211842 0.073016286 0.07683947 0.01519018 0.18494013 0.14093284 0.010873823 0.28358358 -0.08465521 -0.1041759 -0.07956409 0.069547474 -0.05834507 -0.0120442975 0.08071751 -0.07719483 0.22964525 0.051549956 0.10651278 0.07242841 -0.22995742 -0.031918168 -0.046596024 -0.009401904 0.054364868 -0.08065992 -0.14408965 0.12745449 0.15708473 0.07459243 -0.08008056 -0.026674666 -0.077983975 0.054323073 0.06494574 0.07100124 0.14759782 0.17354494 0.02207095 0.08423896 0.19141507 0.14089234 -0.13112761 0.3390112 -0.02448472 0.032722555 -0.12357897 0.15820664 -0.21667054 -0.051430587 -0.02917355 0.21942268 0.025184453 0.15870598 -0.099839345 0.080768794 -0.064514965 0.07462364 0.21113014 -0.07673475 -0.011854494 0.04089369 -0.08178524 0.07881911 -0.018496701 0.0408989 0.06437864 -0.10343885 0.1764737 -0.010120258 0.10555899 0.08946139 -0.033542793 -0.032425176 -0.022289244 -0.11588008 -0.020177528 0.22847222 -0.05599045 -0.08404759 0.113956906 -0.06647517 0.064291395 -0.038454186 0.0044254926 0.07903583 -0.050175577 -0.0699585 0.09321051 0.054592207 0.1284862 0.0766799 0.16158357 0.1425967 -0.072977744 0.15415953 0.11800282 0.18295723 -0.021431489
0.1254917 -0.12330404 0.051723085 0.024035215 0.0013814142 -0.05862329 -0.06772048 0.38058326 -0.038413588 0.039296083 -0.019066606 0.01823303 0.3837211 -0.03748151 0.089405805 0.09510994 -0.031514924 0.020532882 0.049911033 0.07023373 -0.04587246 0.0075403843 0.051048845 -0.010734241 0.0030056199 -0.10186952 0.09407854 0.08130464 0.22275537 0.36636195 -0.009628918 -0.14976579 0.07695705 -0.15937214 -0.20456383 0.17940487 0.20695539 -0.051996883 -0.07064015 0.12215687 0.13601038 0.17280927 -0.047140583 0.08446708 0.112809315 0.09609802 -0.061697952 0.14744313 0.06321357 0.018547166 0.047047958 0.018983837 -0.025309125 -0.003219102 -0.14248402 0.36367786 -0.104627 0.3001205 -0.29679006 -0.08129343 -0.054689113 -0.0038823423 0.049147863 -0.03300786 0.0756915 -0.064349785 -0.046392288 0.08186219 -0.008160254 0.15301102 -0.07071901 0.13453108 0.058823273 0.057664126 0.17205113 0.13218886 0.30879346 -0.10367176 -0.11128262 0.25753456 0.062934905 0.08462521 -0.12202111 0.12494792 0.042581823 -0.075994395 -0.08892432 0.17779821 0.04712534 0.6262436 0.03895707 -0.09800592 0.06899248 0.12420261 -0.13626263 0.08514364 0.120052025 0.17413297 0.10179139 -0.16741939 0.013731755 -0.013934986 0.021003835 0.03465016 0.22845973 -0.016465824 0.18752891 -0.05066024 -0.004945266 0.03460939 -0.15840021 0.25707233 -0.12086397 0.10388266 -0.0060803867 -0.031142179 -0.077465266 -0.019699046 0.035548843 -0.0012079556 -0.03449927 -0.20232834 -0.09149763 -0.095722094 -0.16594103 -0.036966838 0.0043498296 0.012563294
-0.028690986 -0.024096513 0.13501607 -0.122367874 0.09469833 0.015113862 0.114925966 -0.07103285 0.118361115 0.06743276 -0.03103245 -0.12553638 0.17782283 -0.085232645 0.37198848 0.03284662 0.076586224 0.04446393 0.026817068 0.008347026 0.30795917 0.058438435 -0.0011191748 -0.14234327 0.18564577 0.14652301 -0.014806971 0.08690894 0.33701703 -0.14130169 -0.10295783 -0.08325838 -0.038740158 -0.112793356 0.0036463174 0.021574933 0.25725996 0.017573649 0.14323562 -0.04646584 0.17813145 0.08036293 -0.10195268 0.11228487 0.13361284 -0.11098856 0.09953505 0.026634736 -0.016604593 0.022439267 -0.031681694 0.10026861 0.023947502 -0.05879023 -0.015548353 0.23453325 -0.017895956 0.14097928 -0.15519129 0.045827735 0.060148414 -0.056308027 -0.008265668 -0.13180694 -0.11799767 0.18959673 0.022325816 -0.03549068 -0.028869284 0.3185199 0.022321405 0.20671971 0.37151316 -0.092640735 0.07545679 0.050915465 0.014591261 0.031386815 -0.02227695 0.087076336 0.27675933 0.033017337 0.048836917 0.025733616 0.025280293 0.04934653 0.022869933 0.2952356 0.022191498 0.48279092 0.21730632 0.0692323 0.15660523 0.0002449533 0.05379542 0.17542039 -0.08849583 0.04453335 -0.14929879 -0.11843769 -0.09832222 0.07348236 -0.11690331 0.09201802 0.22958668 -0.021823758 0.13684124 -0.046290286 0.052378602 -0.016484842 0.14782311 -0.1530892 -0.054102693 0.07186563 0.19661266 -0.0006616202 -0.07960992 -0.24276462 -0.0826169 0.021221668 0.07877723 -0.07049769 0.13597316 -0.042214945 0.19565725 0.10589988 0.12950616 0.22868507
0.0015825339 0.20066081 0.075844646 -0.23595516 0.0074444264 0.054584797 0.04419325 -0.2373301 0.038814873 0.15193707 0.24639487 0.07514615 -0.32195303 0.17969647 0.09321621 -0.2671565 0.005370785 -0.048616756 -0.0071224635 0.09792032 0.08589202 -0.023350114 0.030978195 -0.11257607 0.012193951 0.15075791 -0.05823528 -0.021609295 -0.13286944 0.053885087 -0.14854518 -0.011603125 0.031398416 0.051631805 0.22968109 -0.15755297 0.12662417 0.009048591 -0.031331565 0.11880446 0.019940902 -0.055015143 0.0955168 0.15273286 -0.10193057 0.13740762 0.054082897 -0.018036094 0.026694866 -0.40087625 -0.004538369 -0.08083785 0.1593562 0.14957246 -0.10126019 0.017554088 0.13825616 0.03517392 0.19460109 0.01674298 0.07691413 -0.02357845 0.09591931 -0.05096142 0.056479506 -0.105973616 0.12506641 0.089726806 0.11514221 -0.35142696 0.028339647 -0.031705424 0.0923658 0.20664726 0.0046290066 0.050554585 -0.006858186 0.02781092 -0.044268683 -0.031885803 0.12744045 0.074094154 0.16607311 -0.12761617 0.12110275 0.012843121 0.04870369 -0.00038319526 0.07938995 -0.29664186 -0.041529577 0.11108981 0.042967957 -0.021679895 0.1332154 -0.11249893 0.017089548 -0.019378519 0.1913368 0.04267465 0.19706523 0.12150091 -0.018799402 0.11517656 -0.04136485 0.02205496 -0.045996625 0.011797467 -0.041766554 0.09773611 -0.218363 -0.16530399 -0.06918593 0.10075722 0.09668804 0.009129038 -0.16978604 0.0072512734 -0.088000014 -0.15956447 0.0429274 0.049452234 -0.026831489 -0.0747182 0.0934984 0.12419328 0.07303643 -0.019562835
0.07822664 0.031115126 -0.021510048 0.10267767 0.091445595 -0.053883564 0.09163204 0.27553058 -0.01185259 -0.072858594 -0.06214153 0.08390618 0.15533204 0.11333127 0.07445398 0.034341093 0.08602285 0.1864966 0.10518695 -0.10389965 0.14410837 0.07960067 -0.05267207 0.0988585 -0.10198999 -0.20300208 -0.09790493 0.14953598 -0.023732143 0.030570315 0.16866681 0.068439044 0.19032498 -0.091250375 0.0965932 0.10442534 0.091758184 0.072474696 -0.14292976 0.31348878 0.039680008 0.09728818 0.04520572 0.14380182 0.23572028 0.2796009 -0.15559776 -0.050823633 0.09153194 0.013734504 -0.031151978 -0.1549919 0.0022562786 0.039136562 -0.02674724 -0.0054862387 -0.14092079 -0.088488914 0.20356171 -0.12156743 -0.057697345 0.13719869 0.07541431 0.02983737 -0.07522115 -0.0863029 0.11794855 0.056594767 -0.088007934 -0.05875861 -0.0825799 -0.010109518 -0.056159962 0.08007469 0.09608106 -0.09323821 -0.3678161 -0.0390443 0.22295925 0.031380173 0.04376791 0.004242554 -0.015697135 -0.2250539 0.10486921 0.039093807 -0.22851437 0.20867138 0.010355475 -0.045851875 -0.07876776 -0.06550287 0.08746867 0.12456275 -0.082191445 -0.2062065 0.06464405 -0.09260482 0.06748378 -0.10499568 0.050110675 -0.08211057 0.040797625 -0.017880114 0.17368066 0.04892697 0.315812 -0.07274274 -0.040461373 0.02952766 -0.07001376 -0.08812805 0.072159424 0.07464259 0.033164 0.08547136 0.103260644 -0.09646118 0.15816164 0.10585746 -0.06460555 0.029579684 0.0013448804 -0.01705885 0.038013566 0.02779244 -0.026405629 -0.15694445
-0.094388396 0.069361 0.17455426 -0.14751254 0.013099452 0.056192208 0.089668766 -0.24079645 0.11836557 0.028420918 0.183511 0.028981144 -0.22957548 0.0765395 -0.08689199 -0.14815843 -0.0238867 -0.019631015 0.033402257 0.09881422 -0.107299626 0.051385768 0.14136551 -0.07674403 0.004180421 0.26968107 -0.016161738 0.01302978 0.09176525 0.083334856 -0.06419996 -0.05725799 0.03777786 0.026859228 0.16421647 -0.09193055 0.29968628 -0.05708017 0.164948 0.16648033 -0.08440147 -0.13444187 0.05878395 -0.075860836 -0.012221147 0.007095839 -0.03934966 0.007759947 -0.035413027 -0.2571545 -0.08407649 0.15895082 0.09000184 0.06945772 -0.25948602 0.1775018 0.09016523 0.24188069 0.07687419 -0.15240215 0.024617026 -0.09421738 -0.01329164 0.04149114 0.0706621 0.09138278 0.16300935 -0.026711121 0.115729794 -0.103398904 0.15719472 -0.023150606 0.1301809 0.1032049 -0.049268432 0.026461158 0.3754478 0.090698145 0.002521301 0.22777238 0.026374036 -0.10463696 0.017632004 -0.044470306 0.08508427 -0.06714618 0.14403607 0.017567636 -0.020535612 0.15724769 0.0017804186 -0.0056148455 -0.027950542 0.027655747 -0.052564252 -0.03516267 -0.10035334 0.104075015 -0.09032289 0.17607252 0.077754475 0.09614755 -0.1871545 0.016069433 -0.30104145 -0.020376055 -0.013321206 0.013465094 -0.00026594667 0.13735624 -0.07995996 0.03463475 -0.082327016 0.023098633 -0.08046071 0.13674511 -0.020704353 0.13097417 -0.0111613525 0.19653581 0.016723754 0.09023856 0.13100408 0.056786716 -0.19654146 -0.033023037 -0.09406517 0.048609253
-0.17263708 -0.01605685 -0.0027381398 0.1242647 0.074494 0.066117145 -0.20379153 -0.07794931 0.027991747 -0.094214 0.070915215 -0.043648876 -0.19255841 -0.091854356 -0.118594475 -0.11623001 -0.011737323 -0.040325664 -0.13653867 0.032805733 -0.086086094 0.11750559 0.108594686 -0.011386832 0.03325459 0.0907962 -0.060492888 -0.20100556 -0.104640186 -0.028850494 0.15376297 0.085215494 -0.0842646 0.091234036 0.1151759 -0.0074465196 0.04685553 0.058880664 0.06331001 0.009406261 0.032704595 -0.03924897 -0.11908066 -0.19258736 -0.007506254 0.10098898 -0.04209266 -0.027037706 -0.053085484 -0.04112255 -0.020606786 0.07056279 0.022729326 -0.037794344 0.0059216493 -0.20817044 -0.08422741 -0.20052017 0.079552874 -0.08451403 0.07312823 -0.0339819 -0.083113186 -0.061560273 0.20168914 -0.012880647 0.1449456 -0.09085238 -0.09494509 0.23029591 0.14604321 0.072638035 0.014183538 -0.17929381 0.047924455 -0.119731456 0.06552582 0.03180351 -0.020522818 -0.1840385 0.21243346 -0.054672867 -0.16267663 0.18434076 -0.008362725 0.038497616 0.14407653 0.0052314396 -0.089371696 -0.19179623 0.1419735 -0.090556964 -0.011526622 -0.106338486 -0.030891964 0.11692585 -0.27099577 0.025508583 0.11968044 -0.035548285 -0.08793603 0.09797202 0.033582926 -0.03128705 -0.20766681 -0.09790315 -0.09067807 -0.017823145 0.0036773863 0.110755794 0.12903981 0.10177281 0.09639988 -0.11641279 0.0073531233 0.0059984117 -0.009845096 0.1172919 -0.1009654 0.027062241 0.06570675 -0.12494339 0.083137244 -0.019338083 0.023378469 -0.1560514 -0.07312502 0.02691072
0.05981751 -0.11515848 0.14051367 -0.2694328 -0.16060406 -0.07269827 0.008062305 -0.011483302 0.00057581306 -0.0016141154 -0.19729453 0.21816532 -0.03486314 0.053349223 -0.117763616 -0.18898988 -0.09515359 -0.1825934 -0.10801224 0.09493389 -0.0067139864 0.17468353 0.13309088 -0.2816204 0.021054346 -0.08530072 -0.061580595 0.095073804 0.13797581 0.018785093 0.17925474 -0.10764667 -0.012092037 -0.07776709 0.07491391 0.08397293 -0.31728813 -0.043729324 -0.07277898 -0.061783772 0.16389154 -0.045593396 -0.11566064 -0.06177035 0.031893842 -0.12993766 0.075204074 0.11853996 0.083519675 -0.14698894 0.019412998 0.10348363 0.13192211 0.02751344 0.1494969 0.082416564 0.043670062 -0.03374383 -0.0761863 -0.1379352 0.07371426 0.124492094 -0.090293355 -0.090887345 -0.11695294 -0.32236087 0.19829185 -0.019826751 0.08435716 -0.0304843 -0.066951916 0.25150692 0.13155626 -0.10035189 0.039136685 0.26117113 0.053929772 -0.1418769 -0.14616747 0.036681965 0.02542509 0.18817535 0.026774528 0.400855 0.018199505 -0.07013656 0.02266043 0.14615846 0.03238735 0.06664117 0.08286978 0.09159833 -0.09184094 0.19013056 -0.06473848 0.16877328 0.008626013 -0.06050846 -0.094533294 0.09374602 -0.09272969 0.15549305 -0.01842789 -0.013358022 0.004112847 -0.042523075 -0.26855436 0.008045696 0.020070048 -0.0029837403 -0.33301023 0.18978581 0.010638915 0.09484087 -0.027469266 -0.050938684 0.049497586 0.12087943 -0.043264374 0.12925737 -0.037797432 0.2225875 0.12066781 -0.028784309 -0.15904333 -0.036686756 0.09765666 0.16893168
0.028456228 0.09140769 -0.08023151 0.13662869 -0.16223174 -0.091660604 0.03873253 0.14841837 0.107859224 0.07058049 0.0358215 -0.04139633 -0.149868 0.101878494 -0.09075814 0.029743599 0.3401834 0.12584491 0.04027577 -0.032628015 -0.021600744 -0.041821346 0.0471906 0.21358232 -0.19370604 -0.113468885 0.010981596 0.03394453 0.042779382 0.19501877 0.06001019 0.12236557 0.008408643 0.3648987 0.10791594 0.0608081 0.3647668 -0.06998466 0.10270578 0.26287407 -0.2882868 -0.07596833 0.08483788 -0.07140438 0.23818001 -0.030427754 -0.109098926 0.04951845 0.064812385 0.13103794 0.013567269 0.070649296 -0.07709619 -0.009304999 -0.079324454 -0.06943271 0.1308937 0.06581336 0.17961234 0.14307417 0.09384879 -0.092675105 0.039463826 0.016771564 0.111761086 0.007874211 0.12376055 0.044696566 0.09434224 -0.47853956 -0.05515355 -0.042913992 -0.21474613 0.040739555 -0.09489703 -0.17838155 0.11166132 0.080886886 0.10396415 0.026043018 -0.42538977 -0.07893664 0.056026667 -0.28806016 -0.054835975 0.030330896 0.03672222 -0.10832861 0.047140177 -0.12908512 -0.12512851 0.022244083 -0.093406826 0.06356822 -0.024646766 -0.025499184 0.09534659 -0.040056266 0.121454634 0.08967961 0.16378745 -0.10478363 0.009771592 0.083993375 -0.15587653 0.079285026 0.051122878 -0.07945361 -0.008997531 0.040993202 -0.065025404 -0.14798187 0.092080496 0.063651055 -0.13503858 0.11881458 0.08251657 0.056682795 0.05132698 -0.0015263645 -0.008877216 -0.005052019 -0.19973561 0.12818171 -0.27333146 0.019795462 -0.060922444 -0.0864689
0.116516404 0.033981327 -0.005305847 0.12416098 0.03710926 0.077248946 -0.11447649 0.12411499 0.07160536 0.08668886 0.10237477 0.007269732 0.2795177 0.09778373 -0.020770624 0.11882595 -0.10965905 0.0056430474 0.079972275 -0.07001931 -0.18588829 0.01462609 -0.078431085 0.04147869 0.20763777 -0.076025926 0.044500973 0.045049112 -0.079925224 0.059123497 0.040229574 0.16781512 0.04905412 -0.019458154 0.0063273124 -0.037595846 0.10500571 -0.06616516 0.048696853 0.22383128 -0.064679556 0.019481787 0.039370105 0.11244085 0.021115787 0.15749024 -0.075095035 -0.04018162 0.060599633 0.049719375 0.081807666 -0.1060003 0.03829981 0.090060696 -0.12645727 0.11049683 -0.06353368 0.12743922 -0.09116762 -0.0953502 0.049508605 0.034423325 0.108912826 0.02520138 0.1177941 -0.0032515551 0.16061457 0.14043982 -0.03952866 -0.04768263 0.037660103 -0.0855125 -0.008788864 0.24207662 0.10009442 -0.043282595 -0.06564578 -0.04636825 0.13297872 0.16710922 0.0121642025 -0.0826405 0.05109063 0.021616321 -0.0383606 0.01892548 -0.14102718 0.053994685 0.031154182 0.28000218 -0.08782062 0.06985229 0.11162523 0.12269664 -0.039491843 -0.12633242 0.007907617 0.02870605 0.011740863 -0.102379926 0.04839971 -0.05514044 -0.11960657 0.024531987 0.09559326 -0.06545056 0.13154474 -0.06481907 0.049307965 0.0069822646 -0.048109498 0.014933003 -0.0020841283 -0.045782577 -0.03986651 -0.044608872 -0.07786104 0.054630883 -0.068754934 0.014418382 -0.0567962 -0.01190383 0.092223875 0.084267676 -0.1177183 0.04648194 -0.046315756 -0.095281795
0.028691089 -0.3136789 -0.08472648 0.2607034 0.06255303 -0.01849842 -0.04664316 0.33162645 -0.15923624 0.05159524 -0.06824455 -0.037027843 0.35151026 -0.1812717 0.018744191 0.2624318 0.040427852 -0.048422147 -0.14752272 -0.07389625 -0.05590629 0.032907225 -0.06329614 0.057682026 0.11093168 -0.005993224 0.121643074 -0.030397428 0.08086075 0.0018865019 0.098087065 -0.10955941 9.4347844e-05 -0.08678546 -0.25302762 0.2595592 -0.28550568 -0.05195063 -0.21781777 -0.05109357 0.20540799 0.25033945 0.05539082 -0.007251482 0.12880638 -0.08972693 -0.069476105 0.08714208 -0.07431087 0.3404085 0.050385464 0.017715478 0.08996742 0.009682298 0.35137123 0.02313701 -0.05795427 -0.2091108 -0.29067424 0.026335837 -0.046604976 0.13517874 0.09557461 0.068178795 -0.021981347 -0.03619415 -0.098322585 0.0976765 -0.1178161 0.32073087 -0.08343153 0.12786338 0.03497022 0.03860501 0.053691756 0.17653373 -0.010879567 -0.0027043426 0.06979304 0.029844599 0.12757386 0.08088944 -0.1550027 0.40969053 -0.0025079965 0.054396436 -0.17174433 0.14730574 0.019496648 0.03156976 0.041734833 0.050535936 0.10100112 0.016822452 -0.035963185 0.09858729 0.054211393 -0.0076460056 -0.06709493 -0.1847302 -0.18437833 0.0022350422 0.3636908 -0.03390028 0.071684495 -0.054435395 0.040334176 0.09259181 0.07631851 -0.11609823 0.15310206 0.2613606 0.25466582 0.11681836 0.014352772 -0.04707839 0.12275364 0.0040386957 -0.009474486 0.035734568 0.06338042 -0.057668317 -0.10141467 -0.10003037 0.103789955 -0.051899847 0.15562885 0.028087227
-0.06997466 0.138542 0.10049873 -0.08024824 -0.1293737 0.060132086 -0.0058973283 0.066673785 0.0074828602 -0.1264333 0.30471855 0.12817843 -0.044045128 -0.052622277 -0.21865518 -0.26114562 -0.033384897 -0.1559202 -0.11094904 -0.05987508 -0.13466185 -0.11202379 0.034326654 -0.009174735 0.0353151 0.23794559 -0.012120657 -0.022710048 -0.10639651 0.022040175 -0.05562322 0.0531796 -0.054792583 0.20687124 0.108866096 -0.0032152287 0.26975983 -0.029571883 0.024677413 0.050493315 -0.18672067 0.11002958 -0.034835577 -0.25418618 0.22227545 0.07194921 0.08445854 0.122627914 -0.01824241 0.066985875 0.15311457 -0.059111968 -0.20474793 0.12175425 -0.048819903 -0.070386745 0.08225739 -0.23894058 -0.07765373 0.022086922 0.004728407 -0.06909999 -0.04134939 -0.040474243 0.101528995 0.19354126 -0.23657215 -0.026400015 -0.1525674 -0.185862 0.077779494 0.028075611 -0.022163084 -0.11772485 0.042907663 -0.039148442 -0.0068338895 -0.27868015 -0.05665158 -0.12498693 0.06612718 -0.19102135 -0.031899203 -0.10325126 0.021980807 -0.03179101 -0.047694135 0.24711761 0.056190137 0.07110886 0.13334657 -0.03812107 -0.17362694 -0.003029327 0.11292764 0.04088402 -0.12316475 0.039510462 0.059750777 -0.0047167586 -0.2776683 -0.0034820107 -0.10149675 -0.10703636 0.10781527 -0.07714021 0.42692825 0.08056575 -0.03657828 0.0977294 0.0421459 -0.026961036 0.050890557 -0.073803596 -0.0043461863 -0.020113839 -0.043866947 0.03844656 -0.025744872 0.077639915 0.059319675 -0.23554423 0.16276312 -0.16666095 0.16041762 -0.19313659 -0.094240755 -0.031024422
0.13352978 -0.07487384 0.19090681 -0.058758482 -0.048521355 0.022366446 0.11640393 -0.30426562 0.09604242 0.098237716 0.07297642 -0.024765182 0.031468607 0.111245245 0.1386013 -0.160424 -0.1520925 0.023714785 0.002963562 0.11236185 0.011350745 0.0062432494 -0.0006140268 -0.17053364 0.14446606 0.044231378 -0.046523277 -0.07368125 0.30912346 -0.08042135 -0.10615584 -0.15380768 -0.02825663 0.078042254 -0.037999894 -0.04979265 0.1029665 -0.02572137 -0.01312486 -0.01952501 -0.13003038 -0.10371882 -0.08534457 0.004181917 -0.018506728 0.05824919 0.08168273 0.008929215 -0.017902287 -0.022104463 -0.12240405 -0.01640351 0.06903488 -0.09876954 -0.15379687 0.23537946 0.13097356 0.20776568 -0.07381213 -0.048810765 0.07906759 0.061851636 -0.012399355 -0.112908565 -0.059797205 0.17301291 0.08692211 -0.0045594014 0.06953713 0.097235784 0.070476875 0.09155667 0.17574999 0.11046431 0.08907683 0.030069372 0.009440128 0.03386822 0.064457044 0.27463695 0.025959242 0.08084627 0.136148 0.008597684 0.10003808 -0.067057475 0.12751834 0.13110706 -0.058977634 0.24993946 0.08869756 0.059024736 -0.119241014 0.06909061 -0.117206074 -0.009008653 0.023560766 0.16446272 -0.07438013 0.06866945 0.07781483 0.04867007 -0.24549437 -0.0640993 0.023120258 0.11467052 0.100370064 -0.067084536 -0.061455876 0.026088472 -0.111626506 -0.19206537 -0.15501507 0.08097018 0.082093775 -0.05227595 -0.072832346 -0.114558466 -0.14989546 0.060465693 -0.040802352 0.06491577 0.13374227 0.041248754 0.06987414 0.15123667 -0.13766153 0.030287964
0.12652346 -0.029794432 0.2822601 -0.17777103 -0.03980245 -0.017717881 -0.0022339802 0.06460867 0.0730224 0.090509206 -0.050436962 0.08250052 0.22199449 0.014061879 0.2208456 -0.25647455 -0.01581615 0.054776736 0.04709611 0.12582737 0.14793868 0.103979215 0.048303127 -0.2613044 -0.10486252 -0.12339363 0.002436736 0.01813506 0.12093349 0.077589504 0.07897738 -0.11364372 0.03219402 0.1413735 -0.0022177913 0.02974134 0.35132402 -0.06182086 -0.049394403 0.22092378 -0.16734724 -0.06231024 -0.011182068 0.12861891 0.16976358 -0.10752415 0.025564566 0.10708828 0.02388749 -0.08476475 -0.054122135 0.015192377 0.05145417 -0.030886902 -0.09344314 0.43203047 0.025967011 0.17980976 0.0570764 -0.072016396 0.08741824 0.021617394 0.05129599 0.020863535 -0.025908299 -0.07907696 0.10415662 0.11622099 -0.08454694 -0.34449753 -0.07634051 -0.021730727 0.007855113 0.15633935 0.12621914 -0.043947846 -0.1347591 0.06658545 0.012564798 0.14840084 -0.01799348 0.048197307 0.05165148 -0.3252919 0.13951905 0.014755965 0.14500012 0.16416974 0.025646757 0.38261136 -0.013281932 -0.027509592 0.18499392 0.0006037884 -0.0987668 -0.04267514 0.08644979 -0.13967487 -0.002587683 0.019650389 0.012802906 0.111251175 -0.26794294 0.12820287 0.0077127595 0.072986275 0.109705284 0.08467856 0.04181499 -0.03724524 -0.14828102 -0.24277449 -0.07324427 -0.055487417 0.12865002 0.03259568 0.11010993 0.04602417 -0.027561566 0.083935134 -0.039565153 -0.07477627 -0.16383536 -0.041101072 -0.07276155 0.033511356 -0.1510029 0.072534814
0.026695665 0.20673601 0.18660057 -0.2523336 0.12795886 0.047730263 0.04088579 -0.44686177 0.010384275 -0.024405539 0.2658145 -0.03824408 -0.008640431 0.054704353 0.23807697 -0.25904757 -0.05253517 -0.051294312 0.029063439 0.10383654 0.18208413 0.040592697 0.06015738 -0.26099136 0.12583262 0.3806482 0.068389356 -0.17807402 -0.066952735 -0.15361561 -0.10231597 0.08899809 -0.005896109 0.08599754 0.07709225 -0.1629505 0.17600434 0.013456994 0.08762495 -0.09500534 0.08122546 -0.07907685 0.080440246 -0.013988454 -0.15313804 -0.13376081 0.08242711 0.16287124 -0.07347067 -0.1943701 0.059279133 0.10028312 0.03901506 -0.017617626 -0.004314894 -0.085035436 0.1508521 0.15970287 0.11892744 -0.01436673 -0.061370563 0.008172189 0.103550464 0.027088953 0.124281585 0.2784338 -0.025993349 0.05401637 0.13851574 0.13245614 0.16104743 -0.029272689 0.4096461 -0.0056921886 0.02336329 -0.10471489 0.15334827 0.06597077 -0.020059606 0.060198974 0.21323241 0.0720063 0.10313814 -0.11185318 -0.06511118 -0.007623001 0.09371055 0.05390024 0.056143805 0.016460812 0.16930597 0.042457435 0.012392238 -0.08806906 0.07197139 0.14026846 -0.12261874 0.083456285 -0.032845035 0.14866003 0.18554993 0.10713509 0.07221332 -0.016889958 0.0012924165 -0.004934366 0.1584642 -0.06932792 -0.024000743 0.02655242 0.13811085 -0.18088564 -0.06950744 -0.049487103 0.065187395 0.056820408 -0.0069252164 -0.040661767 0.07653477 0.04069045 -0.06175985 -0.06449203 0.042993333 -0.030971408 0.29322657 0.08112308 0.15090284 0.16655873
-0.091243334 -0.12830311 -0.13815731 0.019490967 0.023313288 -0.050966468 0.045273285 0.098733805 -0.021479763 0.09592651 0.18889908 -0.053738512 -0.2937441 0.03183683 0.07269322 0.06696266 0.1776997 -0.05813088 0.01461543 0.15177265 0.22203822 0.06753291 0.12094399 0.08212477 -0.09646545 0.1761386 -0.17414485 0.019565111 0.22396027 -0.2899773 0.11481306 -0.14718737 -0.08923072 0.16510491 -0.06785598 0.11074643 0.10517466 0.049408104 -0.047457743 0.028864862 0.05066553 -0.024953539 -0.095694736 -0.10645289 0.13867418 0.22473332 0.1722136 0.03687004 0.037945118 0.14877535 -0.109825656 0.027827475 0.012284474 -0.048361212 0.044058036 -0.22162345 -0.033560712 -0.16070445 0.3063718 0.23878828 0.066296875 -0.15949203 -0.0020349114 0.024640767 -0.13382263 -0.01312817 -0.10406596 0.05747094 0.12369782 0.21470337 0.076872945 0.16540235 0.09323615 -0.12396333 -0.009537294 -0.014542675 0.03425401 0.07071568 -0.11230507 -0.020838184 0.091201514 0.028857602 0.024160797 -0.011131367 0.017497253 0.078189254 0.06677568 -0.051061556 0.013048333 -0.4594885 0.16259046 -0.07717888 -0.13215461 -0.03468701 0.36073607 0.10637763 0.0015901752 -0.26925674 -0.025102684 0.114092395 0.07826015 -0.055785164 0.38780612 -0.12612377 -0.04698651 0.04126869 -0.06250257 0.05022271 -0.08211147 8.998887e-05 -0.042629518 0.078195825 0.123766094 -0.055601854 -0.0142888995 0.036799207 0.025118914 -0.089348115 0.105973184 -0.034104005 -0.0105647575 0.037094336 -0.038568676 0.11015523 0.3170984 0.12677741 0.25330994 -0.038331192
0.07316173 0.10798731 0.14747022 0.0038578906 0.11038958 0.008598545 0.1728379 -0.43832946 0.15003577 0.16925731 0.06986909 -0.10002714 0.0045243436 -0.035333514 0.051684786 -0.052697733 -0.10660758 0.147171 0.022728499 0.03593101 -0.004649796 -0.08641053 0.003388358 -0.19992676 0.19679518 0.106814675 0.0925996 -0.124254905 -0.13696009 -0.2653117 -0.05289383 0.106455065 0.0074382327 -0.10445774 0.015114399 -0.13282488 -0.41421744 0.03936798 0.1640906 -0.23312424 0.17979749 0.006782275 0.033511292 0.11182891 -0.2000137 -0.2664442 -0.00017100049 0.09852534 -0.05749747 -0.08428622 0.02019984 0.050171524 -0.03234676 0.05195255 0.06452856 -0.04327566 0.17754689 0.023601172 -0.031336375 0.11649263 -0.047585774 -0.004307878 0.024582295 0.08485124 -0.067432106 0.2459562 -0.086912535 0.0013032904 0.04647409 -0.027931347 0.14148422 0.058495756 0.078660496 0.018284533 0.10007981 0.14985773 -0.21936572 0.19257976 0.054099917 -0.0586789 0.057456784 0.119709775 0.17903203 0.09987349 -0.022507833 -0.03413891 0.10312666 0.10831221 0.036327474 0.0048096883 0.013939016 0.13018182 0.045321975 0.05636969 -0.05001521 0.15760155 0.024208209 0.12485333 0.08792526 0.08546785 -0.028468411 0.10183785 -0.09520588 0.093580805 0.044243295 0.1596917 -0.22097865 0.048943106 0.065809265 -0.0057112537 0.10119737 -0.055268154 0.017882472 0.11200085 0.14135921 0.0767815 0.044269606 -0.06532178 0.06354323 0.08552497 -0.062439155 -0.017581318 0.011951696 0.09207462 0.2625103 0.099749066 -0.00926982 0.15345582
-0.01401501 0.04987442 -0.026086036 -0.098193265 0.1260635 0.03185025 0.04553636 0.1201656 0.09941396 0.06506871 -0.024584174 0.14514354 -0.10279655 0.059503704 0.14969611 -0.17311504 -0.0012389802 -0.062484626 0.10345199 0.1391896 0.07026292 0.20757365 -0.0422885 0.024579754 0.088768706 -0.01723304 -0.132626 0.10995045 0.22389796 0.07845449 0.015855454 -0.08735176 -0.07342509 -0.040925115 0.04835114 -0.00071138365 0.20614918 -0.058450658 -0.0051365737 0.15921919 -0.04341512 -0.016915571 0.024656354 0.016637681 0.17997837 0.34196103 0.10357219 -0.09152642 -0.0068285284 -0.043187965 -0.03720184 -0.106202565 0.14010061 -0.053209145 -0.068469994 0.03748768 0.014229529 0.20490728 0.063082464 -0.047714185 0.061487414 0.00581517 -0.03703956 -0.12338418 -0.1276322 -0.16654536 0.20776157 0.07379016 0.06573199 -0.03793754 0.03172127 0.060863223 0.06317269 0.0074740513 -0.0029756448 0.114140846 0.17145045 -0.05901977 0.05286533 0.21649295 0.08668812 0.0418472 0.0041924324 -0.10025974 0.08658246 -0.036434103 -0.0059878593 -0.022264145 -0.05818272 -0.076034695 -0.034204595 0.033616766 -0.04280206 0.05960979 0.13385677 0.06074734 0.07524787 -0.017597381 -0.009348661 -0.036035936 -0.015111516 -0.043871935 -0.041306436 -0.054822914 0.00020154705 -0.10181898 0.05383921 0.02012508 -0.013158903 0.028105898 -0.17454904 0.060606934 -0.12043112 -0.011715645 -0.052795846 -0.04505781 -0.14992729 -0.021076703 -0.025636153 0.09752551 -0.026920578 0.26854113 0.21197931 -0.0068596615 0.087316655 0.13413438 0.15472306 0.020995503
0.02544471 -0.003142381 0.034280766 -0.21879444 -0.09435492 0.073304445 -0.015419125 -0.012731785 0.06244647 -0.02496251 -0.026424905 0.18904753 0.036460884 0.10938238 0.09981698 -0.14094533 -0.050109055 -0.069992356 0.0007071632 0.13785818 0.07736405 0.040455285 0.024606662 0.08708972 0.12920484 0.06231369 0.11005068 0.15629917 -0.10544536 0.19224797 0.05940382 -0.02108043 0.07686 0.35139754 0.26386356 -0.014878285 0.35099804 0.043602977 -0.0048405975 0.23569311 -0.21772984 -0.03342286 0.032248985 0.11423375 0.1372371 0.23523448 -0.010485167 0.046901662 0.0027005833 -0.08443104 0.08165738 0.012083451 0.007373418 0.050451323 -0.10169529 0.12552908 0.09400161 0.44965303 0.07026455 0.024845332 -0.056617856 0.106011994 -0.0071058674 0.046689115 0.14247209 0.014818548 0.26745617 0.011143664 0.07264737 -0.17584683 -0.06983669 0.03545753 0.001987391 0.15939084 -0.021520544 -0.1313111 0.079401426 -0.03358956 -0.018112948 0.13132855 -0.08304743 0.015894523 0.12198966 -0.2347365 0.065146185 -0.010853594 0.03270102 0.040191505 0.06957513 0.13391453 -0.011832425 0.01889358 0.108896874 0.049127266 -0.048102275 0.0019070067 0.03282307 -0.07891784 0.061496057 0.024157144 0.16608596 -0.033244196 -0.1317773 0.0718198 -0.18103996 -0.009804206 0.292619 -0.044167545 -0.033957634 -0.063168086 -0.09209855 0.016618412 -0.081714645 -0.0117759 -0.12262199 0.10168372 0.08980641 0.07935805 0.076364346 0.16603473 -0.014695281 0.12802953 -0.06646311 -0.08835372 -0.29753637 0.04897799 -0.17522474 -0.12938036
-0.05726317 0.07314725 -0.09384794 0.1851656 0.11759523 0.007707536 0.22939533 -0.25074592 0.15190007 -0.07630438 -0.2654669 -0.014931752 -0.06820704 0.07520909 0.036637504 0.32325655 -0.34232965 -0.0017174088 0.08793557 0.11519854 -0.060055926 0.03437607 -0.16752543 0.268296 0.274321 -0.103161275 -0.259309 0.16967246 0.422474 -0.102280326 0.08025533 0.06910621 0.11209319 0.14986503 -0.03887188 -0.16258265 -0.30545923 -0.026486607 -0.012599713 -0.28471017 -0.04377323 -0.20271501 0.00972895 -0.19908284 0.017737634 0.10316531 0.069327526 -0.11580857 0.002874229 0.21313971 -0.21898358 0.08974977 0.061917342 -0.08947214 0.14703578 -0.032514043 0.07753486 0.097546846 0.06671667 0.06457457 0.092726454 -0.055543605 0.030363632 -0.115249306 0.072673105 0.04056052 0.11180487 -0.19320019 0.14744608 0.38107452 0.023398958 -0.06243003 -0.014459074 -0.16129802 -0.08473531 -0.09772299 -0.04321225 0.20157476 0.07527368 -0.031651102 -0.027849162 -0.065230474 0.22668113 -0.046562925 0.1388524 0.07451966 0.13451053 -0.16287711 -0.02778366 0.30504885 -0.043494247 0.024171725 -0.01218592 -0.023260945 0.17757909 0.06303848 0.054151032 0.04364537 -0.04567071 0.18068747 -0.18766253 0.054378852 -0.09815939 0.082681514 -0.11620152 -0.08970441 -0.049750477 -0.048004813 -0.044135205 0.01866519 0.09386641 -0.1451114 -0.012293395 -0.10451076 0.100351974 0.06757822 -0.04673048 -0.07633947 -0.10247635 0.25687158 -0.08587471 0.0196436 -0.03993961 0.10709256 0.018913154 0.10692799 0.039626874 -0.052487325
0.047102917 -0.10791558 -0.14533502 0.07601334 0.009801775 0.020206919 0.16269813 -0.20246567 0.087762944 -0.06259605 -0.327124 0.12811553 0.10507416 -0.016094146 -0.14313951 0.13530147 -0.35552338 0.019041618 0.09478901 0.088752404 0.01247144 0.19699663 -0.033995375 0.18336706 0.2762637 -0.10864521 -0.028314494 0.1704034 0.15449512 -0.05683165 0.18297832 0.04124945 0.03961868 0.013553048 0.14269745 -0.11156166 -0.3406948 0.04142552 0.011737883 -0.21173608 -0.037338246 -0.1427152 -0.040049978 -0.03236431 -0.19445178 0.07290254 -1.2588418e-05 -0.13800456 -0.04417524 0.034825183 0.05259316 0.17344095 0.06512955 0.005503817 0.14268419 -0.11175453 0.10670439 0.15872915 0.016423272 -0.06718872 0.07041856 0.15187497 0.10024514 0.08963568 -0.07461956 0.038841084 0.22814502 -0.15064374 0.043307766 0.20001405 0.005120323 -0.017944958 0.108902924 -0.113068536 0.07231791 0.039297312 -0.26011482 0.12009129 0.20891874 -0.056560926 0.010164772 0.09794754 0.06023194 0.15805745 0.0589469 -0.0136197265 0.07842039 -0.032021213 -0.021236258 0.12746702 -0.110691175 0.08362977 0.15398698 -0.07699016 -0.04735823 0.019024922 0.036166724 -0.058784723 -0.12939239 0.04063755 -0.04420861 0.08644369 -0.039800312 0.00995094 -0.10148426 -0.09761791 -0.07946228 0.024461925 -0.079304636 -0.015232281 0.07047454 -0.18897477 0.16491124 -0.020245334 0.017752752 0.011293882 0.17981535 0.106764995 0.12259718 0.21047598 -0.04731912 0.30889457 0.25031334 0.0664223 -0.257654 0.00053503475 -0.06068218 0.058550987
0.07575916 0.009387863 -0.10584256 0.065167084 0.005945293 0.009296113 0.0386385 0.0016074927 0.07433636 0.0857683 0.040545076 0.045301884 0.033872545 -0.023124952 -0.09345382 0.024941262 -0.3656156 0.007270073 0.12083458 -0.04203855 -0.07815881 0.12991783 0.03436108 3.431497e-05 0.25298366 0.116123416 -0.11036892 0.05474359 -0.08025342 0.12201728 0.04791957 0.12852561 0.059329648 -0.16028783 0.14150374 -0.09064502 -0.23243682 -0.045053337 0.029829323 0.010569253 0.21925078 -0.027460111 -0.015029046 0.021377765 -0.23540357 0.07916034 -0.016884334 0.012155639 -0.018246358 -0.05264905 0.009169253 -0.06464379 0.027117595 0.06429595 -0.06150382 -0.047301374 0.032825064 -0.001760083 -0.1428159 -0.0048236 -0.023417408 0.13661681 -0.02437065 0.11779436 0.04627994 -0.07890895 0.117944404 0.07946523 0.06558314 -0.018248187 0.006518255 -0.19058612 0.07909894 -0.08149384 0.06765182 0.13151123 -0.02276691 -0.16024593 0.07182411 -0.00783927 0.06858582 0.0028550166 -0.0016751393 0.28502536 0.0788921 0.06777878 -0.12642805 0.14400421 -0.05847303 -0.070580386 -0.079421766 0.06474338 0.06145046 0.1810649 -0.059402343 0.023986932 0.041457932 0.10318666 0.078125805 0.101406455 -0.058940478 0.05418496 -0.09999779 0.022138132 -0.036502287 -0.118983336 0.0013347049 0.064322025 0.040887367 0.07762899 -0.017511925 0.269365 0.058621284 0.11400573 0.11162345 -0.0836832 -0.13420527 0.13568245 -0.006252589 0.03168694 -0.02077264 0.04814575 0.20974632 -0.00095791573 -0.00200274 0.054773364 0.11063341 -0.12847371
0.007958257 0.019441053 -0.17610133 -0.14402294 -0.0039681424 -0.051024307 0.08795181 -0.060874052 0.08723513 0.063800536 -0.25875726 0.027427208 -0.16442682 0.019467626 -0.21470384 -0.1583037 -0.1209438 -0.031905677 -0.117583476 0.09750036 0.068008214 0.029345067 0.0815357 -0.17527853 0.15668225 0.08130065 -0.24414025 0.11501097 0.097494096 -0.23890859 0.04498069 0.044378955 -0.04403114 -0.0604658 0.036408756 -0.055433813 -0.07398395 -0.03906266 0.06718152 0.067645624 0.0067186356 -0.049633913 0.0546004 0.034012217 -0.088076055 0.08563005 0.016024558 -0.030146169 0.03685891 -0.034554392 0.11172631 0.066183016 0.06512077 0.080166005 -0.024933906 -0.12330066 -0.023839638 0.020359376 0.06671401 0.10362118 0.038307343 -0.04527944 0.13506432 -0.0094649 0.079122804 -0.13259412 0.0375072 -0.011064203 0.067241296 0.1342785 -0.06956995 0.025530143 0.23665133 0.10803738 0.02555724 -0.11583951 0.22643304 -0.12504786 0.034492593 -0.0085870875 0.020914469 -0.03139988 0.066179365 0.21348053 0.04212854 -0.0051934836 0.029700104 0.009164861 -0.08089066 -0.13245441 0.015958307 0.08051999 -0.0426754 -0.061926242 0.16796145 -0.026025211 0.059865072 0.23900895 -0.13128434 0.0057693105 -0.07582403 -0.07318291 0.042320684 0.046337407 -0.18279321 -0.0021948318 -0.23512797 0.026887378 0.02577518 -0.018279687 -0.20896834 -0.025674317 0.0820757 0.039852004 -0.1416757 0.09710347 -0.24454312 0.016696312 -0.072845116 0.12762348 0.01850951 0.032995377 0.19859208 -0.0009979066 0.17178059 -0.016730202 0.23071223 -0.24915856
-0.0069582886 0.038468383 -0.038473338 -0.08553856 0.109359615 0.046268348 0.056208365 0.07534709 0.10579156 0.14666876 0.10627592 -0.1252181 0.11952163 -0.09684156 0.07192026 -0.041822802 0.033668913 0.014432286 0.07637683 0.02213919 0.10006046 0.13392408 -0.03365862 0.021016764 0.034920476 -0.05787358 0.0812672 -0.123727165 -0.012147838 0.065116525 -0.0638843 -0.028263545 -0.031087073 -0.0796336 -0.039797552 -0.14208771 -0.021525906 -0.08178236 -0.025218107 0.19628981 -0.046592753 -0.099328235 -0.02355655 0.024869064 0.13507216 0.072446816 0.060795605 -0.06290363 0.035582203 -0.1778744 -0.14425923 -0.09429849 -0.021968275 -0.19175999 -0.09160882 0.04842684 -0.028509982 0.10196606 0.004549635 -0.026664663 -0.027052369 -0.05832753 -0.1517587 -0.12585053 -0.14651969 0.020308835 0.017581647 0.0049572284 -0.031063208 -0.1185291 -0.009237512 -0.03046583 0.05559946 0.23515174 -0.07830972 -0.015247979 -0.17149745 -0.025603365 -0.04132194 0.05207965 0.22614293 0.076842025 0.08860173 0.025822233 -0.040438183 0.017992837 -0.09292418 0.14907716 -0.068865664 -0.0118865585 0.009250624 -0.08619458 0.14799495 -0.07086496 -0.17610742 0.029318525 0.06609167 0.020224297 0.117523745 -0.0002889182 0.12298631 -0.05654528 -0.1770789 0.011299265 -0.043618735 -0.07714955 0.2884868 0.05430853 -0.019344518 0.017237071 -0.102216244 -0.1306203 0.0223831 -0.034757596 0.089192376 -0.097216606 -0.104814306 0.0061028153 -0.054158136 0.041850064 -0.034034245 -0.123983525 0.00051899673 0.13581586 0.1622527 0.10959206 0.04086029 -0.095915504
-0.12146762 0.08692218 0.08063327 -0.009194668 -0.027670948 -0.018175717 0.031033905 0.03380535 0.02866276 0.09951518 0.11675624 0.023726217 0.027276697 -0.007500234 -0.033324476 0.08540064 0.021194933 0.037422866 0.05256127 0.022128372 -0.016555231 -0.14999367 -0.032263163 0.11150304 -0.059194874 0.2597487 0.059343245 -0.1578993 0.11032297 0.090313256 -0.018154731 0.13115634 -0.094340414 0.0052190013 -0.00806179 0.08269026 0.17005663 -0.053744286 0.10440682 0.22950493 -0.0449675 -0.115640596 0.11134451 -0.05205162 0.20403625 -0.15950638 -0.005052285 -0.050218675 -0.036602356 0.06301907 -0.030981416 0.18886486 -0.13165039 0.09041529 -0.1317835 0.30926386 0.13594852 0.34314886 0.05205641 0.035385214 0.10987675 -0.109931305 -0.008812276 0.123675555 0.1654069 0.13887542 0.025980871 0.06723345 -0.010622805 -0.069376774 0.029264182 -0.034496564 -0.121402964 -0.0008914005 -0.10538813 -0.06534978 0.1778431 0.051274892 0.05838744 0.035233945 -0.09151012 -0.046218313 0.01466589 -0.03890267 -0.022951387 -0.040252555 0.14485145 -0.035777938 0.03903013 0.32706702 -0.053804066 0.058569163 0.0777564 -0.10332205 -0.17299506 0.10568166 -0.048915055 0.20761696 0.10869724 6.7733024e-05 0.127643 -0.055849325 -0.13545245 0.10836065 -0.15175653 -0.024715088 -0.050775386 -0.055803627 -0.042728137 0.014230378 0.2565896 0.16899979 -0.13011177 -0.06406418 0.11990168 0.02563082 0.08217968 0.15286076 -0.06409856 0.13184485 0.03914233 -0.18094425 -0.11962108 0.017421449 -0.11086236 -0.077195235 -0.1830805 -0.0074005537
0.061257027 -0.013934671 -0.12939644 0.013730365 0.06307344 -0.014889679 -0.09954083 -0.006817052 -0.023784641 -0.069481775 0.08426951 0.059444033 0.098007716 0.008005742 -0.042445935 -0.09566725 -0.089130595 -0.10201044 -0.042656496 0.01649601 0.012445489 0.09311574 0.044536393 -0.054702897 0.19372761 0.20675553 0.08893251 0.11395844 -0.14300399 0.029028134 0.008776819 0.10121304 0.017989028 0.21601091 0.12644589 0.15839186 -0.06375154 0.03222185 -0.1669495 -0.20308736 -0.04533464 0.038745858 -0.0109220985 0.13266367 -0.08176987 0.12498621 0.018068947 0.14399938 -0.024726072 -0.029479582 -0.03400489 -0.098875076 0.15653092 0.12275517 0.115898706 -0.30884996 0.03301138 -0.069653355 -0.21524942 -0.046057746 -0.13568082 0.037301727 0.10365443 0.16276479 0.13295035 0.034948718 0.17564096 0.07461409 -0.025288992 0.27671212 -0.16064708 -0.16038756 0.38462606 0.018201325 0.06261709 -0.12871982 0.2055204 -0.10168338 0.0051633157 -0.13512896 0.24348353 -0.1486665 -0.05084828 0.14477788 0.0055394094 0.020865766 0.02756513 0.1488025 0.017325543 -0.09302441 0.08544962 -0.14808404 0.18761119 -0.016393214 0.025209177 0.06533864 -0.051328134 0.077723056 -0.08906715 0.010718636 -0.13133338 -0.078508675 0.3254568 0.099481985 -0.18307412 -0.0036367283 0.06678637 -0.01806711 0.009283949 0.005408342 0.20191424 0.041271318 0.15103923 -0.00965754 -0.059588738 0.07223325 0.027410693 0.07502838 0.1289084 0.11237197 0.07278993 0.12377177 -0.02633531 -0.1632383 0.08664722 -0.018681277 0.17295218 -0.119287945
0.0017588056 0.060089715 0.071523145 -0.1348577 -0.07576396 0.091454424 -0.13588835 0.016545108 0.016959595 -0.01778731 0.09834496 -0.13161758 -0.13579606 -0.042761076 0.037610848 -0.044132013 0.070720084 -0.12515399 -0.0026276018 -0.03291439 -0.09078707 -0.042776976 -0.015766377 -0.03374305 -0.022680458 -0.083099775 -0.0575328 0.015707048 0.017090606 -0.058343813 -0.07927195 -0.14720763 0.08817623 -0.049173996 0.01038249 -0.087235704 0.022441788 -0.0074422946 0.0020803858 -0.10832102 0.00072951795 -0.038684893 -0.06835373 0.037068713 -0.10027467 0.003717403 0.10591552 -0.0678736 -0.0018650595 -0.0010019048 0.044838037 -0.108058624 -0.117071606 0.00839156 -0.04206687 -0.07336187 -0.07048146 -0.019873643 -0.0691062 0.037275612 -0.08554392 -0.012437762 -0.09489198 -0.122414514 0.009056972 -0.03755353 -0.063511856 -0.04618855 -0.011519913 0.03999451 0.029501026 -0.003472984 0.003302308 0.0016153211 -0.03482931 -0.07658958 -0.11927827 -0.09762851 -0.034086373 0.04713152 0.04831202 -0.10512512 -0.059007686 -0.06531305 0.00317362 -0.042301025 -0.033039853 0.12721969 -0.030093644 -0.02952872 -0.014329248 0.0347313 -0.045892525 -0.1431965 -0.15275872 -0.0052953274 -0.06870146 0.027221806 0.07996732 -0.0452507 -0.03192885 0.012380003 -0.0075425636 -0.056309085 0.04290596 0.022435233 -0.048722424 -0.021957012 -0.0065889526 0.03428806 -0.033825103 -0.03468642 -0.041655116 0.03892783 0.07285618 -0.059989158 0.035486564 -0.08476932 -0.07296326 0.004090876 -0.041523863 -0.05277093 0.009357168 -0.14234355 -0.061068702 -0.08692686 -0.0029922898 0.025553415
0.087339036 0.019049685 -0.004678058 0.23067535 -0.09370931 -0.050647635 -0.03254501 0.14232144 0.055026878 0.08795504 0.14744315 -0.044386838 0.047212984 -0.06512582 -0.16274326 0.11994003 0.07932361 0.10112902 0.114808746 -0.16727361 -0.16179429 -0.10142174 -0.07741617 -0.09375997 -0.083252795 -0.23025647 0.010827568 0.06720197 -0.3278932 0.010736955 0.024902776 0.20329276 0.06250977 -0.14285325 0.01977141 0.18207417 -0.45952576 -0.000997194 -0.03691545 0.07346506 0.2109065 0.12595184 0.087458454 0.08621891 -0.068091474 -0.04515137 -0.017047461 0.09952718 0.012388395 0.19146094 0.15251265 -0.017922202 0.06104037 0.14738694 0.11388542 -0.030205397 0.028751345 -0.31959838 -0.060985725 0.02397151 -0.014018041 0.11886597 0.10480982 0.15368666 -0.03544964 -0.10752976 -0.15170284 0.13765916 -0.072503515 -0.42833823 0.017420154 0.08060769 -0.19626687 0.10175511 0.19427823 0.13724644 -0.16156094 -0.022935456 0.11327515 -0.055769626 -0.14134102 0.064910054 -0.17962606 0.23692405 0.0877977 0.028588295 -0.15147114 0.0612528 -0.014350324 -0.3181655 -0.029389806 0.152922 -0.054196503 0.22974105 0.017833583 -0.048238307 0.14538792 0.011500241 0.07382834 0.00012139768 -0.09706914 -0.053166717 0.08413177 0.12959109 0.15672804 -0.031649377 -0.18476298 0.046876833 0.06481637 0.04516979 -0.07635525 0.1214252 0.06324001 0.08956054 0.012894899 0.04412391 -0.021741778 0.021541862 0.077891454 -0.18972026 0.054772794 -0.15410315 -0.16065301 0.03451542 0.1576115 -0.13786067 0.020347292 -0.07155691
0.10148948 -0.14477152 0.013760821 0.032662652 -0.012175066 -0.07037765 -0.08997543 0.16125435 0.09549866 -0.021188293 -0.14678606 0.0677398 -0.030098865 0.06920968 -0.1428789 0.08872686 0.11169662 0.089502476 -0.012131792 -0.117440194 0.08002735 0.068676576 0.10541517 -0.2848747 -0.39775082 -0.25750047 0.015945697 -0.03511408 0.038073014 0.0103092855 0.027365167 0.06970756 -6.6112174e-05 -0.1902655 -0.04612914 0.21433222 -0.250952 0.09040082 -0.118122615 -0.002529593 0.21092406 0.15105262 -0.015425589 0.07896909 0.13198693 -0.10268599 -0.080079146 0.008789908 -0.0074676895 0.20974089 0.13480186 0.019758139 0.110928856 -0.042344917 0.25767407 -0.025267435 -0.040209837 -0.3736587 0.048956834 0.08110296 0.10056858 0.16926448 0.027302783 0.10433079 -0.06336264 -0.049863875 -0.08801919 0.11017667 -0.06369046 -0.254814 -0.093810774 0.20332259 -0.11540882 0.06367697 0.13516234 0.16222835 -0.19897272 0.1246988 0.1609455 -0.07798342 -0.018391665 0.16534963 -0.06428307 0.2289074 0.000121362886 0.054818213 -0.014756896 0.028713021 -0.029572263 -0.10889998 0.057268046 0.08725463 0.0069154333 0.08137584 0.15119371 -0.03206851 0.033577748 -0.22541733 0.09644205 -0.06636613 -0.07158463 -0.01326388 0.12428293 -0.06216494 0.16733421 -0.037685074 -0.12388461 0.02083545 -0.01910697 -0.054274406 -0.15108886 0.047996137 0.08548027 0.036410537 0.0027227527 -0.045600332 0.09512258 -0.114354506 0.011026743 -0.17304397 0.006494642 -0.07591856 -0.15677467 0.03416829 0.0753257 -0.014630376 0.08824531 0.20862979
-0.06233084 0.16560519 -0.27089062 0.16650277 0.06611498 0.009170661 0.04615853 0.061900843 -0.001347349 -0.04849196 0.16775559 0.14831528 0.005708281 -0.09320723 -0.12804575 0.15179071 -0.095574036 -0.0868832 0.12748584 -0.032089405 -0.16658223 0.005041034 -0.053696208 0.32901463 -0.05687087 0.18834728 -0.13668382 0.038393863 -0.18273601 0.21719734 -0.022905953 0.13385022 -0.01706991 0.0124579305 0.15107541 0.14962775 -0.040502544 0.043663327 0.032767557 0.0044046286 0.068642385 -0.07882546 0.11332304 -0.011101995 0.06507252 0.28153938 -0.06595444 0.010444411 -0.08462479 0.037706777 0.056636184 -0.044503327 -0.08139301 0.018938717 -0.11682893 -0.31909323 -0.08130439 0.021327034 -0.03394384 0.08995124 -0.020967593 -0.043544613 0.053963337 -0.027118996 0.03549716 0.08240051 -0.059060417 0.049080066 -0.086693525 0.05999192 0.07657388 -0.21279669 -0.10830637 -0.0255381 0.043878254 -0.19944985 0.3333231 -0.02094009 -0.013602244 -0.17910337 -0.022789946 -0.13554378 0.0443359 -0.12555775 0.03462707 -0.019206082 -0.026866766 0.05613093 -0.033825368 -0.3996242 -0.014302691 -0.002309239 -0.059763536 -0.009515871 0.09349777 0.066604 0.11876612 0.2496913 0.044384394 0.05746491 0.0058978857 -0.0006683698 0.1930975 -0.04592989 -0.13747229 -0.06000411 0.021295873 -0.060166765 -0.050472327 0.15150607 0.13746971 0.13530833 0.13335605 0.040033996 0.07764456 -0.046428915 -0.07113683 0.03775732 -0.053207688 0.14856023 -0.06696638 -0.02555709 0.034962703 -0.112016045 0.13808653 -0.089429885 -0.08941221 -0.27844033
0.0925714 0.13113646 0.122770496 0.104620464 0.0008574836 -0.04994222 0.0023592748 -0.062292498 -0.025062392 0.05487237 0.25966138 -0.20396583 0.023403047 0.00218398 0.05006625 -0.10271563 0.19978094 0.037960898 0.11025942 0.13314117 0.025633382 -0.13122585 -0.04520237 -0.033570927 -0.049759742 0.078690484 0.15073486 -0.03301615 -0.10091502 -0.15517266 -0.17074294 0.1306319 0.0567733 0.032655098 -0.09368988 0.0992335 0.054285593 0.08065553 0.15054516 -0.022380251 0.01362855 0.0141744455 -0.015377729 -0.025823982 -0.038062256 -0.056913327 -0.072002016 0.045268815 0.0440119 0.073576644 -0.0678807 0.006407634 -0.08327918 -0.027912568 -0.009854615 -0.048834704 0.021378921 -0.13682078 -0.08252243 0.13459161 0.10429991 0.096608 0.076438315 0.04454635 0.1140423 0.27302742 -0.112666406 -0.068760246 -0.026579116 -0.11171014 0.07122287 0.061541155 0.018242838 0.18526725 -0.07345136 -0.023937438 -0.1492934 0.21125163 0.09834299 -0.091615796 0.035166595 -0.035310507 0.02639963 -0.1511505 -0.09629211 0.033177864 0.04296031 0.07434205 -0.043932702 0.027328458 0.12814921 0.110834025 -0.01674973 -0.1295872 0.013600475 0.109164335 0.052400354 -0.026152648 0.13527857 -0.03959871 0.16278444 0.10950463 0.05492308 0.053151112 0.0118717095 0.10966769 0.026211446 0.039002515 0.008644728 0.049250685 0.15708306 -0.16626105 -0.010815539 0.100974984 0.116400406 0.042321496 0.121936224 -0.07422407 0.0042945794 -0.15617828 0.070951544 -0.10226313 -0.15277892 0.17370744 0.33698845 0.002726155 -0.014099361 0.16794091
0.086063094 0.060216453 0.08104532 0.20207691 0.14838938 0.09742018 -0.031418793 0.38585272 0.06048586 0.07849326 0.10813585 0.011744086 0.22858511 -0.0063289623 0.06154497 0.011761596 0.19750069 0.1953261 0.16396153 -0.1947617 -0.06410947 -0.12371886 -0.17228428 0.104704954 0.014906537 -0.15077968 0.11688155 -0.06752612 -0.14520574 0.16819286 0.013894975 0.03501993 0.16421448 -0.17585838 -0.018623374 0.17839457 0.0168745 -0.058963064 -0.025571767 0.23885942 0.06539098 0.08931849 0.09237021 0.044511504 0.13073844 0.22341675 -0.15170527 -0.030786298 -0.026251597 0.16504106 -0.031308096 -0.22046193 -0.14038871 -0.014793993 -0.15264052 0.029310724 -0.036746666 -0.14869027 -0.15340829 -0.0011462545 -0.004425276 -0.051752556 -0.029434578 0.07196446 0.12222079 -0.02860328 -0.13831371 0.099965245 -0.20158684 -0.061563972 -0.044403464 -0.016956527 -0.08334213 0.19326445 0.09323624 0.017562019 -0.14383331 -0.08995438 0.10153876 -0.04014225 -0.042011637 -0.16084309 -0.037921198 -0.0060737003 0.08340293 -0.06566774 -0.21410741 0.07001032 0.08222938 -0.008394719 -0.10839672 0.045992095 0.15930012 0.07296805 -0.06871056 -0.01996685 0.15100384 0.06682848 0.15975 -0.12531021 0.10876039 -0.14307825 0.118623935 -0.076960325 0.15257105 -0.036013406 0.20759144 -0.0038917842 0.08080216 0.025422338 0.056472115 0.1576004 0.08945931 0.0906849 0.12191095 -0.06831889 -0.07354031 -0.0074437326 0.06896966 -0.08732713 -0.08866301 -0.28009394 -0.05357195 0.05322143 0.14040007 -0.042346295 0.030371422 -0.15554154
-0.12810001 -0.029643716 0.0014025015 0.113125294 0.09269135 0.07192727 -0.06563289 0.074666165 -0.02552724 -0.03312701 0.23086432 -0.06569694 -0.09892105 0.028895373 -0.022660231 -0.060770098 0.19884309 -0.09914466 0.017763123 0.04581976 -0.060761105 -0.16254525 -0.01294739 0.24730471 0.067305125 0.20594077 0.07137264 -0.074661076 -0.004977391 0.25825587 -0.15117848 -0.017449096 -0.03996382 0.18890877 0.014834134 0.010798864 0.3637704 -0.0774184 0.01118548 0.23093054 -0.17345046 -0.117735416 -0.00054023886 -0.05285347 0.30878714 0.17441748 -0.0088909315 0.020581031 0.026244797 0.13126947 -0.08910276 -0.007755552 -0.099549696 0.104952365 -0.22650072 -0.0042274306 0.13129184 0.183704 0.12281426 0.061720863 0.055745136 -0.1543814 0.08550623 -0.0717254 0.20077495 0.16992755 0.1516601 -0.10257208 -0.029040374 -0.15205848 0.01163623 -0.00971655 -0.017989203 0.13104966 -0.106686965 -0.2669502 0.2738691 -0.022290193 0.025779663 -0.045513254 -0.40410557 -0.16554144 0.10315185 -0.35242224 0.010371053 -0.040142696 0.021110041 -0.13844028 -0.052752145 -0.015281519 0.016513068 0.040558957 -0.056969218 -0.07717594 0.038075216 0.06753971 0.0686903 0.086360194 0.13958193 0.0009476628 0.1432605 0.029402105 -0.06366234 0.03914353 -0.10850882 -0.0027286913 0.22294575 -0.08512151 -0.08107633 0.024956996 0.22784115 -0.14832622 -0.18203583 0.020841736 -0.0008134118 0.0016378631 -0.14069916 0.09511193 -0.13595843 -0.0048783864 0.0062771775 -0.17190345 -0.03656678 0.09134038 -0.114891656 -0.06604669 -0.02182353 -0.11150064
0.059014753 0.11560641 0.26655868 -0.11121165 -0.12405752 -0.010185921 0.031372402 -0.12051239 0.12382107 0.045764986 -0.097952954 0.14536764 -0.28778926 0.12286783 -0.15543354 -0.17025973 -0.014976166 -0.017702961 -0.0023411643 0.045611493 0.004741005 0.1870409 0.17822637 -0.25971267 -0.3428562 -0.04846208 0.059440795 -0.09611331 -0.08088852 0.06551877 0.018985903 -0.07956456 0.100640245 0.22857001 0.21194936 -0.049515963 -0.011874785 -0.070908606 -0.028091688 0.1498486 -0.086504914 0.01483639 0.08430353 0.003850784 -0.08294947 -0.21973458 0.028087556 0.10331153 -0.061348055 -0.21516903 0.048309576 0.17227878 0.08325218 0.15862124 0.046500105 0.16491334 0.16830456 -0.008307783 0.120942466 -0.12924366 0.08902331 -0.003853205 0.005023001 0.035154633 -0.11335212 -0.18378347 0.16983125 0.09752746 0.14401403 -0.29002684 -0.020845674 0.23381865 -0.099634126 0.06888473 0.07326264 0.0808508 0.15981817 0.0060775876 -0.12765615 0.10190618 -0.07490951 0.1030978 0.09999391 0.13390385 -0.0018302922 -0.0345149 0.17937453 -0.053576533 -0.040027015 -0.11855347 0.015989138 0.043014266 -0.17793934 0.104726404 0.13693026 0.13222757 -0.06558336 -0.10774131 0.039205268 0.17676347 -0.032804407 0.1748599 -0.0013357745 0.04377381 -0.05152475 0.112218805 -0.357537 -0.008995391 -0.020704754 0.109005935 -0.27887616 0.11596121 0.005233456 0.035552315 -0.015295799 0.13369298 0.008915534 0.0325069 0.10986023 -0.088754304 0.033300992 0.050631974 0.002431105 0.012920428 0.042461526 0.051396098 0.0010660352 0.09558617
0.0804751 0.17129575 0.29376215 -0.2750844 0.038820576 -0.0057439716 0.08670651 -0.38463524 0.09391262 0.18777831 -0.017148871 0.008799297 -0.15722984 0.1657833 0.057765964 -0.24136019 -0.021277335 0.0009397217 -0.09788359 0.035627026 0.17579336 0.10106316 -0.010829929 -0.24724968 0.057787903 0.01302537 0.14171207 -0.002530205 -0.018500324 -0.19526318 -0.036560826 -0.10195858 0.07886308 0.19985564 0.27979156 -0.145814 0.32845122 -0.06987602 0.11483737 -0.044571023 -0.18930706 -0.06113646 0.12563936 0.1090092 -0.25705332 -0.15239392 0.14207622 -0.017787574 -0.025428027 -0.19290924 -0.05441488 2.6206122e-05 0.016780427 0.0337563 -0.11993811 -0.0071848994 0.24578679 0.305883 0.27940643 -0.06759217 0.060495235 0.119710475 0.10314714 -0.043891832 -0.18126932 0.022568649 0.19634728 0.067947365 0.06623457 -0.17598926 0.047552362 0.094564095 0.041741867 0.15428157 -0.025992379 -0.023036707 -0.19060357 -0.022316156 0.10483444 0.012784553 0.05421466 0.01741397 0.21091919 -0.18613333 0.092904285 -0.024976967 0.1795667 0.046371516 -0.045625255 -0.020285726 0.10614337 0.16629021 -0.022620894 -0.055646576 0.13677749 -0.03961549 0.082254864 0.029161233 0.12748636 0.1816646 0.22638685 0.11876834 -0.18726254 0.022819877 -0.011769335 0.1501555 0.05090936 0.059844363 0.010492438 0.091848254 -0.16653074 -0.26503885 -0.15463114 0.027450914 0.007506829 0.060041662 -0.0677134 -0.061594553 -0.055861644 -0.13753733 0.0022976808 0.11443601 0.012011942 0.15671246 0.16823624 0.17260571 -0.04499957 0.058183536
-0.06265672 -0.044255175 -0.10797823 0.021950437 -0.028395016 0.045892015 -0.1264865 -0.05516191 -0.08806896 0.0045473888 0.05484782 -0.05032028 -0.10358815 -0.0037662543 -0.110817544 -0.037012395 -0.07096903 -0.11665071 -0.032654624 -0.07007358 -0.011749445 -0.024941517 -0.014769613 -0.09395285 -0.019126048 -0.03252531 0.04338431 0.058201075 -0.0526565 0.058667656 -0.10089613 -0.056238208 -0.049776148 -0.05805638 -0.054105233 0.029619496 0.056356903 0.020182703 0.020340644 -0.016475186 6.15373e-05 0.018984728 -0.0993703 0.036811933 -0.0036169502 -0.017193668 0.003346594 -0.024540944 -0.04548761 0.08473491 -0.020338168 -0.06867344 0.0028015904 -0.053547867 -0.091926254 0.0067451284 0.018872691 -0.016892066 0.028773677 -0.0072499868 -0.07901238 -0.108686835 -0.121083654 0.062365595 -0.073469035 0.0032692286 0.07162839 -0.06325635 0.031328868 0.06231402 0.05557444 -0.10773866 -0.0700512 0.048702188 0.008951875 -0.09278629 -0.04286828 -0.055456776 -0.054460395 -0.08731101 -0.008206703 -0.11008165 -0.097280145 -0.04859104 -0.064587854 -0.0028466508 -0.011583097 -0.0010962175 0.015075242 -0.023001315 -0.008593124 -0.10548817 -0.081648804 -0.042461105 -0.087523825 0.029488632 0.0673298 -0.110033296 -0.066613205 -0.05664548 -0.027850525 0.038450386 0.07482871 -0.025141766 -0.04623629 -0.034752067 -0.05922489 -0.08304046 0.05644561 0.030821387 -0.0794714 0.04283412 0.0041524176 -0.07251492 -0.09635494 0.0516429 0.034339704 -0.028513122 -0.056182686 0.053486045 -0.025339412 -0.0046928898 0.060864165 0.01499119 0.040859308 -0.12821423 0.08162162 -0.024329683
-0.053378113 -0.15606986 0.04216066 0.14974096 -0.17351155 0.07000204 -0.12053743 0.025541006 0.020575909 0.02077968 0.056496557 -0.03197727 0.14765523 -0.0883013 -0.10590416 0.19467679 0.2671692 0.10104807 0.050661404 -0.012601711 -0.09136358 -0.118902914 0.019835781 0.16202624 -0.17477256 -0.12940331 0.15424989 -0.10866763 0.12592058 0.13015378 0.004620494 -0.05028066 0.003698138 0.14592941 -0.11286247 0.030011175 0.20356883 -0.00507675 0.015339601 0.22530913 -0.1878519 0.06185213 0.04676587 0.09030848 0.33774537 -0.07027149 -0.11582385 -0.028163511 0.07934631 0.23188804 0.07829157 -0.012940344 0.0043063704 0.019806305 0.0844114 0.15090553 0.021063786 0.13859108 -0.030538268 0.0075921793 0.0046960916 0.08831488 -0.052578084 -0.0059975046 0.15968809 0.0015064339 -0.08171873 0.08948773 -0.07175312 -0.24132329 -0.122914955 0.01274915 -0.25636846 0.05581626 0.023352461 0.0007175174 0.16332375 0.203734 0.1014722 0.06954321 -0.47672686 -0.08597793 0.021723809 -0.066615574 0.03277067 0.055551182 0.040678576 -0.1394079 -0.0031106225 0.22201584 -0.10776887 0.03138638 -0.017395506 -0.09041979 -0.04348296 0.009958771 0.018371588 -0.0042838464 0.008617266 0.09293386 0.09125646 -0.02021788 0.038158022 -0.0774973 -0.050151832 0.078185596 0.06858589 0.046390437 -0.009721424 -0.02829384 0.066791296 -0.09949575 0.06503327 -0.02243346 0.039988805 0.13776529 0.20014806 0.10500304 0.031126857 -0.07386568 -0.043730605 -0.050881658 -0.12219176 0.071639135 -0.31052256 0.042227387 -0.24515809 -0.023675041
-0.031804636 -0.018594531 -0.15070575 0.06713098 0.05343711 -0.06288258 0.036069557 0.4008424 0.016383916 0.0929965 0.18287697 0.06625788 -0.18668935 -0.0040095104 -0.04114616 -0.17109615 0.024472397 0.15160176 0.16696227 -0.010759572 -0.12959576 0.035002857 -0.111710176 0.08011733 -0.15855132 -0.07584821 -0.14914162 -0.058161546 -0.06848884 0.05791372 -0.08508768 0.17784059 0.026420144 -0.0056884945 0.049745046 0.007548256 0.060903758 -0.032105412 -0.079771414 0.2058673 0.027516337 0.06748669 -0.051919594 -0.010015445 0.37819973 0.29693803 0.13968864 -0.13361341 -0.012132033 0.03678544 0.036677893 -0.041967962 -0.052292272 0.11338836 -0.032657664 -0.082187444 0.1050958 0.014562853 0.110455155 -0.0064057996 0.13958164 0.08314174 0.092917524 -0.087168515 -0.1294943 -0.02771565 -0.056859314 0.02345241 -0.05629212 -0.2869109 0.061190974 -0.09513404 -0.120892555 0.06276491 -0.004866465 -0.07381701 0.06741968 0.033512425 0.13903774 -0.08891334 -0.0862068 -0.06456402 0.11085287 -0.06112858 0.07285934 0.012468783 -0.057152778 0.04199535 0.028367018 -0.18375926 -0.028177472 0.035830665 -0.15906936 0.09697646 0.11989347 -0.04382329 0.029011281 -0.08523883 0.14426157 0.08916237 0.051681574 0.031850815 -0.15209539 0.06317914 -0.035391334 0.09732307 0.16778435 0.06719022 -0.05629664 0.013415582 0.083263524 -0.0022554866 -0.032641284 -0.075162 0.06074419 0.0034260305 -0.1868393 0.05305674 -0.033826876 -0.08727903 0.002417408 -0.06768722 -0.051256467 0.04626617 0.20981126 -0.075306125 0.23750737 -0.07476511
-0.09072231 0.16261406 0.049344245 -0.12912428 -0.034336578 0.052590918 0.1243341 -0.16180068 0.09990398 0.16578354 0.076117724 0.1378151 0.042478748 0.041290104 -0.046925068 0.013231413 0.09956427 -0.020717356 -0.00269452 0.021431115 0.07309424 0.039283786 0.098473385 0.06491645 -0.10111599 0.18832538 -0.048447438 -0.14102638 0.14220947 0.15554169 -0.14354995 0.095467724 -0.14511828 0.123257585 0.18210214 -0.03161988 0.48537314 0.004846716 0.115839094 0.03786683 -0.094177715 -0.12026882 0.059280846 -0.18374531 0.24004616 0.09865653 0.058401644 0.07549958 -0.014542102 -0.12070046 -0.10417652 -0.0021495095 -0.023564389 0.070652306 -0.26082057 0.20222048 0.08337741 0.21412492 0.086032905 0.024491845 -0.04096513 -0.08052952 -0.020808084 0.055304226 0.20306079 0.16019332 0.13304266 0.01120087 0.0046031135 -0.076378785 0.03237899 0.04675726 0.012714838 0.119537435 -0.015929304 -0.10870899 0.3975735 0.08629331 0.05294153 0.102354884 -0.36112386 -0.06335127 0.08937713 -0.082513124 -0.005096776 0.039641064 0.180935 -0.019381806 -0.04402489 0.035964366 0.06740108 -0.07479598 0.06497421 -0.08340439 0.05652766 -0.0277285 -0.060605727 0.057814043 0.053348016 0.0164094 0.2186415 0.048842013 0.008853569 0.04474654 -0.1802346 -0.03235441 0.1431335 -0.0032692072 0.04502138 0.030104548 -0.063887976 -0.040211704 -0.0414822 0.046592034 0.059893936 0.14148176 -0.041122593 0.041895248 -0.07400615 0.0128343655 -0.06097114 -0.04044691 0.072349064 0.05884836 -0.16256863 -0.076121464 -0.065012425 -0.06183461
0.027559027 0.042852297 0.07194461 0.11347839 -0.28339761 0.06794252 0.030976849 0.033065334 0.0350881 0.0725873 0.11302003 0.011636191 -0.20434773 0.013748522 -0.07434338 -0.19728167 0.4443141 0.14488843 -0.038711015 -0.055434413 0.043414816 -0.1060299 0.11362363 -0.1839303 -0.5099238 -0.13246228 0.09581226 -0.099509455 -0.15865828 -0.041054808 -0.03359185 0.07051948 -0.05667697 0.19267732 -0.14763758 0.1500359 0.25243136 0.0081114685 0.105430014 0.23949745 -0.101573646 0.0071269996 0.11801405 0.10291518 0.17507415 -0.3299055 0.025158592 0.11644251 -0.04064302 0.061776258 0.011063356 -0.041300405 -0.08761119 0.12130736 -0.021480363 0.1113313 0.025892017 -0.113141455 0.15101251 0.09394618 -0.04018465 -0.054456934 -0.006388031 0.13236149 -0.015019431 -0.11799153 -0.11135024 -0.0016983873 -0.04904045 -0.52319384 0.038057595 0.2391595 -0.36149505 0.20600268 0.02024594 0.048451807 0.1156056 0.21555394 -0.08962794 0.103089646 -0.28119874 0.12794867 -0.017236069 -0.13748893 -0.13957722 0.010103586 -0.0629542 -0.1699679 0.017995445 -0.109706454 0.13528292 0.1297082 -0.068320826 0.064555556 0.051546004 0.10543232 0.039133966 -0.108371705 0.1025776 0.060416866 0.032808006 0.10134188 0.0016491627 -0.07460758 0.07738994 0.09038586 -0.081595644 0.045591373 0.019907594 0.05909161 -0.06759692 -0.054243743 -0.11375284 0.093902215 0.04583031 0.046864893 0.01673108 -0.08276405 0.108422145 -0.3215327 -0.08079487 -0.07151295 -0.30277574 0.041916795 0.033624932 -0.07999783 -0.09771033 0.19977012
-0.09962392 -0.074487925 -0.2324197 0.09487807 -0.2595698 -0.020054264 -0.20548443 0.092082225 -0.17293674 -0.15173998 0.06519268 -0.09985832 0.054863628 -0.18135445 -0.16632076 0.30188197 0.14628254 0.096537694 -0.024168804 -0.04005735 -0.24784957 -0.1087485 0.12800865 0.088009976 -0.08643794 0.052213248 0.005630643 -0.22326022 -0.30062193 0.24150229 0.07234728 0.19982253 -0.12173657 0.0032088263 -0.19046803 0.09786064 -0.11072859 0.06639772 0.05340451 0.13505238 0.07264975 0.080452755 0.05701179 0.044495936 0.11050501 -0.21682961 -0.14089428 -0.007826766 -0.003634038 0.27146673 0.063796535 0.11037063 -0.14067647 0.00134265 0.17881522 -0.14121541 -0.06648943 0.021494137 0.022598647 0.03531577 -0.07623157 -0.028016986 -0.06318217 0.0033876528 0.06272145 0.16067813 -0.06146717 0.08043175 -0.10137397 -0.16427135 0.015471726 -0.102814585 -0.1589589 0.12451099 -0.061122987 0.05545606 0.22571628 0.11504649 -0.013292581 -0.13663152 -0.39727512 0.09255606 -0.21111731 0.19656223 -0.19560722 -0.02369135 -0.11761368 -0.20578496 0.017694084 -0.09638231 -0.0117306905 0.07957797 -0.064506225 0.029521601 -0.07623392 0.014255031 0.041424807 0.2119688 0.12167742 0.04846904 -0.031791385 0.047627628 0.12024619 -0.0444125 0.058886897 0.11922684 -0.22296935 -0.05628081 0.04768015 0.09899823 0.30066887 0.23588106 0.042407308 0.10128727 0.035594504 0.006281945 0.20281655 0.11671893 0.0067836633 -0.09949136 0.017352771 -0.23779073 -0.010517374 0.07914246 -0.22916463 -0.2077391 -4.8820977e-05 0.052298866
-0.09370985 -0.056595687 -0.118458435 -0.21851245 0.120900504 -0.07364062 0.011756367 0.0678083 0.100031644 0.022960937 -0.2770204 -0.05316012 0.06694093 -0.043508735 0.17206164 0.23395467 -0.08073102 0.031236924 -0.113142736 0.16651009 0.11309938 0.19599698 0.18318176 -0.123578146 0.23462363 0.30189264 0.042201627 0.11060474 0.30865288 -0.3124933 0.09849065 -0.16075064 -0.024431905 -0.069539264 -0.18602164 -0.057279326 -0.041500643 -0.00013407199 0.054474 -0.20089924 0.022916237 0.019498536 -0.11948709 -0.051145583 -0.0057041654 -0.029289264 0.09935483 0.11233192 0.07630852 -0.047980957 -0.104764976 0.01921524 0.095381774 -0.105114594 0.08233908 -0.13919425 -0.095457934 -0.122284286 -0.04275202 0.12776534 0.13193604 -0.041809175 0.07374396 0.07450185 0.1051392 0.14126785 0.05325973 0.033560157 0.12891416 0.54191643 0.06689477 0.032248396 0.4820347 -0.17399088 0.054639023 0.025218917 0.23433602 0.041318156 -0.12154274 0.066293016 0.27293417 0.079632856 -0.087562494 0.27666897 -0.014920211 0.035934895 0.07098564 -0.03473076 0.023663005 -0.0018309272 0.17688356 0.0076190704 0.06854016 0.006908528 0.17859745 0.14838243 -0.06569262 0.054323226 -0.2334393 -0.018522885 -0.114756405 0.08521754 0.170088 -0.020022638 -0.19802465 -0.0870372 0.050664596 0.07982243 0.079184406 -0.024968244 0.22644979 0.20830935 -0.102450565 0.080562755 0.1247288 0.031375427 -0.014757507 -0.016102076 -0.01882871 0.049966812 -0.0112070525 0.19239748 0.2832238 0.073383 -0.067352764 0.08873736 0.23721744 -0.022195559
0.18435428 0.07038328 0.13846715 -0.0089673735 -0.030880798 -0.03824017 -0.1509269 0.10108057 -0.050979488 0.14844088 0.115555674 -0.09170718 0.36366183 0.039748058 0.04092643 0.017856548 -0.18607596 0.06845514 0.08932345 -0.112893835 0.011235957 -0.107161574 -0.01975287 -0.23583609 0.28326842 -0.021383628 0.14915234 0.017887078 -0.1987141 0.04200454 0.054041382 -0.005841776 0.13245226 -0.2583935 -1.713344e-05 0.0014950662 -0.06664746 -0.051319826 -0.031108772 -0.0003554714 0.2344916 0.00951378 0.061263863 0.26044896 -0.055140704 -0.050218716 0.021755503 0.15920065 -0.004980245 -0.003487804 0.022935355 -0.09159798 0.0431319 0.15799795 -0.09857471 0.16186988 0.08516802 0.16455841 -0.30533722 -0.11624652 0.06234509 0.15605338 0.05401639 -0.032953225 0.12475036 0.008643667 0.031348646 0.1544535 -0.14512974 0.039896123 0.022544915 -0.10162675 0.09495733 0.16423854 0.14053671 0.1962864 -0.1850922 -0.08517799 0.11813708 0.0988926 0.27559066 0.041666474 0.001652622 0.19806513 0.107948616 0.02600881 -0.08298074 0.28430602 -0.012835495 0.4218006 -0.00085048616 0.04223023 0.18287635 0.17682451 -0.21292941 0.012411359 0.10640999 0.16407177 0.15369809 -0.06976266 0.068906896 -0.0054387287 -0.08066141 -0.10527531 0.23296204 0.053008165 0.19427413 -0.018373804 0.03369026 0.07850026 0.023860794 0.122412816 -0.0018220276 0.12540819 0.12265383 0.05203803 -0.04805073 0.11145738 -0.06061373 -0.03733361 0.02757285 -0.12578769 0.124291435 -0.06728356 0.011893788 -0.044322476 -0.07059274 -0.016429208
