-0.00043872150126844645
0.11795596033334732
0.04109681770205498
0.04352113977074623
0.023726752027869225
0.06140192970633507
0.09077151119709015
0.024719825014472008
-0.04136170819401741
0.15289323031902313
0.05879439041018486
0.02708319015800953
0.11191023886203766
-0.04176410287618637
0.06333336234092712
-0.026599690318107605
0.048564787954092026
0.05307848006486893
-0.09664864838123322
0.09001931548118591
-0.06426911801099777
-0.06356846541166306
0.004634758457541466
0.04993550851941109
-0.06920014321804047
0.18599306046962738
-0.08361370116472244
0.01265754085034132
0.04047292843461037
0.013584629632532597
-0.01187718752771616
0.06513175368309021
0.016072114929556847
0.06486458331346512
0.02563546784222126
-0.007298778742551804
0.020835570991039276
0.06878825277090073
-0.017075274139642715
-0.10635708272457123
-0.05190339311957359
0.059637680649757385
-0.09719076007604599
-0.12346729636192322
-0.015233197249472141
0.11409325152635574
-0.055752310901880264
-0.0063171410001814365
0.1259232759475708
0.12983852624893188
0.01746673882007599
0.17033836245536804
0.1629406213760376
0.02102731168270111
-0.02108197845518589
0.047316234558820724
-0.06806101649999619
0.12436551600694656
0.03436999022960663
-0.08849254995584488
0.10039085149765015
0.12258889526128769
-0.09652908891439438
0.08086645603179932
