0.07440052 -0.12471142 0.10814529 0.0051275278 0.30087835 0.09596174 -0.013981792 -0.06935553 0.107581496 0.23815347 -0.022729352 0.09951122 -0.18648891 -0.11070966 -0.022764606 0.25515276 -0.03410192 -0.096106574 0.034400072 -0.057210326 0.030101752 -0.1417376 -0.073007196 0.078050375 -0.040349554 0.10402012 -0.21993801 0.044157322 -0.1543177 0.18413529 0.12163205 -0.010280188 0.062235832 0.1872128 0.037514366 0.057398073 0.13468194 -0.16525543 -0.044561703 -0.0594472 0.119629614 0.15441078 -0.03596192 -0.118323766 0.008800008 0.023967357 -0.11665989 -0.206039 -0.029077249 -0.0312196 -0.04468866 -0.2746932 0.037152637 0.17728075 -0.010577442 0.00960626 -0.12020598 0.06852056 -0.072585195 0.18482968 -0.06180282 -0.017295714 -0.022085408 0.021299457 -0.06699906 0.15458213 0.1655693 -0.08367116 -0.0391551 0.15285408 0.14908613 -0.12524317 0.020057326 0.074259885 0.0076290565 0.20454386 -0.23153645 -0.064995565 -0.15529765 0.12086339 -0.091768645 -0.26320612 0.17583409 0.082837 -0.06681385 0.17569426 0.09786313 0.08424026 0.140626 -0.045142718 0.06205687 -0.20408115 0.045156535 0.26148176 -0.10771391 0.14001536 -0.020230124 0.03901777 -0.087451465 0.15639743 -0.10626623 -0.08783813 -0.042734142 -0.19814622 0.20261216 0.1366454 -0.17707306 -0.12123271 0.12784825 0.114822574 0.03471979 0.16645865 0.026210252 -0.11227618 0.055078935 -0.029850453 0.4621968 0.11648853 0.17344622 -0.11586821 -0.13247421 -0.036027953 0.14085582 0.0042439234 -0.026938826 0.2036366 0.24688455 0.11838481
-0.11818882 -0.027341034 0.06892079 -0.1362017 0.009875727 -0.17219363 -0.08921049 0.092474 0.16432582 0.065837175 -0.02428575 0.095176436 -0.0019195545 0.04277797 0.10138985 -0.18983792 -0.064506665 -0.030997101 0.13032019 -0.12059466 0.08874974 0.0014704675 -0.02478204 0.04692647 0.048406865 0.0652699 -0.040561438 -0.04096311 -0.07963793 -0.14176996 -0.06363371 0.07365235 0.14646456 -0.109646715 -0.23324224 0.11910992 -0.044031307 -0.028660266 -0.0036700526 -0.27824536 0.29710945 -0.14013875 0.1299048 0.02091342 -0.02628045 0.020690534 -0.029808648 0.08529686 0.07621296 0.08509608 0.14280596 -0.050236497 0.033642724 0.08780003 -0.03773467 0.11153611 0.03565708 -0.0027035002 -0.070544146 0.034337174 0.075716056 -0.008351644 0.09736796 0.09899973 0.09740449 -0.040846065 -0.16022849 0.016639994 -0.11212094 0.3484491 0.15091357 0.07581716 0.019143678 0.10751778 0.1467916 0.045934223 -0.16351545 -0.032780923 -0.23927304 0.09209197 -0.2516329 -0.12552446 0.012540812 0.056256052 0.020365447 -0.008869765 0.05290607 0.05710227 0.019818423 0.103337996 0.09021222 -0.38758832 0.09067276 0.18491267 -0.09343788 0.10388015 -0.13111593 -0.047941953 -0.030257916 -0.105739176 0.051439412 0.105705276 0.010627532 -0.039800182 -0.08750788 -0.0060980916 -0.04189769 0.054289732 0.13773476 -0.1508723 0.09227087 0.036973696 0.00825168 -0.108602755 0.055233344 -0.1208262 -0.2660711 0.08831993 -0.30532458 -0.10152997 -0.048602007 0.0035523246 -0.012860007 -0.21924463 0.0070580114 0.00142567 -0.007154944 -0.16143662
0.110063225 0.05902205 0.036889896 0.10769199 0.19248141 0.19633041 0.19310823 0.0051750434 0.00052006857 -0.012572485 -0.028046189 -0.039404154 -0.0072890315 0.06389248 -0.17500879 0.26957884 -0.058614187 0.10842501 -0.11062445 0.21879807 0.12991618 -0.100141965 -0.039955538 0.018874954 -0.12805746 0.049851064 0.0067321965 0.045648582 -0.048858378 0.3673498 -0.08322814 -0.014878454 -0.06727151 0.026230428 0.24638414 0.098764606 0.14178161 0.19746485 0.059489187 0.31119138 -0.15724006 0.08302833 -0.1864405 -0.042020638 -0.07133612 0.07633278 -0.12534647 -0.24101837 0.15223558 -0.069890805 -0.05793644 0.091558 -0.060568444 0.08309805 0.052623887 -0.074620076 -0.21139714 -0.024317233 0.08505384 0.05811194 0.08582562 0.047081042 0.015760742 -0.010956767 -0.019814443 -0.062869355 0.3220744 0.019611606 0.056254957 -0.23798257 0.08956139 -0.1441169 0.074997336 -0.027353002 0.030980475 -0.15837422 0.09011101 0.12536128 0.34272346 -0.09062079 0.24761055 0.2460684 -0.13123086 -0.013290907 0.018925054 0.059300628 -0.08431392 -0.07171006 0.08813089 -0.13665408 0.15682511 0.12017551 0.032190334 0.050174806 0.06472476 -0.20907418 -0.12578502 -0.093363665 0.057884514 0.07572014 -0.014360716 -0.05320758 -0.10038623 0.069961995 0.021753335 -0.034928057 0.13394928 0.06859262 -0.05176201 0.19875868 0.08590917 0.07727961 -0.16192427 0.14069727 0.04897493 -0.019664386 0.4360137 0.014189569 0.39539135 -0.23239863 0.00011634456 0.10203439 0.10391914 0.213113 0.062392004 0.03150003 0.067514114 0.3033906
-0.24721967 -0.12689924 0.037148677 0.07663522 0.21346079 -0.12896313 0.07941246 -0.010480836 -0.029443197 -0.036164396 -0.0488329 0.10855466 0.11552512 -0.012332141 0.26865783 -0.2287963 0.08776416 -0.008544036 -0.012952899 -0.08813389 -0.108227395 -0.1711802 0.043122444 -0.0013032671 0.3553206 0.08119524 -0.00442837 0.085817456 0.0232259 0.18355063 0.086431034 0.060523026 -0.10221729 0.07135523 0.038721647 0.06510413 -0.06177271 -0.024214413 0.014318044 -0.028648878 -0.012502111 -0.045178354 0.026675634 0.11500843 -0.10803202 -0.06384973 0.054424703 0.20426619 0.18866546 0.026232319 0.037825685 -0.3148189 -0.07936693 0.103315674 0.07646378 0.034351252 0.081978045 0.07464983 0.038193 -0.07876386 0.08020747 0.01683844 -0.101100795 -0.004249727 0.01966453 -0.05905462 -0.22853485 0.10561428 -0.13730341 0.14884879 0.03061749 -0.014327243 0.045297682 0.072832584 0.108947545 0.11310092 -0.08369421 0.030605603 0.043508645 -0.020957768 0.24075703 0.10765719 -0.055382907 0.0012160664 -0.05144977 -0.06359973 -0.10785127 0.062480725 0.02888916 -0.06130829 0.055745818 0.19238332 0.0785642 0.13589777 0.010768291 0.14570446 0.05710544 -0.039211437 0.036336787 -0.010316898 0.02057837 -0.015216617 -0.104961984 0.2319794 0.15826404 0.013162275 0.064156644 0.046200942 -0.07413549 -0.22802064 0.085104525 0.07724003 -0.104500905 -0.02546381 0.0328658 0.18579976 0.0016184393 -0.18117957 -0.07863939 0.27951935 0.11505777 0.056514923 -0.013367743 -0.1255067 0.07241814 0.034756236 0.052630045 0.11531548
-0.04558953 0.027931448 -0.01565104 0.23266469 -0.06697 0.025914604 0.017360017 0.10367901 -0.076263115 0.104001045 0.09164687 0.032486364 -0.02943177 0.006812388 -0.030864278 -0.02706188 0.05602014 0.073642634 -0.010585687 -0.058686133 -0.10294607 0.108707234 0.030108852 0.03618645 0.34637848 -0.07025853 0.0463706 0.091782644 -0.08694011 0.07697056 -0.090911604 0.058582183 0.08904402 0.3182378 -0.046024155 0.002830348 0.22075923 -0.18345958 -0.23471184 -0.25516647 0.2574606 -0.020564064 0.20106547 0.034545142 0.33361208 0.0015370208 0.039217178 -0.14190349 -0.08399961 0.030192181 0.14302817 -0.43463272 0.03374655 0.10890648 0.010341471 -0.07328275 0.020073714 0.14403698 0.107824706 -0.06144684 0.16819274 -0.09853783 0.071812905 0.16786644 0.012336301 -0.03414967 0.06251229 0.089749016 0.05723489 0.19425048 0.0127585465 0.08744425 -0.04084807 -0.005984236 0.09568184 0.2201287 -0.24462938 0.09958148 -0.09501814 0.1278715 -0.17788158 -0.19772942 0.04467355 -0.004025266 -0.02026428 -0.014251787 0.039503764 0.024096983 0.06818503 0.30030924 0.22867613 -0.008978714 0.042911977 0.024406813 -0.090623155 0.22195849 -0.15282704 0.092087634 -0.034506597 0.13447715 -0.16641161 0.08134649 0.24737418 -0.1332843 0.057306886 0.09265974 0.118752286 -0.12797628 -0.09324276 0.07877768 -0.11244907 -0.0992811 -0.031347886 -0.050106205 -0.06371892 -0.09597986 -0.30575877 -0.03708709 -0.05263135 0.13637958 0.055540767 -0.094719805 -0.0048152963 0.035948757 0.12894943 0.0851658 0.045483798 -0.08111743
-0.059444904 0.008621324 -0.09916535 0.02596774 -0.07578526 -0.05494617 0.055522952 -0.07650789 -0.043301746 0.039341215 -0.021722367 -0.09535797 -0.10340862 -0.009253575 0.096582934 -0.001988806 0.109355696 -0.0740718 -0.0945425 -0.050648868 -0.0006134069 -0.04308022 -0.066711485 -0.07112427 -0.027578767 0.08156786 0.13086899 -0.09130359 -0.030653398 -0.0060878713 0.0039917296 0.019145342 -0.10881929 0.020843284 -0.06130378 0.001944927 -0.06853559 -0.07729218 0.0892061 -0.003267187 0.06783347 -0.019101083 -0.07359978 -0.036055777 -0.042039774 0.0064954516 -0.17811699 -0.08567302 0.0034656338 0.03382766 -0.110079326 0.095757924 -0.12720954 -0.062358875 -0.0070003076 0.05391808 -0.09098298 4.0224593e-05 0.027096268 -0.033426017 0.016154096 0.07712834 -0.070638336 -0.1008548 -0.10437347 -0.051565867 -0.0666797 0.03343977 -0.0012252105 -0.06578493 -0.09041001 0.07419824 -0.0068527614 -0.044351038 -0.045141 -0.074466065 -0.0741672 0.03715593 -0.015638607 -0.037723135 -0.11310315 0.034243386 -0.08034456 0.057466563 -0.095097266 0.0143871335 0.06637244 -0.08906212 -0.09275366 -0.026923701 -0.033536687 -0.054501824 -0.080759026 -0.1300827 0.034624558 -0.053809464 -0.009581482 -0.030660782 -0.08407291 0.023763074 -0.031147446 -0.06255565 -0.060079254 0.06800085 0.07606014 -0.017384717 -0.111322895 0.105431095 0.04888928 -0.060392387 -0.048225794 0.0774404 0.033456456 -0.0756046 -0.0006797119 -0.008020878 0.037990637 -0.035761844 0.03952347 -0.03478891 -0.030822752 0.097695425 0.033330567 -0.053667493 -0.06520993 0.060105324 -0.029754793 -0.06692
0.013244497 0.07978638 0.09634138 -0.10463289 0.090498336 -0.00072409346 -0.08941486 -0.05139099 0.14978664 0.1029801 0.06915098 0.07712784 -0.05071944 0.08198146 -0.17486447 -0.09860765 0.011804505 0.05178357 0.011050668 0.05832856 0.13159215 -0.08136313 0.03371724 0.12226785 -0.036232226 -0.013382049 0.014560432 0.123687044 0.05253934 0.15237933 -0.1492183 0.10072792 0.10364925 -0.122828744 0.07289271 0.14240025 -0.14846784 0.0034239662 0.041909 0.047135253 -0.10506739 -0.16677248 0.013457363 0.05491116 -0.16593122 0.16857708 -0.0073670293 -0.074427105 0.15717137 0.037001505 0.20091635 -0.039067827 0.015519643 0.045374103 -0.029056115 0.13123234 0.00046785435 0.08344827 0.11407272 -0.08644407 0.12133184 0.09198494 0.006589494 0.053083614 0.032532427 0.07671702 0.22757743 -0.0982909 0.13427511 -0.0936125 -0.03656126 0.0029829957 -0.07762244 0.16838801 0.124240674 -0.07007022 0.08765538 0.0075068567 0.104948506 0.15891771 0.028206484 0.19101632 -0.12714893 0.16008712 -0.07739478 0.051394634 0.07148475 0.07332203 -0.25241795 -0.016635258 0.21066634 -0.11081261 0.15886587 0.0050714193 0.18163931 0.13776404 -0.46266967 -0.13013093 -0.04721302 -0.23829849 0.05239167 -0.023827031 0.028886577 0.09875071 -0.18698925 0.13648091 -0.04728136 0.00832305 0.04820946 0.17177631 0.027539223 -0.040599134 -0.16096139 0.083617456 0.20634896 0.09039992 0.111099415 0.00096906116 -0.060244884 -0.31073046 0.06113291 0.09418309 -0.114444114 -0.007637304 -0.022958033 -0.054637946 -0.031213293 -0.11819211
-0.2500362 0.0258515 0.06700972 -0.07912894 -0.04906336 0.10651628 0.023014674 -0.07491896 0.19206397 0.039908346 0.0031119138 -0.080171585 0.039346404 -0.091400005 0.32882836 0.029456044 -2.3669727e-06 0.08199698 -0.05244417 -0.042356767 -0.13775639 -0.010301286 0.041404735 -0.05657677 0.2304888 -0.35213208 0.07008277 -0.07730809 0.016391715 -0.4896789 0.3284102 -0.07454265 0.05779536 0.039310507 -0.1605704 0.08833882 -0.023221299 0.06919302 0.09612711 -0.0973159 0.23341265 -0.0010743364 0.10738204 0.05516775 -0.06699442 0.08229677 0.13218872 0.12160414 -0.11465817 -0.059835304 0.05877017 0.23481567 0.08613386 -0.1716749 -0.022765527 0.028843304 0.12089977 0.09712054 -0.20666815 0.15800989 0.041219253 0.11667282 0.026391158 0.1579072 0.14753135 0.15977046 -0.27603722 -0.21039465 -0.09301554 0.21599977 0.022314271 -0.00254483 -0.043194514 -0.09466036 -0.02791527 0.10022042 -0.008836499 -0.031238891 -0.35611886 0.0090791825 -0.2572789 -0.21543941 0.05254589 0.13321237 0.035343003 -0.0034879863 -0.026603714 -0.006971032 -0.076844715 0.03482791 -0.26911435 0.05985065 -0.046826266 -0.14671384 -0.101294644 -0.01355366 0.4166674 -0.16549411 -0.1364862 -0.15838598 0.0027324213 0.035427336 0.10599859 0.09534401 -0.10907013 0.16985175 -0.047086768 0.067332745 0.13652916 -0.38101175 -0.076322384 0.0734108 0.22281188 -0.08718059 0.04697092 0.035465024 0.16834192 0.16046906 0.059597567 0.33590811 -0.17065942 0.099628255 0.18308538 -0.048281357 -0.03499857 0.17266463 0.18028632 -0.1810231
-0.11262993 -0.044202507 0.089958996 -0.1364719 -0.13633947 -0.46312657 -0.16793893 0.015224619 0.13303633 0.06316363 -0.050141495 0.037051324 0.065465756 0.0005314759 0.16462344 -0.03234844 0.1136472 0.014283198 0.13857351 -0.013926705 -0.003762965 -0.33949748 0.12044316 -0.0063768686 0.14212595 -0.06436193 0.09663002 -0.09891736 0.07983299 -0.26117307 0.12567975 0.11800747 0.12524956 -0.18612866 -0.21462241 -0.026546707 -0.23778231 0.10174345 0.171569 -0.1995708 -0.079251446 -0.21912166 0.042339396 -0.098834336 -0.31290105 -0.10324428 -0.054820623 0.24128233 0.004196471 0.06480468 0.007684883 0.25563794 0.0015065443 -0.059235007 -0.044980735 0.06737117 0.19725782 -0.07795585 -0.07424127 0.21832477 0.0043556853 0.10653624 -0.059919864 0.1298836 0.064453684 -0.112140104 -0.008655583 0.07437101 -0.07419579 0.17456202 0.10066583 0.12060955 0.06508468 0.032292407 0.0537451 -0.118086696 0.15490475 0.093920104 -0.1322112 0.11468194 -0.19218606 -0.023217922 0.08362532 0.03724251 -0.0914113 -0.09521953 0.110300675 0.032558296 -0.104258366 -0.011298625 -0.23161176 -0.23550284 -0.09834465 -0.12778907 -0.16183732 0.11702431 0.11329951 -0.04221367 -0.063247465 -0.22448716 0.004783361 0.09945317 0.041007064 0.17350894 -0.24057753 0.0994847 0.09730092 0.11924922 0.07297628 -0.19676284 -0.048056807 -0.12663764 0.19312176 -0.03505794 -0.05840625 0.12747471 -0.12956382 0.079039045 -0.12004034 0.15388474 0.033210505 -0.0062801535 0.03835587 -0.23585252 -0.07875791 -0.26553786 -0.21277127 -0.2777357
-0.07649217 -0.096059434 0.050024927 -0.028810343 0.0044205193 0.09098614 0.009867997 0.0065754405 -0.061887212 -0.014272483 -0.06752805 -0.03240001 -0.008764363 0.05182158 0.06417238 -0.031883284 -0.059135966 -0.008827906 0.029605052 -0.07731025 -0.0054988205 -0.0775427 -0.072125405 -0.100979745 -0.0026766378 -0.012964593 0.0021471877 -0.025550047 -0.06887703 -0.059809033 0.018390445 -0.03255952 -0.062291756 -0.020250725 -0.04615986 0.04689533 0.042850476 -0.055181615 -0.034907524 0.03929321 -0.018689435 0.031491138 -0.01985902 0.03857106 -0.09458775 -0.06927557 0.024872966 -0.01849833 0.040957693 -0.060077284 0.014888365 -0.07640662 0.007021211 -0.1075935 -0.08251849 -0.061559245 0.053632367 -0.09408843 -0.08379639 0.037691716 -0.061046112 0.065185405 0.035609797 -0.07968099 -0.05767787 -0.026064355 -0.0041140593 0.034293346 0.030971669 0.05463208 -0.06976943 -0.05495839 0.037070364 0.057327025 -0.091810346 -0.108648315 -0.07058954 -0.080363564 -0.07840879 -0.09218473 -0.091290034 0.0827725 0.044406075 0.014893417 -0.102293335 0.065913856 -0.1118565 -0.0075113373 0.018769706 -0.072966024 0.035922606 0.04240679 -0.008018544 -0.108247496 0.002629896 0.040123377 0.05582365 -0.09951681 -0.0045153587 -0.035018075 0.026779715 -0.030858537 -0.013874767 -0.05511911 -0.017360894 -0.08222382 -0.05924914 -0.026823256 -0.04574887 -0.062132444 -0.017394826 -0.03278329 -0.004080174 -0.023425194 -0.057169214 -0.06919056 0.0424916 0.08449358 -0.033750456 0.07632865 -0.019542158 0.0015349227 -0.012610836 0.06605746 0.059291635 0.06405204 -0.10243795 -0.011812419
-0.034771796 0.0192 0.01970999 0.080761276 -0.022149216 -0.47118488 -0.036722817 0.0958529 -0.039533142 0.076854125 -0.17201756 0.030692117 -0.02686609 -0.051846866 0.018317904 -0.05778036 0.054789376 0.02893527 0.07687531 0.040900055 -0.10519262 0.008843646 0.03437661 0.019611126 -0.18696302 0.044935394 0.02234025 0.10332744 0.11832527 -0.2138257 0.13848169 -0.0994671 0.005991345 -0.35175142 0.20347938 -0.027408164 -0.104146406 0.12887529 0.077793315 0.045722816 0.012409944 -0.13944638 0.060505673 -0.07456128 0.13838693 0.053213265 0.10504081 0.37498486 -0.11142411 0.030591201 0.21302836 0.05992857 0.039594926 0.048905034 0.07023119 -0.00610886 0.16733883 0.08436854 -0.054215968 0.115405925 0.077782795 0.10202671 0.080523044 0.029203495 0.0574843 0.039044026 0.06420111 0.042866454 -0.03827862 0.014701023 0.06179814 -0.09428205 -0.08020474 -0.118625924 0.086598136 -0.020957608 0.12008978 -0.10055626 0.08852889 0.009166691 0.08629572 0.17521088 0.06883741 0.03351465 -0.0065499633 -0.030084485 0.106883176 0.013867296 0.047806058 0.117703065 -0.07617297 0.16755065 0.086050436 0.07307058 0.03214356 0.054309078 -0.24298818 0.061000716 0.10508202 -0.049727984 0.160308 0.042842943 0.1013211 -0.15025997 0.0874506 0.04821802 -0.068432935 0.08266512 0.12539794 -0.087162785 0.035309575 -0.012391879 0.02529493 0.06912311 -0.071374156 0.10343678 0.04645195 -0.13771732 0.0229638 0.008555585 0.15442774 -0.032711487 0.18488435 0.16650034 0.07865989 0.03131518 -0.01606858 -0.014554493
0.21537171 0.2376575 -0.105353236 0.059059076 0.11541883 -0.13448617 -0.014028072 -0.016113829 -0.00210482 -0.0051947664 0.074197374 -0.053432927 0.0020169802 0.11351847 -0.1692217 0.3138694 0.26796034 0.1405951 0.23889714 0.28560382 0.06692467 -0.07564522 0.05776256 0.13425289 -0.17571287 -0.096798986 0.12847619 -0.01795787 0.0050177476 0.30894074 -0.20602947 0.023727912 0.0840849 -0.123013236 0.062199578 -0.061961472 0.21076915 0.09010147 0.15423442 0.38988864 -0.27857596 0.0027891707 0.0683383 -0.044558853 -0.010488594 -0.058064897 0.0106653785 -0.16359302 -0.21032871 0.09077679 -0.015514814 0.13488531 0.029910974 -0.11351495 0.060703147 0.09591157 0.14688194 -0.022968449 0.09234944 0.107882306 0.18853474 0.0244555 -0.028536772 0.050396066 0.0271244 -0.10348676 0.39331353 -0.0096390005 0.10883526 -0.36435574 -0.06059996 -0.04244429 -0.09152208 -0.005140347 0.021129992 -0.2570449 0.0022791943 0.16540392 0.25764978 0.13608041 0.087268464 0.2451789 -0.053430174 0.042435672 0.035372585 0.022836933 0.17628609 -0.18764178 -0.07987665 -0.06590233 -0.0828062 -0.028305702 0.05663232 -0.16057049 0.13779168 -0.07831697 0.019100195 0.23808976 -0.03733285 0.14039834 -0.11840465 0.0040891264 0.080001414 -0.07949169 -0.05445383 -0.030178517 0.01158635 -0.09139821 -0.027418943 -0.018665506 -0.07059886 -0.10488223 -0.035976704 0.21871828 0.0021823868 0.102176405 0.15661179 0.08156372 0.40111023 -0.2538375 0.075738415 0.13852377 0.14193287 0.1809785 -0.052780006 -0.04925209 -0.33407876 -0.023732388
-0.060951162 0.09130641 0.032714978 0.14621101 -0.13386515 -0.62125844 -0.18949746 0.03754198 -0.17872606 -0.028337607 0.09839411 0.088791914 0.07198245 0.1394737 -0.13630338 -0.24127191 0.14397548 0.001957595 0.24931161 0.07554895 -0.06271094 0.04156816 0.041506518 0.041376323 0.04461989 0.055918045 0.045772947 0.09452535 -0.020108651 -0.1462387 -0.058583587 0.05599656 0.023711849 -0.03718113 -0.17474116 -0.09389545 -0.02171078 0.0150656095 0.09277881 -0.10297112 0.31671607 -0.20725995 0.15203145 0.14515953 -0.0027641093 -0.014859878 0.0028749097 -0.0001909591 -0.090379626 0.0021617985 0.13986269 -0.20144448 0.14656784 -0.035514154 -0.04000398 0.14446738 0.14774868 0.024984408 0.07655151 0.10387146 0.050980553 -0.021386275 0.096344404 0.16145192 0.13028719 -0.13991381 0.006013445 0.16642985 0.019051848 0.041766886 -0.08308836 0.06892155 -0.022785492 -0.048232123 0.13302885 0.104658954 -0.05521188 -0.020108672 -0.08369466 -0.014680121 0.1284122 0.13875413 0.020006709 0.058059398 -0.040135328 -0.15893954 -0.0013235166 -0.04551156 -0.05241051 0.21373309 -0.07270112 0.20408168 0.06689535 -0.031251173 -0.08865946 0.15832686 -0.12765388 0.16954617 0.044831656 0.14645754 -0.07899823 0.039509296 0.06712685 -0.12855221 0.0036615278 0.049924087 0.039252117 0.09500903 0.07256117 -0.24850452 -0.0470605 -0.084364876 -0.016426569 0.07706387 -0.058712028 0.009218788 -0.21634692 0.07756952 -0.15092853 0.07407377 -0.016632468 0.11719759 0.16258046 0.06562302 0.082605496 -0.08178356 -0.2862085 -0.19586968
-0.04436623 0.061397348 0.043097164 0.12023564 0.023685137 -0.11836532 -0.108198516 0.12363538 0.05963679 0.025160987 0.022155702 -0.05714254 0.04748672 0.046103165 0.054320022 0.07147976 0.05603765 -0.0072115334 0.15988337 -0.04812044 -0.08941263 0.100689195 -0.047211047 -0.026207093 0.048598442 -0.058796857 -0.041045416 0.019579144 -0.08366851 0.03838442 -0.031612653 0.03668932 0.08601746 0.26228637 -0.21359633 0.04555267 0.093044385 0.021388236 0.097905055 -0.22975723 0.44827664 -0.122775726 -0.03632546 0.08244602 0.04868711 -0.02272458 0.09166779 -0.2838352 0.011134204 -0.03533219 0.13843755 -0.23640117 0.068628624 -0.039015878 -0.06693721 0.049340963 0.075020984 0.115058206 -0.06923648 -0.06955826 0.065189265 -0.16438939 0.022694763 0.13503243 0.10408946 0.15795298 -0.13313954 -0.08772574 0.042868998 0.17664006 -0.0050093173 0.10943429 0.07067794 -0.026944181 0.016364502 0.1394634 -0.1487839 -0.15776244 -0.3802101 0.0015329745 -0.045463696 -0.3446483 0.095540136 0.028240032 0.06506814 -0.09262746 -0.012986601 0.072324485 0.025433788 0.029520268 0.050266247 -0.006264233 0.08302741 0.14204988 0.0052448525 0.15978347 -0.09896225 0.22726119 0.018681131 0.09497502 -0.10910432 0.14734103 0.122843884 -0.19495682 0.050790794 0.10730771 -0.22352625 -0.13801372 0.10583885 -0.0013441254 -0.015332082 0.0013010422 -0.13550012 -0.1313839 -0.0010432196 -0.2948055 -0.12354333 0.0890703 -0.07564498 0.09989342 -0.22962748 0.094984345 0.1285911 0.08783801 0.15846908 0.19975017 0.13011369 -0.04961181
-0.034702525 -0.13338622 0.06472588 0.100926936 -0.11590724 -0.12895122 0.15562986 0.19590515 -0.26240134 -0.079419315 -0.26979014 -0.023786971 0.1259489 0.09323779 0.2037432 0.010131558 -0.10305747 0.019839766 -0.044009045 -0.18625213 -0.15636769 0.2720967 0.09376284 0.12254744 -0.12222255 0.071343124 -0.014803756 0.14276052 -0.034402646 -0.10427965 -0.010888871 -0.023759421 -0.11612354 -0.09496312 0.03811325 -0.033446185 0.1372955 0.036795195 -0.06899819 -0.05208093 0.038116198 -0.061468914 0.13622457 0.10063953 0.108689986 -0.2513141 0.042182542 0.23244919 0.0035437867 0.07439428 0.06600616 0.0037832072 0.049247675 0.12204346 -0.008446025 -0.044531707 0.057862055 -0.004350185 0.1253651 0.076215014 0.12026687 0.07078726 0.00036563395 -0.1996213 0.15971367 -0.07657452 -0.07368083 0.10720752 -0.1414208 -0.1661144 0.010273195 0.08803016 -0.014465297 0.050686564 0.07911406 0.089964285 0.06819006 -0.06294907 -0.07845123 -0.1139711 0.0054406184 0.016156495 0.017454635 -0.108630896 0.13287607 -0.09106118 -0.04269188 -0.06427132 0.20589992 0.07748177 -0.1399371 0.02088712 -0.06487961 0.038201224 -0.06979088 -0.12909722 -0.015301347 0.0045521953 0.0075587365 0.090486765 0.05779218 -0.04713768 0.17642644 -0.23115471 0.0065990705 0.011995594 0.13600856 0.04633375 -0.053187326 -0.110146835 -0.032563232 -0.015397964 0.19983438 0.011262804 -0.17041412 0.083594196 -0.38365084 -0.058848467 -0.05567068 -0.027234443 0.11104157 -0.09823661 -0.09408462 0.035119988 0.13207805 0.12440491 -0.06893178 0.06384826
0.0030617034 0.047035795 -0.06634396 0.18830055 -0.003492724 -0.16983171 -0.091612406 0.17020947 -0.033438433 -0.1516518 0.11457289 0.07036089 0.03236802 0.031611606 0.031783298 -0.054040015 0.22716928 0.05354414 0.13141966 -0.1709064 -0.045752432 0.028570695 -0.13075234 -0.044374604 0.36061624 -0.063567184 0.0736755 0.040558312 0.12401694 0.027617805 -0.10840239 -0.039403807 -0.12521227 0.45502388 -0.30265695 -0.03493629 0.04599941 -0.03323625 0.069877185 -0.11225942 0.26705793 -0.023361655 0.06988053 0.09133585 0.023440374 -0.06566233 0.09198955 0.06095354 0.075505994 -0.01591197 -0.025341684 -0.32961205 0.13680635 -0.02534229 0.08241611 0.13646546 -0.028447159 0.0033902328 0.014885191 -0.04595394 0.02547635 0.007962418 0.063866176 -0.035221275 0.011099285 -0.0990569 -0.2362771 0.14150351 0.13708931 0.33712077 -0.0019442245 0.19202296 -0.0030265157 -0.07914912 0.0710304 0.12220439 -0.25538996 -0.039912213 0.037789874 -0.23496054 0.24613723 0.0021485887 -0.010379437 -0.119136974 0.08098559 -0.18826026 0.02240119 0.027005263 -0.075262554 -0.07734707 0.008069571 0.33722618 0.06252393 0.11104409 0.0513052 0.020092268 0.18952467 0.18569969 -0.023739278 0.17751986 -0.06830117 0.0748863 -0.008970067 0.015539071 0.067913234 -0.20270433 0.1354358 -0.13396502 -0.02188405 -0.18372764 0.026953526 -0.040220812 -0.17177245 0.11482727 -0.12890068 0.056160804 -0.37499472 -0.11136775 -0.082383245 0.29965803 -0.11030154 -0.06236767 0.22662857 0.07100371 0.04472579 0.12663491 -0.07633941 -0.07546296
0.30151728 0.029253604 -0.08287527 0.015854293 -0.14228076 0.44006065 0.008948815 -0.09064809 0.09636861 0.01904221 0.20349652 0.035436705 0.07983932 0.044614002 -0.33496666 0.11218989 -0.08663707 -0.022219293 0.11885451 0.14291726 0.122004464 0.05333318 0.18571854 -0.061630435 -0.11463141 0.1779295 -0.1118294 0.033735014 -0.13964514 0.29866588 -0.02733269 0.04044701 0.11846696 0.08961638 -0.07765312 -0.043076023 0.048751354 0.05486428 -0.041740544 0.025928037 -0.057152398 0.17681602 0.07579137 0.0011746229 0.14893955 -0.100273535 -0.054954328 -0.46543953 -0.10121728 0.029561644 -0.17110252 -0.119348794 0.15247568 -0.091186315 -0.07466506 0.11814462 -0.050805125 0.0061257067 -0.104507074 -0.27275875 -0.043041326 0.009336705 0.099780254 -0.06699807 -0.016637709 0.07420466 0.11528138 0.036042675 0.1027196 -0.21789302 0.11560367 0.19713335 -0.02848972 0.035501964 -0.07331097 -0.15484394 0.022947798 0.10408092 0.04625224 0.21314286 0.016338438 -0.01736813 0.030247796 0.13269244 -0.026054112 0.042396262 0.030867837 0.02367144 -0.0065650037 0.02270517 0.21604948 -0.13990378 0.05391866 -0.045741156 0.08432103 -0.05094341 -0.09866218 0.112822555 -0.0064459974 0.0077055525 -0.16590023 0.16723818 -0.035633463 -0.22639021 -0.031916548 -0.010093016 -0.14756052 -0.19886345 0.06602421 0.5239029 0.09959625 -0.08865387 0.028610589 0.07257289 0.01802065 -0.13599248 0.017153047 0.27693957 -0.0125053935 -0.2760859 0.072147556 0.026479753 0.05264243 0.05325237 0.06323038 -0.09117606 -0.11163014 0.06807166
-0.03234074 0.07537508 0.003086908 -0.14253598 0.010275213 -0.21130511 0.08448783 0.011032981 0.049708217 0.0047141155 -0.042819202 0.11125544 -0.057669822 0.032104824 -0.11440409 -0.30685353 0.04946682 0.14564282 -0.09061868 -0.015509642 0.0953579 -0.12192904 0.060645368 0.02704443 0.025283532 0.16625701 -0.013842877 0.03388104 0.020308515 -0.2801344 -0.0542585 0.14923383 -0.09375957 -0.20353945 -0.028789459 -0.029450744 -0.31269044 0.030307682 0.03407791 -0.007363113 -0.2732327 -0.14025421 0.05744276 0.039491393 -0.13006994 0.060837965 0.08371227 0.22826983 -0.007894532 0.0540138 0.0917038 -0.1481044 0.09543707 -0.009696901 0.043971647 0.050615195 -0.0032135895 0.03296987 0.17802104 0.019208184 0.1415068 0.13754454 0.0021313645 -0.035700653 0.040609587 -0.13250673 0.09142428 0.16832626 -0.0056339884 0.013809023 0.08888096 0.04222763 0.081445634 0.12337983 0.07301599 -0.05743031 0.1668293 0.15042496 0.2288427 0.08471068 -0.0031373375 0.3051718 -0.03336412 0.0735933 0.103984095 0.10467629 0.014427492 0.057074677 -0.15943505 0.028928947 0.06340471 -0.08297592 0.058391295 -0.0056391424 -0.00714956 0.016983708 -0.34762397 -0.16998602 0.14319737 -0.15287982 0.15774737 0.042431746 0.09939002 0.2336602 -0.411201 0.017056238 0.039436676 0.14884123 0.01257337 0.027584026 0.06322187 0.110732555 0.11199928 0.07615742 0.15098982 0.11600103 -0.18319462 -0.037957158 -0.15964633 -0.019249355 0.32377183 -0.025003029 -0.2817211 -0.2996826 0.07178241 -0.2085023 -0.24328886 -0.079867005
0.06631803 0.08103417 0.02644081 0.16051692 -0.14732902 0.24067913 -0.03971233 0.028309211 0.062038887 0.049762625 0.2904523 0.088371366 0.11649913 0.055741157 -0.21689644 -0.2536909 -0.05163246 -0.074103 0.11250303 -0.058958508 0.15753052 -0.0680612 0.10727436 0.13118215 0.3304555 0.1546764 -0.004182681 0.049392913 0.08821801 0.35333714 -0.22347672 0.012706224 -0.09167486 0.21029991 -0.086787865 0.02692807 0.03089134 -0.09082672 -0.26546744 -0.07808046 -0.14261939 0.16260695 0.14587474 -0.0033397356 -0.094458744 -0.10585378 0.03589544 -0.16541138 -0.018265488 0.1378824 -0.07409635 -0.3140736 0.14649722 0.0916868 -0.0019374675 0.058935963 0.01666367 0.06438559 0.06961369 -0.31364018 -0.021541769 0.029448884 0.046074748 -0.00981808 0.029833699 -0.04627967 -0.118189335 0.17750266 0.08675501 0.05727843 0.11621922 0.30533907 -0.01865541 0.123837836 0.07269632 -0.035766665 -0.06919878 0.12295343 0.03124359 0.050248206 -0.023185221 -0.058339145 0.12933789 0.033485666 0.090379074 -0.04449883 0.085805155 0.09851356 -0.07147192 0.045532938 0.3407564 -0.2535542 0.025255732 0.011799867 0.08197759 0.019204551 -0.115139306 0.063063726 0.12937579 -0.06670881 0.0650876 0.13313895 -0.033068266 0.085883506 -0.1343005 -0.08734862 0.17141859 -0.07978563 -0.0069533093 0.32628486 -0.030620933 -0.12196458 -0.12602697 0.077876806 0.06596692 0.15888745 -0.35272005 0.14017905 -0.26900858 -0.026177611 0.14669116 0.07298361 -0.27733135 -0.26888427 0.038369503 -0.15047671 -0.16089141 -0.029220335
-0.059903014 0.048524626 -0.032975055 0.054936826 0.059483517 0.037979342 0.0036546842 0.0067500332 -0.045388415 -0.045292128 -0.012828832 -0.069566235 -0.03775425 -0.031720743 -0.07869824 0.017893415 -0.042016838 -0.011193526 0.03635146 -0.0372019 -0.00357245 0.0048007355 -0.07046099 -0.015582471 -0.006290329 0.0141433915 -0.10258247 0.021361882 -0.07097516 0.005149264 0.03936596 -0.093714654 -0.026396098 -0.08453857 -0.058931552 0.029272921 0.036352266 -0.09199966 -0.12105311 -0.09163477 -0.08822558 -0.05670904 -0.07682613 -0.14026752 -0.10997471 -0.03885537 -0.041169293 -0.024575913 -0.012516884 -0.055207264 -0.13353722 0.021536337 -0.090537556 0.00056091876 -0.06994949 -0.0317533 -0.036782086 -0.11471595 -0.057290036 0.048590336 0.0150833735 0.016851993 0.020939019 -0.08386548 -0.06784136 -0.06263711 0.029355887 0.011030318 -0.0106205605 -0.042675506 0.010018138 -0.07086894 0.082877815 -0.11042868 0.0043040346 0.0065323757 0.028824532 -0.036484934 -0.047257382 -0.09757885 -0.09835724 -0.061769415 -0.008630184 -0.028280258 -0.048725262 -0.0069886246 -0.07673903 -0.03376309 -0.030754805 -0.043890107 0.058633722 0.03952782 -0.0986584 -0.12867141 -0.04216582 -0.004561313 -0.04430536 0.015982235 -0.09351516 -0.100036144 0.011619906 -0.07638195 -0.07110457 0.06308202 -0.09505164 0.01984335 0.006519173 0.02702871 0.010631783 0.019208811 -0.07801226 -0.05116019 -0.08074053 -0.05821702 -0.090499505 -0.031656872 -0.045638427 -0.022433834 -0.018043093 -0.07759451 0.023779063 -0.10105069 -0.016164156 -0.014385781 -0.009102991 0.055064794 -0.012645876 0.016726907
0.032348737 -0.14897813 0.13637683 -0.19841073 -0.18821295 0.13793088 0.20464152 0.0644986 0.01636815 0.048216783 -0.17566136 0.07101629 -0.015955195 -0.06193463 0.26395813 -0.09306302 -0.24338111 -0.048390716 -0.1761257 -0.1637103 0.015464437 0.20733787 0.10567579 -0.0427157 0.059298724 0.017763956 -0.053772286 -0.05340178 0.018270157 -0.37085217 0.13801871 -0.061108224 0.096945174 -0.047528766 -0.062894486 0.047932487 0.04893329 -0.22810079 -0.2214403 -0.2972214 -0.10198714 0.11607217 0.078627706 -0.004873318 0.26443276 0.044317134 0.05123294 0.27885213 0.00045038483 0.048300706 0.022964498 -0.32963735 -0.050655346 0.09115304 -0.0009745839 0.095558695 0.13375726 0.06927218 0.06959507 -0.11477781 -0.011630523 0.025253844 0.039314777 -0.044886805 0.032083165 0.023831137 -0.10259752 0.020993255 -0.2281601 0.11869302 0.047535207 0.032636642 0.04536541 0.10624739 0.056883167 0.0010466363 0.03286601 0.075480506 -0.21862389 0.15839186 -0.09552924 -0.09863828 0.13132825 0.04003088 0.049720984 0.05003936 -0.047738455 0.08657991 0.25580022 0.18072712 -0.0021019494 -0.223924 0.05015352 -0.07368768 -0.062262073 -0.045468822 -0.08264274 -0.24577022 -0.0473672 -0.13851188 0.061986566 0.01853854 0.21603493 -0.07851622 0.07030856 -0.0009973416 0.102605164 0.119772285 0.00705979 0.12239385 0.08654395 0.13915126 0.32516253 -0.2295028 -0.057000667 0.037352525 -0.15568042 0.07904693 -0.3394411 0.010523719 0.11907776 -0.16065799 -0.22079666 -0.3383012 0.1172654 -0.07042101 0.023695886 -0.030171752
0.040242385 -0.019411545 0.12384073 -0.19394396 0.047966946 0.7241649 0.018968401 -0.043672927 0.30897993 0.3146978 0.08171225 -0.03491404 -0.050795753 -0.0062697786 0.06772932 0.13291194 -0.1625164 0.014500081 -0.010364409 -0.025263967 0.09188376 0.083737984 0.1592132 0.037551172 0.052775893 -0.20885226 -0.030654823 0.096442446 0.09377915 -0.0076204645 0.08915127 0.10400566 0.18439187 -0.041263808 0.12532644 0.053158138 0.0058942847 -0.086730026 -0.031363785 -0.072507 -0.13074066 0.03908658 0.04835111 0.016223146 0.027782127 0.10783898 -0.02063391 -0.10727424 0.12895003 0.14793323 0.14906242 0.107479565 -0.04183829 0.17748202 -0.062069785 -0.01508172 0.060387008 0.02507595 0.022093423 -0.12554722 -0.083393455 0.07368081 -0.0050460906 -0.0062697385 0.07496153 0.15032387 0.030278588 -0.2959297 -0.08250526 0.06514233 0.11815848 -0.1432348 0.043870505 0.13728467 0.107115395 0.029479768 0.058499612 0.12134711 -0.18707168 0.13936383 -0.3140354 -0.015042288 -0.059835963 0.12610075 0.09502973 0.28354335 0.041800976 0.20247993 0.07716547 0.107484445 0.3768075 -0.24839626 0.09254482 5.8221478e-05 -0.071215555 0.14369859 -0.18010075 -0.13333389 -0.15156183 -0.284453 0.059183285 0.08230367 0.033340387 0.09305707 -0.11518354 0.17664395 -0.04729943 0.07244638 0.14010622 0.50924057 0.079154804 0.1824625 0.16085921 -0.086158924 0.19503833 -0.032753505 -0.053794395 0.22916187 0.053606037 -0.17930676 -0.103839085 0.081806526 -0.24830534 -0.15387788 0.03395901 0.029879762 0.17248347 -0.17566766
-0.10456986 0.0009545061 0.028362535 0.14695713 -0.14932963 0.10382392 0.042536613 0.1354941 -0.0811031 -0.003193628 0.068777926 0.06968803 0.14461827 0.19643618 -0.057786018 -0.55959135 0.04935296 0.08937841 -0.061018568 -0.024689429 0.05826001 -0.06182501 -0.03553324 -0.021571595 0.40369654 0.11305736 0.073558435 0.09762598 0.13006224 0.2594795 -0.1082355 0.012278374 0.0050710873 0.24963842 -0.06522311 0.08791151 0.024401464 -0.1393419 -0.14530717 -0.31362325 -0.085441984 -0.10897188 0.07714806 0.15531316 0.13182749 -0.052891664 0.0031124381 0.017957114 0.14315343 -0.027492575 0.066394 -0.51797086 0.16955699 -0.037144996 0.02315217 0.15158136 0.08158453 0.03596902 0.13745075 -0.3085958 0.040699963 -0.046216786 0.0072559435 0.15296897 0.019942174 -0.115793556 -0.028207285 0.17319894 0.021318747 0.19817446 -0.020620152 0.29702097 -0.01403903 0.04085667 0.08563075 0.0336056 -0.048413128 0.04207093 0.030218823 -0.02600047 0.246118 0.0964085 0.058275435 -0.02070932 0.028613226 -0.11152752 -0.01632913 0.10651423 -0.10822818 0.14948723 0.1786142 0.25488308 0.07413988 -0.00017427873 -0.113795884 0.046516955 -0.24722727 0.01713103 0.1155892 -0.12062555 0.022462841 0.003107125 0.15328926 0.14959644 -0.033387445 -0.09095536 0.13418747 0.03897346 0.08559062 0.07572643 0.11107202 0.070023336 0.11666124 0.101968385 0.08446669 0.16228558 -0.35842055 -0.047011122 -0.25188085 0.20723876 0.0068361494 0.08293944 -0.19138743 -0.33274132 0.077108234 -0.28161505 -0.13277178 -0.2617662
-0.014383792 -0.006435122 0.08445714 0.12956364 -0.18962902 -0.4217898 -0.16353653 0.090531334 -0.12778133 -0.12651277 0.059512854 -0.009976356 -0.05013693 0.12058829 0.18213156 0.1334844 0.15379857 0.050785586 0.10837012 -0.07947357 -0.06999082 -0.040182058 0.1191866 -0.04921871 -0.0196582 -0.10459927 -0.043196682 -0.08201994 -0.0054691867 -0.3327461 0.075423285 -0.031297553 -0.041072834 -0.11918759 -0.021545291 -0.06578069 0.07984613 0.05041289 0.15562311 0.0020202082 0.2467846 -0.051629912 0.08339095 0.07906663 0.1889046 -0.044243567 -0.053408477 0.21031235 -0.22825642 -0.008740069 0.027829545 0.1623353 0.12372221 -0.1173333 0.021338422 0.11216089 0.13747287 0.094023354 0.054072063 0.3063618 0.131304 0.02293941 0.1203618 0.034232866 0.06588314 -0.16802847 -0.12263411 0.0844576 0.022056153 0.040770523 -0.11008217 0.028223546 0.0024045357 -0.011115178 0.03501844 0.1040844 0.041493233 -0.107412785 -0.027185276 0.025996743 -0.058824 -0.036266174 0.05767193 -0.067112885 0.05835917 -0.10687619 -0.058966834 -0.04342565 0.11350092 0.10873606 -0.32229316 0.17741124 0.027802618 0.052462857 -0.02541894 0.028502313 0.17545924 0.20003329 -0.009795507 0.14919096 -0.050265398 0.085821144 -0.046023715 -0.2727139 -0.022125935 -0.03346525 0.018635131 0.047729224 0.080659494 -0.29522935 -0.10742231 0.039662533 0.25070238 -0.018646719 -0.14650114 0.06545261 0.05537927 0.0021824553 0.03555917 0.11081721 -0.07782467 0.08177925 0.18770315 0.13739228 -0.060668975 0.09354295 -0.124882884 -0.01598286
-0.16478911 -0.05240597 0.114082545 -0.11157553 -0.0619362 -0.33734885 -0.12089066 0.05154868 0.045562625 0.09960105 -0.03747118 0.05404854 -0.09491297 0.07648751 0.17755151 -0.28619593 0.13961227 0.13675544 -0.018270805 -0.03558618 0.041795354 -0.09406322 0.0114660915 -0.032379948 0.041223314 -0.10618606 -0.0077888994 0.10225198 0.08438819 -0.2163785 0.06854648 -0.0049891784 0.14964522 -0.19455111 -0.025431562 0.12595154 -0.17944495 -0.051712662 0.088200666 -0.044364087 0.18568671 -0.29421404 0.04326071 0.07319135 -0.09444448 0.0848243 0.016771404 0.11934678 0.0149884615 -0.045415703 0.2690126 0.07649548 0.08906754 -0.06394199 -0.08578831 0.11134409 0.16512917 0.0909419 -0.0621298 0.24783036 0.011589162 0.027366757 -0.0018028186 0.12734611 0.046534248 -0.05365195 0.026215212 -0.113853455 0.101404704 0.22246484 -0.023393016 -0.08100483 0.04104859 -0.15717901 0.040792864 -0.0152779985 -0.054926768 -0.002849025 -0.046650056 0.096566215 -0.0697367 0.1063924 -0.087731026 0.0134655265 0.016896512 0.0032632232 0.070725285 0.1090293 -0.1540329 0.12618013 -0.18411373 0.17115533 0.14885764 -0.010514788 -0.03437752 0.19905558 -0.116211206 -0.029964993 0.03960604 -0.17730282 -0.01254913 0.07577393 0.087753564 0.07510045 -0.1739697 0.00824357 -0.07901066 0.11505177 0.12539956 -0.33259386 0.049049642 -0.12194188 0.13668369 -0.08460558 0.12552604 -0.016391253 0.023566134 -0.08086099 -0.15711126 0.20468812 -0.120119475 0.050654985 0.1450056 -0.043505576 0.05395736 -0.043653376 -0.01160584 -0.052432522
0.071235985 -0.0757298 -0.053181197 0.12539779 0.10408756 0.06479975 0.14374614 -0.014879051 -0.099070534 -0.12981094 0.0069173933 0.14272454 -0.0012381806 -0.045089737 -0.10797385 -0.12573501 -0.09742695 -0.09241404 -0.22149895 -0.43279985 -0.14680941 0.093531206 -0.17071778 0.22782016 -0.0071638366 0.15435669 -0.08137439 0.14622653 -0.116012074 -0.055474754 0.06518344 0.027538834 -0.100271344 0.26988086 -0.05813467 0.07924495 -0.1460863 -0.21984677 -0.089727 -0.042604353 0.3486456 -0.01768684 0.011880189 0.024879506 0.07813685 -0.15617722 0.08887707 0.2875748 0.16317658 -0.10639738 0.12776725 -0.73277795 0.04289154 0.2368333 -0.07634951 -0.03662966 -0.11256137 0.038470946 0.14122978 -0.056671444 -0.034608733 -0.19104983 0.014367415 -0.19064243 0.11932297 0.14275421 -0.2337316 0.14515746 -0.1837439 0.010423238 0.09051243 0.064318515 -0.06797864 -0.04686296 0.09464751 0.31133017 -0.2641861 -0.030569142 0.08767663 -0.122596435 0.12168215 -0.06580771 -0.0390397 -0.043961465 0.14217581 -0.2971915 0.09099137 0.16641274 0.123586155 -0.0018839901 0.12953822 0.072208084 0.0025672554 0.022320114 -0.028891452 0.0024708866 0.15799046 0.032469995 0.14934365 0.058244426 0.05434664 -0.08686503 0.0028999757 -0.25531974 0.040538736 -0.104572035 0.06442703 -0.102701925 0.02742134 -0.013283791 0.11383771 0.019561555 -0.25733927 -0.049046706 0.023476569 -0.021961544 -0.17643687 -0.11096082 -0.099578336 0.19223452 0.13596712 -0.18056686 -0.015511709 -0.1259367 0.07236696 0.23935209 -0.1163208 0.16011682
-0.15697679 -0.08096897 0.02170525 -0.056033332 0.10979948 0.3382155 0.18467066 -0.25567403 0.1308702 -0.0883537 -0.07632152 -0.05548918 0.031243006 -0.040629957 0.24503784 0.10285627 -0.068408266 0.1880597 -0.13618967 0.044589095 0.094252996 -0.18532561 0.10495409 0.07897755 -0.0016712169 -0.24065709 0.14163847 -0.052969586 0.13927822 -0.13744932 0.28265816 0.0802009 0.03582679 -0.101803325 0.23464681 0.058992013 -0.09863547 0.042408198 -0.006609345 0.2107181 -0.25815567 0.13982944 -0.03201485 -0.18466102 -0.07700757 0.16296588 0.11852719 0.008914374 -0.10230791 -0.06987336 0.051697455 0.24728516 -0.013207071 -0.1504293 0.00952369 0.048772145 -0.034891177 0.11017181 -0.05176526 0.04801638 -0.03604042 0.11533503 -0.050128803 0.098159455 0.030321216 0.0128853 -0.055570647 -0.06333338 0.019273056 -0.063939065 -0.11039627 -0.07734473 0.052277524 -0.017332807 -0.049152747 -0.001273281 0.20611678 -0.03429154 0.13108577 -0.07842992 0.14792633 0.13039556 -0.09341099 0.13897645 -0.02370074 0.21884483 -0.12757501 0.021606423 0.030152015 -0.09934297 0.03937112 0.25191772 -0.006333234 -0.13107204 -0.11910275 -0.11695161 0.23690018 -0.21049537 -0.16925135 -0.20853452 0.10997575 0.026791856 -0.015735216 0.27763778 0.1137905 0.117870875 0.0030453063 0.05375138 -0.04147379 0.14000642 0.024285208 0.1772108 0.19323848 -0.04569325 0.10694173 0.07037642 0.16908655 0.022519505 0.014098643 0.22351368 -0.03385446 -0.09235742 0.04969968 0.0068512913 -0.042024873 -0.09576506 0.1454892 -0.07509603
0.23413806 0.14471439 0.04778404 -0.008336741 0.0449866 -0.383713 -0.04764891 0.011359978 -0.17736115 0.08946076 0.03886358 0.116469175 -0.06624182 0.07201554 -0.11704298 0.09930703 0.19396074 0.06841851 0.3299742 0.25801355 -0.020004718 -0.10689435 0.049084533 -0.042260453 -0.09352274 0.08241507 0.053014345 -0.06420948 -0.009575504 0.13692625 -0.12749821 0.11692878 -0.0034422944 -0.13170807 0.06786645 0.0022802216 0.060061824 0.072492495 0.0014536591 0.13808082 0.014816444 0.11667397 0.046919063 0.010763707 -0.0077939355 -0.11463863 -0.035092033 0.039911855 -0.2246517 0.059413306 0.10017155 0.14653951 -0.10536258 0.08887345 0.040629312 -0.06483087 0.085628964 -0.07294574 0.13296793 0.32038727 0.15040709 0.17790578 0.05698527 -0.03020115 -0.025525633 -0.1691685 0.38669077 0.04282343 0.11541787 -0.14031057 -0.0126750795 -0.109751195 -0.08276996 0.027379636 -0.07640296 -0.103735164 0.069162115 0.045872606 0.24139692 0.03972137 -0.05212397 0.08853585 0.11537474 -0.0056713223 0.07213576 0.042913895 0.0733301 -0.11516074 0.099918075 -0.09946395 -0.27547535 0.040691894 -0.062433902 0.008043538 -0.030944033 0.10736337 0.07683588 0.117164426 0.05850703 0.18656282 -0.024207221 0.0076714726 -0.0338297 -0.17397623 -0.05263308 0.026767902 0.09432284 0.028652512 -0.061206434 -0.24287784 -0.001739096 0.11635031 0.14851116 0.17206778 -0.086936854 -0.04846063 0.31834617 0.02205389 0.33965915 -0.18410747 0.13955697 -0.029327244 -0.0005742172 0.21335778 -0.07054811 0.057467002 -0.024101993 0.11123841
0.016553082 0.051434606 0.10010114 -0.022610288 0.12108653 -0.05920861 -0.026036434 -0.021495234 -0.03991546 -0.025713066 -0.0747526 0.11619668 0.09828283 -0.07122613 -0.14295457 0.20164822 0.07260777 0.072212756 -0.14054853 0.025253499 0.13257958 0.0028720615 0.07908078 0.03790577 -0.36020118 0.15828824 0.040209576 0.10526391 -0.0014528938 0.055067003 0.023298442 0.07881976 0.11359628 -0.30529767 0.115573294 0.12902224 -0.0019142176 0.13325085 0.24223778 0.32159802 -0.038355272 -0.092354536 -0.0726978 0.014414299 -0.04644341 0.044395007 0.121337116 0.17966083 0.019066215 0.07411109 0.017745992 0.0947031 -0.019414471 0.050453153 -0.032226957 -0.061669406 0.0731589 -0.005860387 0.01634726 -0.032566004 0.1451409 0.07635876 0.14569104 -0.080336556 0.031042626 0.06434966 0.09203633 -0.050819773 -0.040559184 -0.27711603 -0.00036165075 -0.13448888 -0.08096544 -0.04236085 0.040666297 -0.20434521 0.006573146 0.055150602 0.18735245 0.10638966 0.186944 0.25769645 0.02489142 0.116463155 0.037405934 -0.00033590404 0.1363879 -0.041805815 0.0049809515 -0.090378515 -0.095344186 -0.16879576 0.058630507 0.17123447 0.23299778 -0.07258221 -0.21410927 -0.06059727 0.15967466 -0.03745976 0.15681857 0.01401364 -0.040482637 0.0030348392 -0.032537747 0.09232204 -0.044534788 0.13268535 -0.011120137 0.04382484 0.11262426 -0.04956689 -0.19586278 0.11777257 -0.035996757 0.030459216 0.20605145 -0.074756645 0.07253962 -0.3728117 0.23927286 -0.06362413 0.17688726 0.13736674 0.0917054 -0.0014498497 -0.04071397 0.18185213
-0.07217075 0.029894643 0.0231446 -0.062061492 -0.21797404 0.48840272 0.13142681 -0.036309775 0.08525608 0.12781163 0.1507253 0.09661425 0.10588603 0.07182105 -0.040985376 -0.030068098 -0.14049183 0.1869881 -0.10386866 -4.7471985e-05 -0.076290116 0.2534852 0.15198174 0.13087207 -0.078686334 0.015164602 -0.0145502705 0.11218139 0.12918587 -0.1498744 0.055462502 0.07986046 0.0042551747 -0.17992839 0.10602081 0.021297121 -0.04891556 0.0010068244 -0.14054462 -0.14000186 -0.27679428 -0.046854474 0.037901614 -0.0813179 0.32955098 0.1517334 0.103620864 -0.058398478 -0.06631004 0.10647629 0.07248226 0.15050644 0.15979014 0.017047057 0.01545079 0.03313604 0.017854506 0.024864018 0.07068947 -0.09289523 0.004622926 -0.05703592 0.07364623 0.06412697 0.11169466 0.13310336 -0.029957153 -0.05004488 -0.028043944 -0.20929511 -0.14601175 -0.030441672 -0.06554834 -0.043160923 -0.07219696 0.14447044 0.16910456 0.007275266 -0.14883904 0.19347815 -0.10509068 -0.054978788 -0.026601946 -0.120877296 0.026037345 0.1858452 -0.012825067 0.07182194 0.15006067 0.31457323 0.18216315 -0.030568635 0.08110295 -0.1689218 0.07768396 -0.08538431 -0.255429 -0.03405422 -0.071981706 -0.21694186 0.080690324 0.10084327 0.32758793 -0.07631645 0.02987399 -0.032973114 -0.09016603 -0.051854037 0.06290572 0.27948698 -0.04367249 -0.12857828 0.0561095 0.018256633 0.028335938 0.112147234 -0.18900044 0.14644179 -0.10030601 -0.1569138 -0.033721842 -0.004351815 -0.2122829 -0.033299234 0.07606129 0.08323649 -0.10083709 -0.102121115
0.14402533 0.16126199 -0.1448143 0.21641618 -0.16016564 -0.051532 -0.078602485 0.057568684 0.07984766 -0.10852343 0.33302173 -0.077239044 0.0873733 0.065276824 -0.12656134 0.1198424 0.03483862 0.048303515 0.24672325 0.017992433 0.034408074 -0.08637334 0.11115382 0.1004747 0.06590105 0.070764825 0.0067444784 0.065371 0.095596395 0.21053714 -0.116108045 0.1297252 0.020517034 0.017072277 -0.20390673 0.019329732 0.06794572 0.112470105 0.18955886 0.10164901 0.1301485 0.13118546 0.06134702 -0.045274433 -0.14712295 -0.13401368 0.0014318518 -0.3205065 0.017745763 0.050310556 -0.10938198 0.108793736 0.1717913 0.010337356 -0.03226527 0.07661091 0.08413438 0.0061766445 -0.07563732 -0.12144182 -0.014582347 -0.07015672 0.15928248 -0.017465292 -0.012864192 0.026273368 0.02003799 -0.008650887 0.096088566 -0.09300732 0.10064188 0.18489732 0.021847967 -0.047992885 0.12283136 -0.13452108 0.13916995 0.11182877 -0.08012606 0.020822905 0.18568209 0.030524652 0.025917217 0.12861434 0.08201711 -0.070833385 0.08220129 0.045869615 -0.38292113 -0.11529805 0.034773123 0.08099766 -0.030891886 -0.14050154 0.15606876 0.03861897 0.09749687 0.20033261 0.11255546 0.1420046 -0.17863879 0.08522075 -0.1315818 0.12881488 -0.13470876 -0.046906043 -0.002250515 -0.20447332 0.019137627 0.09647728 0.010003826 -0.22246544 -0.13681205 0.019302329 -0.060065202 -0.08714334 -0.07238386 0.25450048 0.06918491 0.062649995 -0.008805038 0.20250942 0.10542453 0.06601234 0.05090855 -0.04625307 -0.34385237 -0.06434187
-0.06892683 -0.09947627 0.039762035 -0.014109933 -0.07469723 0.032744363 0.0013788939 0.09485638 0.12606236 0.0140885515 -0.11133554 -0.068329 0.13987777 -0.14583431 0.13507646 0.24894466 -0.02631075 0.11108568 0.05479329 -0.2786628 -0.1665389 0.30826578 -0.07269639 0.049506895 -0.17351341 0.031280678 0.05048691 0.039283037 -0.019159947 -0.3858676 0.043031204 -0.13884234 0.015063017 -0.22447348 0.012601909 0.06364802 0.10576124 0.021114783 -0.06296477 -0.10047146 0.29463935 -0.06584956 0.038699172 -0.03683343 0.19420733 0.12912625 0.1459226 -0.06530563 -0.10969464 -0.047029838 0.14149548 0.2607246 0.034329206 0.059516635 -0.0694299 -0.04607851 0.08598656 0.12997504 -0.15881762 -0.01406009 0.07019579 -0.103215784 0.08532487 -0.0004856584 0.068465 0.14170016 -0.23623702 -0.34541258 -0.17566478 0.07184086 0.03418067 -0.020998172 -0.057664443 0.024852635 0.044493627 0.1166947 -0.06682126 -0.22782907 -0.6993312 0.09214495 -0.2616745 -0.3883201 0.04983585 -0.068835124 -0.036019348 0.100322716 0.06268293 0.1405384 0.009640745 0.11460524 -0.07601514 -0.14545159 0.075063586 0.012989785 0.10231419 0.059471995 0.16515501 0.113317035 -0.07105503 -0.050525174 -0.0659265 0.0236856 0.013421879 -0.18300371 0.06730843 0.039225515 -0.34092623 -0.061968125 -0.017855827 0.13640845 -0.062787615 -0.11199744 -0.08611344 -0.3089963 -0.055399098 -0.07622433 0.028784849 -0.00013147425 0.042339098 0.11872899 -0.32058743 -0.039662935 0.255425 0.2772782 0.045818925 0.12342234 0.100472875 0.009398338
-0.04380829 -0.02079977 0.036140524 0.033753164 0.22000761 0.41117662 0.09525987 0.013163171 0.17188689 0.08564229 0.13812599 0.037315767 0.08469689 0.07914656 0.13926044 0.041836526 0.015755828 -0.11303001 -0.05152827 -0.061808478 0.12309346 0.02693342 0.016170418 0.02662216 0.3874517 -0.13135919 0.042818557 0.0013849838 0.0395709 0.3944879 0.017091248 0.070113435 -0.028130116 0.42831728 -0.018878927 0.10207306 0.026115786 -0.059147388 -0.049971297 -0.083649345 -0.005572028 0.10198258 -0.11532907 0.08367857 -0.12118199 -0.01906525 -0.073074475 -0.05455428 0.20520666 0.10389766 -0.11949462 -0.18744612 0.04314796 0.09848986 0.013555027 0.031668376 -0.08897674 0.03171263 0.012860882 -0.13733007 -0.019520843 0.027402516 -0.0017615786 -0.08060538 -0.056805395 0.09499587 -0.1884671 -0.025858048 0.04852077 0.28312376 0.11676094 0.011367825 0.05662625 0.12148687 0.035975046 0.08018757 -0.03664857 0.056143187 0.07673133 -0.07879351 -0.059311476 -0.10705338 0.029726306 0.12794513 -0.057253323 0.039912317 -0.040512253 0.14448164 -0.049887072 -0.13048013 0.21097924 -0.031229751 0.030525021 0.031429198 -0.063582756 0.08591235 0.25159147 -0.050568234 0.023849169 0.017500967 0.04037828 -0.003413354 0.03207517 0.29769456 0.13104336 0.029059023 0.11978135 0.04423166 -0.054958843 0.12909812 0.011156429 0.09311038 0.062118545 -0.044626214 0.1357971 0.07710836 -0.053874876 0.061049536 0.0019341134 0.090587445 -0.0177456 0.07604716 -0.08886916 -0.09842232 0.035674494 -0.050795164 0.28242907 0.11685168
0.08004716 0.1008525 0.012308877 0.29212657 0.26387596 -0.060615223 0.044475194 0.103617296 -0.023463832 0.0341445 0.03533002 0.15825054 -0.108850256 0.026569206 -0.08435656 0.035700902 0.14301997 -0.12728162 0.21105647 0.121782936 -0.048744936 -0.016609672 -0.06868118 0.105290994 0.2064903 0.092564106 -0.008576965 -0.0022028962 -0.051022403 0.47960922 -0.13387224 0.12558211 -0.05043351 0.5010589 0.12371448 0.069759466 0.092877 0.10338504 0.014218739 0.21673653 0.1152167 0.119443916 -0.06797275 0.1516367 -0.17781363 -0.1709294 -0.088232584 -0.0020862664 -0.0029572314 -0.010006607 -0.11343732 -0.18388942 -0.039150465 0.16690321 0.042721473 -0.13098699 0.058956902 0.01563992 -0.018231107 0.13411157 0.20060107 0.023504315 0.029643096 -0.14145482 0.019928627 -0.03792676 0.2069834 0.13678151 0.14175317 0.0028259053 0.08205839 -0.002627989 0.05286026 0.02558747 -0.05331281 0.06721819 -0.04043191 0.1509547 0.42563826 -0.11011904 0.10093039 0.13259017 0.14776218 0.09563437 -0.042774145 0.002845894 -0.07513904 -0.10191842 0.056382384 -0.19720334 0.025047228 0.0268392 -0.0023181958 0.21912374 0.109569214 -0.033791974 0.28412932 -0.010060925 0.19668503 0.31646916 -0.03715949 -0.074469335 -0.19209433 0.023824884 0.09105901 -0.08391114 0.26471496 0.05326665 -0.054949075 -0.1810827 0.0040422836 0.18163198 -0.019994238 0.1911841 -0.06158344 0.05786484 0.24366432 -0.014764641 0.2508654 0.1260418 0.047966007 -0.05583643 0.008531766 0.093409754 0.060377374 -0.034022518 0.15919535 0.08707585
0.114059165 0.027512103 0.03628378 0.16258758 0.24947375 0.21284026 0.21105021 -0.037186105 -0.04583982 0.10171797 0.050848924 0.16441311 -0.052465454 0.09896309 -0.27932364 -0.112086795 -0.087524705 -0.061730172 -0.1124666 0.2149325 0.2348803 -0.019401059 -0.017578531 0.12999123 0.15880683 0.026913885 0.0023043216 -0.0009192854 0.03602869 0.35599732 -0.111682504 0.09956998 0.0068446756 0.3238834 0.09007857 -0.0061195786 -0.04516469 -0.05599314 -0.10650182 0.11351193 -0.1698274 0.14600563 -0.16011515 0.07922663 -0.18417722 -0.098514915 -0.036436483 -0.16910541 0.21837229 0.017648557 -0.10797322 -0.30715305 -0.039498042 0.11097732 -0.07033886 -0.099157594 -0.17538565 -0.07412168 0.13888179 -0.16670188 -0.023339743 0.14304218 -0.12665677 -0.15028806 0.015512959 -0.00483157 0.16542432 0.16877955 0.19781232 0.05827435 0.06585309 0.094379984 0.021152608 0.21386833 0.040848825 -0.061966915 -0.101978 0.16283314 0.4089108 -0.0027248892 0.31526268 0.28315958 0.04913342 0.1221783 0.046265382 0.13050535 -0.06843468 0.056857865 -0.11476437 -0.091067635 0.29505536 0.09444656 -0.047455907 0.0034890848 0.06383484 -0.06350286 -0.04774954 -0.09048594 0.08549488 0.14838448 0.010325306 -0.06525741 -0.13713744 0.11662772 -0.07158485 0.073238134 0.22796363 -0.018713038 -0.009312941 0.15649833 0.054567914 0.14641711 -0.10470501 0.106325164 0.12498678 -0.015950112 0.10411068 0.06632154 0.1757167 -0.0709387 0.03769518 0.07361644 -0.17245166 0.014643293 0.031530395 -0.077806465 0.12236974 0.10135412
0.09920519 0.07953423 0.055207953 -0.13195534 0.1587622 0.108349696 0.18938912 -0.30562845 0.17935511 -0.04294005 -0.21593708 -0.09004197 0.017680792 -0.110329665 0.36669913 0.2780734 0.012259061 0.08139064 -0.048408773 0.08036532 0.13208553 0.0012587014 0.14075382 0.0011646845 -0.057982717 -0.13103509 -0.033925485 0.011693994 -0.016892785 -0.23380521 0.4440152 0.030533772 0.17146686 -0.061030176 0.278389 -0.00055572187 -0.02961449 0.048755154 0.10059557 0.16850618 -0.19321834 0.20944269 -0.019659286 -0.10250699 0.043446418 0.004502781 -0.076240934 -0.09184087 -0.25048292 -0.06980662 -0.08820123 0.39988717 -0.11050231 -0.19849674 -0.018501516 -0.063369155 0.0043067 0.06463978 -0.04399892 0.32131958 -0.052269932 0.16126595 -0.05460812 0.054211866 -0.058461394 0.06732681 -0.014914192 -0.067556046 0.033134382 -0.045401126 0.04693693 -0.20110309 0.065312594 0.016224902 -0.04173549 0.12265893 0.29806077 -0.111587934 0.2190084 0.07984179 -0.13108268 0.1348893 0.0020279947 0.08527 -0.01745296 0.15823601 -0.073768385 0.009433273 0.19821647 -0.014509703 -0.0373612 0.023687819 -0.094449595 -0.019801246 -0.16260931 -0.0715391 0.27707526 -0.13970195 -0.22995566 0.10155083 0.15432353 -0.070561565 -0.1434344 -0.06281329 0.16033322 0.1104457 0.011403163 0.220084 0.06929437 0.052122626 -0.10269885 0.20791839 0.39966473 0.014360791 0.02326209 0.1566222 0.42097348 0.025115926 0.2925239 -0.0235129 0.030861158 -0.12474902 0.10759137 0.1021433 0.0061928723 -0.06618961 0.39241347 0.1002627
0.20022514 0.096055485 -0.0659222 0.04261411 0.025892293 0.033635475 0.01389656 0.12274929 -0.21627674 -0.13905682 -0.3231098 0.084393196 0.006515289 -0.008402823 -0.08387752 0.06813682 -0.07248303 -0.07128375 0.020641133 0.0713049 -0.03296052 0.16537647 0.073015474 0.054446056 -0.26979536 0.20875408 -0.09762116 0.0022537534 0.0026859252 -0.023624288 -0.039629623 -0.022380551 -0.18467173 -0.30424488 0.16642323 -0.05180018 0.080737054 0.02013717 -0.06546408 0.11112464 -0.14975516 0.08782807 0.023928069 -0.026384613 0.094692044 -0.26685247 -0.04689484 0.13628669 -0.12861411 0.09878475 0.059291117 0.051290255 -0.04216453 -0.021256912 0.07023497 0.009546517 -0.088739395 -0.08228789 0.097093105 0.28265142 -0.0114889685 0.07813932 -0.02399163 -0.10102459 0.07984705 -0.16221222 0.28954542 0.09413185 -0.072746344 -0.3120393 0.0075938674 0.026340155 0.07091286 0.07841894 -0.07428931 -0.025296947 0.17620996 -0.023326052 0.13680346 -0.1321448 -0.06667544 0.1151797 0.07131275 -0.1435464 0.09000177 -0.16925162 0.11510064 -0.06018151 0.25078318 0.0713599 -0.0092368005 -0.020916391 0.0320179 -0.08157312 0.12530877 -0.268435 -0.08661629 -0.00047743006 0.09707885 0.12568453 -0.01796126 0.09697895 0.007210765 -0.44462234 -0.05615944 -0.09723918 0.04605119 0.011000966 -0.024741339 0.22777307 0.101007596 0.024380013 0.34494582 -0.03842534 0.034546252 -0.014460295 -0.10555125 -0.080410875 0.03888753 -0.12154303 0.20832747 -0.09349873 0.033192053 0.116308644 0.030526118 0.06068029 -0.18024181 0.20505396
0.010576643 0.09067386 0.0013722372 0.07796456 -0.07548776 -0.18900928 0.16688693 -0.0008896278 -0.048325054 -0.07617622 -0.040853247 0.008227657 -0.045432154 0.075999565 0.17344497 0.030577473 0.10194457 0.092109 -0.015945591 -0.051925797 -0.034476135 0.12072651 -0.049871173 -0.035168875 -0.45861277 0.11988968 -0.079142794 0.018514197 0.067952044 -0.16007358 -0.14158775 -0.030763391 -0.02259921 -0.434882 0.028119927 -0.07115654 0.234602 0.16853158 0.00721866 0.19526145 0.006215296 -0.16023144 0.028387593 -0.07168869 0.11654284 0.021906769 0.10269222 0.21107084 -0.08984425 0.068076424 -0.050128896 0.30667964 -0.063674435 -0.04860077 -0.08011259 0.084084645 -0.03298624 0.076819204 0.049046308 0.093991466 0.009434706 -0.009025211 0.09699452 -0.08584723 -0.039192554 -0.10842227 0.10539172 0.0096308505 -0.16221574 -0.23031434 0.09893016 -0.047542498 0.054467015 0.048983578 0.042147852 -0.15279353 0.08004105 0.069951296 -0.032180432 0.013632617 -0.018151857 0.10542649 0.05541894 -0.04747121 0.03284464 -0.07824098 0.123775326 0.039346576 0.20378406 0.039365035 -0.06300418 -0.12273701 0.06512494 0.0009066904 0.15373294 -0.112912714 -0.18011375 0.0045282273 0.15158027 -0.061564174 -0.0060656434 -0.044664245 0.047855034 -0.19355255 0.24416049 -0.109178506 -0.08681779 0.087611616 -0.055554107 -0.011944466 -0.06416611 -0.06790449 -0.032380067 0.0833951 -0.22911145 0.05616797 0.0038343756 -0.09450216 0.02391632 -0.17772277 0.1202983 -0.004383897 0.0743971 0.23024717 0.04230509 0.008135137 -0.0840102 0.16083987
0.068126105 -0.01365684 0.021580327 -0.029227851 -0.071123086 0.03966631 0.0036516893 0.01928177 0.19134098 0.10278463 0.098047726 0.07153314 0.1303027 -0.09373809 0.08527885 0.34700194 -0.021044042 -0.073381156 -0.058011286 -0.067413226 0.013064444 0.088995755 -0.08956754 0.014656307 0.045205608 0.0016090528 0.0033409833 0.026851706 0.11754725 0.07264935 0.016356835 0.0002391761 -0.042212423 -0.048620835 -0.029837342 0.07283806 0.06670231 0.2247781 -0.02405145 0.051154587 0.10659747 0.10560963 -0.14781559 -0.09768228 -0.2424242 -0.039289117 0.046725105 -0.18673876 0.075328626 0.08883844 -0.06848477 0.26378262 0.12750646 -0.057633385 0.018763106 -0.063842796 0.035748214 -0.0821547 -0.072302446 -0.27199098 -0.06280847 -0.0020593288 0.044139292 -0.013050173 0.0965183 0.14110094 -0.22408299 -0.20261492 0.037473433 0.028396534 0.117904305 0.12894605 0.047102083 0.16514616 0.00037877398 0.042416696 0.080096155 -0.072565444 -0.13213228 -0.07084657 0.08398994 -0.08965623 -0.02861395 0.08190418 0.022140438 0.052065656 -0.077794984 0.043909438 -0.08306971 -0.20384096 -0.075584546 -0.26860443 -0.018154768 0.0262879 0.13191761 -0.08215954 0.3374499 0.059630968 0.038662005 -0.01445883 0.097384006 0.04400947 -0.1238512 0.22767976 0.14187898 0.118030235 0.027592327 -0.026356602 0.047018602 -0.08706991 0.046542343 0.053468358 -0.25221297 -0.08562519 0.017766906 0.028846059 0.10299091 0.17346193 0.024607025 0.18167697 0.029491246 0.12998092 -0.005215488 -0.032902654 -0.028489662 -0.02050842 -0.051546346 0.12642743
-0.11977205 -0.049417958 0.07452039 -0.12615697 0.32408285 -0.070923276 0.07864165 -0.0009830076 0.14366144 0.069818474 -0.09540681 0.10139622 0.003958293 0.09215928 0.045379966 -0.21453495 -0.10465547 -0.019212564 -0.1740638 -0.092541516 -0.03160322 0.0032246797 -0.059694625 0.06713865 0.012667714 -0.05155633 0.035815373 0.12762907 0.14241137 -0.009355326 0.12080017 0.02324499 0.01947331 0.10807132 0.0039611114 0.003529746 -0.039817244 -0.11583666 -0.056483403 -0.16047254 -0.058685537 -0.1373123 0.04478057 -0.061804086 0.059950102 0.12749681 0.10593416 0.31096143 0.09410621 0.0053494466 0.11539709 -0.1701192 -0.018578783 0.045067362 9.462333e-05 0.023499662 -0.012304241 0.13263415 0.060581442 0.033658713 0.027570369 0.005951307 0.016086051 0.045278564 -0.039262686 0.17808972 -0.13575104 0.09463562 -0.10974768 0.17434925 0.049850494 0.076019935 -0.05470813 0.0943355 -0.03265463 0.13043065 -0.033022244 -0.03557484 0.021218894 -0.0003202298 0.13017423 0.05298464 -0.08456393 -0.0181918 -0.050260235 0.057400852 -0.053583294 0.15304051 0.1274576 0.07326416 0.18654993 0.08313616 0.021480406 0.099337876 -0.12676838 0.1653192 -0.025849398 -0.22496459 -0.002934873 -0.21593238 0.1413849 -0.07575714 0.08384468 0.15607786 -0.014360542 0.09053064 0.11482655 0.17853656 0.113903314 -0.04660636 0.0060121794 0.08272498 0.11320064 -0.052959964 0.14917155 0.14024119 -0.13181828 -0.14887068 -0.22700651 0.063750185 0.011580259 0.0360026 -0.08486151 -0.23798293 0.06379697 0.11493111 0.15529245 0.0674087
0.10155067 0.12130148 -0.018844387 0.12569182 -0.07440204 0.16017452 -0.14883417 -0.029169235 0.21403235 0.1484393 0.30838314 0.06082676 0.009386063 0.12869203 -0.050753005 -0.094184674 0.10638536 0.12216196 0.0069825696 -0.12018368 0.044529554 -0.0012712181 0.099191226 0.07020467 0.26644203 -0.059312265 0.013340198 0.024169842 -0.07817602 -0.00379512 -0.076367214 0.000771003 0.12812658 0.39600313 -0.09289622 -0.05791537 -0.12756018 -0.09487978 -0.010402055 -0.24094923 0.20154656 0.0036041015 -2.0684536e-05 -0.012581975 -0.041210894 0.15278158 -0.04561098 -0.22169349 0.0388872 0.1159851 0.14554805 -0.30687535 0.17235951 0.09854113 0.039504796 -0.006600345 0.074675456 0.012600839 -0.059190027 -0.16880602 -0.057198543 -0.09212859 0.11480528 0.116255835 0.06919058 0.18759088 -0.14030011 -0.021834895 0.19160202 0.4030943 -0.008502855 0.0073970724 0.04753842 -0.041341327 0.052238908 0.24297054 -0.068179 -0.038114384 -0.1459342 0.17665003 -0.17255378 -0.10136657 -0.05231165 0.11270108 0.09505851 0.13052182 0.068907835 0.13971357 -0.1963768 0.10130695 0.12780331 0.13552211 0.11701175 -0.08319627 0.006631433 0.1844485 -0.017373392 0.13427594 -0.031620063 -0.1281091 -0.19721496 0.09534459 0.08408372 -0.05084189 -0.03075066 0.09031809 -0.08139349 -0.17388248 0.13806428 0.26845 -0.07323958 -0.1311691 0.019743292 0.07114341 0.14698748 -0.20783842 -0.17909643 0.15729809 -0.033294354 0.24269587 -0.22325543 0.15909491 -0.022437615 0.03857555 0.057043217 0.067407 -0.116259694 -0.1814709
-0.1802394 0.065116115 0.029093808 0.26359427 0.048763443 0.03173946 0.016913325 0.106177494 -0.1378694 -0.18332516 0.114626914 -0.051910043 0.17285079 0.088862896 -0.10128278 0.16781732 0.05939521 0.14680587 -0.17415795 -0.062092505 -0.06872988 0.002457852 -0.082105346 0.03901368 -0.18702984 0.038116943 0.17483288 -0.06912793 0.02192666 0.16842557 0.029566506 -0.06447498 -0.16958168 -0.014357834 -0.08022321 0.0846215 0.26936525 0.20649548 0.117082424 0.4110532 0.16685192 -0.16115476 0.033846267 -0.03663632 0.09168957 -0.004085574 0.0064346874 -0.06274434 0.0026404513 0.04023074 -0.09821567 -0.019890718 0.14563258 -0.1310621 -0.0113005545 0.14491352 -0.12902382 0.16365385 0.055244334 -0.19802609 0.012006212 -0.13227315 0.08482992 -0.056326322 0.10685605 0.04031897 -0.20630264 0.14823285 -0.037855633 -0.10093603 0.041492302 0.08341118 0.07516552 -0.05029755 0.11251894 0.007356503 -0.030041877 -0.01797634 0.09748083 0.0058867205 0.27063397 0.07607495 -0.039468475 0.0025296935 0.048168562 -0.11908078 0.07848486 0.027752966 0.19374168 0.06917779 -0.037059568 0.21308012 0.07488068 0.11472185 0.23886164 -0.043751985 0.122712955 0.12850869 0.21037339 0.057748694 -0.032587226 -0.05770052 -0.033762645 -0.011715663 0.40352097 -0.13636515 -0.0363036 0.04172976 -0.053106565 -0.038299814 0.12219635 -0.123963304 -0.28520772 0.137108 -0.15531556 -0.024609193 0.21349531 -0.14977027 0.26802874 0.16271286 0.1298369 -0.001109174 0.3095248 0.32075548 0.08451753 0.1590084 0.104454994 0.11125419
0.10843042 0.008904363 -0.04908714 0.10925797 0.18372798 0.47350988 0.1064335 -0.10040101 -0.092029534 0.08067028 0.08389791 0.08068707 -0.064427234 0.06997431 -0.13706675 0.021797925 -0.029271219 0.059393696 0.05062249 0.27423352 -0.047682837 0.058861222 -0.034826826 -0.048795473 0.15017278 0.10380504 -0.047905784 0.14450096 0.041907817 0.25527868 -0.0170132 -0.012338163 -0.010700895 0.16252059 0.3482847 0.018157896 0.2072586 -0.05653095 -0.11766311 0.02737236 -0.13564163 0.09076736 -0.027784098 -0.07510351 0.31224707 0.057402864 -0.101188034 -0.061844196 -0.06682716 0.097455114 0.12290167 -0.34442782 0.043091446 0.037815932 -0.011070276 0.019479588 -0.066672124 0.11473011 0.10731907 0.017927615 0.09634306 0.09974166 -0.016057346 0.09804352 -0.038252193 0.07113624 0.36144555 -0.023939535 0.17773075 0.031553704 -0.06010407 -0.102944076 -0.079464264 0.128221 -0.03438007 0.20617422 -0.07026297 0.15093888 0.09171131 0.105397254 0.06599367 0.16452713 -0.12856711 -0.06379529 -0.040525068 0.27412543 -0.0807468 -0.0954504 0.12323875 0.22879645 0.3555014 0.19340837 0.06543011 0.008827581 0.0075843753 0.1498096 -0.29749018 0.015168126 -0.018656345 0.09227665 0.03252061 -0.00089231867 0.018542217 -0.03145204 0.21914515 -0.08649234 -0.002207859 0.020412356 0.11235868 0.39270955 0.04579713 0.112627685 -0.023750506 0.06771056 0.03708113 -0.07318633 0.23725869 -0.013062885 0.2071032 -0.09247419 -0.0072811893 -0.003140869 -0.040443916 0.07762074 0.12074589 0.08624615 0.11078452 0.025855025
0.060166612 0.02171742 0.05170182 -0.17384253 -0.25629452 -0.2997544 -0.0724816 0.06872819 0.0026328615 -0.0403281 -0.088610135 0.020581923 0.123173036 -0.05728582 -0.056334127 0.15298028 0.051754814 -0.009026312 0.17207836 0.023082253 -0.015021641 0.14117543 -0.026203498 0.020703318 -0.17962511 0.04321097 -0.00718486 -0.04514061 -0.015917374 -0.18811437 -0.06859505 -0.07837402 -0.00017833864 -0.42880598 -0.112768605 -0.050730757 0.12006797 0.07716189 0.19096857 -0.0029368182 0.2675553 -0.3022245 0.095408715 -0.034577705 0.14687966 -0.096311934 0.12115346 -0.013024366 0.0128817195 0.057078127 -0.005472876 0.07380848 -0.06288059 0.070974536 0.060927436 0.11726933 0.025003346 0.021743353 -0.0011646128 0.09803896 -0.021805702 5.073907e-05 0.16431896 0.09090288 0.08364361 -0.041262634 -0.04814987 0.013815703 -0.038329795 0.082551986 0.13590193 0.024651296 -0.02869441 -0.032174975 0.07655023 -0.08518484 -0.0005565947 -0.09299114 -0.25496224 0.12743801 0.014394596 -0.07757731 0.03904347 0.09587636 0.13672239 -0.096360534 0.095740594 0.049692236 0.07714989 0.12539767 -0.19889323 0.034840636 0.028794099 0.17854415 0.21189876 0.031338744 -0.054723263 0.25784054 0.07028485 0.013190081 0.041411273 0.16027008 0.15161695 -0.15457982 0.120178945 0.024016846 -0.19623499 0.04385961 0.037627604 -0.17841761 0.09719906 -0.034307867 -0.014832024 -0.05312448 -0.12051761 -0.1191292 -0.03551204 -0.035686508 -0.032537382 -0.17276832 0.019280564 -0.0049649496 0.21111082 0.19903652 0.09092702 0.08294725 -0.07442785 -0.005977895
0.101720296 0.025616357 -0.08957608 0.20434134 -0.0114537645 0.38697305 -0.035114396 0.0058608674 -0.054962356 -0.031622358 0.09552174 -0.028726617 0.055320162 0.13081762 0.023332804 0.00390476 0.09583218 0.010380389 0.05786669 -0.075170174 -0.072344474 0.16855504 -0.16638094 -0.035436474 0.087141484 0.10944332 0.023599837 -0.025626523 -0.0040149256 0.23356962 -0.031075435 0.06181345 -0.18940212 0.41715837 -0.2249568 -0.03572323 0.1641098 -0.14376897 -0.17647193 0.12808123 0.14553337 0.18364708 -0.1506086 0.06487963 0.039725214 -0.21744718 -0.02132978 -0.27364427 0.14762491 -0.058311176 -0.23285854 0.027916871 0.033344127 -0.049799133 -0.038104955 -0.024044426 -0.0363451 0.032646857 0.13652696 -0.1218581 -0.007916415 -0.1711438 0.07151442 0.063837945 0.02905053 0.10015675 -0.08726717 0.11946514 -0.015146555 0.114752464 0.06433597 0.20413917 -0.012554777 -0.18948308 0.08347589 0.178926 -0.107902765 -0.08536185 -0.04326486 -0.17803343 0.26303852 -0.11537539 0.15103792 -0.062430426 0.041966885 -0.056557335 -0.05159686 0.07342921 -0.011974645 -0.039332077 0.3267263 0.34522814 -0.010767942 -0.02827754 0.008624937 -0.05860135 0.35977975 0.084292844 0.14271306 0.17210002 -0.17983371 0.07823775 -0.13358656 0.1542499 0.2811376 -0.22150344 0.123520724 -0.020444741 -0.06310621 0.15657249 0.096442625 -0.02470597 -0.27128837 0.0048694788 0.03243284 -0.15548116 0.21755056 0.02904259 -0.12941383 0.31969926 -0.12355549 0.052567557 0.069327556 0.09389589 -0.023764497 0.10235236 0.18814129 0.22983229
0.086922534 -0.010633123 -0.00025196423 -0.14320576 0.051266365 0.036324326 0.2637245 -0.00368677 -0.06947677 -0.09132531 -0.3111676 0.115445554 0.003304257 0.011091536 0.29342458 0.17314069 -0.21961033 -0.11203674 -0.1971799 -0.32146162 0.04018092 0.17540002 -0.2023324 0.10519326 -0.28864694 0.07667528 -0.16923453 0.065175876 -0.1447466 -0.121248655 0.32745114 -0.03864024 -0.14495322 -0.093629494 0.0066012125 0.04570507 -0.024479548 -0.17461704 -0.16512626 0.07441937 0.24076316 0.17292829 -0.10604076 0.062158205 0.1348162 -0.044095684 0.18509853 0.2635682 -0.04245775 -0.12882268 0.20260943 -0.15157947 -0.09350893 0.06461214 -0.017774232 -0.10848072 -0.015469741 -0.07913349 0.13219543 -0.34506756 0.06334412 0.017729735 -0.044531323 -0.21145284 0.058614306 0.20014034 -0.05482531 -0.03395233 -0.1091148 -0.017886726 0.09497105 -0.11193724 0.012668838 0.08652557 -0.032153808 0.16268876 0.115178555 -0.23225905 0.083264574 -0.089416824 -0.06407749 -0.06426768 0.18968152 0.10470488 -0.10971126 0.048234116 -0.04903992 0.12050822 0.19291288 0.012984497 -0.106689945 -0.22850966 0.13185489 0.16510046 0.08781164 0.031285107 0.046957757 0.029078979 -0.058916144 0.18271439 0.20640336 -0.09205152 -0.010199516 -0.2298854 0.058431644 0.057670433 -0.08205276 0.14591338 0.12128454 -0.03281859 -0.010724993 0.15444048 0.18343219 -0.23877214 0.17286699 0.018738933 0.03256981 -0.031476576 -0.28975305 0.035517454 0.099126704 -0.3563103 -0.017029608 -0.1295516 0.124382325 0.24492022 0.07292792 0.27721658
0.22194731 -0.024554744 0.11023675 -0.12709267 -0.013882702 -0.42568678 -0.16093355 0.051606365 -0.01335118 0.10343077 0.0925435 0.09951523 -0.11043508 0.019060165 -0.11783811 -0.26997498 0.07440367 -0.07899706 0.31387836 0.15534653 0.14237705 -0.08165226 -0.004200486 -0.07657082 0.09005815 -0.010600119 -0.10281769 -0.0704944 -0.074884884 0.106987864 -0.1414918 0.13933676 0.1609255 -0.069563895 -0.097130045 0.011698264 -0.0788881 0.003907257 0.13495253 -0.050630517 0.24122165 -0.04231013 0.10361693 0.033878475 -0.20205414 0.060542043 0.041714936 -0.11055588 -0.036187682 -0.03506939 0.08912294 -0.11525184 -0.0999713 0.085616045 -0.08908359 0.13415661 0.19110139 0.046168048 0.058326907 0.1448501 0.0904254 0.076469705 0.12718032 0.16061004 0.054770526 0.0059550214 0.26655743 -0.0015450984 0.090586305 0.15344042 0.044851907 0.07063408 0.04976242 0.11302829 0.12452466 -0.10168962 -0.011414252 0.0067486414 -0.05352018 0.064766265 -0.0024709608 -0.041956674 0.10399848 0.13112767 0.050172105 -0.08683359 0.11725946 -0.038712233 -0.3150104 -0.010942975 -0.16781369 -0.0989689 0.01936846 0.123461194 -0.008393663 0.22467977 -0.16481273 0.24184456 0.044951934 0.15804125 -0.14507776 0.09293031 0.014412119 -0.059171222 -0.21748996 0.05977174 0.019291135 0.019387243 0.05062981 -0.15471582 -0.0051981406 -0.10805744 -0.07722211 -0.050204586 -0.05627565 -0.12855747 -0.012706849 0.02653095 -0.14791521 -0.17814064 -0.023891577 0.058551285 0.14469004 -0.04159052 -0.0011000313 -0.11260939 -0.21111307 -0.24681525
-0.0032187533 0.009433171 -0.09242575 0.03952051 -0.0904154 -0.3403131 -0.32128832 -0.018660584 0.08492409 -0.20323248 0.022933686 0.036505107 0.046816252 0.015338937 0.23761518 0.12465909 0.23482503 0.03997418 0.13027507 0.09094246 -0.15253642 0.03319706 0.062997 -0.07829634 0.04393205 0.02069217 0.1612736 0.010563348 0.11849331 -0.44779643 0.14588322 0.15614751 0.20080492 -0.043075047 -0.028813833 -0.06329632 0.09665428 0.14298387 0.2633249 -0.030418878 0.20359103 0.0006009272 0.08537459 0.0070545366 0.051053267 0.010413681 -0.02170017 0.08044241 -0.11765376 0.08101423 -0.023934482 0.22398648 -0.00491588 -0.0780096 -0.08671914 -0.008686255 0.19460064 -0.059992936 0.012989428 0.34525257 -0.013602763 0.041526243 0.04520691 0.2039061 -0.043632153 -0.076346226 -0.22853862 -0.0020198193 0.10077042 0.093668826 -0.13123475 -0.06990784 0.014905855 -0.099016465 -0.09123221 -0.0022121784 0.07704842 0.021007722 0.03716453 -0.05093521 -0.15314052 -0.03951554 -0.05875129 -0.08572199 0.036271635 -0.12178619 -0.06423729 -0.063318685 0.12817119 -0.029966075 -0.34767437 0.19745427 0.0087482575 -0.09112191 -0.13861486 -0.036289655 0.47985688 0.0194272 0.06619499 0.02114649 -0.09865167 0.16000614 0.0747399 -0.02938005 0.08200594 0.105818756 0.106315024 0.08961081 -0.086671494 -0.4230993 -0.13680464 0.10006508 0.14472939 0.06672403 -0.10327758 0.051116735 0.018912194 -0.082580134 0.1732316 0.27227086 -0.15711904 0.104352035 0.14513615 0.1989068 -0.0038563618 -0.036807198 0.1314435 0.012956774
-0.2987567 -0.11228319 -0.12401997 0.020030014 0.101050876 -0.12566027 0.084348835 -0.03921486 0.0328115 -0.13027754 -0.043487255 0.023095734 0.030752385 -0.02217289 -0.054574322 0.08555234 -0.06531817 -0.14513226 -0.14793384 0.009911255 -0.01718969 0.03534407 0.00026765323 -0.13020997 -0.042045064 0.096230894 0.0133255385 -0.08275859 -0.014776064 0.054249797 -0.015936231 0.11150837 -0.17113835 -0.021345932 -0.11400899 -0.058584057 -0.007312202 0.089768305 0.099983424 0.042593744 0.022483055 -0.063509844 0.017817883 -0.11344375 -0.037733093 -0.03431754 -0.07280791 0.03955102 0.08553666 -0.04109234 -0.015317391 -0.03653706 0.12323355 0.00053805806 -0.08985069 0.09437762 -0.063837126 -0.01004839 -0.08730102 -0.033281676 0.033035327 -0.1306958 -0.08121875 -0.09793554 0.042800684 -0.07142154 -0.055607855 0.09805398 -0.034823168 -0.0035340798 0.013429437 -0.011543735 -0.008178305 0.077165335 0.07252119 -0.05304465 -0.052209154 -0.06768552 -0.13335505 0.04463352 -0.05651034 -0.1354769 0.08225637 -0.06861282 0.05951863 -0.0382392 0.04357225 0.13037854 -0.0395962 -0.013745364 -0.0962209 0.050468802 -0.048912067 0.004385844 0.07536451 -0.038452584 -0.010207659 -0.0019429063 0.07926408 -0.038573433 0.058812946 -0.055307332 -0.15681596 0.062636726 0.041877385 -0.0972935 -0.088484906 0.016363729 0.00619591 -0.17074725 -0.039056882 -0.099862516 0.055871185 -0.04430718 0.053906187 -0.024762707 -0.037821922 -0.22602387 0.066639766 -0.12720436 -0.050490573 0.0037135517 -0.13138902 0.047598075 -0.074509464 -0.019513268 -0.111781605 -0.07341197
-0.04232362 -0.03169596 0.048445717 -0.06414973 0.010653103 0.017579176 -0.03487521 -0.077040926 0.07592186 0.015177664 -0.08733241 -0.06065985 -0.082394615 -0.027236447 -0.092706434 0.015907045 -0.048258614 -0.030411597 0.07780912 0.07848718 -0.08209736 0.013679598 -0.026928997 -0.07916037 -0.04726273 -0.0817499 -0.07400273 -0.05297954 0.051765118 -0.02491339 0.020867998 0.047779582 -0.009344381 -0.05331359 -0.038929947 0.022083042 0.028146008 0.071031556 -0.08713732 -0.032947555 -0.082897335 0.064630024 -0.018722333 -0.066646636 -0.018004108 -0.04164565 -0.05168543 -0.052755073 -0.0466842 -0.049859155 -0.093166746 0.048227828 0.05037375 -0.0543749 0.02564799 -0.031398144 0.015340751 -0.07209465 0.008413592 0.05609518 0.007888967 -0.09002222 0.040829487 -0.10094351 -0.07009109 -0.007957613 -0.030780949 -0.036424097 -0.08087057 -0.09435323 -0.10851388 0.018654598 -0.005860614 0.008675814 -0.076274976 -0.06198618 0.06523599 -0.05169798 -0.07956087 -0.03805112 -0.044191703 0.043528836 0.05012127 -0.08759255 0.04611518 -0.10061722 0.011101342 0.021011585 0.054106876 0.054647934 -0.034543462 0.03230784 -0.057653334 -0.032089688 -0.11357984 -0.093979254 -0.021809986 -0.022146443 -0.07885523 -0.045857754 0.0024494678 -0.058939055 -0.005519181 -0.03262437 0.017396955 -0.11199501 -0.02785223 -0.09392913 -0.07028692 -0.072192416 -0.0035442817 -0.010651074 -0.08174926 0.01205216 -0.10414572 0.021708354 -0.08925793 -0.05342954 -0.08239884 0.04156581 -0.054907728 -0.0032417953 0.019659871 0.045744255 -0.10005993 -0.028074892 -0.07855298 -0.025813734
0.17566752 0.09262132 -0.12797286 0.031123139 -0.08530422 0.26753777 0.14017048 -0.095565006 -0.04104398 -0.04286557 -0.015592324 -0.06657701 0.025604257 0.063746706 0.04766763 0.27813056 0.044191122 0.039045118 0.11392172 0.023735555 -0.0012811518 0.122754246 0.08629746 0.024814146 -0.22251783 0.059130106 -0.026422784 0.04285004 0.019043315 -0.18129413 0.09213607 -0.009547699 -0.10057535 -0.15458526 0.06354887 0.036460813 0.13579853 0.17650004 0.05629038 0.13901511 0.0038632378 0.20965531 -0.014140651 -0.04692876 0.20802067 -0.101242155 0.090567745 -0.057335593 -0.126032 0.068001755 -0.01026694 0.44747746 -0.03186644 0.05042979 -0.02722166 -0.07869583 -0.118035235 0.04233079 -0.06306701 0.1517991 0.005194386 0.02606875 0.06879536 -0.060155686 0.007038855 -0.019244002 -0.01505286 0.005150949 0.06499758 -0.32510117 -0.028508404 -0.12370279 0.0019093914 -0.07455308 -0.14403488 0.08355467 0.21141464 -0.078263514 -0.03775665 0.03308442 -0.06260681 0.10849173 0.021360882 0.00884584 0.035375655 0.13934253 -0.030015562 -0.08061402 0.15786271 0.15610896 -6.422456e-05 -0.12659211 -0.04018912 -0.07810632 0.09465709 -0.13314404 0.20703954 0.12535264 0.055672284 0.0147189405 -0.13438796 -0.04676594 0.033791084 -0.1478266 0.017193506 0.02401883 -0.1524779 -0.07579259 -0.10259731 0.008073766 -0.075288504 0.024151484 0.21768886 0.0424658 0.028584277 -0.09711858 0.1804097 0.118398964 0.17975655 -0.16509528 0.07056947 -0.040598284 0.15946686 0.20250918 0.081107296 0.22638136 -0.071293265 0.039391506
0.099564135 -0.020467564 0.13771409 -0.110347986 0.20101425 -0.27928007 -0.050650816 0.16288736 0.030347914 0.07859171 0.07464088 0.03967273 -0.08763516 -0.08376114 0.014013778 0.16177505 0.102961205 -0.10606163 0.24303757 -0.093511924 -0.13100716 0.011279048 -0.14170703 0.0805219 -0.12329026 0.0436087 -0.10851421 0.06692687 -0.04250206 -0.04178949 0.12241058 -0.02866428 -0.027059697 -0.021786682 -0.081925064 0.062935196 -0.03406097 -0.0062481468 0.24749562 -0.03210399 0.47462797 -0.07876683 -0.10808568 0.03575993 -0.011971109 0.009185293 0.13852805 -0.17390612 0.10655788 0.05646019 0.093105376 0.075807944 -0.040448055 0.15430902 -0.008555565 -0.11091972 0.05032578 -0.055249725 0.110009626 0.07958457 -0.013967432 -0.072913304 -0.0012823227 0.05471676 0.14337918 0.055459466 0.017608166 -0.064465806 -0.04794908 0.21199113 0.1439564 -0.12274437 0.061000258 0.1073983 0.004539727 0.065650694 -0.10415766 -0.009270403 -0.24282487 0.055928726 -0.006845768 -0.28854188 -0.011588056 0.0840164 0.00078282994 -0.06224828 0.042026997 0.08581925 0.029960575 -0.07019408 -0.12522627 -0.14322932 0.05392402 0.32132772 -0.01606219 0.13671145 0.12247048 0.253655 0.0528119 0.2623523 -0.0759904 -0.09977554 -0.076823935 -0.07969293 -0.019865075 0.034794956 -0.097632386 0.057802737 0.024368314 -0.22057012 0.089710385 -0.06960949 -0.18602951 -0.030854028 -0.015154723 -0.24558145 0.173357 0.087133534 0.10493953 -0.07241445 -0.1506827 0.027275722 0.07133976 -0.031395268 0.04801199 0.14341041 0.1951319 0.033101246
-0.019026697 0.057307553 0.052426957 0.0773974 -0.06687238 -0.31532717 -0.00789362 0.051158164 -0.15341651 -0.02983537 -0.118218325 0.04548151 -0.05221294 0.013093712 -0.028992461 -0.047997687 0.12307517 0.04163053 0.087226085 0.05110768 -0.027358025 0.09496215 -0.047212504 0.0013794827 -0.19348778 0.20712669 -0.063356705 0.07603808 -0.040726308 -0.097152576 0.069236286 0.06390463 0.05682943 -0.047577187 0.0073551508 -0.06811726 0.21336076 -0.085371114 0.08078214 0.07440265 0.24378018 -0.048929557 0.043225024 -0.008890909 0.08590375 -0.10338672 0.1160603 0.080677226 -0.12184796 -0.004274691 0.062656224 -0.19469841 0.025437195 -0.0050797625 0.033135656 0.033115648 0.098498635 -0.00090006867 -0.05926397 0.06891259 0.14712654 0.013385398 0.06538986 0.09221388 0.06672819 -0.058238033 0.0049146507 0.17591704 -0.12126025 0.10838294 -0.035799973 0.08485842 -0.0671312 -0.09723921 0.118216775 -0.019348916 -0.019012073 -0.14318192 -0.043784797 0.09899304 0.05640278 -0.0032181824 0.07705715 -0.009134542 0.041387904 -0.13008468 0.06643019 0.08316215 0.110620916 0.10868534 -0.107414894 0.11537461 0.035264593 0.16306987 0.010684759 0.12312901 -0.09011784 0.24003787 0.10692848 0.13603377 0.041145682 -0.02334635 0.051876087 -0.31199333 0.021954352 -0.019148089 -0.032217715 0.07114129 0.005199705 -0.14452843 0.08909667 0.06368645 0.020511065 0.09448859 -0.15186326 -0.054907903 -0.07937266 -0.01792959 0.064254016 -0.04423558 -0.06706952 -0.05564527 0.24695738 0.1809294 -0.032171316 0.018301748 0.027685469 -0.04337271
-0.11370671 0.07726849 0.10610878 0.03261684 -0.21650735 0.0541335 0.170136 0.073105425 0.028604928 -0.023680232 0.07683595 0.043881327 0.14626987 0.06464094 -0.16839914 -0.16404562 -0.106668204 -0.0044290875 0.04756911 0.008438111 0.068627216 0.025873944 0.04355225 0.15730023 -0.23078446 0.28416875 0.10405828 0.1040607 0.0755286 0.06275268 -0.048851833 0.03320942 -0.112128794 -0.25713265 -0.124792635 0.08105093 -0.07175063 0.19554336 0.061027948 0.03334173 -0.17583075 -0.07883678 0.12818697 0.11588232 0.015913012 -0.117140695 0.10359009 0.16484472 0.07971916 0.04758371 -0.117033236 -0.0063575516 0.016095776 0.036087994 -0.014933322 0.15353271 0.111050844 0.079776816 0.027400393 -0.24528635 0.0029651583 0.0753798 -0.032073148 -0.003713497 0.0116551565 0.016503436 -0.06505389 0.18402274 -0.09737646 -0.41853324 -0.053414393 0.18360952 -0.04350472 -0.02183778 0.14613214 -0.16225164 0.060502198 0.020951716 -0.021858566 0.034260835 0.3878327 0.17717388 0.03399466 -0.021657277 0.10200868 0.04992451 0.08686154 0.11969657 -0.009364329 0.15298423 -0.11377505 0.024986457 0.01883838 -0.09908389 0.14174849 -0.1584221 -0.22598903 -0.07103953 0.10379123 -0.13413802 0.04325562 0.16589504 0.043217942 -0.0544357 -0.17423552 0.038073335 0.09060775 -0.059080273 0.017362336 0.021403061 0.14899327 -0.07912832 -0.10106276 0.15183698 -0.102948196 0.2130128 -0.31988713 -0.01562776 -0.198634 -0.13576531 0.16155115 -0.018927846 -0.13042185 -0.045769393 0.0464572 -0.25550312 -0.38123605 -0.012060301
0.12123377 -0.024514465 -0.03318225 0.20322445 -0.11055584 -0.2802345 0.13154589 0.063654855 -0.2813194 -0.37044626 -0.03654671 -0.010865345 0.09476883 0.10441263 0.14279984 0.03756186 0.12517211 0.002803735 0.044802234 -0.00017355895 -0.1559735 0.12623204 0.057574145 0.10934955 -0.079028875 0.03407928 -0.002371213 0.13355649 0.04407625 -0.03789213 -0.16249435 -0.057718817 -0.21740787 0.04262184 0.004686979 -0.05014142 0.20068957 0.000751605 -0.008765724 0.119060725 -0.018870778 -0.038952854 0.017279165 0.122235976 0.16617142 -0.30389884 0.06607653 0.19876485 -0.07061721 0.05421038 0.021680174 -0.08155939 0.031423945 0.02246495 -0.02953212 0.016039096 -0.03470138 0.041313775 0.07577914 0.15295044 0.025735656 0.08321299 -0.05188059 -0.15426572 0.08869141 -0.09399085 0.011474588 0.20530954 0.05830926 -0.12557574 -0.06455277 0.034908585 0.04433839 -0.06753611 -0.07952578 0.13601258 0.018259658 -0.07210414 0.14085202 -0.18137667 0.24955902 0.20484652 -0.0025379998 -0.13764462 0.01117687 -0.25927466 -0.09884814 -0.1318874 0.27882966 -0.0879027 -0.20156884 0.3554531 -0.0075497073 -0.043022644 0.063188486 -0.06681912 0.3335496 0.13703963 -0.039709598 0.2255061 -0.004771965 0.007785405 0.049754165 -0.22556607 0.21935186 -0.13863462 0.15525258 0.0061569074 -0.124461785 -0.2992991 0.05428054 0.0990356 0.08221751 0.06337195 -0.2586977 0.045575507 -0.06378532 -0.2628214 0.19963558 0.19490992 -0.024198163 0.016832067 0.08529791 0.046068612 0.110732816 0.10405282 0.02170907 0.18223797
-0.10952845 -0.019826585 -0.034587078 -0.046859372 0.08134015 -0.116616674 -0.047386806 0.055874426 -0.0755306 0.08161937 -0.0036106163 -0.016139729 0.05578779 -0.043034844 -0.081283465 -0.12256972 -0.08441782 -0.10008098 -0.13367805 0.051459573 -0.063507564 -0.01736812 -0.022120802 0.027352314 -0.037820593 -0.025510456 -0.08270682 -0.018819345 0.008851193 0.011860018 0.010872439 -0.10147554 -0.00857939 0.027762337 -0.0298052 -0.007577829 -0.08950165 -0.0845374 -0.057534512 0.008175904 -0.08670227 -0.042109013 -0.08183845 -0.066641204 -0.077108234 -0.06518341 -0.053659763 0.05450304 -0.043005854 0.031773753 -0.03232044 0.020840267 -0.07194274 -0.0027397797 -0.036591668 -0.0114748515 -0.026870057 -0.08829921 -0.121294305 -0.036896273 -0.017822048 -0.082263604 0.05047404 0.02959832 -0.010418054 -0.029145278 -0.037857417 -0.08619913 0.020548737 -0.065808386 -0.038296133 -0.06504241 0.062244035 -0.08849861 0.01072702 0.078913786 -0.09724234 -0.008235927 0.03136044 0.007113261 0.082330115 0.04624917 0.033272255 0.036577154 0.022218129 -0.070251755 0.023170039 -0.032536693 0.03611527 -0.068225615 -0.010419174 -0.0034749021 -0.049183764 -0.0144158555 -0.047964286 -0.056576468 -0.078096785 -0.09123801 -0.11982816 -0.04595146 -0.0518192 0.017691601 -0.09325158 0.010896842 -0.04430739 -0.038344476 -0.012347968 -0.07267476 0.012178549 -0.08649177 -0.106634915 0.07048723 -0.023831453 -0.064824656 -0.07371113 0.017150877 -0.019695854 -0.08739226 -0.037801746 -0.049125325 0.0039983583 -0.041744336 -0.057543118 -0.026730796 -0.053641945 -0.11120966 -0.016560763 0.0017960137
0.13940586 -0.049410727 -0.039173644 -0.11300504 -0.23998849 0.6287867 0.028142476 -0.084776394 0.15764269 -0.010424676 0.23163255 -0.0058343927 0.077736415 0.038319226 0.16823459 0.01528813 -0.18512061 0.14288358 -0.117918886 -0.056424603 0.0023489445 0.12933205 0.059769884 0.07256849 0.066844024 -0.13319673 0.013388571 0.08434313 0.063524306 -0.20887798 0.10717996 0.10686399 0.028360207 -0.028718486 0.040386066 0.060263354 -0.057835754 0.08633302 0.017018484 -0.12143266 -0.2714332 0.12854365 0.052059688 -0.04589241 0.14729546 0.08769192 -0.03212599 -0.12717557 -0.0037036373 0.10013087 -0.031055797 0.27442765 0.0966562 0.032910183 -0.080915436 0.10904366 -0.01746967 -0.030257124 -0.07759072 -0.15374336 -0.14061081 -0.056985427 0.007965842 0.051983237 -0.01124177 0.086132586 -0.14470915 -0.16429475 -0.016323073 0.075181745 -0.09036162 0.15947962 0.010800063 0.09406594 0.051731586 0.13759689 0.2191961 -0.053329803 -0.21390213 0.01899884 -0.25979722 -0.17116135 0.040617805 0.08699564 0.036059964 0.21759929 0.07901251 0.033758942 -0.021970747 0.22620283 0.2038776 -0.055862043 -0.056371033 -0.09549966 -0.013570469 0.015375785 0.18940875 -0.17766151 -0.1306717 -0.23190159 -0.008477217 0.08890539 0.15240742 -0.09381842 -0.110798255 0.08195007 -0.17328645 -0.116093546 0.04409908 0.3590072 -0.044833504 0.103205174 0.32811552 -0.08089198 0.20192048 -0.0140944235 -0.12934993 0.301877 -0.17804046 0.16533734 -0.13070653 -0.0022847247 -0.09369678 -0.20111805 0.05782844 0.05286969 0.025359236 -0.03601665
0.055012416 -0.03767491 0.14652935 -0.34305024 0.13345239 -0.17323877 0.013624359 -0.10849298 0.30246797 0.17074507 -0.27721238 0.028125057 0.058348477 0.04488032 0.4221103 0.15429193 0.018601863 0.043194674 -0.07164652 0.09673109 0.10718051 0.0018836835 0.14541128 -0.049576595 -0.12091445 -0.20957248 0.089528404 -0.025558623 0.06369741 -0.20479873 0.28325653 0.03228018 0.23628227 -0.28066158 0.16288473 0.11978395 -0.08639699 0.09017407 0.035562374 0.05808192 -0.17816526 -0.016676364 -0.06149467 -0.1315125 -0.04032203 0.13967831 -0.002829636 0.1795606 -0.050724793 0.100283965 0.09302704 0.46343178 -0.08465577 0.0493171 0.031730574 -0.053849548 -0.007358072 0.054535847 0.04858436 0.31153074 -0.092373915 0.12113812 0.09434678 0.119412385 0.09386922 0.0033695076 0.07216197 -0.15305284 -0.07212071 0.053242486 0.056163054 -0.21043769 0.055771668 0.12547268 0.07232982 0.12323027 0.34794936 0.04289527 0.006667698 0.14250351 -0.22979079 -0.10713935 0.113807425 0.069313094 -0.051575456 0.12261079 0.10434745 0.054067265 0.14888844 -0.07811105 -0.1742638 -0.2516121 0.03211793 0.11968544 -0.13920368 0.052297477 -0.019153317 -0.12672332 -0.15113468 -0.14832208 0.09093428 -0.036707986 0.06929459 0.14248748 -0.13998854 0.23226538 0.054314792 0.15717065 0.15017235 0.026463317 0.10131624 0.1610522 0.34899783 -0.14212869 0.06983562 0.09574014 0.2740234 0.003642974 0.08660372 -0.1265251 -0.019410582 0.08145829 -0.08285837 -0.014666423 -0.05132418 -0.06324343 0.15526587 -0.07318705
0.06726785 0.22281565 -0.042169347 0.20021652 0.21494949 -0.16047262 -0.0897783 -0.04839011 -0.017802114 -0.053059924 0.013007272 -0.05501925 0.11047408 -0.005037047 -0.026207134 0.48593602 0.18566962 0.18381472 0.19980642 0.25435737 0.011472344 -0.06373729 0.069423564 0.14250638 -0.14414117 -0.024375612 0.12036912 0.012065394 0.109509535 0.09232076 -0.07046742 -0.038655337 0.06415514 -0.16348492 0.0098171905 0.038692597 0.17229407 0.07264171 0.26310018 0.3832927 -0.0140772555 0.017973088 -0.016777394 0.08733502 -0.06711467 -0.013236918 0.000260819 -0.12646472 -0.0653587 -0.017571043 -0.09403987 0.22344892 -0.055971183 -0.10711734 -0.023267929 0.096963435 0.14939465 0.10326989 0.0052677435 0.14381514 0.17215091 0.100502014 0.025045987 -0.0037926515 -0.03529167 -0.16165297 0.3379169 -0.25139925 0.21642119 -0.18764822 0.052233912 0.048534255 -0.036973055 -0.063861586 -0.07953452 -0.23519248 0.10466781 0.016750185 0.16047893 -0.028898427 0.043763794 0.085457504 -0.07007339 0.05433247 0.18291691 -0.06774513 0.068747535 -0.12776893 -0.10076052 -0.10107917 -0.29681206 0.2004996 0.04274641 -0.15135047 0.12222352 -0.10537105 0.15289031 0.21764642 -0.055156104 0.20628324 -0.041852884 0.13928485 0.050697487 0.07930493 -0.022962725 0.018432532 0.05555611 -0.0060577886 0.00062340003 -0.008729639 -0.009145614 -0.11205368 -0.16672379 0.28337976 -0.06809477 0.0051617934 0.08849266 0.071477175 0.33905035 -0.03506888 -0.053791128 0.093105815 0.2809902 0.4247274 0.075905114 -0.0038561418 -0.13060305 0.0515884
0.17663956 0.07804237 0.008470127 -0.18821013 -0.282561 -0.35699067 -0.17564094 -0.07318558 0.10271905 -0.03135209 -0.02784518 -0.060173143 0.08676252 0.13790146 -0.06725804 -0.08072904 0.0697989 0.106437765 0.17541648 0.088889346 0.07207203 0.019692216 0.16405599 -0.07741868 0.06619142 0.079944275 0.03958489 -0.07407523 0.010006429 -0.051046424 -0.13000889 0.07857285 0.115548775 -0.34931558 -0.11062844 0.07012734 -0.039852723 0.09563944 0.14095366 -0.06394524 -0.17057636 -0.030742297 0.052717574 -0.048459455 -0.0069359303 -0.020523148 0.01679529 0.049729273 -0.1404124 0.096395545 -0.009806567 0.20978959 -0.030793257 -0.118968576 -0.017748231 0.14569765 0.11685692 0.010955126 -0.016084557 0.104621425 0.022077361 0.048471827 0.052365247 0.022145884 0.052329734 -0.039543077 0.25553176 0.0075078304 0.15243636 -0.094507486 0.03802205 0.06973341 -0.08523533 0.12143233 0.07159409 -0.12438681 0.24984916 0.1649737 -0.03536986 0.069126606 -0.017451558 0.034569174 0.12238837 0.12170969 0.09756395 -0.116963 0.15938807 -0.030679254 -0.1381903 0.009494294 -0.16928998 -0.04329343 -0.08003553 -0.023256127 -0.025821017 0.0012790809 -0.17801659 0.14169449 -0.046893504 0.0035806287 0.019614536 0.19220765 0.110919744 0.05506834 -0.32520556 0.14179537 0.08446968 0.14414117 0.0973586 0.02535909 -0.02616345 0.054600336 0.26937756 0.050347507 0.008111299 0.15811814 -0.08330255 0.022931008 -0.079623654 -0.2225671 0.07311699 0.055485282 -0.07557417 -0.04366889 -0.015282319 -0.17789228 -0.2677522 -0.22837941
0.16520685 0.06599609 -0.05696217 0.18284582 -0.067932986 -0.022215676 -0.09280504 0.061910607 0.06060199 0.029029185 0.35983938 0.060282897 0.011766513 0.14851427 -0.29943222 -0.24599826 0.12287479 0.10593676 0.060532022 0.1082455 0.15503481 -0.020611111 0.12079309 0.056771025 0.23730177 0.09504515 -0.04151132 0.10524323 -0.019466542 0.19368128 -0.18083917 0.13942164 0.11354343 0.22282997 -0.16212374 0.06719323 -0.13700046 -0.045489717 -0.020621134 -0.12805368 -0.041979674 0.0074436376 0.10034051 0.080848746 -0.128342 0.0523247 -0.03699611 -0.32859695 0.1612654 0.080884255 0.043036845 -0.3427266 0.18954119 0.037745174 -0.005109205 0.18621011 0.10004362 0.02040356 0.1522221 -0.2388027 0.06317967 -0.0059021674 0.16325742 0.119540185 -0.060718372 0.0041287104 0.1395004 0.124069706 0.11599981 0.11901433 0.050521526 0.20420457 -0.08916868 0.11652678 0.07504339 -0.08185121 -0.059669923 0.07366577 -0.050295983 0.13959278 0.07741098 -0.08663674 0.20730792 -0.003828484 0.0324726 -0.10138174 0.10089011 0.16574186 -0.3679486 0.09937799 0.17140374 -0.08028052 0.088409975 0.0025171805 0.05863583 0.22422835 -0.1518829 0.110011585 0.047188662 -0.047226712 0.002503994 0.07709789 0.030230077 -0.036555573 -0.28857967 -0.052387863 -0.07917033 -0.15384382 0.09857485 0.29250965 0.10781473 -0.11938785 -0.23676088 0.09354047 0.08437959 0.022061259 -0.34091657 0.11779857 -0.16838248 0.01583018 -0.09437862 0.14057955 -0.095935054 -0.12724899 0.13218234 -0.12731038 -0.31182447 -0.22581911
0.07994547 0.027017305 -0.019130923 -0.1778996 -0.17677096 0.044545162 0.06258947 -0.14773916 0.12320698 -0.009542598 0.04955115 0.040349998 0.13198474 0.02709313 -0.048907213 0.06410626 0.013799647 0.062012665 0.030863296 0.1004654 0.10483139 -0.21720079 0.06008535 0.039259166 0.049599893 0.10677184 0.19024885 0.034181174 0.07117721 -0.13756923 -0.03922971 0.14304096 -0.06355011 -0.37269732 -0.017565994 -0.010640923 -0.17748868 0.26576513 0.18149102 -0.034980632 -0.27533722 -0.013424521 0.07387668 -0.15778136 -0.02552701 0.0758597 -0.04118641 -0.1637176 0.014753368 0.08276051 -0.078868225 0.43540537 0.00058160024 -0.12727603 0.053675406 0.096885026 0.0747882 0.091091655 0.038543995 -0.022755276 0.0029045292 0.024410883 -0.011582932 -0.07527824 0.07317761 -0.07051075 -0.016816271 -0.09937404 -0.03361006 -0.16913861 -0.043151926 0.0593448 -0.06773854 0.095756695 0.037337117 -0.12757885 0.3366809 0.040616013 0.026468042 0.01899342 0.02190106 0.028505148 0.09613603 0.103417486 -0.055820655 0.049417563 0.13340378 0.068014964 -0.17103133 -0.089542165 -0.15203048 -0.21874538 -0.08883236 -0.24554747 0.122851245 -0.20392746 -0.090052426 -0.15195358 0.027801562 -0.25502095 0.07871761 0.1185698 -0.037889004 0.17300037 -0.25334072 0.0029583639 -0.0678667 0.19478689 0.03433274 0.13960752 0.048094425 0.04968482 0.16698876 0.04781228 0.051546887 0.21636882 -0.20384236 0.1969576 -0.18041208 -0.22530438 0.14890207 0.033659853 -0.16223681 -0.05882032 0.03747298 -0.25533366 -0.20304494 -0.1195134
-0.19549987 -0.08550491 0.113203965 0.026608372 0.2695935 -0.34484035 0.03746473 0.0105113555 -0.013336064 -0.043083146 -0.14059588 0.11002166 -0.0017871135 0.14423417 0.06120146 -0.32584804 0.058750607 0.059500307 -0.019253585 -0.12206072 -0.038893156 -0.19321069 -0.010844814 0.00048439842 0.20350641 0.015687658 0.026314404 0.062393304 0.075282104 0.10559069 -0.01075677 0.12641877 0.08147387 0.07904108 0.061850205 0.14868006 -0.10078497 -0.099004716 0.031976815 -0.059268 0.088653445 -0.17003523 -0.049354237 0.07715077 -0.08398201 0.10164545 0.038624834 0.2944032 0.2144655 0.050130583 0.12638055 -0.15964007 0.047846694 -0.012668621 -0.018830229 0.09660614 0.010768655 0.031754877 0.06844476 -0.031845305 0.10079223 0.0031499176 -0.00049242994 0.070190124 0.07996695 -0.042999096 -0.05477584 0.052026328 -0.048226435 0.08760125 -0.005373222 0.052236896 -0.07635392 0.0888529 0.056144062 0.03326607 -0.052068643 -0.035715282 0.19230239 -0.08917594 0.19683774 0.046270266 -0.014048993 -0.018302886 -0.045048997 -0.071239255 -0.039791092 0.09115334 -0.07164168 -0.023713306 -0.026333638 0.18033607 0.15093589 0.15102662 0.045593694 0.15598741 -0.20329504 0.046801917 0.039552953 -0.06560346 0.062653586 -0.07743353 -0.015227097 0.12112621 -0.042059537 0.05677107 0.09485165 0.1599222 0.07768384 -0.19325267 0.07572634 0.08943791 -0.051892933 0.098281115 0.104582936 0.17692925 -0.05560698 -0.04043738 -0.14570607 0.048687596 0.111451216 0.10967597 0.060477093 -0.20096982 0.031974196 -0.04460441 0.061930753 -0.022019863
-0.07887447 0.04202271 0.06522728 -0.023127213 0.13383868 0.4664166 0.11597637 0.025186563 0.2315342 0.22890209 0.051031373 0.112707496 0.039331805 0.0016686973 -0.15454471 0.077917315 -0.09648302 -0.06514673 -0.14103329 -0.0012322497 0.09085347 -0.024868183 -0.0021882274 0.07661834 0.08334066 0.074048944 -0.00412359 0.0989874 0.058715 0.25439173 0.016410429 0.078486755 0.04542983 0.12444038 0.06784878 0.12913659 -0.10001553 -0.00017048675 -0.10773162 -0.07325901 -0.035097886 0.06599191 -0.12791851 -0.008172078 -0.051663004 0.22923246 -0.055206064 -0.2526524 0.16866803 0.07019468 -0.08130002 -0.10576091 0.10970543 0.038689323 0.021066103 -0.03415225 -0.13281865 0.06510908 0.050550107 -0.23418446 0.055131048 -0.01657866 0.045885123 0.022811197 0.019989382 0.22831222 -0.051578153 -0.073911436 -0.0104004545 0.075077094 0.11530906 0.022893282 -0.022708258 0.06368162 0.0026345092 0.036053363 -0.09099134 0.0733416 -0.12666258 0.022279728 0.027023336 -0.067342445 0.037116617 0.072563395 -0.014888147 0.2939788 0.06568232 0.1788926 -0.0014087273 0.061838273 0.44233578 -0.1903147 0.013673159 -0.016725862 0.030858684 0.03492403 -0.2532082 -0.059704043 0.08259589 -0.026610807 0.011294425 -0.051046953 0.009667726 0.27865732 -0.05660804 0.11819742 -0.08791783 0.04038144 0.08017371 0.33482376 0.021527462 0.15703519 -0.19766667 -0.0295661 0.20169103 -0.08760576 0.020852298 0.15540783 -0.017173728 -0.14220782 0.06216205 0.07740814 -0.12554356 -0.012070762 0.029038422 0.1092153 0.20232706 0.10110863
