-0.06704869 -0.11637317 -0.042644423 -0.03529471 -0.064186834 0.04236163 -0.036140162 -0.04243713 0.017898116 -0.013496947 -0.14079978 0.0069806627 -0.050946638 0.01970232 -0.08372223 -0.018214883 -0.04894571 0.019021656 -0.03412576 -0.102274045 -0.010364587 -0.11515978 -0.09580093 0.018800307 0.035513204 -0.05230859 -0.09049412 0.008850249 0.03536785 -0.058973588 -0.108690664 -0.0047455113 -0.06554282 -0.0007951904 -0.039856855 -0.007287187 -0.07549945 -0.050196096 0.040413875 0.01229648 -0.06117918 -0.055080373 -0.03659577 -0.087564416 0.024383426 -0.084902756 -0.005573753 -0.05644771 -0.023343556 -0.03597873 -0.071485244 0.04492897 -0.115984194 -0.041491784 -0.0032024907 0.05107756 -0.10983154 -0.05635817 -0.023928817 0.028232062 0.015106505 -0.06462702 -0.092684515 -0.10593636 -0.01285967 -0.0430979 -0.034999743 -0.09327835 -0.06617004 -0.067916915 0.010635156 -0.0756385 -0.024499761 -0.0132992165 -0.087597534 -0.040264912 0.015621006 0.033972513 -0.056638256 -0.018511796 0.026905637 0.059266478 0.07838137 0.06356066 0.0010472947 -0.05422399 -0.08946058 -0.07197003 -0.075490154 -0.03831811 0.046854965 -0.10468433 0.01886098 0.06484372 0.06889171 -0.051196165 -0.026278848 -0.027269475 0.004489761 -0.055679187 -0.0017860892 -0.099661626 -0.04058568 0.042657897 -0.021263398 -0.08343908 -0.05215513 0.020031082 0.021757685 -0.07607468 0.033725407 -0.057121113 -0.06377605 0.04539105 -0.057298325 -0.0073543848 -0.0144418245 -0.044259477 -0.08462484 0.013475499 -0.054520275 -0.086692736 0.05095401 -0.030445896 -0.104848154 -0.021083416 -0.024685841 0.034132194
-0.24275176 -0.37828234 -0.008453837 -0.004423827 0.046871968 -0.104383476 -0.14092967 -0.068969905 0.14054339 0.05599961 -0.065359816 -0.04218311 -0.18890817 0.02819088 0.20392446 0.03058906 0.1393732 -0.02176884 -0.006387907 -0.009533407 0.041956935 0.11875078 0.08860483 -0.1653863 -0.05655775 -0.15279046 -0.05676682 -0.3499973 -0.17223373 -0.038073055 0.21344243 -0.009857256 -0.04511201 0.08637193 0.09141543 -0.055213857 0.21280976 0.07712715 -0.013772586 0.05485467 0.047478195 0.2484739 -0.19128716 0.09869121 -0.017952105 0.11356407 0.049996637 0.0034876633 -0.014534666 0.02139904 0.121868476 -0.07618801 -0.056282327 0.08201279 -0.02083498 -0.009505955 0.17938979 0.0483935 0.050903827 0.05313493 0.06855421 -0.050710052 -0.18911281 0.1493594 -0.046083458 0.15978806 0.14514445 0.032721184 -0.05485897 0.003067732 0.093669 -0.22844742 -0.31235287 0.15582941 0.031553272 0.19680123 0.06909318 0.014863345 0.105719656 0.11684986 -0.041791968 0.016664647 -0.011233003 0.029499488 0.2897223 -0.03667166 -0.03723501 -0.013468062 0.08881587 -0.06745643 0.08709367 -0.036338076 0.10295805 -0.047633037 0.048827257 -0.068369284 0.0022721186 0.060629327 0.016427303 0.011341802 -0.15131618 -0.022564663 0.079714164 0.15010747 0.12593606 0.06203251 -0.03720527 0.13487451 0.015893089 0.049925596 -0.17331922 0.013610672 0.012667306 0.002628193 0.08478652 -0.0017651024 0.120187774 0.00028406733 0.115934685 0.012276318 -0.15755051 0.064972974 -0.1711131 0.002643358 0.0637768 -0.034713086 -0.075687796 0.30758
0.1771779 0.14214677 0.06655605 0.049989365 0.1346417 0.16750385 0.06720704 -0.023324866 0.0582633 0.009925715 0.06987524 0.20952542 0.102981284 -0.025148064 -0.08544064 -0.07569992 -0.0303967 0.080232054 -0.02660371 -0.20656969 0.031479873 0.062176757 -0.11782916 0.111459814 -0.040400796 0.35595363 0.027736887 0.02246221 0.25967175 0.09709972 -0.15298451 -0.19679259 -0.1039182 -0.0012449399 -0.17620671 -0.042142745 -0.088124916 -0.05200284 0.12730332 -0.010849157 0.12617433 -0.12214708 0.060875516 -0.095308006 -0.047358595 0.03983919 -0.08091779 0.15571177 0.13022079 0.14825657 -0.23694412 -0.057725642 0.045649398 -0.15853204 0.06677721 -0.015173197 0.14046599 -0.005025425 -0.0108748935 -0.12346027 0.28614444 -0.07058687 0.17198117 -0.08424809 0.04218044 0.1637761 -0.0674393 -0.14383167 0.29252762 0.019066952 -0.048951786 0.21241108 -0.04551553 -0.08730706 0.043958593 -0.16416036 -0.089741014 0.061331976 0.031494178 0.06512033 0.019875074 -0.16861767 0.021502892 0.03358863 -0.19335172 0.022262452 0.11730539 0.1542065 -0.27146915 0.032681286 0.2421024 -0.07405845 -0.014374771 -0.048977748 -0.19569722 0.031113442 -0.05322593 0.111562505 0.06782962 0.119295634 -0.012285418 -0.005254873 -0.05195351 -0.20263913 -0.09531678 0.0820317 0.046144165 -0.10451657 0.16954689 0.12369947 -0.028301215 0.1646819 0.08113939 -0.061667144 -0.09234933 0.010342764 0.08276195 -0.050081953 -0.1989882 0.056191776 -0.059190866 0.013735291 0.18323824 0.022146055 0.06237717 0.088283904 0.027387543 -0.48045185
-0.080845475 0.10878369 -0.1301228 0.024231495 -0.05878246 -0.0021882271 -0.23865789 0.13018586 -0.05322616 0.08256425 0.06974029 -0.17514507 0.24169083 0.101554655 0.2821447 0.13766544 0.010811292 -0.01486495 -0.0031144556 0.06807515 0.18855506 0.045596786 0.094521396 0.004833651 0.002715235 -0.24542671 0.09567359 -0.064818636 -0.16033073 0.04225013 -0.0059780357 0.069062136 0.040254265 -0.05522433 -0.12725803 0.21973494 0.08769769 -0.08679901 -0.0398285 0.08934183 0.003416291 0.23797175 0.010970331 0.024481988 -0.04399152 -0.05756669 0.098416 -0.23143624 0.050546415 -0.07238625 -0.096799955 0.1572995 -0.038405064 -0.13208868 0.01436851 0.08647515 -0.05195696 0.110886216 0.08140078 0.015444656 -0.24096428 0.056196716 0.1561501 0.035350177 -0.1270678 -0.014403287 0.035962697 -0.0847258 -0.122597955 -0.010607242 0.014494442 -0.014534371 0.1700894 -0.101139635 0.005717146 0.012372535 -0.06466303 -0.117461145 -0.011254359 0.026675487 -0.08624664 0.118523315 -0.010148622 -0.010774238 0.09716443 0.039343867 -0.17853804 -0.010203114 0.13417126 -0.05980353 -0.06245931 0.08225988 0.08001862 0.061857395 0.22085851 -0.10317902 0.16040923 5.657752e-05 -0.048207283 0.10425678 -0.03712386 0.055487663 0.023124207 0.14353198 0.08142729 0.039140012 -0.056403216 0.13812764 -0.17758654 -0.06939894 0.057869565 -0.13024864 -0.013146861 -0.16333182 0.054182854 0.25191048 -0.013465374 -0.054342147 -0.048009634 0.059937924 -0.02138146 -0.05718847 -0.0689111 0.15775311 -0.13664934 -0.057081588 0.09518265 0.35598844
-0.05152194 -0.014470121 0.08492185 0.030961258 -0.10746473 -0.07846947 0.010150009 -0.05623112 -0.06218692 0.007813575 -0.060493723 0.04995737 -0.08736523 0.025836883 -0.11953443 -0.10267513 -0.05985751 -0.023858488 -0.009463277 -0.05963563 0.043119114 0.037007798 -0.059843224 0.0052594217 -0.033782955 -0.07002948 -0.053437226 0.012886527 0.014314725 -0.00052736135 -0.0026339877 -0.07136709 -0.094879106 -0.042038716 0.0072329766 -0.09345693 -0.05412537 -0.07117757 -0.004615378 -0.031919856 -0.013972339 -0.07761393 -0.029345207 -0.053968977 -0.035865 0.015535105 0.0020839067 -0.06989894 -0.05154624 0.0070776725 0.004087918 0.048426434 -0.024957292 -0.038549617 -0.1117396 -0.05949776 -0.07676747 -0.009553932 -0.034390576 -0.005318255 -0.08373314 -0.074239686 -0.018553307 -0.076088496 0.010938261 -0.08664907 0.010161398 0.010693862 -0.07051619 -0.032555856 -0.08824347 -0.039552413 -0.04535527 0.047393735 -0.060673244 -0.016263932 -0.009825318 -0.043706916 -0.1165672 -0.082183056 0.0470673 -0.058256954 0.040536664 0.059115104 -0.03660602 0.015525967 -0.007821121 -0.01013809 -0.031659976 0.02161241 0.016531054 0.054192573 -0.098019056 -0.036135938 -0.046371922 0.07702834 -0.025929997 0.0038655922 -0.06903729 -0.03301396 -0.056233972 0.012446978 -0.00019302958 -0.05355544 0.05303041 0.01996437 0.03970073 -0.07227058 -0.0133421775 0.06753104 -0.10756687 -0.071769245 -0.055515897 -0.07273176 -0.06980355 -0.06585018 -0.11807387 0.007589125 -0.019511377 -0.01372066 -0.072331116 0.042357795 0.060652044 -0.06615731 -0.0574942 0.031783357 0.07471812 -0.021192979
0.16080908 -0.22436914 0.07606116 -0.14367199 -0.07757873 -0.19077626 -0.14389747 -0.07826874 -0.097965896 -0.07972585 0.06617407 -0.2101853 -0.20165823 0.1334261 -0.23279715 0.08360266 -0.012071821 -0.048234954 0.19677594 0.118887655 -0.25963452 -0.046846054 0.031227333 0.05946584 0.113948695 -0.41379228 -0.06515019 0.30296177 -0.06485797 0.03861215 -0.109995164 0.03378922 0.13451938 0.15849072 0.09420264 -0.42377236 -0.1590243 0.03957064 -0.045213245 0.058606703 -0.01914734 -0.08479691 0.12264218 -0.008713691 0.089046046 0.071960315 0.06247014 -0.102953956 -0.106124416 0.0055574584 -0.020316988 0.29963332 -0.18573162 0.19275595 -0.117897056 0.17584783 -0.14461575 -0.117486544 -0.058239095 -0.18774518 -0.050697573 0.22937402 -0.03959385 0.2597277 0.02404297 -0.23783033 0.18140285 0.14707561 -0.09582869 -0.043437015 -0.07061409 -0.16636522 0.10776123 0.13260959 0.043638375 0.11416708 0.17503765 0.011608428 -0.09444866 0.10537942 0.0921684 0.18501772 -0.003977687 -0.055176698 -0.044129353 0.11921191 -0.18819712 -0.25066975 0.013431067 0.12244801 -0.15396634 -0.0073833647 0.015090707 0.043439716 -0.06476524 0.12791 -0.32945573 -0.19954193 -0.04375431 -0.08636945 -0.31706074 -0.07494343 -0.06856028 -0.06534333 0.13543457 -0.08356187 0.032567404 -0.09488116 0.07164649 0.038846493 0.20200099 0.060034417 -0.06947319 0.23723534 -0.10336278 -0.16841808 0.100160375 -0.06953692 0.12511978 0.015215895 0.2814484 0.04856631 -0.18000321 -0.035466522 -0.053809702 -0.16497353 0.106189094 -0.24610557
-0.0094148135 -0.023516912 -0.10819516 -0.005871347 -0.087410025 -0.32976097 -0.012214837 0.16051243 0.071481705 -0.0006989503 0.044668954 -0.14525676 -0.04150018 0.1071092 -0.10834083 0.1651268 -0.007881358 0.19110742 0.096304215 0.21986605 0.0077918526 -0.10497615 0.09863735 0.083211474 0.21526298 -0.10616594 -0.09724277 0.18477933 0.03014566 0.076610364 -0.03602484 -0.066027455 0.1757246 0.06887379 0.09195174 -0.047860414 -0.009540339 0.08365753 -0.025285436 -0.025058147 -0.08925138 -0.03473292 0.13190366 0.17577463 -0.0024491122 0.107699156 0.022466982 -0.21379189 0.0101390015 0.07122571 -0.024003189 2.1418608e-05 0.17293715 0.12753232 0.06210656 0.0565338 -0.1551168 -0.116941966 0.05795508 -0.034527313 -0.18771255 0.036098137 -0.17216834 -0.032413334 0.03329367 -0.04079948 0.094127506 0.23336127 -0.26005638 0.18309508 0.07310907 -0.1634016 0.13122453 0.0333248 -0.015817948 0.030577354 0.13742206 0.15199472 0.0041954108 0.059404146 -0.17428066 0.020943055 0.0049271453 0.04052451 0.08509976 -0.030407269 0.049755264 0.021782788 0.026645621 0.121199645 0.09797814 0.10183133 -0.011844298 -0.009254396 0.015482331 -0.007851757 -0.096854195 -0.06364247 0.1675591 0.117096424 -0.1563041 0.043593302 0.057888288 -2.0623731e-05 0.16542701 0.0041552153 0.10849665 0.13298543 -0.0072049536 0.020223727 0.23590961 0.16874132 -0.039863184 0.11261454 0.09909266 -0.1873419 0.098567985 0.03372974 -0.004047991 0.056568112 -0.049699035 -0.099746644 0.015937688 -0.07797095 -0.080855586 -0.0450464 0.07630558 -0.2412358
-0.02866996 0.105676025 0.09139423 0.09984624 -0.16054344 0.054053612 -0.14344592 0.06890672 -0.006492122 0.0027247986 0.002232035 -0.119035184 -0.21489878 -0.056913182 0.024461458 0.04194109 0.12312098 -0.06364721 0.07854545 -0.15733165 -0.08021622 -0.2527687 0.041487083 0.1780151 -0.024746388 -0.08652112 -0.20914575 -0.4833974 0.14240338 -0.039168295 0.021668939 0.13326895 0.08669673 0.106479764 0.14101052 -0.05122305 -0.011136147 -0.014970062 0.0820062 0.066763274 0.035164863 -0.08099512 -0.3144224 -0.08178188 0.024487093 0.05811149 0.071932375 0.1309907 -0.15665813 0.105049856 -0.0017064087 0.18917723 -0.0033029567 0.083506495 0.013598787 0.15391882 -0.109708495 -0.16673897 0.11549913 0.08914904 0.06900203 0.13745646 -0.115561284 0.2108752 0.061215848 -0.06744273 0.120355345 0.015143344 -0.14861952 0.0485196 -0.04864921 -0.060148947 0.080054455 0.055635195 -0.017778385 0.09720952 0.047226343 -0.08453162 -0.0009412639 0.049167074 -0.18886514 -0.15347207 -0.048037108 -0.11049214 -0.12706913 0.09387807 -0.09381331 0.029723989 0.20324138 0.101865396 -0.034998927 0.014507205 -0.17211749 0.0649954 -0.02192022 -0.01048833 -0.07295254 0.011028208 0.0007598882 0.056567747 0.08272819 0.027514061 0.08833549 -0.056236953 0.070194595 -0.03637567 0.14931667 0.059658844 0.34251094 -0.0048639914 -0.24728265 -0.0050032404 -0.05297007 -0.028073283 -0.007687549 -0.012096702 -0.08209233 -0.049929693 0.13620557 0.04011941 0.043947257 0.19818906 0.1872469 0.14449793 -0.18518187 -0.033840194 -0.46000454 -0.20843619
0.046714164 -0.09715571 -0.038838312 0.16789505 0.23932905 -0.00062345876 -0.10315467 0.19833048 -0.06336851 0.13036478 0.06499109 -0.18732883 -0.05164356 -0.019945642 0.005317371 -0.042946987 -0.037966475 0.099227525 -0.024721019 0.18305352 0.15037915 -0.12539758 0.0020630388 -0.2843819 0.025616206 -0.45797193 -0.0051751398 0.042010266 0.08797666 -0.105897635 0.03588214 0.06427695 0.035553757 -0.014249875 0.069996126 0.035265785 0.14963354 0.023544986 -0.15259813 -0.024787815 -0.0111988485 0.06613102 -0.047852837 -0.047544174 -0.048314996 0.019073153 -0.040828116 -0.19366485 -0.025867116 -0.15267397 0.17711999 -0.058048487 -0.05337406 -0.05346488 -0.045308888 -0.00012100896 -0.036844544 0.13203514 -0.004527629 -0.021998178 -0.29543194 -0.10839482 0.04737922 -0.15923919 0.08723516 0.01619538 0.058963254 0.090567075 -0.20348462 -0.10462361 0.057204816 -0.05189091 -0.15142296 -0.04988079 -0.02154102 0.11255979 -0.052286584 0.098370515 -0.032402195 0.05256236 0.19617069 0.08207703 0.009120412 0.0461679 0.3871179 -0.06818088 -0.096447885 0.13880424 0.026667144 -0.13166396 -0.13993938 -0.01959887 0.0848157 -0.07425349 -0.03125638 -0.15219654 0.20681404 -0.030116932 0.1948788 0.084279105 0.13009195 0.09434211 0.0020092693 0.05703973 0.14059031 -0.0097124735 -0.053660836 -0.043649226 -0.2903655 -0.04202079 0.085708275 0.01995647 0.036383457 0.006748992 0.039347213 0.113462664 -0.11684257 0.013336247 0.002699226 0.017440729 0.053492405 -0.13320205 -0.05336299 -0.024318019 0.020294094 0.12490892 0.08586679 0.16465418
-0.0039021338 0.28566784 0.025996085 0.06878557 -0.08743291 0.30212167 0.03367866 0.0333193 -0.016894145 -0.051141564 -0.10278052 0.112923965 0.23622184 -0.16116899 -0.21983454 -0.13712573 -0.07815543 -0.025335345 -0.18303922 0.08364471 0.08876234 0.11110388 -0.088815354 0.09755449 0.028126169 -0.14061071 0.086749956 0.26153567 -0.0467941 -0.18267289 0.010734207 0.2043969 -0.13682246 -0.18008922 -0.063410476 0.14870866 0.017438756 -0.08296532 -0.10026526 -0.019151293 -0.17334151 -0.122379415 0.28394166 -0.01661347 0.083848216 -0.058024235 -0.023086429 -0.2855197 -0.23339497 0.042864956 0.010572443 0.06181004 0.012499878 -0.0017373643 -0.15907781 -0.05037558 -0.047775738 -0.16738148 0.034014624 0.0012125864 -0.27397716 0.034244195 -0.024369609 -0.2496234 0.0711595 -0.019308487 -0.02953613 -0.044933975 -0.006011215 -0.15261821 0.058794048 0.032951456 0.13304909 -0.10953502 -0.016368879 -0.055454485 -0.075501 0.04622163 -0.087490365 -0.21343397 0.006634227 0.08957012 -0.10065309 -0.00028741232 0.038188927 0.13394792 0.044331416 -0.030664537 0.00783703 -0.064644225 -0.17185798 0.10139251 0.012995439 -0.02533039 0.022278965 -0.0035502485 -0.026181834 -0.025462896 0.1416768 0.046277586 -0.01751035 -0.044214353 -0.0052681444 -0.19470063 -0.041377418 -0.00864028 -0.023712818 0.08380924 -0.22774673 0.027248701 0.13381906 0.12138546 -0.045531273 0.030201696 -0.05452506 -0.25278196 -0.23222965 0.13483074 0.11454919 -0.13207464 0.18288435 -0.02763463 0.2543185 -0.021582713 0.07058709 0.062370267 0.087569654 -0.21979621
-0.19825955 0.11213504 0.079565756 0.03124949 0.14577954 0.16931783 -0.023358501 -0.086038284 -0.09135746 0.1254113 0.052530807 0.15663724 -0.123820454 0.039183263 0.042360947 0.033568516 -0.11790882 -0.059409246 -0.044326257 -0.14006379 -0.12717952 -0.105091095 -0.09067072 0.025739558 -0.0010885006 -0.16469431 -0.0010223608 0.096560456 -0.059990898 -0.07798912 0.068010874 0.035556573 -0.074138835 -0.08701189 -0.040257312 -0.009469546 0.0905881 -0.08406844 0.09767531 -0.06414809 0.115899056 0.061602626 -0.045085434 -0.04864809 0.03392079 -0.12072782 -0.08577014 -0.2684657 0.047082942 -0.25467637 0.040863667 0.07110405 -0.049178485 0.14259225 -0.037716087 -0.09242669 0.02424234 0.11792781 -0.09519757 0.07788536 0.039314907 0.12687573 0.15376125 -0.15907313 -0.076494455 -0.10753307 -0.06574836 -0.24089015 -0.0038728714 -0.14881414 0.048208047 0.2250494 0.058535736 -0.0131026665 0.05819388 -0.06770594 -0.0992226 0.063187584 -0.12497153 0.034213908 0.24356498 -0.043205015 0.031020602 -0.045428358 -0.047645573 -0.07113862 0.11740368 0.07383398 0.07990523 -0.24161707 0.10155525 -0.032752596 0.05754273 -0.027926896 0.10113619 0.11024022 0.06408006 0.12417043 0.0027350981 0.13623513 -0.016552515 -0.017546654 -0.023292985 0.14642897 -0.16545685 0.062269058 -0.1919801 0.02215583 -0.017920306 -0.086856745 0.068286814 -0.046930443 0.08471325 0.1060203 -0.08675709 0.09143099 -0.07095373 0.025976751 -0.08036363 -0.07476425 0.28142217 0.19800991 0.013404979 -0.009645521 0.1331057 0.012778638 -0.23730256 0.079884194
0.096949376 0.043793067 0.070841625 0.011827088 -0.00096671557 -0.015909169 -0.024564616 -0.067921154 -0.03907865 -0.035119582 -0.12938346 -0.112094946 -0.030605366 -0.12038169 -0.037359968 -0.038879786 0.014397855 -0.073234744 -0.03228303 0.05589208 -0.016037295 -0.10069462 -0.10690162 -0.08137941 -0.1433249 -0.093946755 -0.028515417 0.053796127 -0.107430525 -0.054093197 0.002131004 -0.026551452 -0.06004268 -0.10230513 -0.051300272 -0.12429581 0.033635434 0.08834495 -0.0046059247 0.018574424 0.020288039 -0.09675501 0.06456309 0.006420225 -0.017394274 0.008311576 -0.067783855 0.07139057 0.03241126 -0.027006527 -0.07162687 -0.042577907 0.049016688 -0.08986216 -0.087137334 -0.030019253 -0.053885408 -0.05556276 -0.096431 -0.051427823 0.08556962 -0.00741202 0.02091659 0.034478296 -0.0364686 -0.058939006 -0.10494725 -0.01951314 -0.14614601 -0.0662387 -0.0071612974 -0.075436175 -0.012096034 0.0320132 -0.0059722927 0.030101804 -0.025276007 -0.06698723 -0.039845232 0.05158473 -0.10938679 -0.13157396 -0.070914865 -0.0045489124 0.0050173104 -0.1142945 -0.060217127 -0.04150598 -0.035634052 -0.047600906 -0.048321214 -0.11843631 -0.03435608 0.031638384 -0.082145065 -0.0038897665 0.02186325 -0.12897268 -0.060408384 -0.043558322 -0.035360303 -0.038942512 -0.06006892 -0.022212345 0.052286252 0.07446261 0.088442676 -0.03178309 -0.13445994 0.02041715 -0.0066612125 -0.073722884 -0.0453357 -0.07781799 -0.14678633 0.032726984 -0.026059497 -0.06970158 -0.06652382 -0.050887518 0.06343036 -0.13902593 -0.03493226 -0.024566839 -0.04682935 -0.07990075 0.032084316 -0.02204035
-0.110563666 -0.2642659 0.11884436 -0.069492206 -0.07688507 -0.27190056 0.02583767 -0.029072784 -0.07250892 0.0049312054 0.10329995 -0.13643345 -0.53146374 -0.0066973413 -0.122186884 0.026892493 -0.22217564 -0.024790343 0.07498712 0.04962214 -0.32351688 -0.10829109 -0.020706082 0.11553008 -0.035362124 -0.10916588 -0.18902306 0.0014330604 -0.040531192 0.022261282 -0.1858654 -0.014392343 0.09169984 0.06616972 -0.101753086 -0.2592202 -0.0033012845 0.07692948 0.1087586 -0.023238955 0.16343595 -0.14359243 0.117901124 0.05470922 0.0014098237 0.119189866 -0.028529828 -0.09556298 0.036944807 0.14185852 -0.04669546 0.1363558 0.06618604 0.08772802 0.07632679 0.1390043 0.09799992 -0.22441319 -0.17734706 -0.3189676 0.09597873 0.18913895 0.033270326 0.028887093 0.002480859 0.02398024 0.081769206 0.18769918 -0.13693069 0.13118161 -0.01669501 -0.09458768 0.029058604 -0.0019285023 0.016315978 0.18357934 -0.047406755 -0.031500507 -0.032893423 0.07725321 0.18452756 0.10056464 0.026240496 -0.054639596 -0.027995422 0.0030879907 0.02007328 -0.09199943 0.05559967 0.25101042 -0.037953302 -0.09031365 -0.013528051 0.09844627 -0.099540025 -0.011761414 -0.19519433 -0.00024749292 0.098911926 -0.07742358 -0.2811414 -0.087567225 -0.10533321 -0.06393413 -5.3466312e-05 -0.08015752 0.10059484 -0.072904475 0.20334247 -0.010112029 0.25078014 -0.095274046 -0.011720931 0.29203793 -0.07952903 -0.008634913 0.18245453 -0.15253618 0.068330534 -0.017875448 0.2496781 0.0920947 0.13033693 0.029787084 -0.0035805076 0.03581655 -0.085498594 -0.5306129
0.2563766 0.05838177 -0.023376739 -0.056029517 0.05726189 -0.074892856 0.0037806327 0.23428953 -0.1340757 -0.009643647 -0.059986405 -0.19274783 0.17321458 -0.083170295 -0.0919959 -0.042589 -0.07049179 0.14099915 -0.11914491 0.19287124 0.15132226 -0.2544959 0.10705229 -0.14644513 0.16429806 -0.16734782 0.04022438 0.31195506 -0.00048677428 0.06458446 0.089950874 0.1927094 0.09950112 -0.3129551 0.07327833 0.09846063 0.0043011773 0.017117588 -0.045397 0.0722452 -0.12725115 0.056985635 0.13846426 0.023690984 0.09273435 0.21936573 -0.032684743 -0.13408023 -0.13989457 -0.13631305 0.098236606 0.04765148 -0.35012585 0.066264816 -0.075633064 0.023323413 -0.18232296 0.011591213 -0.009382204 0.028626513 -0.43061608 0.06481093 0.12014094 -0.2770704 -0.072392225 -0.12866722 0.04568645 0.28490567 0.1011382 0.16242516 0.012734388 -0.08646113 0.10722353 0.0012769363 0.04822134 0.045904964 0.07586991 -0.09566947 -0.02563632 -0.01910131 0.07195638 0.08463629 0.057490017 -0.07276344 0.15069343 -0.06380809 -0.2663405 -0.07095426 0.12422473 -0.20498742 -0.29371774 0.15251054 -0.016000282 0.06403209 -0.036558867 -0.032111716 0.1018746 0.06291466 0.0010352226 0.034976564 -0.052113112 0.03574648 0.0917322 -0.0568978 0.10606034 0.044215012 0.01303363 -0.07541739 -0.21166253 -0.12793654 0.098285094 0.096316196 -0.07692531 0.04798785 0.048243217 0.084845126 0.013594688 -0.05239502 0.07006283 0.054852575 0.19557236 -0.31564075 -0.052236553 0.101077795 -0.07605345 0.10224246 0.20211123 0.036082506
-0.061488766 -0.011885796 0.03501992 -0.00025511713 0.0032266707 0.10448365 -0.21837135 0.11561779 0.17711303 -0.037226595 0.046954967 -0.045876067 0.09753335 0.1367996 0.09587547 0.1145215 0.008281536 0.0642005 0.08263215 -0.04070736 0.20653306 -0.035667855 0.039449982 -0.00010327717 -0.15840244 0.13599229 0.08664727 0.016810752 0.15361428 0.094598375 0.16076581 -0.103025354 -0.0077639725 -0.0035195437 -0.06624725 0.31357703 0.066223614 -0.108397305 -0.067460425 0.044742532 -0.01598964 0.0131267775 0.011597617 0.12298708 0.052372586 -0.00067971897 -0.004219399 0.41242126 0.1353927 -0.05428786 -0.07805376 -0.026589926 0.13493644 -0.16136563 0.19292365 -0.07348247 0.10651607 0.08610451 0.053192925 0.05603111 0.13456923 0.007307336 -0.12448308 0.101418145 -0.03496025 0.07300233 -0.13565867 -0.04372371 0.23473598 0.23119107 0.001457689 -0.0754168 -0.1298924 0.028519653 -0.051036842 -0.1334514 0.050337836 -0.023206843 0.26745266 0.11047821 -0.07038156 0.012195575 0.057244472 0.17938845 0.03232872 0.13664751 0.11745151 0.07616283 -0.12252184 0.04134295 0.045762867 -0.16346318 -0.022136645 0.035886932 -0.058616843 0.016641056 0.0671243 0.124374166 0.026324583 0.048442673 0.0054994104 0.15782136 0.13978946 0.041097328 -0.0921147 -0.06816561 0.120768316 0.018991657 -0.02028682 -0.009019352 -0.21071704 0.10653273 -0.07152941 -0.26205215 0.00440681 0.1323661 0.1728385 0.02171893 -0.024248822 0.13195159 -0.22269057 -0.15935639 0.012738467 0.12211947 0.09065725 0.22514701 0.114152394 0.23013368
0.1567557 0.0626888 0.30553544 0.05082387 -0.10217632 -0.25255704 0.07568399 0.16520211 -0.14592566 -0.05058368 0.062283594 0.059430834 -0.047872204 0.13843326 -0.042616438 0.108099066 -0.08027206 0.09085384 0.3054223 -0.1372802 -0.032037284 -0.30185616 0.11023719 0.14125994 0.14823171 0.09722184 -0.0685656 -0.08993609 0.121516146 0.07429245 -0.15735795 -0.025068164 0.13958351 0.014680789 -0.096143305 -0.0013056091 -0.059667766 -0.011183037 0.045550685 -0.012944644 -0.10944968 -0.11686829 0.090024866 0.0029131975 -0.034439795 0.030662032 0.046474718 -0.16431502 -0.06415292 0.11227099 -0.02794318 0.12731838 0.2559389 0.06630732 0.22690687 0.0009800834 0.048904575 0.13897479 0.15649678 -0.10427523 0.22506626 0.043385666 0.12127441 0.2235169 0.024586285 -0.02751321 -0.0054508043 0.13820717 -0.10553274 0.14182359 0.06314986 -0.089684375 0.32138348 -0.025375983 0.039202183 -0.05294 0.06932029 -0.059194937 -0.044082444 0.08981975 -0.08700307 -0.06507185 -0.016978977 0.15398465 -0.19862601 0.008079724 0.1096772 0.09324472 0.018853955 0.14707267 0.19296458 -0.07874086 -0.009742957 -0.01691657 -0.1235692 0.0970492 -0.019458182 -0.00015070017 -0.016614504 0.1050934 -0.056308128 0.05556069 -0.06335553 -0.06793034 0.15178409 -0.04325663 0.16681877 0.12027965 0.25844648 -0.10306615 0.12083016 0.05875435 0.12839893 -0.12536833 0.10014805 0.030779025 -0.043158565 -0.05378711 -0.13840613 0.09359878 0.027688606 0.21805306 0.03572373 0.010664615 -0.21603528 0.02178303 -0.19769962 -0.25470817
-0.05631582 -0.22830102 0.027874976 -0.044587016 -0.1678451 0.18984552 -0.22459579 -0.102133185 0.014312392 0.062109374 0.08909902 0.00022930118 -0.3379584 0.13881613 0.0716957 0.12650809 0.1292979 0.050386023 -0.20504631 -0.25329235 0.12642512 0.22422102 -0.12035596 -0.27899015 0.047064286 -0.22674814 0.1414697 -0.033573017 -0.116968155 -0.06911437 0.09110185 -0.27463564 -0.05070381 0.10800142 -0.14822643 0.0450884 0.08145772 0.00321711 -0.07013492 0.013597004 0.10703495 0.1321054 -0.1701562 -0.09584938 0.035992652 -0.19668762 0.101249196 0.07387055 0.1448901 -0.07343029 0.04097032 0.1564769 0.28109148 0.0827945 0.06721764 -0.034633256 0.2808233 0.119638585 0.06581874 -0.036176804 -0.05923927 -0.025687423 -0.06535398 0.0059488015 -0.05237719 0.13508527 0.03108619 -0.16694285 -0.19154581 -0.109715536 -0.01077236 0.0004478356 -0.089299805 -0.038725562 -0.061938666 -0.08676621 -0.005719639 0.09321558 0.058377836 0.024600105 -0.19298859 0.04313899 -0.021205498 -0.19674484 -0.012459954 0.12738338 -0.005345838 0.023184761 -0.3978432 -0.24126448 -0.15184051 -0.08476255 -0.0013350579 -0.059139434 0.15277538 -0.113318734 -0.029446905 0.106372945 -0.12895945 0.021506883 0.05360535 -0.15891345 -0.007163507 0.083314784 -0.0691346 0.06949031 0.04819724 0.19915043 -0.2111445 0.18244545 -0.23756135 0.039901003 0.17658535 0.05812146 0.032834582 0.049215574 0.045332406 -0.00017731564 -0.21130492 -0.14103673 -0.07794477 0.05321641 -0.11951552 0.019168405 0.10297011 0.061475057 -0.12550315 0.17046747
-0.10658697 -0.06785372 0.016681101 -0.09236003 0.010419734 -0.0022176406 0.053431533 -0.034186933 -0.039403744 -0.012277005 0.040570594 0.07508498 0.06815139 0.020297939 0.020139497 0.028295025 -0.055595912 -0.10447281 0.045465093 -0.026754305 -0.026335353 -0.015339693 -0.040362857 -0.12685153 0.009178359 -0.0092621595 -0.024547169 -0.068217464 -0.0099985665 -0.0793766 -0.06245857 -0.08891982 -0.1157164 -0.094221115 -0.08364429 0.032350495 -0.0665454 0.00045820998 0.03489496 0.031310767 -0.079426885 -0.05594713 -0.07826553 -0.043890856 -0.02446497 -0.06302499 0.047913007 -0.06941044 0.04949894 -0.09413495 -0.0943925 -0.07532317 -0.06325436 0.034492657 -0.024677088 0.021840358 0.056788854 -0.07896908 0.02241384 -0.018350946 0.029075144 0.037921187 -0.0096364785 -0.07874981 -0.007461101 -0.009768304 0.049278915 -0.05686224 -0.07862124 -0.029271372 0.06504182 0.020101115 0.05683301 -0.09461218 0.0030210966 -0.043262653 -0.030580787 -0.06740922 -0.0666804 -0.061178464 0.046887696 0.02894734 0.038109213 -0.07967849 -0.08923343 0.04096932 -0.017571183 -0.0035358325 -0.083161965 -0.062425118 0.03810312 0.021512771 0.079542845 0.037785135 0.0346589 -0.042226642 -0.0823138 0.029641492 -0.09335631 0.05755819 0.05182202 -0.09509834 -0.08993125 -0.071500756 -0.073103435 -0.037845414 -0.016261917 -0.08331358 -0.041687988 0.03651434 0.048611876 -0.07587484 0.083560675 0.00948375 -0.04078 0.019821895 0.028858881 0.021536974 -0.09153063 -0.007022272 -0.009077168 -0.053036578 -0.07962254 0.031027587 -0.06231188 0.04478671 -0.056230545 -0.056216445
-0.06687813 0.0023043822 0.09641653 -0.016406698 -0.013392978 -0.020742685 -0.13276745 -0.018606339 -0.004008935 -0.06506795 -0.09625263 -0.04393771 0.036828395 0.019210972 -0.110888466 -0.027396666 -0.023682237 -0.105360776 -0.0035992477 -0.11615373 -0.016625954 0.04821184 -0.123766184 -0.0153370695 0.018880656 0.044203836 -0.05604448 -0.1231591 0.026419101 -0.004160076 -0.032580294 -0.011531056 -0.01629386 0.017587695 0.029784475 -0.029002257 -0.043363955 -0.0135970265 0.002936005 0.011227646 -0.08512231 0.0039223186 -0.10993786 -0.13283327 0.08311326 -0.071566634 -0.07488869 0.010423054 -0.019864548 -0.0057989736 0.012142561 -0.028424269 -0.01021581 -0.11995814 -0.023381315 -0.07672649 0.0056091533 0.029507302 -0.031662796 -0.12378716 -0.09726656 -0.0075262897 -0.03414672 -0.08267487 0.007349425 -0.100522086 0.046993926 0.029995313 -0.11776234 -0.080351956 0.080021694 -0.022903103 -0.06239035 0.0023663372 0.06815844 -0.019864596 0.023570247 -0.14063393 -0.10095965 -0.0075470963 -0.026460508 -0.05340857 0.073114775 -0.0122401 -0.050534315 -0.09292788 -0.12905501 -0.01921217 0.005861428 0.008098362 0.060702402 -0.047288775 0.0025496096 -0.022838619 0.084244005 -0.015937563 -0.020719191 0.034196846 -0.11663627 -0.09747054 -0.032972638 0.01186964 0.044693764 -0.04849927 -0.008288902 0.026706424 -0.04602997 -0.13749889 0.0562276 0.031933077 0.0483874 0.03777391 0.07383027 -0.04027191 -0.09066341 -0.054118596 0.0099259475 -0.12183284 -0.011632653 -0.1362996 0.00030672486 0.022919357 -0.1176456 -0.059259355 -0.0594683 -0.11908972 0.05891006 0.02636025
0.03819997 -0.16503297 -0.15404728 -0.010145177 0.071052216 0.09460992 0.12663808 0.03582309 0.026986921 0.0044550677 0.039123192 -0.08423233 -0.13264573 -0.017265717 -0.10635987 -0.058507007 -0.10434207 -0.034832675 0.05139256 -0.12816867 0.064042896 0.021906314 0.010509538 -0.28053257 -0.1848514 0.28774834 0.005470397 -0.038834456 0.15717542 0.16053401 0.05844158 0.11854739 0.12770888 -0.027160032 0.0089136865 0.024319338 0.1463721 -0.003510149 0.09880721 0.044856496 0.12362964 -0.076123565 -0.009161711 0.067269355 -0.08786373 0.211834 -0.10069879 0.18346342 -0.0050766715 0.09340281 0.037961245 -0.004910071 -0.17338707 0.0541282 -0.052503224 -0.058694556 -0.08710006 -0.084345885 -0.12986715 0.06302056 0.30558237 0.079943344 -0.10782222 0.041344207 0.12675036 -0.030445905 0.013695933 0.104443766 0.22562425 0.14343154 -0.033821493 0.046367794 -0.2290499 0.13387589 -0.072646566 0.06661341 -0.12380113 -0.055353772 0.12398489 -0.0055502793 0.26557577 0.17138605 -0.11192877 0.065385535 0.17198302 0.054402713 -0.0046247174 -0.07315032 0.04859713 -0.040346116 -0.031614553 -0.008614914 -0.07063812 -0.083277136 -0.23200649 0.0067987703 -4.8497895e-05 0.06164831 0.012999542 0.0027906462 0.0024386966 0.11865783 -0.08145415 -0.022770954 0.04357751 0.0033217927 0.066424765 -0.08171734 0.24414551 -0.10724676 0.03677121 -0.07388972 -0.01384509 0.076253235 -0.116591975 0.049719125 0.050312974 -0.083861105 -0.013278286 0.15631239 -0.07254368 -0.070123926 -0.04788772 0.010709768 0.054749895 0.0042015132 0.07682292 0.020542005
0.18220939 -0.096739635 -0.083592914 0.0035668213 -0.005495633 -0.19327426 -0.3060273 -0.043962304 -0.10844165 -0.061585497 0.0680479 0.0035681736 -0.060234413 -0.0815398 -0.14607911 0.009429083 0.098105386 0.035077337 -0.0857936 0.099961534 -0.010528437 -0.14578448 0.04260281 -0.20806412 -0.15496336 -0.0195764 -0.12383758 0.109535836 0.1493196 0.16160156 -0.06279685 0.12730846 0.025953148 -0.17948526 0.1565081 0.052584752 0.13294944 0.07612187 -0.10226454 -0.0909252 -0.044695448 0.009259604 0.057563756 0.055673722 0.07328956 0.24065769 -0.2209244 0.06603802 -0.11612523 -0.014060178 0.11912281 -0.16568585 -0.32852286 0.00580484 -0.13658468 -0.12975636 -0.048648056 0.047624484 -0.23350866 -0.09938432 -0.15160029 0.04537444 -0.13271351 -0.064687066 0.00013268756 -0.20331615 -0.079217814 0.015738124 0.037083946 0.20529935 -0.105750695 0.007422899 -0.14185409 0.014881257 0.030072633 0.025647158 -0.1819004 -0.03304957 0.16373563 0.06137203 0.2749173 0.1391599 0.045429725 -0.024347728 0.16237822 -0.0812741 -0.14534211 0.113964766 0.08211019 -0.21363483 -0.20675476 -0.03903889 0.020868003 -0.04765007 -0.25491214 -0.04177726 0.038787793 0.009731804 -0.06578653 0.03059159 0.034393486 0.11823303 -0.047624756 0.06978171 0.0064789904 -0.004337172 -0.092220396 -0.10704043 0.10388283 -0.19963425 0.08001547 -0.019018464 -0.061951794 0.043389533 -0.046892602 0.087503046 0.03872383 -0.29824474 -0.07842282 0.08946136 0.14553012 -0.05296458 -0.12052691 -0.045654938 0.0940067 -0.008550232 0.19230023 -0.08153335
0.049785674 0.053415015 -0.335995 -0.1020104 -0.050405405 0.108403444 -0.1991173 -0.071644545 0.052397214 -0.027731678 -0.04137145 -0.007640232 0.008420235 0.08031673 0.19832285 0.13884574 -0.02343568 -0.024248157 0.06611687 0.030273285 -0.052331865 -0.081500515 0.09261683 0.14871556 -0.2384233 -0.0069267475 0.15186404 0.13203533 -0.034257907 0.096649535 0.030322134 0.021750482 0.082002945 -0.04967914 -0.05645306 0.15342075 0.019906322 -0.11121743 0.11883291 0.0018385994 0.054342773 0.018700281 0.09094232 0.016921809 -0.0609557 0.10847511 -0.002421527 0.20007771 -0.027269015 -0.28534257 -0.03750378 0.09365439 -0.32066002 0.11656953 -0.07642745 0.019732652 -0.011479803 -0.036411136 0.062104087 0.057216674 -0.05800291 0.0285546 0.10873784 -0.006334379 0.043260105 -0.20986061 -0.01045292 0.014605936 0.26900724 0.1865935 0.01286455 -0.068483934 0.17744075 0.055579636 -0.0507125 0.0776289 0.012163513 -0.025981814 0.004511293 0.11784235 0.1696684 0.1408094 -0.07149879 0.044195052 -0.121759355 -0.0727671 -0.13371049 -0.17019932 -0.0043689273 -0.05047746 -0.13280074 -0.08351116 -0.046127506 0.029975662 0.051724423 0.07653363 0.10572379 -0.025393296 -0.10934851 0.096638225 -0.19260852 0.16718107 -0.01675732 0.062350795 0.020996768 -0.0014373856 -0.1872072 -0.10612473 0.18777214 -0.099993415 0.047118314 -0.05643343 -0.061141603 -0.15798742 -0.113389984 0.116925836 0.09969719 -0.035237808 -0.14530675 -0.097554184 0.049173255 -0.023681877 -0.16344431 0.27899668 0.079141736 -0.008140438 -0.040685553 0.10461678
-0.030078268 0.18034178 0.04612108 0.065879464 0.078565285 0.027375693 -0.003238176 0.14517263 0.12050156 -0.10774033 -0.091273844 -0.025719378 -0.0064990087 -0.032294363 -0.087990135 0.07401815 -0.12111412 -0.09266433 0.164948 -0.13607611 -0.16037759 -0.3186407 0.0813243 0.18697521 -0.066154115 0.16539422 -0.27441096 -0.16907336 -0.09255428 -0.05949382 0.07152039 0.15730311 0.012920447 -0.14722659 0.16975865 0.0592458 0.03236701 0.046603806 0.055144176 0.07408605 -0.09158868 -0.16455579 -0.2048558 -0.0035901857 0.006380831 0.14634177 -0.091048814 0.11291592 -0.027758913 0.15277086 -0.06106108 0.06652482 -0.19455606 -0.014323867 0.052669886 -0.026537886 -0.14474463 -0.09772829 -0.13164398 -0.020547176 0.09428556 0.19648668 -0.07255023 0.32284144 0.028312791 -0.09806478 -0.014183695 0.11201866 -0.12702957 0.22646666 0.021477021 0.1253773 -0.0027428882 0.072729595 0.114072196 -0.04935601 -0.13143596 -0.022633659 0.10330313 -0.03664889 0.11880033 -0.028764546 0.03676624 0.030793287 -0.13163406 0.006819262 -0.032657713 0.034008224 0.260768 0.23099877 0.20692599 -0.04609766 -0.08783763 0.053348567 0.009394986 0.048268642 0.008931942 0.0432324 0.1069361 -0.066135064 0.050175223 0.10214829 0.005170189 0.012646125 0.03151218 -0.039971545 -0.08545091 -0.04874538 0.2217707 -0.16698624 -0.06950674 0.085030995 -0.12213703 -0.18382291 -0.010416321 -0.062118534 0.10408726 -0.13425006 0.011860692 0.08840692 -0.023139313 0.119320996 -0.09158217 0.15794067 -0.05695288 -0.04198992 -0.1666867 -0.006746021
-0.08608593 -0.0006011386 0.06632027 -0.031752285 0.044837974 -0.10309264 -0.062099233 0.017438212 0.07864881 0.09018923 0.09138839 -0.113991946 -0.07337674 -0.0073668477 0.07714827 0.11795061 -0.12908262 -0.029107058 0.103292055 -0.19700773 -0.052273218 -0.27311102 0.100634776 -0.027539691 -0.14489385 -0.10367805 0.053555828 -0.08566192 -0.17637785 0.114238136 -0.04064492 0.0814744 0.07143048 0.012938833 0.08531661 0.057673514 0.03328038 -0.0095314775 0.055608768 -0.058688816 0.07010431 -0.04354941 -0.16481997 -0.0013611116 -0.06893218 0.050322108 -0.1558731 -0.00049892394 0.028035969 -0.11477438 0.078841105 0.116540655 -0.15941052 -0.02554795 -0.003407466 0.013190255 0.02225465 0.14946856 -0.15755242 0.03653031 0.043319516 0.09938827 0.26970565 0.11939633 0.06373593 -0.06882894 -0.119805954 0.004028784 0.046910323 0.026555905 0.008028687 0.1856585 -0.085778415 0.06111211 -0.09774458 0.06725316 -0.13959444 -0.009973624 0.054012366 0.06218552 0.32414123 -0.050977085 0.0044716834 -0.100584745 -0.09009341 -0.045111973 0.03312705 -0.05892751 0.1704351 -0.10518043 0.020322707 0.01765654 -0.022168266 -0.014818138 -0.0015467985 -0.06848692 0.17139015 0.019994961 -0.023599079 -0.06484683 -0.118489474 -0.022296278 0.023045465 0.1364011 -0.04607356 0.05596836 -0.19981498 -0.14978532 0.07456626 0.04645474 0.03548917 -0.035869975 -0.13705377 -0.07715263 -0.14772524 0.11251455 0.15248929 -0.062150195 0.02868517 0.1602786 0.13679747 0.117931895 -0.1830699 0.1808097 0.08700288 -0.06608635 -0.045661993 0.22908475
-0.12047993 -0.18754397 0.047539927 0.045806255 -0.043021746 0.030288296 0.12872808 -0.08698438 -0.015318362 -0.011900319 0.024828801 -0.05670731 -0.08638118 0.048939276 -0.15099363 0.114362426 -0.107497245 0.0807651 0.14493112 -0.1467734 -0.1996934 0.04672219 0.118534826 -0.024601256 -0.013589159 0.14908259 -0.11193863 -0.12045312 0.04916087 0.026018204 0.01794784 0.014265986 0.06105352 0.12245507 0.006842515 -0.15581672 -0.10496567 -0.043821562 0.101630546 -0.022552058 0.13282932 -0.10285788 -0.120388836 0.09616445 0.08658529 0.01590897 -0.12590677 0.15253387 0.031268373 0.1317493 -0.036552344 -0.008641035 0.13814813 0.11410049 0.010084989 0.016551629 -0.13224508 -0.14346807 -0.033176515 -0.048237983 0.26002517 0.15477711 -0.110515594 0.13583425 0.04458544 -0.054596353 0.070662275 -0.008953917 -0.043635443 0.110727474 0.049345173 0.045690726 0.0018183987 -0.016874181 0.02262267 -0.031631056 -0.0054527805 0.13042848 -0.022388827 0.06424476 -0.044177 -0.024303429 0.07585223 0.16523357 -0.11025033 0.03341623 0.06869003 0.011183183 -0.06631773 0.10726943 0.0189244 0.028524753 0.005629653 0.09076346 -0.156406 0.028022476 -0.07117597 -0.02164561 0.119253844 0.08653831 0.014275695 0.020401733 -0.08505984 -0.0139355995 0.0076192035 -0.07677183 0.055638663 -0.039044067 0.2191201 -0.076020375 0.0029248425 0.060214605 0.14634608 0.14859805 -0.04829599 -0.277129 -0.03530795 -0.050031945 0.020242522 0.028594546 0.044617005 0.014260518 0.09608567 0.022081723 0.07947072 0.07212231 0.08191158 -0.2803558
-0.20629326 0.055529807 -0.20214383 0.060947597 0.23868486 0.015456213 -0.101807594 0.102182135 -0.030848652 0.12733485 0.12005311 0.028805573 0.2584873 -0.023632715 0.16682091 0.006697312 -0.026970806 0.14157254 -0.072370954 0.06986645 -0.034524236 -0.03544359 0.083285555 0.027548539 0.0957355 -0.1430296 -0.10197485 -0.04458698 0.0237626 0.11017557 0.14127855 -0.029599637 0.13204968 0.08185995 -0.11144106 -5.724391e-05 0.07908638 -0.013318962 -0.025305904 -0.059961267 -0.10477636 0.13303912 -0.0020953268 0.11087321 0.0046410705 0.05111303 -0.032936245 -0.16925345 0.14304584 -0.16562602 0.035132483 -0.15357539 0.018234022 -0.10124857 0.012362535 -0.23877046 0.030305726 0.0038377473 -0.0122504225 0.051044367 -0.092190206 -0.03270478 0.12881036 -0.20692192 0.0442033 0.015702099 -0.2142021 0.11683674 -0.0006532448 0.0046669496 0.034765154 0.049086317 -0.070184365 -0.1471121 0.026882797 -0.047535922 -0.1311529 0.11744866 0.087481946 0.068303764 -0.0055124396 -0.10599736 -0.040786542 0.21963829 0.110812694 -0.15259804 0.05819116 0.07291055 -0.16516154 -0.1882282 0.14149192 -0.113620155 0.2679844 -0.055748276 -0.070635945 -0.065890215 0.12854394 0.012391208 0.062278807 0.07990522 -0.035238974 -0.012534727 -0.05617732 0.12739684 0.07955727 0.046388388 -0.088166624 0.16406637 -0.18510868 -0.07064 -0.024004364 0.08390932 -0.0031763937 -0.18944798 0.02159767 -0.032011047 0.08557071 0.06681943 -0.2314448 0.22867927 -0.12598284 -0.2380585 0.026024777 -0.079571925 0.07042352 0.13373978 0.16162768 0.3569832
-0.37936622 -0.09236621 -0.01893821 0.079937235 0.05207102 0.04614258 -0.052190576 0.11329439 -0.0072960122 0.17108443 0.14359309 -0.11365377 -0.050214916 -0.05998693 0.18241172 0.06904792 -0.060597785 0.012635813 -0.03385996 -0.11162258 0.08741017 -0.1437833 0.083536685 0.16759777 0.18513355 -0.3810316 0.108306944 -0.2488931 -0.023206383 -0.16814426 0.04570518 -0.08169856 -0.00955794 0.24214031 -0.067977436 0.048635293 0.0135469865 0.101184584 -0.013682986 -0.034150463 0.011088734 0.24343312 -0.27640194 -0.070643514 0.038124483 -0.046633255 0.1275936 -0.20645948 0.02480664 0.011239935 -0.061658137 0.13603908 0.24787855 -0.13811958 0.07705259 -0.040822595 -0.022738552 0.01601073 0.10373157 0.12942338 0.11815374 -0.06520464 0.0370298 0.05606274 0.07320277 -0.009080626 0.057463937 -0.033454917 -0.19021022 -0.21784116 -0.05088038 0.016324496 0.051691283 -0.08011306 0.011383758 -0.05701244 0.115165666 0.034152985 -0.045358572 0.05749564 -0.15845954 -0.17517242 -0.013870213 -0.03750748 0.11514459 0.030605499 0.01781107 0.07388525 -0.09053055 0.024050796 0.102056 0.0063515417 0.1113486 -0.028059421 0.21210083 -0.056064103 0.06909552 0.13580064 -0.05883102 0.0183648 -0.084805764 -0.0717114 0.07943141 0.13827851 0.12059741 -0.026465014 0.11102663 0.1376214 -0.039645 -0.019081851 -0.1810088 0.037230078 -0.021648973 -0.043788515 0.14276621 0.008397989 -0.041234195 0.23401421 0.10350681 0.024015594 -0.079307966 0.076641254 0.12790708 -0.058446858 0.0023189958 -0.014824214 -0.10847354 0.21716617
0.15649508 -0.054955505 0.21792042 0.19215445 -0.01544689 -0.02338534 -0.01832842 0.27652058 -0.07716059 0.052842632 -0.11222298 -0.11526618 -0.11975363 -0.029041268 0.058139708 -0.018152371 0.2031594 -0.017404731 0.21412733 0.12708187 0.01735651 -0.10742392 0.09741606 -0.05693724 0.11020396 -0.037791718 -0.09501305 -0.21668322 0.1596526 -0.003779177 0.023147814 0.17877059 0.08631556 -0.08110434 0.13363071 0.10912634 0.107553184 0.09885708 -0.05970833 0.027084695 -0.16967736 0.08428513 -0.25368294 0.0670038 -0.039177664 0.04793036 0.2049178 0.021765659 -0.06404235 0.09427879 0.10290436 0.16687302 0.05046821 -0.1092479 0.036595963 -0.007266797 0.09834119 0.11454617 0.061490767 0.11201598 -0.026803758 0.022227379 -0.03182439 0.074777976 -0.029707817 -0.0052319206 -0.14978527 0.02838447 -0.13892637 -0.009170485 -0.042699955 0.1978454 0.019006489 -0.093573056 -0.0028706603 -0.024668245 0.022583336 -0.14842597 0.10360254 -0.055952568 -0.0014987069 -0.016050939 0.04518168 -0.14383925 0.22196282 0.08335259 0.03574689 0.07845784 0.11822611 0.037322696 0.06173292 0.08282578 0.05501194 -0.097161405 0.18388651 0.015120413 0.13113686 0.15610509 0.014733034 0.06360725 0.2627525 0.14287259 0.07932632 0.07939283 0.09240814 0.01445729 0.11128141 -0.0015572092 -0.0011031586 -0.031448156 -0.25490275 0.029181927 -0.109249815 -0.03825644 0.02255496 0.06828596 -0.060013883 0.0043675657 -0.054057337 0.14306372 -0.19779135 0.13289595 0.028277934 0.119236685 -0.12954694 0.07293146 -0.040302247 0.017603518
0.1742297 0.12809417 -0.121568315 -0.14650594 -0.106085934 0.21861514 0.061405916 0.08538645 0.106446326 -0.09747868 -0.20941533 0.056390017 0.07004771 -0.020412754 0.096072584 -0.065381214 0.1977586 -0.14495845 -0.15919037 0.18088613 0.2083847 0.17257708 0.10993021 -0.0559674 -0.17438352 -0.014352075 0.12629217 -0.06327122 0.2417307 0.005047804 0.27778378 0.11039473 -0.07666755 -0.17334802 0.15812477 0.3456562 -0.11162483 -0.035331808 0.0571685 0.0026056194 0.08315525 0.07506351 -0.13892363 0.20162822 0.04596434 0.1294537 0.17680584 0.29006064 -0.056127395 -0.11221311 0.18027562 -0.09611161 -0.011545292 -0.04009775 -0.020660056 0.14987937 0.12093131 0.0069100377 0.1604176 0.11992876 -0.0026597609 -0.19094779 -0.15193596 -0.14204934 -0.2600212 0.08398784 0.041765545 -0.0856614 0.04511631 0.065637246 0.09838755 -0.023893261 0.029888256 0.11788617 -0.087305814 -0.0610873 0.022985319 -0.15250656 0.13123164 -0.1250677 -0.1113905 -0.020286012 0.010815216 -0.11915975 0.10622284 0.103469945 -0.1058629 0.11698751 -0.07380715 -0.10723073 -0.19478142 0.073249675 -0.1670081 0.017838655 -0.0047739935 0.060138043 0.08977119 0.09872898 -0.14589316 0.12608565 0.13549401 0.15782937 0.054768004 -0.11393109 -0.10136271 -0.04799358 0.15350978 0.07022537 -0.07406518 0.17164491 -0.16698116 0.03661482 0.111485384 -0.2033248 0.059613463 0.060292527 0.11938478 0.17449793 0.044078387 -0.15898812 -0.08657249 -0.16407321 -0.0057428363 0.11407099 -0.029390845 0.2732835 0.0122645 -0.07871423
-0.14787601 -0.184194 -0.019281026 0.052747212 -0.08139138 -0.16483091 -0.3199326 0.0073004393 -0.011822327 0.06588383 0.12784259 -0.10406599 -0.09566121 0.037101932 0.13076118 0.050125126 0.07407542 0.046760056 0.07384168 0.0702261 0.017687319 0.046897516 0.118440434 -0.21285495 -0.027431324 -0.24139312 0.06768703 0.09749739 -0.07338511 0.051543605 -0.043230988 -0.016108742 0.057804935 0.07759555 -0.03702745 0.14343233 0.16783406 0.018367834 -0.16278538 0.113462724 -0.05020547 0.035002545 -0.098433316 0.00503039 -0.035179522 0.028266797 0.00921375 -0.010696328 0.16733721 -0.25144762 0.049535617 0.054349065 -0.026241118 0.11451519 0.074155875 -0.20930113 -0.00035672306 0.094476834 -0.059697486 0.11669198 0.00818452 0.06870643 0.0038701103 0.086654596 0.051335067 -0.0019092567 -0.087166615 0.04082987 -0.058144428 0.049674418 -0.029491667 0.00776805 0.0014036958 0.07698918 -0.002827838 0.165762 -0.027460009 0.091523744 0.088196166 0.17614505 0.1311246 0.068311274 -0.10145758 -0.11492947 0.08285182 -0.07979259 -0.04198175 0.075474195 0.06527738 -0.20054497 -0.05153505 -0.089355744 0.23738511 -0.08264335 -0.0073591797 -0.11863935 0.124260314 0.007167404 -0.1333781 -0.11965421 -0.015844373 0.045490056 -0.033778302 0.18373843 0.08518961 0.009720748 -0.036314327 0.035592817 -0.18742213 -0.16900803 0.021775851 -0.09601102 -0.12477948 -0.03420448 -0.056988258 0.15573372 0.18241253 -0.06523889 -0.15244432 0.05916228 -0.15324652 -0.102297895 -0.07228006 0.032114066 0.039277162 0.0070259557 0.029949961 0.22465323
-0.10187686 -0.1764611 -0.21949223 -0.07760392 -0.030085195 -0.27005053 -0.10344857 -0.07610157 0.021421231 -0.010142629 -0.02913576 0.040814165 -0.025095606 0.064819634 0.024124933 0.16447347 -0.30110565 0.08372895 -0.047760513 -0.14039513 -0.14325115 0.038470663 0.116444446 0.1275068 -0.11887593 -0.17720753 0.0141337225 0.11204637 -0.33640468 0.107736394 -0.08726513 0.104831964 -0.02327967 0.016628884 0.011512781 -0.1830204 0.032489747 -0.009626557 0.046005577 -0.012757007 0.116239116 0.051373262 0.12849998 0.05314453 -0.016756935 0.068887435 -0.14917925 0.09471891 -0.062015586 -0.15245774 -0.0020425804 -0.009978343 -0.2489844 0.2063251 -0.06852358 0.048845917 -0.0883618 -0.10028325 -0.17118253 -0.14316289 -0.031220483 0.13969673 -0.082696885 0.06577162 0.12527016 -0.07274463 0.13897051 0.043356247 0.10700735 -0.009734349 -0.09896035 0.009132923 0.11696324 0.059587426 -0.036760386 0.09418183 0.06410028 -0.013733525 -0.0026175517 0.08607168 0.14465344 0.2553044 -0.062366173 0.18492775 0.02422243 0.120539494 -0.10100535 -0.08261439 0.20504165 -0.12314357 -0.05720211 -0.09788422 0.09807841 0.00028309773 0.006844563 -0.020163303 -0.007596484 -0.039723173 -0.10270069 0.08333808 -0.31262887 0.00040067665 -0.1193023 0.01006328 0.11560014 0.04034274 -0.24556664 -0.09401168 -0.045205772 -0.0082931835 0.18844908 -0.1443572 0.031297863 0.110940605 -0.13156234 -0.07316639 0.09171778 -0.12607121 0.0195217 -0.11036493 -0.0016119668 -0.05998971 -0.21247111 0.16195916 -0.019785054 -0.24941 0.15935647 0.22254513
-0.18840331 0.047704995 0.17967597 0.0063913935 0.22001673 0.24980846 0.19087084 -0.15000764 0.06655926 0.10316544 0.02225299 0.15638743 -0.1699599 -0.15585716 0.038564254 -0.042893283 0.028306548 -0.02679815 -0.027450427 -0.1514546 -0.19656071 0.04765154 -0.041358266 0.08816815 -0.09568355 0.3246542 0.004757195 -0.3776558 -0.10319108 0.057649706 0.11409378 0.010284907 -0.019602587 0.13920847 0.027913397 0.04820763 0.106009424 -0.06809157 0.009178446 -0.0045805955 0.21547881 0.055715527 -0.17963497 -0.047602285 -0.030208934 0.0005515376 -0.19035836 0.15226094 0.18227598 0.0120492 -0.003552591 -0.110963605 0.10518147 -0.017269636 0.07574976 -0.12281113 0.13280982 -0.014270299 -0.020279197 0.14570932 0.22185208 -0.20218983 -0.05878249 0.055105977 0.113932736 0.16369374 0.10722835 -0.12099886 0.10766395 -0.04556427 0.05932714 0.21627176 0.0014679449 -0.012267891 0.06835955 0.0015439631 0.01588939 0.104128286 0.07796712 -0.029324869 0.19722703 -0.16304515 0.02304205 0.110034265 -0.041322403 0.0419578 0.15323961 0.10708306 0.03603044 -0.020215705 0.18136075 -0.09546314 0.06146015 -0.038716502 -0.08201687 -0.065861695 0.013083545 0.12710124 0.022715708 0.103898056 0.02674417 -0.13056746 -0.08812977 0.053154007 0.14116706 0.0871732 0.08120498 0.1064162 -0.019146988 0.098713174 -0.13521679 0.060836125 0.0381422 -0.17389435 -0.010652962 0.0765049 -0.18609409 0.08894849 -0.05454193 0.07569122 0.021145318 0.21238604 0.0386616 -0.0527261 0.23043032 0.053362705 -0.012452876 0.17891939
-0.2492821 0.09175142 0.17865123 0.15349461 0.22168197 -0.041289758 0.23989807 -0.113424785 0.10390047 0.010223002 0.07140109 0.07172589 0.0124976635 -0.17425527 -0.05378771 -0.06794336 0.039029714 -0.01078923 -0.20808545 -0.041902892 -0.01720025 -0.061805468 0.03241892 0.038005255 0.1783381 0.033210002 0.00042241887 -0.062907346 -0.15000245 -0.11480227 0.16166595 0.017015848 -0.1171263 0.020748187 0.07911631 -0.2483519 -0.03415149 0.06383286 0.028134294 0.031001333 0.05806823 0.069537774 -0.027108645 -0.007913351 0.030829241 0.027858889 -0.026661946 -0.15325111 0.002010901 0.21560003 0.13086486 -0.046749365 0.041643728 -0.043239646 0.02013844 -0.05482738 -0.19036567 -0.09367999 0.040524714 -0.012493476 0.09212704 -0.06239056 -0.19655882 0.05549762 0.16940139 0.07731237 0.04016497 -0.015517386 -0.10898707 -0.14424193 -0.027534064 0.112763524 -0.032119658 0.056173664 0.08774278 0.122552566 0.1279931 0.18025789 -0.18388493 -0.12058474 -0.11468001 -0.18423156 0.023897309 0.04151623 -0.049720533 -0.019977426 0.2042279 -0.0025900514 -0.01013933 0.16733554 0.19537437 0.15518054 0.094230875 0.06792965 0.15936962 -0.049639683 0.0005541027 0.022813827 0.23845509 -0.08127776 -0.022851001 -0.05355769 -0.039371602 -0.08115674 0.059225824 0.05950429 0.048265565 -0.09819346 -0.056797866 0.18468249 -0.08192439 0.12646687 0.07641978 0.081274495 -0.048048586 -0.1478711 -0.14012802 0.098382205 -0.0027579204 -0.017824851 0.06353884 -0.074445106 0.10973743 -0.2513801 0.11023448 -0.25095692 -0.0029268267 -0.096477784
0.05822805 0.13327481 0.057835475 -0.06366189 0.024130916 0.045218054 -0.06241758 -0.2588382 0.029516608 0.14399497 -0.058841217 0.25120634 0.1818458 -0.2066143 -0.1386239 -0.22171359 0.023296122 -0.22759683 -0.14728115 -0.03583782 0.0012886889 0.17820472 0.04551767 0.21130733 -0.019373227 0.09900615 0.1592382 0.068642326 0.1388939 -0.16177692 0.043357443 -0.020380717 -0.33320948 0.006587626 -0.039168406 -0.09562774 0.10744958 0.08639652 0.23630509 -0.05051012 0.21693975 0.056527305 0.03787898 0.09079886 0.013431306 -0.19119954 -0.08619273 0.09823564 -0.021078952 0.113870025 0.09504247 0.040680297 -0.06463355 0.13196868 -0.2095399 0.11289962 -0.113911234 -0.012896402 0.0007511419 0.06214577 -0.0045387843 0.013413853 0.20996131 -0.0028144512 0.1654919 0.13353682 0.07180359 -0.14020973 0.08712087 -0.0827952 0.011788853 0.1236114 0.033541013 0.16191171 0.09397954 0.07996176 0.016863652 -0.10454198 0.02042406 -0.23111299 0.071860015 0.04351174 0.111285165 -0.11687135 -0.06267231 0.090371326 0.1874613 -0.090458445 -0.005666721 -0.07480517 0.04628243 0.07867173 -0.17059764 -0.108173855 0.076763995 0.102448076 0.00044614775 -0.07949278 -0.09382766 0.13456137 0.01125316 -0.21854958 0.07623053 -0.15826967 -0.14535473 -0.053488094 0.0350267 -0.055112556 0.34694174 0.15009205 -0.045859125 -0.099793546 -0.069356546 0.14131044 -0.049492795 0.034795962 -0.05886565 0.15703441 0.09512566 -0.3137175 0.14705941 0.08499527 -0.027624821 -0.045283932 0.14334019 -0.013414296 0.08221498 -0.093022466
-0.085017286 0.13979684 0.030613644 -0.13657695 -0.21570997 0.17721574 0.19333306 -0.014191492 -0.16485003 0.057272527 -0.09136743 -0.094568044 0.122017674 0.032669924 0.049718067 -0.13879356 -0.095684744 -0.08375908 -0.13621333 0.07468214 -0.14475876 0.17744528 0.045733105 -0.071160965 -0.089646764 0.019194867 0.028860286 -0.04191156 0.014069475 -0.18784687 -0.067419045 -0.030481847 -0.16942286 -0.042665377 -0.0056889844 -0.041281052 -0.05201587 -0.051657114 -0.03022472 -0.054304536 0.06067763 0.08387538 -0.08021867 -0.092556246 -0.00248901 -0.1840317 -0.11000658 -0.009765232 -0.031082775 -0.04909734 -0.050004344 -0.0691861 -0.0074444334 -0.10964323 -0.15070748 -0.035777673 -0.17262253 0.0033502362 0.03253296 0.016635967 -0.10208359 -0.047400024 0.054159634 -0.06978016 -0.1337616 0.021495705 -0.10262574 0.03441937 -0.021120163 -0.059062663 0.014493374 -0.026200045 0.12715878 0.07545667 -0.019846361 -0.0044970773 -0.08129462 -0.050315745 -0.017776988 0.0148228835 -0.12214088 -0.0160081 -0.065768376 0.20600693 -0.13803512 -0.022729611 -0.13995458 -0.16064718 0.06324873 -0.067508526 -0.14115101 0.039181586 -0.02063587 -0.013507039 -0.07606202 0.10981189 -0.015337845 -0.111939214 -0.2188013 -0.027981648 0.03809507 -0.11125549 -0.05454111 -0.022562997 -0.022701839 -0.050351743 -0.03939786 -0.021655973 -0.06212963 -0.06966594 0.026573915 0.033563457 -0.22776428 0.034270246 0.053722978 0.020560754 -0.0030425515 -0.03937076 -0.012762461 -0.11511047 0.049145155 -0.21363765 -0.0034600147 0.004893692 0.046624567 0.07605221 0.07586303 0.050504044
-0.21671537 -0.120362185 -0.17189112 0.071271576 0.1614929 0.14832577 -0.08726211 -0.066806495 0.05534637 0.067322694 -0.039335635 0.116694264 -0.06366608 0.07187334 0.050929207 0.12578604 0.031513322 0.06947171 -0.084934436 -0.22679034 -0.029168013 0.16967525 0.020470463 -0.13087766 -0.1455829 -0.0032633964 0.20806369 -0.045864616 -0.17072459 -0.0051377662 -0.049071528 -0.054852176 -0.0042704395 0.013936405 -0.008163044 0.097787954 0.18492459 -0.0062306523 -0.059693746 -0.008417377 0.1522845 0.05189697 -0.07343734 0.01215539 -0.08387487 -0.046713956 -0.1127236 -0.052902374 0.060699623 -0.1820062 -0.04427746 -0.054359067 0.06704064 0.015282529 0.07390821 -0.19223735 0.2465924 0.120631635 -0.14093518 0.14027686 0.08451343 0.04138309 0.06266365 0.00032554558 0.13956206 0.13562992 -0.0033909322 -0.12106347 0.16009422 -0.07073237 -0.011430439 0.012929151 -0.18535177 0.020775896 0.074908756 0.0063074515 -0.021577539 0.08362474 0.13873821 0.06619628 0.22437643 0.1662513 -0.024211498 0.039430052 0.054006103 0.056541428 0.11943432 0.12519704 0.061610475 -0.21467361 -0.10155037 -0.16821042 0.0941857 0.019751022 0.052465953 -0.13390176 0.11829392 0.033675693 0.013653662 0.10271621 -0.14831306 0.035765056 -0.054577295 0.12640926 -0.03520318 -0.021090455 -0.1677176 0.066591874 -0.09157253 0.07703321 0.025922643 -0.07107042 0.17563717 0.07250716 -0.016617693 -0.0089226775 -0.090836905 -0.06246979 -0.05063965 -0.04578585 0.09990354 0.1284548 -0.07994549 0.097491786 0.19878903 -0.0026064226 0.13546024 0.23355845
-0.15971074 -0.17665277 -0.020537581 0.03897007 -0.03182654 -0.20110491 -0.10479863 0.014460608 0.18985209 -0.08702505 -0.010858627 -0.12405103 -0.06525456 -0.10515964 -0.008814274 -0.10032842 -0.048224475 0.08490888 -0.06066371 0.13173176 0.07685412 0.003412342 0.086044796 -0.08512414 -0.030563347 -0.2720114 0.023635095 -0.0038130232 -0.24034475 0.03982578 0.108294375 0.11603163 0.09355015 0.124767005 0.17436744 -0.16788635 0.050379757 0.11873795 0.09070833 -0.013829615 -0.0019372845 0.12430148 0.06340966 0.17836958 0.014239124 -0.062338647 0.038290557 -0.03993297 -0.10881563 0.1608727 0.106110744 -0.07451353 -0.05229662 0.16710228 -0.14047968 0.15739837 -0.11310961 -0.23535708 0.08790642 0.049811993 -0.23273347 0.11365782 -0.19661067 0.124503165 -0.18042648 -0.017048748 0.12814322 0.16834784 -0.24636237 -0.003180283 0.021816626 -0.21978962 -0.09922826 0.22492164 0.013105181 0.14428592 0.023654249 0.1241307 -0.011584162 0.03205771 -5.9165497e-05 0.05204722 -0.024485571 -0.041763928 0.13502648 0.09297369 -0.12888663 -0.0099148145 0.3495088 0.1972765 -0.005370442 0.09976065 0.032579426 -0.039805554 -0.03559682 0.1457852 0.0058017955 -0.0506512 0.0743997 0.11114596 -0.1799626 0.09585017 0.090850614 0.06224993 0.097658336 0.022262685 0.09798539 0.10381842 3.3356184e-05 0.020542035 0.005644898 0.08245095 0.10167909 0.074811585 0.15149777 -0.04406565 0.0059276354 0.023318414 0.23936512 0.05986721 -0.031846415 -0.09378989 -0.18057731 -0.10289267 -0.09460535 -0.19441086 0.034912493 -0.029731592
0.18952103 0.18189132 0.16412175 -0.016039738 -0.15854351 0.21351805 -0.27742845 -0.09542634 -0.11093895 -0.2677624 -0.1819686 -0.005287665 0.1431818 -0.07012231 -0.2596239 -0.105288304 0.07396439 -0.2175431 0.05823839 0.02134175 -0.046357818 -0.10017623 0.10523865 0.05691486 0.15327345 -0.03389198 0.13836017 0.0711544 0.28274256 -0.2563047 -0.029526766 0.17097563 -0.21331266 0.023087036 0.10210842 0.19778821 -0.0014641221 0.030915765 0.12596591 -0.02084361 0.036761917 -0.0772106 -0.009882792 0.06483862 -0.11407566 -0.1024146 0.087099515 0.037519854 -0.24031387 0.076004334 0.14003655 0.20489597 -0.19056633 -0.043357763 -0.17121977 0.17718755 8.070649e-05 0.015201418 0.17588261 0.0752069 0.099697754 0.07029323 -0.10236619 0.10559763 -0.077011004 -0.047246058 0.017245378 -0.083604924 0.04982174 -0.088398874 -0.10920251 -0.011438732 0.05466169 0.07851935 0.09279446 -0.046960168 0.12148333 -0.17404811 0.02912983 -0.21462737 -0.15156765 -0.077157475 -0.0023261842 -0.18763268 -0.052264113 -0.013745507 -0.17547728 -0.003657418 0.16487764 0.0006318347 -0.11172 0.23050225 -0.20795469 -0.052659795 0.066592984 0.11856064 0.0036654659 0.076496124 -0.06482723 0.049753103 0.12573795 0.0016138295 0.16227105 -0.046168018 0.05853438 -0.07152413 0.19897887 0.043709617 0.06438585 -0.06359141 0.04352968 0.059735276 0.00060704706 0.16789505 0.063964166 -0.14343478 0.023621358 0.056129847 0.10628119 -0.17352681 0.21016225 0.046648487 -0.009741879 0.15383452 -0.010721347 0.052048553 0.0043840143 -0.16157818
-0.004004841 -0.05035106 0.048616223 0.060943555 -0.07891556 -0.10669481 -0.1004145 -0.08653971 0.048760705 -0.0910343 0.013153406 0.0449979 -0.14109752 -0.09090159 0.0016518981 -0.014974146 -0.077209905 -0.027932564 0.016126543 0.018680343 0.031244388 -0.0479383 0.017612541 -0.047989257 -0.048854683 0.056018744 -0.09997389 0.05558168 -0.012938376 -0.043101255 0.030029582 0.030016175 -0.10322288 0.014483903 0.036913544 -0.100560546 -0.10245819 -0.044592123 0.033212055 0.04726539 -0.0057045193 0.057357833 -0.046412703 0.028363392 0.076745816 -0.03585719 -0.10264711 -0.09072706 -0.05286664 -0.012053115 -0.044323407 0.05184634 -0.113096416 -0.01070597 0.027367871 0.013987178 0.06053504 -0.025475156 -0.08466204 -0.047899812 0.03884963 0.038021747 0.0028138699 -0.09845484 -0.06099745 0.056634523 -0.043105543 -0.06985544 -0.04959936 0.019086538 0.02578264 -0.038688276 -0.0070767803 0.018233238 0.06619659 -0.06947009 -0.066105865 -0.007958828 0.0157493 -0.10639206 -0.09722587 0.009864295 0.04332663 -0.033065435 -0.038749795 -0.090222426 -0.10028052 -0.012531233 -0.038660157 -0.024208838 0.059313737 -0.07693091 -0.035123505 0.08414909 -0.059515532 0.05953882 -0.09442309 -0.045205846 -0.011519065 0.040118814 0.048841763 0.014588254 0.0017667236 0.00801832 -0.04403752 0.037039977 -0.05666332 -0.11127289 -0.027033005 -0.05228083 -0.027845599 -0.0113770645 -0.018724706 -0.07670312 -0.010105522 -0.06500852 0.013535844 -0.08620474 -0.004030008 0.03480914 -0.006465243 -0.03795699 -0.06351651 0.026223056 -0.036628336 -0.006605709 -0.08859323 -0.07589706
-0.33637118 -0.12367847 0.0704996 0.17482176 0.2716379 -0.04364347 0.20683153 -0.13143852 0.037034154 0.16240183 0.10932591 0.100972846 -0.1490929 -0.1047462 -0.03751253 -0.1191485 -0.07971236 0.0014753977 -0.14073466 0.09073517 -0.0870756 0.11494886 0.022831716 0.015757708 0.14270419 -0.036251627 -0.098789945 -0.2540152 0.0073631997 0.10172075 0.034914408 0.052246295 0.03638892 0.25529972 0.127164 -0.2054081 0.008634602 0.13004859 -0.006904619 -0.04243466 0.133651 0.017572016 0.078007646 0.08599129 -0.023895176 -0.029062299 -0.07349581 -0.3105318 -0.005665323 0.1187145 0.1450872 -0.16583219 0.013376689 0.076458134 0.05035579 -0.06613645 -0.08239348 -0.14157362 -0.11161205 0.0055698487 0.15871082 0.0033824625 -0.059326254 0.0482715 0.07919471 0.1045261 0.06968208 0.0101081 -0.18290798 -0.013769424 0.022629973 -0.0063341493 -0.13457482 0.12921225 0.028072746 0.18484409 -0.008202388 0.16309686 0.05839415 -0.06172644 -0.0039407257 -0.100728996 0.020095695 0.0896247 0.18504044 0.03108331 0.11743673 -0.004651281 0.19448262 -0.050311882 0.107824355 0.05367682 0.19624354 0.108565755 -0.023009788 0.039363425 -0.0399872 0.1491172 0.21177395 0.100220464 -0.05541551 0.038985457 0.045508284 0.05194994 0.14986083 -0.06784104 0.057369225 0.100268215 -0.07284771 -0.084836654 0.061370123 0.13897513 0.12146472 0.013233881 0.16203675 -0.29979664 -0.054101814 -0.05944912 0.14373867 0.04638487 0.12473559 -0.055170465 0.058989327 -0.19804733 0.06257964 0.052057493 -0.005690668 0.07017177
0.230188 0.16408682 0.124592945 0.057666324 -0.13654372 -0.22658315 -0.10723006 0.14887372 0.0076713 0.030364916 0.03296975 -0.070938975 -0.09973263 -0.018738473 -0.103508085 0.036111407 0.08854028 0.06371574 0.140069 0.20298491 0.1329402 0.029857364 0.007076059 0.2101613 0.030213172 0.17362274 -0.053009085 0.021214219 0.30016583 0.04046757 0.12305403 0.13039832 0.07614344 -0.14067589 0.1324837 -0.09526678 -0.14701088 -0.02255215 0.11528421 -0.009409568 0.0007036387 0.050560508 -0.12310252 0.15651374 -0.02702552 0.11777834 0.084246494 0.054156736 -0.10586771 0.111316875 0.045255546 -0.041580815 -0.08270283 0.051680155 0.0045876247 0.1534575 -0.093371555 -0.037914164 0.20506234 0.029085908 -0.22315067 -0.09872098 -0.1984636 -0.008863449 -0.22363415 0.037597757 -0.066282034 0.12518713 -0.16504435 0.1020185 -0.0056908582 -0.24672599 0.123569824 0.087800235 -0.061580744 -0.15513068 0.06916171 -0.036900047 0.058727324 0.034081876 -0.30108225 -0.029140519 0.012727568 -0.12530786 -0.07097448 0.16075587 -0.18570925 -0.032114718 0.07515547 0.1325843 -0.033543117 0.032800823 -0.10379245 -0.022755636 0.16631684 -0.004699618 0.081758514 -0.09713804 -0.008961895 -0.013292016 0.067164704 -0.045664176 0.108677045 -0.1711383 -0.002545257 -0.040943053 0.182885 0.06022768 -0.024358943 0.14850761 -0.13149486 0.1416233 -0.022841437 -0.17134845 0.0852248 -0.041804913 0.08724409 0.074917465 -0.036739852 0.035984512 -0.14970896 -0.061484583 -0.12351733 0.034851838 0.048024755 0.07497989 -0.0814862 -0.036373146
0.06842039 -0.100458935 -0.19106498 -0.078391284 0.008065842 -0.33136514 -0.02126862 0.002980075 0.10969516 -0.012610947 0.09818827 -0.014275094 0.11031832 0.06390144 -0.36994302 0.042499103 -0.08778431 -0.016493883 -0.13107389 -0.031932216 -0.20230706 0.093042135 0.07218096 0.03038539 0.07066171 -0.021774622 0.09110029 0.20812726 -0.11836004 0.099858895 -0.08537217 -0.096938334 -0.05771214 0.11365088 -0.055128377 -0.04198326 -0.09807199 0.04154207 0.06766912 0.0033047488 0.19742498 -0.2367513 0.1685364 0.048514903 0.01575113 0.036459964 -0.1507772 -0.11712041 -0.1328709 -0.062745206 0.019239184 0.041927997 0.07244562 0.17112069 0.08964914 -0.061074294 -0.0946436 -0.15326199 -0.07291506 -0.12629674 -0.05127945 0.16610679 -0.05690737 -0.18685044 -0.047587723 0.014955237 0.052032713 0.1797372 -0.013137814 0.0759155 -0.027449068 -0.036246832 -0.019566676 0.08541251 0.007945388 -0.07833517 -0.03205584 0.05031355 0.11344378 0.13774504 -0.059329744 0.056609865 -0.058310803 0.06852834 0.10792458 0.17414744 0.027944362 -0.020613832 0.1882945 -0.01611824 -0.018291004 -0.10716663 0.011421839 0.018382264 -0.15891865 0.09650029 -0.19125386 0.10572426 -0.0058999453 0.0142141795 -0.2705542 -0.015916795 -0.12857048 -0.08941345 0.06418879 0.038834386 -0.039240915 0.09163124 0.084068835 0.0032728119 0.17656848 -0.0445103 0.032640394 0.21985644 -0.13408951 -0.27601814 0.019298898 0.032623816 0.073243834 -0.07702845 0.1161713 -0.06995096 0.0599103 0.070187144 0.1446081 -0.11540839 0.19751586 -0.40411255
-0.063403755 0.08840533 0.1174046 -0.049368862 -0.028504621 0.060791425 0.019192623 -0.056134667 -0.115965456 -0.084381804 -0.080393024 -0.116970845 -0.05428208 -0.108410895 0.01285258 -0.12478208 -0.078627154 0.007815171 -0.0146828415 -0.002537519 0.002747168 -0.02355902 0.0546573 0.022608334 0.038586147 -0.005708856 -0.021604119 0.051124267 -0.044618685 -0.038262717 0.037184753 -0.057532407 -0.0795348 0.060064983 -0.060155254 -0.061443295 0.005664428 0.042200573 -0.008031453 -0.03390455 -0.11343255 -0.005145379 0.09959323 0.06021301 0.03914716 -0.12538868 -0.03773434 -0.090143204 -0.12175227 0.06768272 -0.0050670803 -0.043985546 -0.15693513 -8.789609e-05 -0.11947093 0.06486664 -0.12861317 -0.15009302 -0.061510216 -0.024002248 -0.064999 0.04909766 0.026683249 -0.043056637 -0.08786481 -0.040368035 -0.08510986 -0.1454262 -0.021493964 -0.09157562 -0.023752846 0.06726801 -0.07550764 0.02757836 -0.007503066 -0.012199131 -0.02059198 -0.08705268 -0.030294582 -0.03568189 -0.0045274366 -0.03601975 0.027006328 0.013815958 0.076572165 -0.1048199 -0.09246849 -0.076910764 -0.030198801 -0.07789266 -0.0039577815 0.053081386 -0.10169851 0.07150993 -0.08792897 -0.032388397 0.0636218 -0.09646274 -0.032216515 0.006541181 -0.0069004116 -0.0037344836 -0.06616113 0.06663495 -0.07931773 -0.06710149 -0.0248258 0.018145647 0.02661041 0.03688324 -0.031079752 -0.088454165 0.12728661 0.0009273123 -0.05979459 -0.14128727 -0.17586252 -0.0017335404 -0.11398887 -0.04949008 -0.03199645 0.07654827 -0.0078067486 -0.07885871 0.03806619 -0.066972844 -0.033547528 0.01179136
-0.0055667274 -0.009677766 -0.07118059 -0.07543902 0.06634674 0.018832475 0.046805173 0.0041139354 -0.12007763 -0.1362814 -0.11429006 0.018933 -0.10805139 0.04428098 0.038823735 -0.009071127 -0.011366269 -0.064640805 -0.15874921 -0.12997857 -0.09125486 -0.011122849 -0.09000208 -0.17650253 -0.12580799 -0.024244767 0.031448226 -0.022895476 -0.016933711 -0.112595595 -0.10119916 -0.06989345 -0.113567464 0.00846787 -0.080862634 0.037529077 0.008661947 -0.08547614 -0.05148419 -0.066571176 -0.034820735 -0.050990663 0.07846136 -0.068958834 0.014038746 -0.08462224 0.072755195 0.056854893 -0.122442536 -0.037688266 -0.13062876 0.051844824 -0.011247895 -0.08892523 -0.020643262 -0.11799662 0.005547434 -0.15451702 -0.033745587 -0.08862059 0.069701806 0.014656608 -0.004360619 -0.063687615 -0.062964626 -0.12793504 0.0013013516 -0.09280991 0.012932308 -0.07130038 0.010281018 0.020136137 -0.08165754 0.011505351 -0.04175501 -0.042781606 0.020776562 -0.1348647 0.024042957 -0.12076046 -0.08493874 0.02414532 0.04007793 -0.043253563 0.011079706 -0.032581087 -0.15927988 -0.08940549 -0.084593795 -0.0957482 -0.012446777 -0.018570423 0.060306765 0.048493426 -0.047618747 -0.012345655 -0.01758007 -0.111707516 0.002500009 0.0074864584 -0.07184445 -0.04790424 -0.05083826 0.043108966 -0.053084668 0.07415992 0.024285475 -0.01781335 0.032863427 -0.090684466 -0.06348874 -0.018150998 0.026878593 0.005366997 -0.07398697 0.020569438 -0.02056048 -0.02509437 0.033069458 0.030564794 -0.04460185 -0.04671139 -0.058840163 -0.071727425 0.034226958 0.022262216 0.028481128 -0.071695276
-0.21684031 0.034554735 -0.060474783 0.13064806 -0.1513278 0.054854892 -0.36693907 -0.06083695 0.11912075 0.06660984 0.10304973 0.28647733 -0.2778923 0.14157498 0.020586792 0.25228098 0.14387526 0.08200445 -0.0710201 -0.3003703 -0.09707506 0.02798386 -0.18279503 0.08021346 -0.063725136 0.17880534 0.037732396 -0.012732603 -0.17448074 -0.110212944 -0.23241028 -0.28700686 0.03147684 0.12300788 -0.23401088 0.088580884 0.057331033 0.0068401615 0.0014156975 -0.021731915 0.035721045 -0.1374061 0.013927434 -0.012090713 -0.029244678 -0.033926774 0.043294284 0.107751094 0.17317054 -0.07415986 -0.20688751 0.17086273 0.28600493 -0.02053406 0.23417841 -0.02658048 0.23966983 0.21291913 0.0775111 -0.023310577 0.1813064 -0.018556174 -0.06977968 -0.0062345965 0.0054682596 0.08061428 0.08690785 -0.32613438 -0.08959087 -0.037760355 -0.006480506 -0.10479495 -0.0041221827 -0.13825245 0.059811793 0.08887687 0.15494819 0.05539363 0.05664886 -0.017778883 -0.19846188 0.045802407 0.011896265 -0.024917608 -0.12292868 -0.028721597 0.28498387 0.21153793 -0.21149176 -0.091437355 -0.12139918 -0.10136721 0.10376291 -0.05398564 0.03488322 -0.044530027 -0.062575944 0.09600683 0.07064007 -0.019814186 -0.051538706 -0.23505886 0.024133997 0.090117685 0.070375875 -0.056287132 0.074083924 0.19519657 -0.25490773 0.15077703 -0.0125963045 -0.019931542 0.12890804 -0.0030523369 -0.05692628 -0.05101817 -0.0131691005 0.077545725 -0.18927939 -0.0068195635 -0.016491218 0.10010673 0.044889346 -0.08733956 0.22852887 0.00180215 -0.14800341 0.0045540184
0.17767052 0.33129334 0.16929807 0.1203931 0.049553365 0.0040762206 -0.025166914 0.22215101 -0.114022754 0.056759868 0.10428789 0.12177757 0.10001201 -0.003948571 -0.06307806 0.102771536 0.0126347495 0.011897012 0.1651049 -0.11281064 0.040302593 -0.0375558 -0.0045234733 0.046395537 0.2060987 0.051287215 0.039955214 0.14919941 0.25851995 0.050311066 -0.14904259 0.08394358 -0.06262959 -0.1681632 -0.19005445 0.07160765 -0.07157721 -0.07167519 -0.0015570908 0.02000221 -0.120397516 0.04180944 0.08784033 -0.07336758 -0.0042776656 0.03805245 0.14245398 0.1338922 -0.024156082 -0.106503874 -0.08425393 0.2806712 0.1425706 -0.056401044 0.16646966 0.06141326 0.07916886 0.2641759 0.1541612 -0.024383668 0.05045297 -0.14340058 0.3589348 -0.088485695 -0.025051767 -0.006117632 -0.0039290152 -0.028839415 0.06475103 -0.03741666 0.009378386 0.26593643 0.22924785 -0.26527804 0.061000086 -0.15018965 0.07456486 -0.04523033 0.059431497 -0.008241677 -0.03585516 -0.113900624 0.07178414 0.050217785 0.010974926 -0.030184045 -0.0041128863 0.13593903 -0.20269813 -0.12812859 -0.07884996 0.13814886 -0.05450545 -0.043309897 0.05517981 -0.06872058 0.112718396 -0.008534943 0.014029734 0.12011963 0.17739062 -0.10269915 0.022063991 -0.062746644 0.06169345 -0.04799268 0.029700158 0.11051384 -0.18556115 0.1065981 0.018496206 -0.02107864 -0.031346284 0.01539009 0.04819778 0.11408177 -0.0006093269 0.12624054 -0.19773008 -0.13900606 0.08630023 0.05981224 0.068204746 0.074252024 0.010587585 0.16961263 0.06723808 -0.116053626
0.1416693 0.034002468 -0.08669695 -0.062792905 -0.18170612 0.22314222 0.28458902 -0.053495456 -0.0042327256 -0.0029949695 0.03301702 0.15902479 -0.018509546 -0.108786754 -0.11741872 -0.08746283 0.052575245 -0.08805431 0.047786616 0.13818292 0.008706928 0.17414206 -0.04829022 -0.06471828 -0.14963484 0.06383522 0.0694887 0.119561516 0.2818069 0.08358294 -0.033166084 -0.022145843 -0.023286581 -0.14802042 0.044879027 0.10065735 0.05223623 0.048687987 0.0994524 0.07352718 0.11696631 -0.019616436 0.11912798 -0.03058115 -0.12749478 -0.08166228 -0.056583803 0.092139944 -0.033851277 -0.036367234 -0.11056457 -0.070308715 0.010984602 0.0372838 -0.115993045 0.031580552 0.13553476 -0.010872126 0.07529782 0.040963437 0.2916708 0.07792022 -0.028975023 -0.14892559 -0.018171387 -0.030900745 -0.121997684 -0.117196 0.1610212 0.028578877 -0.035282876 -0.0042027635 0.024252184 -0.09432959 0.02216283 -0.24870574 -0.02411413 -0.20203121 0.08592319 -0.14634547 -0.068384856 -0.046350546 0.06783086 0.042550016 0.12002097 0.021283597 0.051931594 0.09879083 -0.10375628 -0.060365364 -0.21466695 0.053283453 -0.1121653 -0.010112652 -0.03410825 -0.052113354 -0.13800892 0.027745482 -0.14091723 0.00701854 0.21746562 -0.05785609 0.009721253 -0.3519622 -0.07780735 -0.06685724 0.120173514 -0.06512991 0.14770126 0.12707952 0.052710954 0.011118073 -0.24465553 0.1562773 0.10441283 -0.10588033 -0.009598815 -0.04747577 -0.09446454 -0.07180821 0.10735695 0.18750083 -0.05517642 -0.0548744 0.06135459 0.15832853 0.06629747 -0.28585085
-0.12631923 -0.15175919 0.19050823 0.022599563 -0.0031337119 0.0055939294 -0.10424484 -0.11399524 0.060643088 0.07729707 -0.10173072 -0.14025691 -0.14316423 -0.1472803 0.01704347 -0.06452811 0.14358997 -0.11799002 -0.19768895 -0.041199006 0.116129294 -0.1729051 0.038844142 0.07409954 -0.011176193 -0.018714227 -0.18055876 -0.16353227 0.063486986 -0.09770311 0.12936738 -0.056336988 -0.047411717 0.094745085 0.044576544 -0.1421956 0.114981525 0.10010294 0.03282767 -0.0076305885 -0.015566055 0.17258003 -0.45208323 0.021866113 0.054107856 -0.099571325 0.15023074 -0.03407961 -0.01338829 0.28747147 0.07054665 -0.06627683 0.09658649 -0.020082857 -0.11200735 0.14545527 -0.071719736 -0.19287965 0.17616662 -0.07498268 0.015480509 -0.025315626 -0.4470739 0.1165524 0.046473376 0.009200998 0.1298576 -0.093258 -0.2573098 -0.17402782 0.021698015 -0.2600717 -0.035422582 0.039397918 0.035291385 0.14563729 0.093909785 0.09023702 0.02975185 -0.06925851 -0.14887528 -0.21665262 0.05214383 -0.23814401 0.0044565336 0.04397099 0.081724904 -0.10654747 0.01932307 0.08460617 0.1280556 0.15617679 -0.039703246 -0.05226724 0.18925351 -0.04606557 0.07828207 -0.079048 -0.014189169 -0.031036464 -0.031746298 -0.012986706 0.16312072 -0.09727097 -0.06240675 -0.08728146 0.09446487 -0.055788968 -0.004091817 0.13106082 -0.32064894 0.075013176 0.16689563 -0.2432574 0.13470997 -0.13296601 -0.032696117 0.1613644 0.22158372 0.020695597 -0.014684508 -0.028381897 -0.034050155 -0.15466534 -0.045785062 -0.09331355 -0.18328464 0.34150118
-0.11871454 -0.11741669 0.15395081 0.030379679 -0.13456717 -0.11585224 -0.1342886 -0.12069996 0.10455246 0.09632408 0.11405316 -0.07439484 -0.19424441 0.09231714 -0.0935883 0.0011094657 -0.06736425 0.13196455 0.123538144 -0.060760062 -0.03675993 0.007971984 0.09242187 -0.06540782 0.12424489 0.05307277 0.08180212 -0.12582259 0.05688081 0.106967874 -0.022336155 -0.070568144 0.046905212 0.23752806 0.036766384 -0.2882382 -0.025352193 -0.037878163 0.14918892 0.055856623 0.20575978 -0.11977159 -0.17423697 -0.0036638316 -0.0574639 0.14097093 0.102676064 0.08598122 0.041358225 0.110247605 0.05533425 -0.008501288 0.15133418 0.060236745 0.0368172 0.058181554 -0.041190352 -0.13822675 0.038605597 -0.04591494 0.26190382 0.09734498 -0.27591312 0.27065444 0.036518425 -0.044340838 0.057539668 0.012875163 -0.1503393 0.0516577 0.0037363842 -0.18108821 -0.04083454 0.067552365 0.09974761 0.1501876 0.04400948 0.114545494 0.099672586 0.12438245 -0.12160234 -0.041537102 -0.025401581 -0.06235087 0.101827815 0.08083118 0.16255021 -0.11843553 -0.021470819 0.18956745 0.022617491 0.0069020586 -0.007467792 -0.048767548 -0.026432864 0.0060949256 -0.21185899 -0.036142506 0.0632062 -0.010300689 -0.016485274 0.04291625 -0.04506338 -0.10962236 0.06388434 -0.036300886 0.0804245 -0.07641801 0.23331904 0.046895515 0.046265088 0.060707282 0.17259681 0.15056035 -0.06996014 -0.22538774 0.15450992 0.059885785 0.01590973 0.15484597 -0.014216206 0.12326852 0.05938753 -0.006226467 0.06306011 0.04793597 0.023308778 -0.1999484
-0.07313476 0.13339278 0.05840002 0.016469944 0.10155516 -0.01028462 0.161267 -0.114825994 0.024282908 0.17600775 0.08318283 0.21361622 0.005618359 -0.021494621 -0.0948954 0.00086796045 -0.034175407 0.0047305655 -0.17416008 -0.008200067 -0.12721653 0.26742452 -0.09823579 0.098716736 0.018911716 0.20502697 0.07833401 0.10745348 -0.015213111 0.02596669 -0.08877582 -0.175683 -0.15093581 -0.005168198 -0.12755904 -0.0074127996 -0.07548796 -0.028529076 0.13339184 -0.06726964 0.1502661 -0.07535443 0.10930106 0.03944925 -0.036801573 -0.21385123 -0.060121305 0.044345032 0.056447756 -0.009803614 -0.13929579 -0.0044898926 0.11415865 -0.030687494 0.13906626 -0.14501336 0.124132656 0.1476145 0.10717028 -0.07102788 0.22401698 -0.02152012 0.09856149 -0.14691567 0.053281207 0.15410914 -0.02987939 -0.15474847 0.12419734 -0.08307096 0.043372214 0.13357899 0.11314148 -0.022812318 0.010432444 0.04231583 0.041957665 0.06000379 -0.0934959 0.05837848 0.10534233 -0.032547634 0.028273135 0.009278453 -0.08713687 -0.043401085 0.30930156 0.00033029082 -0.0011368354 0.0066003622 0.07858547 0.044425167 -0.08322133 -0.118429914 0.018086432 0.090793535 -0.026025927 0.04029321 0.09078742 0.09581454 0.024289915 -0.290278 -0.10901292 -0.07828921 0.022302825 0.009482083 0.13257784 0.111550696 -0.023179172 0.18998823 -0.020870462 0.05530886 0.001536631 0.18462385 0.0026561257 -0.0050449595 -0.03798573 0.20141594 0.08727545 -0.027079083 0.22129424 0.09364988 0.1862501 -0.19525552 0.26032907 -0.044325452 -0.04598107 -0.2601675
0.036561176 -0.01383046 -0.036521316 -0.0064397478 0.044128686 0.08538799 -0.056224316 -0.14226031 0.14652666 0.14654344 0.091895446 0.16329975 0.16918188 -0.015597477 -0.047158185 0.20356837 -0.14733744 0.033725142 -0.12743038 0.10775068 -0.052943014 0.2965944 0.13784128 -0.044138316 -0.07363666 -0.22693528 0.20640914 0.23143989 -0.029127456 -0.107978195 0.036520906 -0.024913589 -0.052100096 0.0011025186 -0.07113614 -0.07806687 0.049053382 0.09430721 0.12373047 -0.018685697 0.25581467 0.08031626 0.069598675 0.12928683 -0.0606203 -0.0667699 -0.0683495 -0.119801745 0.043504667 -0.018576028 0.020033667 -0.10480318 0.023105953 0.18498144 -0.17206043 0.030240763 -0.20588267 0.05711677 0.1115076 0.0038770558 0.09503811 0.060233723 -0.1364787 -0.028287726 0.02935623 -0.065569066 0.118883796 -0.09971316 -0.050698966 -0.1742844 -0.08039175 -0.04593893 -0.013179388 0.0594557 0.004270388 0.12566599 -0.06637691 0.13218713 -0.16540551 0.012373913 -0.19349061 0.21053003 -0.028434774 -0.052359995 -0.04638349 0.111072086 0.060168907 -0.1990285 0.02383715 -0.10963894 -0.12142778 0.06850551 0.11214281 -0.016713163 -0.021489553 0.016016422 -0.006052874 -0.10632847 0.092905454 0.14021038 -0.13610876 -0.018569944 0.08861332 0.084524654 0.105552904 0.061202887 -0.080974326 0.0046617123 -0.11510469 0.10967507 0.06894749 0.07016819 0.084628105 0.1624475 -0.06718054 -0.25644556 0.036399722 -0.0017242347 0.18234493 -0.21932457 0.26805136 0.059197802 0.08468668 -0.02231167 0.07628475 -0.14611511 0.04925117 0.061845403
-0.23468322 0.084724545 0.0022035975 0.08928911 0.06211535 -0.15506335 -0.09970249 -0.059787225 0.07334515 0.02396803 0.070298776 -0.17432244 0.24141134 -0.02441736 0.11787503 0.074009985 -0.10648062 0.11503364 -0.18908036 0.21048293 0.053536724 -0.07690531 -0.017062526 0.16106519 -0.084431164 -0.025733765 -0.1244016 0.07896063 -0.23572017 0.11488415 0.1727125 -0.043546993 0.15595357 0.06934783 0.07701149 -0.08536262 0.06856146 0.0792544 0.030974785 -0.043021645 -0.15869392 0.07668065 0.07566858 0.12700361 -0.016558964 0.109694116 0.01943747 -0.17821229 0.14343217 0.03985148 -0.009054656 -0.15239197 -0.025519721 -0.08123533 -0.03480379 -0.08548473 -0.08306061 -0.07881523 0.041377738 0.092208 -0.1448172 -0.045216646 -0.19784425 0.02167357 -0.14180873 -0.077978946 0.029797344 0.07309882 0.006917241 0.23819752 0.011433516 -0.13756609 0.089813866 0.067223676 -0.012951437 0.024530606 0.095117435 0.14124593 0.0050257505 0.028838843 -0.14621262 0.015693448 0.06734344 0.027274156 -0.038669523 -0.015324819 -0.08954832 -0.12723988 0.16878247 0.18885554 0.16754977 -0.03845797 0.13187358 0.11991965 -0.09461897 0.11741462 -0.010556308 0.036879648 0.0833314 0.102330975 -0.05771708 0.17006846 0.06959362 0.106833816 0.14376925 -0.059797402 -0.04360575 0.08522712 -0.1258915 -0.012117974 0.123179615 0.10432686 0.109780595 -0.28103858 -0.0446408 -0.13059485 0.18287095 0.030544084 0.049160775 0.1486355 -0.092025444 -0.26730743 0.081693284 0.0056592315 0.088457875 -0.08269946 0.12816292 -0.0006512095
0.009574337 0.08523807 0.064340904 0.057522498 -0.110518165 0.069801025 -0.10549855 0.17962515 -0.10980641 0.111631446 0.06959972 0.011070812 -0.17133793 0.0018831368 0.13392209 0.08544104 0.20065662 0.044156764 0.22986597 -0.1246516 -0.04744739 -0.1325018 0.121683545 -0.008263429 0.12162312 -0.12634866 0.03800515 -0.2534579 0.10288263 -0.065031745 -0.08538998 0.048378017 -0.05675905 0.044939213 -0.09877522 0.017955821 0.027727142 -0.08363987 0.036422104 -0.07272391 -0.04309152 0.09198837 -0.22190046 -0.106100075 -0.005935283 0.0496767 0.048445504 0.15234627 0.10115185 -0.09299221 0.00840249 0.34773 0.0048712413 -0.018312532 0.08746781 0.011154238 0.14751945 0.16658619 0.09271061 0.07736946 0.1278806 -0.04562279 0.10026893 0.073364325 0.059215114 0.06539528 0.1367742 -0.0144386375 -0.20409395 -0.03781865 0.06722584 0.18984643 0.16991243 -0.07203581 -0.06598074 0.09962528 0.033415034 -0.060521826 0.0065068835 -0.01006067 -0.0076157427 -0.107895344 0.016451458 -0.068430744 0.061818488 0.04719157 0.06917568 0.1716562 -0.14823256 -0.05610186 0.05173502 0.1637018 0.06987548 -0.009178712 0.1405536 0.025302293 0.063900374 0.11312888 -0.053522594 0.025794562 0.20693962 -0.059486996 0.056019723 0.102144934 -0.06200565 0.028792454 -0.028769197 0.08301212 0.104409866 0.1151209 0.0103784725 -0.16611776 -0.07602407 0.012629498 0.15503265 0.20063435 -0.00021702575 0.1476414 -0.046533316 -0.0329262 -0.12505728 0.11845464 -0.02531254 0.09771445 -0.027606126 0.12839906 -0.25259137 0.22668923
0.09920188 0.19540267 0.26117972 -0.015946884 0.051373474 0.09968581 -0.10409356 0.105419055 0.12992226 -0.15881376 -0.10506509 -0.1332155 0.07639791 -0.12070119 -0.1325063 -0.071874306 0.069283046 -0.17071533 0.06002719 0.13149306 -0.0231885 -0.16142227 -0.08639555 0.08756225 0.14471385 -0.20093682 0.10438432 0.0656568 0.029757407 -0.20562348 -0.0048220437 0.14202406 -0.167497 -0.020031936 0.046100374 -0.0049802237 -0.08210286 -0.011920621 -0.0057992595 -0.022104979 -0.1074825 -0.07452325 0.10362314 -0.037292838 0.009441282 -0.16616894 0.12898044 -0.26582512 -0.18504821 0.18116938 0.016543154 0.16989693 0.037821084 -0.0027781548 -0.14523286 0.1059599 -0.10147843 -0.06773 0.07449563 -0.0062332414 -0.01870372 0.08712297 -0.107988164 -0.023444887 0.11297481 -0.008708492 0.11666984 -0.18716854 -0.22297318 -0.12680015 -0.03212826 0.008477668 0.23224747 0.044359494 -0.04005181 0.0018188346 0.032580625 0.04507093 -0.14148521 -0.2267416 -0.10516308 -0.040348034 0.052793458 -0.08461814 -0.14500974 0.024745096 -0.06759382 0.1452786 0.18163377 0.029795155 -0.07185661 0.17208126 -0.045696363 0.0067206034 0.11528569 -0.0517851 0.011087374 -0.06640763 0.023974612 0.07089543 0.11685485 -0.110083394 0.18651156 -0.071641184 0.032837644 0.012643738 0.044647917 0.03573493 -0.09407318 0.019752992 0.06294195 -0.010961206 -0.09937989 0.13887453 0.16417879 -0.27321354 -0.120445766 0.06353743 0.1675189 -0.1750965 0.18839476 0.057395544 0.035958234 -0.01800541 -0.25264508 -0.06763485 0.058837727 -0.11442743
-0.08499976 -0.04969311 0.017395798 -0.050077163 -0.048465498 0.047138482 -0.06614468 0.020929571 0.029501699 -0.090969995 0.053200725 -0.11813862 -0.06102668 -0.07471762 0.03015685 0.004537319 -0.122503005 -0.10607088 0.0058780853 0.02716385 0.032349754 -0.029510288 -0.0072568697 -0.032312546 -0.032507673 -0.033088498 -0.0038185215 -0.08793503 -0.1011349 0.021181986 -0.08577964 -0.09400742 -0.06882439 -0.022864634 0.04260769 -0.09989154 -0.08401152 0.061441053 0.005122827 -0.060377732 -0.0037666182 -0.12351715 -0.07646102 -0.11039022 -0.052935883 -0.094820745 -0.031239133 -0.022960555 0.009223161 -0.080974005 -0.011717252 0.02903031 -0.07382285 -0.013771971 -0.08848104 -0.023167152 -0.12906839 -0.043559667 0.03078316 -0.09928672 -0.03564024 0.006637412 0.015411885 -0.09323419 0.01633537 -0.01795499 -0.027614769 0.010463094 -0.032066975 -0.05247955 -0.011956334 -0.13745268 -0.08121118 0.019187054 -0.057049785 -0.053818222 0.030096475 -0.09901282 -0.06422158 -0.09862969 -0.100299954 -0.023193123 0.032935143 0.065001525 -0.105834246 -0.06622287 0.05974297 0.02076335 -0.046710487 0.0053643305 0.026662843 -0.09843956 -0.110236436 0.05792867 0.025988754 0.077787675 -0.09450888 -0.06868872 0.0006190418 -0.092703834 -0.056768123 -0.12029522 0.032619867 -0.08866084 0.06119191 -0.005798637 0.030395804 -0.006755131 -0.035805844 -0.0014974875 0.010419016 -0.039438833 0.06300099 -0.03759265 0.055019137 -0.045540176 -0.036243383 -0.11700885 0.0332825 0.0035170855 -0.0741471 0.021805687 0.012250802 -0.10266185 -0.09033091 0.026178464 0.062228657 0.05783694
-0.24286216 -0.03433315 0.102562144 -0.052000582 0.050610907 -0.025424412 -0.13692957 -0.0041822265 -0.11266341 -0.08187592 -0.05735027 -0.13671465 0.12848751 0.048164986 0.16118212 -0.03423726 -0.102265365 0.0070357323 0.024654739 0.14757475 0.066197 0.071399 -0.039402325 0.036819506 -0.0047705662 0.013753935 0.020949723 -0.09961167 0.007913936 0.1626013 0.011321408 -0.04081894 0.16809475 -0.19051066 -0.011065295 0.1679544 0.107919514 -0.024100922 -0.09776381 -0.068971656 -2.4256733e-06 -0.07092284 -0.16063721 0.085999876 -0.09316025 -0.04784177 -0.07666035 -0.23353012 -0.03905554 -0.053553134 -0.1339171 -0.1042816 -0.17485934 -0.11315216 0.032320943 -0.08043161 -0.09714251 0.16379023 -0.020621965 0.116625 -0.10725824 -0.18903156 0.12817922 -0.008773259 -0.04420173 -0.053651154 -0.18985064 0.09883451 0.091971435 0.2998255 0.05461998 0.008608892 0.17800975 0.023205096 0.07918635 0.06961016 -0.1671528 -0.18566741 -0.037954815 -0.0032957646 0.11794444 0.09643344 0.030033214 0.008990181 0.10888317 -0.14611074 -0.12950988 0.152323 0.019909972 -0.21330597 0.075591 -0.012697252 -0.041211072 0.07059894 -0.05531333 0.017801618 0.084749185 -0.15057331 -0.12622671 0.21347211 -0.107715406 -0.034828562 0.0008002891 0.17257051 0.13620469 0.031130701 -0.11946836 0.05095848 -0.05123701 -0.36666566 0.0024246236 -0.2114402 -0.088859804 -0.13823538 0.06159932 0.2013673 -0.23434962 -0.24364854 -0.05955128 0.032924753 0.019388346 -0.074127786 0.055572584 0.062848285 0.014363034 0.011014772 0.17147136 -0.026892383
0.009249412 -0.10452375 -0.05505718 0.0573646 -0.053038593 0.003620139 0.1404811 -0.12362348 -0.15393452 -0.0633074 -0.011166577 0.00730026 0.087187044 -0.029312408 -0.11479297 0.023385322 -0.044782355 -0.0902277 -0.012835617 0.028890721 0.040252205 -0.07180333 0.010970281 -0.026663207 0.08534689 0.015951155 0.047969148 -0.07147196 0.0029471263 -0.14466293 -0.026032219 0.025760558 -0.118540086 -0.1101029 -0.01546061 -0.04654483 -0.07801031 -0.011996415 0.07745556 -0.047135737 -0.121706046 0.031760085 0.08842481 -0.058230758 0.037123103 -0.12890305 -0.031105837 0.04234419 -0.03656947 -0.06760605 -0.082666 0.001934163 -0.13053413 -0.040993895 0.0055659977 -0.020892143 0.014107868 -0.11342624 0.01939151 -0.049842697 -0.08187261 0.072021365 -0.002506442 -0.012700397 -0.119251385 -0.060070258 -0.040973898 0.05583188 -0.047152083 0.036007773 -0.08054648 -0.08295926 -0.05572073 0.02350428 0.004804941 -0.10107697 0.028748607 -0.08037801 -0.08463602 -0.10351369 -0.19107416 -0.07325634 -0.08271993 -0.047121592 -0.21239352 -0.0614881 -0.034118395 -0.07619758 0.031831864 -0.07254999 0.032594483 0.07091461 -0.013154658 -0.03870191 -0.061106265 -0.07414576 -0.030827744 -0.062494963 -0.0024499916 -0.006435419 -0.07369206 -0.032639075 -0.03893656 -0.08702386 -0.08056677 -0.077515945 -0.13622174 -0.07659038 0.012111906 0.044904854 -0.074802905 0.040517095 0.1144254 0.09563911 -0.086577676 -0.123215616 -0.088762574 -0.004787744 -0.09364424 0.033754718 -0.038749304 0.026532607 0.05129465 0.038713083 -0.013584474 0.0075011114 0.0005000299 -0.14542936
0.007660579 0.11511179 0.04518794 0.1649176 0.0013446107 0.02249412 0.08517702 0.09077778 -0.07349714 -0.113171734 -0.07039012 -0.17892858 0.16655146 0.08420654 0.06729423 0.022434304 0.0003840626 0.08797099 -0.16713865 0.33330742 0.20704567 0.051170915 0.03803802 0.057105485 0.1560864 -0.36631894 0.05391493 0.013721757 -0.04558169 -0.09193524 0.030608991 0.15373686 0.09213821 -0.20423137 -0.0061283796 0.12121802 -0.05575539 0.00751469 0.02957022 0.021307446 -0.2575278 0.071603745 0.15176873 -0.0012159366 0.11456262 -0.062089432 0.1518724 -0.13048427 -0.042591512 -0.14050393 -0.035799246 -0.0031752323 0.026759183 -0.08365369 -0.09410808 0.09054194 -0.11702395 0.069083095 0.12368738 0.13184091 -0.37569717 -0.072486944 0.058304183 -0.34213048 -0.071517006 0.06633607 0.04960931 0.016758153 -0.036531746 -0.05930336 0.0791321 -0.01029625 0.09856472 -0.19313017 0.048941135 -0.23495403 0.1202355 0.044180367 -0.004789029 0.013310822 -0.22631346 -0.0032384659 0.044940937 -0.028445827 -0.026484983 0.060157485 -0.08820413 -0.076813295 -0.041094746 -0.14562827 -0.019960882 0.14904751 0.023844244 0.042236324 0.03797255 -0.0725215 0.07314096 0.10545274 -0.043083437 0.11267737 0.040962204 0.020764222 0.08415126 -0.081744105 0.14482905 0.000371791 0.06028935 0.17478599 -0.30838144 -0.06882346 0.16186155 0.08615682 -0.033284806 -0.09537336 0.18679318 -0.056048132 -0.0016231972 0.16580173 -0.11121967 0.027913718 0.12656744 -0.12001468 0.10898457 -0.02641065 -0.073534995 0.05550108 0.06316309 0.106697634
0.17918855 0.10393756 0.07839059 0.06429388 -0.11886943 0.1597401 0.09387094 0.046494346 -0.04884245 0.00050195854 -0.08102319 0.14333917 0.043280005 -0.1125437 -0.21335208 -0.0420413 0.10812112 0.13571069 0.025720652 0.28310585 0.0334423 0.20143342 -0.022490771 0.0662933 0.15474333 0.3210886 -0.039237745 -0.1508141 0.1753177 0.08011737 0.18228854 0.007938973 0.10323297 -0.068874024 -0.012644476 0.0056016175 -0.2152005 -0.0609344 0.12052131 0.023700057 -0.16462721 -0.14470065 0.17953126 0.054119658 0.024382176 -0.013541025 0.083665535 -0.0074364655 0.08753011 0.03271857 -0.011197782 0.01814743 0.0579259 -0.26548594 0.026591819 -0.063751325 0.11213151 -0.14111876 0.10613731 -0.025148936 0.121161565 -0.07906166 -0.18687625 -0.11515359 0.018901939 0.16433577 -0.10023738 0.068574645 0.06590386 -0.02482371 0.100734785 -0.03709639 0.0036454913 -0.1252264 -0.011545895 -0.24707127 -0.020826798 -0.017449383 -0.066291794 -0.1016615 -0.30972013 -0.06182639 0.0737205 0.18223186 -0.15328622 0.012660548 0.0016975058 -0.077683076 -0.1591061 0.01598864 0.063273 -0.17036012 -0.018565131 -0.08976144 -0.040475916 0.017300267 -0.16636392 0.10887177 -0.08244084 -0.06521078 0.17999654 0.0028804452 0.039849054 -0.08250918 0.07321301 0.04179935 0.17977582 -0.026096143 -0.11976263 0.12399346 -0.04758612 0.20602204 -0.023149967 -0.20163867 -0.049055308 -0.24201697 0.009950812 0.059277155 -0.12356183 0.045310102 -0.21183562 -0.21836157 -0.015887948 -0.083884366 0.11545963 0.19139783 -0.10386328 -0.176375
0.119202495 0.13508292 -0.07423661 0.1193212 0.19032265 0.08052976 0.20842302 0.040165287 0.089716844 0.13193755 0.054507602 0.12270751 0.24354856 -0.070754945 -0.12094317 0.04460454 -0.25489992 0.018608658 0.053587228 -0.043036196 -0.16636999 0.0755767 0.0034737098 0.24138226 -0.038301256 0.09232604 -0.09753736 0.0038523076 0.038789637 0.06798259 0.11879529 0.16073646 0.0063339295 0.015603801 0.08028465 0.037302777 -0.09795392 -0.06431792 0.14764138 0.023058614 0.04505566 -0.10793892 -0.06439258 0.0449427 0.045145374 0.12823363 -0.26089618 -0.12090781 -0.018905045 -0.05862311 0.006139181 -0.0073360377 -0.024365759 0.061254438 -0.009454041 -0.032511964 -0.1684937 0.043759234 -0.11741927 -0.08334222 0.19117849 0.1089769 0.20495133 -0.006132864 0.09702818 0.01313869 0.004181317 0.00040656325 0.20954041 0.061538197 0.02391209 0.12469973 0.0857029 0.008242562 0.069020815 0.024514874 -0.18694158 0.010977217 -0.082698785 -0.04019553 0.100195825 0.08436146 -0.036834605 0.2434608 -0.22640267 6.165178e-05 0.14941241 0.07875665 0.10230561 0.09713993 0.0686404 0.032814424 -0.013158808 -0.036545448 -0.39142743 0.040600404 -0.07651014 0.050723802 0.14760219 0.15582341 0.007720132 0.12919389 0.04682474 0.04827 -0.028485535 0.059312534 -0.1285754 0.012118444 0.26387075 -0.11633484 -0.08482486 0.078449495 -0.036674816 -0.05984974 -0.11855887 0.08174385 0.006675191 -0.1676165 0.01613175 -0.11308092 0.079096764 0.19330516 0.05297124 0.09029616 0.0070610885 -0.034164518 0.021639314 -0.16390055
-0.051168267 -0.17763679 -0.04200585 -0.22971982 -0.03523652 0.021327253 -0.079171635 0.003070542 0.09847504 -0.1163102 -0.0014665 -0.020000394 0.28395316 0.06820386 0.009920939 0.032281313 -0.047492426 -0.04389191 -0.0983332 0.05081476 0.13342312 0.0947176 -0.06285644 -0.17891346 -0.14677258 -0.009706817 0.20858578 0.024845026 -0.08409998 -0.0990087 -0.0045838226 -0.070673585 -0.1179912 0.11326272 -0.04323485 -0.02307445 -0.03248747 0.122121066 0.03157839 -0.015480748 0.12203584 0.14766882 0.086100526 -0.03361486 0.06896748 -0.033192832 0.03959603 0.06997181 0.08089919 -0.119891256 0.03836414 -0.017752472 -0.18188661 0.046524882 -0.1871822 0.029973967 0.027205277 0.019912103 0.06680527 -0.0867263 0.19205019 0.20196545 -0.20346116 -0.021341855 0.023852235 -0.06261623 0.027789025 0.057266816 0.086815275 -0.05789775 -0.049595065 -0.09551372 -0.20333664 -0.023215596 -0.10728983 0.03226924 -0.062286694 -0.11236688 -0.08036421 -0.04937435 0.006840719 0.12363151 0.07971235 -0.11775311 0.20458733 0.04092317 -0.025717119 -0.047979485 0.060580987 -0.02401214 0.064804934 -0.039611895 -0.056119423 0.051160637 0.011978257 -0.025092132 -0.008569733 -0.06209926 -0.1296705 -0.044031415 -0.07051878 0.055327352 -0.014806669 -0.09080204 -0.0075642494 0.02439623 -0.09204394 -0.15813781 -0.098557554 0.05953504 0.0575998 -0.113485605 0.061753687 0.38175732 0.053209085 -0.2177924 0.03444392 0.07447432 0.1322529 -0.12319296 0.13733265 -0.050136458 -0.25354657 0.068026006 0.029914115 -0.016164763 0.2751759 -0.044783786
-0.1339424 -0.14039733 0.1745882 0.12630413 0.19313431 -0.089618504 0.05413594 -0.08546143 -0.12716676 0.035818823 0.06174125 0.08303569 -0.27482593 -0.16310632 0.12120865 0.112904556 -0.014991567 -0.09748505 0.108819306 0.051773455 -0.16155376 -0.0043989285 0.052356765 -0.15164521 -0.0060960744 -0.022525722 -0.026000554 -0.10968861 -0.1198586 -0.0005097271 -0.15833683 0.24499826 -0.02413545 0.06658193 0.15587857 -0.074205644 0.2223795 0.1367608 -0.009729275 0.06123765 0.24481495 0.18798235 -0.07759045 0.11032082 0.06373152 0.00011581747 0.005505552 -0.18730201 -0.1262786 -0.03759288 0.1802009 0.100746095 -0.17603403 0.06869854 -0.09640205 0.095144086 -0.041071925 0.11188898 -0.16042997 -0.06473415 0.04404848 0.15374295 0.1723772 0.17449975 0.17926697 -0.05797451 -0.013622619 0.12557106 -0.08163148 -0.14954135 -0.013166808 0.16343306 -0.1310896 0.05804008 -0.14681195 0.13335061 -0.16382714 -0.010786554 -0.08683099 0.02737901 0.2571862 0.0044522365 0.016121192 0.09024432 0.22292647 -0.10947062 -0.05460384 0.08850821 0.30495802 0.06836935 0.06945378 0.0482979 0.0406711 -0.06460061 0.10127749 -0.04763621 0.011984321 0.105895005 -0.020834254 0.084235735 0.0050153565 0.14056788 0.043443527 0.1348189 0.15648668 -0.036765847 -0.053356912 -0.1199645 0.01870646 -0.004701253 0.06804554 -0.07543478 0.019537598 0.08747314 -0.0412248 0.062432777 -0.15425517 -0.07516879 0.20350702 0.047981825 0.11374288 0.17098048 -0.14877406 0.0077121356 0.07413224 -0.20842376 0.08031689 0.12866324
0.15652129 0.31047523 0.073140025 -0.020486698 -0.17662469 0.12645885 0.06157975 0.22267081 -0.02229372 -0.15676457 -0.03238057 0.066884376 0.23453577 0.09662936 0.020441066 0.07742956 0.108350396 -0.08875753 0.017730782 0.13670906 0.11946211 0.10153763 0.13073583 0.25664288 0.08749682 0.15479434 0.020622801 0.09659188 0.21738352 0.09599373 -0.0033135274 0.19732189 0.034571078 -0.22501156 0.11527421 0.28524393 -0.1568394 0.01711341 0.045252845 -0.04227453 -0.111217655 -0.088364705 0.13028029 0.013670934 -0.05499062 0.13978748 0.09638849 0.17056012 0.018845886 -0.036560763 -0.0032790124 0.13694695 -0.091043286 -0.12551133 0.06300054 0.11168199 0.101695925 -0.056009796 0.008311218 0.16023873 -0.13166994 -0.15117198 0.067573614 -0.06496318 -0.1401367 -0.11061509 -0.112861566 0.12151461 0.1715743 0.2151446 -0.08756008 0.20891836 0.20715822 -0.062305115 0.055184554 -0.15546054 -0.031296745 -0.00038909575 0.06032155 -0.035164587 -0.16148455 0.11506451 -0.012329891 0.039806098 -0.21936966 -0.05648304 0.048792075 0.09537964 -0.07333945 0.056355037 -0.040310115 -0.022612836 -0.16887705 -0.021856893 0.019218707 0.17347784 0.16326709 0.11946601 0.070701346 0.13231869 0.1562156 0.040358413 0.085082404 -0.097564496 0.0011445681 0.074098825 0.052718204 0.036743633 0.117361136 -0.021045825 0.016603963 -0.0060507236 -0.073816605 -0.13440861 0.012153082 0.011904416 0.11410009 0.121710554 0.02333581 -0.06581827 0.052490927 -0.16822366 0.11572116 0.058190357 -0.025952596 0.20669697 -0.08378755 0.04977675
0.043602426 0.20933041 -0.100138865 -0.040154163 0.121480554 0.18822213 0.120891504 -0.202804 0.03767667 0.13667578 -0.058496945 0.14165127 -0.0040492984 -0.22463267 0.09449837 -0.1096672 -0.09063987 -0.21534738 -0.15712796 0.083679795 2.1488479e-05 0.107586354 0.09680495 0.1662623 -0.22715352 0.14998533 -0.1048184 0.028659696 0.010403567 -0.02523247 0.20875464 0.26597902 -0.07074325 0.008360407 0.15835573 0.101813644 0.060835395 -0.041133016 0.14341627 0.04078812 0.065443575 -0.049660064 0.024144549 0.117927946 0.023592776 0.025503483 -0.1710915 -0.039140217 -0.13176462 0.024177002 0.18353298 -0.23805657 -0.18409792 -0.036961913 -0.058273546 0.09424616 -0.021794992 0.09375303 -0.10872274 -0.01880628 0.028123086 -0.1480197 0.049453013 -0.17816214 0.09775604 0.0027646641 0.034059122 -0.13823846 -0.003948862 -0.0135820545 -0.072309084 0.08746686 0.036292847 0.19495083 0.0016869637 0.093517795 -0.17766435 0.061546385 0.054444574 -0.0027507765 0.16055578 0.07679179 -0.0897207 0.02022392 0.14331079 0.07536584 -0.07074986 -0.015793702 0.3108199 -0.12519477 0.050011862 -0.050181825 -0.10174187 0.036873788 -0.07102295 0.016126301 0.04751865 0.10375349 0.13693123 0.10808173 0.042779006 -0.008986392 0.012413997 -0.04192593 -0.10298133 0.011075215 -0.034807585 -0.11156843 0.15339136 0.02414487 -0.019194609 0.044443518 -0.013410695 -0.036121823 -0.06677292 0.09033002 -0.04446057 -0.05634022 0.10299884 -0.058852714 0.13659161 0.07979439 -0.00043687105 0.014403338 -0.06705938 0.009776702 0.022359587 0.15984143
