-0.08128047734498978
0.2508288025856018
-0.13274306058883667
0.13132478296756744
0.03620907664299011
-0.08933492004871368
0.3308164179325104
-0.01815342716872692
0.22238151729106903
0.19246530532836914
-0.07758808135986328
0.05396153777837753
-0.10352751612663269
0.11808556318283081
0.25373807549476624
-0.09468857198953629
0.17295227944850922
-0.05822213366627693
-0.13036152720451355
0.031938791275024414
0.04483366012573242
-0.07328261435031891
0.058824632316827774
-0.002007497940212488
-0.06444164365530014
0.11134272813796997
0.20309440791606903
0.17294441163539886
0.2706261873245239
-0.008477984927594662
0.14991718530654907
-0.014393221586942673
0.18055389821529388
-0.09052767604589462
-0.11433607339859009
0.03593793883919716
0.25125038623809814
-0.10361723601818085
-0.11152093857526779
0.25515124201774597
0.2485509216785431
0.18689335882663727
-0.04700295999646187
-0.12185856699943542
-0.014676425606012344
-0.20004309713840485
0.02493969351053238
0.19966785609722137
0.22274136543273926
-0.1145317330956459
0.1941944807767868
0.42752406001091003
-0.028092991560697556
-0.1660044938325882
-0.08536224067211151
-0.021931329742074013
-0.10938871651887894
0.12667712569236755
0.25781145691871643
0.078935906291008
0.019253015518188477
-0.036754824221134186
0.056808218359947205
0.04740135371685028
