-0.2880819 0.06052691 -0.05307785 0.23050068 -0.0021983704 -0.17004642 -0.15095054 -0.18750654 0.051607866 -0.011301233 0.03809184 -0.21088612 -0.0011216749 -0.11498822 0.17748442 0.06473647 -0.28894377 0.038886834 0.14616996 -0.102164865 0.12421459 -0.21004362 0.16785228 -0.004366683 -0.18134859 0.25447193 -0.026567336 -0.20296909 0.054830395 -0.17344204 -0.19180435 -0.003865719 0.1311107 0.13606092 0.060565338 0.011434232 -0.041906793 0.09283035 0.08642852 0.15079468 -0.3464668 0.19375423 -0.22798641 0.063747264 0.045900974 0.24447559 -0.28827313 -0.02773702 -0.06785036 -0.060984824 -0.27260897 -0.045528296 0.0629265 0.17548048 0.19727115 -0.09260046 -0.33646324 -0.11509248 -0.30324018 -0.15079777 -0.121007115 0.027609287 0.15720998 -0.04659532
0.053979844 -0.1992113 -0.021480868 0.00013660721 -0.3184888 0.08865994 -0.28316075 0.28659806 0.18549609 0.07616545 -0.19160858 0.17711066 -0.0018822359 -0.28192288 -0.064798206 -0.01423163 0.1373301 -0.33393273 -0.052850727 0.09590259 0.034439184 -0.1571237 -0.26365283 0.15088513 -0.0752786 0.012221413 0.16394421 0.1503022 -0.24358226 -0.33027652 0.074532315 -0.26913053 0.08038911 0.12230867 -0.053145297 0.25971913 0.12564597 -0.23142502 0.19512483 -0.23261243 -0.03595492 -0.036506806 -0.27949342 -0.15420303 0.20340171 0.29644558 -0.038549613 0.22672656 -0.0967864 -0.03545955 0.13078304 -0.03419264 -0.14475392 -0.2399502 0.066879235 -0.03690252 0.07679811 0.12073403 0.19301097 0.104271576 -0.10933136 0.05917111 -0.24051097 -0.23421554
0.17405377 -0.205694 0.14355907 -0.18035814 0.018693617 -0.12731187 -0.043049004 -0.279358 -0.047704864 0.083265066 0.18645044 0.19614333 0.116033934 -0.25000167 0.11613302 -0.22750577 0.0682548 0.013552668 -0.05529706 -0.12654337 0.0076624113 -0.16167286 -0.119849436 0.21419325 -0.10496257 -0.13623229 -0.1406799 0.27473414 0.1159683 0.059002865 -0.10646763 0.020124303 -0.27894714 0.11409909 -0.012529365 0.12677903 0.31916708 0.19974324 -0.41849855 -0.14170569 -0.27280366 0.07844965 0.16689381 0.13236547 -0.19521642 -0.036152173 0.00085420196 0.09670932 -0.054857362 -0.1087467 0.14391606 -0.2626639 0.15172933 0.14304855 0.1984334 0.015597129 -0.14292513 0.019474763 0.092678696 0.11613782 -0.13228467 -0.0031931414 -0.15377921 -0.20015681
-0.27336413 -0.31912637 0.21817464 -0.17993179 -0.29311317 -0.02902004 0.12909946 -0.18104854 -0.20265785 -0.10472234 -0.04910642 0.15792036 -0.06805155 -0.18471873 -0.16846932 -0.2254603 0.22565198 0.03169463 0.1215052 0.028839558 -0.2909783 0.08856435 -0.040553495 -0.28533292 -0.17538577 -0.37643242 0.15560952 -0.08367798 0.17475878 0.17591517 0.11663995 0.04885078 0.014125313 0.00678229 0.10649172 -0.025071584 -0.02531117 0.025054224 0.15182292 -0.1149721 -0.034000125 0.16690212 0.051322706 0.00865545 0.18190892 -0.5382986 -0.096586004 -0.49358246 -0.13866144 0.059233893 0.096821986 -0.14211945 -0.159172 0.23964204 -0.059186965 -0.037273336 0.10859823 -0.060716826 0.051106427 0.015050287 0.011716619 0.23163821 -0.15409735 0.1328585
0.19354495 0.18147987 -0.24049394 -0.22977561 0.021024285 0.025846215 -0.015862528 0.14649147 -0.013968951 0.10565232 0.07958372 -0.23822287 -0.0731059 0.12693927 0.15720947 -0.09982384 -0.05343731 -0.25508776 -0.35455877 -0.032476317 0.08171258 0.17785944 -0.35596988 0.032188848 0.013302654 0.21368752 -0.038847923 -0.23271157 -0.008417176 0.15177786 -0.1740443 0.3437879 -0.049132455 -0.4144954 -0.45235384 0.11049112 0.15066044 0.051541064 0.09966382 0.037772167 0.08635767 -0.1162726 -0.08946746 0.20237526 -0.20310779 0.29030168 -0.06358269 0.05378263 0.03580089 -0.0124181835 0.111440465 0.201204 0.01661147 -0.18107405 0.05811434 0.014515513 0.11793649 0.18980525 -0.15294969 -0.046268314 -0.28887346 -0.03340644 -0.18904886 0.06827116
0.24547052 -0.0024948865 0.081621096 -0.07418645 0.21390565 -0.03499095 0.023481911 -0.18817417 -0.31791258 -0.006112077 -0.2883196 0.032059766 0.006939035 0.15338418 -0.23539723 0.051594596 0.22172724 -0.13401416 0.20263758 0.06709002 -0.08219101 0.07115709 0.10676575 -0.11186499 -0.29295376 -0.06410833 -0.3065696 0.030363811 -0.16192783 -0.022816913 0.008342923 0.04123682 0.18391393 0.13517193 0.21896304 -0.36495954 -0.1895965 -0.30546266 -0.02101709 -0.05318014 0.22304583 -0.0020344814 0.23469706 -0.008026897 0.2082065 -0.34381378 0.032249898 -0.16058818 -0.02560922 -0.072919704 -0.18025048 0.11792061 -0.011100605 -0.12931985 -0.07811915 -0.10815435 -0.0227253 -0.26171574 -0.08543999 -0.11724817 0.19022848 -0.20912957 -0.10559838 0.15539612
-0.33227026 -0.07733007 -0.28582236 0.10359779 0.10313622 -0.021723898 -0.08475271 0.07120257 -0.22350532 0.03288669 0.109039165 -0.10405542 0.22287165 0.15318827 -0.039985698 0.20950426 -0.2761033 -0.15887344 -0.101082355 0.015663104 -0.20053656 -0.4040525 0.13355683 0.19495402 0.13370325 0.0780252 0.06473835 -0.18466765 -0.17164883 0.018816106 0.044529285 0.1378735 -0.10401895 0.019693054 -0.20364776 -0.25043383 -0.3981828 -0.09280982 -0.061799876 0.012168141 0.18063603 0.21602942 -0.0014381862 0.08125297 0.21360202 -0.21467488 -0.07482292 0.18795657 0.043944605 -0.0036369392 -0.04362234 0.059425585 0.1363519 0.04887464 0.2155305 0.031781673 -0.079607524 -0.4208202 -0.051439755 -0.24966943 0.0014372973 -0.3229238 0.04373024 -0.142326
0.2218279 -0.18550725 0.2605198 0.11565949 -0.30906764 -0.107784286 0.15535724 -0.10030022 -0.070574485 -0.04879822 0.14192301 0.17826112 -0.20099884 -0.043440443 -0.34693918 -0.38150892 -0.2962284 0.023314187 -0.34026927 0.06948358 -0.33012417 0.055458304 -0.30905244 -0.13652267 -0.0115895895 0.14474551 0.1304773 0.108231395 0.18090399 -0.20603767 -0.20717369 -0.03806861 0.027593289 0.13801523 0.09703926 0.20197055 -0.04291134 0.048974905 -0.0669314 0.101616524 -0.08617386 0.13089266 0.15039878 -0.08305668 -0.116155505 0.11713124 -0.1352501 0.022856498 -0.01567634 -0.01917833 -0.07658898 0.16900906 -0.12944585 -0.287166 -0.18847062 -0.049352676 -0.29304022 0.18832462 0.1714906 -0.08252849 -0.403062 -0.054081984 0.11665386 0.06694988
-0.28014302 0.14689401 -0.16960692 0.018029572 -0.019392395 0.014176157 0.14995195 -0.110908255 0.25034118 0.085116334 0.05739126 0.087475166 0.15508069 0.048845455 -0.13943397 -0.036092035 0.0047792858 0.20846267 0.12533489 -0.04829381 -0.18485361 -0.025880551 0.12477701 0.026869234 0.116504736 -0.32270145 -0.2206792 0.03105563 0.07181352 -0.11616121 0.07582754 -0.06311736 -0.02157659 -0.05313188 -0.01519951 -0.25782478 -0.21603286 -0.067631766 0.015983984 0.0022113777 0.07621093 -0.0633079 -0.23124519 0.10325771 -0.2678683 -0.23159921 0.21408705 -0.11946375 0.07019673 0.033383768 -0.15318257 0.08852083 0.013675415 0.12323333 -0.2807799 -0.020621989 -0.083536 0.0613683 -0.00710995 0.24875003 0.19761738 0.19655102 0.105691664 -0.042268813
-0.12160167 -0.029490035 -0.09739043 0.05755521 0.031466357 0.006706105 0.08837232 0.06081283 0.005569638 0.06640056 0.017291171 -0.28538206 -0.07096537 -0.21263729 0.071604475 -0.2174064 -0.0005035525 0.1879396 0.039429378 -0.02892265 0.12325031 0.1926911 0.19162185 -0.12370734 0.039845813 0.13603154 0.18312988 -0.33115563 -0.16672863 0.2157742 -0.22908969 -0.3021553 0.11591316 -0.19687602 -0.024538498 0.13501483 0.13695793 -0.25182852 -0.17867212 0.153475 0.10762123 -0.35182318 0.14724694 -0.3347422 -0.13687654 0.033112634 -0.22735591 -0.026973315 -0.078754716 -0.10514525 -0.1407224 -0.25510243 -0.18445224 0.023972271 0.006097741 -0.045058955 0.18535215 0.1547366 -0.41017896 0.05256002 -0.058833886 0.13802719 0.06169099 0.078134574
