-0.17175022 -0.3230629 -0.06265904 -0.2754969 -0.1543173 -0.3489481 0.11970536 0.19524167 0.16145612 -0.2528225 0.14204198 -0.3193641 0.1396879 0.036268108 -0.12029569 0.0267897 -0.037763905 -0.15545377 -0.0888666 -0.20581616 -0.30380934 0.027424665 -0.3010715 -0.47318214 0.06260024 -0.074787326 0.12615514 0.06555098 -0.06609734 0.21216476 0.068406805 -0.1746091 -0.16176978 0.0042259153 -0.1937143 -0.16766034 -0.016495392 -0.08869055 0.02076955 0.16298014 0.26275027 0.19426231 0.15297161 0.11642124 -0.14906508 0.09112278 -0.07449099 -0.08090231 -0.045991816 -0.11531412 0.22022635 -0.09848235 -0.12744609 0.10783705 -0.038596217 0.015051221 0.029073616 0.040456142 0.1491494 0.115081966 -0.06319219 0.09161906 -0.2298825 -0.24894924
-0.20304097 0.25825864 -0.20985503 0.20745039 -0.3964519 0.2677786 -0.21292414 -0.23937191 0.0054254197 0.058447924 0.054730482 0.041126862 -0.15953061 -0.12508693 -0.13441843 -0.2023344 -0.055719927 0.20735379 -0.11290984 0.010048968 0.17733918 -0.11179753 0.16948283 0.12216003 -0.19712529 -0.06455768 0.025435507 -0.18316819 0.19914237 -0.14030895 -0.2455642 0.08005677 -0.30768967 0.08163871 -0.21444593 -0.10440577 0.22023457 -0.25327435 0.19109938 -0.270655 0.12887098 -0.20357962 -0.06961692 0.04270078 -0.32488847 -0.13302566 -0.16847144 0.06456776 -0.09093738 0.13449039 -0.11594265 -0.24723917 -0.06631415 -0.2259287 0.1191417 -0.13161926 -0.17144328 -0.051242113 0.1683023 0.08985412 0.035812978 -0.16465513 0.2511628 -0.2216973
0.13875216 0.16970587 0.23638834 -0.26213393 -0.40722102 0.14007987 0.045146804 -0.012963268 -0.079780795 -0.3688883 0.17516768 -0.14136477 0.21386312 -0.1006487 0.207588 -0.03514592 -0.012397347 -0.015145903 -0.015186835 -0.12378643 -0.26623362 0.028021436 -0.21321201 0.12178057 -0.17680833 0.028361281 -0.09077566 0.023734527 -0.05691814 -0.1836805 -0.15596303 0.09172108 -0.05086951 0.07649562 -0.19875233 0.07285002 0.091847435 0.1515475 -0.11642632 -0.20653449 0.22871111 0.20470934 -0.10882198 0.018446323 -0.20217654 -0.037975267 0.10898845 -0.071203224 -0.16230221 0.035100076 -0.14532904 0.14515166 -0.07258826 -0.19536808 -0.15713583 0.0995677 -0.07222316 -0.09021888 -0.19296274 -0.2500535 -0.1304988 -0.0646766 0.11076576 -0.045412954
-0.0015193097 0.0732359 0.13387914 -0.03349075 0.103886135 0.060320448 -0.035022084 0.042330075 0.07230446 -0.38929948 -0.15159604 -0.14298251 -0.21575661 -0.13382803 0.038362306 0.086453125 -0.09927593 -0.04369534 -0.052657254 0.15001109 0.100640245 0.18969353 0.09282298 0.04626984 0.054038495 -0.15803193 0.21239862 -0.10635152 0.20487586 -0.27073333 -0.01937894 -0.14900479 -0.29229754 0.18179902 0.034398947 0.07412988 -0.30363733 0.017648438 0.0237026 0.13413362 -0.123934954 0.07244519 0.13163616 0.01571009 0.1027175 0.11032015 0.06422684 -0.00080530165 -0.2117396 -0.12681702 -0.008753568 -0.19393496 -0.28275356 -0.13971868 0.13024671 0.12986714 -0.093548864 -0.23338348 -0.3838721 0.10941653 -0.26888925 -0.1921341 0.041212067 0.17985538
-0.042119853 0.15535711 0.11294433 0.20518713 0.0727127 -0.050284054 0.15121303 -0.39357594 -0.37077266 0.17814496 -0.33317646 -0.07220421 -0.1536252 -0.083679326 -0.21534298 -0.23361646 0.014367647 0.18598317 0.09500896 -0.124160685 -0.25204486 -0.3831579 0.23668833 -0.039436243 -0.2516571 -0.044327136 -0.08793837 0.12456658 -0.1343833 -0.09109518 0.059823755 0.13526078 -0.28473055 -0.13254803 -0.14495812 -0.21498595 -0.26871824 0.050587695 -0.31518126 -0.3806389 0.2754796 -0.19586952 0.056867093 -0.06440664 -0.13761464 0.14482793 -0.22089177 0.04481382 0.1880737 0.13940401 0.022906074 0.14126602 0.23414224 0.025949594 -0.17169963 -0.4094337 -0.098443255 0.079531446 0.041547295 -0.27876917 0.16331495 0.25236845 -0.10512613 0.20585768
-0.09746664 0.17066634 -0.099504426 0.1557969 0.01764889 -0.12346823 -0.30272195 -0.006866128 0.23825285 0.13966297 -0.02629646 0.09071364 -0.23128067 0.016820773 0.17300224 -0.08587348 -0.3109909 -0.27894333 0.004425134 -0.12500794 0.19913249 0.086353086 0.0749666 0.09497516 0.06893993 0.0632642 0.13705449 -0.167417 -0.34324878 0.101727694 0.051069293 -0.46512175 0.16542847 0.17515391 0.25713354 0.044395816 -0.09447091 -0.11972053 0.05300906 0.18756281 -0.11981324 -0.121843 -0.19047947 -0.19561045 0.16489217 0.17956519 -0.30174175 -0.020272793 -0.2286463 -0.22276679 -0.13502206 0.107244045 0.11192421 0.18878466 -0.1090747 0.16467562 -0.013434852 0.13163038 0.09596625 0.14067495 0.1073189 -0.15040402 -0.13951883 0.010246949
-0.07057876 0.14573267 -0.16852261 -0.023629246 -0.30736816 -0.044111483 -0.11085386 0.05322297 -0.22655337 0.20803462 -0.08880961 -0.2496466 0.14555725 -0.10924143 0.05701087 -0.31941313 0.12859906 0.14543596 0.0649407 -0.41571122 -0.19739322 0.12834603 -0.13909148 -0.20611955 0.064181276 -0.3807729 0.08924481 0.16642861 -0.31063694 0.19277199 -0.22477207 -0.051557943 -0.0012587028 -0.19511648 -0.4335882 0.085583985 0.084792204 -0.112976626 -0.11922264 0.097500846 -0.20752175 -0.22632927 -0.27959344 -0.13931154 0.048484553 0.16279198 0.31948546 -0.042263877 -0.149132 -0.2944956 0.1495624 0.08416043 -0.12689322 0.25389674 0.14053938 0.083525784 0.12158829 0.145236 -0.08647626 0.15607613 0.15526116 0.10906103 0.046095368 -0.36992604
-0.20202444 0.28742108 0.09621259 -0.25712413 -0.34091017 -0.016694523 -0.03804983 -0.08167051 -0.009150658 -0.08722367 0.21920815 0.072003625 -0.0148330685 -0.12060187 -0.23224288 0.22793424 -0.1686537 -0.03666993 -0.05170472 0.075866885 0.15778254 0.14263366 0.14419177 -0.032833695 -0.055803757 0.15498212 -0.38108546 -0.23461272 -0.09556756 -0.120206125 0.10753034 0.10377164 0.2678605 -0.27496204 -0.11886069 -0.15407623 -0.04726789 -0.22939649 0.009682185 0.06486446 -0.12667908 -0.02083636 0.21512124 0.0050926222 0.0020793555 -0.31448027 0.25379542 -0.013636562 0.0709508 -0.0045097102 0.24070089 -0.17621277 0.23938586 0.1476796 -0.32971784 -0.2800852 0.022532629 -0.24716425 0.09967757 -0.16808048 -0.37299415 -0.20711608 0.15632017 0.19031832
0.042002358 -0.25551182 0.014549333 -0.0118948445 0.14719987 -0.11874131 -0.023820918 0.13350183 -0.26166382 0.026127767 0.08114653 0.23093966 0.19397049 0.105128944 0.16248865 -0.20463234 0.038848054 0.014035052 0.0054553146 0.038204372 -0.12414479 0.005952653 -0.24735269 -0.062365666 0.22181487 0.03977697 0.018704304 0.04365962 0.0958744 -0.031178162 -0.08590276 -0.22198796 0.10464705 0.05280729 0.020902166 0.030854579 0.014357686 0.049885027 0.034635186 -0.06780227 -0.33512554 -0.081047684 -0.0027744148 -0.014745839 -0.04351444 -0.18583944 -0.104190305 0.09810627 0.041759368 0.13409689 -0.268687 0.10949712 -0.016619097 -0.27501878 0.22373325 0.22353333 0.048565146 -0.2642167 0.057256754 -0.17545938 0.2352353 -0.40942878 -0.12206831 -0.066909045
0.16525798 -0.2612624 -0.30899954 -0.30522925 0.14621103 -0.3373552 0.060227834 0.042358983 0.26934186 0.06865924 -0.37376362 0.08689543 -0.13312551 -0.101459734 -0.066354886 0.10024249 0.05978272 -0.074577354 -0.014967752 0.2583671 0.17755033 -0.2651876 0.118821874 -0.13782206 -0.24022369 0.10906456 -0.19190107 -0.14369413 0.1427995 0.16444537 -0.0042349654 0.031775147 -0.25121891 -0.11191572 0.14808632 -0.38732758 -0.3068489 -0.19224346 -0.14502396 0.11463057 0.22676422 0.099310026 -0.13524368 -0.26251554 0.0026346191 -0.04473115 -0.08505727 0.08318522 0.03066922 0.14682317 -0.19706072 -0.058976978 0.05920039 -0.11675876 0.09061228 -0.051455583 0.04952553 0.19205402 -0.11273367 -0.1337151 0.1631832 0.056073043 -0.37320957 0.016884949
