-0.058623895 -0.123258345 -0.021772902 -0.013837763 -0.060321417 0.30376077 0.17921624 0.062198546 -0.32510838 -0.14168859 -0.05664217 -0.08510711 0.30419448 0.068435274 0.008844987 0.17686085 -0.098223396 -0.050836943 -0.1213626 -0.029756838 0.05990299 0.21108083 0.0328763 0.11183423 0.07174755 -0.17182797 -0.093917646 -0.23490271 -0.2848402 -0.0032898348 0.14151584 -0.3697228 -0.26865426 -0.080740966 -0.017565962 -0.23142384 0.1185482 -0.21719821 0.025438081 -0.2095506 0.036128256 0.18824533 -0.1414211 0.011290201 0.019606162 -0.049742103 -0.2536413 0.029021556 0.18457477 -0.20529853 -0.058785927 0.07031781 0.007834466 -0.052587233 -0.106466345 -0.08089149 0.087511584 -0.17545342 -0.31969687 0.09184914 0.064090356 -0.16313028 -0.030540643 -0.2511893
0.08566355 -0.07614823 0.025798196 -0.11159432 0.09565097 0.16037095 -0.20071208 0.23657069 -0.056989063 -0.11680456 0.28240883 -0.054135215 -0.040781807 -0.32655537 -0.24626869 0.13219316 -0.23455808 -0.063358046 0.072266355 -0.20580088 -0.3481638 -0.19514622 0.041108266 0.09889525 0.025766937 0.0857453 0.12200049 0.058607586 -0.10965155 -0.21140109 -0.2864276 0.13745913 0.1181793 0.17755267 -0.037590727 -0.058001272 -0.12434544 0.3132838 0.067725085 0.09955161 -0.087480575 -0.4031524 0.07862374 0.014689907 -0.096951224 0.10772244 -0.021969149 0.18603304 -0.08498564 0.09291974 -0.089906 -0.28557068 0.12798633 0.27137518 0.089234084 -0.2942444 -0.14728469 -0.1644289 -0.34972954 0.10223064 -0.37357235 0.11932974 -0.06878792 0.08603996
-0.04247457 -0.24582143 0.17057407 -0.15359195 0.011436067 -0.25954193 0.09770326 -0.15495108 -0.18080483 0.115092106 0.0591433 -0.11723054 0.069367744 -0.21965592 0.06124639 0.15928027 -0.1081311 -0.12572038 -0.03318285 0.041825324 -0.1904701 -0.11946108 -0.24794182 -0.07789964 0.14637446 0.11724246 0.05195308 -0.24892901 -0.25824544 -0.16210453 -0.13736276 0.037711214 0.19656377 0.04493275 -0.1537188 -0.009986967 -0.10933913 -0.24956855 0.050055664 0.11778101 -0.13904911 0.08040589 -0.119068354 -0.011565901 0.14091535 0.016676087 0.022939784 -0.012584687 0.1126051 0.13814251 0.047799475 0.09564599 -0.10702837 -0.020586424 -0.017788865 0.26738107 0.04878298 -0.054698963 0.09220529 0.130866 0.028885845 -0.23108488 0.05856823 -0.36272272
-0.06403704 0.020735852 -0.08476847 0.18671635 0.0191677 0.094407715 -0.046487857 -0.022377199 -0.0014928583 -0.08317999 0.15412773 -0.0011273235 -0.18159422 -0.19684817 0.108458504 0.016167918 0.2545149 -0.097523116 0.05851273 -0.130019 -0.3211445 0.114548855 -0.17864874 0.11006884 -0.054405145 0.13359964 0.17720835 0.030563137 0.04835278 0.11626921 0.08002763 0.038552303 -0.18933009 -0.16629834 -0.07021502 0.14604919 -0.14738202 -0.12390671 -0.11573134 -0.024478868 -0.22710408 -0.08163501 -0.047972634 -0.011643995 0.1763736 0.030340796 -0.0320168 -0.23406702 -0.034167595 -0.0872605 0.09839037 -0.09009621 0.13574776 -0.2264371 0.011349994 -0.12471751 -0.1230003 -0.02040732 -0.097778 -0.2138783 0.13059323 -0.059961952 0.016125267 -0.17890348
-0.04913038 -0.11181036 -0.033814892 0.045387838 0.10176134 0.041082647 0.0024786482 -0.12172163 -0.034985807 0.24293381 0.07767658 -0.03618994 0.043890245 0.122659005 -0.029458946 -0.2688155 -0.032176152 0.010402819 -0.027370289 -0.20952564 0.007389305 0.0332669 -0.32300416 -0.2593145 -0.13918087 -0.21281736 -0.095081605 -0.09875173 0.1628416 -0.2219169 -0.03781253 -0.23276925 0.056588154 0.18409348 -0.051534705 -0.19655219 0.06092952 0.17859724 -0.078813195 -0.055085104 0.070818834 0.060190886 0.08582298 0.029345855 -0.015336573 0.018489527 0.083559304 0.11864628 -0.19293985 0.030971408 0.045321286 -0.0035883354 -0.11827315 0.16486946 -0.02155093 0.012046912 0.1158342 0.15543768 -0.037046086 0.09432697 -0.13870046 -0.3025786 0.06355784 0.13009402
-0.060923707 0.11507245 -0.14907596 0.12452378 -0.006841299 -0.23255302 -0.16739826 0.09981724 0.0466557 -0.064183116 0.009119391 0.082420334 -0.14372657 0.101867944 0.13382012 -0.18009503 -0.23597091 -0.1351379 -0.08477759 0.17700277 -0.019059243 0.07104871 0.12551479 0.18314686 -0.036067136 0.15117668 -0.08891149 0.08019653 0.08979859 0.12978813 0.067338735 0.05251093 -0.16392381 -0.22707719 0.05781625 0.17205466 0.008840811 -0.21164618 0.05673482 0.021180315 -0.19280683 -0.06924672 0.028138133 0.052105103 -0.15577076 -0.28967318 -0.18258552 -0.26863262 -0.07122416 -0.19661455 -0.04090308 0.1303987 -0.068495914 -0.08620343 -0.015695529 -0.02934384 0.018578108 -0.10864892 -0.044060145 0.07773309 0.059086543 0.10838244 0.063581906 0.16299736
-0.050263666 0.04937725 -0.26097444 -0.19324808 0.069672965 0.18495302 0.07050222 -0.14449081 0.088793255 0.08378775 0.08687218 -0.07494509 0.14534223 0.12989382 -0.31393546 -0.39711088 -0.098721206 0.07240756 0.049706563 0.11697588 0.085647754 -0.11273962 -0.11362942 0.045556683 0.009568438 0.022085153 -0.16369934 -0.098642886 -0.35155037 0.045896783 0.066829085 -0.1780947 -0.007374748 0.08004837 -0.099025406 0.058423914 0.10340968 0.060242202 0.067477524 0.17732736 -0.20200819 0.12469506 0.043137737 -0.10693295 -0.2750872 -0.2141091 0.045640405 -0.115805216 0.061776057 0.028761387 0.13566203 -0.05886309 -0.30979666 0.02759982 -0.035477165 -0.1821621 -0.067590356 -0.086811826 -0.09657268 -0.006612276 0.09540924 0.1521565 -0.43612644 0.0013893008
0.1075752 -0.16351847 0.17104225 -0.29519928 -0.06629587 -0.010529151 -0.08212428 0.078367054 -0.26799792 -0.13786453 -0.16229336 -0.02397193 -0.23416679 -0.09943186 0.111219645 0.1193474 0.14345603 -0.08001904 0.0339258 0.13820931 0.12396151 0.011494675 0.022562834 -0.063485734 0.01041145 -0.26541156 -0.137069 0.13284457 0.18323106 -0.23236616 -0.27677494 0.004010433 -0.015320781 0.07792922 -0.009278342 -0.037470903 -0.26595652 0.022738127 -0.05772879 -0.23633195 0.12238726 -0.054503344 0.024149975 -0.024291385 0.15113902 0.14111328 0.10136123 0.006652569 0.062261872 0.09967899 -0.20346875 -0.30899456 0.055308893 -0.27120292 0.087231115 0.053371217 -0.027460318 -0.17562968 0.072779655 0.07955134 -0.10950363 -0.3397616 0.11308364 0.035064533
-0.017310936 0.19610387 -0.38743478 -0.020266622 0.07501124 -0.3166723 0.13181295 0.10326609 0.0013348892 -0.107079946 -0.14517228 -0.03872158 -0.16256088 -0.17155081 0.05203837 -0.021429846 0.10765514 0.08806909 -0.016287135 -0.060348053 -0.19714391 -0.26379645 0.031708427 -0.053240087 -0.0047315974 -0.004022856 0.18407059 0.09139615 0.08794982 -0.036090627 -0.050674837 0.003655646 0.097906254 -0.06674785 0.09478322 -0.10432976 0.21802765 -0.20951141 0.04305947 0.16606249 0.13906394 -0.060713183 -0.15395485 -0.128977 -0.04250704 -0.33246523 0.043342583 0.27180275 0.1777172 -0.17226411 0.0067845746 0.14572516 0.021557713 -0.09727298 0.024564425 -0.23745635 -0.2022807 0.05121598 0.061752014 -0.16899988 0.04880157 -0.016960133 -0.025173116 -0.04823649
0.080912836 -0.120739125 -0.048653875 0.11112558 -0.08959908 -0.01068884 0.11979896 -0.10681677 0.13836664 0.11876748 -0.03801908 -0.018724024 0.23952493 0.19765042 0.06955588 0.0416153 -0.04484809 -0.0057505853 0.040857255 -0.12755078 0.12563048 -0.080263734 -0.1034515 0.0146325715 -0.24122822 0.094520755 0.006936576 0.17181599 0.10401464 0.023789877 -0.17560752 -0.24381456 -0.0004955807 -0.32008514 -0.111988686 -0.23334007 -0.06968846 -0.05207158 -0.06023447 -0.1004816 0.08906345 -0.0011362096 -0.024264956 -0.20461318 -0.42535776 0.19278117 -0.002412473 -0.11308307 -0.19856042 -0.27312735 -0.30275702 0.019883355 0.059415396 0.07884797 -0.064517245 0.028152373 0.027861916 0.22197798 0.061276585 -0.33555987 -0.12432411 0.014431828 0.18265782 -0.15219127
